~o
<STREAMINFO> 1 39
<VECSIZE> 39<NULLD><MFCC_D_A_0><DIAGC>
~h "@"
<BEGINHMM>
<NUMSTATES> 5
<STATE> 2
<MEAN> 39
 -7.050273e+00 -2.522710e+00 -3.369625e+00 -4.812075e+00 -7.521351e+00 -3.295588e+00 -7.685480e+00 -5.320995e+00 -2.772689e+00 -3.003211e+00 -2.930354e+00 -4.491029e+00 5.278526e+01 1.015843e-02 -8.246368e-04 -6.945870e-04 -4.303836e-03 -3.755064e-03 4.553765e-04 -3.040560e-03 -9.049757e-03 2.944504e-03 2.032167e-03 -1.454629e-03 -6.282983e-03 2.813775e-02 1.096339e-04 -3.242646e-05 3.711752e-05 -8.446475e-05 -1.545688e-04 7.183539e-05 -9.263594e-05 9.681391e-05 -1.666633e-04 -3.080955e-05 1.878808e-04 -8.169051e-05 2.065670e-05
<VARIANCE> 39
 7.479698e+01 5.092265e+01 7.150060e+01 5.680619e+01 7.054458e+01 5.720896e+01 6.110303e+01 7.108693e+01 6.031462e+01 4.184637e+01 4.733213e+01 3.946733e+01 2.404850e+02 2.728338e+00 2.465255e+00 2.728452e+00 2.763679e+00 3.374865e+00 2.994536e+00 3.203228e+00 3.690625e+00 3.314061e+00 2.628834e+00 2.905086e+00 2.463669e+00 5.273279e+00 4.078243e-01 3.942788e-01 4.285501e-01 4.711798e-01 5.930675e-01 5.369507e-01 5.776576e-01 6.515280e-01 5.868272e-01 4.932286e-01 5.301014e-01 4.511670e-01 6.925774e-01
<GCONST> 1.316781e+02
<STATE> 3
<MEAN> 39
 -7.012596e+00 -2.525017e+00 -3.371438e+00 -4.827915e+00 -7.535274e+00 -3.294717e+00 -7.698657e+00 -5.351715e+00 -2.763682e+00 -2.996081e+00 -2.934164e+00 -4.514078e+00 5.288718e+01 1.058852e-02 -8.719917e-04 -5.247337e-04 -4.479520e-03 -4.162094e-03 6.093624e-04 -3.362865e-03 -8.663920e-03 2.262119e-03 1.804133e-03 -9.678319e-04 -6.681337e-03 2.805980e-02 1.026156e-04 -3.859386e-05 6.158769e-05 -4.681788e-05 -1.511536e-04 3.654655e-05 -9.902183e-05 1.550596e-04 -1.979976e-04 -6.149559e-05 1.158972e-04 -1.466153e-04 -8.661785e-06
<VARIANCE> 39
 7.501202e+01 5.103201e+01 7.166339e+01 5.688034e+01 7.066001e+01 5.735627e+01 6.122494e+01 7.130650e+01 6.055986e+01 4.199752e+01 4.746878e+01 3.953337e+01 2.393637e+02 2.741119e+00 2.475572e+00 2.737525e+00 2.771844e+00 3.385959e+00 2.999663e+00 3.211243e+00 3.701140e+00 3.326910e+00 2.635255e+00 2.912276e+00 2.471498e+00 5.304273e+00 4.097576e-01 3.957595e-01 4.300642e-01 4.724225e-01 5.949474e-01 5.375124e-01 5.788265e-01 6.533898e-01 5.886175e-01 4.940414e-01 5.312835e-01 4.523422e-01 6.963771e-01
<GCONST> 1.317855e+02
<STATE> 4
<MEAN> 39
 -7.074230e+00 -2.513549e+00 -3.313418e+00 -4.926289e+00 -7.426289e+00 -3.271819e+00 -7.809815e+00 -5.424748e+00 -2.853604e+00 -3.023165e+00 -2.933808e+00 -4.526867e+00 5.278587e+01 1.112065e-02 -5.487748e-04 3.632357e-04 -4.536866e-03 -4.421044e-03 6.950365e-04 -3.732516e-03 -7.732688e-03 1.174198e-03 1.479505e-03 -4.757135e-04 -6.861641e-03 2.717655e-02 9.770509e-05 -3.155847e-06 1.264259e-04 1.318740e-05 -1.250820e-04 5.634972e-05 -3.117159e-05 1.312286e-04 -2.016935e-04 -8.006401e-05 4.862650e-05 -1.016015e-04 -9.779647e-05
<VARIANCE> 39
 7.516388e+01 5.089582e+01 7.162315e+01 5.757232e+01 7.081789e+01 5.683866e+01 6.155645e+01 7.023252e+01 6.102370e+01 4.183170e+01 4.746303e+01 3.923151e+01 2.382356e+02 2.711807e+00 2.457158e+00 2.719703e+00 2.773857e+00 3.357883e+00 2.974878e+00 3.200552e+00 3.662882e+00 3.308575e+00 2.622075e+00 2.899715e+00 2.453984e+00 5.273120e+00 4.051280e-01 3.928933e-01 4.274305e-01 4.710936e-01 5.892388e-01 5.325432e-01 5.756431e-01 6.475118e-01 5.846403e-01 4.908489e-01 5.279537e-01 4.491009e-01 6.887783e-01
<GCONST> 1.315899e+02
<TRANSP> 5
 0.000000e+00 1.000000e+00 0.000000e+00 0.000000e+00 0.000000e+00
 0.000000e+00 7.232008e-01 2.767992e-01 0.000000e+00 0.000000e+00
 0.000000e+00 0.000000e+00 7.232078e-01 2.767923e-01 0.000000e+00
 0.000000e+00 0.000000e+00 0.000000e+00 8.487757e-01 1.512243e-01
 0.000000e+00 0.000000e+00 0.000000e+00 0.000000e+00 0.000000e+00
<ENDHMM>
~h "a"
<BEGINHMM>
<NUMSTATES> 5
<STATE> 2
<MEAN> 39
 -6.719080e+00 -2.783835e+00 -3.595555e+00 -4.780036e+00 -7.105258e+00 -3.015069e+00 -7.351391e+00 -5.016460e+00 -2.503068e+00 -3.199517e+00 -3.256910e+00 -4.772038e+00 5.337354e+01 4.737034e-04 4.444094e-04 1.018894e-04 -5.360466e-04 2.441216e-03 2.478383e-03 8.159687e-04 -2.400977e-03 2.500431e-03 5.410522e-04 -3.515277e-03 -3.382168e-03 9.346697e-04 -2.873249e-04 4.713788e-04 3.722992e-04 3.465113e-06 -2.674655e-04 6.568077e-06 -1.239206e-04 4.359066e-06 -3.247583e-04 1.098131e-04 3.168589e-04 3.434057e-04 -8.067362e-04
<VARIANCE> 39
 6.918863e+01 5.456223e+01 7.619149e+01 6.019798e+01 7.012157e+01 5.588179e+01 5.980655e+01 6.865231e+01 5.889023e+01 4.125822e+01 4.791179e+01 4.165127e+01 2.397998e+02 2.552962e+00 2.528443e+00 2.796344e+00 2.737345e+00 3.325484e+00 2.909970e+00 3.107607e+00 3.656516e+00 3.252944e+00 2.595743e+00 2.874161e+00 2.491327e+00 5.093098e+00 3.851765e-01 3.933668e-01 4.269288e-01 4.627657e-01 5.814124e-01 5.205724e-01 5.629461e-01 6.471447e-01 5.726519e-01 4.874752e-01 5.234158e-01 4.509442e-01 6.573700e-01
<GCONST> 1.312892e+02
<STATE> 3
<MEAN> 39
 -6.718334e+00 -2.780913e+00 -3.594254e+00 -4.781649e+00 -7.097067e+00 -3.006254e+00 -7.348495e+00 -5.024335e+00 -2.494965e+00 -3.197540e+00 -3.269026e+00 -4.782720e+00 5.337460e+01 -5.398362e-04 1.859382e-03 1.361075e-03 -2.745194e-04 1.354376e-03 2.281496e-03 4.412105e-04 -1.936470e-03 1.265325e-03 6.803329e-04 -2.367789e-03 -1.921663e-03 -1.788056e-03 -2.404283e-04 3.137581e-04 2.867418e-04 1.282210e-05 -2.730938e-04 -4.311132e-05 -9.986704e-05 1.577342e-04 -3.201287e-04 1.279366e-05 2.940095e-04 3.426417e-04 -5.730236e-04
<VARIANCE> 39
 6.912312e+01 5.464857e+01 7.635718e+01 6.010817e+01 7.013085e+01 5.582859e+01 5.974865e+01 6.846432e+01 5.882056e+01 4.120656e+01 4.792836e+01 4.159038e+01 2.397470e+02 2.549224e+00 2.526239e+00 2.796642e+00 2.732596e+00 3.321671e+00 2.907066e+00 3.104990e+00 3.651109e+00 3.248674e+00 2.591741e+00 2.872257e+00 2.488414e+00 5.092412e+00 3.845295e-01 3.928595e-01 4.267051e-01 4.620040e-01 5.806009e-01 5.200486e-01 5.625167e-01 6.460418e-01 5.719105e-01 4.868418e-01 5.230028e-01 4.503118e-01 6.568850e-01
<GCONST> 1.312534e+02
<STATE> 4
<MEAN> 39
 -6.806374e+00 -2.722780e+00 -3.513142e+00 -4.865616e+00 -6.926358e+00 -2.959964e+00 -7.428088e+00 -5.074230e+00 -2.552017e+00 -3.203941e+00 -3.269909e+00 -4.750020e+00 5.313866e+01 -1.395699e-03 2.786247e-03 2.286831e-03 1.574429e-05 3.913652e-04 1.852194e-03 1.674724e-04 -9.742164e-04 1.371734e-04 3.868628e-04 -1.366842e-03 -2.675428e-04 -3.904060e-03 -1.729166e-04 1.780047e-04 1.736415e-04 -1.019567e-05 -2.104714e-04 -4.871788e-05 -9.115276e-05 1.451965e-04 -2.508919e-04 -2.315575e-05 2.060704e-04 2.550475e-04 -3.301908e-04
<VARIANCE> 39
 6.916559e+01 5.436356e+01 7.620251e+01 6.100650e+01 7.025854e+01 5.513753e+01 5.980853e+01 6.736662e+01 5.861148e+01 4.085733e+01 4.765165e+01 4.107377e+01 2.402227e+02 2.502377e+00 2.487885e+00 2.764923e+00 2.718565e+00 3.276968e+00 2.874734e+00 3.079732e+00 3.597991e+00 3.207159e+00 2.561904e+00 2.845787e+00 2.458442e+00 5.012224e+00 3.771054e-01 3.870485e-01 4.216947e-01 4.581741e-01 5.713325e-01 5.137404e-01 5.570920e-01 6.369364e-01 5.645813e-01 4.811526e-01 5.174995e-01 4.455164e-01 6.434176e-01
<GCONST> 1.308744e+02
<TRANSP> 5
 0.000000e+00 1.000000e+00 0.000000e+00 0.000000e+00 0.000000e+00
 0.000000e+00 7.255695e-01 2.744304e-01 0.000000e+00 0.000000e+00
 0.000000e+00 0.000000e+00 7.255570e-01 2.744430e-01 0.000000e+00
 0.000000e+00 0.000000e+00 0.000000e+00 8.518420e-01 1.481580e-01
 0.000000e+00 0.000000e+00 0.000000e+00 0.000000e+00 0.000000e+00
<ENDHMM>
~h "b"
<BEGINHMM>
<NUMSTATES> 5
<STATE> 2
<MEAN> 39
 -6.364902e+00 -1.729284e+00 -2.785135e+00 -4.833830e+00 -7.709034e+00 -2.912143e+00 -7.844813e+00 -5.482031e+00 -3.200487e+00 -3.049912e+00 -2.811880e+00 -4.434220e+00 5.286525e+01 1.093524e-02 3.352514e-03 4.826555e-03 -9.040595e-03 -5.072486e-03 6.231445e-03 -6.429154e-03 -8.215779e-03 3.141884e-04 3.971925e-03 -1.806376e-04 -7.338868e-03 2.563173e-02 -5.348895e-04 2.238930e-04 -9.876123e-05 -8.066018e-04 3.507744e-04 8.485194e-04 2.312172e-05 -1.297322e-03 7.171548e-04 1.121601e-03 -2.146217e-04 -9.829230e-04 -5.157844e-04
<VARIANCE> 39
 7.377566e+01 5.269809e+01 7.402048e+01 6.143967e+01 7.039242e+01 5.744946e+01 5.883474e+01 7.274763e+01 6.279833e+01 4.159388e+01 4.820986e+01 4.027720e+01 2.383286e+02 2.544537e+00 2.551244e+00 2.790893e+00 2.916398e+00 3.407188e+00 3.020228e+00 3.175390e+00 3.697205e+00 3.478083e+00 2.683298e+00 2.983517e+00 2.482930e+00 5.061373e+00 3.765893e-01 4.043454e-01 4.297618e-01 4.919518e-01 5.986383e-01 5.394918e-01 5.785187e-01 6.488495e-01 6.080328e-01 5.061089e-01 5.454126e-01 4.557010e-01 6.638514e-01
<GCONST> 1.320376e+02
<STATE> 3
<MEAN> 39
 -6.326161e+00 -1.714203e+00 -2.767392e+00 -4.871870e+00 -7.725075e+00 -2.882412e+00 -7.868955e+00 -5.521728e+00 -3.195667e+00 -3.026444e+00 -2.815168e+00 -4.467363e+00 5.295710e+01 9.161443e-03 3.468605e-03 4.553204e-03 -9.424715e-03 -4.534296e-03 7.560993e-03 -5.745000e-03 -1.083434e-02 1.351081e-03 6.628204e-03 -5.094865e-04 -8.832327e-03 2.343357e-02 -4.562968e-04 -9.562058e-07 -6.490793e-05 9.124601e-05 8.211243e-05 2.427794e-04 2.850025e-04 -5.929445e-04 1.911915e-04 5.701696e-04 -5.190314e-05 -2.857826e-04 -6.693116e-04
<VARIANCE> 39
 7.400685e+01 5.289593e+01 7.429258e+01 6.113033e+01 7.055640e+01 5.755894e+01 5.907206e+01 7.232069e+01 6.295448e+01 4.163391e+01 4.835231e+01 3.997006e+01 2.373322e+02 2.548511e+00 2.557700e+00 2.798696e+00 2.912155e+00 3.413154e+00 3.019301e+00 3.187859e+00 3.680437e+00 3.485485e+00 2.681917e+00 2.989829e+00 2.475717e+00 5.067154e+00 3.766104e-01 4.051281e-01 4.306291e-01 4.909799e-01 5.991767e-01 5.390878e-01 5.802034e-01 6.461856e-01 6.084576e-01 5.056940e-01 5.462381e-01 4.545923e-01 6.648526e-01
<GCONST> 1.320496e+02
<STATE> 4
<MEAN> 39
 -6.363034e+00 -1.670246e+00 -2.673214e+00 -4.974234e+00 -7.645689e+00 -2.791806e+00 -7.955920e+00 -5.607759e+00 -3.271429e+00 -3.028227e+00 -2.815957e+00 -4.479372e+00 5.286292e+01 7.440944e-03 2.524514e-03 4.204119e-03 -5.861363e-03 -4.688450e-03 5.864370e-03 -3.721181e-03 -8.794690e-03 5.672461e-04 6.188377e-03 -5.246067e-04 -6.689365e-03 1.955348e-02 -3.680040e-04 -2.141604e-04 -3.978661e-05 7.101028e-04 -7.352885e-05 -3.527321e-04 4.627573e-04 3.589515e-04 -1.531699e-04 -1.603315e-04 4.883255e-05 3.615963e-04 -8.392096e-04
<VARIANCE> 39
 7.393398e+01 5.286349e+01 7.441748e+01 6.157510e+01 7.089255e+01 5.721433e+01 5.954761e+01 7.080370e+01 6.328090e+01 4.137737e+01 4.827017e+01 3.925697e+01 2.367509e+02 2.510876e+00 2.539278e+00 2.780244e+00 2.907790e+00 3.379339e+00 2.989993e+00 3.180604e+00 3.626074e+00 3.463327e+00 2.666462e+00 2.974062e+00 2.450653e+00 5.024550e+00 3.704010e-01 4.019025e-01 4.274573e-01 4.885467e-01 5.919054e-01 5.332048e-01 5.771401e-01 6.378363e-01 6.035969e-01 5.023231e-01 5.425525e-01 4.505260e-01 6.574103e-01
<GCONST> 1.317961e+02
<TRANSP> 5
 0.000000e+00 1.000000e+00 0.000000e+00 0.000000e+00 0.000000e+00
 0.000000e+00 7.255006e-01 2.744994e-01 0.000000e+00 0.000000e+00
 0.000000e+00 0.000000e+00 7.254952e-01 2.745047e-01 0.000000e+00
 0.000000e+00 0.000000e+00 0.000000e+00 8.513433e-01 1.486568e-01
 0.000000e+00 0.000000e+00 0.000000e+00 0.000000e+00 0.000000e+00
<ENDHMM>
~h "c"
<BEGINHMM>
<NUMSTATES> 5
<STATE> 2
<MEAN> 39
 -7.266160e+00 -2.427076e+00 -3.000475e+00 -4.518161e+00 -7.769473e+00 -3.726476e+00 -7.436543e+00 -5.008823e+00 -3.021150e+00 -3.110163e+00 -2.923930e+00 -4.311460e+00 5.301618e+01 3.242926e-03 -2.232124e-03 -5.850776e-03 -2.683412e-03 5.963645e-03 4.013533e-03 -2.609836e-03 -8.521659e-04 3.446327e-03 1.388600e-03 -4.684375e-03 -9.861446e-03 6.780823e-03 -6.330144e-05 1.693646e-04 -4.749781e-04 4.547382e-05 3.044002e-04 3.053552e-04 1.114202e-04 2.273651e-04 1.573672e-04 1.271000e-04 -6.952913e-05 -1.692973e-04 -6.887888e-04
<VARIANCE> 39
 7.319846e+01 5.231883e+01 7.237559e+01 5.618808e+01 7.285080e+01 5.724516e+01 5.999359e+01 6.793387e+01 5.953498e+01 4.081424e+01 4.619322e+01 3.972153e+01 2.355620e+02 3.387989e+00 2.617904e+00 2.857866e+00 2.748936e+00 3.601516e+00 3.054370e+00 3.174304e+00 3.736549e+00 3.333436e+00 2.640446e+00 2.812426e+00 2.473270e+00 5.564922e+00 5.509539e-01 4.287870e-01 4.572079e-01 4.766553e-01 6.357005e-01 5.532029e-01 5.767496e-01 6.715025e-01 5.896816e-01 5.009646e-01 5.175635e-01 4.546847e-01 7.244126e-01
<GCONST> 1.326565e+02
<STATE> 3
<MEAN> 39
 -7.255608e+00 -2.434037e+00 -3.022699e+00 -4.527305e+00 -7.748560e+00 -3.716595e+00 -7.445513e+00 -5.005465e+00 -3.009291e+00 -3.100962e+00 -2.941284e+00 -4.348875e+00 5.304275e+01 2.934521e-03 -1.827340e-03 -7.520134e-03 -2.215294e-03 6.593758e-03 4.232010e-03 -1.896428e-03 6.467412e-04 3.308984e-03 1.016091e-03 -4.381523e-03 -9.451689e-03 4.366868e-03 -2.199971e-04 2.377819e-04 -3.909418e-04 1.317432e-04 1.877612e-04 -5.260661e-05 2.002064e-04 4.021761e-04 -4.693458e-05 -1.306594e-04 1.022797e-04 3.287755e-04 -7.124553e-04
<VARIANCE> 39
 7.317164e+01 5.243190e+01 7.230730e+01 5.591645e+01 7.277779e+01 5.724757e+01 6.010285e+01 6.761671e+01 5.946453e+01 4.071841e+01 4.624833e+01 3.965114e+01 2.355992e+02 3.420021e+00 2.625021e+00 2.865737e+00 2.744776e+00 3.593989e+00 3.053159e+00 3.180951e+00 3.722118e+00 3.331797e+00 2.632096e+00 2.810318e+00 2.471702e+00 5.591189e+00 5.569613e-01 4.303591e-01 4.595332e-01 4.765438e-01 6.345915e-01 5.536628e-01 5.776439e-01 6.691687e-01 5.904156e-01 4.991578e-01 5.170875e-01 4.544987e-01 7.278208e-01
<GCONST> 1.326710e+02
<STATE> 4
<MEAN> 39
 -7.318928e+00 -2.416258e+00 -2.998204e+00 -4.600887e+00 -7.586944e+00 -3.670205e+00 -7.582675e+00 -5.063188e+00 -3.035197e+00 -3.084366e+00 -2.953290e+00 -4.365592e+00 5.287184e+01 2.503844e-03 -1.098678e-03 -7.518452e-03 -1.750896e-03 6.123523e-03 2.094277e-03 -1.829988e-03 2.900461e-03 1.835223e-03 1.831961e-04 -3.428111e-03 -7.251963e-03 3.989879e-03 -2.076761e-04 2.283474e-04 -1.160262e-04 1.258819e-04 1.150040e-04 -1.513540e-04 1.655939e-04 2.156739e-04 -1.950465e-04 -2.989018e-04 1.648282e-04 6.254185e-04 -6.098371e-04
<VARIANCE> 39
 7.348938e+01 5.235275e+01 7.179504e+01 5.656623e+01 7.289188e+01 5.663982e+01 6.096730e+01 6.642506e+01 5.935818e+01 4.025654e+01 4.602440e+01 3.912400e+01 2.360123e+02 3.416961e+00 2.609247e+00 2.862274e+00 2.743260e+00 3.554683e+00 3.021209e+00 3.173890e+00 3.665224e+00 3.303240e+00 2.600231e+00 2.782993e+00 2.444837e+00 5.560266e+00 5.572328e-01 4.283096e-01 4.600846e-01 4.749337e-01 6.270222e-01 5.483617e-01 5.748375e-01 6.592296e-01 5.867974e-01 4.928414e-01 5.105524e-01 4.504723e-01 7.212316e-01
<GCONST> 1.324436e+02
<TRANSP> 5
 0.000000e+00 1.000000e+00 0.000000e+00 0.000000e+00 0.000000e+00
 0.000000e+00 7.262248e-01 2.737752e-01 0.000000e+00 0.000000e+00
 0.000000e+00 0.000000e+00 7.262257e-01 2.737743e-01 0.000000e+00
 0.000000e+00 0.000000e+00 0.000000e+00 8.521268e-01 1.478732e-01
 0.000000e+00 0.000000e+00 0.000000e+00 0.000000e+00 0.000000e+00
<ENDHMM>
~h "d"
<BEGINHMM>
<NUMSTATES> 5
<STATE> 2
<MEAN> 39
 -6.427648e+00 -2.283729e+00 -2.484553e+00 -4.363086e+00 -8.197390e+00 -3.493988e+00 -8.068357e+00 -5.222346e+00 -2.847374e+00 -3.203669e+00 -3.058170e+00 -4.541486e+00 5.346588e+01 9.205029e-03 -9.806043e-04 1.004215e-02 8.972695e-04 -5.590859e-03 -2.492065e-03 -4.825727e-03 -2.118369e-03 9.094182e-04 3.410039e-04 -5.706497e-03 -4.661689e-03 1.467212e-02 -2.528613e-04 2.583944e-04 -1.883171e-04 -4.555150e-04 4.134398e-04 5.213934e-04 3.965667e-04 -3.339849e-04 2.224385e-04 2.575698e-04 -7.918761e-05 -3.193832e-04 -7.027000e-04
<VARIANCE> 39
 7.034387e+01 5.353075e+01 7.978556e+01 5.842073e+01 7.457556e+01 5.761924e+01 6.200114e+01 7.331862e+01 6.222134e+01 4.157476e+01 5.009936e+01 3.982827e+01 2.350348e+02 2.491558e+00 2.561871e+00 2.848526e+00 2.781980e+00 3.601929e+00 2.967656e+00 3.254196e+00 3.846792e+00 3.349606e+00 2.615412e+00 3.001844e+00 2.451619e+00 5.250771e+00 3.762655e-01 4.104830e-01 4.281471e-01 4.672928e-01 6.331427e-01 5.295349e-01 5.887585e-01 6.801995e-01 5.911071e-01 4.934393e-01 5.432017e-01 4.493179e-01 6.904001e-01
<GCONST> 1.322089e+02
<STATE> 3
<MEAN> 39
 -6.393636e+00 -2.284154e+00 -2.447004e+00 -4.361815e+00 -8.217611e+00 -3.500239e+00 -8.085176e+00 -5.231521e+00 -2.842845e+00 -3.200698e+00 -3.079220e+00 -4.560508e+00 5.351646e+01 8.013773e-03 -3.032970e-05 9.343903e-03 1.776093e-04 -4.521442e-03 -1.430213e-03 -3.338971e-03 -2.391040e-03 1.265126e-03 8.279739e-04 -5.608043e-03 -4.920307e-03 1.223330e-02 -3.260570e-04 2.560146e-04 -2.051785e-04 -1.159525e-04 2.862306e-04 2.506707e-04 4.229141e-04 -6.540000e-05 8.648506e-05 7.656636e-05 5.309003e-05 -4.117677e-05 -6.986581e-04
<VARIANCE> 39
 7.013470e+01 5.372062e+01 8.002026e+01 5.814380e+01 7.481432e+01 5.773999e+01 6.218130e+01 7.323818e+01 6.238190e+01 4.159907e+01 5.028632e+01 3.964690e+01 2.342654e+02 2.491587e+00 2.567728e+00 2.853961e+00 2.775747e+00 3.611304e+00 2.967028e+00 3.262511e+00 3.842411e+00 3.350789e+00 2.613488e+00 3.009427e+00 2.445318e+00 5.267394e+00 3.764078e-01 4.115305e-01 4.283954e-01 4.658025e-01 6.351230e-01 5.294107e-01 5.901955e-01 6.790392e-01 5.910491e-01 4.930444e-01 5.444696e-01 4.482319e-01 6.926631e-01
<GCONST> 1.322285e+02
<STATE> 4
<MEAN> 39
 -6.465374e+00 -2.240601e+00 -2.346841e+00 -4.406139e+00 -8.108047e+00 -3.469306e+00 -8.153541e+00 -5.288978e+00 -2.885372e+00 -3.228473e+00 -3.098850e+00 -4.552263e+00 5.332281e+01 6.884105e-03 1.248139e-03 8.550838e-03 8.550215e-04 -4.132625e-03 -1.429347e-03 -1.966240e-03 -1.475392e-03 8.643520e-04 4.115539e-04 -4.892518e-03 -4.104735e-03 9.860808e-03 -3.274668e-04 1.784045e-04 -2.487477e-04 1.431922e-04 2.249431e-04 1.537009e-05 3.789903e-04 1.365923e-04 -7.594663e-05 -1.061887e-04 1.631585e-04 1.672211e-04 -5.895747e-04
<VARIANCE> 39
 6.991434e+01 5.373305e+01 8.018369e+01 5.836115e+01 7.507011e+01 5.731627e+01 6.242979e+01 7.212168e+01 6.247227e+01 4.117204e+01 5.027721e+01 3.906450e+01 2.344466e+02 2.459881e+00 2.545954e+00 2.830451e+00 2.756805e+00 3.572616e+00 2.937299e+00 3.248170e+00 3.787846e+00 3.311449e+00 2.590798e+00 2.994201e+00 2.412989e+00 5.215517e+00 3.714608e-01 4.079629e-01 4.243195e-01 4.612553e-01 6.275180e-01 5.237609e-01 5.866489e-01 6.690291e-01 5.840374e-01 4.887215e-01 5.413353e-01 4.429823e-01 6.826437e-01
<GCONST> 1.319303e+02
<TRANSP> 5
 0.000000e+00 1.000000e+00 0.000000e+00 0.000000e+00 0.000000e+00
 0.000000e+00 7.250619e-01 2.749382e-01 0.000000e+00 0.000000e+00
 0.000000e+00 0.000000e+00 7.250619e-01 2.749381e-01 0.000000e+00
 0.000000e+00 0.000000e+00 0.000000e+00 8.508889e-01 1.491111e-01
 0.000000e+00 0.000000e+00 0.000000e+00 0.000000e+00 0.000000e+00
<ENDHMM>
~h "e"
<BEGINHMM>
<NUMSTATES> 5
<STATE> 2
<MEAN> 39
 -7.199226e+00 -2.783502e+00 -2.293398e+00 -4.727604e+00 -8.971609e+00 -4.456955e+00 -7.361292e+00 -4.815639e+00 -3.228188e+00 -3.105948e+00 -2.593544e+00 -4.700924e+00 5.335073e+01 2.334667e-03 -1.793675e-04 5.688304e-03 6.720242e-04 -4.154805e-03 1.142547e-03 6.158361e-04 -1.480600e-03 4.104575e-04 2.317796e-03 5.259205e-05 -1.880474e-03 6.066789e-03 -1.880094e-04 1.316040e-04 -3.449513e-04 3.318438e-04 6.746414e-04 2.468157e-04 2.370428e-04 7.630109e-05 -2.269572e-04 -1.081089e-04 -2.698135e-04 4.425133e-04 -1.129401e-03
<VARIANCE> 39
 7.095657e+01 5.482767e+01 7.772971e+01 5.578399e+01 8.027778e+01 5.919351e+01 6.159416e+01 7.121107e+01 5.960114e+01 4.140525e+01 5.065934e+01 3.730170e+01 2.435719e+02 2.441056e+00 2.454263e+00 2.603438e+00 2.569552e+00 3.474519e+00 2.875215e+00 3.122821e+00 3.552809e+00 3.200264e+00 2.530847e+00 2.862732e+00 2.274453e+00 5.380152e+00 3.688065e-01 3.873165e-01 4.018118e-01 4.299211e-01 5.916097e-01 5.113651e-01 5.627469e-01 6.232154e-01 5.666870e-01 4.743872e-01 5.132194e-01 4.181249e-01 6.832783e-01
<GCONST> 1.308895e+02
<STATE> 3
<MEAN> 39
 -7.191478e+00 -2.782655e+00 -2.271528e+00 -4.723860e+00 -8.985331e+00 -4.452620e+00 -7.356199e+00 -4.821089e+00 -3.228729e+00 -3.098159e+00 -2.594388e+00 -4.706394e+00 5.337444e+01 1.571915e-03 5.843968e-04 4.243162e-03 1.618700e-03 -1.422675e-03 2.467235e-03 1.482809e-03 -1.343900e-03 -4.220190e-04 2.051456e-03 -1.039953e-03 -3.525735e-04 1.841244e-03 -2.407691e-04 1.976482e-04 -3.188763e-04 2.070053e-04 6.807798e-04 2.710134e-04 2.394788e-04 1.038955e-04 -2.653007e-04 -5.781927e-05 -3.040618e-04 4.268957e-04 -1.145346e-03
<VARIANCE> 39
 7.103709e+01 5.486847e+01 7.782848e+01 5.578619e+01 8.037356e+01 5.923698e+01 6.178316e+01 7.121529e+01 5.971049e+01 4.144584e+01 5.074674e+01 3.728319e+01 2.430030e+02 2.439641e+00 2.451735e+00 2.603207e+00 2.569104e+00 3.478334e+00 2.877267e+00 3.128180e+00 3.552059e+00 3.202327e+00 2.531533e+00 2.864768e+00 2.272044e+00 5.373863e+00 3.683388e-01 3.866540e-01 4.017916e-01 4.298414e-01 5.920389e-01 5.115143e-01 5.633544e-01 6.229004e-01 5.670946e-01 4.741850e-01 5.135573e-01 4.176444e-01 6.818409e-01
<GCONST> 1.308963e+02
<STATE> 4
<MEAN> 39
 -7.342072e+00 -2.754623e+00 -2.120754e+00 -4.806591e+00 -8.916553e+00 -4.450960e+00 -7.445157e+00 -4.873472e+00 -3.339026e+00 -3.142875e+00 -2.571575e+00 -4.668157e+00 5.309434e+01 8.595040e-04 1.887030e-03 2.891670e-03 1.914155e-03 1.245311e-03 4.275917e-03 2.504223e-03 -2.134544e-03 -1.663899e-03 2.026217e-03 -2.472306e-03 1.012877e-03 -9.629414e-04 -2.462097e-04 2.107489e-04 -3.365676e-04 7.634849e-05 5.916067e-04 2.821250e-04 1.471374e-04 -1.711382e-06 -2.207064e-04 -2.900951e-06 -2.728257e-04 3.365005e-04 -1.041569e-03
<VARIANCE> 39
 7.076209e+01 5.456723e+01 7.796098e+01 5.647590e+01 8.071980e+01 5.873567e+01 6.212814e+01 6.999287e+01 5.963749e+01 4.101270e+01 5.063913e+01 3.673606e+01 2.436326e+02 2.389027e+00 2.414987e+00 2.564686e+00 2.551839e+00 3.427593e+00 2.842945e+00 3.101773e+00 3.496212e+00 3.150224e+00 2.502757e+00 2.834958e+00 2.235071e+00 5.294120e+00 3.600965e-01 3.807421e-01 3.960190e-01 4.249345e-01 5.814100e-01 5.051094e-01 5.575667e-01 6.130528e-01 5.585838e-01 4.677236e-01 5.072687e-01 4.110042e-01 6.662931e-01
<GCONST> 1.304793e+02
<TRANSP> 5
 0.000000e+00 1.000000e+00 0.000000e+00 0.000000e+00 0.000000e+00
 0.000000e+00 7.303305e-01 2.696695e-01 0.000000e+00 0.000000e+00
 0.000000e+00 0.000000e+00 7.303255e-01 2.696745e-01 0.000000e+00
 0.000000e+00 0.000000e+00 0.000000e+00 8.574669e-01 1.425331e-01
 0.000000e+00 0.000000e+00 0.000000e+00 0.000000e+00 0.000000e+00
<ENDHMM>
~h "f"
<BEGINHMM>
<NUMSTATES> 5
<STATE> 2
<MEAN> 39
 -8.400503e+00 -2.685117e+00 -3.145891e+00 -4.398046e+00 -7.973163e+00 -3.389791e+00 -7.415327e+00 -4.978780e+00 -3.006552e+00 -3.078308e+00 -2.332320e+00 -4.295547e+00 5.318745e+01 -8.968154e-04 2.329231e-03 2.128262e-03 3.877808e-04 1.952528e-04 3.427763e-03 2.028370e-04 -9.154951e-03 3.000820e-04 6.028071e-03 -4.566330e-03 -5.037286e-03 2.852431e-03 1.438936e-04 6.566056e-04 1.381073e-04 -2.932268e-04 6.414081e-04 2.954862e-04 4.304493e-04 -2.164691e-04 -2.440312e-04 1.124321e-04 -4.905631e-04 -1.580288e-04 -1.540937e-03
<VARIANCE> 39
 8.161680e+01 5.086840e+01 7.922529e+01 5.605672e+01 7.495032e+01 5.627898e+01 5.566034e+01 6.639214e+01 5.537440e+01 3.971729e+01 4.683320e+01 3.754708e+01 2.314866e+02 3.206498e+00 2.333709e+00 2.814358e+00 2.744003e+00 3.563662e+00 2.931867e+00 3.027554e+00 3.468002e+00 3.148480e+00 2.515603e+00 2.738357e+00 2.356555e+00 4.656476e+00 4.636308e-01 3.793633e-01 4.215698e-01 4.591677e-01 6.044606e-01 5.257599e-01 5.466683e-01 6.131614e-01 5.593150e-01 4.766536e-01 4.961821e-01 4.275512e-01 5.865827e-01
<GCONST> 1.307832e+02
<STATE> 3
<MEAN> 39
 -8.403278e+00 -2.674215e+00 -3.134878e+00 -4.399283e+00 -7.971470e+00 -3.378515e+00 -7.410208e+00 -5.011616e+00 -3.013146e+00 -3.055163e+00 -2.348119e+00 -4.314803e+00 5.319227e+01 -1.336749e-04 3.563767e-03 2.792354e-03 2.857260e-04 1.752573e-03 3.087980e-03 2.108082e-03 -8.261868e-03 -1.156043e-03 6.012881e-03 -5.411194e-03 -4.735392e-03 -1.994658e-03 8.529850e-05 1.333345e-04 1.863371e-04 -3.696500e-05 3.779849e-04 -5.639801e-05 4.150396e-04 2.156102e-04 -3.992892e-04 -7.822047e-05 -1.706118e-05 1.390599e-04 -1.083649e-03
<VARIANCE> 39
 8.164334e+01 5.082705e+01 7.944183e+01 5.595693e+01 7.510104e+01 5.627492e+01 5.570501e+01 6.626680e+01 5.521026e+01 3.958768e+01 4.690923e+01 3.749899e+01 2.310424e+02 3.219455e+00 2.332490e+00 2.811645e+00 2.739280e+00 3.557465e+00 2.930523e+00 3.026980e+00 3.460914e+00 3.144290e+00 2.516041e+00 2.742370e+00 2.359933e+00 4.628048e+00 4.650121e-01 3.789023e-01 4.205521e-01 4.576693e-01 6.026316e-01 5.257968e-01 5.459751e-01 6.116390e-01 5.580524e-01 4.771117e-01 4.968415e-01 4.275102e-01 5.822561e-01
<GCONST> 1.307506e+02
<STATE> 4
<MEAN> 39
 -8.472420e+00 -2.632350e+00 -3.101458e+00 -4.556204e+00 -7.828984e+00 -3.293463e+00 -7.478159e+00 -5.105038e+00 -3.063396e+00 -3.022267e+00 -2.329963e+00 -4.284416e+00 5.297740e+01 6.045743e-04 4.411605e-03 4.499840e-03 -2.172199e-04 1.779906e-03 1.523768e-03 4.386210e-03 -7.101707e-03 -4.000056e-03 4.818877e-03 -4.561999e-03 -2.948296e-03 -5.234121e-03 3.403891e-06 -1.268964e-05 1.007962e-04 2.786280e-05 2.028426e-04 -2.800326e-05 3.038076e-04 1.066603e-04 -1.648273e-04 -2.402276e-04 1.381846e-04 2.936588e-04 -7.510677e-04
<VARIANCE> 39
 8.180819e+01 5.068612e+01 7.940150e+01 5.728839e+01 7.571619e+01 5.576353e+01 5.582769e+01 6.508184e+01 5.471904e+01 3.944125e+01 4.660640e+01 3.709689e+01 2.304414e+02 3.157760e+00 2.297481e+00 2.769245e+00 2.704030e+00 3.480872e+00 2.880175e+00 2.990269e+00 3.406587e+00 3.096668e+00 2.488536e+00 2.707245e+00 2.331992e+00 4.504276e+00 4.547903e-01 3.721166e-01 4.133230e-01 4.493750e-01 5.874587e-01 5.176250e-01 5.381883e-01 6.029654e-01 5.484866e-01 4.712299e-01 4.906195e-01 4.218429e-01 5.631452e-01
<GCONST> 1.302808e+02
<TRANSP> 5
 0.000000e+00 1.000000e+00 0.000000e+00 0.000000e+00 0.000000e+00
 0.000000e+00 7.301308e-01 2.698692e-01 0.000000e+00 0.000000e+00
 0.000000e+00 0.000000e+00 7.301297e-01 2.698703e-01 0.000000e+00
 0.000000e+00 0.000000e+00 0.000000e+00 8.585986e-01 1.414014e-01
 0.000000e+00 0.000000e+00 0.000000e+00 0.000000e+00 0.000000e+00
<ENDHMM>
~h "g"
<BEGINHMM>
<NUMSTATES> 5
<STATE> 2
<MEAN> 39
 -6.603561e+00 -1.900024e+00 -2.280015e+00 -5.033030e+00 -8.019403e+00 -3.206828e+00 -8.209624e+00 -5.428707e+00 -3.508778e+00 -2.870219e+00 -2.982655e+00 -4.658805e+00 5.320304e+01 2.619610e-03 8.375268e-03 9.550890e-03 -2.199842e-03 -9.976245e-03 2.901925e-03 -5.036686e-03 -5.806495e-03 -4.296982e-03 4.080951e-03 2.271757e-04 -8.553126e-03 1.606986e-02 -5.517752e-04 -3.789698e-04 -1.060525e-03 -1.194273e-04 6.834631e-04 2.914431e-04 5.013098e-04 -1.973270e-04 7.844554e-04 3.992178e-04 -1.463366e-04 -2.625747e-04 -7.890770e-04
<VARIANCE> 39
 6.899922e+01 5.352360e+01 8.042727e+01 6.387024e+01 7.252324e+01 5.689631e+01 6.313491e+01 7.207250e+01 6.357150e+01 4.169212e+01 4.890829e+01 4.069168e+01 2.365434e+02 2.422451e+00 2.551693e+00 2.799875e+00 2.954677e+00 3.524395e+00 2.949771e+00 3.263708e+00 3.701146e+00 3.432827e+00 2.638267e+00 2.947791e+00 2.449808e+00 4.945084e+00 3.688877e-01 4.046675e-01 4.297068e-01 4.933402e-01 6.265188e-01 5.257331e-01 5.881491e-01 6.497501e-01 6.054714e-01 4.972729e-01 5.384166e-01 4.494272e-01 6.375527e-01
<GCONST> 1.320796e+02
<STATE> 3
<MEAN> 39
 -6.597497e+00 -1.872019e+00 -2.250521e+00 -5.040401e+00 -8.054265e+00 -3.195021e+00 -8.224135e+00 -5.450166e+00 -3.520109e+00 -2.852525e+00 -2.983475e+00 -4.691533e+00 5.326001e+01 5.517026e-04 6.224889e-03 5.664822e-03 -1.672185e-03 -7.844668e-03 3.078409e-03 -2.891865e-03 -4.879535e-03 -2.054945e-03 4.494086e-03 -3.203515e-04 -8.124466e-03 1.363254e-02 -4.905087e-04 -6.527171e-04 -9.975372e-04 1.766439e-04 5.652048e-04 -2.162401e-05 5.624288e-04 3.309922e-04 4.936985e-04 3.284503e-05 -1.724704e-04 2.006436e-04 -6.417491e-04
<VARIANCE> 39
 6.905665e+01 5.369085e+01 8.062865e+01 6.371006e+01 7.282932e+01 5.696867e+01 6.329734e+01 7.189864e+01 6.361928e+01 4.173537e+01 4.895878e+01 4.058952e+01 2.362637e+02 2.421164e+00 2.557397e+00 2.805591e+00 2.950373e+00 3.537013e+00 2.947315e+00 3.271771e+00 3.692116e+00 3.431334e+00 2.632047e+00 2.948045e+00 2.442691e+00 4.944454e+00 3.686230e-01 4.053414e-01 4.303193e-01 4.923234e-01 6.292930e-01 5.251684e-01 5.894957e-01 6.481975e-01 6.050780e-01 4.960232e-01 5.385234e-01 4.480970e-01 6.370498e-01
<GCONST> 1.320845e+02
<STATE> 4
<MEAN> 39
 -6.753505e+00 -1.818173e+00 -2.151515e+00 -5.140334e+00 -7.974602e+00 -3.152805e+00 -8.334078e+00 -5.494253e+00 -3.628454e+00 -2.886606e+00 -2.972336e+00 -4.699479e+00 5.309236e+01 -1.666482e-03 2.533723e-03 9.757110e-04 1.421399e-04 -5.926894e-03 1.537781e-03 -1.150786e-04 -1.175182e-03 1.843582e-04 3.855778e-03 -5.261879e-04 -5.767956e-03 1.082666e-02 -3.270034e-04 -7.189782e-04 -8.710095e-04 1.944448e-04 4.633195e-04 -2.758380e-04 4.552190e-04 5.904796e-04 3.133434e-04 -1.981925e-04 -1.124184e-04 4.273047e-04 -5.921401e-04
<VARIANCE> 39
 6.985009e+01 5.357279e+01 8.069513e+01 6.416603e+01 7.325899e+01 5.636004e+01 6.411247e+01 7.034508e+01 6.355305e+01 4.145082e+01 4.895697e+01 4.009785e+01 2.365955e+02 2.410822e+00 2.545867e+00 2.794914e+00 2.943529e+00 3.517201e+00 2.921432e+00 3.269897e+00 3.644387e+00 3.402854e+00 2.609027e+00 2.937737e+00 2.419228e+00 4.899836e+00 3.666730e-01 4.038087e-01 4.290700e-01 4.890450e-01 6.251117e-01 5.207701e-01 5.882562e-01 6.406156e-01 6.000795e-01 4.913221e-01 5.357467e-01 4.441606e-01 6.285944e-01
<GCONST> 1.318940e+02
<TRANSP> 5
 0.000000e+00 1.000000e+00 0.000000e+00 0.000000e+00 0.000000e+00
 0.000000e+00 7.267131e-01 2.732869e-01 0.000000e+00 0.000000e+00
 0.000000e+00 0.000000e+00 7.267146e-01 2.732855e-01 0.000000e+00
 0.000000e+00 0.000000e+00 0.000000e+00 8.525809e-01 1.474191e-01
 0.000000e+00 0.000000e+00 0.000000e+00 0.000000e+00 0.000000e+00
<ENDHMM>
~h "h"
<BEGINHMM>
<NUMSTATES> 5
<STATE> 2
<MEAN> 39
 -7.012844e+00 -2.532603e+00 -3.482027e+00 -4.892899e+00 -6.934762e+00 -2.445378e+00 -7.322426e+00 -5.063521e+00 -2.801877e+00 -3.114149e+00 -2.877519e+00 -4.380648e+00 5.308909e+01 1.989951e-03 4.786507e-03 4.423282e-03 -4.066626e-04 3.887189e-03 8.273096e-03 -4.916764e-04 -7.480611e-03 4.987029e-04 6.145171e-04 -4.564958e-03 -5.580538e-03 5.427987e-03 -9.737309e-05 -5.224785e-05 -6.068532e-05 2.689310e-04 -3.281502e-04 -1.906634e-04 -2.891221e-04 -8.316214e-05 -3.712742e-05 -2.014602e-04 -3.634593e-05 2.758126e-04 -1.787930e-04
<VARIANCE> 39
 6.979446e+01 5.295874e+01 7.602160e+01 6.050348e+01 7.402821e+01 5.679680e+01 6.123827e+01 6.637600e+01 5.784994e+01 4.122658e+01 4.634702e+01 3.932850e+01 2.401255e+02 2.473673e+00 2.400886e+00 2.751737e+00 2.745164e+00 3.438604e+00 2.945737e+00 3.118470e+00 3.515782e+00 3.223771e+00 2.586617e+00 2.804328e+00 2.383372e+00 4.751919e+00 3.691619e-01 3.806709e-01 4.195364e-01 4.635961e-01 5.886241e-01 5.246482e-01 5.580919e-01 6.231996e-01 5.705587e-01 4.845317e-01 5.111740e-01 4.323873e-01 6.132239e-01
<GCONST> 1.307239e+02
<STATE> 3
<MEAN> 39
 -7.005304e+00 -2.519370e+00 -3.469222e+00 -4.892885e+00 -6.920036e+00 -2.416342e+00 -7.325547e+00 -5.089507e+00 -2.801296e+00 -3.115257e+00 -2.891860e+00 -4.396648e+00 5.310940e+01 1.540254e-03 4.067688e-03 4.466681e-03 6.144000e-04 2.396722e-03 6.881869e-03 -1.266325e-03 -7.305950e-03 -2.788599e-04 -4.206395e-04 -4.211109e-03 -3.937371e-03 5.244895e-03 -1.682842e-04 -2.374012e-04 -5.153744e-05 1.534401e-04 -3.531886e-04 -3.670410e-04 -1.228942e-04 4.100811e-05 -2.025303e-04 -2.682375e-04 1.199095e-04 4.766774e-04 5.262442e-05
<VARIANCE> 39
 6.968141e+01 5.302834e+01 7.630833e+01 6.048156e+01 7.416615e+01 5.682310e+01 6.112859e+01 6.616600e+01 5.781419e+01 4.118770e+01 4.637952e+01 3.918376e+01 2.397733e+02 2.469017e+00 2.400971e+00 2.747687e+00 2.739514e+00 3.437320e+00 2.942376e+00 3.116647e+00 3.505011e+00 3.218519e+00 2.579037e+00 2.800231e+00 2.374813e+00 4.744190e+00 3.688398e-01 3.804833e-01 4.186141e-01 4.625228e-01 5.878641e-01 5.240465e-01 5.578324e-01 6.213719e-01 5.690747e-01 4.830516e-01 5.100732e-01 4.306763e-01 6.120736e-01
<GCONST> 1.306712e+02
<STATE> 4
<MEAN> 39
 -7.082019e+00 -2.482132e+00 -3.383183e+00 -4.956737e+00 -6.691944e+00 -2.325284e+00 -7.394142e+00 -5.151340e+00 -2.819886e+00 -3.102945e+00 -2.869353e+00 -4.365033e+00 5.284370e+01 7.761185e-04 2.547741e-03 4.150620e-03 8.408801e-04 7.664373e-04 4.466123e-03 -1.331466e-03 -6.044949e-03 -6.281381e-04 -8.941720e-04 -2.653003e-03 -2.099149e-03 5.177283e-03 -2.426719e-04 -1.422594e-04 6.574867e-05 -1.956328e-05 -3.775104e-04 -4.959850e-04 5.011231e-05 1.510815e-04 -1.188675e-04 -2.344533e-05 1.619429e-04 2.746541e-04 2.514849e-05
<VARIANCE> 39
 6.964085e+01 5.277118e+01 7.584066e+01 6.132067e+01 7.413744e+01 5.608303e+01 6.067517e+01 6.503260e+01 5.720544e+01 4.076361e+01 4.593951e+01 3.879053e+01 2.389445e+02 2.415518e+00 2.362098e+00 2.698553e+00 2.706905e+00 3.368196e+00 2.900522e+00 3.077556e+00 3.439637e+00 3.160258e+00 2.541306e+00 2.759588e+00 2.338671e+00 4.628106e+00 3.603709e-01 3.739562e-01 4.109104e-01 4.556269e-01 5.743551e-01 5.162957e-01 5.506130e-01 6.101931e-01 5.584931e-01 4.757529e-01 5.023403e-01 4.242076e-01 5.934723e-01
<GCONST> 1.301304e+02
<TRANSP> 5
 0.000000e+00 1.000000e+00 0.000000e+00 0.000000e+00 0.000000e+00
 0.000000e+00 7.264802e-01 2.735198e-01 0.000000e+00 0.000000e+00
 0.000000e+00 0.000000e+00 7.264832e-01 2.735167e-01 0.000000e+00
 0.000000e+00 0.000000e+00 0.000000e+00 8.543171e-01 1.456829e-01
 0.000000e+00 0.000000e+00 0.000000e+00 0.000000e+00 0.000000e+00
<ENDHMM>
~h "i"
<BEGINHMM>
<NUMSTATES> 5
<STATE> 2
<MEAN> 39
 -7.506717e+00 -1.778368e+00 -1.428116e+00 -4.357027e+00 -8.537659e+00 -3.574871e+00 -7.733481e+00 -5.578691e+00 -3.760085e+00 -3.090471e+00 -2.427291e+00 -4.399282e+00 5.280243e+01 -2.317333e-03 1.446461e-03 3.089930e-03 3.521060e-03 6.967447e-04 4.440873e-04 2.192544e-03 3.306421e-04 -2.921992e-03 2.773813e-04 -1.928051e-03 -1.385948e-03 -1.146082e-02 1.029455e-04 -2.805397e-04 -1.189980e-03 8.207978e-05 5.694167e-04 3.016714e-05 3.738472e-04 1.556134e-04 4.388136e-04 -7.728859e-05 -3.529343e-04 1.582959e-04 -5.836662e-04
<VARIANCE> 39
 7.195782e+01 5.138369e+01 8.662954e+01 5.581424e+01 7.924380e+01 5.600721e+01 6.022566e+01 6.893885e+01 6.226030e+01 3.950744e+01 4.751237e+01 3.777096e+01 2.304036e+02 2.609126e+00 2.382586e+00 2.962587e+00 2.658725e+00 3.588056e+00 2.931413e+00 3.166346e+00 3.628675e+00 3.338897e+00 2.541445e+00 2.869059e+00 2.339732e+00 4.790279e+00 3.855143e-01 3.826975e-01 4.369790e-01 4.489841e-01 6.100990e-01 5.235552e-01 5.656524e-01 6.443477e-01 5.802425e-01 4.805210e-01 5.188863e-01 4.276413e-01 6.205415e-01
<GCONST> 1.311877e+02
<STATE> 3
<MEAN> 39
 -7.515875e+00 -1.772708e+00 -1.420273e+00 -4.343453e+00 -8.533710e+00 -3.573868e+00 -7.723337e+00 -5.576587e+00 -3.769351e+00 -3.090024e+00 -2.436040e+00 -4.403243e+00 5.275613e+01 -2.013512e-03 5.413910e-04 -1.079810e-03 3.672890e-03 2.606131e-03 3.589647e-04 3.705726e-03 8.929519e-04 -1.443507e-03 -9.221989e-05 -3.094700e-03 -8.128896e-04 -1.344862e-02 9.916445e-05 -2.123774e-04 -9.688818e-04 -7.640532e-06 4.148197e-04 -9.373589e-05 3.361229e-04 1.209917e-04 3.454219e-04 -7.498770e-05 -2.689852e-04 1.019276e-04 -3.333223e-04
<VARIANCE> 39
 7.173701e+01 5.120431e+01 8.628675e+01 5.571108e+01 7.926681e+01 5.594130e+01 6.015576e+01 6.876743e+01 6.225277e+01 3.943066e+01 4.751089e+01 3.772813e+01 2.306496e+02 2.601206e+00 2.381212e+00 2.962608e+00 2.654137e+00 3.588797e+00 2.928477e+00 3.162762e+00 3.623403e+00 3.336520e+00 2.537601e+00 2.869708e+00 2.335210e+00 4.792082e+00 3.847895e-01 3.825330e-01 4.367623e-01 4.480693e-01 6.102543e-01 5.231224e-01 5.651111e-01 6.436108e-01 5.796605e-01 4.797862e-01 5.190696e-01 4.268217e-01 6.207163e-01
<GCONST> 1.311449e+02
<STATE> 4
<MEAN> 39
 -7.619537e+00 -1.722736e+00 -1.352401e+00 -4.406166e+00 -8.400815e+00 -3.532870e+00 -7.799548e+00 -5.615432e+00 -3.837308e+00 -3.113870e+00 -2.446107e+00 -4.378653e+00 5.249181e+01 -1.869402e-03 -4.606462e-05 -4.716634e-03 3.303771e-03 3.769689e-03 -2.083884e-04 4.868962e-03 1.133539e-03 -8.023548e-05 -4.114669e-04 -4.098964e-03 -5.632652e-04 -1.473473e-02 7.077315e-05 -1.520182e-04 -6.530072e-04 -1.601472e-04 2.181483e-04 -1.645638e-04 1.577421e-04 2.921532e-05 2.464740e-04 -3.062922e-05 -1.498735e-04 -2.334064e-05 1.558785e-05
<VARIANCE> 39
 7.132212e+01 5.062729e+01 8.573441e+01 5.631531e+01 7.925198e+01 5.526833e+01 6.043558e+01 6.754471e+01 6.214536e+01 3.907195e+01 4.725472e+01 3.726576e+01 2.313721e+02 2.552394e+00 2.350219e+00 2.931179e+00 2.633490e+00 3.540940e+00 2.895618e+00 3.134689e+00 3.572589e+00 3.295469e+00 2.510454e+00 2.846884e+00 2.304482e+00 4.738945e+00 3.780941e-01 3.777972e-01 4.321079e-01 4.433699e-01 6.011354e-01 5.171381e-01 5.596114e-01 6.351511e-01 5.724748e-01 4.742728e-01 5.144975e-01 4.215755e-01 6.112546e-01
<GCONST> 1.307659e+02
<TRANSP> 5
 0.000000e+00 1.000000e+00 0.000000e+00 0.000000e+00 0.000000e+00
 0.000000e+00 7.263425e-01 2.736575e-01 0.000000e+00 0.000000e+00
 0.000000e+00 0.000000e+00 7.263370e-01 2.736630e-01 0.000000e+00
 0.000000e+00 0.000000e+00 0.000000e+00 8.525326e-01 1.474674e-01
 0.000000e+00 0.000000e+00 0.000000e+00 0.000000e+00 0.000000e+00
<ENDHMM>
~h "j"
<BEGINHMM>
<NUMSTATES> 5
<STATE> 2
<MEAN> 39
 -6.993023e+00 -1.808946e+00 -2.372175e+00 -4.576962e+00 -8.007490e+00 -3.816266e+00 -7.861283e+00 -4.936411e+00 -3.263220e+00 -3.342896e+00 -3.097308e+00 -4.202216e+00 5.322606e+01 5.885161e-03 -3.769705e-03 1.058893e-02 -7.532070e-04 -5.168387e-03 -3.913407e-03 -5.293819e-03 2.901641e-03 -3.487744e-03 -2.931840e-03 -8.820574e-04 -4.417217e-03 1.652857e-02 -5.617060e-04 -1.493632e-04 -2.392725e-04 1.744730e-05 3.548212e-04 1.730165e-04 1.534721e-04 -2.896695e-04 1.663877e-04 -7.079359e-06 2.433504e-04 1.380534e-04 -1.066296e-03
<VARIANCE> 39
 6.847966e+01 5.409813e+01 7.436803e+01 5.552312e+01 6.937466e+01 5.715765e+01 5.950863e+01 6.860168e+01 6.159020e+01 4.162939e+01 4.673862e+01 3.729607e+01 2.351455e+02 2.945505e+00 2.682822e+00 2.834104e+00 2.705414e+00 3.709534e+00 3.075796e+00 3.228862e+00 3.781110e+00 3.422345e+00 2.584607e+00 2.912243e+00 2.490175e+00 4.978966e+00 4.867318e-01 4.125764e-01 4.337373e-01 4.601931e-01 6.700648e-01 5.553755e-01 5.842506e-01 6.743774e-01 6.046420e-01 4.878564e-01 5.318753e-01 4.576990e-01 6.475829e-01
<GCONST> 1.321954e+02
<STATE> 3
<MEAN> 39
 -6.973483e+00 -1.820793e+00 -2.330765e+00 -4.579148e+00 -8.027097e+00 -3.828726e+00 -7.880692e+00 -4.927605e+00 -3.275071e+00 -3.354519e+00 -3.096376e+00 -4.218874e+00 5.328530e+01 4.032212e-03 -4.207931e-03 9.652292e-03 -8.524555e-04 -4.421514e-03 -3.273788e-03 -5.161855e-03 2.351760e-03 -2.626852e-03 -2.863791e-03 7.347858e-05 -4.002439e-03 1.330335e-02 -5.587880e-04 -1.039772e-04 -3.763109e-04 -3.103259e-05 1.676468e-04 1.468947e-04 9.091404e-05 -1.225870e-04 2.349457e-04 4.193014e-05 2.403363e-04 1.026801e-04 -9.543048e-04
<VARIANCE> 39
 6.804858e+01 5.424192e+01 7.458618e+01 5.554635e+01 6.970812e+01 5.717664e+01 5.963749e+01 6.839183e+01 6.172031e+01 4.170405e+01 4.682173e+01 3.729235e+01 2.342629e+02 2.941580e+00 2.684151e+00 2.838420e+00 2.707718e+00 3.718578e+00 3.073537e+00 3.231073e+00 3.778443e+00 3.427657e+00 2.582963e+00 2.914707e+00 2.488593e+00 4.971090e+00 4.874462e-01 4.123399e-01 4.343547e-01 4.607190e-01 6.718764e-01 5.549692e-01 5.841596e-01 6.738147e-01 6.057233e-01 4.877209e-01 5.321741e-01 4.570218e-01 6.457551e-01
<GCONST> 1.322060e+02
<STATE> 4
<MEAN> 39
 -7.089188e+00 -1.832424e+00 -2.238249e+00 -4.686225e+00 -7.932773e+00 -3.810476e+00 -7.988550e+00 -4.995596e+00 -3.363894e+00 -3.421062e+00 -3.084135e+00 -4.235319e+00 5.315791e+01 2.527875e-03 -3.063013e-03 7.731414e-03 -9.245429e-04 -3.679461e-03 -2.159943e-03 -4.810426e-03 2.143444e-03 -1.135002e-03 -2.803970e-03 8.384066e-04 -3.755923e-03 1.086243e-02 -4.224232e-04 5.755369e-05 -6.094250e-04 -4.232695e-05 2.290183e-04 1.231804e-04 1.536472e-04 -3.642326e-05 2.555139e-04 1.358110e-04 6.192194e-05 9.343597e-05 -8.143964e-04
<VARIANCE> 39
 6.765945e+01 5.408823e+01 7.497810e+01 5.611372e+01 7.019529e+01 5.674350e+01 5.969331e+01 6.704463e+01 6.188087e+01 4.144573e+01 4.683474e+01 3.694527e+01 2.340235e+02 2.912839e+00 2.649731e+00 2.821868e+00 2.703492e+00 3.680360e+00 3.043062e+00 3.208632e+00 3.733399e+00 3.402132e+00 2.558506e+00 2.900913e+00 2.464969e+00 4.936119e+00 4.834600e-01 4.073776e-01 4.317366e-01 4.584643e-01 6.634774e-01 5.495175e-01 5.781121e-01 6.665824e-01 6.013516e-01 4.827438e-01 5.282336e-01 4.522440e-01 6.376488e-01
<GCONST> 1.319488e+02
<TRANSP> 5
 0.000000e+00 1.000000e+00 0.000000e+00 0.000000e+00 0.000000e+00
 0.000000e+00 7.267843e-01 2.732157e-01 0.000000e+00 0.000000e+00
 0.000000e+00 0.000000e+00 7.267806e-01 2.732194e-01 0.000000e+00
 0.000000e+00 0.000000e+00 0.000000e+00 8.520855e-01 1.479146e-01
 0.000000e+00 0.000000e+00 0.000000e+00 0.000000e+00 0.000000e+00
<ENDHMM>
~h "k"
<BEGINHMM>
<NUMSTATES> 5
<STATE> 2
<MEAN> 39
 -6.966110e+00 -2.296205e+00 -3.367980e+00 -4.733977e+00 -7.449240e+00 -3.235993e+00 -7.412607e+00 -5.080739e+00 -3.080737e+00 -2.993828e+00 -2.896763e+00 -4.474531e+00 5.238503e+01 3.282405e-03 3.445494e-03 -6.058835e-06 -6.757912e-03 1.538614e-03 2.518246e-03 4.683684e-04 -8.923797e-03 1.763452e-03 7.736455e-03 -4.423800e-03 -1.014542e-02 5.541265e-03 -1.178427e-04 2.360326e-05 3.003554e-04 6.280459e-04 -1.987775e-04 -2.839227e-05 7.816162e-05 2.605224e-04 -1.339375e-04 -9.527129e-05 -1.043586e-04 4.611650e-04 -1.604464e-04
<VARIANCE> 39
 6.737183e+01 5.224069e+01 7.558357e+01 5.996507e+01 7.066968e+01 5.599994e+01 5.934742e+01 6.907185e+01 5.820240e+01 4.085135e+01 4.716692e+01 4.076162e+01 2.365705e+02 2.569276e+00 2.498410e+00 2.875415e+00 2.794975e+00 3.432864e+00 3.020467e+00 3.205716e+00 3.691314e+00 3.265766e+00 2.672471e+00 2.900176e+00 2.511348e+00 5.681709e+00 3.947618e-01 4.061823e-01 4.552308e-01 4.764374e-01 6.057456e-01 5.471736e-01 5.873702e-01 6.599174e-01 5.827026e-01 5.052815e-01 5.305278e-01 4.591718e-01 7.396495e-01
<GCONST> 1.319608e+02
<STATE> 3
<MEAN> 39
 -6.954341e+00 -2.285719e+00 -3.368466e+00 -4.751819e+00 -7.446648e+00 -3.229280e+00 -7.411069e+00 -5.105513e+00 -3.076540e+00 -2.969367e+00 -2.912167e+00 -4.504488e+00 5.240480e+01 3.056997e-03 3.062021e-03 5.673123e-04 -4.275447e-03 3.713969e-04 1.718896e-03 9.349809e-04 -7.055440e-03 1.001991e-03 6.536254e-03 -4.183743e-03 -7.492545e-03 5.161314e-03 -5.220564e-06 -1.212206e-04 1.456524e-04 6.952361e-04 -3.079183e-04 -1.761241e-04 1.446977e-04 5.500375e-04 -1.862448e-04 -3.774171e-04 4.164316e-05 7.496124e-04 -6.557165e-05
<VARIANCE> 39
 6.727161e+01 5.232698e+01 7.586242e+01 5.967862e+01 7.078048e+01 5.606366e+01 5.945710e+01 6.864066e+01 5.822953e+01 4.078233e+01 4.725343e+01 4.054222e+01 2.362122e+02 2.572236e+00 2.503075e+00 2.886025e+00 2.791735e+00 3.436268e+00 3.023184e+00 3.215256e+00 3.684828e+00 3.265382e+00 2.673448e+00 2.904601e+00 2.510252e+00 5.712945e+00 3.954337e-01 4.071913e-01 4.569821e-01 4.759048e-01 6.065193e-01 5.477540e-01 5.890262e-01 6.590124e-01 5.828571e-01 5.056201e-01 5.312711e-01 4.591016e-01 7.433860e-01
<GCONST> 1.319852e+02
<STATE> 4
<MEAN> 39
 -7.038019e+00 -2.240508e+00 -3.309152e+00 -4.841305e+00 -7.317814e+00 -3.177223e+00 -7.474074e+00 -5.176502e+00 -3.135407e+00 -2.951716e+00 -2.897933e+00 -4.499110e+00 5.218734e+01 2.573129e-03 1.663678e-03 5.263365e-04 -1.744948e-03 -1.218957e-03 4.123050e-04 1.334960e-03 -3.731615e-03 6.488070e-04 4.140426e-03 -3.103688e-03 -3.830944e-03 5.615368e-03 -6.992625e-06 -1.656392e-04 5.947674e-05 4.192618e-04 -1.805341e-04 -1.071793e-04 1.452171e-04 4.298117e-04 -3.002405e-05 -3.780685e-04 7.037273e-05 5.686759e-04 6.630192e-05
<VARIANCE> 39
 6.733980e+01 5.193284e+01 7.581628e+01 6.044968e+01 7.090996e+01 5.550746e+01 5.967868e+01 6.721800e+01 5.813144e+01 4.037419e+01 4.709117e+01 4.005085e+01 2.360087e+02 2.535934e+00 2.479845e+00 2.869297e+00 2.781631e+00 3.394034e+00 2.997463e+00 3.200958e+00 3.630166e+00 3.232995e+00 2.650739e+00 2.883391e+00 2.487272e+00 5.661474e+00 3.895175e-01 4.038263e-01 4.545906e-01 4.724711e-01 5.979503e-01 5.428885e-01 5.858800e-01 6.500942e-01 5.776767e-01 5.011827e-01 5.265635e-01 4.554090e-01 7.333286e-01
<GCONST> 1.316936e+02
<TRANSP> 5
 0.000000e+00 1.000000e+00 0.000000e+00 0.000000e+00 0.000000e+00
 0.000000e+00 7.254115e-01 2.745885e-01 0.000000e+00 0.000000e+00
 0.000000e+00 0.000000e+00 7.254140e-01 2.745860e-01 0.000000e+00
 0.000000e+00 0.000000e+00 0.000000e+00 8.518363e-01 1.481638e-01
 0.000000e+00 0.000000e+00 0.000000e+00 0.000000e+00 0.000000e+00
<ENDHMM>
~h "l"
<BEGINHMM>
<NUMSTATES> 5
<STATE> 2
<MEAN> 39
 -6.809045e+00 -2.543563e+00 -3.357563e+00 -5.385239e+00 -7.601692e+00 -2.777305e+00 -7.911502e+00 -5.792648e+00 -2.958336e+00 -2.966268e+00 -2.775098e+00 -4.526448e+00 5.336311e+01 2.335465e-03 -1.052422e-03 5.947410e-04 -4.474877e-03 -2.332881e-03 5.027644e-03 -1.430764e-03 -4.451938e-03 -1.055509e-03 6.155487e-04 1.571844e-03 -2.821504e-03 1.060767e-02 -2.319714e-04 2.317690e-04 3.184662e-04 4.521284e-04 1.068077e-04 -1.158667e-04 1.798525e-04 4.999446e-04 -2.594105e-04 -2.047560e-04 -2.145610e-04 2.242936e-04 -6.877301e-04
<VARIANCE> 39
 7.321897e+01 5.209774e+01 7.683070e+01 6.456382e+01 7.258978e+01 5.961047e+01 6.440504e+01 7.211201e+01 6.198801e+01 4.323148e+01 4.834117e+01 4.052517e+01 2.351063e+02 2.572856e+00 2.411406e+00 2.760399e+00 2.874597e+00 3.481597e+00 3.062004e+00 3.326397e+00 3.741653e+00 3.371104e+00 2.695284e+00 2.921802e+00 2.431843e+00 4.715321e+00 3.836864e-01 3.839359e-01 4.248301e-01 4.790466e-01 6.068157e-01 5.452720e-01 5.957396e-01 6.629919e-01 5.909643e-01 5.036522e-01 5.317236e-01 4.434028e-01 6.049222e-01
<GCONST> 1.319842e+02
<STATE> 3
<MEAN> 39
 -6.801499e+00 -2.547382e+00 -3.355485e+00 -5.401669e+00 -7.608730e+00 -2.759465e+00 -7.917581e+00 -5.806432e+00 -2.961236e+00 -2.964598e+00 -2.769683e+00 -4.534976e+00 5.340055e+01 1.561495e-03 -5.822517e-05 1.544313e-03 -3.029103e-03 -1.879984e-03 4.710251e-03 -7.641091e-04 -2.855681e-03 -1.861265e-03 8.375118e-05 6.974889e-04 -2.168860e-03 7.818418e-03 -1.795231e-04 2.366542e-04 2.038685e-04 3.697643e-04 1.616387e-04 -6.026313e-05 1.474593e-04 3.840453e-04 -2.301640e-04 -1.071583e-04 -3.148297e-04 1.754374e-04 -6.709124e-04
<VARIANCE> 39
 7.327460e+01 5.212366e+01 7.697693e+01 6.492161e+01 7.264645e+01 5.971513e+01 6.450564e+01 7.222198e+01 6.196191e+01 4.328049e+01 4.837753e+01 4.055759e+01 2.345625e+02 2.569461e+00 2.412483e+00 2.760203e+00 2.880545e+00 3.482660e+00 3.060900e+00 3.326987e+00 3.743314e+00 3.369500e+00 2.700495e+00 2.923557e+00 2.433867e+00 4.706670e+00 3.827774e-01 3.839239e-01 4.246026e-01 4.796527e-01 6.068451e-01 5.447416e-01 5.955368e-01 6.631684e-01 5.907875e-01 5.046796e-01 5.322574e-01 4.435135e-01 6.032827e-01
<GCONST> 1.319988e+02
<STATE> 4
<MEAN> 39
 -6.903173e+00 -2.528798e+00 -3.276311e+00 -5.529857e+00 -7.424225e+00 -2.732690e+00 -8.019316e+00 -5.839603e+00 -3.044559e+00 -2.974102e+00 -2.780737e+00 -4.477684e+00 5.320039e+01 6.013004e-04 1.393991e-03 2.101163e-03 -2.183000e-03 -5.604570e-04 4.709429e-03 -2.418151e-04 -1.432204e-03 -2.093148e-03 8.220688e-05 -1.364721e-04 -1.353773e-03 4.381765e-03 -1.533028e-04 2.427311e-04 6.788821e-05 2.820812e-04 1.848555e-04 -5.408343e-05 1.351409e-04 1.921964e-04 -1.679092e-04 -8.518195e-06 -2.978284e-04 1.073628e-04 -6.530983e-04
<VARIANCE> 39
 7.321052e+01 5.161670e+01 7.667982e+01 6.652972e+01 7.271897e+01 5.893141e+01 6.469619e+01 7.100809e+01 6.188709e+01 4.306829e+01 4.811969e+01 4.010145e+01 2.340518e+02 2.522635e+00 2.379363e+00 2.723649e+00 2.873244e+00 3.433128e+00 3.019314e+00 3.292869e+00 3.683402e+00 3.324841e+00 2.676278e+00 2.899233e+00 2.408994e+00 4.615638e+00 3.752248e-01 3.788495e-01 4.192761e-01 4.764071e-01 5.971811e-01 5.368257e-01 5.883613e-01 6.532514e-01 5.838696e-01 5.001623e-01 5.277804e-01 4.393329e-01 5.887078e-01
<GCONST> 1.316208e+02
<TRANSP> 5
 0.000000e+00 1.000000e+00 0.000000e+00 0.000000e+00 0.000000e+00
 0.000000e+00 7.258032e-01 2.741968e-01 0.000000e+00 0.000000e+00
 0.000000e+00 0.000000e+00 7.258033e-01 2.741966e-01 0.000000e+00
 0.000000e+00 0.000000e+00 0.000000e+00 8.521293e-01 1.478706e-01
 0.000000e+00 0.000000e+00 0.000000e+00 0.000000e+00 0.000000e+00
<ENDHMM>
~h "m"
<BEGINHMM>
<NUMSTATES> 5
<STATE> 2
<MEAN> 39
 -6.725547e+00 -2.603010e+00 -3.294110e+00 -4.846270e+00 -7.494068e+00 -2.712629e+00 -7.416386e+00 -5.989664e+00 -3.451730e+00 -3.640605e+00 -2.996443e+00 -4.502948e+00 5.260599e+01 1.222878e-02 -2.903057e-03 -1.614179e-03 -1.830831e-03 -2.245956e-03 4.263181e-03 -7.594115e-04 -6.283723e-03 -7.295642e-04 -4.292025e-03 -4.866619e-03 -3.607506e-03 1.921964e-02 -3.949128e-04 1.290560e-04 8.846715e-05 3.539741e-05 -6.435268e-05 -2.029789e-04 -1.033379e-04 2.169378e-04 1.849168e-04 2.703238e-04 -4.140418e-05 1.795792e-04 -5.632187e-04
<VARIANCE> 39
 6.960424e+01 5.128438e+01 7.393931e+01 5.869960e+01 6.957254e+01 5.819831e+01 5.770861e+01 7.565366e+01 6.140123e+01 4.215802e+01 4.739052e+01 3.917024e+01 2.343163e+02 2.404693e+00 2.372614e+00 2.747933e+00 2.816646e+00 3.281765e+00 2.932347e+00 3.057970e+00 3.763208e+00 3.336526e+00 2.590632e+00 2.914706e+00 2.440910e+00 4.665583e+00 3.587686e-01 3.763668e-01 4.240505e-01 4.746174e-01 5.693166e-01 5.202776e-01 5.511559e-01 6.550172e-01 5.826957e-01 4.839779e-01 5.287982e-01 4.424946e-01 6.038691e-01
<GCONST> 1.308533e+02
<STATE> 3
<MEAN> 39
 -6.681990e+00 -2.612713e+00 -3.298044e+00 -4.854061e+00 -7.502960e+00 -2.697072e+00 -7.419586e+00 -6.013189e+00 -3.455588e+00 -3.654203e+00 -3.014450e+00 -4.514480e+00 5.267561e+01 1.065054e-02 -2.251216e-03 -1.012074e-03 -1.661196e-03 -2.652069e-03 3.822772e-03 -1.123662e-03 -5.493163e-03 -1.832258e-04 -3.200787e-03 -4.803090e-03 -3.009704e-03 1.696194e-02 -4.338625e-04 1.622629e-04 1.845509e-04 5.456495e-05 -1.191460e-04 -1.252875e-04 -1.286775e-04 2.476750e-04 9.630231e-05 3.196256e-04 3.707393e-05 9.746272e-05 -5.627405e-04
<VARIANCE> 39
 6.940138e+01 5.133240e+01 7.406418e+01 5.882246e+01 6.960883e+01 5.833843e+01 5.771585e+01 7.588874e+01 6.164901e+01 4.231225e+01 4.758596e+01 3.920986e+01 2.334668e+02 2.398696e+00 2.370665e+00 2.752497e+00 2.823296e+00 3.279769e+00 2.936677e+00 3.057942e+00 3.768454e+00 3.345519e+00 2.594777e+00 2.922834e+00 2.443793e+00 4.666028e+00 3.579189e-01 3.758600e-01 4.246665e-01 4.756202e-01 5.685954e-01 5.207426e-01 5.508983e-01 6.558397e-01 5.838331e-01 4.847270e-01 5.298427e-01 4.428803e-01 6.031953e-01
<GCONST> 1.308873e+02
<STATE> 4
<MEAN> 39
 -6.743798e+00 -2.586672e+00 -3.219110e+00 -4.951617e+00 -7.334721e+00 -2.684280e+00 -7.529872e+00 -6.078450e+00 -3.561251e+00 -3.660279e+00 -3.057836e+00 -4.485780e+00 5.246038e+01 8.931690e-03 -8.968362e-04 9.102002e-04 -1.898742e-03 -3.166440e-03 3.553086e-03 -1.409468e-03 -4.513063e-03 -4.034595e-04 -1.648593e-03 -4.580063e-03 -2.728343e-03 1.501073e-02 -3.944223e-04 1.902478e-04 2.433957e-04 4.506672e-05 -9.631112e-05 -7.125563e-05 -6.351458e-05 2.885799e-04 6.486053e-05 2.594083e-04 9.656316e-05 -3.949016e-05 -4.639834e-04
<VARIANCE> 39
 6.910021e+01 5.102599e+01 7.383169e+01 5.959103e+01 6.965881e+01 5.757901e+01 5.772122e+01 7.437857e+01 6.176078e+01 4.214135e+01 4.753370e+01 3.868535e+01 2.329456e+02 2.341974e+00 2.329918e+00 2.717001e+00 2.806020e+00 3.220571e+00 2.898593e+00 3.027705e+00 3.701829e+00 3.301630e+00 2.570648e+00 2.898627e+00 2.410598e+00 4.573436e+00 3.492391e-01 3.693345e-01 4.191078e-01 4.711782e-01 5.570719e-01 5.136696e-01 5.445807e-01 6.453566e-01 5.761424e-01 4.803212e-01 5.246130e-01 4.373321e-01 5.874981e-01
<GCONST> 1.304536e+02
<TRANSP> 5
 0.000000e+00 1.000000e+00 0.000000e+00 0.000000e+00 0.000000e+00
 0.000000e+00 7.267243e-01 2.732756e-01 0.000000e+00 0.000000e+00
 0.000000e+00 0.000000e+00 7.267167e-01 2.732833e-01 0.000000e+00
 0.000000e+00 0.000000e+00 0.000000e+00 8.538229e-01 1.461771e-01
 0.000000e+00 0.000000e+00 0.000000e+00 0.000000e+00 0.000000e+00
<ENDHMM>
~h "n"
<BEGINHMM>
<NUMSTATES> 5
<STATE> 2
<MEAN> 39
 -6.399407e+00 -2.454662e+00 -2.835748e+00 -4.450330e+00 -7.931986e+00 -3.230586e+00 -7.628864e+00 -5.841035e+00 -2.906303e+00 -3.282943e+00 -3.465127e+00 -4.591680e+00 5.341062e+01 -1.233387e-03 1.833078e-03 -1.428224e-03 7.621567e-04 1.038208e-03 2.438884e-03 2.133050e-03 -1.261295e-03 1.907187e-03 -1.469572e-03 -3.475310e-03 3.153807e-03 -2.466924e-03 -3.134924e-04 3.763922e-05 -3.527719e-04 -3.743035e-04 2.499225e-04 2.075229e-04 -8.002271e-05 5.053951e-04 -4.832484e-05 7.313531e-05 5.916443e-04 -2.323530e-04 -1.229512e-04
<VARIANCE> 39
 6.805115e+01 5.247292e+01 7.539600e+01 5.904916e+01 7.112032e+01 5.678171e+01 5.947531e+01 7.554238e+01 6.069432e+01 4.104465e+01 5.150791e+01 3.992342e+01 2.287798e+02 2.462466e+00 2.505008e+00 2.870905e+00 2.815847e+00 3.361100e+00 2.998933e+00 3.213378e+00 3.965256e+00 3.316051e+00 2.623411e+00 3.003513e+00 2.474433e+00 5.022526e+00 3.715378e-01 3.945684e-01 4.408051e-01 4.709418e-01 5.876668e-01 5.361750e-01 5.825116e-01 6.961476e-01 5.848076e-01 4.945706e-01 5.369964e-01 4.469939e-01 6.546900e-01
<GCONST> 1.317616e+02
<STATE> 3
<MEAN> 39
 -6.405323e+00 -2.446019e+00 -2.841091e+00 -4.447727e+00 -7.928031e+00 -3.221649e+00 -7.621031e+00 -5.843018e+00 -2.899981e+00 -3.288064e+00 -3.475964e+00 -4.580198e+00 5.340176e+01 -2.377146e-03 1.995933e-03 -2.745321e-03 -6.715429e-04 1.823506e-03 3.085255e-03 1.741917e-03 3.513336e-04 1.695131e-03 -1.144000e-03 -1.262271e-03 2.286677e-03 -2.820507e-03 -2.398649e-04 5.911574e-05 -2.620026e-04 -3.550074e-04 7.978317e-05 1.010596e-04 -1.406789e-04 3.294770e-04 -7.471570e-05 1.185201e-04 5.681330e-04 -2.852996e-04 4.285014e-05
<VARIANCE> 39
 6.811131e+01 5.242771e+01 7.515283e+01 5.888513e+01 7.119584e+01 5.675979e+01 5.948455e+01 7.545847e+01 6.066222e+01 4.101484e+01 5.148309e+01 3.986634e+01 2.290966e+02 2.461990e+00 2.505159e+00 2.866869e+00 2.810165e+00 3.359807e+00 2.997808e+00 3.212917e+00 3.964040e+00 3.316680e+00 2.622124e+00 3.003566e+00 2.471897e+00 5.023142e+00 3.715373e-01 3.945945e-01 4.404429e-01 4.697677e-01 5.872428e-01 5.359685e-01 5.826159e-01 6.958345e-01 5.850263e-01 4.943840e-01 5.367766e-01 4.468400e-01 6.548852e-01
<GCONST> 1.317425e+02
<STATE> 4
<MEAN> 39
 -6.534645e+00 -2.380584e+00 -2.759175e+00 -4.501945e+00 -7.775355e+00 -3.191173e+00 -7.690280e+00 -5.868019e+00 -2.969799e+00 -3.315850e+00 -3.485550e+00 -4.534873e+00 5.313800e+01 -3.289882e-03 2.828656e-03 -3.626160e-03 -1.982610e-03 2.025877e-03 3.395820e-03 9.840316e-04 1.642023e-03 9.255150e-04 -3.246837e-04 1.050847e-03 1.221795e-03 -2.809009e-03 -1.233112e-04 8.218470e-05 -1.595694e-04 -2.872745e-04 -1.009797e-04 1.562965e-05 -2.413472e-04 8.569783e-05 -1.598573e-04 1.612559e-04 4.526046e-04 -2.871823e-04 1.729650e-04
<VARIANCE> 39
 6.829451e+01 5.199602e+01 7.491214e+01 5.923290e+01 7.130212e+01 5.606036e+01 5.969389e+01 7.398308e+01 6.069880e+01 4.050406e+01 5.136599e+01 3.931883e+01 2.303374e+02 2.427927e+00 2.472619e+00 2.831769e+00 2.794306e+00 3.314466e+00 2.963799e+00 3.192149e+00 3.906462e+00 3.277184e+00 2.595079e+00 2.981032e+00 2.439206e+00 4.953938e+00 3.658472e-01 3.897861e-01 4.351151e-01 4.651279e-01 5.782790e-01 5.296538e-01 5.783561e-01 6.868311e-01 5.784438e-01 4.893384e-01 5.314761e-01 4.418395e-01 6.431338e-01
<GCONST> 1.313835e+02
<TRANSP> 5
 0.000000e+00 1.000000e+00 0.000000e+00 0.000000e+00 0.000000e+00
 0.000000e+00 7.239116e-01 2.760883e-01 0.000000e+00 0.000000e+00
 0.000000e+00 0.000000e+00 7.239047e-01 2.760952e-01 0.000000e+00
 0.000000e+00 0.000000e+00 0.000000e+00 8.498169e-01 1.501831e-01
 0.000000e+00 0.000000e+00 0.000000e+00 0.000000e+00 0.000000e+00
<ENDHMM>
~h "o"
<BEGINHMM>
<NUMSTATES> 5
<STATE> 2
<MEAN> 39
 -6.658807e+00 -2.035612e+00 -4.003524e+00 -6.251143e+00 -8.018339e+00 -2.058655e+00 -7.621116e+00 -5.736509e+00 -3.295747e+00 -2.901883e+00 -2.382472e+00 -4.353505e+00 5.313475e+01 -1.924891e-03 2.442556e-04 -4.104495e-03 -5.692904e-03 3.572847e-03 7.060947e-03 9.234986e-03 -5.681967e-04 2.096412e-03 2.524109e-03 1.644965e-03 1.311572e-03 -5.979099e-03 -4.752345e-04 1.199898e-04 5.316811e-04 9.021637e-04 1.597906e-04 -5.128304e-04 2.150551e-04 5.315453e-06 -5.030304e-05 -4.051531e-04 -1.523888e-04 9.080699e-05 -7.707144e-04
<VARIANCE> 39
 7.632420e+01 4.851757e+01 7.758829e+01 7.366747e+01 7.044870e+01 6.077333e+01 6.218745e+01 6.966251e+01 5.979956e+01 4.362105e+01 5.040081e+01 3.883456e+01 2.340893e+02 2.719644e+00 2.315118e+00 2.891454e+00 3.159138e+00 3.487825e+00 3.140288e+00 3.205201e+00 3.664816e+00 3.356498e+00 2.699075e+00 2.971613e+00 2.433264e+00 5.079428e+00 4.013542e-01 3.752592e-01 4.447251e-01 5.053553e-01 6.104735e-01 5.551229e-01 5.776375e-01 6.466320e-01 5.970196e-01 5.044986e-01 5.343592e-01 4.461016e-01 6.530448e-01
<GCONST> 1.323863e+02
<STATE> 3
<MEAN> 39
 -6.665755e+00 -2.033912e+00 -4.017200e+00 -6.269423e+00 -8.005018e+00 -2.034429e+00 -7.586330e+00 -5.740680e+00 -3.287631e+00 -2.894519e+00 -2.376992e+00 -4.348367e+00 5.311312e+01 -3.826389e-03 6.617418e-04 -2.059285e-03 -2.276246e-03 4.103743e-03 4.838603e-03 9.921322e-03 -4.887702e-04 1.975836e-03 1.150928e-03 1.111238e-03 1.514487e-03 -8.735036e-03 -4.896531e-04 1.236954e-04 5.846209e-04 9.082414e-04 1.135084e-04 -5.713991e-04 1.104465e-04 -3.620732e-05 -1.259186e-05 -3.462853e-04 -6.809580e-05 7.863566e-05 -6.070711e-04
<VARIANCE> 39
 7.621229e+01 4.837673e+01 7.761819e+01 7.396452e+01 7.046648e+01 6.084507e+01 6.217299e+01 6.945786e+01 5.962445e+01 4.364017e+01 5.036834e+01 3.872988e+01 2.340715e+02 2.715214e+00 2.305569e+00 2.887778e+00 3.159165e+00 3.481138e+00 3.139045e+00 3.200402e+00 3.656449e+00 3.351429e+00 2.697944e+00 2.967946e+00 2.429418e+00 5.059415e+00 4.006786e-01 3.738090e-01 4.439402e-01 5.045905e-01 6.088504e-01 5.545937e-01 5.768049e-01 6.453705e-01 5.961170e-01 5.041535e-01 5.337617e-01 4.454423e-01 6.495302e-01
<GCONST> 1.323308e+02
<STATE> 4
<MEAN> 39
 -6.788731e+00 -1.989614e+00 -3.928503e+00 -6.352285e+00 -7.867583e+00 -1.988298e+00 -7.618680e+00 -5.791070e+00 -3.362944e+00 -2.936296e+00 -2.389215e+00 -4.297126e+00 5.285799e+01 -5.365408e-03 9.561761e-04 3.979559e-05 1.071276e-03 4.502875e-03 2.368201e-03 1.012096e-02 -5.764546e-04 2.471850e-03 6.591917e-06 6.119174e-04 1.478968e-03 -1.026124e-02 -4.783502e-04 5.542270e-05 5.304909e-04 7.125207e-04 6.424892e-05 -5.086326e-04 1.310641e-05 3.051044e-05 3.787435e-05 -2.072868e-04 9.822957e-06 4.369485e-05 -4.500667e-04
<VARIANCE> 39
 7.629907e+01 4.791570e+01 7.735926e+01 7.534888e+01 7.042011e+01 6.014738e+01 6.226883e+01 6.838634e+01 5.946423e+01 4.318341e+01 5.004246e+01 3.836701e+01 2.343833e+02 2.663262e+00 2.263989e+00 2.856912e+00 3.153352e+00 3.421530e+00 3.102374e+00 3.168133e+00 3.612394e+00 3.306696e+00 2.669685e+00 2.937774e+00 2.405579e+00 4.955575e+00 3.923794e-01 3.675121e-01 4.390856e-01 5.007678e-01 5.972506e-01 5.477180e-01 5.700188e-01 6.383750e-01 5.875405e-01 4.983120e-01 5.273261e-01 4.412034e-01 6.332620e-01
<GCONST> 1.319333e+02
<TRANSP> 5
 0.000000e+00 1.000000e+00 0.000000e+00 0.000000e+00 0.000000e+00
 0.000000e+00 7.283407e-01 2.716593e-01 0.000000e+00 0.000000e+00
 0.000000e+00 0.000000e+00 7.283368e-01 2.716632e-01 0.000000e+00
 0.000000e+00 0.000000e+00 0.000000e+00 8.545100e-01 1.454899e-01
 0.000000e+00 0.000000e+00 0.000000e+00 0.000000e+00 0.000000e+00
<ENDHMM>
~h "p"
<BEGINHMM>
<NUMSTATES> 5
<STATE> 2
<MEAN> 39
 -6.924672e+00 -2.389581e+00 -3.446729e+00 -4.842703e+00 -7.444172e+00 -2.965936e+00 -7.277083e+00 -5.081559e+00 -2.940152e+00 -2.959604e+00 -2.706839e+00 -4.465908e+00 5.171445e+01 3.952282e-03 -2.245104e-03 -1.622511e-03 -5.398073e-03 -2.997926e-03 2.908540e-03 1.853126e-03 -2.538456e-03 1.614061e-03 8.898625e-04 -2.039897e-03 -4.250732e-03 1.078971e-02 -3.443678e-04 1.866272e-04 3.987899e-04 3.896974e-04 -1.223046e-04 -2.394474e-04 -6.420218e-05 1.541736e-04 -8.615134e-05 5.518878e-05 1.353205e-04 2.468566e-04 -5.610127e-04
<VARIANCE> 39
 6.954514e+01 5.142599e+01 7.245636e+01 5.924023e+01 6.921545e+01 5.599094e+01 5.774367e+01 6.584635e+01 5.682923e+01 3.980148e+01 4.654949e+01 3.970281e+01 2.507539e+02 2.594893e+00 2.477452e+00 2.734723e+00 2.848537e+00 3.422850e+00 3.013300e+00 3.092678e+00 3.525274e+00 3.204537e+00 2.586369e+00 2.886619e+00 2.429240e+00 6.092598e+00 4.019169e-01 3.972023e-01 4.301096e-01 4.890219e-01 6.054623e-01 5.479860e-01 5.651246e-01 6.307016e-01 5.727510e-01 4.912179e-01 5.291083e-01 4.465002e-01 7.909084e-01
<GCONST> 1.315313e+02
<STATE> 3
<MEAN> 39
 -6.911872e+00 -2.396415e+00 -3.448326e+00 -4.858361e+00 -7.457757e+00 -2.958276e+00 -7.270463e+00 -5.088717e+00 -2.937563e+00 -2.958036e+00 -2.712234e+00 -4.478687e+00 5.175062e+01 2.902483e-03 -1.384480e-03 -2.277728e-04 -4.223265e-03 -3.597935e-03 1.830810e-03 1.725771e-03 -2.277691e-03 9.651408e-04 4.662611e-04 -1.655928e-03 -3.130275e-03 8.675060e-03 -2.603117e-04 2.663226e-04 4.066073e-04 3.303567e-04 -1.920072e-04 -3.121256e-04 -7.247819e-05 3.423715e-06 -2.578607e-04 -1.038329e-04 1.483022e-04 2.975153e-04 -5.869261e-04
<VARIANCE> 39
 6.947665e+01 5.149628e+01 7.270318e+01 5.927592e+01 6.931597e+01 5.613373e+01 5.779530e+01 6.599496e+01 5.687732e+01 3.987534e+01 4.661610e+01 3.971830e+01 2.502832e+02 2.600559e+00 2.481554e+00 2.739719e+00 2.855389e+00 3.426330e+00 3.018761e+00 3.096325e+00 3.533400e+00 3.205991e+00 2.588935e+00 2.889738e+00 2.434094e+00 6.106880e+00 4.029027e-01 3.977684e-01 4.307685e-01 4.902492e-01 6.059648e-01 5.488244e-01 5.657981e-01 6.321795e-01 5.730883e-01 4.917353e-01 5.296741e-01 4.473400e-01 7.917718e-01
<GCONST> 1.315862e+02
<STATE> 4
<MEAN> 39
 -7.020581e+00 -2.361110e+00 -3.352508e+00 -4.911622e+00 -7.381053e+00 -2.946938e+00 -7.309011e+00 -5.107665e+00 -3.008011e+00 -2.984934e+00 -2.706548e+00 -4.451723e+00 5.154885e+01 1.965774e-03 8.982120e-05 1.624658e-03 -3.183798e-03 -4.381935e-03 4.660125e-04 1.413779e-03 -2.420924e-03 -2.050815e-04 -1.626450e-04 -1.263436e-03 -1.832327e-03 6.446657e-03 -1.566110e-04 2.941554e-04 2.982592e-04 1.973921e-04 -8.707058e-05 -2.047997e-04 -9.717069e-05 -1.182806e-04 -1.896568e-04 -4.126020e-05 9.112032e-05 2.176640e-04 -4.353645e-04
<VARIANCE> 39
 6.908508e+01 5.117471e+01 7.270174e+01 6.002893e+01 6.960411e+01 5.566285e+01 5.797243e+01 6.542007e+01 5.677932e+01 3.961826e+01 4.647034e+01 3.933742e+01 2.502920e+02 2.558693e+00 2.450722e+00 2.711138e+00 2.850401e+00 3.389744e+00 2.991316e+00 3.074490e+00 3.505209e+00 3.172673e+00 2.564697e+00 2.869801e+00 2.412000e+00 6.033256e+00 3.962263e-01 3.931457e-01 4.263932e-01 4.876237e-01 5.984597e-01 5.435246e-01 5.611104e-01 6.275325e-01 5.675828e-01 4.866204e-01 5.254694e-01 4.436149e-01 7.788966e-01
<GCONST> 1.312973e+02
<TRANSP> 5
 0.000000e+00 1.000000e+00 0.000000e+00 0.000000e+00 0.000000e+00
 0.000000e+00 7.247302e-01 2.752698e-01 0.000000e+00 0.000000e+00
 0.000000e+00 0.000000e+00 7.247291e-01 2.752709e-01 0.000000e+00
 0.000000e+00 0.000000e+00 0.000000e+00 8.500206e-01 1.499793e-01
 0.000000e+00 0.000000e+00 0.000000e+00 0.000000e+00 0.000000e+00
<ENDHMM>
~h "q"
<BEGINHMM>
<NUMSTATES> 5
<STATE> 2
<MEAN> 39
 -1.126718e+01 -3.954790e+00 -8.175607e-01 -6.338474e+00 -6.289690e+00 -3.686826e+00 -1.063765e+01 -4.425304e+00 -3.653311e+00 -2.885591e+00 -2.457652e+00 -3.429295e+00 4.848991e+01 -1.020523e-02 -9.477619e-03 -3.246697e-02 1.407035e-02 6.131762e-02 -3.849045e-04 1.555161e-02 -1.503393e-02 8.313794e-03 -4.536172e-02 -1.927075e-02 -1.669278e-02 1.455298e-02 2.553797e-04 1.601900e-03 1.826768e-03 1.275183e-03 -1.478186e-03 1.467136e-03 -1.767312e-03 -9.013283e-04 -2.400943e-03 9.555647e-04 2.774176e-04 2.712636e-05 -2.312499e-04
<VARIANCE> 39
 9.290665e+01 5.519086e+01 8.063219e+01 6.924622e+01 9.592260e+01 4.620544e+01 6.523946e+01 5.418074e+01 6.611066e+01 3.137656e+01 3.266988e+01 2.371959e+01 1.999208e+02 2.695400e+00 2.860855e+00 3.098745e+00 2.458485e+00 3.264535e+00 3.040430e+00 3.009969e+00 2.638040e+00 2.826044e+00 2.277409e+00 2.336906e+00 1.827173e+00 4.312676e+00 3.893289e-01 4.239059e-01 4.806630e-01 4.244689e-01 5.201030e-01 5.337204e-01 5.608771e-01 4.911134e-01 5.094145e-01 4.354046e-01 4.544661e-01 3.472830e-01 5.841508e-01
<GCONST> 1.283658e+02
<STATE> 3
<MEAN> 39
 -1.128605e+01 -3.981611e+00 -9.179886e-01 -6.281276e+00 -6.097488e+00 -3.687960e+00 -1.059512e+01 -4.489139e+00 -3.662938e+00 -3.051039e+00 -2.527956e+00 -3.493394e+00 4.853898e+01 -8.090758e-03 -3.280958e-03 -2.541083e-02 1.868689e-02 5.482189e-02 4.936678e-03 8.207646e-03 -1.818483e-02 -1.371559e-04 -4.075133e-02 -1.862488e-02 -1.662774e-02 1.314428e-02 3.405679e-04 1.729425e-03 2.101706e-03 1.205887e-03 -1.951169e-03 1.217651e-03 -2.048732e-03 -8.065233e-04 -2.403954e-03 1.498714e-03 2.745042e-04 1.377586e-05 -3.063218e-04
<VARIANCE> 39
 9.275294e+01 5.575808e+01 7.905439e+01 6.825652e+01 9.396033e+01 4.570089e+01 6.588975e+01 5.323777e+01 6.316355e+01 3.150347e+01 3.264341e+01 2.341992e+01 1.999243e+02 2.758972e+00 2.828342e+00 3.019328e+00 2.418611e+00 3.257495e+00 2.992843e+00 3.046676e+00 2.601578e+00 2.784841e+00 2.232059e+00 2.326636e+00 1.819471e+00 4.418442e+00 4.005590e-01 4.168447e-01 4.662925e-01 4.184487e-01 5.219128e-01 5.281425e-01 5.653729e-01 4.846535e-01 5.026970e-01 4.288639e-01 4.515464e-01 3.460131e-01 5.994580e-01
<GCONST> 1.281185e+02
<STATE> 4
<MEAN> 39
 -1.172207e+01 -3.923127e+00 -9.169756e-01 -5.937455e+00 -5.784785e+00 -3.739373e+00 -1.045362e+01 -4.561980e+00 -3.937726e+00 -3.424836e+00 -2.528259e+00 -3.556078e+00 4.803720e+01 7.573522e-04 5.932473e-03 -1.356541e-02 2.427845e-02 3.828539e-02 9.874046e-03 -5.171304e-03 -2.220257e-02 -1.538682e-02 -3.197021e-02 -1.775475e-02 -1.630490e-02 7.652105e-03 5.078990e-04 1.898755e-03 2.182898e-03 1.058458e-03 -2.135353e-03 9.342906e-04 -2.283058e-03 -5.893736e-04 -1.990896e-03 2.051055e-03 3.288449e-04 9.211652e-05 -5.342935e-04
<VARIANCE> 39
 9.070054e+01 5.627949e+01 7.756945e+01 5.996969e+01 8.761867e+01 4.378498e+01 6.618396e+01 5.090974e+01 5.715051e+01 3.163810e+01 3.270205e+01 2.313981e+01 1.973122e+02 2.818117e+00 2.733213e+00 2.795097e+00 2.255424e+00 3.193018e+00 2.825172e+00 3.071101e+00 2.552692e+00 2.672007e+00 2.132681e+00 2.320582e+00 1.813916e+00 4.390162e+00 4.116573e-01 4.082836e-01 4.263034e-01 3.946018e-01 5.190191e-01 5.063628e-01 5.668963e-01 4.746003e-01 4.854181e-01 4.121951e-01 4.468067e-01 3.460661e-01 6.014185e-01
<GCONST> 1.270479e+02
<TRANSP> 5
 0.000000e+00 1.000000e+00 0.000000e+00 0.000000e+00 0.000000e+00
 0.000000e+00 7.282864e-01 2.717136e-01 0.000000e+00 0.000000e+00
 0.000000e+00 0.000000e+00 7.282866e-01 2.717133e-01 0.000000e+00
 0.000000e+00 0.000000e+00 0.000000e+00 8.524087e-01 1.475913e-01
 0.000000e+00 0.000000e+00 0.000000e+00 0.000000e+00 0.000000e+00
<ENDHMM>
~h "r"
<BEGINHMM>
<NUMSTATES> 5
<STATE> 2
<MEAN> 39
 -6.712741e+00 -2.841253e+00 -3.549735e+00 -4.872282e+00 -7.747449e+00 -3.212828e+00 -7.701313e+00 -5.249594e+00 -2.668651e+00 -3.024595e+00 -2.902255e+00 -4.739993e+00 5.357836e+01 -1.157110e-03 2.245123e-03 9.375090e-05 8.803144e-04 1.406155e-03 1.931758e-03 2.142879e-03 -2.694122e-03 -5.057800e-04 3.302258e-04 -1.877681e-04 -9.970685e-04 1.987929e-03 -5.015608e-04 3.970040e-04 8.451854e-05 8.885274e-05 1.946769e-04 -1.560005e-04 2.523168e-04 7.782382e-05 -1.588405e-04 2.435594e-05 -2.804139e-05 2.518287e-04 -8.719939e-04
<VARIANCE> 39
 7.190971e+01 5.405261e+01 7.745895e+01 5.802442e+01 7.287348e+01 5.763172e+01 6.193021e+01 6.914683e+01 6.098278e+01 4.116821e+01 4.817472e+01 4.017566e+01 2.390141e+02 2.606964e+00 2.431239e+00 2.793711e+00 2.758732e+00 3.440678e+00 3.011318e+00 3.202009e+00 3.591502e+00 3.372716e+00 2.614163e+00 2.869247e+00 2.462403e+00 5.106744e+00 3.938656e-01 3.840162e-01 4.287415e-01 4.671346e-01 5.992608e-01 5.374247e-01 5.765142e-01 6.356143e-01 5.907509e-01 4.914045e-01 5.217066e-01 4.513511e-01 6.632093e-01
<GCONST> 1.316351e+02
<STATE> 3
<MEAN> 39
 -6.717951e+00 -2.832916e+00 -3.548447e+00 -4.869907e+00 -7.741473e+00 -3.207686e+00 -7.692753e+00 -5.259835e+00 -2.670850e+00 -3.023509e+00 -2.903574e+00 -4.743664e+00 5.358478e+01 -2.935848e-03 3.583519e-03 4.730382e-04 1.067194e-03 2.063959e-03 1.371352e-03 3.066391e-03 -2.451090e-03 -1.113616e-03 3.105546e-04 -3.190297e-04 -1.456051e-04 -1.144818e-03 -4.227891e-04 3.268041e-04 1.087301e-04 1.721325e-05 8.645523e-05 -1.260871e-04 2.567559e-04 5.741902e-05 -1.855156e-04 2.496140e-05 5.307096e-06 2.317185e-04 -8.049693e-04
<VARIANCE> 39
 7.198553e+01 5.404387e+01 7.771729e+01 5.799186e+01 7.293966e+01 5.756485e+01 6.201129e+01 6.905241e+01 6.099992e+01 4.114055e+01 4.819658e+01 4.018226e+01 2.388938e+02 2.606911e+00 2.426910e+00 2.793763e+00 2.756052e+00 3.439095e+00 3.005031e+00 3.198520e+00 3.585800e+00 3.371628e+00 2.613150e+00 2.867177e+00 2.460627e+00 5.096729e+00 3.936146e-01 3.829866e-01 4.286149e-01 4.665015e-01 5.987262e-01 5.363030e-01 5.756494e-01 6.345412e-01 5.902544e-01 4.912067e-01 5.213042e-01 4.508697e-01 6.610683e-01
<GCONST> 1.316087e+02
<STATE> 4
<MEAN> 39
 -6.838073e+00 -2.792941e+00 -3.476757e+00 -4.961585e+00 -7.607713e+00 -3.171498e+00 -7.770904e+00 -5.310241e+00 -2.751497e+00 -3.062172e+00 -2.894541e+00 -4.717022e+00 5.338065e+01 -4.485866e-03 4.359594e-03 1.334507e-03 9.548248e-04 2.474176e-03 6.085326e-04 4.036244e-03 -2.253134e-03 -1.619201e-03 3.400811e-04 -5.817707e-04 4.726286e-04 -4.000272e-03 -3.452864e-04 2.348805e-04 1.315393e-04 -4.775272e-05 5.970290e-06 -5.490619e-05 1.840374e-04 3.009417e-05 -1.522035e-04 5.124633e-05 5.657455e-05 2.096346e-04 -7.028615e-04
<VARIANCE> 39
 7.223559e+01 5.379486e+01 7.775433e+01 5.869143e+01 7.317599e+01 5.691253e+01 6.249060e+01 6.796296e+01 6.097698e+01 4.087446e+01 4.792652e+01 3.969653e+01 2.395075e+02 2.572183e+00 2.394083e+00 2.764465e+00 2.742271e+00 3.392724e+00 2.968820e+00 3.173571e+00 3.533715e+00 3.336877e+00 2.585550e+00 2.842245e+00 2.429801e+00 5.014380e+00 3.876349e-01 3.774592e-01 4.236192e-01 4.622649e-01 5.891112e-01 5.296198e-01 5.699594e-01 6.255319e-01 5.834424e-01 4.856302e-01 5.159803e-01 4.452189e-01 6.464046e-01
<GCONST> 1.312602e+02
<TRANSP> 5
 0.000000e+00 1.000000e+00 0.000000e+00 0.000000e+00 0.000000e+00
 0.000000e+00 7.250512e-01 2.749487e-01 0.000000e+00 0.000000e+00
 0.000000e+00 0.000000e+00 7.250427e-01 2.749574e-01 0.000000e+00
 0.000000e+00 0.000000e+00 0.000000e+00 8.507608e-01 1.492392e-01
 0.000000e+00 0.000000e+00 0.000000e+00 0.000000e+00 0.000000e+00
<ENDHMM>
~h "s"
<BEGINHMM>
<NUMSTATES> 5
<STATE> 2
<MEAN> 39
 -8.769403e+00 -2.025652e+00 -3.322755e+00 -4.731354e+00 -7.006072e+00 -3.441060e+00 -7.216627e+00 -4.865664e+00 -2.752664e+00 -3.007085e+00 -2.535769e+00 -4.100269e+00 5.307733e+01 -4.404978e-03 7.441102e-03 2.084845e-03 -5.168433e-03 6.631629e-03 4.121342e-03 -6.747415e-04 -3.425953e-03 1.861700e-03 3.352838e-03 -8.267130e-04 -2.839333e-03 6.672563e-03 7.633974e-04 -3.109384e-04 -2.630091e-04 1.046890e-04 -1.204877e-04 2.044213e-04 4.073109e-05 1.911061e-05 -2.432913e-04 -2.413625e-05 -8.888018e-05 -1.206505e-04 -7.083349e-04
<VARIANCE> 39
 9.735576e+01 5.257399e+01 7.406537e+01 5.585269e+01 7.295002e+01 5.514358e+01 6.207454e+01 6.770319e+01 5.750967e+01 3.889109e+01 4.598455e+01 3.886303e+01 2.351936e+02 3.657720e+00 2.548332e+00 2.754085e+00 2.635407e+00 3.433001e+00 2.901883e+00 3.169384e+00 3.612015e+00 3.188660e+00 2.515487e+00 2.803519e+00 2.405283e+00 4.558161e+00 4.952339e-01 3.975843e-01 4.222155e-01 4.459565e-01 5.834644e-01 5.205418e-01 5.649056e-01 6.333740e-01 5.614109e-01 4.750422e-01 5.111666e-01 4.350271e-01 5.886300e-01
<GCONST> 1.314393e+02
<STATE> 3
<MEAN> 39
 -8.781721e+00 -2.002080e+00 -3.315654e+00 -4.748877e+00 -6.984420e+00 -3.425677e+00 -7.220337e+00 -4.877330e+00 -2.746237e+00 -2.995817e+00 -2.538104e+00 -4.112572e+00 5.310127e+01 -1.594109e-03 5.738026e-03 9.428031e-04 -4.818926e-03 5.782802e-03 4.468934e-03 -7.911268e-04 -3.476508e-03 1.315695e-03 3.131218e-03 -1.090305e-03 -3.363392e-03 4.310493e-03 6.433062e-04 -4.447294e-04 -3.035606e-04 1.435595e-04 -2.428759e-04 2.061714e-05 -7.616015e-05 -1.595198e-05 -8.012198e-05 -1.929165e-05 -2.807764e-05 -9.212319e-05 -5.273388e-04
<VARIANCE> 39
 9.779717e+01 5.263996e+01 7.415005e+01 5.587409e+01 7.298196e+01 5.517583e+01 6.212960e+01 6.762666e+01 5.748959e+01 3.892176e+01 4.599032e+01 3.884748e+01 2.347823e+02 3.688765e+00 2.553622e+00 2.755976e+00 2.638871e+00 3.436733e+00 2.907325e+00 3.172074e+00 3.612500e+00 3.192155e+00 2.513330e+00 2.803807e+00 2.407717e+00 4.555596e+00 4.986507e-01 3.980466e-01 4.224713e-01 4.462476e-01 5.832145e-01 5.212638e-01 5.649667e-01 6.328923e-01 5.619387e-01 4.744546e-01 5.111961e-01 4.352088e-01 5.875295e-01
<GCONST> 1.314710e+02
<STATE> 4
<MEAN> 39
 -8.873599e+00 -1.962640e+00 -3.248665e+00 -4.872839e+00 -6.844102e+00 -3.370700e+00 -7.337919e+00 -4.936518e+00 -2.808493e+00 -3.009473e+00 -2.528508e+00 -4.119504e+00 5.298267e+01 1.578953e-03 2.501555e-03 -7.716337e-04 -4.011874e-03 3.934260e-03 4.038282e-03 -1.980531e-03 -3.634012e-03 1.146143e-03 2.377965e-03 -1.155207e-03 -4.356673e-03 2.995605e-03 4.445372e-04 -4.531356e-04 -3.158604e-04 1.338316e-04 -2.727807e-04 -6.447462e-05 -1.547938e-04 -6.899653e-05 -2.640251e-05 -8.310960e-05 -2.782731e-05 -1.047439e-04 -3.220438e-04
<VARIANCE> 39
 9.855415e+01 5.239958e+01 7.409457e+01 5.672639e+01 7.306451e+01 5.482629e+01 6.238015e+01 6.676269e+01 5.762404e+01 3.867994e+01 4.590672e+01 3.847719e+01 2.338850e+02 3.666406e+00 2.526819e+00 2.735049e+00 2.642416e+00 3.399678e+00 2.886827e+00 3.155133e+00 3.576385e+00 3.170425e+00 2.492531e+00 2.784073e+00 2.387270e+00 4.515517e+00 4.939498e-01 3.939019e-01 4.191411e-01 4.452622e-01 5.752786e-01 5.170998e-01 5.610175e-01 6.263588e-01 5.576714e-01 4.703636e-01 5.070842e-01 4.316638e-01 5.790403e-01
<GCONST> 1.312433e+02
<TRANSP> 5
 0.000000e+00 1.000000e+00 0.000000e+00 0.000000e+00 0.000000e+00
 0.000000e+00 7.252921e-01 2.747078e-01 0.000000e+00 0.000000e+00
 0.000000e+00 0.000000e+00 7.252846e-01 2.747154e-01 0.000000e+00
 0.000000e+00 0.000000e+00 0.000000e+00 8.511986e-01 1.488014e-01
 0.000000e+00 0.000000e+00 0.000000e+00 0.000000e+00 0.000000e+00
<ENDHMM>
~h "t"
<BEGINHMM>
<NUMSTATES> 5
<STATE> 2
<MEAN> 39
 -6.995234e+00 -2.260193e+00 -3.505378e+00 -4.983642e+00 -7.454244e+00 -3.199953e+00 -7.516792e+00 -5.322813e+00 -2.866053e+00 -3.002213e+00 -2.914554e+00 -4.624690e+00 5.242058e+01 -5.513777e-04 1.566549e-03 2.179831e-03 3.095569e-04 -3.424560e-04 2.399123e-03 -4.043122e-04 -2.382711e-03 -9.739208e-04 5.158124e-04 -4.847826e-04 -3.700198e-04 -1.279009e-03 -6.744363e-05 -9.719425e-05 2.787308e-05 -1.499053e-04 -5.164967e-05 2.199720e-04 -8.750713e-05 -4.223094e-05 -1.075113e-04 -1.643712e-04 1.212592e-04 3.385568e-05 3.048608e-04
<VARIANCE> 39
 6.984212e+01 5.185856e+01 7.580727e+01 5.935015e+01 6.919073e+01 5.650188e+01 5.932248e+01 6.649309e+01 5.958893e+01 4.037713e+01 4.789749e+01 4.039801e+01 2.429270e+02 2.683451e+00 2.524094e+00 2.830012e+00 2.801756e+00 3.403903e+00 3.026494e+00 3.188864e+00 3.573702e+00 3.306715e+00 2.604818e+00 2.918071e+00 2.505579e+00 6.204615e+00 4.125758e-01 4.058296e-01 4.416597e-01 4.738990e-01 5.967565e-01 5.452233e-01 5.785559e-01 6.381856e-01 5.888122e-01 4.919771e-01 5.322472e-01 4.605132e-01 8.151650e-01
<GCONST> 1.320786e+02
<STATE> 3
<MEAN> 39
 -6.997705e+00 -2.255906e+00 -3.498526e+00 -4.982824e+00 -7.457256e+00 -3.191276e+00 -7.517453e+00 -5.331288e+00 -2.869279e+00 -3.001272e+00 -2.916364e+00 -4.626689e+00 5.241916e+01 -6.387990e-04 1.187522e-03 2.041018e-03 -1.199156e-04 -5.932666e-04 3.211443e-03 -4.627372e-04 -2.497894e-03 -1.175934e-03 1.836233e-04 2.806886e-05 -3.414527e-04 -2.767029e-04 -2.083110e-05 -3.043257e-05 -2.614947e-05 -1.689872e-04 -7.103246e-05 1.835525e-04 -1.874374e-05 -5.945867e-05 -1.013649e-04 -1.080054e-04 1.579156e-04 -2.314466e-05 2.967377e-04
<VARIANCE> 39
 6.982534e+01 5.188450e+01 7.590417e+01 5.944163e+01 6.912867e+01 5.649346e+01 5.928161e+01 6.635871e+01 5.961031e+01 4.035252e+01 4.795194e+01 4.033829e+01 2.426395e+02 2.679847e+00 2.522789e+00 2.834194e+00 2.802060e+00 3.403666e+00 3.027689e+00 3.190499e+00 3.571410e+00 3.304726e+00 2.603495e+00 2.916880e+00 2.506399e+00 6.238172e+00 4.121823e-01 4.055033e-01 4.423391e-01 4.737243e-01 5.965995e-01 5.455716e-01 5.788929e-01 6.382604e-01 5.883596e-01 4.916552e-01 5.318453e-01 4.609008e-01 8.199121e-01
<GCONST> 1.320853e+02
<STATE> 4
<MEAN> 39
 -7.091798e+00 -2.223451e+00 -3.419922e+00 -5.068780e+00 -7.370029e+00 -3.159393e+00 -7.608234e+00 -5.378698e+00 -2.952332e+00 -3.039719e+00 -2.913185e+00 -4.600902e+00 5.227214e+01 -5.914311e-04 1.088882e-03 1.428859e-03 -1.322218e-04 -6.509710e-04 3.458251e-03 4.009584e-05 -2.323911e-03 -1.124866e-03 -2.271492e-04 3.200360e-04 -5.187308e-04 2.676059e-04 1.555805e-05 8.634634e-05 -2.515225e-05 -1.075018e-04 3.043783e-05 5.482832e-05 -2.372431e-05 -5.126620e-05 -8.913831e-05 -1.058735e-04 1.363750e-04 -2.770928e-05 1.072295e-04
<VARIANCE> 39
 6.985870e+01 5.165465e+01 7.594670e+01 6.017916e+01 6.917353e+01 5.604286e+01 5.947627e+01 6.533147e+01 5.971690e+01 4.000502e+01 4.789650e+01 3.985484e+01 2.420731e+02 2.642734e+00 2.495920e+00 2.818005e+00 2.797899e+00 3.369286e+00 3.001939e+00 3.175458e+00 3.527334e+00 3.273523e+00 2.578954e+00 2.894634e+00 2.482003e+00 6.220155e+00 4.063731e-01 4.013445e-01 4.397536e-01 4.711457e-01 5.895222e-01 5.407241e-01 5.752474e-01 6.312018e-01 5.825794e-01 4.866129e-01 5.267143e-01 4.567798e-01 8.148577e-01
<GCONST> 1.318260e+02
<TRANSP> 5
 0.000000e+00 1.000000e+00 0.000000e+00 0.000000e+00 0.000000e+00
 0.000000e+00 7.250044e-01 2.749956e-01 0.000000e+00 0.000000e+00
 0.000000e+00 0.000000e+00 7.250040e-01 2.749960e-01 0.000000e+00
 0.000000e+00 0.000000e+00 0.000000e+00 8.502154e-01 1.497846e-01
 0.000000e+00 0.000000e+00 0.000000e+00 0.000000e+00 0.000000e+00
<ENDHMM>
~h "u"
<BEGINHMM>
<NUMSTATES> 5
<STATE> 2
<MEAN> 39
 -6.527542e+00 -1.409194e+00 -3.019047e+00 -5.423613e+00 -7.882100e+00 -2.369830e+00 -8.427775e+00 -5.957876e+00 -3.638090e+00 -3.184960e+00 -2.652694e+00 -4.092525e+00 5.259572e+01 1.777526e-03 8.289104e-03 2.062414e-03 -4.208115e-03 -1.824666e-03 8.279922e-03 -3.526245e-03 -5.094116e-03 -4.727107e-03 9.201289e-04 1.092396e-03 -1.316426e-04 4.439558e-03 -3.574577e-04 -3.838394e-04 2.535228e-05 4.598300e-04 2.556146e-04 -3.290373e-04 2.904084e-04 2.142848e-04 2.946091e-04 -3.049307e-05 -1.912353e-04 -6.714775e-05 -4.931221e-04
<VARIANCE> 39
 7.541247e+01 5.228925e+01 7.141678e+01 6.328786e+01 7.184209e+01 5.856392e+01 6.338593e+01 7.322039e+01 6.296958e+01 4.219024e+01 4.838350e+01 3.900441e+01 2.252442e+02 2.772624e+00 2.483220e+00 2.750008e+00 3.018037e+00 3.531986e+00 3.158545e+00 3.323429e+00 3.803167e+00 3.365202e+00 2.701386e+00 2.970733e+00 2.466776e+00 5.078160e+00 4.133884e-01 4.014684e-01 4.314732e-01 5.056743e-01 6.174195e-01 5.661235e-01 5.964413e-01 6.696107e-01 5.941873e-01 5.084574e-01 5.394171e-01 4.527079e-01 6.636453e-01
<GCONST> 1.325195e+02
<STATE> 3
<MEAN> 39
 -6.521574e+00 -1.381114e+00 -3.012902e+00 -5.437244e+00 -7.888787e+00 -2.340409e+00 -8.439418e+00 -5.974054e+00 -3.653189e+00 -3.181294e+00 -2.648792e+00 -4.093837e+00 5.261181e+01 6.026277e-04 6.944140e-03 2.076980e-03 -2.558400e-03 -9.883040e-04 6.985857e-03 -2.403916e-03 -4.275047e-03 -3.726720e-03 8.008688e-04 3.806492e-04 -3.620363e-04 2.708013e-03 -2.224155e-04 -3.269779e-04 -4.617098e-06 4.092921e-04 1.978051e-04 -3.583321e-04 1.957812e-04 2.033152e-04 2.731172e-04 -3.110817e-05 -2.016237e-04 -8.351447e-05 -4.246111e-04
<VARIANCE> 39
 7.558012e+01 5.222456e+01 7.141970e+01 6.342058e+01 7.191057e+01 5.858909e+01 6.359368e+01 7.332741e+01 6.299672e+01 4.224473e+01 4.848841e+01 3.896861e+01 2.248840e+02 2.779867e+00 2.483726e+00 2.751470e+00 3.022294e+00 3.537654e+00 3.161639e+00 3.329581e+00 3.806576e+00 3.367682e+00 2.705605e+00 2.975851e+00 2.467308e+00 5.077074e+00 4.140620e-01 4.015526e-01 4.318599e-01 5.060398e-01 6.183279e-01 5.665211e-01 5.973191e-01 6.700970e-01 5.946386e-01 5.092744e-01 5.401877e-01 4.528660e-01 6.633807e-01
<GCONST> 1.325558e+02
<STATE> 4
<MEAN> 39
 -6.619754e+00 -1.342159e+00 -2.952694e+00 -5.525991e+00 -7.750483e+00 -2.282673e+00 -8.511351e+00 -6.014738e+00 -3.749915e+00 -3.197220e+00 -2.633870e+00 -4.052823e+00 5.241005e+01 -2.222035e-04 5.231817e-03 1.724587e-03 -1.167697e-03 -4.730851e-04 5.462640e-03 -1.540092e-03 -2.958787e-03 -2.470070e-03 6.754571e-04 8.377979e-06 -9.509379e-04 1.534258e-03 -1.168449e-04 -2.828705e-04 -1.116125e-05 2.951562e-04 1.665386e-04 -3.384957e-04 1.154289e-04 1.626226e-04 2.405416e-04 9.537530e-07 -1.521048e-04 -1.414779e-04 -2.727881e-04
<VARIANCE> 39
 7.573592e+01 5.184095e+01 7.117149e+01 6.421505e+01 7.175983e+01 5.796637e+01 6.390382e+01 7.208615e+01 6.307521e+01 4.192771e+01 4.839687e+01 3.850897e+01 2.248319e+02 2.749514e+00 2.457551e+00 2.726649e+00 3.010573e+00 3.488664e+00 3.127926e+00 3.309053e+00 3.755473e+00 3.335612e+00 2.683081e+00 2.957417e+00 2.441823e+00 5.016176e+00 4.087962e-01 3.976105e-01 4.282739e-01 5.026743e-01 6.091875e-01 5.598649e-01 5.930662e-01 6.618626e-01 5.893139e-01 5.047560e-01 5.360889e-01 4.485545e-01 6.532372e-01
<GCONST> 1.322543e+02
<TRANSP> 5
 0.000000e+00 1.000000e+00 0.000000e+00 0.000000e+00 0.000000e+00
 0.000000e+00 7.265754e-01 2.734246e-01 0.000000e+00 0.000000e+00
 0.000000e+00 0.000000e+00 7.265741e-01 2.734260e-01 0.000000e+00
 0.000000e+00 0.000000e+00 0.000000e+00 8.526515e-01 1.473485e-01
 0.000000e+00 0.000000e+00 0.000000e+00 0.000000e+00 0.000000e+00
<ENDHMM>
~h "w"
<BEGINHMM>
<NUMSTATES> 5
<STATE> 2
<MEAN> 39
 -6.056840e+00 -2.325401e+00 -3.397741e+00 -6.526512e+00 -8.045690e+00 -2.258592e+00 -8.140162e+00 -5.463400e+00 -3.232646e+00 -3.023181e+00 -2.448400e+00 -4.658569e+00 5.399461e+01 3.191350e-03 9.203375e-04 -1.703038e-03 -3.577513e-03 4.475280e-03 2.741300e-03 2.948104e-03 -1.342195e-03 2.297969e-03 6.859867e-04 -8.956584e-04 3.609062e-03 -1.631414e-03 -1.042262e-03 6.244130e-06 3.975107e-04 1.037419e-03 7.090642e-04 -2.135142e-04 2.412486e-04 9.042922e-04 3.468296e-04 -4.615041e-05 1.768218e-04 3.252554e-04 -2.136633e-03
<VARIANCE> 39
 7.596626e+01 5.377153e+01 7.983758e+01 7.899155e+01 7.660359e+01 6.259416e+01 6.345153e+01 6.759523e+01 6.094883e+01 4.174720e+01 5.039201e+01 4.038950e+01 2.298635e+02 2.420893e+00 2.522621e+00 2.712629e+00 2.959258e+00 3.455271e+00 3.026542e+00 3.147624e+00 3.564531e+00 3.199598e+00 2.534876e+00 2.866020e+00 2.453411e+00 4.615666e+00 3.555829e-01 3.888205e-01 4.081529e-01 4.686639e-01 5.880006e-01 5.270906e-01 5.606205e-01 6.336257e-01 5.598965e-01 4.738156e-01 5.131063e-01 4.416515e-01 5.886106e-01
<GCONST> 1.315281e+02
<STATE> 3
<MEAN> 39
 -6.049628e+00 -2.319415e+00 -3.399657e+00 -6.534020e+00 -8.025945e+00 -2.250850e+00 -8.126273e+00 -5.466816e+00 -3.223159e+00 -3.020736e+00 -2.449883e+00 -4.643325e+00 5.396976e+01 -4.883973e-04 1.865849e-03 -6.663972e-04 1.944058e-04 7.190784e-03 2.228949e-03 4.011659e-03 6.498993e-04 3.033608e-03 5.520078e-04 -3.514321e-04 4.752936e-03 -1.073711e-02 -9.947593e-04 3.800332e-04 2.851199e-04 1.025461e-03 6.377025e-04 -1.492683e-04 3.096415e-04 5.226260e-04 1.209284e-04 -8.381487e-06 1.312573e-04 3.220555e-04 -2.427372e-03
<VARIANCE> 39
 7.587023e+01 5.367887e+01 7.987646e+01 7.915247e+01 7.647629e+01 6.253550e+01 6.337396e+01 6.745546e+01 6.080875e+01 4.165889e+01 5.049651e+01 4.045563e+01 2.294391e+02 2.406929e+00 2.517986e+00 2.707068e+00 2.960647e+00 3.457454e+00 3.016316e+00 3.144892e+00 3.558773e+00 3.191209e+00 2.534022e+00 2.870970e+00 2.449515e+00 4.595904e+00 3.534973e-01 3.884797e-01 4.071342e-01 4.685871e-01 5.884858e-01 5.256821e-01 5.600036e-01 6.325408e-01 5.577796e-01 4.734851e-01 5.135632e-01 4.402796e-01 5.857729e-01
<GCONST> 1.314720e+02
<STATE> 4
<MEAN> 39
 -6.211448e+00 -2.289001e+00 -3.340972e+00 -6.627932e+00 -7.825780e+00 -2.243523e+00 -8.149989e+00 -5.465297e+00 -3.305964e+00 -3.065034e+00 -2.467637e+00 -4.550806e+00 5.365026e+01 -4.750485e-03 4.218906e-03 3.150780e-04 5.492264e-03 1.006486e-02 1.352636e-03 6.347891e-03 1.417888e-03 2.159408e-03 4.895542e-04 -1.373871e-03 5.614845e-03 -2.505607e-02 -9.570644e-04 4.946164e-04 1.523351e-04 9.673818e-04 4.596329e-04 -8.699300e-05 3.559807e-04 3.068419e-04 -1.158952e-04 5.265331e-05 -1.471748e-04 2.325919e-04 -2.374271e-03
<VARIANCE> 39
 7.626333e+01 5.286564e+01 7.920462e+01 7.974950e+01 7.603677e+01 6.187383e+01 6.309019e+01 6.600998e+01 6.093133e+01 4.112157e+01 5.008348e+01 4.007937e+01 2.300221e+02 2.349611e+00 2.467910e+00 2.668930e+00 2.938842e+00 3.413038e+00 2.964798e+00 3.102814e+00 3.494570e+00 3.149355e+00 2.511666e+00 2.847855e+00 2.410207e+00 4.488578e+00 3.439666e-01 3.808911e-01 4.017206e-01 4.638893e-01 5.796480e-01 5.168000e-01 5.513274e-01 6.213759e-01 5.495391e-01 4.679571e-01 5.083721e-01 4.331098e-01 5.683772e-01
<GCONST> 1.309754e+02
<TRANSP> 5
 0.000000e+00 1.000000e+00 0.000000e+00 0.000000e+00 0.000000e+00
 0.000000e+00 7.289138e-01 2.710862e-01 0.000000e+00 0.000000e+00
 0.000000e+00 0.000000e+00 7.289146e-01 2.710855e-01 0.000000e+00
 0.000000e+00 0.000000e+00 0.000000e+00 8.554416e-01 1.445583e-01
 0.000000e+00 0.000000e+00 0.000000e+00 0.000000e+00 0.000000e+00
<ENDHMM>
~h "y"
<BEGINHMM>
<NUMSTATES> 5
<STATE> 2
<MEAN> 39
 -6.989193e+00 -2.514641e+00 -2.579746e+00 -4.955755e+00 -7.953043e+00 -3.262496e+00 -7.495171e+00 -4.680005e+00 -2.863064e+00 -3.070470e+00 -2.503799e+00 -4.369166e+00 5.328691e+01 3.832576e-03 -4.362464e-03 7.938449e-03 -2.240406e-03 -9.306839e-03 -7.222027e-03 1.831214e-03 3.443809e-05 -4.051008e-03 -3.203103e-03 -4.564582e-04 -2.243526e-03 1.434411e-02 -4.936769e-06 -3.710730e-05 -2.526943e-05 6.973658e-05 3.733932e-04 -2.157542e-04 1.611139e-05 -2.826333e-05 5.558601e-05 -1.452087e-04 -3.802202e-04 3.009149e-04 -2.723044e-04
<VARIANCE> 39
 6.598969e+01 5.117435e+01 8.159852e+01 5.768195e+01 7.749463e+01 5.700682e+01 6.391500e+01 6.834269e+01 5.968256e+01 4.165972e+01 5.030331e+01 3.862015e+01 2.516210e+02 2.299755e+00 2.311464e+00 2.999339e+00 2.578617e+00 3.325634e+00 2.910126e+00 3.057575e+00 3.623574e+00 3.182412e+00 2.548745e+00 2.910801e+00 2.349155e+00 4.362899e+00 3.404444e-01 3.548592e-01 4.293437e-01 4.322798e-01 5.626975e-01 5.167363e-01 5.465793e-01 6.375625e-01 5.521828e-01 4.773184e-01 5.230338e-01 4.310621e-01 5.517771e-01
<GCONST> 1.303278e+02
<STATE> 3
<MEAN> 39
 -6.976875e+00 -2.531257e+00 -2.551843e+00 -4.962682e+00 -7.986308e+00 -3.290991e+00 -7.489675e+00 -4.678738e+00 -2.876220e+00 -3.082714e+00 -2.505251e+00 -4.376502e+00 5.333739e+01 3.441096e-03 -4.383267e-03 7.571899e-03 -2.307463e-03 -8.065199e-03 -7.569690e-03 1.580228e-03 3.468899e-06 -3.397548e-03 -3.275927e-03 -1.814075e-03 -1.479232e-03 1.311716e-02 -1.657544e-05 2.247465e-05 -1.285614e-04 -1.206310e-05 3.352865e-04 -3.580447e-05 -1.162443e-04 -4.535595e-06 2.531263e-04 -8.027882e-06 -4.273014e-04 2.485568e-04 -3.689870e-04
<VARIANCE> 39
 6.568749e+01 5.119560e+01 8.193061e+01 5.754374e+01 7.780929e+01 5.693687e+01 6.395739e+01 6.842524e+01 5.967546e+01 4.172424e+01 5.033577e+01 3.846683e+01 2.514855e+02 2.296574e+00 2.312047e+00 3.016942e+00 2.580117e+00 3.335563e+00 2.912210e+00 3.066838e+00 3.638537e+00 3.183537e+00 2.557175e+00 2.912992e+00 2.347906e+00 4.345006e+00 3.397779e-01 3.546868e-01 4.307807e-01 4.325065e-01 5.635493e-01 5.170314e-01 5.480570e-01 6.394899e-01 5.523521e-01 4.791071e-01 5.224643e-01 4.305761e-01 5.488398e-01
<GCONST> 1.303492e+02
<STATE> 4
<MEAN> 39
 -7.044186e+00 -2.447896e+00 -2.430689e+00 -4.958545e+00 -7.831884e+00 -3.291459e+00 -7.510035e+00 -4.728600e+00 -2.958779e+00 -3.093010e+00 -2.498164e+00 -4.305253e+00 5.292924e+01 2.280971e-03 -4.149492e-03 5.725813e-03 -2.661675e-03 -6.336411e-03 -7.254993e-03 7.966236e-04 -2.855075e-04 -6.076945e-04 -2.600931e-03 -3.660102e-03 -1.586977e-03 1.042305e-02 -5.441606e-05 1.418226e-04 -2.467116e-04 -1.142378e-05 4.022054e-04 1.245761e-04 -4.188796e-05 -7.282967e-05 4.756017e-04 1.167136e-04 -5.060360e-04 1.294963e-04 -5.238021e-04
<VARIANCE> 39
 6.453475e+01 5.054629e+01 8.136720e+01 5.767101e+01 7.733839e+01 5.570575e+01 6.361504e+01 6.747130e+01 5.951253e+01 4.109541e+01 4.953513e+01 3.767507e+01 2.519552e+02 2.217416e+00 2.263664e+00 2.964453e+00 2.546401e+00 3.276872e+00 2.860491e+00 3.030893e+00 3.584451e+00 3.133726e+00 2.530087e+00 2.880355e+00 2.312646e+00 4.235456e+00 3.281109e-01 3.472054e-01 4.230062e-01 4.263119e-01 5.537927e-01 5.074721e-01 5.414092e-01 6.292490e-01 5.440909e-01 4.747048e-01 5.161337e-01 4.249361e-01 5.319824e-01
<GCONST> 1.297518e+02
<TRANSP> 5
 0.000000e+00 1.000000e+00 0.000000e+00 0.000000e+00 0.000000e+00
 0.000000e+00 7.288643e-01 2.711358e-01 0.000000e+00 0.000000e+00
 0.000000e+00 0.000000e+00 7.288653e-01 2.711347e-01 0.000000e+00
 0.000000e+00 0.000000e+00 0.000000e+00 8.564002e-01 1.435998e-01
 0.000000e+00 0.000000e+00 0.000000e+00 0.000000e+00 0.000000e+00
<ENDHMM>
~h "z"
<BEGINHMM>
<NUMSTATES> 5
<STATE> 2
<MEAN> 39
 -8.745251e+00 -1.004368e+00 -2.319145e+00 -3.965116e+00 -7.065661e+00 -3.629395e+00 -7.758817e+00 -5.016047e+00 -3.130645e+00 -3.718242e+00 -2.659552e+00 -3.690709e+00 5.253127e+01 2.198347e-03 -8.137560e-04 1.166583e-02 1.096757e-02 -1.081783e-02 -2.502612e-03 -3.125840e-03 -9.697944e-03 -1.111026e-02 -9.687737e-04 8.152327e-04 1.054302e-03 -2.337284e-02 -2.118859e-05 -7.416575e-04 -6.839865e-04 6.373212e-05 7.626327e-04 5.016103e-04 2.811700e-04 6.919551e-04 -4.397471e-04 -6.062526e-05 -4.713061e-04 -1.121241e-03 -1.361391e-03
<VARIANCE> 39
 7.388141e+01 6.089977e+01 7.525824e+01 5.518729e+01 7.191876e+01 5.538948e+01 5.955146e+01 7.117181e+01 5.576142e+01 3.784221e+01 4.494316e+01 3.661035e+01 2.465573e+02 2.595782e+00 2.341499e+00 2.384391e+00 2.515442e+00 3.329356e+00 2.796385e+00 2.937229e+00 3.321951e+00 2.891582e+00 2.330247e+00 2.626600e+00 2.256006e+00 3.684568e+00 3.599839e-01 3.401271e-01 3.618524e-01 4.184483e-01 5.474125e-01 4.967427e-01 5.275743e-01 5.780724e-01 5.141177e-01 4.373424e-01 4.727680e-01 4.073699e-01 4.560004e-01
<GCONST> 1.283242e+02
<STATE> 3
<MEAN> 39
 -8.747153e+00 -1.005187e+00 -2.275267e+00 -3.919776e+00 -7.099945e+00 -3.637016e+00 -7.768836e+00 -5.047113e+00 -3.175412e+00 -3.726421e+00 -2.658521e+00 -3.688418e+00 5.243708e+01 1.640699e-03 -3.235004e-03 8.691818e-03 1.083271e-02 -8.527381e-03 3.330801e-04 -7.888451e-04 -7.759903e-03 -1.221257e-02 -1.791823e-03 -1.042312e-03 -2.744330e-03 -2.843924e-02 -4.162462e-04 -4.509923e-04 -9.269980e-04 7.360683e-05 7.011310e-04 7.873974e-04 7.777989e-04 5.556886e-04 -7.490961e-05 -1.255974e-04 -4.776556e-04 -1.020333e-03 -1.186281e-03
<VARIANCE> 39
 7.398433e+01 6.066191e+01 7.529510e+01 5.499178e+01 7.242825e+01 5.515355e+01 5.932719e+01 7.134977e+01 5.557523e+01 3.772930e+01 4.479911e+01 3.615866e+01 2.459540e+02 2.585842e+00 2.331857e+00 2.379472e+00 2.500979e+00 3.324163e+00 2.786159e+00 2.924777e+00 3.323394e+00 2.885801e+00 2.323429e+00 2.608715e+00 2.242283e+00 3.636277e+00 3.586481e-01 3.389215e-01 3.610918e-01 4.148781e-01 5.451899e-01 4.965249e-01 5.248800e-01 5.781106e-01 5.138821e-01 4.357500e-01 4.697577e-01 4.071427e-01 4.502946e-01
<GCONST> 1.281888e+02
<STATE> 4
<MEAN> 39
 -8.923978e+00 -1.009004e+00 -2.240438e+00 -3.924538e+00 -6.929881e+00 -3.620944e+00 -7.918869e+00 -5.128121e+00 -3.258924e+00 -3.767856e+00 -2.696769e+00 -3.651981e+00 5.215139e+01 -1.688471e-03 -3.428722e-03 4.087743e-03 9.206626e-03 -4.852493e-03 2.889349e-03 2.676949e-03 -5.300221e-03 -8.980258e-03 -2.317738e-03 -8.037504e-04 -5.520079e-03 -3.241076e-02 -4.662643e-04 -2.188007e-04 -1.101882e-03 -2.690398e-04 6.183141e-04 6.116637e-04 8.668620e-04 5.716375e-04 7.592918e-04 1.725284e-04 -1.581502e-04 -7.274206e-04 -9.359098e-04
<VARIANCE> 39
 7.457043e+01 6.077900e+01 7.517847e+01 5.513218e+01 7.271866e+01 5.439389e+01 5.927972e+01 6.978489e+01 5.486981e+01 3.773376e+01 4.455998e+01 3.515818e+01 2.455522e+02 2.549342e+00 2.307734e+00 2.336448e+00 2.449378e+00 3.273820e+00 2.754539e+00 2.893929e+00 3.271825e+00 2.843398e+00 2.307730e+00 2.567211e+00 2.201902e+00 3.506456e+00 3.532300e-01 3.359594e-01 3.552237e-01 4.037682e-01 5.347740e-01 4.938035e-01 5.205489e-01 5.715588e-01 5.076271e-01 4.316351e-01 4.623847e-01 4.027795e-01 4.331546e-01
<GCONST> 1.277111e+02
<TRANSP> 5
 0.000000e+00 1.000000e+00 0.000000e+00 0.000000e+00 0.000000e+00
 0.000000e+00 7.326558e-01 2.673441e-01 0.000000e+00 0.000000e+00
 0.000000e+00 0.000000e+00 7.326569e-01 2.673430e-01 0.000000e+00
 0.000000e+00 0.000000e+00 0.000000e+00 8.603995e-01 1.396006e-01
 0.000000e+00 0.000000e+00 0.000000e+00 0.000000e+00 0.000000e+00
<ENDHMM>
~h "ai"
<BEGINHMM>
<NUMSTATES> 5
<STATE> 2
<MEAN> 39
 -7.112536e+00 -2.677572e+00 -2.381058e+00 -5.561737e+00 -8.480272e+00 -3.572942e+00 -7.589388e+00 -4.723515e+00 -3.236238e+00 -3.008746e+00 -2.767892e+00 -4.836065e+00 5.426341e+01 6.933017e-03 1.278843e-03 3.817046e-03 1.821769e-03 -6.906522e-03 -2.658144e-03 2.709931e-03 -1.053276e-03 -3.906159e-03 2.240446e-03 -4.071229e-03 -5.435330e-03 1.842049e-02 -4.852326e-04 2.490144e-04 -1.131799e-04 4.082064e-04 2.687322e-04 1.805129e-04 -1.948110e-04 -1.769313e-04 1.081545e-04 5.320762e-05 5.641481e-05 -5.641885e-05 -8.234674e-04
<VARIANCE> 39
 7.526025e+01 5.380808e+01 7.741582e+01 6.007730e+01 8.105717e+01 5.702302e+01 6.502961e+01 7.113602e+01 6.323928e+01 4.435566e+01 4.898407e+01 3.907492e+01 2.436048e+02 2.793529e+00 2.635183e+00 2.911415e+00 2.905293e+00 3.567092e+00 2.944075e+00 3.337640e+00 3.672784e+00 3.504343e+00 2.679755e+00 3.001639e+00 2.412635e+00 4.951150e+00 4.014029e-01 4.015184e-01 4.271581e-01 4.920261e-01 5.990947e-01 5.174682e-01 6.034100e-01 6.283422e-01 5.990393e-01 5.009026e-01 5.432957e-01 4.443468e-01 6.441516e-01
<GCONST> 1.325156e+02
<STATE> 3
<MEAN> 39
 -7.089713e+00 -2.667494e+00 -2.359127e+00 -5.554133e+00 -8.512831e+00 -3.581981e+00 -7.584733e+00 -4.728361e+00 -3.253757e+00 -2.999128e+00 -2.779140e+00 -4.857686e+00 5.433480e+01 5.288152e-03 2.425521e-03 3.460181e-03 3.533019e-03 -6.006938e-03 -1.934933e-03 1.788363e-03 -2.243194e-03 -3.739261e-03 1.866994e-03 -3.928116e-03 -5.305948e-03 1.541920e-02 -3.189336e-04 1.274281e-04 -1.820426e-04 1.758974e-04 8.920495e-05 3.045879e-04 -3.186107e-04 -4.351462e-04 2.295140e-05 -5.737712e-05 1.717706e-04 -1.061227e-04 -7.652029e-04
<VARIANCE> 39
 7.494420e+01 5.402006e+01 7.783415e+01 5.990999e+01 8.138425e+01 5.722405e+01 6.504816e+01 7.110868e+01 6.324856e+01 4.443724e+01 4.909612e+01 3.921992e+01 2.431067e+02 2.800231e+00 2.634743e+00 2.922559e+00 2.907158e+00 3.580035e+00 2.947375e+00 3.334970e+00 3.670769e+00 3.498725e+00 2.687508e+00 2.988919e+00 2.414574e+00 4.963652e+00 4.028908e-01 4.004907e-01 4.281531e-01 4.917224e-01 6.004141e-01 5.176246e-01 6.023701e-01 6.283266e-01 5.975924e-01 5.024854e-01 5.405522e-01 4.444652e-01 6.432917e-01
<GCONST> 1.325400e+02
<STATE> 4
<MEAN> 39
 -7.258399e+00 -2.654612e+00 -2.274577e+00 -5.617043e+00 -8.361360e+00 -3.533882e+00 -7.642706e+00 -4.765777e+00 -3.384242e+00 -3.083118e+00 -2.792221e+00 -4.831169e+00 5.407363e+01 2.794741e-03 5.024277e-03 4.919078e-03 4.783524e-03 -6.003515e-03 -1.008783e-03 -1.277822e-03 -3.999358e-03 -4.513515e-03 9.307776e-04 -2.690941e-03 -4.763045e-03 1.251026e-02 -2.368488e-04 9.887086e-05 -2.208494e-04 2.440874e-05 2.099293e-04 4.370850e-04 -3.819617e-04 -5.305674e-04 6.465482e-06 -1.953498e-04 2.291045e-04 -1.662227e-05 -7.930006e-04
<VARIANCE> 39
 7.464498e+01 5.370131e+01 7.791354e+01 6.054577e+01 8.195494e+01 5.635155e+01 6.496156e+01 6.969130e+01 6.330616e+01 4.377873e+01 4.887733e+01 3.870909e+01 2.442760e+02 2.780561e+00 2.593545e+00 2.898619e+00 2.897160e+00 3.558591e+00 2.921833e+00 3.297430e+00 3.611476e+00 3.457202e+00 2.663768e+00 2.944037e+00 2.384222e+00 4.926710e+00 4.007215e-01 3.931224e-01 4.237537e-01 4.867336e-01 5.944125e-01 5.129424e-01 5.942363e-01 6.194882e-01 5.890200e-01 4.977791e-01 5.305740e-01 4.390080e-01 6.320146e-01
<GCONST> 1.321882e+02
<TRANSP> 5
 0.000000e+00 1.000000e+00 0.000000e+00 0.000000e+00 0.000000e+00
 0.000000e+00 7.305447e-01 2.694553e-01 0.000000e+00 0.000000e+00
 0.000000e+00 0.000000e+00 7.305426e-01 2.694575e-01 0.000000e+00
 0.000000e+00 0.000000e+00 0.000000e+00 8.576940e-01 1.423060e-01
 0.000000e+00 0.000000e+00 0.000000e+00 0.000000e+00 0.000000e+00
<ENDHMM>
~h "au"
<BEGINHMM>
<NUMSTATES> 5
<STATE> 2
<MEAN> 39
 -7.171293e+00 -1.807381e+00 -3.842697e+00 -4.494976e+00 -6.644079e+00 -2.407640e+00 -6.478200e+00 -2.878571e+00 -1.997802e+00 -2.816274e+00 -2.822238e+00 -3.290804e+00 5.119672e+01 -8.135766e-04 -1.842149e-03 -1.313187e-02 -1.523930e-02 -7.547400e-03 1.828644e-03 -2.220633e-03 1.540344e-03 1.419533e-02 7.569346e-03 -8.988897e-03 -1.017263e-02 -1.689799e-02 -3.500274e-04 -7.721246e-05 1.150226e-03 6.754138e-04 3.108236e-04 2.366390e-04 2.703618e-04 -9.125067e-04 4.133614e-04 1.004419e-03 -3.399438e-04 -1.098654e-03 4.058252e-04
<VARIANCE> 39
 6.152167e+01 4.634695e+01 6.399270e+01 7.793911e+01 5.735838e+01 5.824858e+01 5.395396e+01 7.726614e+01 5.711769e+01 4.085616e+01 4.165470e+01 4.275956e+01 2.356899e+02 2.071777e+00 2.189986e+00 2.361059e+00 2.817454e+00 3.053414e+00 2.869396e+00 2.800221e+00 3.476568e+00 3.004448e+00 2.541757e+00 2.677257e+00 2.454696e+00 3.819240e+00 3.263409e-01 3.529520e-01 3.755618e-01 4.585069e-01 5.627290e-01 5.039158e-01 5.182985e-01 6.253734e-01 5.490957e-01 4.795822e-01 5.004480e-01 4.447783e-01 5.167969e-01
<GCONST> 1.286046e+02
<STATE> 3
<MEAN> 39
 -7.172417e+00 -1.819492e+00 -3.884599e+00 -4.547179e+00 -6.671885e+00 -2.395453e+00 -6.484540e+00 -2.891533e+00 -1.937532e+00 -2.775650e+00 -2.859616e+00 -3.339777e+00 5.114231e+01 -1.718673e-03 -3.039153e-03 -9.014633e-03 -1.278927e-02 -6.392695e-03 3.528110e-03 -1.234816e-03 -2.226405e-03 1.620416e-02 1.093861e-02 -9.858148e-03 -1.370177e-02 -1.421944e-02 -1.572276e-04 -7.855552e-04 1.075809e-03 9.327767e-04 4.207907e-04 5.314420e-04 5.320174e-04 -9.283337e-04 9.128741e-04 1.029053e-03 -1.283738e-04 -9.489384e-04 1.061589e-03
<VARIANCE> 39
 6.135485e+01 4.610679e+01 6.438260e+01 7.733711e+01 5.687724e+01 5.758161e+01 5.344229e+01 7.621835e+01 5.756564e+01 4.097958e+01 4.138686e+01 4.254245e+01 2.363516e+02 2.053531e+00 2.177033e+00 2.359904e+00 2.785866e+00 3.047068e+00 2.849168e+00 2.772554e+00 3.412136e+00 2.974592e+00 2.535146e+00 2.673807e+00 2.434876e+00 3.809762e+00 3.231708e-01 3.511613e-01 3.759894e-01 4.543569e-01 5.613723e-01 5.008518e-01 5.129281e-01 6.126425e-01 5.444676e-01 4.786072e-01 5.005230e-01 4.415432e-01 5.135332e-01
<GCONST> 1.283789e+02
<STATE> 4
<MEAN> 39
 -7.215841e+00 -1.847295e+00 -3.850932e+00 -4.591589e+00 -6.645246e+00 -2.365729e+00 -6.503597e+00 -2.904371e+00 -1.833628e+00 -2.630470e+00 -2.928361e+00 -3.410318e+00 5.095856e+01 -8.469851e-04 -7.308326e-03 -4.411894e-03 -8.076118e-03 -5.407397e-03 7.234188e-03 4.845771e-04 -8.656019e-03 2.014054e-02 1.456467e-02 -9.664088e-03 -1.694875e-02 -6.742881e-03 -5.948061e-06 -1.114299e-03 7.653951e-04 8.401583e-04 3.615311e-04 7.131338e-04 7.202282e-04 -6.445438e-04 1.074884e-03 6.368300e-04 2.216245e-04 -5.698457e-04 1.372416e-03
<VARIANCE> 39
 6.074520e+01 4.562621e+01 6.493593e+01 7.532659e+01 5.597819e+01 5.585298e+01 5.286953e+01 7.377496e+01 5.874675e+01 4.095871e+01 4.076162e+01 4.168817e+01 2.359413e+02 2.014299e+00 2.138521e+00 2.353917e+00 2.700104e+00 3.022391e+00 2.787662e+00 2.728505e+00 3.289134e+00 2.918704e+00 2.515099e+00 2.664557e+00 2.379928e+00 3.781560e+00 3.167427e-01 3.466739e-01 3.766071e-01 4.402794e-01 5.550308e-01 4.905599e-01 5.041494e-01 5.908408e-01 5.355263e-01 4.766403e-01 4.990533e-01 4.329815e-01 5.057949e-01
<GCONST> 1.278124e+02
<TRANSP> 5
 0.000000e+00 1.000000e+00 0.000000e+00 0.000000e+00 0.000000e+00
 0.000000e+00 7.294974e-01 2.705027e-01 0.000000e+00 0.000000e+00
 0.000000e+00 0.000000e+00 7.294939e-01 2.705060e-01 0.000000e+00
 0.000000e+00 0.000000e+00 0.000000e+00 8.552089e-01 1.447911e-01
 0.000000e+00 0.000000e+00 0.000000e+00 0.000000e+00 0.000000e+00
<ENDHMM>
~h "kh"
<BEGINHMM>
<NUMSTATES> 5
<STATE> 2
<MEAN> 39
 -8.951138e+00 -2.811037e+00 -3.876153e+00 -5.402263e+00 -6.656577e+00 -2.368022e+00 -7.443563e+00 -5.080824e+00 -2.753081e+00 -3.219122e+00 -2.293873e+00 -4.242309e+00 5.122777e+01 -8.538931e-03 2.343631e-02 1.086852e-02 5.569220e-03 -3.927211e-03 -5.431167e-03 -6.496647e-03 -5.463599e-03 -6.468839e-03 1.043867e-02 2.856256e-03 -2.040870e-03 1.669767e-02 7.684119e-04 3.914022e-04 3.062722e-04 -1.772469e-04 -8.922363e-05 -2.188948e-04 -1.150499e-04 -3.375355e-04 -9.930806e-04 -8.884395e-04 -1.004578e-03 1.201292e-04 6.938947e-04
<VARIANCE> 39
