~o
<STREAMINFO> 1 39
<VECSIZE> 39<NULLD><MFCC_D_A_0><DIAGC>
~s "silst"
<MEAN> 39
 -1.205358e+01 -1.414244e+00 -1.100646e+00 1.314780e+00 -3.024520e+00 -2.472368e+00 -2.807373e+00 6.719592e-01 -2.127047e+00 -2.836599e+00 -1.600498e+00 5.583847e-01 3.772458e+01 5.130044e-03 3.063610e-02 -3.706346e-02 1.021802e-01 -2.537691e-02 -1.072826e-01 6.890650e-02 9.481701e-02 -1.991804e-02 -7.525970e-02 5.765327e-02 1.255583e-01 -2.263628e-01 2.318317e-02 4.509668e-02 -1.806034e-02 -8.103658e-02 1.811635e-02 5.465235e-03 -4.928159e-02 -1.073410e-01 1.764647e-03 8.414332e-03 -1.847257e-02 -8.554921e-02 -1.013523e-02
<VARIANCE> 39
 1.543711e+01 2.219836e+01 2.860717e+01 4.513934e+01 2.686539e+01 4.184499e+01 2.663809e+01 5.529164e+01 3.781195e+01 3.488342e+01 2.630295e+01 3.035863e+01 2.513936e+01 1.087068e+00 2.296420e+00 2.070372e+00 3.367269e+00 2.606128e+00 3.327617e+00 2.425373e+00 4.422832e+00 2.947164e+00 3.028188e+00 2.294698e+00 2.658385e+00 1.305286e+00 1.945403e-01 4.098922e-01 3.758974e-01 6.033392e-01 4.982297e-01 6.224300e-01 4.720043e-01 8.017431e-01 5.693535e-01 5.908110e-01 4.490786e-01 4.926853e-01 2.303531e-01
<GCONST> 1.175208e+02
~h "@"
<BEGINHMM>
<NUMSTATES> 5
<STATE> 2
<MEAN> 39
 -2.335751e+00 -3.908312e+00 -4.103595e+00 -7.402907e+00 -9.550192e+00 -3.235995e+00 -1.140614e+01 -6.992003e+00 -2.328215e+00 -1.128530e+00 -1.454649e+00 -6.058380e+00 6.167369e+01 1.818049e+00 -9.936262e-01 -4.110958e-01 -1.264717e+00 -1.150281e+00 4.604282e-01 -9.101104e-01 3.083268e-01 1.192495e+00 5.694757e-01 6.998842e-01 -1.192827e+00 2.434627e+00 -3.958228e-01 1.283484e-01 1.005473e-01 2.521214e-01 2.204803e-01 4.763803e-02 2.597188e-01 2.786130e-03 -1.053366e-01 -1.080762e-01 -7.296431e-02 1.130054e-01 -6.132531e-01
<VARIANCE> 39
 4.331142e+01 3.462709e+01 5.944677e+01 6.057992e+01 5.500539e+01 7.526193e+01 6.721825e+01 6.840409e+01 7.841532e+01 4.698499e+01 4.816016e+01 3.631869e+01 1.320950e+02 6.045868e+00 3.563602e+00 5.598193e+00 5.174804e+00 5.653132e+00 5.634924e+00 5.988411e+00 7.991190e+00 6.845984e+00 4.751354e+00 5.117184e+00 4.378364e+00 5.521954e+00 9.224423e-01 6.226468e-01 8.038385e-01 9.247901e-01 8.627656e-01 8.289322e-01 8.726236e-01 9.871016e-01 9.325364e-01 6.870143e-01 8.951234e-01 6.429414e-01 1.564720e+00
<GCONST> 1.446836e+02
<STATE> 3
<MEAN> 39
 -2.241922e-01 -7.073941e+00 -6.256173e+00 -1.057778e+01 -1.163800e+01 -2.269359e+00 -1.373306e+01 -4.823256e+00 2.468731e+00 1.881145e-01 -2.891226e-01 -8.787375e+00 6.918556e+01 4.581383e-01 -2.795323e-01 1.508378e-01 2.846190e-02 -2.605759e-01 1.581867e-01 -6.881582e-04 1.986398e-01 4.947850e-01 1.131620e-01 1.435909e-01 -4.548743e-01 2.253132e-01 -5.423410e-01 6.484994e-01 4.878930e-01 8.036950e-01 4.950678e-01 -2.044008e-01 5.371459e-01 -4.191436e-01 -7.860711e-01 -3.312809e-01 -3.421960e-01 5.956780e-01 -1.224819e+00
<VARIANCE> 39
 1.732103e+01 2.802224e+01 6.129298e+01 5.890247e+01 5.513504e+01 8.838940e+01 7.662843e+01 7.442064e+01 7.405766e+01 4.984513e+01 5.399023e+01 4.573437e+01 3.443173e+01 1.745455e+00 2.006502e+00 2.747524e+00 3.668931e+00 3.503720e+00 4.707543e+00 4.110566e+00 5.217773e+00 5.482892e+00 3.306398e+00 3.929952e+00 3.111673e+00 2.703699e+00 6.072125e-01 4.650917e-01 8.187104e-01 8.250560e-01 9.638848e-01 1.018080e+00 1.088793e+00 1.212070e+00 1.121830e+00 8.030433e-01 1.029495e+00 8.152705e-01 5.836538e-01
<GCONST> 1.363706e+02
<STATE> 4
<MEAN> 39
 -1.659235e+00 -6.854581e+00 -4.058558e+00 -9.154272e+00 -1.334478e+01 -5.676814e+00 -1.105584e+01 -4.944839e+00 8.858332e-01 -2.570344e-01 -1.940356e-02 -8.719710e+00 6.765936e+01 9.437373e-02 6.071669e-01 3.768382e-01 6.467525e-01 3.148820e-01 -4.764740e-02 3.151111e-01 -4.306025e-01 -4.488532e-01 -1.444825e-01 -3.079239e-01 2.303185e-01 -1.063549e+00 -7.699301e-02 2.299139e-01 1.157477e-01 2.369742e-01 1.498150e-01 3.020536e-03 4.404549e-02 -1.596320e-01 -1.963343e-01 -7.441970e-02 -1.495868e-01 1.578456e-01 -4.091020e-01
<VARIANCE> 39
 1.842496e+01 3.319430e+01 8.360468e+01 5.450560e+01 7.255820e+01 7.447219e+01 9.753001e+01 7.611926e+01 8.434645e+01 4.900001e+01 5.096893e+01 4.272469e+01 5.464061e+01 8.723384e-01 1.737592e+00 2.085845e+00 2.529851e+00 2.700548e+00 2.664778e+00 2.945926e+00 3.121805e+00 3.558335e+00 2.386509e+00 2.666250e+00 2.126369e+00 3.347155e+00 2.443467e-01 2.659341e-01 3.477004e-01 3.936631e-01 4.922965e-01 4.711617e-01 5.654538e-01 6.922978e-01 6.336803e-01 4.393405e-01 5.069348e-01 4.090268e-01 3.426244e-01
<GCONST> 1.243479e+02
<TRANSP> 5
 0.000000e+00 1.000000e+00 0.000000e+00 0.000000e+00 0.000000e+00
 0.000000e+00 4.364643e-01 5.635357e-01 0.000000e+00 0.000000e+00
 0.000000e+00 0.000000e+00 3.393545e-01 6.606455e-01 0.000000e+00
 0.000000e+00 0.000000e+00 0.000000e+00 7.011661e-01 2.988339e-01
 0.000000e+00 0.000000e+00 0.000000e+00 0.000000e+00 0.000000e+00
<ENDHMM>
~h "a"
<BEGINHMM>
<NUMSTATES> 5
<STATE> 2
<MEAN> 39
 -1.894565e+00 -1.038750e+01 -9.789063e+00 -1.070356e+01 -8.409514e+00 -1.931736e+00 -8.275340e+00 -2.091938e+00 3.273867e+00 -3.187982e+00 -4.931891e+00 -9.843872e+00 7.032359e+01 2.830795e-01 -1.627437e+00 -1.642539e+00 -4.248468e-01 1.061138e+00 7.115149e-01 9.783210e-01 5.193681e-01 9.470155e-01 -9.514700e-01 -1.095876e+00 -1.252345e+00 1.827990e+00 -3.277494e-01 4.059080e-01 3.729322e-01 4.889630e-01 2.329680e-01 -1.470824e-01 1.095708e-02 -3.680576e-01 -4.736332e-01 -5.380669e-02 6.615425e-02 3.881444e-01 -6.910629e-01
<VARIANCE> 39
 1.910348e+01 2.927772e+01 5.733666e+01 5.256453e+01 7.578809e+01 7.392714e+01 6.379909e+01 7.810748e+01 4.997919e+01 4.941162e+01 5.615639e+01 4.434089e+01 7.167109e+01 2.097643e+00 1.947466e+00 2.949220e+00 3.396698e+00 3.908977e+00 4.078308e+00 4.225754e+00 4.636947e+00 3.646056e+00 3.405210e+00 4.036591e+00 3.171197e+00 4.188629e+00 4.465789e-01 4.166016e-01 5.010872e-01 5.211825e-01 7.454147e-01 6.510317e-01 7.119827e-01 8.362372e-01 6.677284e-01 6.035509e-01 7.385469e-01 5.724469e-01 8.570603e-01
<GCONST> 1.328305e+02
<STATE> 3
<MEAN> 39
 -2.459867e+00 -1.311109e+01 -1.320601e+01 -9.409138e+00 -5.287134e+00 -1.062919e+00 -5.363057e+00 -3.494642e+00 3.560727e+00 -6.056383e+00 -6.934118e+00 -1.166914e+01 7.276599e+01 6.653193e-02 2.100573e-01 2.362935e-02 2.916994e-01 8.308236e-02 -2.325390e-01 6.903867e-02 -3.477596e-02 -1.269289e-01 4.701648e-02 -1.413423e-01 7.712984e-02 -2.900807e-01 8.445578e-02 4.263913e-01 3.838756e-01 7.980651e-02 -2.539521e-01 -1.318523e-01 -2.810908e-01 -7.312448e-02 -1.394834e-01 2.836128e-01 2.168429e-01 2.338667e-01 -4.564262e-01
<VARIANCE> 39
 1.125378e+01 2.000496e+01 4.639133e+01 5.438028e+01 5.319951e+01 5.384306e+01 6.078059e+01 5.681987e+01 3.536878e+01 4.268877e+01 3.992503e+01 3.638752e+01 2.412646e+01 4.319990e-01 9.342218e-01 1.314761e+00 1.362128e+00 2.291933e+00 2.139038e+00 2.054790e+00 2.413114e+00 1.771905e+00 1.907066e+00 1.941561e+00 1.610668e+00 6.295161e-01 8.624438e-02 1.590170e-01 1.980767e-01 2.451567e-01 3.070061e-01 3.239089e-01 3.720291e-01 4.233406e-01 3.578439e-01 3.146539e-01 3.537519e-01 3.088491e-01 1.687487e-01
<GCONST> 1.059316e+02
<STATE> 4
<MEAN> 39
 -3.779108e+00 -7.370604e+00 -9.785105e+00 -6.830867e+00 -4.170027e+00 -2.516541e+00 -7.139839e+00 -3.060357e+00 7.397696e-01 -3.770268e+00 -6.982912e+00 -7.899166e+00 5.701790e+01 -2.068537e-02 1.015422e+00 7.364590e-01 5.689090e-01 -1.021736e-01 -1.275129e-01 -2.986882e-01 -2.526360e-01 -3.965038e-01 2.991461e-01 2.378210e-01 4.837701e-01 -2.069520e+00 -8.555841e-02 7.031674e-02 1.270854e-01 8.927304e-02 3.380524e-02 5.110529e-02 3.838228e-02 -1.217466e-01 -1.099055e-01 -6.936502e-02 2.722679e-03 5.768955e-02 -1.198789e-01
<VARIANCE> 39
 3.666949e+01 3.248368e+01 3.998409e+01 5.661638e+01 5.654183e+01 5.559049e+01 5.611179e+01 5.850897e+01 4.709588e+01 4.995536e+01 4.839252e+01 4.510390e+01 2.031486e+02 1.194607e+00 2.159462e+00 2.187186e+00 2.269423e+00 2.620779e+00 2.520579e+00 2.925131e+00 2.913575e+00 2.667817e+00 2.576624e+00 2.685963e+00 2.311207e+00 3.771577e+00 1.979744e-01 3.565148e-01 3.669152e-01 4.293918e-01 4.861645e-01 4.808450e-01 4.905288e-01 6.134274e-01 5.080170e-01 4.720749e-01 4.962055e-01 4.484498e-01 5.721617e-01
<GCONST> 1.244190e+02
<TRANSP> 5
 0.000000e+00 1.000000e+00 0.000000e+00 0.000000e+00 0.000000e+00
 0.000000e+00 5.910991e-01 4.089009e-01 0.000000e+00 0.000000e+00
 0.000000e+00 0.000000e+00 7.859254e-01 2.140746e-01 0.000000e+00
 0.000000e+00 0.000000e+00 0.000000e+00 7.291605e-01 2.708395e-01
 0.000000e+00 0.000000e+00 0.000000e+00 0.000000e+00 0.000000e+00
<ENDHMM>
~h "b"
<BEGINHMM>
<NUMSTATES> 5
<STATE> 2
<MEAN> 39
 2.233299e+00 5.810078e+00 1.459225e+00 -2.623630e+00 -5.551497e+00 1.311963e+00 -6.815478e+00 -1.002448e+01 -8.686503e+00 -3.752087e+00 -3.711067e+00 -6.168714e+00 4.691743e+01 7.606456e-01 1.282935e+00 6.171395e-01 2.622809e-01 4.281299e-01 3.688734e-01 6.291466e-01 -7.784071e-02 -4.575551e-01 -1.898333e-01 -2.969592e-01 -2.163902e-01 -9.243242e-01 -2.935729e-01 -3.966845e-01 -1.992964e-01 -2.414278e-01 -1.928536e-01 -2.208939e-01 -2.413072e-01 1.119389e-01 2.227491e-01 7.673673e-02 1.595319e-01 1.300288e-01 6.629934e-01
<VARIANCE> 39
 5.475922e+01 3.180081e+01 3.056358e+01 3.603267e+01 3.160515e+01 3.734658e+01 3.513701e+01 5.186646e+01 5.138361e+01 3.182815e+01 4.142290e+01 2.671678e+01 6.919692e+01 2.332196e+00 2.220965e+00 2.122054e+00 2.702734e+00 2.360419e+00 2.467549e+00 2.607570e+00 3.370810e+00 3.064652e+00 2.430738e+00 2.759561e+00 2.123038e+00 4.713128e+00 4.107814e-01 4.721944e-01 3.876894e-01 4.591485e-01 4.563369e-01 4.845422e-01 4.820434e-01 6.125592e-01 6.302103e-01 4.581152e-01 5.405248e-01 4.189213e-01 5.260608e-01
<GCONST> 1.225597e+02
<STATE> 3
<MEAN> 39
 4.697835e+00 7.919343e+00 2.990649e+00 -2.982702e+00 -5.360019e+00 2.265584e+00 -5.913915e+00 -9.969482e+00 -9.797322e+00 -4.755474e+00 -3.599289e+00 -5.650112e+00 4.916561e+01 -1.327634e+00 -1.977524e+00 -1.216667e+00 -8.743112e-01 -1.821592e-01 -1.125332e+00 -1.395548e+00 2.818254e-01 1.118584e+00 4.792572e-01 1.214628e+00 8.410916e-01 3.134246e+00 -3.930493e-01 -1.043386e+00 -5.993943e-01 -6.736753e-01 -6.972172e-01 -1.178533e-01 -7.589174e-01 9.339771e-02 6.257977e-01 4.094859e-01 3.778867e-01 -1.231632e-01 1.477880e+00
<VARIANCE> 39
 2.322805e+01 2.437276e+01 2.219349e+01 2.864677e+01 2.944712e+01 3.327779e+01 2.707801e+01 4.361323e+01 4.355439e+01 2.979822e+01 4.163339e+01 2.290804e+01 4.013030e+01 2.293697e+00 3.290928e+00 3.546634e+00 5.235687e+00 3.938131e+00 3.963851e+00 3.612001e+00 3.980718e+00 5.170502e+00 3.751758e+00 4.854860e+00 2.856638e+00 5.168392e+00 4.177797e-01 4.696974e-01 6.318768e-01 7.222387e-01 6.288615e-01 8.032635e-01 6.006671e-01 7.329739e-01 1.127614e+00 7.860063e-01 8.283941e-01 7.080256e-01 4.570962e-01
<GCONST> 1.283940e+02
<STATE> 4
<MEAN> 39
 7.087941e-02 -2.438326e+00 -4.379735e+00 -9.746553e+00 -8.093504e+00 -3.524887e-01 -1.347978e+01 -9.697112e+00 -3.464200e+00 9.135564e-01 1.993103e+00 -4.450685e+00 6.412669e+01 -8.402442e-01 -2.925661e+00 -1.851099e+00 -2.195330e+00 -1.695268e+00 -3.012738e-01 -2.046794e+00 8.643112e-01 2.576394e+00 1.514701e+00 5.423528e-01 -1.103195e+00 4.425610e+00 2.542718e-01 4.609767e-01 4.257397e-01 4.013133e-01 -8.914903e-02 2.597977e-01 5.551258e-01 2.215277e-01 -1.499293e-01 -4.933647e-01 -7.504338e-01 -4.201390e-01 -7.131358e-01
<VARIANCE> 39
 2.603525e+01 2.508683e+01 3.791495e+01 8.930737e+01 3.487915e+01 5.061024e+01 4.631643e+01 3.972728e+01 4.508701e+01 5.678834e+01 4.140893e+01 3.424692e+01 5.749120e+01 2.317006e+00 3.552653e+00 5.770240e+00 7.044661e+00 5.409596e+00 6.045117e+00 4.988398e+00 5.477823e+00 8.919385e+00 6.235619e+00 7.114938e+00 5.900887e+00 4.647489e+00 4.018792e-01 5.117210e-01 5.026792e-01 1.406417e+00 1.071476e+00 8.797337e-01 8.657899e-01 7.668753e-01 1.007710e+00 9.874257e-01 1.096539e+00 7.686129e-01 7.320809e-01
<GCONST> 1.394522e+02
<TRANSP> 5
 0.000000e+00 1.000000e+00 0.000000e+00 0.000000e+00 0.000000e+00
 0.000000e+00 7.779438e-01 2.220561e-01 0.000000e+00 0.000000e+00
 0.000000e+00 0.000000e+00 5.433767e-01 4.566233e-01 0.000000e+00
 0.000000e+00 0.000000e+00 0.000000e+00 4.812125e-01 5.187875e-01
 0.000000e+00 0.000000e+00 0.000000e+00 0.000000e+00 0.000000e+00
<ENDHMM>
~h "c"
<BEGINHMM>
<NUMSTATES> 5
<STATE> 2
<MEAN> 39
 -9.257063e+00 2.253886e+00 -8.301747e-01 -1.530024e+00 -5.966406e+00 -7.115218e+00 -6.868410e+00 -4.063973e+00 -3.399881e+00 -3.587557e+00 -4.369080e+00 -2.929742e+00 4.325138e+01 -1.551902e+00 -2.102247e-01 -4.045043e-01 -4.629945e-01 5.971865e-01 1.659375e-01 2.433010e-01 -1.408808e-02 1.197744e-01 1.400032e-01 2.790285e-01 9.746783e-02 -8.807244e-01 -4.679231e-01 -2.897785e-01 -1.602018e-01 -3.280545e-01 -6.583345e-02 6.741311e-02 -4.377357e-02 9.973459e-03 7.909631e-03 5.690600e-02 1.628300e-01 8.899191e-02 1.023718e+00
<VARIANCE> 39
 4.418710e+01 3.159257e+01 3.788595e+01 2.581490e+01 4.058041e+01 4.272660e+01 4.837843e+01 4.410207e+01 3.659622e+01 2.949752e+01 2.828925e+01 2.174014e+01 1.125125e+02 4.667175e+00 3.945198e+00 2.792242e+00 2.943379e+00 3.954335e+00 3.013000e+00 3.423210e+00 3.413072e+00 3.057158e+00 2.418344e+00 2.565329e+00 2.201869e+00 1.129638e+01 7.423974e-01 6.561048e-01 5.099239e-01 5.118485e-01 7.296351e-01 5.773094e-01 6.579411e-01 6.296019e-01 5.958279e-01 4.624326e-01 4.835890e-01 4.806500e-01 1.538074e+00
<GCONST> 1.290425e+02
<STATE> 3
<MEAN> 39
 -2.520324e+01 -6.079496e-01 -3.730035e+00 -7.873130e+00 -3.266132e+00 -5.322996e+00 -6.056371e+00 -3.907374e+00 -2.906453e+00 -1.804145e+00 -3.336271e-01 -5.733916e-01 5.742166e+01 -2.360208e+00 1.025453e-01 -7.595513e-02 -1.008227e+00 -4.591045e-01 -2.493237e-01 -1.852521e-02 3.634520e-01 1.149172e-02 4.698116e-02 5.676847e-01 5.167241e-01 4.498928e+00 1.856938e+00 1.428761e-01 4.688564e-01 5.179752e-01 -7.135234e-01 -3.619162e-01 -2.682377e-01 5.396760e-02 6.202732e-02 -2.508413e-01 -3.743769e-01 -2.932954e-01 -3.510827e-01
<VARIANCE> 39
 4.398884e+01 3.285981e+01 3.108906e+01 2.402649e+01 3.369393e+01 4.144410e+01 3.963545e+01 2.650798e+01 2.504471e+01 1.959881e+01 2.015533e+01 1.493937e+01 6.795353e+01 9.471479e+00 3.433355e+00 4.150962e+00 3.318793e+00 4.308294e+00 3.735065e+00 3.806908e+00 3.676046e+00 3.324165e+00 2.302039e+00 2.758758e+00 1.926457e+00 7.524785e+00 1.684116e+00 9.664750e-01 7.032677e-01 6.354939e-01 8.512005e-01 7.087189e-01 6.749035e-01 8.483629e-01 7.741569e-01 4.714475e-01 5.139884e-01 4.225312e-01 1.138631e+00
<GCONST> 1.293496e+02
<STATE> 4
<MEAN> 39
 -1.598724e+01 -1.188956e+00 -7.473592e-01 -6.740207e+00 -9.821618e+00 -9.748549e+00 -8.851504e+00 -1.691333e+00 -1.792265e+00 -3.978651e+00 -2.330467e+00 -9.560120e-01 6.644071e+01 5.460910e+00 -1.752417e+00 5.473408e-01 4.214798e-01 -2.042179e+00 -5.986266e-01 -1.245004e+00 4.106140e-01 9.391379e-01 -4.240867e-01 -7.507527e-01 -1.338084e+00 2.216404e+00 6.134429e-01 -4.633180e-01 -4.356764e-01 -1.226904e-01 2.673433e-01 6.407069e-01 6.709431e-02 -2.361187e-01 4.701857e-02 1.842069e-01 6.330822e-02 -4.796565e-01 -6.149117e-01
<VARIANCE> 39
 1.019883e+02 3.158543e+01 3.760570e+01 2.841067e+01 4.750666e+01 4.418330e+01 5.064098e+01 3.888379e+01 4.032619e+01 2.682027e+01 3.229067e+01 1.940467e+01 4.587646e+01 4.059138e+00 5.480687e+00 5.151419e+00 3.555776e+00 5.676225e+00 4.947466e+00 3.531332e+00 6.877745e+00 5.796770e+00 3.393407e+00 3.658626e+00 2.520582e+00 2.290971e+00 3.003654e+00 7.154942e-01 6.165583e-01 6.678963e-01 1.019369e+00 8.545702e-01 7.149146e-01 8.982763e-01 8.406345e-01 5.835958e-01 6.696336e-01 4.585218e-01 6.077994e-01
<GCONST> 1.346866e+02
<TRANSP> 5
 0.000000e+00 1.000000e+00 0.000000e+00 0.000000e+00 0.000000e+00
 0.000000e+00 8.473004e-01 1.526996e-01 0.000000e+00 0.000000e+00
 0.000000e+00 0.000000e+00 6.937840e-01 3.062160e-01 0.000000e+00
 0.000000e+00 0.000000e+00 0.000000e+00 6.389012e-01 3.610988e-01
 0.000000e+00 0.000000e+00 0.000000e+00 0.000000e+00 0.000000e+00
<ENDHMM>
~h "d"
<BEGINHMM>
<NUMSTATES> 5
<STATE> 2
<MEAN> 39
 1.980117e-01 3.581113e+00 3.138153e+00 1.552860e+00 -7.438824e+00 -6.040974e+00 -1.059571e+01 -6.233622e+00 -1.879686e+00 -3.443168e+00 -7.675163e+00 -6.014722e+00 4.738290e+01 9.159868e-01 1.159198e+00 8.564368e-01 6.992608e-01 7.226507e-01 -2.357684e-01 -1.195931e-01 1.363179e-01 1.022491e-01 2.182724e-02 -6.197051e-01 -4.469354e-01 -9.576609e-01 -3.660962e-01 -4.614576e-01 -1.315878e-01 -3.756114e-01 -1.908587e-01 2.602179e-02 -5.570875e-02 1.038936e-01 -7.920092e-02 -4.582301e-02 3.180868e-01 1.662008e-01 7.261406e-01
<VARIANCE> 39
 5.584330e+01 4.208062e+01 3.811391e+01 2.609437e+01 4.416756e+01 4.124181e+01 5.176616e+01 7.917295e+01 5.075033e+01 3.766988e+01 4.374027e+01 3.219561e+01 9.547828e+01 2.758469e+00 2.830704e+00 2.442406e+00 2.453390e+00 3.807824e+00 2.891260e+00 3.394204e+00 4.832039e+00 3.416487e+00 2.654146e+00 3.177412e+00 2.467661e+00 5.910599e+00 6.028053e-01 6.489858e-01 4.271143e-01 4.987401e-01 7.582146e-01 5.831106e-01 7.156276e-01 9.210765e-01 6.617736e-01 5.691900e-01 6.862005e-01 5.435995e-01 8.166032e-01
<GCONST> 1.307318e+02
<STATE> 3
<MEAN> 39
 2.611156e+00 4.529762e+00 5.931968e+00 2.394305e+00 -6.128603e+00 -5.933592e+00 -1.170148e+01 -5.262606e+00 -1.984417e+00 -3.495271e+00 -8.229144e+00 -6.973043e+00 4.978851e+01 -2.008298e+00 -2.418697e+00 1.239914e-01 -1.429668e+00 -7.262425e-01 -2.532916e-01 -7.653368e-01 7.725320e-01 -4.263722e-01 -4.228175e-01 1.718944e+00 1.261477e+00 3.611578e+00 -5.313242e-01 -7.953109e-01 -3.787542e-01 -6.377306e-01 -1.158169e+00 -9.069729e-02 -1.910893e-01 -1.666766e-03 4.347438e-04 1.216957e-03 7.029405e-01 2.342332e-01 1.554343e+00
<VARIANCE> 39
 3.017445e+01 2.976649e+01 2.997495e+01 2.248950e+01 3.284340e+01 3.949420e+01 4.433847e+01 6.978664e+01 4.492326e+01 3.806804e+01 3.771378e+01 2.975198e+01 5.093306e+01 2.431942e+00 3.183121e+00 4.171780e+00 3.515071e+00 5.745051e+00 4.394324e+00 5.563214e+00 8.032154e+00 5.938114e+00 3.637513e+00 4.694629e+00 3.103336e+00 5.275877e+00 5.306466e-01 5.849646e-01 6.934108e-01 6.610259e-01 7.748087e-01 6.360714e-01 8.482060e-01 1.344113e+00 1.044956e+00 7.403560e-01 7.567579e-01 6.406078e-01 6.184784e-01
<GCONST> 1.337813e+02
<STATE> 4
<MEAN> 39
 -3.856007e+00 -5.865829e+00 3.332128e+00 -4.473301e+00 -1.291570e+01 -7.863213e+00 -1.550210e+01 -1.591260e+00 -1.047609e+00 -4.147315e+00 -1.967253e+00 -1.770223e+00 6.586823e+01 -1.039032e+00 -2.160605e+00 -1.307926e+00 -1.956939e+00 -2.906101e+00 -3.982796e-01 -5.205382e-01 1.056383e+00 7.558801e-01 5.508527e-02 1.530568e+00 3.856903e-02 4.567394e+00 5.428109e-01 7.203124e-01 -2.378199e-01 2.823914e-01 1.987033e-01 3.667912e-01 5.641577e-01 -3.602294e-01 3.437942e-02 1.144898e-01 -5.541437e-01 -7.166619e-01 -8.326119e-01
<VARIANCE> 39
 2.208233e+01 2.670334e+01 4.666856e+01 4.054900e+01 6.414433e+01 5.067225e+01 8.574166e+01 6.727326e+01 8.242183e+01 3.336601e+01 3.029703e+01 2.894551e+01 5.190247e+01 2.943945e+00 3.469372e+00 6.801031e+00 4.501821e+00 6.269204e+00 4.390908e+00 7.148254e+00 9.594889e+00 8.799306e+00 4.668013e+00 6.659027e+00 3.973349e+00 4.641824e+00 3.159617e-01 4.365044e-01 5.948704e-01 7.308101e-01 1.740687e+00 7.827017e-01 1.449635e+00 1.101756e+00 1.113347e+00 7.977702e-01 8.611664e-01 5.569533e-01 6.720296e-01
<GCONST> 1.395215e+02
<TRANSP> 5
 0.000000e+00 1.000000e+00 0.000000e+00 0.000000e+00 0.000000e+00
 0.000000e+00 7.459782e-01 2.540219e-01 0.000000e+00 0.000000e+00
 0.000000e+00 0.000000e+00 5.067145e-01 4.932855e-01 0.000000e+00
 0.000000e+00 0.000000e+00 0.000000e+00 4.707073e-01 5.292927e-01
 0.000000e+00 0.000000e+00 0.000000e+00 0.000000e+00 0.000000e+00
<ENDHMM>
~h "e"
<BEGINHMM>
<NUMSTATES> 5
<STATE> 2
<MEAN> 39
 -4.832529e+00 -6.643875e+00 -1.860334e-01 -5.169888e+00 -1.500292e+01 -8.898667e+00 -8.068676e+00 -2.478794e+00 -2.870067e+00 -2.172742e+00 3.577397e-01 -6.444025e+00 6.088239e+01 3.770047e-01 -1.015177e+00 4.277793e-01 -4.298336e-01 -1.500193e+00 -5.868056e-01 4.289953e-01 9.192773e-01 2.124971e-01 -2.483957e-01 4.940248e-01 -4.782874e-01 1.963169e+00 -1.096268e-01 2.461321e-01 3.473638e-02 3.121409e-02 1.642600e-01 1.634474e-01 2.337567e-01 -1.450696e-01 -1.201489e-01 -5.146579e-02 -4.177113e-02 6.198128e-02 -3.326795e-01
<VARIANCE> 39
 4.772806e+01 5.678817e+01 8.078858e+01 4.878922e+01 7.962405e+01 6.375972e+01 7.986618e+01 8.070339e+01 6.823788e+01 5.158052e+01 5.688747e+01 3.666610e+01 1.876915e+02 3.837300e+00 4.150257e+00 3.961648e+00 4.171436e+00 7.079129e+00 4.551176e+00 5.606774e+00 6.623487e+00 5.290332e+00 4.159454e+00 4.775242e+00 3.469007e+00 1.150709e+01 6.904883e-01 8.077262e-01 6.284059e-01 6.575672e-01 1.136441e+00 7.754107e-01 9.368286e-01 1.046227e+00 9.624619e-01 7.345430e-01 7.823411e-01 6.247630e-01 2.048425e+00
<GCONST> 1.452506e+02
<STATE> 3
<MEAN> 39
 -3.756020e+00 -1.053880e+01 7.396051e-01 -7.556277e+00 -2.083477e+01 -1.200678e+01 -3.896650e+00 1.957147e+00 -1.979669e+00 -3.069760e+00 2.033097e+00 -8.283582e+00 7.184546e+01 4.383391e-02 2.191086e-01 1.093797e-01 1.739490e-01 7.204748e-02 -1.675742e-02 2.046893e-01 -2.342110e-01 -9.380922e-02 7.522704e-02 -3.133279e-02 -9.277816e-02 -1.659466e-01 2.416999e-02 3.160650e-01 -6.495608e-02 2.197249e-01 4.873439e-01 1.547743e-01 -2.266526e-01 -2.990263e-01 -8.456086e-02 7.884266e-02 -2.430006e-01 1.065257e-01 -6.015435e-01
<VARIANCE> 39
 1.096106e+01 3.382259e+01 6.329733e+01 3.494475e+01 4.659090e+01 5.304839e+01 8.433356e+01 6.546557e+01 5.858697e+01 5.305112e+01 5.571675e+01 3.198098e+01 3.128004e+01 7.574384e-01 1.204633e+00 1.704985e+00 1.925692e+00 2.867329e+00 2.126775e+00 3.297269e+00 2.476915e+00 2.562350e+00 2.153749e+00 2.340436e+00 1.465865e+00 2.515221e+00 1.897954e-01 2.236936e-01 2.929256e-01 3.165583e-01 4.622695e-01 4.195558e-01 5.843415e-01 5.627277e-01 5.330300e-01 4.336588e-01 4.418418e-01 3.059533e-01 3.763728e-01
<GCONST> 1.168292e+02
<STATE> 4
<MEAN> 39
 -6.865196e+00 -5.578451e+00 1.803214e+00 -6.005246e+00 -1.561797e+01 -8.820378e+00 -6.817018e+00 -3.837744e+00 -4.682899e+00 -2.261245e+00 8.012635e-01 -5.583183e+00 5.645347e+01 -2.143556e-02 3.586435e-01 -1.275553e-01 2.690898e-01 4.156589e-01 1.539702e-01 -3.498777e-02 -1.725588e-01 -1.038421e-02 1.469770e-02 -3.275503e-01 9.009912e-02 -8.066648e-01 1.011445e-04 3.852932e-02 -1.775336e-02 3.799943e-02 1.000142e-01 3.999728e-02 -2.392573e-02 -1.662953e-02 -1.219741e-03 -1.256824e-02 -3.147796e-02 2.397726e-02 -7.378975e-02
<VARIANCE> 39
 3.040832e+01 3.835929e+01 7.689259e+01 3.727102e+01 8.777157e+01 4.734044e+01 6.495506e+01 4.829215e+01 5.630865e+01 3.936501e+01 4.689617e+01 3.258770e+01 2.564335e+02 6.581244e-01 1.150479e+00 1.124412e+00 1.344350e+00 1.841921e+00 1.597438e+00 1.944655e+00 1.899359e+00 1.852567e+00 1.680110e+00 1.759753e+00 1.297431e+00 2.210383e+00 1.166902e-01 1.881908e-01 1.925123e-01 2.359820e-01 3.203839e-01 2.973684e-01 3.364725e-01 3.977972e-01 3.587503e-01 3.108642e-01 3.063410e-01 2.426876e-01 2.314218e-01
<GCONST> 1.114118e+02
<TRANSP> 5
 0.000000e+00 1.000000e+00 0.000000e+00 0.000000e+00 0.000000e+00
 0.000000e+00 6.817723e-01 3.182277e-01 0.000000e+00 0.000000e+00
 0.000000e+00 0.000000e+00 7.416901e-01 2.583099e-01 0.000000e+00
 0.000000e+00 0.000000e+00 0.000000e+00 8.363827e-01 1.636173e-01
 0.000000e+00 0.000000e+00 0.000000e+00 0.000000e+00 0.000000e+00
<ENDHMM>
~h "f"
<BEGINHMM>
<NUMSTATES> 5
<STATE> 2
<MEAN> 39
 -8.438025e+00 -1.911891e-01 -1.667641e+00 -1.082787e+00 -4.852302e+00 -1.980066e+00 -6.063914e+00 -4.749085e+00 -4.033257e+00 -2.815296e+00 -2.197134e+00 -3.274951e+00 5.858776e+01 -3.378721e+00 -1.040481e-01 -1.264241e-01 1.174825e+00 1.371658e+00 -2.515166e-01 2.965314e-01 8.219602e-01 7.177764e-01 2.015701e-01 -6.288282e-02 5.829244e-01 -1.232234e+00 -3.065709e-01 -5.794714e-01 -2.789521e-01 -3.884126e-01 -6.614920e-01 -2.181448e-01 -2.340525e-01 -1.355712e-01 3.316821e-02 4.163772e-02 1.675694e-01 -3.863159e-02 2.486004e-01
<VARIANCE> 39
 5.397103e+01 2.296507e+01 4.132760e+01 3.918406e+01 3.839405e+01 5.136259e+01 3.799824e+01 4.180916e+01 3.321992e+01 2.828717e+01 3.187969e+01 2.595758e+01 7.260836e+01 3.035160e+00 3.802076e+00 5.121928e+00 4.284999e+00 5.808937e+00 4.344847e+00 3.704590e+00 4.756328e+00 3.878643e+00 3.158082e+00 3.750902e+00 2.645942e+00 2.131855e+00 7.525205e-01 3.867615e-01 5.084039e-01 6.201192e-01 7.015979e-01 5.856684e-01 6.076223e-01 7.024688e-01 7.016955e-01 5.114166e-01 5.577492e-01 4.182706e-01 2.806022e-01
<GCONST> 1.283048e+02
<STATE> 3
<MEAN> 39
 -2.155024e+01 -5.925601e+00 -5.803605e+00 -1.021889e+00 -5.770982e+00 -4.608070e+00 -7.369380e+00 -3.393228e+00 -2.183697e+00 -1.923548e+00 -1.431533e+00 -1.078421e+00 5.722562e+01 -4.410740e-01 -6.148655e-01 -4.503568e-01 -3.106770e-01 -2.638580e-01 -2.242730e-01 -1.518430e-01 -1.971763e-02 1.891465e-02 4.516267e-02 8.184259e-02 6.338749e-02 -7.022603e-02 8.179516e-01 2.008803e-01 1.451895e-01 -1.517876e-01 -6.105595e-02 1.179004e-01 2.846079e-02 -8.675621e-02 -1.231514e-01 -3.742589e-02 -1.439512e-02 -1.556361e-01 1.884425e-01
<VARIANCE> 39
 2.167710e+01 2.032146e+01 2.372490e+01 1.756788e+01 1.955289e+01 2.751963e+01 2.664313e+01 2.496059e+01 1.991980e+01 1.737013e+01 2.004887e+01 1.538498e+01 3.483680e+01 3.323627e+00 1.402919e+00 1.712561e+00 1.672801e+00 1.683412e+00 1.967813e+00 1.814480e+00 1.837652e+00 1.776384e+00 1.748796e+00 1.587342e+00 1.484816e+00 1.432405e+00 5.137742e-01 3.000081e-01 3.935940e-01 4.298586e-01 4.383720e-01 4.446030e-01 3.959359e-01 4.352924e-01 4.109471e-01 3.992754e-01 3.652630e-01 3.366254e-01 2.415244e-01
<GCONST> 1.066944e+02
<STATE> 4
<MEAN> 39
 -1.545922e+01 -5.069870e+00 -6.595330e+00 -3.630344e+00 -4.634848e+00 -3.477429e+00 -6.563995e+00 -3.575547e+00 -3.321600e+00 -2.829902e+00 -1.577817e+00 -2.081031e+00 4.289008e+01 9.116946e-01 2.142455e-01 6.862877e-02 -2.403669e-01 -1.484072e-01 1.223464e-01 -3.676597e-03 -1.511190e-01 -1.451234e-01 -7.118642e-02 -1.295695e-02 -1.916402e-01 2.009597e-01 2.000611e-01 4.417100e-02 4.662753e-02 -5.614063e-02 -9.717776e-02 4.214823e-02 -2.517923e-02 -5.993221e-02 -2.386623e-02 -1.718986e-02 1.561773e-02 -6.323828e-02 1.428712e-01
<VARIANCE> 39
 3.426982e+01 3.424875e+01 2.461703e+01 2.261257e+01 2.061208e+01 2.246953e+01 2.734132e+01 2.697847e+01 2.479427e+01 2.310861e+01 2.252505e+01 1.710314e+01 1.178091e+02 5.747424e+00 1.902894e+00 2.061726e+00 2.594743e+00 1.998416e+00 2.378283e+00 2.264889e+00 2.407307e+00 2.161527e+00 2.077789e+00 1.931832e+00 1.988841e+00 3.019457e+00 4.658930e-01 3.305500e-01 3.086748e-01 3.740124e-01 4.169407e-01 4.157877e-01 4.312972e-01 4.479291e-01 4.379760e-01 3.899479e-01 3.819458e-01 3.559822e-01 3.348986e-01
<GCONST> 1.138767e+02
<TRANSP> 5
 0.000000e+00 1.000000e+00 0.000000e+00 0.000000e+00 0.000000e+00
 0.000000e+00 6.743130e-01 3.256870e-01 0.000000e+00 0.000000e+00
 0.000000e+00 0.000000e+00 8.368509e-01 1.631491e-01 0.000000e+00
 0.000000e+00 0.000000e+00 0.000000e+00 8.671413e-01 1.328587e-01
 0.000000e+00 0.000000e+00 0.000000e+00 0.000000e+00 0.000000e+00
<ENDHMM>
~h "g"
<BEGINHMM>
<NUMSTATES> 5
<STATE> 2
<MEAN> 39
 1.489239e+00 3.510426e+00 3.704679e+00 -1.915051e+00 -9.598853e+00 -5.190344e+00 -1.119169e+01 -7.421156e+00 -6.715724e+00 1.752712e-01 -4.883654e+00 -8.370968e+00 5.279914e+01 5.394186e-01 1.301999e+00 9.825299e-01 1.093019e+00 2.629073e-01 -3.093642e-01 5.256233e-01 -1.138395e-01 -4.442547e-01 -1.176593e-01 -4.138473e-01 -3.237009e-01 -1.974513e+00 -4.196840e-01 -4.367716e-01 -3.808789e-01 -2.806002e-01 7.338205e-02 2.878937e-02 -2.350586e-02 2.008231e-01 2.279233e-01 -8.329135e-02 7.595474e-02 1.582637e-01 6.680908e-01
<VARIANCE> 39
 2.823665e+01 3.740543e+01 4.357978e+01 4.205167e+01 5.605215e+01 5.613350e+01 7.510896e+01 5.982037e+01 6.151686e+01 3.903780e+01 4.660984e+01 3.967773e+01 8.994627e+01 1.994151e+00 2.120238e+00 2.833726e+00 3.043342e+00 4.128604e+00 3.192353e+00 3.896167e+00 4.050252e+00 4.487802e+00 2.959499e+00 2.938229e+00 2.599839e+00 4.410898e+00 4.536225e-01 4.960182e-01 5.200785e-01 4.620431e-01 8.908916e-01 6.547624e-01 9.937044e-01 7.513843e-01 8.217790e-01 6.119237e-01 6.708198e-01 6.148069e-01 8.335627e-01
<GCONST> 1.319567e+02
<STATE> 3
<MEAN> 39
 -1.465060e+00 4.436872e+00 3.955973e+00 7.177178e-01 -6.688324e+00 -5.162770e+00 -9.514710e+00 -6.464456e+00 -7.513091e+00 -9.493124e-01 -5.818631e+00 -6.856118e+00 5.103204e+01 -2.206204e+00 -1.982179e+00 -1.499985e+00 -5.385073e-01 1.432602e+00 -2.324489e-01 -1.224428e+00 8.705452e-01 -2.919568e-01 2.705303e-01 3.670011e-01 9.917282e-01 2.937842e+00 -9.834636e-02 -4.695193e-01 -2.546496e-01 -7.081414e-01 -6.429901e-01 3.312087e-02 -3.967839e-01 1.847309e-04 1.126450e-01 1.211597e-01 4.788285e-01 1.371807e-02 1.093474e+00
<VARIANCE> 39
 5.122319e+01 4.715772e+01 5.225495e+01 3.209227e+01 6.786136e+01 4.965776e+01 5.778451e+01 4.579513e+01 4.467146e+01 2.939595e+01 3.653240e+01 3.265666e+01 8.037736e+01 3.448624e+00 4.657079e+00 5.967765e+00 3.945372e+00 6.948581e+00 5.611448e+00 5.470646e+00 5.354873e+00 5.557264e+00 3.630683e+00 4.386818e+00 3.560448e+00 5.196535e+00 8.270161e-01 9.609912e-01 9.051023e-01 5.715759e-01 1.485386e+00 7.118698e-01 8.310800e-01 7.590604e-01 9.305241e-01 6.014554e-01 6.859813e-01 6.140134e-01 8.618671e-01
<GCONST> 1.390360e+02
<STATE> 4
<MEAN> 39
 -4.992289e+00 -2.920792e+00 -6.310531e-01 -5.231483e+00 -9.453899e+00 -7.746948e+00 -1.647610e+01 -2.655514e+00 -6.006769e+00 1.752600e+00 -1.827132e+00 -5.635537e+00 6.498526e+01 2.370340e-02 -1.214775e+00 -4.045259e-01 -2.270104e+00 -2.335903e+00 -2.026248e-01 -4.720348e-01 9.800141e-01 1.230775e+00 1.953975e-01 1.124358e+00 -4.509262e-01 2.921195e+00 5.473279e-01 3.154131e-01 1.882684e-01 -3.387154e-02 -2.509567e-01 3.999601e-01 6.374503e-01 -2.237588e-01 3.534501e-01 -3.328905e-01 -2.821804e-01 -3.569639e-01 -5.444199e-01
<VARIANCE> 39
 2.505216e+01 3.428083e+01 6.011876e+01 4.664213e+01 9.285526e+01 6.695079e+01 8.260850e+01 5.914803e+01 6.420870e+01 3.633897e+01 4.406745e+01 3.320870e+01 4.940894e+01 2.824439e+00 3.121071e+00 4.749958e+00 3.449865e+00 7.364455e+00 4.256691e+00 5.965898e+00 5.309777e+00 7.287751e+00 3.369896e+00 5.240215e+00 3.181720e+00 3.208022e+00 5.346662e-01 6.682165e-01 1.086474e+00 6.851822e-01 2.340815e+00 7.994528e-01 9.496883e-01 8.914446e-01 1.062419e+00 6.339906e-01 1.036700e+00 5.878322e-01 4.404041e-01
<GCONST> 1.390239e+02
<TRANSP> 5
 0.000000e+00 1.000000e+00 0.000000e+00 0.000000e+00 0.000000e+00
 0.000000e+00 7.200989e-01 2.799011e-01 0.000000e+00 0.000000e+00
 0.000000e+00 0.000000e+00 5.837020e-01 4.162981e-01 0.000000e+00
 0.000000e+00 0.000000e+00 0.000000e+00 5.688184e-01 4.311816e-01
 0.000000e+00 0.000000e+00 0.000000e+00 0.000000e+00 0.000000e+00
<ENDHMM>
~h "h"
<BEGINHMM>
<NUMSTATES> 5
<STATE> 2
<MEAN> 39
 -6.044420e+00 -4.105770e+00 -3.754012e+00 -2.351410e+00 -1.258079e+00 1.467264e+00 -4.055871e+00 -3.554589e+00 -2.172335e+00 -3.873032e+00 -5.661523e+00 -4.738165e+00 6.259140e+01 -1.125280e+00 -3.042875e-01 6.556399e-01 7.986691e-01 1.462078e+00 8.417774e-01 4.445165e-01 7.406167e-01 3.712194e-01 3.789195e-02 -6.969225e-02 5.318444e-01 -9.644886e-01 1.984127e-02 -3.049209e-01 -2.465794e-01 -3.945764e-01 -3.358123e-01 -1.047433e-01 -2.101275e-01 -9.057929e-02 7.466599e-02 3.610057e-02 1.446238e-01 -1.170884e-01 1.116723e-01
<VARIANCE> 39
 2.870611e+01 3.568325e+01 5.620745e+01 5.372639e+01 7.151491e+01 5.559905e+01 5.032082e+01 5.875000e+01 4.853576e+01 4.182004e+01 4.476489e+01 3.988035e+01 9.380219e+01 1.468662e+00 2.500598e+00 3.990973e+00 2.573344e+00 3.594665e+00 3.213799e+00 2.829902e+00 3.269025e+00 2.889978e+00 2.675665e+00 2.794425e+00 2.350389e+00 1.710677e+00 1.788460e-01 3.211947e-01 4.165977e-01 3.721019e-01 5.374392e-01 4.794235e-01 4.703621e-01 5.879749e-01 5.064296e-01 4.092583e-01 4.452119e-01 4.040684e-01 1.800330e-01
<GCONST> 1.229458e+02
<STATE> 3
<MEAN> 39
 -1.089479e+01 -8.805254e+00 -5.700722e+00 -5.043636e+00 1.706501e+00 2.917752e+00 -5.807353e+00 -2.341348e+00 5.358597e-02 -3.399272e+00 -5.142036e+00 -3.431782e+00 5.856861e+01 9.756153e-03 -2.238012e-02 -3.892481e-01 -3.875948e-01 -3.902178e-01 -4.377031e-01 -2.277827e-01 -2.375948e-01 -8.886654e-02 -4.679324e-02 1.040713e-01 -1.376629e-02 -6.209239e-01 2.883575e-01 2.029310e-01 -4.416676e-02 -8.040075e-02 -2.893609e-01 -1.901748e-01 -4.543541e-02 -1.704601e-01 -1.420348e-01 -5.262445e-02 -5.024347e-03 -1.159595e-01 2.793509e-02
<VARIANCE> 39
 4.588227e+01 4.705197e+01 4.640359e+01 5.382811e+01 6.278027e+01 4.963989e+01 5.904139e+01 4.531375e+01 4.424276e+01 4.410515e+01 3.862031e+01 2.875270e+01 1.009957e+02 2.219653e+00 2.673277e+00 2.503146e+00 2.402516e+00 2.658455e+00 2.632589e+00 2.884356e+00 2.744139e+00 2.543339e+00 2.330778e+00 2.402303e+00 2.172176e+00 3.715662e+00 3.040273e-01 3.624717e-01 4.434898e-01 4.502546e-01 5.425158e-01 5.065677e-01 5.614063e-01 5.254539e-01 4.906265e-01 4.526797e-01 4.501112e-01 3.993066e-01 2.512045e-01
<GCONST> 1.237201e+02
<STATE> 4
<MEAN> 39
 -1.168906e+01 -4.777174e+00 -6.657036e+00 -4.592886e+00 -3.253213e+00 -2.786399e+00 -6.341483e+00 -4.073792e+00 -3.891405e+00 -4.685903e+00 -3.596242e+00 -2.886783e+00 4.140026e+01 7.857849e-02 1.700277e-01 7.260219e-03 1.082393e-03 -1.393669e-01 -7.233478e-02 3.528211e-02 -8.824302e-02 -6.295799e-02 1.256072e-02 4.884376e-02 -3.338736e-02 -2.218777e-01 2.970193e-02 -3.791770e-03 2.896975e-02 1.632344e-03 -7.588192e-03 3.166477e-02 -2.462855e-03 4.754500e-04 8.088645e-03 2.098735e-03 3.295946e-03 -2.706452e-02 1.102345e-01
<VARIANCE> 39
 2.511333e+01 4.415838e+01 3.199593e+01 2.738300e+01 2.766214e+01 2.925747e+01 3.490065e+01 3.058347e+01 3.022454e+01 2.703309e+01 2.525317e+01 2.090975e+01 1.338010e+02 1.008110e+00 1.393930e+00 1.474728e+00 1.315777e+00 1.592274e+00 1.671104e+00 1.877095e+00 1.972200e+00 1.944559e+00 1.812056e+00 1.733793e+00 1.629734e+00 1.570219e+00 1.520341e-01 2.168948e-01 2.258682e-01 2.403068e-01 2.863204e-01 3.060970e-01 3.490796e-01 3.733964e-01 3.753138e-01 3.440971e-01 3.322248e-01 2.976722e-01 1.608384e-01
<GCONST> 1.060588e+02
<TRANSP> 5
 0.000000e+00 1.000000e+00 0.000000e+00 0.000000e+00 0.000000e+00
 0.000000e+00 5.854746e-01 4.145254e-01 0.000000e+00 0.000000e+00
 0.000000e+00 0.000000e+00 7.400172e-01 2.599828e-01 0.000000e+00
 0.000000e+00 0.000000e+00 0.000000e+00 8.652387e-01 1.347614e-01
 0.000000e+00 0.000000e+00 0.000000e+00 0.000000e+00 0.000000e+00
<ENDHMM>
~h "i"
<BEGINHMM>
<NUMSTATES> 5
<STATE> 2
<MEAN> 39
 -6.717891e+00 -7.335778e-01 1.007278e+01 -2.118665e+00 -1.818710e+01 -8.971089e+00 -1.077226e+01 -8.276503e+00 -1.079770e+01 -3.504385e+00 1.466401e+00 -4.629749e+00 6.293158e+01 5.565661e-01 2.508182e-01 2.468537e+00 -3.598847e-01 -2.885559e+00 2.226889e-01 -9.080011e-01 -9.453365e-01 -1.590654e+00 2.235454e-01 1.253447e+00 -7.128392e-01 1.691621e+00 -1.119607e-01 1.324241e-01 -4.390296e-01 -1.879663e-01 3.994542e-01 4.124967e-01 5.879593e-02 2.440828e-02 3.970250e-01 1.587841e-01 -2.519070e-01 -7.402366e-02 -4.283412e-01
<VARIANCE> 39
 3.230434e+01 3.750285e+01 5.043797e+01 3.954223e+01 5.509709e+01 5.227881e+01 5.901987e+01 6.630270e+01 5.060385e+01 4.131592e+01 4.142691e+01 2.694960e+01 8.134487e+01 5.569574e+00 2.962660e+00 4.382793e+00 3.834287e+00 4.795906e+00 4.598259e+00 5.772306e+00 6.236227e+00 5.085814e+00 3.762804e+00 3.802449e+00 2.808349e+00 4.511649e+00 6.690977e-01 5.448424e-01 7.737477e-01 5.539328e-01 1.109606e+00 7.342300e-01 8.324378e-01 1.076434e+00 8.174449e-01 5.882155e-01 6.681884e-01 4.581688e-01 9.145547e-01
<GCONST> 1.366268e+02
<STATE> 3
<MEAN> 39
 -7.603349e+00 8.168535e-01 1.498715e+01 -5.418889e+00 -2.365648e+01 -5.254116e+00 -1.332722e+01 -1.144554e+01 -1.298110e+01 -2.640150e+00 3.413205e+00 -7.608572e+00 6.608437e+01 1.669087e-01 1.814221e-01 -2.781216e-01 2.733633e-02 1.729955e-01 -4.162547e-02 2.009655e-01 7.306083e-02 1.806609e-01 1.948348e-01 -1.944773e-01 3.579987e-02 -3.057134e-01 9.641919e-02 7.902044e-03 -4.533122e-01 1.850545e-01 5.643791e-01 -1.633942e-01 2.348980e-01 2.369603e-01 3.038265e-01 -6.937774e-02 -2.730398e-01 1.537125e-01 -3.978175e-01
<VARIANCE> 39
 1.092215e+01 2.540299e+01 3.162582e+01 3.782970e+01 2.629049e+01 5.045785e+01 5.414468e+01 5.778537e+01 4.115970e+01 4.638205e+01 4.556486e+01 3.182807e+01 2.531531e+01 8.261014e-01 1.340015e+00 1.943262e+00 1.670030e+00 2.343443e+00 2.303115e+00 2.418202e+00 2.791813e+00 2.232842e+00 1.764878e+00 1.763102e+00 1.397713e+00 1.496722e+00 1.821115e-01 2.216404e-01 2.953820e-01 2.909787e-01 5.281873e-01 4.022997e-01 4.632370e-01 5.067794e-01 4.586672e-01 3.734338e-01 4.166296e-01 2.847695e-01 2.750386e-01
<GCONST> 1.113961e+02
<STATE> 4
<MEAN> 39
 -7.266563e+00 2.617030e+00 7.248957e+00 -2.008433e+00 -1.423486e+01 -6.711679e+00 -8.367100e+00 -9.351112e+00 -8.537953e+00 -2.434390e+00 -1.644696e+00 -4.191930e+00 4.972083e+01 8.948131e-03 1.276294e-01 -9.734946e-01 2.736725e-01 1.090690e+00 7.487134e-03 3.821431e-01 3.970715e-01 5.946715e-01 -1.220053e-01 -4.775838e-01 2.171797e-01 -1.630780e+00 -9.901514e-02 -7.028620e-02 -3.887014e-02 -6.535130e-02 3.937757e-02 1.191387e-01 -7.317136e-02 -3.118408e-02 -1.899512e-04 -2.503917e-02 -6.554262e-03 -2.211024e-02 1.024996e-01
<VARIANCE> 39
 3.278114e+01 3.605063e+01 5.933243e+01 3.584740e+01 5.821634e+01 6.708298e+01 5.211732e+01 5.814718e+01 4.107508e+01 3.695281e+01 3.710866e+01 3.017661e+01 1.627317e+02 1.642664e+00 1.920601e+00 2.279869e+00 1.967171e+00 3.407073e+00 2.590543e+00 3.134618e+00 3.279795e+00 3.010106e+00 2.282914e+00 2.653303e+00 2.012228e+00 3.904308e+00 2.351009e-01 3.082087e-01 3.193998e-01 3.410946e-01 5.764433e-01 4.939148e-01 5.139328e-01 5.610347e-01 4.740548e-01 4.354018e-01 4.397014e-01 3.685754e-01 4.346018e-01
<GCONST> 1.226887e+02
<TRANSP> 5
 0.000000e+00 1.000000e+00 0.000000e+00 0.000000e+00 0.000000e+00
 0.000000e+00 6.323293e-01 3.676708e-01 0.000000e+00 0.000000e+00
 0.000000e+00 0.000000e+00 8.196380e-01 1.803620e-01 0.000000e+00
 0.000000e+00 0.000000e+00 0.000000e+00 7.914931e-01 2.085069e-01
 0.000000e+00 0.000000e+00 0.000000e+00 0.000000e+00 0.000000e+00
<ENDHMM>
~h "j"
<BEGINHMM>
<NUMSTATES> 5
<STATE> 2
<MEAN> 39
 -2.378197e+00 6.924135e+00 6.437808e+00 5.471314e-01 -9.263004e+00 -6.697334e+00 -7.507524e+00 -3.327062e+00 -5.170431e+00 -5.491231e+00 -4.506865e+00 -3.774790e+00 5.066809e+01 -5.365460e-01 8.695365e-01 6.393964e-01 1.009356e-01 8.804357e-01 2.582188e-01 5.086002e-01 1.985719e-01 8.912532e-02 -7.423081e-02 -5.268869e-02 -1.037626e-01 -6.496433e-01 -5.953521e-01 -3.835612e-01 -2.318342e-01 -2.668077e-01 3.333366e-02 2.328308e-02 -1.490833e-01 -1.918887e-01 -2.880345e-02 1.141606e-01 1.732358e-01 1.015659e-01 7.600343e-01
<VARIANCE> 39
 4.330998e+01 3.838109e+01 4.005997e+01 2.585766e+01 4.601272e+01 4.601209e+01 4.732795e+01 4.709867e+01 4.702703e+01 3.366541e+01 2.722331e+01 2.363925e+01 1.006371e+02 6.137609e+00 4.014462e+00 2.958812e+00 2.921534e+00 4.553525e+00 3.694963e+00 3.824347e+00 4.334199e+00 3.838367e+00 2.588442e+00 2.569325e+00 2.244526e+00 7.484157e+00 1.044917e+00 6.127214e-01 4.999126e-01 5.088086e-01 8.151715e-01 7.236630e-01 6.996152e-01 7.426187e-01 7.190242e-01 4.836258e-01 5.178829e-01 5.113502e-01 1.134734e+00
<GCONST> 1.316459e+02
<STATE> 3
<MEAN> 39
 -1.614687e+01 6.109369e+00 6.968947e+00 -2.532376e+00 -4.313379e+00 -5.152398e+00 -7.168129e+00 -5.700734e+00 -6.317582e+00 -4.482710e+00 -2.099476e+00 -1.824490e+00 6.083761e+01 -1.657825e+00 -1.112931e+00 2.872058e-01 -4.255393e-01 -1.695794e+00 -1.360833e+00 -1.017332e+00 -7.759748e-01 -7.632869e-01 1.107003e-02 1.262891e+00 1.010330e+00 3.605521e+00 1.620026e+00 -3.921919e-01 -1.398695e-02 1.257932e-01 -1.240142e+00 -3.745089e-01 -4.644037e-01 2.767109e-01 1.313303e-01 -7.254834e-02 1.421020e-01 -1.437052e-01 -1.435443e-01
<VARIANCE> 39
 5.174598e+01 3.505426e+01 3.525752e+01 2.661749e+01 5.217929e+01 5.222260e+01 4.031442e+01 2.754794e+01 2.937903e+01 2.042791e+01 2.212307e+01 1.815148e+01 4.681469e+01 1.354710e+01 3.505262e+00 3.798263e+00 4.023012e+00 8.732049e+00 4.750713e+00 3.377974e+00 3.503482e+00 3.949541e+00 2.478673e+00 2.528369e+00 1.940975e+00 3.096356e+00 1.307590e+00 8.296820e-01 7.481123e-01 7.313519e-01 1.261889e+00 9.417538e-01 6.116407e-01 8.899680e-01 1.075839e+00 5.489912e-01 5.236298e-01 5.078115e-01 7.381182e-01
<GCONST> 1.318599e+02
<STATE> 4
<MEAN> 39
 -6.843012e+00 -1.500520e+00 8.026340e+00 -3.708679e+00 -1.882008e+01 -1.231784e+01 -1.370495e+01 -3.738495e+00 -5.955677e+00 -4.738341e+00 2.742614e+00 -1.181998e-01 6.974341e+01 2.618474e+00 -2.760512e+00 -1.591215e+00 -1.160218e+00 -2.212881e+00 -1.067981e-01 -1.301245e+00 1.736480e+00 1.778206e+00 4.458471e-01 2.694703e-01 -1.074051e+00 1.674497e+00 -1.370719e-01 2.349712e-01 -7.568954e-01 -2.612767e-01 1.274563e+00 9.211622e-01 5.451187e-01 1.713402e-01 4.370683e-01 1.451961e-01 -7.047240e-01 -7.062573e-01 -6.448879e-01
<VARIANCE> 39
 1.867472e+01 3.343621e+01 3.096641e+01 4.275782e+01 3.784393e+01 3.328151e+01 4.722808e+01 5.202534e+01 5.487186e+01 3.545648e+01 3.360829e+01 2.111789e+01 2.496245e+01 2.942664e+00 2.565009e+00 3.784819e+00 3.112864e+00 8.176379e+00 3.648758e+00 4.820072e+00 6.226822e+00 6.237021e+00 3.178081e+00 4.253636e+00 3.228060e+00 1.490684e+00 8.362778e-01 4.523270e-01 3.755465e-01 5.615705e-01 8.932661e-01 5.461857e-01 5.719884e-01 9.505688e-01 8.378396e-01 5.582212e-01 6.503590e-01 4.204892e-01 1.560401e-01
<GCONST> 1.271244e+02
<TRANSP> 5
 0.000000e+00 1.000000e+00 0.000000e+00 0.000000e+00 0.000000e+00
 0.000000e+00 8.310787e-01 1.689213e-01 0.000000e+00 0.000000e+00
 0.000000e+00 0.000000e+00 7.041878e-01 2.958122e-01 0.000000e+00
 0.000000e+00 0.000000e+00 0.000000e+00 6.400093e-01 3.599907e-01
 0.000000e+00 0.000000e+00 0.000000e+00 0.000000e+00 0.000000e+00
<ENDHMM>
~h "k"
<BEGINHMM>
<NUMSTATES> 5
<STATE> 2
<MEAN> 39
 -9.752049e+00 -1.047663e-01 -4.609125e+00 -3.962548e+00 -5.585435e+00 -4.146703e+00 -6.611736e+00 -5.108424e+00 -4.322270e+00 -2.623167e+00 -3.661020e+00 -3.920475e+00 3.899655e+01 -6.987454e-01 -1.406019e-01 -1.281234e-01 1.472079e-01 2.345231e-01 -1.074825e-01 5.207984e-02 2.388338e-01 9.799545e-02 8.427672e-04 1.447058e-02 2.601354e-01 -9.443007e-01 -7.504284e-02 -2.861914e-01 -1.799716e-01 -1.189121e-01 3.602033e-02 1.186256e-02 -1.176055e-01 6.487834e-02 1.516088e-02 4.119241e-02 2.053720e-02 1.345298e-02 7.155664e-01
<VARIANCE> 39
 4.091832e+01 2.847922e+01 3.472697e+01 2.798309e+01 3.676398e+01 3.624616e+01 3.739581e+01 3.618974e+01 3.546111e+01 3.227907e+01 3.155379e+01 2.645753e+01 7.133106e+01 1.790534e+00 2.096206e+00 2.023007e+00 2.085713e+00 2.753711e+00 2.907932e+00 2.869826e+00 2.901493e+00 2.644240e+00 2.486039e+00 2.364156e+00 2.107499e+00 5.030844e+00 3.266437e-01 5.046816e-01 4.863428e-01 4.577664e-01 5.762131e-01 6.254220e-01 6.353667e-01 6.150903e-01 5.813429e-01 5.332374e-01 4.969722e-01 4.309303e-01 1.118883e+00
<GCONST> 1.222615e+02
<STATE> 3
<MEAN> 39
 -1.128039e+01 -3.007652e+00 -5.990348e+00 -3.439235e+00 -3.952649e+00 -4.871118e+00 -8.185627e+00 -3.566712e+00 -4.141096e+00 -1.104208e+00 -3.468991e+00 -2.754112e+00 4.545572e+01 -1.191326e+00 -2.336076e+00 -2.223397e+00 -7.831379e-01 1.330031e+00 -3.886415e-01 -1.358417e+00 9.182050e-01 3.235927e-02 6.602023e-01 -3.390215e-01 3.588043e-01 4.412017e+00 5.576523e-01 1.505847e-01 3.406022e-02 -3.883853e-01 -4.014266e-01 3.129724e-02 -4.711226e-02 -1.158736e-01 4.973557e-02 3.910369e-02 -6.866705e-02 -3.552249e-01 1.175790e+00
<VARIANCE> 39
 4.163475e+01 5.790614e+01 5.861565e+01 3.989075e+01 5.823395e+01 5.993777e+01 5.529479e+01 4.902957e+01 4.371058e+01 3.354251e+01 3.342075e+01 2.605975e+01 1.219792e+02 4.406985e+00 5.394298e+00 6.978495e+00 5.774647e+00 6.693118e+00 7.519317e+00 5.795999e+00 6.180039e+00 5.782773e+00 4.566253e+00 4.363038e+00 4.024983e+00 1.284042e+01 6.940407e-01 1.031449e+00 1.038933e+00 7.230259e-01 1.053444e+00 1.002534e+00 1.045954e+00 8.690621e-01 8.237097e-01 6.765409e-01 6.444031e-01 6.404077e-01 1.717730e+00
<GCONST> 1.436126e+02
<STATE> 4
<MEAN> 39
 -1.077052e+01 -6.687897e+00 -1.114350e+01 -7.923313e+00 -2.657663e+00 -5.287475e+00 -1.188733e+01 -2.174235e+00 -3.327217e+00 1.191741e+00 -4.910181e+00 -4.421911e+00 6.033252e+01 1.754632e+00 2.733819e-01 5.716136e-01 -9.350308e-01 -1.223216e+00 8.569933e-02 3.565218e-01 -1.938589e-01 2.577880e-01 -1.824274e-01 6.601532e-02 -1.095194e+00 3.227251e+00 6.579409e-01 4.128889e-01 6.981614e-01 1.008467e-01 -6.117686e-01 2.256410e-01 5.722768e-01 -3.472278e-01 9.948817e-02 -4.070224e-01 2.633911e-01 -2.953641e-01 -6.929305e-01
<VARIANCE> 39
 4.638020e+01 4.389732e+01 6.257309e+01 5.699814e+01 6.700849e+01 7.546175e+01 6.196248e+01 5.405736e+01 6.439195e+01 4.409276e+01 4.312519e+01 4.021852e+01 7.971421e+01 5.246537e+00 4.375625e+00 6.111127e+00 4.470487e+00 5.735976e+00 4.663527e+00 6.544007e+00 4.670485e+00 5.544131e+00 4.249930e+00 4.096425e+00 4.453959e+00 9.486773e+00 9.200172e-01 9.839752e-01 1.358511e+00 8.587139e-01 1.228482e+00 1.063570e+00 1.223928e+00 9.962366e-01 1.067494e+00 8.639664e-01 8.350861e-01 8.989155e-01 1.207817e+00
<GCONST> 1.457109e+02
<TRANSP> 5
 0.000000e+00 1.000000e+00 0.000000e+00 0.000000e+00 0.000000e+00
 0.000000e+00 8.306058e-01 1.693942e-01 0.000000e+00 0.000000e+00
 0.000000e+00 0.000000e+00 5.228274e-01 4.771726e-01 0.000000e+00
 0.000000e+00 0.000000e+00 0.000000e+00 6.239253e-01 3.760746e-01
 0.000000e+00 0.000000e+00 0.000000e+00 0.000000e+00 0.000000e+00
<ENDHMM>
~h "l"
<BEGINHMM>
<NUMSTATES> 5
<STATE> 2
<MEAN> 39
 4.792854e-01 -6.172544e+00 -4.466409e+00 -8.477574e+00 -1.110086e+01 -3.854600e+00 -1.341613e+01 -1.149705e+01 -7.476263e-02 1.859631e+00 -1.665488e+00 -5.910666e+00 6.634441e+01 3.637953e-01 4.212637e-01 7.487615e-01 -3.914450e-01 1.093874e+00 -3.073175e-01 -1.650536e+00 -1.251595e+00 2.378935e-01 7.518277e-01 -1.629481e-02 1.644014e-01 -4.489877e-01 -2.015961e-01 1.689130e-01 7.587955e-02 -1.866140e-01 2.670902e-02 2.582796e-01 9.647290e-02 8.851606e-02 -1.195054e-01 -2.155360e-01 -2.600652e-02 4.542924e-04 -3.414244e-02
<VARIANCE> 39
 2.608061e+01 3.032174e+01 6.749244e+01 7.657991e+01 6.447185e+01 6.843970e+01 8.986729e+01 1.074185e+02 7.266212e+01 6.458392e+01 6.438170e+01 4.849212e+01 5.279248e+01 1.204163e+00 2.008655e+00 3.322286e+00 4.562228e+00 5.169641e+00 5.890387e+00 5.378495e+00 5.497472e+00 5.970458e+00 4.645985e+00 4.925116e+00 3.516756e+00 1.519434e+00 2.124511e-01 3.007394e-01 4.026343e-01 6.249276e-01 7.805317e-01 8.026608e-01 8.733070e-01 1.027354e+00 9.032440e-01 8.230569e-01 7.135905e-01 5.304409e-01 1.634005e-01
<GCONST> 1.341458e+02
<STATE> 3
<MEAN> 39
 1.799376e-01 -3.988101e+00 -1.689642e+00 -1.184332e+01 -8.077467e+00 -2.487583e+00 -1.871804e+01 -1.480931e+01 1.142063e+00 2.914670e+00 -1.082421e+00 -5.832555e+00 6.599524e+01 -1.645307e-01 8.112462e-02 1.225913e-01 -2.537128e-01 8.356541e-02 1.225385e-01 -1.648502e-01 1.834079e-01 -6.953748e-02 -6.973872e-02 -1.320285e-01 5.320023e-02 4.277645e-02 -1.834831e-01 -3.422256e-01 -4.616965e-01 2.930538e-01 -4.554135e-01 7.919434e-02 8.197334e-01 8.012646e-01 -9.240824e-03 -4.101294e-01 -1.749342e-01 -1.581323e-01 2.831936e-01
<VARIANCE> 39
 1.905683e+01 2.646204e+01 6.799802e+01 7.242482e+01 5.162065e+01 6.023075e+01 9.542977e+01 8.657608e+01 7.013343e+01 6.693249e+01 6.143117e+01 4.571339e+01 3.695857e+01 6.599158e-01 1.428079e+00 2.983725e+00 3.044552e+00 2.854219e+00 3.346105e+00 4.035105e+00 5.497653e+00 4.690146e+00 3.062042e+00 3.241074e+00 2.544537e+00 1.187275e+00 1.272537e-01 2.985578e-01 3.712687e-01 5.130234e-01 7.730414e-01 8.218932e-01 9.514555e-01 8.899108e-01 9.822752e-01 7.898265e-01 1.012950e+00 5.958369e-01 1.428127e-01
<GCONST> 1.276637e+02
<STATE> 4
<MEAN> 39
 -9.463546e-01 -3.838551e+00 -1.891780e+00 -1.368822e+01 -5.873920e+00 -1.907277e+00 -1.619397e+01 -1.118261e+01 -1.287823e+00 2.284643e+00 -2.959330e+00 -4.162551e+00 6.315662e+01 -3.137893e-01 -4.054852e-01 -5.273468e-01 5.109143e-01 -3.374318e-01 2.203291e-01 1.062041e+00 1.075516e+00 -9.251837e-03 -6.540004e-01 -4.031390e-01 -2.655130e-01 9.285450e-02 -8.934642e-02 -7.641023e-02 -1.579101e-01 1.490716e-01 -7.346977e-02 6.792632e-02 3.052972e-01 1.173097e-01 2.462834e-03 -1.840432e-01 -1.922453e-02 -9.197607e-02 3.704080e-02
<VARIANCE> 39
 2.673949e+01 3.149493e+01 7.269847e+01 1.114194e+02 6.800910e+01 6.008822e+01 8.701737e+01 6.768404e+01 6.424847e+01 6.427303e+01 5.350801e+01 4.788398e+01 7.957806e+01 7.679002e-01 2.406851e+00 2.793081e+00 2.892065e+00 3.585730e+00 3.551966e+00 4.256938e+00 4.926656e+00 4.245509e+00 3.182390e+00 4.258506e+00 2.882543e+00 2.533889e+00 1.212358e-01 2.675487e-01 2.880163e-01 4.702529e-01 5.373634e-01 4.856292e-01 5.920761e-01 5.501504e-01 5.368063e-01 5.373066e-01 5.729726e-01 3.945973e-01 1.911292e-01
<GCONST> 1.270146e+02
<TRANSP> 5
 0.000000e+00 1.000000e+00 0.000000e+00 0.000000e+00 0.000000e+00
 0.000000e+00 5.220437e-01 4.779562e-01 0.000000e+00 0.000000e+00
 0.000000e+00 0.000000e+00 5.701159e-01 4.298841e-01 0.000000e+00
 0.000000e+00 0.000000e+00 0.000000e+00 5.902594e-01 4.097407e-01
 0.000000e+00 0.000000e+00 0.000000e+00 0.000000e+00 0.000000e+00
<ENDHMM>
~h "m"
<BEGINHMM>
<NUMSTATES> 5
<STATE> 2
<MEAN> 39
 1.166019e+00 -2.292850e+00 -2.631730e+00 -4.929664e+00 -9.054392e+00 1.257458e+00 -7.866767e+00 -1.179654e+01 -7.703117e+00 -4.591458e+00 -1.230929e+00 -6.106294e+00 5.885941e+01 3.344462e-01 1.042426e+00 1.546363e+00 1.914912e+00 3.604202e-01 6.565230e-01 5.028608e-01 -1.963860e+00 -2.113847e+00 -9.164709e-01 -6.669058e-01 6.574652e-01 -1.070360e+00 -2.892718e-01 -1.886892e-01 3.239859e-02 -8.988526e-02 -2.280081e-02 -1.406645e-02 9.677873e-03 1.613227e-01 1.236778e-01 -1.425362e-01 -2.158589e-01 -4.130314e-03 3.149826e-01
<VARIANCE> 39
 2.866682e+01 3.602892e+01 5.955037e+01 6.253371e+01 4.912307e+01 5.518042e+01 5.148449e+01 8.401044e+01 6.953595e+01 4.669734e+01 6.298138e+01 3.673990e+01 8.558918e+01 1.925606e+00 2.526137e+00 4.254530e+00 4.037266e+00 3.945315e+00 4.208936e+00 4.002994e+00 6.308742e+00 5.909085e+00 3.517689e+00 6.169503e+00 4.571089e+00 4.276121e+00 2.439476e-01 3.345711e-01 5.443105e-01 6.654635e-01 5.565285e-01 5.068231e-01 5.637180e-01 9.017398e-01 8.409482e-01 5.232547e-01 7.673618e-01 5.254949e-01 3.563780e-01
<GCONST> 1.334653e+02
<STATE> 3
<MEAN> 39
 1.547055e+00 -1.588512e+00 6.431578e-01 -1.053913e+00 -9.313926e+00 5.069527e+00 -6.331394e+00 -1.559925e+01 -1.170710e+01 -8.838431e+00 -4.404418e+00 -4.621052e+00 5.982803e+01 -6.733669e-02 4.067412e-02 7.718806e-03 -1.138245e-01 5.394244e-03 4.512681e-02 1.535390e-01 1.256749e-01 2.337352e-02 -1.420142e-01 -1.630408e-01 1.113919e-01 7.868868e-02 -4.086854e-03 -1.339573e-01 -4.532255e-01 -5.376908e-01 -6.525530e-02 -2.482407e-01 -1.046755e-01 4.945281e-01 5.403906e-01 3.663566e-01 2.321700e-01 -1.150568e-01 1.779784e-01
<VARIANCE> 39
 1.277871e+01 2.361471e+01 3.550091e+01 3.877177e+01 3.996844e+01 5.643154e+01 5.112345e+01 9.339126e+01 7.202686e+01 5.128077e+01 8.038408e+01 3.281497e+01 3.466188e+01 4.210016e-01 1.006486e+00 1.730333e+00 2.348956e+00 1.585909e+00 2.046086e+00 1.659909e+00 2.489035e+00 2.711825e+00 2.224220e+00 2.716815e+00 1.659437e+00 1.411367e+00 1.055670e-01 2.051282e-01 3.382644e-01 3.977299e-01 3.358695e-01 3.969866e-01 3.734006e-01 5.917993e-01 6.042864e-01 4.092720e-01 6.187422e-01 4.535662e-01 2.129781e-01
<GCONST> 1.136535e+02
<STATE> 4
<MEAN> 39
 -8.090235e+00 -2.084034e+00 -3.418254e+00 -3.130907e+00 -4.107606e+00 -2.581406e+00 -6.369788e+00 -9.193562e+00 -7.915293e+00 -6.408011e+00 -5.384468e+00 -2.859206e+00 4.264144e+01 -3.576152e-02 -3.154171e-02 -1.994025e-01 -2.918065e-01 -9.108794e-03 -1.042778e-01 -6.405365e-03 3.319252e-01 2.563787e-01 2.400726e-01 1.416531e-01 -4.869534e-02 1.337384e-02 9.794395e-04 -3.648406e-02 -2.194759e-02 -4.402123e-02 -6.043606e-03 2.754369e-02 -3.966980e-02 5.626601e-02 6.517866e-02 2.018846e-02 2.594745e-02 -5.704781e-02 7.380939e-02
<VARIANCE> 39
 4.561475e+01 3.205288e+01 3.753481e+01 2.752981e+01 3.381114e+01 3.611438e+01 3.136597e+01 7.382438e+01 5.388504e+01 3.219889e+01 4.153298e+01 2.114153e+01 1.236229e+02 8.349656e-01 1.396094e+00 2.156629e+00 2.295183e+00 1.718350e+00 1.983140e+00 1.903055e+00 2.842524e+00 2.978944e+00 2.224775e+00 2.439995e+00 1.831682e+00 1.905389e+00 1.471352e-01 2.088407e-01 2.571800e-01 2.858132e-01 3.232496e-01 3.484216e-01 3.503220e-01 4.555953e-01 4.595264e-01 3.826300e-01 3.882420e-01 3.145770e-01 1.521029e-01
<GCONST> 1.126782e+02
<TRANSP> 5
 0.000000e+00 1.000000e+00 0.000000e+00 0.000000e+00 0.000000e+00
 0.000000e+00 5.982022e-01 4.017978e-01 0.000000e+00 0.000000e+00
 0.000000e+00 0.000000e+00 7.702021e-01 2.297979e-01 0.000000e+00
 0.000000e+00 0.000000e+00 0.000000e+00 8.383335e-01 1.616666e-01
 0.000000e+00 0.000000e+00 0.000000e+00 0.000000e+00 0.000000e+00
<ENDHMM>
~h "n"
<BEGINHMM>
<NUMSTATES> 5
<STATE> 2
<MEAN> 39
 1.049250e+00 -5.001539e+00 -2.382687e+00 -2.461494e+00 -1.088085e+01 -5.695847e+00 -1.100494e+01 -7.524622e+00 2.989441e-01 -2.602360e+00 -7.647276e+00 -7.306796e+00 6.415432e+01 6.307831e-01 2.160793e+00 2.112034e+00 2.126570e+00 -3.045611e-01 -4.168720e-01 1.741626e-01 -3.179424e+00 -9.280455e-01 4.720929e-01 -1.099692e+00 1.163744e+00 -2.432999e+00 -2.192049e-01 3.985953e-02 -4.601152e-02 -2.053778e-01 -6.193601e-02 1.929675e-01 3.758258e-01 -1.520676e-01 -1.548245e-01 -1.734271e-01 5.866945e-02 1.539279e-01 1.594332e-01
<VARIANCE> 39
 1.166350e+01 3.855275e+01 5.723413e+01 4.661906e+01 4.771021e+01 5.376649e+01 6.021135e+01 1.316127e+02 6.781311e+01 4.089518e+01 5.699662e+01 4.256837e+01 3.943797e+01 8.771228e-01 1.883823e+00 3.551619e+00 2.547604e+00 4.231039e+00 5.204818e+00 5.879292e+00 6.267932e+00 4.512676e+00 3.993463e+00 5.553810e+00 3.746899e+00 1.182133e+00 1.174458e-01 4.117050e-01 4.518029e-01 4.907784e-01 5.331092e-01 6.007271e-01 7.006787e-01 1.363215e+00 6.582094e-01 6.254347e-01 5.668030e-01 4.746033e-01 2.996362e-01
<GCONST> 1.282712e+02
<STATE> 3
<MEAN> 39
 1.607313e+00 -1.275596e-01 1.810827e+00 2.238348e+00 -1.328571e+01 -5.356700e+00 -8.451585e+00 -1.628765e+01 -2.085654e+00 -2.683631e+00 -8.971964e+00 -3.369975e+00 5.923653e+01 1.519657e-02 5.925018e-01 4.005028e-01 2.559635e-01 4.723032e-03 1.909577e-01 1.688556e-01 -2.480510e-01 -3.976480e-01 -6.782498e-02 -1.640160e-01 3.604519e-01 -6.625323e-01 -1.402123e-01 -2.485609e-01 -3.048034e-01 -3.655417e-01 2.313927e-01 7.410070e-02 -1.061542e-01 6.873234e-01 7.016798e-02 -7.998114e-02 2.116863e-01 -2.475603e-01 2.053017e-01
<VARIANCE> 39
 1.009978e+01 1.956305e+01 3.400770e+01 2.839530e+01 3.824515e+01 5.473890e+01 5.539849e+01 1.125024e+02 7.859589e+01 4.119394e+01 8.328353e+01 3.946135e+01 2.346073e+01 3.885933e-01 1.010598e+00 1.301540e+00 1.182302e+00 1.571938e+00 1.782530e+00 2.122699e+00 3.131877e+00 2.476803e+00 1.750814e+00 2.296450e+00 1.812323e+00 8.957498e-01 1.165144e-01 2.567244e-01 3.750618e-01 3.423477e-01 4.102177e-01 4.768617e-01 5.019500e-01 7.692829e-01 5.178131e-01 4.136617e-01 5.759279e-01 3.944261e-01 2.538016e-01
<GCONST> 1.122204e+02
<STATE> 4
<MEAN> 39
 -4.870662e+00 1.315099e+00 1.047204e+00 6.524283e-01 -6.698327e+00 -4.594475e+00 -7.157328e+00 -9.172304e+00 -4.369433e+00 -4.502581e+00 -8.537806e+00 -3.022565e+00 4.592405e+01 -5.169311e-01 -2.035419e-02 -2.466738e-01 -3.030894e-01 5.310789e-01 2.082966e-01 -1.387970e-02 7.759293e-01 -1.173936e-01 -1.241148e-01 3.707728e-01 -1.757577e-01 -7.449496e-01 -9.919780e-02 -1.483195e-01 -1.030479e-01 -1.375933e-01 -1.016432e-02 7.293352e-03 -2.390829e-02 8.420213e-02 7.734681e-02 -4.259687e-03 1.123326e-01 -4.565720e-02 1.346865e-01
<VARIANCE> 39
 4.683105e+01 3.539194e+01 4.146038e+01 3.418650e+01 4.054816e+01 3.534089e+01 4.262678e+01 8.550724e+01 4.436393e+01 3.472984e+01 6.351690e+01 2.915121e+01 1.039106e+02 1.193220e+00 1.998626e+00 1.934099e+00 2.130972e+00 2.462046e+00 2.524531e+00 2.601568e+00 4.059002e+00 2.879119e+00 2.289167e+00 2.943268e+00 2.247915e+00 2.891512e+00 2.310465e-01 3.290189e-01 3.384021e-01 3.800135e-01 4.283488e-01 4.362648e-01 4.751458e-01 6.459320e-01 4.918003e-01 4.276731e-01 5.073378e-01 3.786990e-01 3.343308e-01
<GCONST> 1.208385e+02
<TRANSP> 5
 0.000000e+00 1.000000e+00 0.000000e+00 0.000000e+00 0.000000e+00
 0.000000e+00 5.770710e-01 4.229290e-01 0.000000e+00 0.000000e+00
 0.000000e+00 0.000000e+00 7.735217e-01 2.264784e-01 0.000000e+00
 0.000000e+00 0.000000e+00 0.000000e+00 7.896920e-01 2.103080e-01
 0.000000e+00 0.000000e+00 0.000000e+00 0.000000e+00 0.000000e+00
<ENDHMM>
~h "o"
<BEGINHMM>
<NUMSTATES> 5
<STATE> 2
<MEAN> 39
 -1.125812e+00 -1.649227e+00 -8.286418e+00 -1.477253e+01 -1.104476e+01 2.682535e+00 -1.081250e+01 -7.186418e+00 -3.063154e+00 -1.334606e+00 1.515286e-01 -4.517081e+00 6.211329e+01 1.817332e+00 -2.471588e-01 -9.223889e-01 -2.469878e+00 -1.382964e+00 1.866769e+00 1.577378e-01 -5.870171e-01 8.222129e-01 1.528669e-01 1.000394e+00 -3.594724e-01 2.102525e+00 -4.005630e-01 -3.997289e-02 1.167568e-01 2.008310e-01 1.969467e-01 7.565548e-03 2.940190e-01 -1.471725e-02 -8.551754e-02 -1.007141e-01 1.073517e-04 1.243001e-01 -3.803339e-01
<VARIANCE> 39
 3.975782e+01 3.608882e+01 5.420890e+01 9.565442e+01 5.683558e+01 5.946319e+01 7.189312e+01 6.084299e+01 6.935574e+01 5.911339e+01 4.818954e+01 3.954288e+01 1.148527e+02 4.943643e+00 3.080613e+00 6.169629e+00 5.966177e+00 6.775371e+00 5.631966e+00 4.877800e+00 6.173681e+00 5.159722e+00 5.028397e+00 4.809885e+00 3.854559e+00 5.550120e+00 8.246363e-01 5.313865e-01 7.579258e-01 1.131332e+00 8.652387e-01 8.509927e-01 8.094226e-01 8.551347e-01 9.505243e-01 8.027695e-01 6.988356e-01 5.992705e-01 1.131895e+00
<GCONST> 1.432191e+02
<STATE> 3
<MEAN> 39
 1.500578e+00 -2.866252e+00 -1.170042e+01 -1.970809e+01 -1.474990e+01 8.747313e+00 -9.847589e+00 -9.690523e+00 2.338681e-01 -2.727884e+00 4.912089e+00 -4.922812e+00 6.921043e+01 6.137074e-02 -1.036265e-01 -3.443392e-01 -3.409758e-01 1.665845e-01 4.057777e-01 3.677616e-01 -1.209806e-01 1.842498e-02 2.419353e-02 1.479575e-01 -1.315724e-02 2.029549e-01 -2.068327e-01 1.132566e-01 3.517866e-01 7.508228e-01 3.904071e-01 -6.317289e-01 -9.654511e-02 1.114076e-01 -2.577251e-01 3.017045e-02 -4.552746e-01 5.864953e-02 -5.299680e-01
<VARIANCE> 39
 1.172780e+01 3.489854e+01 3.956057e+01 6.277802e+01 4.032366e+01 4.769902e+01 8.214645e+01 5.419857e+01 5.521242e+01 7.148318e+01 4.677007e+01 4.500678e+01 2.159984e+01 5.264186e-01 1.565600e+00 1.619244e+00 4.698758e+00 2.683923e+00 3.727979e+00 3.792968e+00 3.401737e+00 4.259388e+00 4.217230e+00 2.828419e+00 2.657099e+00 1.333781e+00 2.396928e-01 2.747590e-01 3.514110e-01 4.855091e-01 6.224180e-01 5.552922e-01 6.551034e-01 6.532879e-01 6.819741e-01 7.853734e-01 5.836617e-01 5.577313e-01 2.513092e-01
<GCONST> 1.228397e+02
<STATE> 4
<MEAN> 39
 9.643500e-01 -1.021653e+00 -1.093127e+01 -1.934970e+01 -1.123132e+01 5.516763e+00 -7.936018e+00 -7.866300e+00 -3.609161e+00 -2.025379e+00 5.577390e-01 -3.492240e+00 6.273677e+01 -9.874684e-02 1.431309e-01 3.164571e-01 1.025478e+00 3.810907e-01 -5.728573e-01 1.419769e-02 -1.904613e-02 -4.129318e-02 4.936139e-02 -4.788775e-01 -1.013800e-01 -1.063930e+00 -6.585868e-02 1.736612e-02 1.666801e-01 2.832869e-01 3.932696e-02 -1.131720e-01 -5.571254e-02 -3.832218e-02 2.918867e-02 -3.735986e-02 -5.928043e-02 -5.580406e-03 -1.931230e-01
<VARIANCE> 39
 1.910358e+01 3.663441e+01 5.166406e+01 7.406659e+01 5.041546e+01 4.368250e+01 7.656641e+01 5.368190e+01 5.603166e+01 6.842337e+01 4.733458e+01 4.328640e+01 1.015774e+02 6.951701e-01 1.401427e+00 1.583340e+00 3.056656e+00 2.342534e+00 2.488063e+00 2.500185e+00 2.394083e+00 2.654191e+00 2.459318e+00 2.367326e+00 2.016174e+00 2.625216e+00 1.232634e-01 2.227999e-01 2.551280e-01 3.668153e-01 3.900830e-01 3.907147e-01 4.637621e-01 4.183976e-01 4.628381e-01 4.569966e-01 3.836245e-01 3.780399e-01 2.981710e-01
<GCONST> 1.183217e+02
<TRANSP> 5
 0.000000e+00 1.000000e+00 0.000000e+00 0.000000e+00 0.000000e+00
 0.000000e+00 5.791727e-01 4.208273e-01 0.000000e+00 0.000000e+00
 0.000000e+00 0.000000e+00 7.121591e-01 2.878409e-01 0.000000e+00
 0.000000e+00 0.000000e+00 0.000000e+00 8.191478e-01 1.808523e-01
 0.000000e+00 0.000000e+00 0.000000e+00 0.000000e+00 0.000000e+00
<ENDHMM>
~h "p"
<BEGINHMM>
<NUMSTATES> 5
<STATE> 2
<MEAN> 39
 -9.506209e+00 3.699128e-01 -4.371597e+00 -3.935344e+00 -4.829782e+00 -2.923385e+00 -5.655849e+00 -5.375550e+00 -4.598966e+00 -3.363458e+00 -3.539946e+00 -3.569337e+00 3.644641e+01 -6.743762e-01 4.926123e-02 1.305472e-03 1.604798e-01 5.497903e-02 -2.745644e-01 1.052388e-01 2.467400e-01 1.286306e-01 2.919674e-02 3.643023e-02 2.079595e-01 -8.454362e-01 -2.366067e-03 -1.867408e-01 -2.464757e-02 -6.119915e-02 -6.560335e-02 -2.208369e-03 -6.067741e-02 -2.537657e-02 9.398245e-03 -1.025296e-02 6.266783e-02 3.394205e-02 5.428611e-01
<VARIANCE> 39
 4.275208e+01 2.482718e+01 2.473347e+01 2.281977e+01 2.059511e+01 2.846780e+01 2.556811e+01 2.820656e+01 3.001975e+01 2.605252e+01 2.467055e+01 2.285232e+01 3.967809e+01 1.321249e+00 1.186538e+00 1.264627e+00 1.460959e+00 1.576771e+00 1.992102e+00 1.857474e+00 2.136986e+00 2.100639e+00 1.968442e+00 2.029505e+00 1.641547e+00 2.817902e+00 2.135024e-01 2.890002e-01 2.735142e-01 3.202209e-01 3.536294e-01 3.914577e-01 3.983338e-01 4.246157e-01 4.284098e-01 4.051611e-01 4.087843e-01 3.349665e-01 7.027605e-01
<GCONST> 1.087909e+02
<STATE> 3
<MEAN> 39
 -9.748624e+00 7.459910e-01 -2.941542e+00 -2.708632e+00 -4.909310e+00 -3.596413e+00 -5.627957e+00 -5.017434e+00 -3.849283e+00 -2.977522e+00 -3.041883e+00 -2.928596e+00 3.965580e+01 -9.091260e-02 -1.673959e+00 -5.132570e-01 -8.160869e-01 -4.265575e-01 -2.751073e-01 -6.325587e-01 -2.153792e-01 1.997803e-01 -5.971115e-02 6.365000e-01 2.631710e-01 5.154601e+00 1.005056e+00 -4.793847e-01 -4.008810e-01 -8.262114e-01 -5.040777e-01 4.692104e-01 -2.836542e-01 -2.500155e-01 4.775179e-02 3.101003e-02 2.469222e-01 -4.367245e-01 2.021822e+00
<VARIANCE> 39
 3.431367e+01 2.285416e+01 2.676275e+01 2.242885e+01 2.411312e+01 3.128496e+01 3.026332e+01 2.840218e+01 3.056714e+01 2.449721e+01 2.403555e+01 2.126035e+01 7.244728e+01 5.184417e+00 3.022635e+00 3.981210e+00 4.529824e+00 3.731102e+00 5.026367e+00 3.799392e+00 3.638324e+00 3.993858e+00 3.441961e+00 3.528763e+00 3.201641e+00 1.012747e+01 5.037642e-01 5.972345e-01 7.741263e-01 7.434262e-01 7.309390e-01 9.516938e-01 8.051208e-01 7.223197e-01 6.875710e-01 6.460997e-01 6.155650e-01 6.129347e-01 1.098529e+00
<GCONST> 1.294710e+02
<STATE> 4
<MEAN> 39
 -5.598458e+00 -5.663103e+00 -7.453638e+00 -9.263721e+00 -7.468051e+00 -2.252307e+00 -8.180743e+00 -7.084974e+00 -3.458154e+00 -2.417591e+00 -4.315499e-01 -4.006468e+00 6.053600e+01 2.705169e+00 -1.718136e+00 -1.395667e+00 -2.599923e+00 -1.107806e+00 1.502204e+00 -6.780179e-01 -5.839344e-01 5.106173e-01 2.161235e-01 7.859676e-01 -1.216437e+00 6.210642e+00 1.999393e-01 3.627381e-01 1.963968e-01 1.832154e-01 -3.730093e-02 1.756799e-01 9.355767e-02 1.290167e-01 1.386039e-01 -2.902089e-02 -2.448479e-01 -2.736942e-01 -1.071443e+00
<VARIANCE> 39
 5.644463e+01 2.675704e+01 3.602818e+01 6.567706e+01 2.954671e+01 6.514909e+01 3.742829e+01 3.057673e+01 2.886934e+01 3.032941e+01 3.092157e+01 3.142842e+01 6.653690e+01 4.839773e+00 5.431635e+00 7.180324e+00 7.646863e+00 6.534406e+00 7.837220e+00 6.559998e+00 4.981711e+00 4.854251e+00 4.519312e+00 4.807237e+00 5.132078e+00 1.122342e+01 1.227156e+00 7.322650e-01 7.511047e-01 1.360319e+00 1.045522e+00 1.217862e+00 7.388465e-01 7.981916e-01 8.203138e-01 6.717631e-01 7.787749e-01 6.905060e-01 1.201919e+00
<GCONST> 1.412286e+02
<TRANSP> 5
 0.000000e+00 1.000000e+00 0.000000e+00 0.000000e+00 0.000000e+00
 0.000000e+00 8.691562e-01 1.308437e-01 0.000000e+00 0.000000e+00
 0.000000e+00 0.000000e+00 5.522451e-01 4.477548e-01 0.000000e+00
 0.000000e+00 0.000000e+00 0.000000e+00 4.746689e-01 5.253311e-01
 0.000000e+00 0.000000e+00 0.000000e+00 0.000000e+00 0.000000e+00
<ENDHMM>
~h "q"
<BEGINHMM>
<NUMSTATES> 5
<STATE> 2
<MEAN> 39
 -8.187352e+00 2.430090e+00 3.208486e+00 -1.683134e+01 -1.128406e+01 -2.914370e+00 -1.742363e+01 -7.277523e+00 -8.215527e+00 -1.141127e+00 -4.703419e+00 -6.410462e+00 5.051160e+01 8.999069e-03 -3.618539e-02 -8.880953e-01 -6.399596e-01 9.336239e-01 2.186434e-01 4.347934e-01 -2.336197e-02 1.163614e-01 -3.188498e-01 -7.361359e-01 7.043371e-01 -1.099099e+00 1.246372e-01 -2.189685e-01 1.135527e-01 6.412886e-02 -6.489708e-02 2.427438e-02 -9.308377e-02 1.679487e-01 -7.590438e-02 -1.288987e-01 2.198922e-01 -1.047691e-01 1.164790e-01
<VARIANCE> 39
 7.434943e+01 2.566727e+01 1.239971e+02 1.977146e+02 4.895496e+01 4.859340e+01 3.812097e+01 6.339665e+01 1.712893e+01 2.010985e+01 1.897387e+01 3.010503e+01 6.017385e+01 3.240211e+00 3.236402e+00 1.453362e+01 5.899361e+00 6.821473e+00 2.872467e+00 3.425117e+00 2.612609e+00 1.657343e+00 2.064479e+00 3.917308e+00 3.093790e+00 7.837130e+00 5.033373e-01 6.663597e-01 2.525654e+00 9.798734e-01 1.247015e+00 4.552905e-01 5.452188e-01 4.721331e-01 5.106636e-01 3.587842e-01 6.627734e-01 5.882643e-01 6.858998e-01
<GCONST> 1.338163e+02
<STATE> 3
<MEAN> 39
 -8.611758e+00 -3.120607e+00 8.446454e-02 -1.608837e+01 -4.034591e-02 -3.543239e+00 -1.310209e+01 -1.073068e+01 -4.173566e+00 -8.016726e+00 -6.919190e+00 -3.143644e+00 5.298265e+01 -2.689949e-01 -5.648390e-01 -7.104734e-01 7.617925e-01 1.344312e+00 -8.271747e-01 2.146613e-01 7.920426e-01 1.353078e+00 -7.084252e-01 -8.235689e-02 -3.935711e-01 -7.717572e-01 1.732373e-02 1.597388e-01 6.527609e-02 8.067364e-02 -3.290884e-01 2.005034e-01 -2.773801e-01 2.996069e-01 1.179972e-02 3.957759e-01 3.469142e-01 -1.565134e-01 4.269222e-02
<VARIANCE> 39
 3.812146e+01 9.295492e+01 5.415705e+01 1.774173e+02 9.912109e+01 3.497958e+01 1.761528e+01 2.493137e+01 5.748735e+01 1.305563e+01 1.781104e+01 1.395519e+01 2.220698e+02 3.023645e+00 1.944210e+00 9.845785e-01 1.701725e+00 3.091663e+00 1.071121e+00 2.128501e+00 1.863279e+00 2.664261e+00 1.977175e+00 1.828054e+00 2.474374e+00 4.089067e+00 2.792314e-01 2.393287e-01 1.905829e-01 3.788694e-01 3.734857e-01 3.127576e-01 2.416979e-01 3.396061e-01 6.589559e-01 4.498848e-01 7.009395e-01 4.098753e-01 4.359803e-01
<GCONST> 1.169633e+02
<STATE> 4
<MEAN> 39
 -1.411742e+01 -1.041775e+00 -3.914240e+00 -3.563825e+00 -4.641269e+00 -5.203465e+00 -6.803773e+00 -6.101128e+00 -5.729088e+00 -3.639637e+00 -3.707530e+00 -1.323405e+00 3.356858e+01 -1.450747e-02 -7.761976e-02 -5.010831e-02 1.074817e-02 9.089002e-02 1.618095e-02 -1.989711e-02 6.886026e-02 -4.558614e-02 -1.159616e-03 5.370634e-02 1.942796e-02 4.979469e-03 4.974013e-03 2.341550e-02 2.099595e-02 -5.377493e-03 8.355430e-04 1.486334e-02 -1.330965e-02 -1.854071e-02 -1.849471e-02 -2.652904e-02 -2.086871e-02 -1.198629e-02 3.787088e-02
<VARIANCE> 39
 6.282666e+00 1.965727e+01 1.065135e+01 2.134783e+01 2.064291e+01 2.171793e+01 2.813937e+01 3.039177e+01 2.034707e+01 1.453867e+01 1.927781e+01 1.660167e+01 3.274053e+01 4.061439e-01 1.077356e+00 7.524858e-01 1.139170e+00 1.435745e+00 1.363320e+00 2.311495e+00 2.131254e+00 1.491205e+00 1.289657e+00 2.077589e+00 1.985735e+00 8.191020e-01 8.015388e-02 2.138476e-01 1.368223e-01 1.955177e-01 2.630672e-01 2.671330e-01 4.576254e-01 4.260204e-01 3.089733e-01 2.434146e-01 4.154144e-01 4.367039e-01 1.254376e-01
<GCONST> 9.453278e+01
<TRANSP> 5
 0.000000e+00 1.000000e+00 0.000000e+00 0.000000e+00 0.000000e+00
 0.000000e+00 8.239611e-01 1.760390e-01 0.000000e+00 0.000000e+00
 0.000000e+00 0.000000e+00 6.506199e-01 3.493801e-01 0.000000e+00
 0.000000e+00 0.000000e+00 0.000000e+00 9.745998e-01 2.540020e-02
 0.000000e+00 0.000000e+00 0.000000e+00 0.000000e+00 0.000000e+00
<ENDHMM>
~h "r"
<BEGINHMM>
<NUMSTATES> 5
<STATE> 2
<MEAN> 39
 -7.001835e-01 -7.450953e+00 -8.760963e+00 -4.779165e+00 -1.069339e+01 -4.568734e+00 -1.158103e+01 -6.510381e+00 4.142851e+00 -6.058545e-01 -3.334151e+00 -7.330565e+00 6.662491e+01 4.896137e-01 -4.158636e-02 2.623645e-01 1.069567e+00 -4.418563e-02 -1.960434e-01 -1.165570e+00 -2.576405e-01 3.457853e-01 -1.473666e-02 1.272055e-01 1.622839e-01 -7.495010e-01 -6.221021e-02 4.091973e-02 1.139038e-01 -1.378102e-01 2.894656e-02 1.294599e-02 1.706115e-01 9.065793e-02 -4.273075e-01 -6.531521e-02 1.599271e-01 1.057046e-02 -5.302635e-02
<VARIANCE> 39
 2.187434e+01 2.774894e+01 5.520820e+01 4.113733e+01 5.668071e+01 5.353118e+01 7.603847e+01 9.199112e+01 5.841964e+01 4.646792e+01 4.222045e+01 4.517786e+01 6.012214e+01 2.242028e+00 1.815343e+00 4.077091e+00 3.949276e+00 4.863328e+00 5.644860e+00 5.111597e+00 4.514589e+00 5.341372e+00 4.111382e+00 3.734573e+00 3.695826e+00 3.803676e+00 4.014918e-01 2.913575e-01 5.972469e-01 6.032755e-01 7.330229e-01 7.236342e-01 8.643529e-01 8.342485e-01 8.637013e-01 6.730384e-01 6.116455e-01 6.049773e-01 6.513819e-01
<GCONST> 1.338316e+02
<STATE> 3
<MEAN> 39
 9.263996e-02 -6.232371e+00 -6.612339e+00 -1.964817e+00 -9.159163e+00 -7.105196e+00 -1.391301e+01 -5.760768e+00 1.838656e+00 -3.521945e-01 -1.695382e+00 -6.078432e+00 6.450562e+01 8.911142e-02 2.687403e-01 6.479529e-01 3.763317e-01 3.947443e-01 -4.695413e-01 -5.558501e-02 2.225638e-01 -9.732668e-01 -4.660873e-02 2.729956e-01 3.336523e-01 -9.208453e-01 -2.136758e-01 5.632334e-02 4.980416e-02 -4.859955e-01 -1.537069e-01 3.021534e-01 4.128440e-01 1.754646e-01 -2.100943e-01 -1.285864e-01 -7.221936e-02 -1.017876e-01 1.544530e-01
<VARIANCE> 39
 1.954000e+01 2.632483e+01 5.070464e+01 3.706882e+01 6.537619e+01 8.798074e+01 7.012301e+01 9.291665e+01 5.826031e+01 4.361622e+01 4.320633e+01 4.631967e+01 4.805079e+01 1.709190e+00 1.894440e+00 3.331093e+00 3.155357e+00 4.731611e+00 6.557778e+00 4.958868e+00 4.732618e+00 5.160818e+00 3.503001e+00 3.333300e+00 3.542961e+00 3.259529e+00 3.724730e-01 4.015446e-01 6.080626e-01 6.869931e-01 1.175947e+00 1.503301e+00 9.579320e-01 9.455320e-01 1.149749e+00 8.183172e-01 8.547775e-01 7.715740e-01 8.383915e-01
<GCONST> 1.359199e+02
<STATE> 4
<MEAN> 39
 -4.344863e+00 -5.313862e+00 -5.957853e+00 -3.421755e+00 -6.186616e+00 -5.067472e+00 -1.131440e+01 -4.955563e+00 -2.951622e-01 -2.314553e+00 -2.659681e+00 -5.113798e+00 5.393351e+01 -2.389834e-01 1.631052e-01 2.857933e-01 -1.282334e-01 -1.496975e-01 1.455639e-01 3.146922e-01 1.466335e-01 -4.666970e-01 -2.098832e-01 2.977964e-02 5.965376e-02 -4.836287e-01 -1.351344e-02 -3.654431e-02 -3.219034e-02 -1.058809e-01 -1.769803e-01 9.208094e-02 1.399021e-01 -4.088922e-02 -1.084176e-02 -2.435750e-02 -6.446884e-03 -9.670733e-02 2.269723e-01
<VARIANCE> 39
 5.216716e+01 3.599962e+01 5.113632e+01 3.476487e+01 5.549898e+01 5.565767e+01 6.653612e+01 6.108693e+01 4.625506e+01 4.567081e+01 4.185572e+01 3.799730e+01 1.671192e+02 2.051136e+00 2.524760e+00 3.026129e+00 2.260646e+00 3.744862e+00 3.509520e+00 3.148494e+00 3.550717e+00 3.986228e+00 2.780323e+00 3.016490e+00 2.618353e+00 4.568890e+00 4.085267e-01 3.866530e-01 5.074245e-01 4.794690e-01 6.783388e-01 6.543003e-01 6.652060e-01 6.287909e-01 6.104611e-01 5.799853e-01 5.650396e-01 4.816452e-01 5.540226e-01
<GCONST> 1.298656e+02
<TRANSP> 5
 0.000000e+00 1.000000e+00 0.000000e+00 0.000000e+00 0.000000e+00
 0.000000e+00 4.781103e-01 5.218897e-01 0.000000e+00 0.000000e+00
 0.000000e+00 0.000000e+00 4.212422e-01 5.787578e-01 0.000000e+00
 0.000000e+00 0.000000e+00 0.000000e+00 6.475011e-01 3.524990e-01
 0.000000e+00 0.000000e+00 0.000000e+00 0.000000e+00 0.000000e+00
<ENDHMM>
~h "s"
<BEGINHMM>
<NUMSTATES> 5
<STATE> 2
<MEAN> 39
 -1.326471e+01 2.796819e+00 -2.263332e+00 -3.251318e+00 -3.058575e+00 -6.504938e+00 -6.741788e+00 -3.011256e+00 -2.027260e+00 -2.647105e+00 -3.765405e+00 -2.371150e+00 6.066792e+01 -4.285733e+00 1.759123e+00 -3.551909e-02 2.541219e-01 1.860569e+00 -4.338524e-02 9.124947e-01 1.203005e+00 1.818921e-01 -9.390607e-02 6.618552e-01 7.638845e-01 -2.181501e-01 -4.148449e-01 -3.087823e-01 -3.344963e-01 -2.188017e-01 -2.972100e-01 2.261556e-01 8.588003e-03 -9.357747e-02 4.754995e-05 2.175631e-02 2.263777e-01 -7.534365e-02 -1.773855e-03
<VARIANCE> 39
 8.064419e+01 4.335651e+01 5.229882e+01 3.746001e+01 5.507703e+01 4.927626e+01 7.504296e+01 4.968206e+01 4.276425e+01 3.794583e+01 4.226936e+01 2.958202e+01 1.184432e+02 4.249764e+00 4.327136e+00 4.269279e+00 3.612132e+00 4.905014e+00 4.271681e+00 4.455214e+00 4.594463e+00 3.784578e+00 2.844015e+00 3.601442e+00 2.780524e+00 3.259374e+00 1.024645e+00 7.784086e-01 4.936104e-01 4.870078e-01 7.763205e-01 6.123874e-01 7.336339e-01 7.394749e-01 6.086006e-01 5.126490e-01 5.813926e-01 4.871387e-01 3.034459e-01
<GCONST> 1.337891e+02
<STATE> 3
<MEAN> 39
 -3.090577e+01 4.976025e+00 -5.940547e+00 -4.326448e+00 1.628226e-01 -4.341106e+00 -4.044658e+00 -3.655076e-01 -6.332228e-01 -1.875175e+00 4.635922e-01 1.643029e-02 5.961588e+01 -7.485847e-01 -3.418350e-01 -3.952180e-01 -1.891393e-01 -1.913821e-01 3.271870e-03 8.101172e-02 5.028967e-02 6.147246e-02 8.858550e-02 1.785439e-01 1.590087e-01 -1.979900e-01 8.345610e-01 -2.154254e-01 1.612635e-01 -2.116577e-02 -2.200471e-01 -1.495332e-01 -1.904168e-01 -1.540461e-01 -3.777719e-02 -4.793438e-02 -1.774070e-01 -1.376327e-01 5.078609e-02
<VARIANCE> 39
 2.473003e+01 1.713137e+01 3.113189e+01 3.980409e+01 3.377179e+01 4.029644e+01 5.051021e+01 2.668160e+01 2.479009e+01 1.987171e+01 2.163232e+01 1.754167e+01 3.450266e+01 2.980577e+00 1.386806e+00 1.630257e+00 1.319070e+00 1.582768e+00 1.772397e+00 1.746176e+00 1.774060e+00 1.720292e+00 1.636312e+00 1.608716e+00 1.378535e+00 7.204757e-01 4.912923e-01 2.560987e-01 3.012332e-01 2.841761e-01 3.540272e-01 3.399707e-01 3.740526e-01 3.902967e-01 3.473303e-01 3.193255e-01 3.244496e-01 2.900932e-01 1.203761e-01
<GCONST> 1.055487e+02
<STATE> 4
<MEAN> 39
 -2.108966e+01 5.695296e-01 -5.564328e+00 -4.999055e+00 -3.220396e+00 -7.073311e+00 -6.398772e+00 -2.053165e+00 -1.284114e+00 -2.531644e+00 -2.142509e+00 -1.428669e+00 5.563558e+01 3.747962e+00 -7.241517e-01 5.150444e-01 -2.018209e-01 -9.689346e-01 -2.009301e-01 -1.113796e+00 -1.032382e+00 -2.392590e-02 -1.080398e-01 -7.110597e-01 -9.760787e-01 2.236791e-01 5.756956e-01 -3.295027e-03 1.136028e-01 -3.298502e-02 -1.364862e-01 2.729050e-01 -1.559872e-01 -2.140450e-01 -9.677881e-03 4.223583e-02 5.058511e-02 -1.936616e-01 2.428457e-01
<VARIANCE> 39
 8.189270e+01 2.953305e+01 3.755093e+01 3.364426e+01 3.474630e+01 4.257259e+01 5.835382e+01 3.595660e+01 3.327539e+01 2.759370e+01 3.031257e+01 2.444533e+01 1.317340e+02 9.398640e+00 3.174440e+00 3.780735e+00 3.191899e+00 3.692871e+00 4.160808e+00 4.428850e+00 4.362889e+00 3.825797e+00 2.583296e+00 2.819044e+00 2.884628e+00 5.212890e+00 1.366332e+00 4.926189e-01 4.967107e-01 4.716961e-01 5.762700e-01 7.078877e-01 7.628496e-01 7.809667e-01 6.219220e-01 5.147164e-01 5.486928e-01 4.993715e-01 5.256695e-01
<GCONST> 1.311479e+02
<TRANSP> 5
 0.000000e+00 1.000000e+00 0.000000e+00 0.000000e+00 0.000000e+00
 0.000000e+00 7.325646e-01 2.674353e-01 0.000000e+00 0.000000e+00
 0.000000e+00 0.000000e+00 8.578238e-01 1.421762e-01 0.000000e+00
 0.000000e+00 0.000000e+00 0.000000e+00 7.605225e-01 2.394775e-01
 0.000000e+00 0.000000e+00 0.000000e+00 0.000000e+00 0.000000e+00
<ENDHMM>
~h "t"
<BEGINHMM>
<NUMSTATES> 5
<STATE> 2
<MEAN> 39
 -9.315360e+00 5.220398e-01 -4.341280e+00 -3.590592e+00 -5.125823e+00 -4.836669e+00 -7.102379e+00 -5.035479e+00 -2.901751e+00 -2.676714e+00 -4.051559e+00 -4.210378e+00 3.841764e+01 -5.853184e-01 2.985639e-02 2.111844e-02 5.433018e-02 4.362930e-02 6.019994e-03 3.101727e-01 2.548734e-01 -1.127289e-01 -1.869916e-02 9.567790e-02 2.460560e-01 -1.248098e+00 -9.572328e-02 -2.353897e-01 -5.917676e-02 -1.121960e-01 -6.283353e-02 -1.132654e-02 -2.538331e-02 1.545575e-02 2.415491e-02 -2.686023e-02 7.479654e-02 4.277774e-02 6.285955e-01
<VARIANCE> 39
 4.310774e+01 2.606316e+01 2.957253e+01 2.717459e+01 2.523908e+01 2.909382e+01 3.542818e+01 3.560525e+01 3.595619e+01 2.956784e+01 3.161499e+01 2.796534e+01 6.255560e+01 1.570800e+00 1.467401e+00 1.499045e+00 1.679507e+00 2.065002e+00 1.978238e+00 2.196916e+00 2.334713e+00 2.237991e+00 2.022205e+00 2.159412e+00 1.850679e+00 4.446889e+00 2.974004e-01 3.755291e-01 3.409398e-01 3.764991e-01 4.621819e-01 4.110945e-01 4.392345e-01 4.712295e-01 4.695493e-01 4.223132e-01 4.410018e-01 3.820125e-01 9.082825e-01
<GCONST> 1.152311e+02
<STATE> 3
<MEAN> 39
 -1.054184e+01 1.031371e+00 -2.614996e+00 -2.679053e+00 -5.164504e+00 -4.987501e+00 -6.432972e+00 -4.812414e+00 -3.154897e+00 -2.334359e+00 -3.432116e+00 -3.419555e+00 3.945982e+01 -1.355900e+00 -1.933459e+00 -6.935524e-01 -1.060141e+00 4.157874e-02 -5.012881e-01 -1.882656e-01 2.179249e-01 4.531412e-02 -3.207059e-01 4.297471e-01 4.372146e-01 4.398167e+00 6.235509e-01 -2.862044e-01 -2.542568e-01 -3.479019e-01 -4.186784e-01 -1.009629e-01 -4.097961e-01 -2.666456e-01 2.621321e-01 3.346812e-02 -5.456394e-02 -3.651803e-01 2.105325e+00
<VARIANCE> 39
 4.127318e+01 2.960950e+01 3.722137e+01 2.740841e+01 3.318919e+01 3.420459e+01 3.534990e+01 3.464864e+01 3.430579e+01 2.649567e+01 3.007410e+01 2.279882e+01 7.112687e+01 4.198640e+00 3.364861e+00 4.296456e+00 3.422579e+00 4.430599e+00 4.144855e+00 4.099855e+00 4.366490e+00 4.501838e+00 3.226145e+00 3.816418e+00 3.326791e+00 1.232627e+01 6.346526e-01 6.204113e-01 8.113369e-01 5.832248e-01 7.990864e-01 7.343118e-01 7.535168e-01 7.856668e-01 8.577352e-01 5.879539e-01 6.154699e-01 6.106985e-01 1.292288e+00
<GCONST> 1.321817e+02
<STATE> 4
<MEAN> 39
 -1.237805e+01 -5.622036e+00 -6.337359e+00 -7.402200e+00 -6.726893e+00 -7.938542e+00 -8.687930e+00 -4.918847e+00 -1.944540e+00 -2.868834e+00 -2.939672e+00 -3.305721e+00 5.948129e+01 1.755320e+00 -8.068993e-01 -6.331443e-01 -1.099622e+00 -1.052016e+00 -7.670085e-02 -1.246306e+00 -6.611300e-01 8.381447e-01 5.523491e-02 9.146901e-02 -1.122082e+00 6.133744e+00 9.698154e-01 5.611337e-01 2.983369e-01 1.697211e-01 -2.504335e-01 5.806495e-01 -9.822074e-02 -2.146643e-01 -3.089060e-03 9.969090e-02 7.694005e-03 -3.755681e-01 -8.916222e-01
<VARIANCE> 39
 4.023581e+01 2.485203e+01 3.087554e+01 2.847321e+01 3.086303e+01 3.490394e+01 3.888376e+01 3.165772e+01 3.662124e+01 2.898971e+01 2.948198e+01 3.252009e+01 8.519292e+01 5.358045e+00 4.496599e+00 7.573178e+00 4.984618e+00 6.049471e+00 5.439914e+00 5.628332e+00 5.398169e+00 7.569766e+00 3.812489e+00 4.590512e+00 4.839836e+00 1.294843e+01 8.316323e-01 6.742198e-01 9.023659e-01 6.722916e-01 9.845302e-01 9.843385e-01 9.824737e-01 9.298195e-01 9.406319e-01 7.031986e-01 7.995573e-01 8.194538e-01 1.553377e+00
<GCONST> 1.388885e+02
<TRANSP> 5
 0.000000e+00 1.000000e+00 0.000000e+00 0.000000e+00 0.000000e+00
 0.000000e+00 8.515549e-01 1.484451e-01 0.000000e+00 0.000000e+00
 0.000000e+00 0.000000e+00 5.044859e-01 4.955141e-01 0.000000e+00
 0.000000e+00 0.000000e+00 0.000000e+00 4.847867e-01 5.152133e-01
 0.000000e+00 0.000000e+00 0.000000e+00 0.000000e+00 0.000000e+00
<ENDHMM>
~h "u"
<BEGINHMM>
<NUMSTATES> 5
<STATE> 2
<MEAN> 39
 -1.139697e+00 1.627252e+00 -3.370806e+00 -8.212973e+00 -1.143987e+01 -1.861416e-01 -1.540993e+01 -9.706246e+00 -6.294973e+00 -2.491115e+00 -6.629566e-01 -3.596538e+00 5.993502e+01 2.118936e+00 9.792620e-01 -3.861126e-01 -1.852178e+00 -1.885065e+00 2.060323e+00 -1.202434e+00 -1.092377e+00 -7.603877e-01 -1.467010e-01 1.130601e+00 -5.689634e-03 1.250859e+00 -3.326455e-01 8.100040e-02 9.925037e-02 -1.225506e-01 4.820939e-02 2.188150e-01 4.005044e-01 1.787537e-01 -3.585063e-02 -1.297878e-01 -7.361520e-03 7.582098e-02 -4.309154e-01
<VARIANCE> 39
 3.854758e+01 3.762953e+01 5.588904e+01 7.310447e+01 5.745987e+01 5.044773e+01 8.485336e+01 7.366334e+01 6.420337e+01 5.085698e+01 4.222194e+01 3.206074e+01 1.074142e+02 5.200530e+00 3.575286e+00 4.806243e+00 5.100300e+00 6.112377e+00 5.413704e+00 5.432378e+00 7.094018e+00 5.332093e+00 4.910127e+00 4.387635e+00 3.603773e+00 5.355900e+00 8.686785e-01 6.312759e-01 5.773857e-01 8.919556e-01 9.484774e-01 8.471643e-01 1.092791e+00 1.115399e+00 8.579053e-01 7.604488e-01 6.976185e-01 5.942023e-01 1.165738e+00
<GCONST> 1.425003e+02
<STATE> 3
<MEAN> 39
 2.750930e+00 4.270653e+00 -5.810310e+00 -1.426954e+01 -1.731444e+01 8.437778e+00 -1.663680e+01 -1.272621e+01 -7.869314e+00 -5.781389e+00 3.565557e+00 -2.079655e+00 6.408392e+01 2.059269e-01 1.812956e-01 -1.243583e-01 -4.329452e-01 -1.049474e-01 5.547585e-01 1.323583e-01 -2.115910e-01 -2.309185e-01 2.182060e-02 2.404360e-01 9.181266e-02 -4.181130e-02 -3.405296e-01 -2.439578e-01 2.234281e-01 6.873677e-01 7.040030e-01 -7.941625e-01 2.785865e-01 2.999125e-01 2.706950e-01 2.184301e-01 -5.307578e-01 -1.629347e-01 -3.973793e-01
<VARIANCE> 39
 1.301989e+01 3.481997e+01 3.818709e+01 6.443650e+01 4.571377e+01 4.117122e+01 7.542400e+01 8.299483e+01 7.417141e+01 6.698190e+01 4.901802e+01 4.189338e+01 2.595118e+01 7.592136e-01 2.972319e+00 1.849728e+00 5.330592e+00 4.338117e+00 4.263560e+00 4.365522e+00 6.054805e+00 4.486907e+00 4.876920e+00 4.039201e+00 3.087866e+00 2.237814e+00 2.893086e-01 4.055941e-01 4.226342e-01 6.230523e-01 7.319753e-01 6.775013e-01 8.681339e-01 1.064158e+00 8.450902e-01 8.578163e-01 8.205282e-01 6.501647e-01 3.084399e-01
<GCONST> 1.306038e+02
<STATE> 4
<MEAN> 39
 2.274356e+00 5.151629e+00 -5.212449e+00 -1.432367e+01 -1.330799e+01 3.488020e+00 -1.472987e+01 -9.346741e+00 -8.675668e+00 -3.879823e+00 -7.218914e-02 -2.957249e+00 5.896353e+01 -3.104760e-01 -1.682386e-01 3.250593e-01 1.023669e+00 8.337392e-01 -8.897768e-01 5.215336e-01 1.226343e-01 4.538551e-01 2.782104e-01 -5.356639e-01 -2.427375e-01 -1.049479e+00 -1.849316e-01 -9.105651e-02 1.042827e-01 2.357410e-01 8.671096e-02 -1.008114e-01 7.305934e-02 -8.301701e-03 1.141560e-01 -4.710044e-02 -6.356237e-02 1.844421e-03 -1.129521e-01
<VARIANCE> 39
 1.798769e+01 3.950641e+01 4.350782e+01 7.257113e+01 5.307219e+01 4.783414e+01 7.047212e+01 7.642739e+01 6.893918e+01 6.343664e+01 4.316971e+01 4.130465e+01 7.497033e+01 9.833769e-01 2.159629e+00 2.147629e+00 3.442987e+00 3.590422e+00 3.256431e+00 3.412391e+00 3.435810e+00 3.290541e+00 3.005154e+00 3.235487e+00 2.673085e+00 3.498096e+00 1.871778e-01 3.579226e-01 3.068699e-01 5.083157e-01 5.196173e-01 4.920912e-01 5.904366e-01 6.801129e-01 5.532718e-01 5.947756e-01 5.245821e-01 4.852447e-01 3.600567e-01
<GCONST> 1.259553e+02
<TRANSP> 5
 0.000000e+00 1.000000e+00 0.000000e+00 0.000000e+00 0.000000e+00
 0.000000e+00 5.619633e-01 4.380367e-01 0.000000e+00 0.000000e+00
 0.000000e+00 0.000000e+00 6.988206e-01 3.011793e-01 0.000000e+00
 0.000000e+00 0.000000e+00 0.000000e+00 7.659394e-01 2.340606e-01
 0.000000e+00 0.000000e+00 0.000000e+00 0.000000e+00 0.000000e+00
<ENDHMM>
~h "w"
<BEGINHMM>
<NUMSTATES> 5
<STATE> 2
<MEAN> 39
 7.175696e-01 -6.857798e-01 -5.996868e+00 -1.325689e+01 -1.072128e+01 3.173772e+00 -1.124101e+01 -7.071515e+00 -5.588876e+00 -1.620171e+00 -7.445973e-02 -4.593339e+00 5.821121e+01 1.479604e+00 1.125288e+00 -1.132193e-02 -1.813567e+00 -1.231721e+00 1.280871e+00 -2.539281e-01 -2.218571e-01 -9.744129e-01 -4.640402e-01 6.930465e-01 6.710851e-01 3.674826e-01 -1.714771e-01 -7.340734e-02 1.405193e-01 -1.319005e-02 -1.641645e-01 -2.080121e-01 1.175596e-01 2.375392e-01 1.068041e-01 -1.947562e-01 -1.151131e-01 5.708732e-02 3.392785e-02
<VARIANCE> 39
 3.812994e+01 5.871601e+01 4.645988e+01 9.050269e+01 4.862757e+01 6.168495e+01 6.939525e+01 5.659038e+01 6.085279e+01 6.154978e+01 5.169418e+01 3.773466e+01 1.514958e+02 2.648007e+00 2.723197e+00 2.891715e+00 3.758029e+00 4.270935e+00 4.100399e+00 3.995926e+00 4.054887e+00 3.789679e+00 3.627137e+00 3.383309e+00 3.632712e+00 4.598884e+00 5.664986e-01 5.460024e-01 4.057473e-01 7.153784e-01 7.409623e-01 6.768827e-01 7.274435e-01 6.976421e-01 7.171544e-01 7.131929e-01 6.423495e-01 5.675434e-01 3.531891e-01
<GCONST> 1.350074e+02
<STATE> 3
<MEAN> 39
 5.264892e+00 2.965926e+00 -6.164198e+00 -2.240547e+01 -1.718340e+01 6.982335e+00 -1.160462e+01 -5.516175e+00 -5.777282e+00 -5.041391e+00 8.522167e-01 -1.797786e+00 6.246287e+01 -3.570583e-02 -3.860082e-01 -2.609133e-01 -4.771411e-01 8.287103e-03 2.328618e-01 1.801589e-01 -1.498542e-01 1.568293e-01 1.636531e-01 2.496237e-01 9.442587e-02 4.581673e-01 -2.826174e-01 -4.887085e-01 -2.105794e-01 3.552990e-01 5.123371e-01 -9.509232e-02 8.968559e-02 -1.640012e-01 2.437790e-01 3.115325e-01 -7.510081e-03 -3.855581e-01 2.852824e-01
<VARIANCE> 39
 1.138640e+01 3.792015e+01 3.892030e+01 5.748057e+01 3.593105e+01 4.599876e+01 5.375620e+01 4.244024e+01 5.906993e+01 4.788052e+01 3.958847e+01 3.459656e+01 3.792699e+01 5.487884e-01 2.839229e+00 1.880484e+00 2.244555e+00 2.824669e+00 2.300473e+00 2.375746e+00 2.453786e+00 2.262879e+00 2.765146e+00 2.370145e+00 2.283833e+00 2.023506e+00 7.819888e-02 1.753291e-01 2.241204e-01 3.933344e-01 3.517413e-01 5.080289e-01 3.846807e-01 4.156395e-01 4.114473e-01 3.836049e-01 4.419516e-01 4.984910e-01 1.373694e-01
<GCONST> 1.135339e+02
<STATE> 4
<MEAN> 39
 2.214817e+00 -6.011536e+00 -1.085350e+01 -2.151057e+01 -8.908125e+00 8.661704e+00 -9.170032e+00 -8.848715e+00 -2.576059e+00 1.102037e-01 2.375284e+00 -6.506876e+00 6.893503e+01 -9.746150e-01 -1.721966e+00 -7.360986e-01 1.580349e+00 1.846363e+00 -7.884128e-01 2.026616e-01 -2.093868e-01 1.240462e+00 5.398280e-01 -8.924769e-01 -2.029733e+00 1.156963e+00 -5.809651e-03 2.478752e-01 3.106441e-01 4.357514e-01 -2.628214e-01 -5.114307e-01 -1.152627e-01 3.271410e-01 7.375241e-02 -3.989256e-01 -4.298966e-01 4.640337e-02 -2.505627e-01
<VARIANCE> 39
 1.496291e+01 3.667015e+01 4.072012e+01 5.936437e+01 5.079758e+01 4.868047e+01 6.454533e+01 3.666939e+01 5.750917e+01 5.362623e+01 4.795756e+01 4.890868e+01 2.726940e+01 4.161140e-01 1.472950e+00 1.567812e+00 2.362349e+00 2.681963e+00 2.898627e+00 2.415495e+00 2.350829e+00 2.405244e+00 2.358392e+00 2.521134e+00 2.773119e+00 8.349499e-01 8.195094e-02 1.782480e-01 1.699194e-01 3.207114e-01 4.231750e-01 4.208908e-01 3.880851e-01 4.333138e-01 3.390926e-01 4.030163e-01 4.357038e-01 5.434359e-01 9.824416e-02
<GCONST> 1.121696e+02
<TRANSP> 5
 0.000000e+00 1.000000e+00 0.000000e+00 0.000000e+00 0.000000e+00
 0.000000e+00 6.911148e-01 3.088852e-01 0.000000e+00 0.000000e+00
 0.000000e+00 0.000000e+00 8.079697e-01 1.920303e-01 0.000000e+00
 0.000000e+00 0.000000e+00 0.000000e+00 6.778380e-01 3.221620e-01
 0.000000e+00 0.000000e+00 0.000000e+00 0.000000e+00 0.000000e+00
<ENDHMM>
~h "y"
<BEGINHMM>
<NUMSTATES> 5
<STATE> 2
<MEAN> 39
 -7.455925e+00 -1.148870e+00 6.162199e+00 -5.489233e+00 -1.551709e+01 -6.449150e+00 -9.694417e+00 -3.466347e+00 -6.659966e+00 -3.662953e+00 1.760300e-01 -4.958365e+00 5.802245e+01 6.398809e-02 7.944721e-01 2.366723e+00 -2.026433e-02 -1.726420e+00 -4.133104e-01 -8.622645e-01 -7.628258e-01 -1.307137e+00 3.235950e-02 1.417323e+00 2.160864e-01 9.064553e-01 4.369093e-02 -9.983355e-02 -2.682575e-01 -9.480527e-02 2.086989e-01 1.962191e-01 -6.872717e-02 -1.687243e-01 9.142203e-02 -2.707082e-02 -6.705184e-02 -2.097512e-02 7.128971e-02
<VARIANCE> 39
 3.775786e+01 6.187233e+01 8.462994e+01 4.649224e+01 7.238187e+01 6.965189e+01 6.573792e+01 7.661674e+01 6.841564e+01 4.953277e+01 4.218795e+01 3.024880e+01 2.060558e+02 2.705921e+00 3.096179e+00 4.813269e+00 2.902862e+00 4.866446e+00 4.012490e+00 4.051152e+00 4.623841e+00 4.265846e+00 3.849488e+00 3.534159e+00 2.786843e+00 6.355984e+00 3.588382e-01 5.184287e-01 8.786786e-01 4.989406e-01 9.303525e-01 7.521746e-01 7.242481e-01 9.625850e-01 7.701020e-01 6.062947e-01 6.151546e-01 4.514481e-01 6.162300e-01
<GCONST> 1.372179e+02
<STATE> 3
<MEAN> 39
 -5.982986e+00 -1.591767e+00 1.185242e+01 -7.414721e+00 -2.223871e+01 -8.677487e+00 -1.270370e+01 -5.088340e+00 -8.806397e+00 -3.058181e+00 5.190873e+00 -4.109512e+00 6.752763e+01 1.934576e-01 -8.056639e-01 -8.739643e-01 -4.039829e-01 -2.102993e-01 -3.549036e-01 3.497927e-01 8.881288e-01 8.229645e-01 1.181228e-01 6.134813e-02 -1.520790e-02 6.996644e-01 9.563263e-02 -3.281040e-01 -6.934824e-01 -5.783347e-02 4.070983e-01 8.460914e-02 3.039291e-01 4.312128e-01 4.848360e-01 -9.885539e-02 -4.802045e-01 -2.147384e-01 5.415130e-02
<VARIANCE> 39
 1.027011e+01 3.236459e+01 5.046436e+01 3.868457e+01 3.571358e+01 5.040011e+01 4.767123e+01 5.631802e+01 5.816025e+01 4.513165e+01 4.031701e+01 3.634970e+01 4.647875e+01 4.701250e-01 2.459114e+00 3.867975e+00 1.462281e+00 1.916517e+00 2.004851e+00 2.830410e+00 4.343817e+00 4.021593e+00 1.793468e+00 2.157515e+00 1.460152e+00 1.513662e+00 7.271206e-02 1.955345e-01 2.204210e-01 2.267725e-01 4.722926e-01 4.317291e-01 3.879330e-01 4.737930e-01 4.137925e-01 4.449821e-01 4.458392e-01 3.014001e-01 1.384755e-01
<GCONST> 1.125141e+02
<STATE> 4
<MEAN> 39
 -1.052839e+01 -3.001752e+00 -6.760374e-01 -6.031916e+00 -8.955482e+00 -5.113902e+00 -8.402123e+00 -3.708053e+00 -5.578712e+00 -4.199261e+00 -1.357094e+00 -3.057455e+00 4.541515e+01 9.725031e-02 -2.836057e-01 -4.729832e-01 -9.424280e-02 3.298495e-01 1.184108e-01 1.716782e-01 3.395354e-01 3.626193e-01 -1.462510e-01 -4.055101e-01 -2.021375e-01 2.458714e-01 7.951449e-03 4.126811e-02 -1.138755e-02 2.960773e-02 1.267588e-01 1.036218e-01 -4.329364e-02 -1.174765e-01 -5.270427e-02 -3.998246e-02 -8.826865e-02 -4.336781e-02 -1.766328e-02
<VARIANCE> 39
 2.617777e+01 3.989085e+01 6.202629e+01 3.364767e+01 6.515235e+01 3.554001e+01 5.064193e+01 4.292923e+01 4.680553e+01 3.024940e+01 2.936714e+01 2.085560e+01 2.398168e+02 6.234565e-01 1.600409e+00 3.188982e+00 1.322373e+00 2.317481e+00 1.745213e+00 2.390968e+00 2.530587e+00 2.786835e+00 2.168970e+00 2.719751e+00 1.681773e+00 1.298348e+00 1.093648e-01 1.779861e-01 2.162859e-01 2.579142e-01 4.153043e-01 3.842472e-01 3.547038e-01 4.433311e-01 3.953087e-01 3.649354e-01 3.667987e-01 2.929406e-01 1.394108e-01
<GCONST> 1.124237e+02
<TRANSP> 5
 0.000000e+00 1.000000e+00 0.000000e+00 0.000000e+00 0.000000e+00
 0.000000e+00 7.224594e-01 2.775406e-01 0.000000e+00 0.000000e+00
 0.000000e+00 0.000000e+00 8.104300e-01 1.895700e-01 0.000000e+00
 0.000000e+00 0.000000e+00 0.000000e+00 8.255548e-01 1.744452e-01
 0.000000e+00 0.000000e+00 0.000000e+00 0.000000e+00 0.000000e+00
<ENDHMM>
~h "z"
<BEGINHMM>
<NUMSTATES> 5
<STATE> 2
<MEAN> 39
 -8.493517e+00 6.480985e+00 5.460484e-01 6.824190e-02 -5.848911e+00 -1.069149e+01 -1.103474e+01 -4.663146e+00 -2.173957e+00 -4.067149e+00 -5.336190e+00 -4.923818e-01 6.105415e+01 -2.072570e+00 2.391184e+00 -2.773324e-02 6.314492e-01 1.804171e+00 -2.464734e-01 6.262956e-01 2.856583e-01 3.546941e-02 -2.776665e-01 8.766948e-02 6.596873e-01 -1.764434e-01 -3.550447e-01 -6.967796e-02 -1.414005e-01 -1.960363e-01 2.416535e-02 3.708210e-01 1.944971e-01 1.256724e-01 -9.086515e-03 7.324217e-02 2.147006e-01 -1.924749e-01 -4.299855e-03
<VARIANCE> 39
 4.673830e+01 4.487579e+01 4.598696e+01 4.524760e+01 5.155212e+01 4.665619e+01 5.615583e+01 4.512183e+01 5.098404e+01 4.440429e+01 3.386598e+01 2.558624e+01 1.255204e+02 3.905733e+00 2.543025e+00 3.012636e+00 2.851772e+00 3.569747e+00 3.431004e+00 3.898220e+00 4.484322e+00 3.578248e+00 2.759449e+00 3.205159e+00 2.528402e+00 3.645602e+00 4.782423e-01 4.989404e-01 4.159284e-01 3.899511e-01 6.505643e-01 5.209677e-01 7.361420e-01 6.318826e-01 6.087239e-01 5.267571e-01 4.675900e-01 4.668663e-01 3.876508e-01
<GCONST> 1.286935e+02
<STATE> 3
<MEAN> 39
 -2.156254e+01 1.367532e+01 -1.439522e-02 1.207650e+00 9.623674e-01 -8.187099e+00 -7.709127e+00 -2.946128e+00 -2.291023e+00 -4.503089e+00 -2.388057e+00 8.060408e-02 6.285165e+01 -4.920252e-01 -4.620143e-01 1.266873e-01 1.882327e-02 -2.788530e-01 1.039325e-02 -2.061485e-02 -1.644397e-02 -1.229164e-01 5.409814e-02 3.018149e-01 4.906906e-02 3.830910e-01 7.253828e-01 -5.437780e-01 7.094148e-02 -1.543016e-01 -5.723097e-01 -1.306484e-01 -2.525913e-01 -1.907690e-01 3.286952e-02 2.670408e-02 -5.446106e-02 -8.086170e-02 1.888308e-01
<VARIANCE> 39
 4.419225e+01 2.196782e+01 3.865476e+01 4.535603e+01 3.525508e+01 3.637186e+01 4.171046e+01 2.621721e+01 2.669199e+01 2.619321e+01 2.210800e+01 1.609085e+01 3.103899e+01 4.939159e+00 2.447926e+00 1.616795e+00 1.673827e+00 3.164688e+00 2.392094e+00 2.483777e+00 2.116411e+00 2.141261e+00 1.508495e+00 1.472544e+00 1.387261e+00 1.311116e+00 4.076924e-01 2.610864e-01 2.861304e-01 3.179052e-01 4.224926e-01 3.975580e-01 4.171836e-01 4.306812e-01 4.186777e-01 3.134825e-01 2.890865e-01 3.076816e-01 1.464977e-01
<GCONST> 1.108577e+02
<STATE> 4
<MEAN> 39
 -1.768981e+01 1.753374e+00 -2.671568e+00 -2.995147e+00 -3.196929e+00 -5.150759e+00 -7.356289e+00 -2.405772e+00 -1.991137e+00 -4.674407e+00 -2.200623e+00 -1.277687e+00 4.880295e+01 1.108918e+00 -6.465242e-01 6.418311e-02 -2.040329e-01 -8.185323e-01 -1.905923e-01 -4.663781e-01 -2.589909e-01 1.665856e-01 7.584421e-02 -4.449371e-02 -1.976053e-01 3.098825e-01 1.851911e-01 -2.291165e-02 3.505797e-03 -4.061282e-02 -5.594633e-02 1.039478e-01 -3.490456e-02 -1.417830e-02 -3.824432e-04 -6.120748e-03 -3.698933e-03 -1.360794e-01 2.638723e-02
<VARIANCE> 39
 9.176006e+01 4.815891e+01 4.558148e+01 3.360392e+01 2.896064e+01 4.829544e+01 5.227080e+01 3.154168e+01 3.528093e+01 2.758511e+01 3.100675e+01 1.930788e+01 2.216160e+02 6.157040e+00 3.146790e+00 1.910252e+00 2.144965e+00 3.838757e+00 2.367310e+00 2.671086e+00 2.928295e+00 2.720546e+00 2.202461e+00 1.786604e+00 1.809626e+00 2.204952e+00 5.029903e-01 2.859457e-01 3.085429e-01 2.852991e-01 3.644680e-01 5.141368e-01 4.157764e-01 4.940067e-01 4.139809e-01 4.175577e-01 3.364865e-01 3.593642e-01 1.909169e-01
<GCONST> 1.199746e+02
<TRANSP> 5
 0.000000e+00 1.000000e+00 0.000000e+00 0.000000e+00 0.000000e+00
 0.000000e+00 7.495025e-01 2.504974e-01 0.000000e+00 0.000000e+00
 0.000000e+00 0.000000e+00 8.512741e-01 1.487259e-01 0.000000e+00
 0.000000e+00 0.000000e+00 0.000000e+00 8.364166e-01 1.635834e-01
 0.000000e+00 0.000000e+00 0.000000e+00 0.000000e+00 0.000000e+00
<ENDHMM>
~h "ai"
<BEGINHMM>
<NUMSTATES> 5
<STATE> 2
<MEAN> 39
 -2.583240e+00 -1.346795e+01 -8.315434e+00 -9.228517e+00 -9.799013e+00 -4.660814e+00 -7.172066e+00 -1.500138e-01 3.436131e+00 -6.146361e+00 -5.971870e+00 -1.027024e+01 7.277596e+01 -4.443284e-01 -4.747850e-01 6.932003e-01 2.636187e-01 -1.138811e+00 -9.622824e-01 1.103828e+00 1.467745e+00 -1.395111e-01 -1.008186e+00 -3.045939e-02 3.745242e-01 5.105953e-01 -1.269344e-01 5.042738e-01 5.416006e-01 7.364175e-02 -3.017855e-01 -8.228760e-02 -7.162020e-02 -3.041744e-01 -5.068896e-01 2.998247e-01 3.850050e-01 3.505961e-01 -4.540706e-01
<VARIANCE> 39
 1.164896e+01 2.167526e+01 5.825391e+01 5.126590e+01 6.264348e+01 6.382883e+01 8.460960e+01 6.287416e+01 4.674943e+01 4.809285e+01 4.288004e+01 3.784584e+01 2.354003e+01 5.405040e-01 1.411190e+00 3.008005e+00 1.773436e+00 3.303915e+00 3.060283e+00 3.126829e+00 3.196464e+00 3.138839e+00 2.529796e+00 2.909095e+00 2.361022e+00 8.564779e-01 1.799185e-01 1.720323e-01 2.896953e-01 4.473259e-01 5.316474e-01 4.756279e-01 5.811601e-01 6.690878e-01 5.000189e-01 5.866805e-01 5.738912e-01 5.043027e-01 2.164113e-01
<GCONST> 1.183799e+02
<STATE> 3
<MEAN> 39
 -4.894862e+00 -9.275650e+00 2.866514e+00 -9.347028e+00 -2.183038e+01 -1.016973e+01 -5.556064e+00 1.361232e+00 -2.838140e+00 -3.553594e+00 1.567105e+00 -7.032186e+00 7.171388e+01 -2.988867e-01 1.187676e+00 1.886741e+00 -1.680516e-02 -1.302012e+00 -3.033144e-01 -3.435023e-01 -1.326066e+00 -1.431687e+00 1.060868e+00 1.261958e+00 2.876885e-01 -6.062329e-01 6.017347e-02 1.219020e-01 -1.521276e-01 1.152847e-01 4.419981e-01 2.373933e-01 -2.933234e-01 -3.139804e-01 -3.386315e-02 4.982629e-03 -2.663910e-01 -9.528064e-02 -1.890948e-01
<VARIANCE> 39
 9.297201e+00 1.978842e+01 4.797154e+01 3.520704e+01 4.287624e+01 4.568313e+01 6.090431e+01 5.972247e+01 4.118084e+01 4.087738e+01 5.150696e+01 2.847626e+01 2.514610e+01 2.532271e-01 8.101900e-01 1.647042e+00 9.761560e-01 2.096153e+00 1.525919e+00 2.449857e+00 2.270812e+00 1.796519e+00 1.976527e+00 2.240556e+00 1.329876e+00 2.625268e-01 5.166793e-02 1.080720e-01 1.913433e-01 1.600382e-01 2.753631e-01 2.767401e-01 3.602532e-01 5.019118e-01 2.869670e-01 3.665995e-01 3.970198e-01 2.331619e-01 5.723786e-02
<GCONST> 1.003876e+02
<STATE> 4
<MEAN> 39
 -6.774864e+00 -8.191279e-01 9.318711e+00 -6.201840e+00 -2.090781e+01 -7.769843e+00 -8.367449e+00 -7.222339e+00 -9.215090e+00 -5.979615e-01 1.633146e+00 -5.875425e+00 5.931316e+01 5.741443e-02 6.785084e-01 -2.218599e-01 6.337430e-01 8.613288e-01 3.086090e-01 3.387312e-02 -1.994699e-01 -4.107781e-02 -9.532376e-02 -4.934362e-01 5.238832e-02 -1.594127e+00 3.682466e-02 -8.054776e-02 -3.109871e-01 4.206606e-02 2.600379e-01 3.115365e-02 1.334461e-01 2.018491e-01 2.562172e-01 -1.051015e-01 -1.178166e-01 2.024715e-03 -1.048734e-01
<VARIANCE> 39
 2.104443e+01 2.826764e+01 5.229193e+01 3.667981e+01 5.140265e+01 5.883328e+01 5.355516e+01 6.805747e+01 4.839182e+01 4.149079e+01 4.686740e+01 3.130087e+01 1.424320e+02 9.948265e-01 1.588560e+00 2.195795e+00 1.769490e+00 2.561011e+00 2.257194e+00 2.847637e+00 2.787803e+00 2.887285e+00 2.012729e+00 1.935908e+00 1.461501e+00 2.366568e+00 1.627025e-01 2.508441e-01 3.155835e-01 3.135589e-01 4.722924e-01 4.215723e-01 4.819013e-01 4.687479e-01 4.744769e-01 4.052142e-01 3.802673e-01 2.763754e-01 3.667238e-01
<GCONST> 1.174788e+02
<TRANSP> 5
 0.000000e+00 1.000000e+00 0.000000e+00 0.000000e+00 0.000000e+00
 0.000000e+00 7.722639e-01 2.277361e-01 0.000000e+00 0.000000e+00
 0.000000e+00 0.000000e+00 8.046551e-01 1.953448e-01 0.000000e+00
 0.000000e+00 0.000000e+00 0.000000e+00 8.623335e-01 1.376664e-01
 0.000000e+00 0.000000e+00 0.000000e+00 0.000000e+00 0.000000e+00
<ENDHMM>
~h "au"
<BEGINHMM>
<NUMSTATES> 5
<STATE> 2
<MEAN> 39
 -3.212197e-01 -7.432745e+00 -1.369766e+01 -1.852488e+01 -7.945367e+00 6.420348e+00 -8.076308e+00 -4.928120e+00 9.793987e-01 2.166698e+00 -3.943452e+00 -1.032864e+01 7.400612e+01 2.110672e-01 5.596818e-01 -1.702487e-01 -8.958058e-01 -1.561632e-01 8.645011e-01 -3.862153e-01 -3.996662e-02 -3.364118e-01 -1.380548e-01 9.080396e-01 2.931736e-01 -2.252026e-01 3.574866e-02 3.312758e-01 2.680562e-01 2.933107e-02 -1.983797e-01 -2.012178e-01 -1.421939e-01 3.354407e-03 -2.758501e-01 -5.865319e-02 1.348214e-01 3.964850e-01 -2.817499e-01
<VARIANCE> 39
 1.124501e+01 2.477981e+01 3.173030e+01 5.052794e+01 3.732572e+01 5.666287e+01 7.216722e+01 7.484293e+01 4.432723e+01 7.473344e+01 6.071276e+01 4.311312e+01 2.166610e+01 4.325634e-01 1.422037e+00 1.212183e+00 1.896578e+00 2.336560e+00 3.001938e+00 2.640870e+00 2.452911e+00 2.258215e+00 2.699035e+00 2.203913e+00 3.156534e+00 5.260711e-01 1.145094e-01 1.965660e-01 1.755750e-01 3.319840e-01 3.400272e-01 4.928465e-01 3.996735e-01 4.471301e-01 4.154981e-01 5.387689e-01 4.489547e-01 4.596311e-01 1.265392e-01
<GCONST> 1.119705e+02
<STATE> 3
<MEAN> 39
 3.266613e+00 3.133047e+00 -9.858571e+00 -2.374636e+01 -1.463758e+01 8.257976e+00 -1.335326e+01 -3.836481e+00 -4.332061e+00 -2.489152e+00 5.537665e-01 -2.167604e+00 6.546772e+01 3.083355e-01 9.995285e-01 6.311750e-01 7.679248e-01 -4.248736e-01 -6.530052e-01 -3.699265e-01 -2.979529e-02 -6.565977e-01 -2.597835e-01 -2.927311e-01 5.133064e-01 -1.363169e+00 -1.118780e-01 -2.363842e-01 1.474131e-02 5.321383e-01 2.988250e-01 -2.139185e-01 1.610533e-01 -1.256353e-01 1.470843e-01 8.653476e-02 -1.679027e-01 -2.670503e-01 -1.013638e-01
<VARIANCE> 39
 1.180773e+01 3.734788e+01 3.155119e+01 3.685279e+01 4.352108e+01 4.885180e+01 6.004742e+01 6.801015e+01 5.050495e+01 6.943070e+01 4.367169e+01 3.847572e+01 5.289001e+01 5.529205e-01 1.630691e+00 1.006723e+00 3.426934e+00 2.671141e+00 2.122040e+00 2.742084e+00 3.051786e+00 2.194517e+00 2.499418e+00 2.354008e+00 2.681588e+00 1.054485e+00 8.384638e-02 2.058368e-01 1.845102e-01 3.600253e-01 3.997049e-01 3.945251e-01 4.485888e-01 4.751703e-01 3.416112e-01 4.128379e-01 4.565005e-01 4.095890e-01 1.596492e-01
<GCONST> 1.133165e+02
<STATE> 4
<MEAN> 39
 -7.756951e+00 8.001994e-01 -6.336713e+00 -7.046500e+00 -6.387776e+00 -1.370589e+00 -6.287292e+00 -5.150718e+00 -5.272542e+00 -3.457319e+00 -3.132157e+00 -2.287759e+00 4.001647e+01 -3.712627e-01 -2.198791e-01 1.571994e-01 7.792993e-01 3.536676e-01 -3.327038e-01 1.522599e-01 -1.109164e-01 4.376902e-02 5.237722e-02 -6.090220e-02 -3.507737e-02 -6.265647e-01 -1.641175e-02 -1.280690e-02 2.927449e-02 -5.325527e-02 -4.567385e-04 2.579208e-02 -1.087085e-02 3.770938e-02 2.119885e-02 -3.659502e-02 -1.268019e-02 -3.493393e-02 8.245530e-02
<VARIANCE> 39
 5.179593e+01 3.024990e+01 2.486590e+01 4.686158e+01 3.957605e+01 3.716997e+01 4.361256e+01 3.654912e+01 3.217707e+01 4.066252e+01 3.317846e+01 2.296798e+01 1.274092e+02 8.798862e-01 1.433833e+00 1.353455e+00 3.267455e+00 2.186557e+00 2.436184e+00 2.234988e+00 2.506007e+00 2.360912e+00 2.158287e+00 2.156574e+00 1.851620e+00 1.539385e+00 1.561572e-01 2.480221e-01 2.275243e-01 3.392833e-01 4.156859e-01 4.174420e-01 4.460228e-01 4.710507e-01 4.710537e-01 4.166225e-01 3.741328e-01 3.537110e-01 2.091365e-01
<GCONST> 1.136418e+02
<TRANSP> 5
 0.000000e+00 1.000000e+00 0.000000e+00 0.000000e+00 0.000000e+00
 0.000000e+00 8.537421e-01 1.462579e-01 0.000000e+00 0.000000e+00
