~o
<STREAMINFO> 1 39
<VECSIZE> 39<NULLD><MFCC_D_A_0><DIAGC>
~s "silst"
<MEAN> 39
 -1.190699e+01 -1.471709e+00 -1.494475e+00 1.179079e+00 -3.168319e+00 -2.741860e+00 -2.891156e+00 5.497147e-01 -2.179583e+00 -2.916420e+00 -1.709055e+00 4.572962e-01 3.751902e+01 1.719748e-02 8.362874e-02 -4.615958e-02 1.377011e-01 1.495576e-02 -1.194709e-01 7.957911e-02 1.132070e-01 -5.010393e-02 -9.667989e-02 8.372397e-02 1.366570e-01 -2.843112e-01 1.586465e-02 3.410918e-02 -1.106101e-02 -8.886433e-02 2.176811e-02 1.422574e-02 -5.425527e-02 -1.085815e-01 6.536676e-03 8.730856e-03 -2.179371e-02 -8.845511e-02 8.761764e-03
<VARIANCE> 39
 1.372963e+01 2.029108e+01 2.614614e+01 4.472290e+01 2.551543e+01 4.024503e+01 2.585716e+01 5.535342e+01 3.855159e+01 3.525611e+01 2.628378e+01 3.062848e+01 2.419731e+01 9.325717e-01 1.943718e+00 1.752490e+00 3.162184e+00 2.411588e+00 3.094938e+00 2.290515e+00 4.253023e+00 2.851930e+00 2.952605e+00 2.199728e+00 2.624193e+00 1.086666e+00 1.621767e-01 3.359979e-01 3.103248e-01 5.541368e-01 4.534783e-01 5.744343e-01 4.382583e-01 7.699108e-01 5.486708e-01 5.774003e-01 4.299036e-01 4.857815e-01 1.852861e-01
<GCONST> 1.147206e+02
~h "@"
<BEGINHMM>
<NUMSTATES> 5
<STATE> 2
<MEAN> 39
 -1.877189e+00 -3.497721e+00 -3.886128e+00 -7.463845e+00 -9.404664e+00 -2.684217e+00 -1.132510e+01 -7.683316e+00 -2.623897e+00 -1.247691e+00 -1.520569e+00 -5.952722e+00 6.166872e+01 1.914536e+00 -9.440249e-01 -4.629021e-01 -1.350513e+00 -1.137360e+00 5.308884e-01 -9.757522e-01 2.216272e-01 1.241317e+00 6.353795e-01 7.347847e-01 -1.223748e+00 2.466966e+00 -4.143074e-01 1.014317e-01 5.869962e-02 2.481908e-01 2.312072e-01 4.109418e-02 2.335814e-01 4.361074e-02 -6.952794e-02 -9.958116e-02 -8.221194e-02 8.775270e-02 -6.268007e-01
<VARIANCE> 39
 3.861415e+01 3.171783e+01 5.893899e+01 6.223744e+01 5.217829e+01 7.328529e+01 6.621590e+01 6.884605e+01 8.030836e+01 4.751630e+01 4.883972e+01 3.658998e+01 1.209897e+02 5.899914e+00 3.473123e+00 5.808740e+00 5.307927e+00 5.528987e+00 5.595558e+00 5.731719e+00 7.872674e+00 6.951209e+00 4.805213e+00 5.211193e+00 4.518579e+00 5.412907e+00 8.767906e-01 5.911770e-01 7.893350e-01 9.435703e-01 8.205849e-01 8.190157e-01 8.362866e-01 9.811134e-01 9.246709e-01 6.868063e-01 8.869079e-01 6.451560e-01 1.510450e+00
<GCONST> 1.440994e+02
<STATE> 3
<MEAN> 39
 -3.401535e-02 -6.906562e+00 -6.591071e+00 -1.078663e+01 -1.128071e+01 -1.765527e+00 -1.396099e+01 -5.210289e+00 2.615516e+00 3.067336e-01 -2.711688e-01 -8.815126e+00 6.913203e+01 5.020716e-01 -3.100139e-01 9.046987e-02 2.106657e-02 -2.376383e-01 1.813653e-01 -1.104313e-01 1.927277e-01 6.057756e-01 1.550952e-01 1.224132e-01 -5.286725e-01 2.474273e-01 -5.542000e-01 6.492013e-01 5.175185e-01 8.396078e-01 4.832706e-01 -2.232147e-01 5.546008e-01 -4.003103e-01 -8.117175e-01 -3.533626e-01 -3.577308e-01 6.072500e-01 -1.256921e+00
<VARIANCE> 39
 1.676530e+01 2.693691e+01 5.885723e+01 5.895484e+01 5.298832e+01 8.541851e+01 7.395010e+01 7.105943e+01 7.300671e+01 4.933347e+01 5.378596e+01 4.612780e+01 3.134301e+01 1.770358e+00 2.081425e+00 2.854394e+00 3.797168e+00 3.506800e+00 4.787250e+00 3.976592e+00 5.277782e+00 5.662505e+00 3.393777e+00 4.048306e+00 3.299679e+00 2.790315e+00 6.135519e-01 4.705083e-01 8.189723e-01 8.260562e-01 9.861103e-01 1.029477e+00 1.082365e+00 1.205642e+00 1.113568e+00 8.055060e-01 1.050755e+00 8.351637e-01 5.995427e-01
<GCONST> 1.364002e+02
<STATE> 4
<MEAN> 39
 -1.336043e+00 -6.635192e+00 -4.991616e+00 -9.564268e+00 -1.234384e+01 -4.850287e+00 -1.203993e+01 -5.626305e+00 1.726916e+00 1.852817e-01 -2.214860e-01 -9.056835e+00 6.781388e+01 1.132722e-01 6.002291e-01 4.102384e-01 6.783755e-01 2.923705e-01 -5.902305e-02 2.911421e-01 -4.477612e-01 -4.450044e-01 -1.392173e-01 -3.173936e-01 2.344927e-01 -1.072841e+00 -8.638027e-02 2.407225e-01 1.427547e-01 2.478404e-01 1.281622e-01 -8.866962e-03 7.888094e-02 -1.639867e-01 -2.357489e-01 -9.012327e-02 -1.408877e-01 1.799566e-01 -4.292125e-01
<VARIANCE> 39
 1.773609e+01 3.068726e+01 8.179919e+01 5.418309e+01 6.800078e+01 7.008603e+01 9.106425e+01 6.960527e+01 8.495775e+01 4.777036e+01 4.905087e+01 4.362727e+01 4.503564e+01 8.414497e-01 1.759321e+00 2.057492e+00 2.533779e+00 2.664101e+00 2.723471e+00 2.948449e+00 3.157248e+00 3.655375e+00 2.414462e+00 2.694598e+00 2.200801e+00 3.256569e+00 2.479971e-01 2.602960e-01 3.470638e-01 3.921237e-01 4.921683e-01 4.773971e-01 5.575394e-01 6.922784e-01 6.296144e-01 4.412342e-01 5.179374e-01 4.203444e-01 3.168490e-01
<GCONST> 1.236864e+02
<TRANSP> 5
 0.000000e+00 1.000000e+00 0.000000e+00 0.000000e+00 0.000000e+00
 0.000000e+00 4.339036e-01 5.660963e-01 0.000000e+00 0.000000e+00
 0.000000e+00 0.000000e+00 3.694495e-01 6.305505e-01 0.000000e+00
 0.000000e+00 0.000000e+00 0.000000e+00 6.829591e-01 3.170409e-01
 0.000000e+00 0.000000e+00 0.000000e+00 0.000000e+00 0.000000e+00
<ENDHMM>
~h "a"
<BEGINHMM>
<NUMSTATES> 5
<STATE> 2
<MEAN> 39
 -1.829181e+00 -1.027851e+01 -9.698377e+00 -1.062578e+01 -8.506261e+00 -1.980595e+00 -8.360399e+00 -2.240575e+00 3.191603e+00 -3.083464e+00 -4.755877e+00 -9.775864e+00 7.021272e+01 3.329805e-01 -1.669694e+00 -1.678249e+00 -4.870360e-01 1.011357e+00 7.296908e-01 9.904586e-01 5.670288e-01 1.009208e+00 -9.383520e-01 -1.101359e+00 -1.301055e+00 1.917606e+00 -3.429801e-01 3.893472e-01 3.505423e-01 4.931828e-01 2.687716e-01 -1.290914e-01 3.114331e-02 -3.563776e-01 -4.641992e-01 -7.602913e-02 3.093811e-02 3.696066e-01 -6.947602e-01
<VARIANCE> 39
 1.906079e+01 2.957789e+01 5.821513e+01 5.282639e+01 7.676162e+01 7.384680e+01 6.461744e+01 7.841541e+01 5.030515e+01 4.901690e+01 5.630367e+01 4.427199e+01 7.051083e+01 2.229274e+00 1.941427e+00 3.021754e+00 3.472751e+00 4.014306e+00 4.100340e+00 4.305887e+00 4.711727e+00 3.741185e+00 3.448696e+00 4.103063e+00 3.224668e+00 4.176108e+00 4.525639e-01 4.264802e-01 5.157103e-01 5.310441e-01 7.619393e-01 6.659435e-01 7.206609e-01 8.495212e-01 6.740291e-01 6.044643e-01 7.422687e-01 5.780082e-01 8.651389e-01
<GCONST> 1.333013e+02
<STATE> 3
<MEAN> 39
 -2.478657e+00 -1.310302e+01 -1.311688e+01 -9.457122e+00 -5.242998e+00 -1.031383e+00 -5.456227e+00 -3.416664e+00 3.512598e+00 -6.054229e+00 -7.010669e+00 -1.161345e+01 7.277453e+01 5.085238e-02 1.656368e-01 -2.695776e-02 2.941044e-01 1.362067e-01 -2.042319e-01 9.591144e-02 -4.002950e-02 -1.096882e-01 6.350374e-03 -1.871958e-01 5.151528e-02 -2.501488e-01 8.509925e-02 4.223620e-01 3.797828e-01 7.870159e-02 -2.593051e-01 -1.411582e-01 -2.829803e-01 -7.806890e-02 -1.356090e-01 2.882567e-01 2.247012e-01 2.316967e-01 -4.439573e-01
<VARIANCE> 39
 1.124798e+01 1.983670e+01 4.628909e+01 5.466741e+01 5.337049e+01 5.299920e+01 6.087448e+01 5.716380e+01 3.566437e+01 4.284887e+01 3.935099e+01 3.654891e+01 2.369291e+01 4.128007e-01 8.797602e-01 1.308498e+00 1.343629e+00 2.288625e+00 2.117144e+00 2.024630e+00 2.376723e+00 1.745467e+00 1.866830e+00 1.896637e+00 1.592868e+00 5.464899e-01 8.448275e-02 1.587422e-01 1.957018e-01 2.408959e-01 2.972424e-01 3.189360e-01 3.694057e-01 4.206774e-01 3.549589e-01 3.117491e-01 3.507813e-01 3.060820e-01 1.561442e-01
<GCONST> 1.053009e+02
<STATE> 4
<MEAN> 39
 -3.074519e+00 -7.576484e+00 -1.004937e+01 -7.071965e+00 -4.420235e+00 -2.552609e+00 -7.219983e+00 -3.042218e+00 1.169122e+00 -3.571359e+00 -7.048110e+00 -8.390593e+00 5.871734e+01 1.314325e-02 1.126958e+00 7.887885e-01 6.234366e-01 -8.738605e-02 -1.486910e-01 -3.429916e-01 -2.818009e-01 -4.303133e-01 3.370371e-01 2.291813e-01 5.030488e-01 -2.285485e+00 -9.945189e-02 8.129816e-02 1.350062e-01 9.997964e-02 3.975786e-02 6.285446e-02 5.465910e-02 -1.301664e-01 -1.225111e-01 -8.265340e-02 1.762870e-03 6.975716e-02 -1.550166e-01
<VARIANCE> 39
 3.287705e+01 3.251780e+01 4.126374e+01 5.660684e+01 5.792168e+01 5.886983e+01 5.792619e+01 6.127768e+01 4.699601e+01 5.141655e+01 5.008370e+01 4.585284e+01 1.858361e+02 1.304766e+00 2.212185e+00 2.264637e+00 2.396840e+00 2.775242e+00 2.678688e+00 3.054561e+00 3.081418e+00 2.806081e+00 2.688026e+00 2.854602e+00 2.402458e+00 3.861649e+00 2.193127e-01 3.915934e-01 3.969407e-01 4.600392e-01 5.299225e-01 5.118055e-01 5.218692e-01 6.540206e-01 5.360631e-01 4.898210e-01 5.243376e-01 4.731946e-01 6.420063e-01
<GCONST> 1.260584e+02
<TRANSP> 5
 0.000000e+00 1.000000e+00 0.000000e+00 0.000000e+00 0.000000e+00
 0.000000e+00 5.981966e-01 4.018034e-01 0.000000e+00 0.000000e+00
 0.000000e+00 0.000000e+00 7.863171e-01 2.136829e-01 0.000000e+00
 0.000000e+00 0.000000e+00 0.000000e+00 7.290102e-01 2.709898e-01
 0.000000e+00 0.000000e+00 0.000000e+00 0.000000e+00 0.000000e+00
<ENDHMM>
~h "b"
<BEGINHMM>
<NUMSTATES> 5
<STATE> 2
<MEAN> 39
 2.212836e+00 5.908431e+00 1.540309e+00 -2.550436e+00 -5.452006e+00 1.261970e+00 -6.805830e+00 -1.001239e+01 -8.684462e+00 -3.740002e+00 -3.663235e+00 -6.206422e+00 4.667608e+01 7.481512e-01 1.270922e+00 6.085585e-01 2.561321e-01 4.115713e-01 3.670300e-01 6.248916e-01 -7.369423e-02 -4.441410e-01 -1.783294e-01 -2.822182e-01 -2.226898e-01 -8.989288e-01 -2.962415e-01 -4.071270e-01 -2.027960e-01 -2.435918e-01 -1.965426e-01 -2.253230e-01 -2.470920e-01 1.106958e-01 2.217383e-01 7.690040e-02 1.642268e-01 1.374474e-01 6.760269e-01
<VARIANCE> 39
 5.522913e+01 3.075986e+01 3.022359e+01 3.459766e+01 3.091999e+01 3.703019e+01 3.428109e+01 5.146408e+01 5.040815e+01 3.166034e+01 4.070795e+01 2.609458e+01 6.744592e+01 2.280656e+00 2.160657e+00 2.057956e+00 2.614855e+00 2.305206e+00 2.440855e+00 2.573139e+00 3.316553e+00 2.981113e+00 2.386167e+00 2.737455e+00 2.069638e+00 4.570867e+00 4.079942e-01 4.613290e-01 3.801039e-01 4.470438e-01 4.499393e-01 4.839616e-01 4.741145e-01 6.020472e-01 6.219464e-01 4.508202e-01 5.318552e-01 4.094033e-01 5.154058e-01
<GCONST> 1.218266e+02
<STATE> 3
<MEAN> 39
 4.759244e+00 7.945155e+00 3.031512e+00 -2.952322e+00 -5.347498e+00 2.240958e+00 -5.935907e+00 -9.962492e+00 -9.768651e+00 -4.726897e+00 -3.548817e+00 -5.698160e+00 4.912762e+01 -1.354648e+00 -1.976859e+00 -1.191753e+00 -8.403866e-01 -1.896844e-01 -1.149423e+00 -1.386172e+00 2.874897e-01 1.105032e+00 4.452147e-01 1.200466e+00 8.606920e-01 3.129240e+00 -3.965423e-01 -1.047151e+00 -5.909584e-01 -6.719940e-01 -7.091713e-01 -1.238026e-01 -7.580196e-01 9.407189e-02 6.134659e-01 3.979937e-01 3.838177e-01 -1.149751e-01 1.487045e+00
<VARIANCE> 39
 2.254106e+01 2.409744e+01 2.232281e+01 2.871952e+01 2.928627e+01 3.330912e+01 2.708498e+01 4.347133e+01 4.334875e+01 2.981372e+01 4.189754e+01 2.280474e+01 3.906742e+01 2.237218e+00 3.266781e+00 3.553693e+00 5.206458e+00 3.961592e+00 3.964967e+00 3.584105e+00 3.961751e+00 5.139549e+00 3.745588e+00 4.843578e+00 2.835413e+00 5.133657e+00 4.114208e-01 4.688208e-01 6.391122e-01 7.206388e-01 6.381137e-01 8.074105e-01 6.037077e-01 7.347121e-01 1.136808e+00 7.921143e-01 8.258782e-01 7.024255e-01 4.491697e-01
<GCONST> 1.282643e+02
<STATE> 4
<MEAN> 39
 8.665576e-02 -2.236781e+00 -4.179433e+00 -9.572997e+00 -8.009861e+00 -3.911092e-01 -1.336871e+01 -9.802073e+00 -3.721317e+00 6.956941e-01 2.048821e+00 -4.213184e+00 6.392297e+01 -8.690242e-01 -2.975439e+00 -1.885067e+00 -2.280086e+00 -1.755702e+00 -2.985648e-01 -2.126913e+00 8.389363e-01 2.566722e+00 1.565115e+00 6.467101e-01 -1.059467e+00 4.517457e+00 2.656800e-01 4.445934e-01 4.081035e-01 3.689877e-01 -1.135106e-01 2.775824e-01 5.355580e-01 2.248216e-01 -1.203805e-01 -4.607511e-01 -7.517317e-01 -4.587193e-01 -6.858810e-01
<VARIANCE> 39
 2.554166e+01 2.358490e+01 3.719143e+01 8.993551e+01 3.437076e+01 5.034536e+01 4.491737e+01 3.839043e+01 4.296093e+01 5.618091e+01 4.043469e+01 3.286511e+01 5.525785e+01 2.308797e+00 3.531735e+00 5.770916e+00 6.905020e+00 5.404720e+00 6.079146e+00 4.821210e+00 5.441317e+00 9.060545e+00 6.231639e+00 6.995297e+00 5.949869e+00 4.459426e+00 4.030550e-01 5.101087e-01 5.008665e-01 1.410984e+00 1.073239e+00 8.700453e-01 8.505983e-01 7.605930e-01 9.912456e-01 9.801106e-01 1.100672e+00 7.441281e-01 7.176957e-01
<GCONST> 1.389018e+02
<TRANSP> 5
 0.000000e+00 1.000000e+00 0.000000e+00 0.000000e+00 0.000000e+00
 0.000000e+00 7.761327e-01 2.238673e-01 0.000000e+00 0.000000e+00
 0.000000e+00 0.000000e+00 5.406626e-01 4.593374e-01 0.000000e+00
 0.000000e+00 0.000000e+00 0.000000e+00 4.645061e-01 5.354939e-01
 0.000000e+00 0.000000e+00 0.000000e+00 0.000000e+00 0.000000e+00
<ENDHMM>
~h "c"
<BEGINHMM>
<NUMSTATES> 5
<STATE> 2
<MEAN> 39
 -9.509659e+00 2.161515e+00 -9.387977e-01 -1.651023e+00 -5.871451e+00 -7.043390e+00 -6.815506e+00 -3.957422e+00 -3.369759e+00 -3.579401e+00 -4.274564e+00 -2.904521e+00 4.281589e+01 -1.594171e+00 -2.523205e-01 -4.007531e-01 -5.049952e-01 5.607507e-01 1.846106e-01 2.358376e-01 -2.555994e-02 1.186822e-01 1.307140e-01 3.063028e-01 1.062166e-01 -7.152980e-01 -4.552372e-01 -2.724326e-01 -1.498222e-01 -3.132697e-01 -7.672195e-02 5.400761e-02 -4.757608e-02 1.586004e-02 1.125691e-02 5.749230e-02 1.586749e-01 9.556597e-02 1.042666e+00
<VARIANCE> 39
 4.520038e+01 3.154990e+01 3.694900e+01 2.645954e+01 3.933069e+01 4.189131e+01 4.756879e+01 4.202671e+01 3.626664e+01 2.888318e+01 2.749977e+01 2.096837e+01 1.063801e+02 4.754762e+00 3.795345e+00 2.786624e+00 2.950528e+00 3.889966e+00 2.963391e+00 3.361208e+00 3.347055e+00 2.999499e+00 2.403577e+00 2.572028e+00 2.161104e+00 1.158566e+01 7.468587e-01 6.579193e-01 5.122923e-01 5.149028e-01 7.286367e-01 5.604411e-01 6.427951e-01 6.189198e-01 5.836409e-01 4.578971e-01 4.797840e-01 4.655585e-01 1.512146e+00
<GCONST> 1.285508e+02
<STATE> 3
<MEAN> 39
 -2.547766e+01 -8.096466e-01 -3.663392e+00 -8.188908e+00 -3.598655e+00 -5.259052e+00 -6.187437e+00 -3.954153e+00 -2.963736e+00 -1.832496e+00 -1.872033e-01 -5.358985e-01 5.818064e+01 -2.148689e+00 1.903779e-01 2.172465e-02 -9.216840e-01 -5.731778e-01 -3.275322e-01 -6.795087e-02 3.397311e-01 -9.217737e-03 -1.285386e-02 5.254379e-01 4.762858e-01 4.535280e+00 1.996059e+00 1.296445e-01 4.913662e-01 5.491023e-01 -7.248573e-01 -3.765962e-01 -2.926495e-01 4.349549e-02 5.896800e-02 -2.590774e-01 -3.924778e-01 -3.158866e-01 -4.497263e-01
<VARIANCE> 39
 3.986277e+01 3.161625e+01 3.068098e+01 2.312398e+01 3.385882e+01 4.260867e+01 3.827337e+01 2.665427e+01 2.472614e+01 1.977069e+01 2.037437e+01 1.486298e+01 6.135130e+01 1.037012e+01 3.406593e+00 4.228600e+00 3.464208e+00 4.376559e+00 3.771487e+00 3.891368e+00 3.704550e+00 3.439141e+00 2.342909e+00 2.748971e+00 1.934227e+00 7.122975e+00 1.568760e+00 9.926974e-01 7.105191e-01 6.350849e-01 8.725204e-01 7.239560e-01 6.849188e-01 8.854674e-01 8.084181e-01 4.845776e-01 5.231276e-01 4.253808e-01 1.038815e+00
<GCONST> 1.293325e+02
<STATE> 4
<MEAN> 39
 -1.565501e+01 -9.416165e-01 -5.000106e-01 -6.595065e+00 -9.902685e+00 -9.980549e+00 -8.940314e+00 -1.738306e+00 -1.885585e+00 -4.108541e+00 -2.393451e+00 -8.998452e-01 6.652219e+01 5.649309e+00 -1.815666e+00 5.644735e-01 4.178448e-01 -2.112371e+00 -5.833141e-01 -1.287157e+00 4.244650e-01 9.864880e-01 -4.102235e-01 -7.546602e-01 -1.366047e+00 2.229150e+00 5.658165e-01 -5.090925e-01 -4.858408e-01 -1.559122e-01 2.834148e-01 6.876849e-01 8.938339e-02 -2.181552e-01 6.915218e-02 2.059908e-01 6.908620e-02 -4.948595e-01 -6.062006e-01
<VARIANCE> 39
 9.503509e+01 3.099613e+01 3.782478e+01 2.799657e+01 4.680751e+01 4.270443e+01 4.990812e+01 3.889965e+01 3.959386e+01 2.667288e+01 3.149448e+01 1.907389e+01 4.547148e+01 3.425256e+00 5.368108e+00 5.196766e+00 3.567599e+00 5.862717e+00 4.873277e+00 3.517032e+00 7.052351e+00 5.810844e+00 3.448992e+00 3.787980e+00 2.527916e+00 2.213730e+00 2.838613e+00 6.762503e-01 5.752074e-01 6.465590e-01 9.801927e-01 8.301174e-01 6.999230e-01 8.965526e-01 8.201599e-01 5.738417e-01 6.652097e-01 4.545284e-01 5.984966e-01
<GCONST> 1.339538e+02
<TRANSP> 5
 0.000000e+00 1.000000e+00 0.000000e+00 0.000000e+00 0.000000e+00
 0.000000e+00 8.500202e-01 1.499798e-01 0.000000e+00 0.000000e+00
 0.000000e+00 0.000000e+00 6.886689e-01 3.113311e-01 0.000000e+00
 0.000000e+00 0.000000e+00 0.000000e+00 6.160707e-01 3.839293e-01
 0.000000e+00 0.000000e+00 0.000000e+00 0.000000e+00 0.000000e+00
<ENDHMM>
~h "d"
<BEGINHMM>
<NUMSTATES> 5
<STATE> 2
<MEAN> 39
 3.769260e-02 3.893670e+00 3.108638e+00 1.696320e+00 -7.113267e+00 -5.970232e+00 -1.036311e+01 -6.376965e+00 -2.059303e+00 -3.484092e+00 -7.728912e+00 -6.005299e+00 4.664366e+01 9.123618e-01 1.131373e+00 8.204458e-01 6.526271e-01 6.762874e-01 -2.371331e-01 -1.015661e-01 1.638747e-01 1.216671e-01 2.319602e-02 -6.116189e-01 -4.645758e-01 -8.628913e-01 -3.640558e-01 -4.754033e-01 -1.263540e-01 -3.796520e-01 -2.106076e-01 1.825341e-02 -7.618103e-02 1.171558e-01 -7.056035e-02 -3.855393e-02 3.273660e-01 1.734245e-01 7.394316e-01
<VARIANCE> 39
 5.692388e+01 3.836944e+01 3.746237e+01 2.456454e+01 4.085524e+01 4.086635e+01 5.061670e+01 7.684141e+01 4.897788e+01 3.740612e+01 4.287558e+01 3.185320e+01 8.871140e+01 2.752125e+00 2.724979e+00 2.357398e+00 2.335564e+00 3.725102e+00 2.852606e+00 3.350045e+00 4.659868e+00 3.332879e+00 2.633850e+00 3.137374e+00 2.412251e+00 5.588587e+00 6.024084e-01 6.234643e-01 4.259101e-01 4.891448e-01 6.889592e-01 5.745550e-01 6.790196e-01 8.957685e-01 6.468437e-01 5.604026e-01 6.648620e-01 5.275638e-01 7.599472e-01
<GCONST> 1.295354e+02
<STATE> 3
<MEAN> 39
 2.963467e+00 4.834543e+00 5.885834e+00 2.490273e+00 -6.188625e+00 -6.049366e+00 -1.173371e+01 -5.339604e+00 -1.841776e+00 -3.379333e+00 -8.391812e+00 -7.186881e+00 4.952103e+01 -1.989118e+00 -2.357289e+00 1.788095e-01 -1.384434e+00 -6.252686e-01 -2.351230e-01 -7.230907e-01 7.590771e-01 -4.610016e-01 -4.236860e-01 1.674054e+00 1.234627e+00 3.484479e+00 -5.833625e-01 -8.452405e-01 -3.632740e-01 -6.506351e-01 -1.165331e+00 -8.889697e-02 -2.006563e-01 -1.573695e-03 -2.842331e-02 -1.379619e-02 7.344381e-01 2.750325e-01 1.607542e+00
<VARIANCE> 39
 2.764776e+01 2.781043e+01 2.966915e+01 2.183059e+01 3.240164e+01 3.886866e+01 4.364763e+01 7.168429e+01 4.527993e+01 3.839009e+01 3.762613e+01 2.927732e+01 4.730436e+01 2.384890e+00 3.222170e+00 4.087186e+00 3.480256e+00 5.585764e+00 4.336480e+00 5.494114e+00 7.903192e+00 5.830153e+00 3.610521e+00 4.668751e+00 3.104059e+00 5.307004e+00 4.936642e-01 5.529559e-01 6.846313e-01 6.543277e-01 7.587553e-01 6.256170e-01 8.257867e-01 1.363539e+00 1.035770e+00 7.352033e-01 7.390414e-01 6.258157e-01 5.696606e-01
<GCONST> 1.330120e+02
<STATE> 4
<MEAN> 39
 -3.952216e+00 -5.684452e+00 3.750412e+00 -4.175251e+00 -1.230270e+01 -7.666734e+00 -1.530177e+01 -1.911323e+00 -1.443475e+00 -4.338908e+00 -2.057664e+00 -1.652398e+00 6.536415e+01 -1.156325e+00 -2.276996e+00 -1.227464e+00 -1.998713e+00 -3.035093e+00 -4.807572e-01 -6.629830e-01 1.049122e+00 6.857279e-01 3.821261e-02 1.709748e+00 1.944021e-01 4.763486e+00 5.557084e-01 7.091905e-01 -2.736597e-01 2.539654e-01 8.128933e-02 3.375148e-01 5.286638e-01 -3.271638e-01 8.096720e-02 1.381119e-01 -5.209947e-01 -7.234048e-01 -7.587970e-01
<VARIANCE> 39
 2.199240e+01 2.595645e+01 4.502182e+01 4.033994e+01 6.421828e+01 5.190255e+01 8.546233e+01 6.359599e+01 7.794174e+01 3.241613e+01 2.961405e+01 2.831236e+01 5.068321e+01 2.916925e+00 3.471570e+00 6.827023e+00 4.504642e+00 5.832042e+00 4.327012e+00 6.819449e+00 9.831496e+00 8.946335e+00 4.612278e+00 6.377782e+00 3.930683e+00 4.311561e+00 3.104984e-01 4.498321e-01 6.110653e-01 7.559180e-01 1.751507e+00 8.060465e-01 1.481992e+00 1.092691e+00 1.102556e+00 8.093081e-01 8.898337e-01 5.646189e-01 7.115538e-01
<GCONST> 1.392540e+02
<TRANSP> 5
 0.000000e+00 1.000000e+00 0.000000e+00 0.000000e+00 0.000000e+00
 0.000000e+00 7.416344e-01 2.583655e-01 0.000000e+00 0.000000e+00
 0.000000e+00 0.000000e+00 4.986644e-01 5.013356e-01 0.000000e+00
 0.000000e+00 0.000000e+00 0.000000e+00 4.631020e-01 5.368980e-01
 0.000000e+00 0.000000e+00 0.000000e+00 0.000000e+00 0.000000e+00
<ENDHMM>
~h "e"
<BEGINHMM>
<NUMSTATES> 5
<STATE> 2
<MEAN> 39
 -4.553265e+00 -7.405045e+00 -6.449322e-01 -5.466895e+00 -1.486022e+01 -8.970352e+00 -8.534431e+00 -2.125869e+00 -2.322982e+00 -2.177619e+00 -2.296597e-01 -6.651547e+00 6.121971e+01 4.426520e-01 -1.225916e+00 4.959858e-01 -5.304824e-01 -1.738688e+00 -7.144757e-01 5.829284e-01 1.233597e+00 2.649945e-01 -3.654307e-01 5.298021e-01 -5.086313e-01 2.262721e+00 -1.714271e-01 2.710942e-01 5.207027e-02 1.423230e-02 1.810433e-01 1.946530e-01 3.115563e-01 -1.771275e-01 -1.655501e-01 -5.235491e-02 -6.178708e-03 8.226759e-02 -3.561617e-01
<VARIANCE> 39
 4.333185e+01 5.437019e+01 7.552042e+01 4.996574e+01 7.339321e+01 6.273003e+01 8.255708e+01 8.648199e+01 6.958947e+01 5.264993e+01 5.696783e+01 3.634180e+01 1.890246e+02 3.889418e+00 4.080190e+00 4.014428e+00 4.299663e+00 6.456747e+00 4.559729e+00 5.855346e+00 6.836733e+00 5.598774e+00 4.267936e+00 4.853283e+00 3.520762e+00 1.057523e+01 6.877328e-01 8.292813e-01 6.344436e-01 6.558695e-01 1.099181e+00 7.731602e-01 9.498890e-01 1.101301e+00 9.961235e-01 7.510461e-01 7.870889e-01 6.316082e-01 2.069423e+00
<GCONST> 1.453070e+02
<STATE> 3
<MEAN> 39
 -3.996309e+00 -1.095363e+01 6.603931e-01 -7.749244e+00 -2.149711e+01 -1.229980e+01 -3.291184e+00 2.090680e+00 -1.857449e+00 -3.328136e+00 2.448284e+00 -8.400677e+00 7.238554e+01 2.519550e-02 2.095207e-01 5.620797e-02 1.591515e-01 1.380650e-01 -2.108433e-02 2.466826e-01 -1.996967e-01 -1.031322e-01 7.107203e-02 -7.474590e-02 -6.500468e-02 -1.556608e-01 3.442458e-02 3.028277e-01 -5.785878e-02 2.256522e-01 4.803858e-01 1.531044e-01 -2.566889e-01 -3.100738e-01 -7.674928e-02 8.819727e-02 -2.390601e-01 9.356005e-02 -5.693054e-01
<VARIANCE> 39
 9.825720e+00 2.851969e+01 5.704143e+01 3.086295e+01 4.388881e+01 4.877914e+01 8.139627e+01 5.710411e+01 5.211089e+01 4.941301e+01 5.377077e+01 3.025553e+01 2.584713e+01 6.906794e-01 1.093317e+00 1.593273e+00 1.736662e+00 2.513997e+00 1.878089e+00 3.070853e+00 2.247401e+00 2.320724e+00 1.942638e+00 2.177577e+00 1.333209e+00 2.046126e+00 1.644611e-01 2.037802e-01 2.626910e-01 2.762214e-01 3.998945e-01 3.822156e-01 5.342722e-01 5.160447e-01 4.741929e-01 3.943775e-01 3.931976e-01 2.773837e-01 3.229498e-01
<GCONST> 1.126994e+02
<STATE> 4
<MEAN> 39
 -6.842415e+00 -5.412718e+00 2.096122e+00 -5.977576e+00 -1.553479e+01 -8.795882e+00 -7.140783e+00 -3.853576e+00 -4.946733e+00 -1.946368e+00 7.061617e-01 -5.412589e+00 5.610958e+01 -3.031432e-02 4.028804e-01 -1.371725e-01 2.923987e-01 4.827391e-01 1.865658e-01 -2.906621e-02 -1.864067e-01 -1.536833e-02 1.766419e-02 -3.429160e-01 9.993650e-02 -1.001548e+00 -1.614163e-02 3.406478e-02 -1.352385e-02 2.958046e-02 7.740055e-02 4.256760e-02 -1.040972e-02 -2.142293e-02 -3.106750e-03 -1.786328e-02 -1.490759e-02 2.262813e-02 -5.440075e-02
<VARIANCE> 39
 3.140099e+01 3.529152e+01 7.735102e+01 3.838691e+01 8.763110e+01 5.005088e+01 6.881064e+01 4.938571e+01 5.751482e+01 4.173480e+01 4.800443e+01 3.141166e+01 2.474678e+02 6.792809e-01 1.184785e+00 1.158603e+00 1.425075e+00 1.928145e+00 1.667449e+00 2.021126e+00 1.956079e+00 1.910390e+00 1.758287e+00 1.807403e+00 1.329993e+00 2.410657e+00 1.188009e-01 1.918998e-01 1.952939e-01 2.528235e-01 3.168676e-01 3.045351e-01 3.363040e-01 4.075750e-01 3.711660e-01 3.224396e-01 3.067293e-01 2.517462e-01 2.235202e-01
<GCONST> 1.123122e+02
<TRANSP> 5
 0.000000e+00 1.000000e+00 0.000000e+00 0.000000e+00 0.000000e+00
 0.000000e+00 6.561660e-01 3.438340e-01 0.000000e+00 0.000000e+00
 0.000000e+00 0.000000e+00 7.876824e-01 2.123177e-01 0.000000e+00
 0.000000e+00 0.000000e+00 0.000000e+00 8.294700e-01 1.705300e-01
 0.000000e+00 0.000000e+00 0.000000e+00 0.000000e+00 0.000000e+00
<ENDHMM>
~h "f"
<BEGINHMM>
<NUMSTATES> 5
<STATE> 2
<MEAN> 39
 -8.521851e+00 -2.137447e-01 -1.773641e+00 -1.045438e+00 -4.688233e+00 -1.893867e+00 -6.085212e+00 -4.670237e+00 -3.965189e+00 -2.781142e+00 -2.261312e+00 -3.252399e+00 5.859279e+01 -3.439860e+00 -1.508330e-01 -1.555469e-01 1.174826e+00 1.352721e+00 -2.671613e-01 3.042163e-01 8.349046e-01 7.184111e-01 2.070028e-01 -4.503979e-02 5.859444e-01 -1.212186e+00 -2.962490e-01 -5.802206e-01 -2.844214e-01 -3.993432e-01 -6.791919e-01 -2.211233e-01 -2.418891e-01 -1.395192e-01 2.699573e-02 3.967001e-02 1.716034e-01 -3.734920e-02 2.521385e-01
<VARIANCE> 39
 5.359203e+01 2.239062e+01 4.061163e+01 3.924535e+01 3.644757e+01 5.019103e+01 3.854408e+01 4.101249e+01 3.297988e+01 2.870951e+01 3.201882e+01 2.572577e+01 7.016022e+01 2.816653e+00 3.883843e+00 5.136590e+00 4.290673e+00 5.821392e+00 4.336092e+00 3.688208e+00 4.732380e+00 3.864496e+00 3.171388e+00 3.782749e+00 2.619250e+00 2.131146e+00 7.501300e-01 3.895506e-01 5.049972e-01 6.279885e-01 6.939059e-01 5.834020e-01 5.940351e-01 6.995367e-01 7.011467e-01 5.195494e-01 5.629982e-01 4.174020e-01 2.729362e-01
<GCONST> 1.280478e+02
<STATE> 3
<MEAN> 39
 -2.169652e+01 -6.305722e+00 -6.140163e+00 -1.311421e+00 -5.825341e+00 -4.495646e+00 -7.429472e+00 -3.303150e+00 -2.065080e+00 -1.843440e+00 -1.197614e+00 -1.120929e+00 5.671352e+01 -4.444276e-01 -5.634267e-01 -4.050301e-01 -2.684656e-01 -2.359718e-01 -2.042509e-01 -1.376983e-01 -6.460704e-03 1.665632e-02 3.224678e-02 6.664677e-02 6.123867e-02 -7.725773e-02 7.653487e-01 1.997888e-01 1.527956e-01 -1.247697e-01 -3.827438e-02 1.052007e-01 2.565089e-02 -8.124422e-02 -1.176878e-01 -4.240453e-02 -2.338576e-02 -1.450138e-01 1.623672e-01
<VARIANCE> 39
 2.149713e+01 2.153573e+01 2.384449e+01 1.796708e+01 1.971451e+01 2.611426e+01 2.641818e+01 2.447059e+01 1.993080e+01 1.743466e+01 2.052407e+01 1.557941e+01 3.528216e+01 2.835236e+00 1.325467e+00 1.604789e+00 1.597694e+00 1.624760e+00 1.880542e+00 1.753347e+00 1.800393e+00 1.739119e+00 1.714961e+00 1.577381e+00 1.451764e+00 1.344275e+00 5.095192e-01 2.844428e-01 3.643237e-01 4.060149e-01 4.078867e-01 4.302480e-01 3.800529e-01 4.179013e-01 3.959560e-01 3.845083e-01 3.556119e-01 3.292842e-01 2.269375e-01
<GCONST> 1.055882e+02
<STATE> 4
<MEAN> 39
 -1.515572e+01 -4.899553e+00 -6.482983e+00 -3.560961e+00 -4.471809e+00 -3.531762e+00 -6.648689e+00 -3.605443e+00 -3.404596e+00 -2.969683e+00 -1.766544e+00 -2.202050e+00 4.266924e+01 1.041285e+00 2.593788e-01 8.062118e-02 -2.676012e-01 -1.552029e-01 1.384539e-01 -5.169991e-03 -1.792395e-01 -1.629687e-01 -7.333223e-02 -1.452199e-02 -2.097565e-01 2.005268e-01 2.173726e-01 3.797245e-02 3.630549e-02 -7.235490e-02 -1.157532e-01 4.729345e-02 -2.542854e-02 -6.455469e-02 -1.975640e-02 -1.459032e-02 2.457338e-02 -6.585357e-02 1.651582e-01
<VARIANCE> 39
 3.220520e+01 3.338850e+01 2.471127e+01 2.327387e+01 2.086082e+01 2.279937e+01 2.824256e+01 2.770673e+01 2.428598e+01 2.315586e+01 2.255726e+01 1.689772e+01 1.201295e+02 6.148846e+00 2.016990e+00 2.152621e+00 2.722150e+00 2.051354e+00 2.463579e+00 2.333491e+00 2.476524e+00 2.193534e+00 2.109524e+00 1.981096e+00 2.037611e+00 3.240765e+00 5.084051e-01 3.515677e-01 3.295703e-01 3.945470e-01 4.351528e-01 4.232006e-01 4.472700e-01 4.641058e-01 4.469675e-01 3.978936e-01 3.929984e-01 3.650930e-01 3.566241e-01
<GCONST> 1.149412e+02
<TRANSP> 5
 0.000000e+00 1.000000e+00 0.000000e+00 0.000000e+00 0.000000e+00
 0.000000e+00 6.755660e-01 3.244341e-01 0.000000e+00 0.000000e+00
 0.000000e+00 0.000000e+00 8.480448e-01 1.519553e-01 0.000000e+00
 0.000000e+00 0.000000e+00 0.000000e+00 8.549828e-01 1.450172e-01
 0.000000e+00 0.000000e+00 0.000000e+00 0.000000e+00 0.000000e+00
<ENDHMM>
~h "g"
<BEGINHMM>
<NUMSTATES> 5
<STATE> 2
<MEAN> 39
 1.651678e+00 3.871809e+00 4.216458e+00 -1.484800e+00 -9.924266e+00 -5.084891e+00 -1.082889e+01 -7.470908e+00 -6.871530e+00 1.615895e-01 -4.930167e+00 -8.515844e+00 5.235669e+01 5.565256e-01 1.274906e+00 9.168497e-01 1.042501e+00 2.415586e-01 -3.246642e-01 5.939628e-01 -6.656382e-02 -3.170795e-01 -1.351977e-01 -4.143417e-01 -3.427983e-01 -1.957699e+00 -4.650859e-01 -4.651885e-01 -3.903293e-01 -3.006167e-01 8.213496e-02 7.614691e-03 -6.846657e-02 1.938286e-01 2.229040e-01 -7.429088e-02 9.432703e-02 1.991458e-01 7.334501e-01
<VARIANCE> 39
 2.718996e+01 3.608040e+01 4.357784e+01 3.941663e+01 5.758451e+01 5.556165e+01 7.597700e+01 5.795032e+01 5.971590e+01 3.760625e+01 4.521302e+01 3.979983e+01 8.255567e+01 2.033365e+00 2.016961e+00 2.791517e+00 2.910599e+00 4.080685e+00 3.173421e+00 3.685400e+00 3.968194e+00 4.267098e+00 2.869939e+00 2.884907e+00 2.564448e+00 4.332384e+00 4.551015e-01 4.828557e-01 5.236381e-01 4.372333e-01 8.951236e-01 6.466607e-01 9.741241e-01 7.338405e-01 8.410848e-01 5.903171e-01 6.506534e-01 6.014514e-01 7.872565e-01
<GCONST> 1.310739e+02
<STATE> 3
<MEAN> 39
 -1.127007e+00 4.953210e+00 4.581621e+00 6.952915e-01 -7.277001e+00 -4.989124e+00 -9.046953e+00 -6.628309e+00 -7.499890e+00 -9.024492e-01 -5.692445e+00 -7.100539e+00 5.048315e+01 -2.289613e+00 -2.031198e+00 -1.546607e+00 -4.912177e-01 1.614639e+00 -2.085035e-01 -1.164433e+00 8.587520e-01 -3.511726e-01 2.289202e-01 2.936278e-01 1.059000e+00 2.900029e+00 -1.676080e-01 -5.308805e-01 -3.017591e-01 -6.882278e-01 -5.952140e-01 2.197842e-02 -4.487763e-01 -7.789948e-03 8.010709e-02 1.301678e-01 4.752419e-01 5.103912e-02 1.185990e+00
<VARIANCE> 39
 4.876730e+01 4.364250e+01 5.178661e+01 3.293942e+01 6.568438e+01 4.877197e+01 5.672609e+01 4.456659e+01 4.450816e+01 2.927245e+01 3.584332e+01 3.155655e+01 7.468459e+01 3.240150e+00 4.547779e+00 5.892738e+00 3.998977e+00 6.549495e+00 5.583001e+00 5.419873e+00 5.339801e+00 5.536476e+00 3.664732e+00 4.236821e+00 3.519523e+00 5.178271e+00 7.642203e-01 8.747876e-01 8.281488e-01 5.648236e-01 1.385903e+00 6.883830e-01 7.829751e-01 7.496160e-01 9.039335e-01 5.870273e-01 6.775085e-01 5.808768e-01 7.852898e-01
<GCONST> 1.378267e+02
<STATE> 4
<MEAN> 39
 -5.371556e+00 -2.794159e+00 -4.174409e-01 -4.596938e+00 -9.187324e+00 -7.592219e+00 -1.604254e+01 -3.085781e+00 -6.632758e+00 1.625056e+00 -1.952222e+00 -5.293583e+00 6.483623e+01 -7.231791e-03 -1.239525e+00 -4.646703e-01 -2.198693e+00 -2.358973e+00 -3.551882e-01 -7.478378e-01 9.936550e-01 1.161876e+00 2.473039e-01 1.229216e+00 -3.300267e-01 3.031158e+00 6.030158e-01 3.288342e-01 2.247580e-01 -9.203162e-02 -3.497172e-01 3.681090e-01 6.042892e-01 -1.560168e-01 4.243419e-01 -2.986636e-01 -2.463183e-01 -3.914424e-01 -5.445219e-01
<VARIANCE> 39
 2.552395e+01 3.282098e+01 6.217873e+01 4.775745e+01 1.000352e+02 6.663776e+01 8.326466e+01 5.678387e+01 6.279208e+01 3.573585e+01 4.548686e+01 3.218853e+01 4.609226e+01 3.037840e+00 3.202209e+00 4.814143e+00 3.437911e+00 7.273234e+00 4.161224e+00 5.973424e+00 5.491540e+00 7.332552e+00 3.292703e+00 5.093325e+00 3.169364e+00 3.248099e+00 5.528170e-01 7.071961e-01 1.111186e+00 7.093638e-01 2.480231e+00 8.128157e-01 9.910723e-01 9.485607e-01 1.084791e+00 6.449752e-01 1.077550e+00 5.827359e-01 4.413102e-01
<GCONST> 1.394530e+02
<TRANSP> 5
 0.000000e+00 1.000000e+00 0.000000e+00 0.000000e+00 0.000000e+00
 0.000000e+00 7.085464e-01 2.914536e-01 0.000000e+00 0.000000e+00
 0.000000e+00 0.000000e+00 5.650157e-01 4.349842e-01 0.000000e+00
 0.000000e+00 0.000000e+00 0.000000e+00 5.933571e-01 4.066429e-01
 0.000000e+00 0.000000e+00 0.000000e+00 0.000000e+00 0.000000e+00
<ENDHMM>
~h "h"
<BEGINHMM>
<NUMSTATES> 5
<STATE> 2
<MEAN> 39
 -6.106704e+00 -4.263795e+00 -3.837178e+00 -2.083633e+00 -8.021298e-01 1.702809e+00 -4.170790e+00 -3.416533e+00 -2.091505e+00 -3.922042e+00 -5.826396e+00 -4.866351e+00 6.271418e+01 -1.127208e+00 -3.022951e-01 6.754989e-01 7.906570e-01 1.431279e+00 7.971864e-01 4.315021e-01 7.304400e-01 3.654257e-01 5.410348e-02 -3.785161e-02 5.367985e-01 -9.835468e-01 2.889669e-02 -3.004212e-01 -2.621902e-01 -4.097094e-01 -3.583921e-01 -1.212523e-01 -2.080433e-01 -9.584888e-02 7.453972e-02 4.040061e-02 1.488226e-01 -1.159696e-01 1.123763e-01
<VARIANCE> 39
 2.800572e+01 3.503022e+01 5.569422e+01 5.256150e+01 6.755550e+01 5.345954e+01 5.210010e+01 5.477446e+01 4.860955e+01 4.103295e+01 4.463487e+01 4.060290e+01 9.069260e+01 1.409958e+00 2.344778e+00 3.840796e+00 2.520010e+00 3.502510e+00 3.165809e+00 2.775219e+00 3.147919e+00 2.815104e+00 2.625444e+00 2.719090e+00 2.266603e+00 1.599303e+00 1.731081e-01 3.063912e-01 4.059637e-01 3.573980e-01 5.294725e-01 4.692496e-01 4.649916e-01 5.705314e-01 4.979632e-01 4.037567e-01 4.362186e-01 3.958792e-01 1.678689e-01
<GCONST> 1.218999e+02
<STATE> 3
<MEAN> 39
 -1.105947e+01 -9.048377e+00 -6.124273e+00 -5.161294e+00 1.712445e+00 2.856828e+00 -5.784235e+00 -2.483871e+00 -1.208452e-02 -3.460519e+00 -5.078762e+00 -3.421756e+00 5.836012e+01 4.720879e-02 -1.170021e-02 -4.028935e-01 -3.843694e-01 -4.075378e-01 -4.392042e-01 -2.205928e-01 -2.600349e-01 -1.026745e-01 -5.413499e-02 9.098666e-02 -4.008927e-02 -6.044289e-01 2.845795e-01 2.063494e-01 -2.374981e-02 -6.028424e-02 -2.694365e-01 -1.673596e-01 -3.099863e-02 -1.597843e-01 -1.366390e-01 -5.257010e-02 -1.210351e-02 -1.176498e-01 2.930256e-02
<VARIANCE> 39
 4.518433e+01 4.837111e+01 4.573533e+01 5.204484e+01 6.025221e+01 4.817421e+01 5.663222e+01 4.505828e+01 4.323818e+01 4.340298e+01 3.772364e+01 2.873722e+01 1.016143e+02 2.137853e+00 2.680575e+00 2.443289e+00 2.331483e+00 2.571427e+00 2.572130e+00 2.825643e+00 2.673244e+00 2.485571e+00 2.312080e+00 2.363787e+00 2.158088e+00 3.740938e+00 2.977514e-01 3.626509e-01 4.308775e-01 4.363985e-01 5.279114e-01 4.913494e-01 5.453488e-01 5.135164e-01 4.812175e-01 4.425538e-01 4.440886e-01 3.923804e-01 2.494991e-01
<GCONST> 1.229997e+02
<STATE> 4
<MEAN> 39
 -1.156479e+01 -4.569514e+00 -6.515639e+00 -4.496812e+00 -3.395181e+00 -2.895513e+00 -6.281890e+00 -4.023530e+00 -3.927818e+00 -4.682729e+00 -3.581483e+00 -2.860132e+00 4.114162e+01 7.903714e-02 1.762475e-01 1.759625e-02 4.867069e-03 -1.393863e-01 -6.991626e-02 3.836326e-02 -8.631399e-02 -6.139673e-02 1.357827e-02 4.540906e-02 -2.814539e-02 -2.358289e-01 2.197500e-02 -8.908886e-03 2.870546e-02 -1.596176e-03 -6.989757e-03 3.108747e-02 -5.686602e-03 9.697069e-04 9.563467e-03 2.449030e-03 4.340197e-03 -2.407729e-02 1.102770e-01
<VARIANCE> 39
 2.482620e+01 4.250867e+01 3.215213e+01 2.685072e+01 2.745830e+01 2.882055e+01 3.496413e+01 3.071582e+01 3.003285e+01 2.692926e+01 2.563394e+01 2.064119e+01 1.314983e+02 9.921576e-01 1.390787e+00 1.486909e+00 1.313937e+00 1.603524e+00 1.663561e+00 1.874326e+00 1.959687e+00 1.951719e+00 1.819212e+00 1.744671e+00 1.619928e+00 1.551853e+00 1.463613e-01 2.159787e-01 2.251880e-01 2.387018e-01 2.886126e-01 3.032776e-01 3.478585e-01 3.710968e-01 3.746882e-01 3.468655e-01 3.341595e-01 2.968433e-01 1.544172e-01
<GCONST> 1.058377e+02
<TRANSP> 5
 0.000000e+00 1.000000e+00 0.000000e+00 0.000000e+00 0.000000e+00
 0.000000e+00 5.963650e-01 4.036349e-01 0.000000e+00 0.000000e+00
 0.000000e+00 0.000000e+00 7.475303e-01 2.524697e-01 0.000000e+00
 0.000000e+00 0.000000e+00 0.000000e+00 8.583193e-01 1.416806e-01
 0.000000e+00 0.000000e+00 0.000000e+00 0.000000e+00 0.000000e+00
<ENDHMM>
~h "i"
<BEGINHMM>
<NUMSTATES> 5
<STATE> 2
<MEAN> 39
 -6.776665e+00 -6.114124e-01 1.027994e+01 -2.032038e+00 -1.829147e+01 -8.934088e+00 -1.091903e+01 -8.484396e+00 -1.103102e+01 -3.495152e+00 1.533976e+00 -4.627702e+00 6.301866e+01 5.598307e-01 2.548812e-01 2.475140e+00 -3.416654e-01 -2.962751e+00 2.548746e-01 -9.230564e-01 -9.610788e-01 -1.588984e+00 2.177520e-01 1.256048e+00 -7.469216e-01 1.740141e+00 -9.676883e-02 1.479593e-01 -4.542605e-01 -1.825681e-01 4.197316e-01 4.150351e-01 6.891606e-02 4.168225e-02 4.213725e-01 1.629379e-01 -2.698579e-01 -7.520844e-02 -4.730244e-01
<VARIANCE> 39
 3.202682e+01 3.568943e+01 4.953856e+01 3.912491e+01 5.427325e+01 5.180554e+01 5.808934e+01 6.455189e+01 4.956707e+01 4.193617e+01 4.140463e+01 2.685162e+01 7.723039e+01 5.495999e+00 2.938986e+00 4.380986e+00 3.916295e+00 4.642936e+00 4.640470e+00 5.814806e+00 6.231460e+00 5.083001e+00 3.775781e+00 3.806578e+00 2.790852e+00 4.249887e+00 6.832733e-01 5.433695e-01 7.804912e-01 5.649751e-01 1.115927e+00 7.305824e-01 8.373229e-01 1.074331e+00 8.199254e-01 5.950253e-01 6.741962e-01 4.612485e-01 9.178963e-01
<GCONST> 1.364171e+02
<STATE> 3
<MEAN> 39
 -7.752861e+00 1.321304e+00 1.524090e+01 -5.368138e+00 -2.338421e+01 -4.874345e+00 -1.347199e+01 -1.188154e+01 -1.299508e+01 -2.744553e+00 3.140241e+00 -7.584090e+00 6.582422e+01 1.324586e-01 1.693660e-01 -2.495637e-01 -9.846088e-03 1.144387e-01 -2.399656e-02 1.888914e-01 6.694435e-02 1.759104e-01 2.068442e-01 -1.752514e-01 2.401509e-02 -2.540735e-01 9.634204e-02 -8.579383e-03 -4.462415e-01 1.863042e-01 5.514253e-01 -1.854476e-01 2.387605e-01 2.507575e-01 2.892667e-01 -6.032906e-02 -2.540928e-01 1.594699e-01 -3.826988e-01
<VARIANCE> 39
 1.066513e+01 2.560984e+01 3.078785e+01 3.779690e+01 2.755284e+01 5.035666e+01 5.390955e+01 5.565644e+01 4.055969e+01 4.546022e+01 4.664235e+01 3.170123e+01 2.582343e+01 7.410243e-01 1.279024e+00 1.786743e+00 1.580566e+00 2.112576e+00 2.234612e+00 2.300946e+00 2.611799e+00 2.092605e+00 1.701477e+00 1.673620e+00 1.369258e+00 1.262904e+00 1.791015e-01 2.118768e-01 2.917345e-01 2.853579e-01 5.328640e-01 3.805085e-01 4.506988e-01 4.846975e-01 4.520512e-01 3.624861e-01 4.080502e-01 2.774036e-01 2.625121e-01
<GCONST> 1.101212e+02
<STATE> 4
<MEAN> 39
 -6.933712e+00 2.445200e+00 7.389484e+00 -1.753164e+00 -1.465591e+01 -7.116226e+00 -8.412648e+00 -9.260575e+00 -8.740122e+00 -2.350835e+00 -1.398315e+00 -4.279967e+00 5.043785e+01 5.777999e-02 1.384499e-01 -1.070614e+00 3.134920e-01 1.209419e+00 -1.794517e-02 4.193459e-01 4.481679e-01 6.586199e-01 -1.267019e-01 -5.203266e-01 2.386214e-01 -1.784166e+00 -1.069076e-01 -5.720570e-02 -4.228168e-02 -7.882472e-02 5.074309e-02 1.447689e-01 -7.918882e-02 -4.307823e-02 8.604931e-03 -3.201005e-02 -1.915939e-02 -2.355362e-02 8.573887e-02
<VARIANCE> 39
 3.257908e+01 3.599486e+01 5.575871e+01 3.584359e+01 5.952336e+01 6.717846e+01 5.106833e+01 5.800756e+01 4.226899e+01 3.826786e+01 3.881502e+01 3.131576e+01 1.634606e+02 1.884742e+00 2.075444e+00 2.391718e+00 2.109808e+00 3.639382e+00 2.801611e+00 3.364985e+00 3.489517e+00 3.193617e+00 2.427903e+00 2.810666e+00 2.127107e+00 4.209687e+00 2.594257e-01 3.456767e-01 3.453199e-01 3.600413e-01 6.345030e-01 5.292236e-01 5.523272e-01 5.977390e-01 5.082096e-01 4.611656e-01 4.755337e-01 3.884167e-01 5.208150e-01
<GCONST> 1.247736e+02
<TRANSP> 5
 0.000000e+00 1.000000e+00 0.000000e+00 0.000000e+00 0.000000e+00
 0.000000e+00 6.411054e-01 3.588946e-01 0.000000e+00 0.000000e+00
 0.000000e+00 0.000000e+00 8.201466e-01 1.798534e-01 0.000000e+00
 0.000000e+00 0.000000e+00 0.000000e+00 7.856676e-01 2.143323e-01
 0.000000e+00 0.000000e+00 0.000000e+00 0.000000e+00 0.000000e+00
<ENDHMM>
~h "j"
<BEGINHMM>
<NUMSTATES> 5
<STATE> 2
<MEAN> 39
 -2.350888e+00 7.205177e+00 6.600335e+00 6.226972e-01 -9.037221e+00 -6.428803e+00 -7.454615e+00 -3.404704e+00 -5.143411e+00 -5.537414e+00 -4.586147e+00 -3.835383e+00 5.023697e+01 -6.469901e-01 7.755819e-01 5.924959e-01 4.090664e-02 8.792749e-01 2.548688e-01 5.125616e-01 1.977788e-01 1.199629e-01 -5.371775e-02 -2.499308e-02 -9.795466e-02 -4.931789e-01 -6.123374e-01 -3.982648e-01 -2.315112e-01 -2.731248e-01 -1.533628e-03 -7.202833e-03 -1.678833e-01 -2.020660e-01 -4.418731e-02 1.183299e-01 1.947455e-01 1.235405e-01 8.101848e-01
<VARIANCE> 39
 4.256643e+01 3.667616e+01 3.872169e+01 2.486858e+01 4.492951e+01 4.494112e+01 4.697687e+01 4.635139e+01 4.585978e+01 3.236480e+01 2.691672e+01 2.309440e+01 9.379182e+01 6.540901e+00 4.090645e+00 3.002226e+00 2.923713e+00 4.597169e+00 3.737881e+00 3.867701e+00 4.357126e+00 3.769659e+00 2.589302e+00 2.607567e+00 2.228239e+00 7.833239e+00 1.032747e+00 6.052393e-01 5.031649e-01 5.137898e-01 8.085217e-01 7.144894e-01 6.875572e-01 7.439361e-01 7.154062e-01 4.790318e-01 5.012171e-01 4.936449e-01 1.092129e+00
<GCONST> 1.312754e+02
<STATE> 3
<MEAN> 39
 -1.643912e+01 5.959534e+00 6.986262e+00 -2.513327e+00 -4.523886e+00 -5.367090e+00 -7.170895e+00 -5.842917e+00 -6.462782e+00 -4.482089e+00 -1.927191e+00 -1.661136e+00 6.150117e+01 -1.452174e+00 -1.122925e+00 3.182310e-01 -3.934071e-01 -1.870441e+00 -1.465579e+00 -1.075149e+00 -7.629780e-01 -7.880247e-01 -9.583740e-03 1.298943e+00 1.012569e+00 3.586963e+00 1.706703e+00 -3.922300e-01 -2.069071e-02 1.254442e-01 -1.234712e+00 -3.462223e-01 -4.736407e-01 3.142177e-01 1.564599e-01 -6.896211e-02 1.226795e-01 -1.794263e-01 -2.197382e-01
<VARIANCE> 39
 4.710725e+01 3.427994e+01 3.433738e+01 2.613582e+01 5.306708e+01 5.284832e+01 4.012634e+01 2.707755e+01 2.942065e+01 2.023618e+01 2.204133e+01 1.812503e+01 3.989822e+01 1.385398e+01 3.485583e+00 3.735332e+00 4.036258e+00 8.604126e+00 4.563890e+00 3.390018e+00 3.508211e+00 3.975219e+00 2.460283e+00 2.502362e+00 1.940054e+00 3.048659e+00 1.164826e+00 8.355209e-01 7.596149e-01 7.337968e-01 1.305798e+00 9.756127e-01 6.178586e-01 9.003057e-01 1.094390e+00 5.557523e-01 5.283105e-01 5.123336e-01 6.581393e-01
<GCONST> 1.313925e+02
<STATE> 4
<MEAN> 39
 -6.708751e+00 -1.582961e+00 8.034629e+00 -3.679896e+00 -1.899603e+01 -1.233162e+01 -1.374257e+01 -3.744855e+00 -5.988475e+00 -4.767792e+00 2.804897e+00 -1.142917e-01 6.977282e+01 2.643819e+00 -2.793146e+00 -1.612269e+00 -1.191172e+00 -2.226702e+00 -7.521369e-02 -1.319405e+00 1.792208e+00 1.808522e+00 4.619040e-01 2.769035e-01 -1.101655e+00 1.679249e+00 -1.665658e-01 2.425618e-01 -7.674727e-01 -2.686753e-01 1.305652e+00 9.322968e-01 5.603950e-01 1.757044e-01 4.447655e-01 1.503322e-01 -7.174210e-01 -7.117602e-01 -6.430368e-01
<VARIANCE> 39
 1.727152e+01 3.228645e+01 3.057570e+01 4.247735e+01 3.632346e+01 3.315210e+01 4.676081e+01 5.142905e+01 5.441834e+01 3.542731e+01 3.377208e+01 2.083477e+01 2.489564e+01 2.887470e+00 2.521574e+00 3.725111e+00 3.086462e+00 8.059035e+00 3.529490e+00 4.813120e+00 6.164872e+00 6.261429e+00 3.188111e+00 4.219931e+00 3.161751e+00 1.469567e+00 7.921546e-01 4.391062e-01 3.685463e-01 5.566301e-01 8.610359e-01 5.465254e-01 5.601113e-01 9.338123e-01 8.210390e-01 5.572544e-01 6.524982e-01 4.168178e-01 1.527064e-01
<GCONST> 1.265141e+02
<TRANSP> 5
 0.000000e+00 1.000000e+00 0.000000e+00 0.000000e+00 0.000000e+00
 0.000000e+00 8.299798e-01 1.700202e-01 0.000000e+00 0.000000e+00
 0.000000e+00 0.000000e+00 6.967310e-01 3.032689e-01 0.000000e+00
 0.000000e+00 0.000000e+00 0.000000e+00 6.255315e-01 3.744685e-01
 0.000000e+00 0.000000e+00 0.000000e+00 0.000000e+00 0.000000e+00
<ENDHMM>
~h "k"
<BEGINHMM>
<NUMSTATES> 5
<STATE> 2
<MEAN> 39
 -1.029848e+01 -3.016520e-01 -4.748015e+00 -3.967191e+00 -5.438850e+00 -4.149236e+00 -6.496753e+00 -4.989351e+00 -4.303029e+00 -2.892522e+00 -3.644119e+00 -3.666232e+00 3.811996e+01 -6.104352e-01 -8.442329e-02 -7.467952e-02 1.445640e-01 1.695406e-01 -9.141132e-02 9.367673e-02 1.956796e-01 9.675369e-02 -7.281042e-03 3.469631e-02 2.418095e-01 -8.731871e-01 -5.653284e-02 -2.441504e-01 -1.450731e-01 -9.692728e-02 4.107978e-02 1.232667e-02 -1.143236e-01 5.737720e-02 4.681006e-03 4.653790e-02 1.827009e-02 6.250544e-03 6.398276e-01
<VARIANCE> 39
 3.817897e+01 2.805348e+01 3.110179e+01 2.614609e+01 3.367821e+01 3.316063e+01 3.484455e+01 3.352858e+01 3.326420e+01 3.069500e+01 2.917894e+01 2.469806e+01 6.024223e+01 1.590368e+00 1.748875e+00 1.768644e+00 1.913585e+00 2.439326e+00 2.632876e+00 2.643541e+00 2.638055e+00 2.472556e+00 2.332043e+00 2.191849e+00 1.979202e+00 3.972682e+00 2.952493e-01 4.607748e-01 4.419011e-01 4.210871e-01 5.211226e-01 5.657853e-01 5.886486e-01 5.624210e-01 5.414292e-01 4.949356e-01 4.634337e-01 4.081383e-01 9.869973e-01
<GCONST> 1.186879e+02
<STATE> 3
<MEAN> 39
 -1.080841e+01 -2.091223e+00 -5.314946e+00 -3.403110e+00 -4.512986e+00 -4.740929e+00 -7.785282e+00 -3.926595e+00 -4.233810e+00 -1.332197e+00 -3.390410e+00 -2.956746e+00 4.408858e+01 -1.273036e+00 -2.343789e+00 -2.154701e+00 -6.842580e-01 1.349045e+00 -3.561523e-01 -1.306027e+00 9.000683e-01 2.710227e-02 6.064122e-01 -2.934164e-01 4.017533e-01 4.102550e+00 4.458425e-01 3.627839e-03 -8.417194e-02 -3.841480e-01 -2.869652e-01 8.079208e-03 -1.346998e-01 -5.960449e-02 4.153196e-02 8.098687e-02 -8.119194e-02 -2.945738e-01 1.366559e+00
<VARIANCE> 39
 4.253162e+01 5.354432e+01 5.592644e+01 3.858822e+01 5.695876e+01 5.721129e+01 5.275492e+01 4.843159e+01 4.261501e+01 3.242181e+01 3.344363e+01 2.593176e+01 1.083554e+02 4.362513e+00 5.341433e+00 6.848352e+00 5.739445e+00 6.565166e+00 7.333192e+00 5.775884e+00 6.108038e+00 5.581481e+00 4.470648e+00 4.279452e+00 3.966629e+00 1.288156e+01 6.950374e-01 1.019635e+00 1.001036e+00 7.202580e-01 1.047954e+00 1.007674e+00 9.905748e-01 8.677979e-01 8.154485e-01 6.634365e-01 6.322108e-01 6.317296e-01 1.648591e+00
<GCONST> 1.427631e+02
<STATE> 4
<MEAN> 39
 -1.128688e+01 -6.882190e+00 -1.147884e+01 -7.821522e+00 -2.224343e+00 -5.293125e+00 -1.220709e+01 -2.092401e+00 -3.472984e+00 1.262011e+00 -4.946552e+00 -4.110341e+00 6.006330e+01 1.654526e+00 2.280998e-01 4.880975e-01 -9.346318e-01 -1.114109e+00 3.066587e-02 2.112017e-01 -1.594309e-01 2.578038e-01 -8.718096e-02 3.879926e-02 -1.043927e+00 3.419766e+00 7.310884e-01 4.746641e-01 7.714748e-01 8.457372e-02 -6.846953e-01 2.206599e-01 6.083825e-01 -3.651640e-01 1.152123e-01 -4.130899e-01 2.707902e-01 -3.294557e-01 -6.983013e-01
<VARIANCE> 39
 4.431499e+01 4.487635e+01 6.053340e+01 5.733418e+01 6.441154e+01 7.653229e+01 6.084336e+01 5.388071e+01 6.523326e+01 4.445624e+01 4.228770e+01 3.914535e+01 7.442324e+01 5.415898e+00 4.473906e+00 6.413443e+00 4.424366e+00 5.937348e+00 4.716195e+00 6.504509e+00 4.751976e+00 5.531205e+00 4.283421e+00 4.132668e+00 4.394365e+00 9.540518e+00 8.833456e-01 1.008039e+00 1.328912e+00 8.815351e-01 1.200535e+00 1.082868e+00 1.222427e+00 1.013200e+00 1.091540e+00 8.728964e-01 8.415424e-01 9.140255e-01 1.182328e+00
<GCONST> 1.457083e+02
<TRANSP> 5
 0.000000e+00 1.000000e+00 0.000000e+00 0.000000e+00 0.000000e+00
 0.000000e+00 8.299277e-01 1.700722e-01 0.000000e+00 0.000000e+00
 0.000000e+00 0.000000e+00 5.500946e-01 4.499054e-01 0.000000e+00
 0.000000e+00 0.000000e+00 0.000000e+00 6.282505e-01 3.717495e-01
 0.000000e+00 0.000000e+00 0.000000e+00 0.000000e+00 0.000000e+00
<ENDHMM>
~h "l"
<BEGINHMM>
<NUMSTATES> 5
<STATE> 2
<MEAN> 39
 7.251706e-01 -6.275623e+00 -4.535481e+00 -8.254119e+00 -1.130327e+01 -3.839122e+00 -1.335206e+01 -1.169368e+01 -2.803297e-01 2.026115e+00 -1.590683e+00 -5.844561e+00 6.643924e+01 3.336036e-01 4.233319e-01 7.683209e-01 -3.312152e-01 1.157491e+00 -3.764671e-01 -1.628722e+00 -1.193097e+00 1.970157e-01 6.947174e-01 -2.639811e-02 1.656419e-01 -4.853887e-01 -2.090909e-01 1.859058e-01 7.743111e-02 -2.045167e-01 3.922746e-02 2.659659e-01 9.579282e-02 9.733857e-02 -1.114268e-01 -2.338863e-01 -2.963921e-02 2.956310e-03 -3.777530e-02
<VARIANCE> 39
 2.541284e+01 2.979609e+01 6.734987e+01 7.718053e+01 6.479545e+01 6.811925e+01 9.082426e+01 1.084019e+02 7.388055e+01 6.561373e+01 6.466587e+01 4.840533e+01 4.945132e+01 1.181843e+00 2.035959e+00 3.365910e+00 4.692335e+00 5.266228e+00 5.987725e+00 5.458748e+00 5.628929e+00 6.065104e+00 4.816568e+00 4.995430e+00 3.552787e+00 1.419916e+00 2.004833e-01 2.905582e-01 3.996552e-01 6.320987e-01 7.923056e-01 8.095459e-01 8.812141e-01 1.034110e+00 9.180031e-01 8.289192e-01 7.131974e-01 5.322611e-01 1.547068e-01
<GCONST> 1.341377e+02
<STATE> 3
<MEAN> 39
 3.310495e-03 -3.834064e+00 -1.477227e+00 -1.226816e+01 -7.764462e+00 -2.506655e+00 -1.890435e+01 -1.465984e+01 1.135969e+00 2.741381e+00 -1.121239e+00 -5.734385e+00 6.599355e+01 -1.424047e-01 1.139134e-01 1.349500e-01 -2.867474e-01 1.114547e-01 1.610939e-01 -1.956737e-01 9.242897e-02 -8.312427e-02 -2.942010e-02 -1.031494e-01 8.174097e-02 8.890221e-03 -1.723749e-01 -3.556134e-01 -4.576846e-01 3.013134e-01 -4.649049e-01 7.760192e-02 8.030267e-01 7.843067e-01 -7.742952e-03 -3.788019e-01 -1.690206e-01 -1.662931e-01 2.834429e-01
<VARIANCE> 39
 1.917569e+01 2.629535e+01 6.968337e+01 7.435593e+01 5.123642e+01 5.972103e+01 9.480547e+01 8.432352e+01 6.975893e+01 6.548063e+01 6.068834e+01 4.629842e+01 3.599618e+01 6.370977e-01 1.335449e+00 2.785441e+00 2.909487e+00 2.663447e+00 3.099550e+00 3.823607e+00 5.100999e+00 4.437687e+00 2.850220e+00 3.041015e+00 2.419936e+00 1.127257e+00 1.263352e-01 2.811236e-01 3.606448e-01 4.903103e-01 7.380221e-01 7.985272e-01 9.183609e-01 8.632802e-01 9.352728e-01 7.614625e-01 9.873555e-01 5.813124e-01 1.324991e-01
<GCONST> 1.263352e+02
<STATE> 4
<MEAN> 39
 -9.105954e-01 -3.760010e+00 -1.862477e+00 -1.329958e+01 -5.861888e+00 -2.042205e+00 -1.606112e+01 -1.113841e+01 -1.409660e+00 2.367609e+00 -2.985307e+00 -4.142715e+00 6.275111e+01 -3.273965e-01 -4.276084e-01 -5.478354e-01 5.662770e-01 -3.815485e-01 2.097950e-01 1.108810e+00 1.153747e+00 1.275232e-02 -6.821856e-01 -4.160555e-01 -2.996152e-01 9.169063e-02 -9.746872e-02 -7.863799e-02 -1.672217e-01 1.369572e-01 -8.453204e-02 6.943303e-02 3.132643e-01 1.288014e-01 1.607925e-02 -1.970707e-01 -2.202321e-02 -9.224443e-02 4.101476e-02
<VARIANCE> 39
 2.758344e+01 3.176584e+01 7.286793e+01 1.115268e+02 6.728075e+01 6.049186e+01 8.619964e+01 6.839294e+01 6.394013e+01 6.400946e+01 5.335409e+01 4.762241e+01 8.221806e+01 8.263942e-01 2.465659e+00 2.847352e+00 2.960704e+00 3.765912e+00 3.701754e+00 4.315101e+00 5.049901e+00 4.370612e+00 3.270536e+00 4.410256e+00 2.966935e+00 2.786864e+00 1.272673e-01 2.694063e-01 2.908807e-01 4.927774e-01 5.520371e-01 4.965362e-01 6.181624e-01 5.560644e-01 5.510427e-01 5.669026e-01 5.873540e-01 3.972993e-01 2.015860e-01
<GCONST> 1.279338e+02
<TRANSP> 5
 0.000000e+00 1.000000e+00 0.000000e+00 0.000000e+00 0.000000e+00
 0.000000e+00 5.279825e-01 4.720175e-01 0.000000e+00 0.000000e+00
 0.000000e+00 0.000000e+00 5.814755e-01 4.185245e-01 0.000000e+00
 0.000000e+00 0.000000e+00 0.000000e+00 5.729754e-01 4.270246e-01
 0.000000e+00 0.000000e+00 0.000000e+00 0.000000e+00 0.000000e+00
<ENDHMM>
~h "m"
<BEGINHMM>
<NUMSTATES> 5
<STATE> 2
<MEAN> 39
 1.234781e+00 -2.255607e+00 -2.555590e+00 -4.868036e+00 -9.075528e+00 1.308307e+00 -7.881296e+00 -1.185401e+01 -7.908656e+00 -4.620127e+00 -1.260331e+00 -6.054292e+00 5.883183e+01 3.237780e-01 1.017258e+00 1.537357e+00 1.901544e+00 3.569922e-01 6.578779e-01 5.131667e-01 -1.963949e+00 -2.098474e+00 -9.244046e-01 -6.815759e-01 6.532730e-01 -1.048006e+00 -2.918707e-01 -1.940173e-01 1.978403e-02 -1.065771e-01 -2.481424e-02 -2.206104e-02 6.919391e-03 1.741362e-01 1.436999e-01 -1.337761e-01 -2.086520e-01 -6.400045e-03 3.180123e-01
<VARIANCE> 39
 2.767115e+01 3.580933e+01 5.869269e+01 6.185632e+01 4.820592e+01 5.538369e+01 5.146523e+01 8.411344e+01 6.960973e+01 4.668168e+01 6.299703e+01 3.639792e+01 8.319057e+01 1.910591e+00 2.529915e+00 4.251791e+00 4.054933e+00 3.929567e+00 4.196440e+00 4.008333e+00 6.270778e+00 5.971739e+00 3.515593e+00 6.168464e+00 4.539182e+00 4.250295e+00 2.438267e-01 3.312966e-01 5.508836e-01 6.679598e-01 5.561390e-01 5.137360e-01 5.687651e-01 9.068149e-01 8.536248e-01 5.295221e-01 7.782319e-01 5.282620e-01 3.548695e-01
<GCONST> 1.334044e+02
<STATE> 3
<MEAN> 39
 1.403069e+00 -1.510756e+00 6.446608e-01 -1.000564e+00 -9.045807e+00 4.615434e+00 -6.203256e+00 -1.594325e+01 -1.140755e+01 -8.761647e+00 -4.662169e+00 -4.568472e+00 5.958310e+01 -6.348650e-02 8.280981e-02 2.835781e-02 -8.046839e-02 6.381818e-03 3.486031e-02 1.462320e-01 1.247604e-01 1.790156e-02 -1.248849e-01 -1.636167e-01 1.071938e-01 5.090491e-03 6.336718e-04 -1.157643e-01 -4.185123e-01 -4.987915e-01 -6.541441e-02 -2.304821e-01 -9.981748e-02 4.627452e-01 4.930572e-01 3.417496e-01 2.272640e-01 -1.070297e-01 1.516879e-01
<VARIANCE> 39
 1.279016e+01 2.336316e+01 3.646344e+01 3.918167e+01 4.193597e+01 5.904757e+01 5.156047e+01 9.805648e+01 7.464884e+01 5.089182e+01 7.974193e+01 3.283523e+01 3.455577e+01 3.996752e-01 9.599895e-01 1.553976e+00 2.129723e+00 1.525397e+00 1.940280e+00 1.598429e+00 2.339206e+00 2.529460e+00 2.106770e+00 2.566474e+00 1.586905e+00 1.334608e+00 9.905979e-02 1.950914e-01 3.288022e-01 3.943816e-01 3.192370e-01 3.806562e-01 3.567078e-01 5.721523e-01 5.912941e-01 3.969823e-01 5.845266e-01 4.292367e-01 2.048905e-01
<GCONST> 1.125454e+02
<STATE> 4
<MEAN> 39
 -8.485300e+00 -2.257084e+00 -3.638455e+00 -3.269147e+00 -4.014174e+00 -2.635593e+00 -6.598823e+00 -8.595590e+00 -8.000698e+00 -6.370536e+00 -5.341592e+00 -2.891021e+00 4.189589e+01 -4.382183e-02 -3.962529e-02 -1.966619e-01 -3.002506e-01 -6.287342e-03 -1.104671e-01 -2.333066e-03 3.273468e-01 2.487920e-01 2.351739e-01 1.455543e-01 -4.460695e-02 1.327998e-02 2.149427e-03 -4.341975e-02 -2.554042e-02 -4.951159e-02 -5.775193e-03 2.874697e-02 -3.828202e-02 5.234201e-02 7.219072e-02 2.012418e-02 2.511280e-02 -5.515972e-02 8.816314e-02
<VARIANCE> 39
 4.309579e+01 3.371820e+01 3.706701e+01 2.635340e+01 3.265335e+01 3.575597e+01 3.062857e+01 6.264348e+01 5.246874e+01 3.149753e+01 4.048015e+01 2.076374e+01 1.147942e+02 8.904868e-01 1.434272e+00 2.197427e+00 2.332690e+00 1.759383e+00 2.040305e+00 1.950316e+00 2.901135e+00 3.032068e+00 2.283246e+00 2.468137e+00 1.850173e+00 1.991505e+00 1.566366e-01 2.201574e-01 2.720797e-01 2.942422e-01 3.323197e-01 3.628645e-01 3.619555e-01 4.696053e-01 4.768524e-01 3.979661e-01 3.993186e-01 3.256184e-01 1.580197e-01
<GCONST> 1.130582e+02
<TRANSP> 5
 0.000000e+00 1.000000e+00 0.000000e+00 0.000000e+00 0.000000e+00
 0.000000e+00 6.015810e-01 3.984191e-01 0.000000e+00 0.000000e+00
 0.000000e+00 0.000000e+00 7.826957e-01 2.173043e-01 0.000000e+00
 0.000000e+00 0.000000e+00 0.000000e+00 8.325838e-01 1.674162e-01
 0.000000e+00 0.000000e+00 0.000000e+00 0.000000e+00 0.000000e+00
<ENDHMM>
~h "n"
<BEGINHMM>
<NUMSTATES> 5
<STATE> 2
<MEAN> 39
 1.101350e+00 -4.779799e+00 -2.136859e+00 -2.252562e+00 -1.093723e+01 -5.730989e+00 -1.091957e+01 -7.989279e+00 1.791754e-01 -2.617016e+00 -7.822311e+00 -7.147092e+00 6.390937e+01 6.133289e-01 2.163941e+00 2.099645e+00 2.107616e+00 -3.143690e-01 -4.028395e-01 2.244133e-01 -3.208401e+00 -9.451313e-01 4.569122e-01 -1.106875e+00 1.178205e+00 -2.415332e+00 -2.276120e-01 9.042177e-03 -7.739935e-02 -2.327550e-01 -5.902272e-02 1.910151e-01 3.617569e-01 -8.209004e-02 -1.371025e-01 -1.780552e-01 7.921740e-02 1.319279e-01 1.931749e-01
<VARIANCE> 39
 1.151787e+01 3.842373e+01 5.740951e+01 4.591962e+01 4.712936e+01 5.309486e+01 5.954890e+01 1.329301e+02 6.816171e+01 4.081668e+01 5.778890e+01 4.263668e+01 3.860398e+01 8.700463e-01 1.853276e+00 3.518979e+00 2.541900e+00 4.188436e+00 5.193738e+00 5.857677e+00 6.120284e+00 4.520103e+00 3.990371e+00 5.523642e+00 3.730832e+00 1.141874e+00 1.133443e-01 4.190776e-01 4.580128e-01 4.909207e-01 5.310718e-01 5.956023e-01 6.997760e-01 1.395524e+00 6.571029e-01 6.212467e-01 5.748177e-01 4.768938e-01 2.952265e-01
<GCONST> 1.280968e+02
<STATE> 3
<MEAN> 39
 1.505874e+00 1.196584e-01 1.965045e+00 2.242286e+00 -1.305988e+01 -5.450324e+00 -8.205637e+00 -1.616268e+01 -2.218663e+00 -2.883699e+00 -9.228916e+00 -3.203682e+00 5.882225e+01 5.326306e-03 5.755596e-01 3.698100e-01 2.428023e-01 5.114618e-02 1.984856e-01 1.554911e-01 -1.517197e-01 -3.825625e-01 -7.142996e-02 -1.380395e-01 3.203019e-01 -6.768371e-01 -1.323353e-01 -2.231984e-01 -2.740819e-01 -3.267424e-01 2.304090e-01 6.938542e-02 -1.060223e-01 6.304995e-01 6.189600e-02 -6.444372e-02 2.009060e-01 -2.396164e-01 1.685045e-01
<VARIANCE> 39
 1.034958e+01 2.009263e+01 3.478845e+01 2.889390e+01 3.938729e+01 5.321711e+01 5.579730e+01 1.136438e+02 7.813552e+01 4.120533e+01 8.323877e+01 4.015992e+01 2.511161e+01 3.675579e-01 9.177883e-01 1.168989e+00 1.100823e+00 1.515243e+00 1.661271e+00 1.998930e+00 2.833423e+00 2.341037e+00 1.684112e+00 2.192624e+00 1.731874e+00 8.089599e-01 1.128609e-01 2.456667e-01 3.566904e-01 3.348358e-01 3.899960e-01 4.515429e-01 4.802227e-01 7.412602e-01 4.972329e-01 3.964113e-01 5.486862e-01 3.823097e-01 2.406247e-01
<GCONST> 1.109716e+02
<STATE> 4
<MEAN> 39
 -5.538331e+00 9.164056e-01 5.727000e-01 4.174007e-01 -6.350156e+00 -4.488863e+00 -7.205828e+00 -8.534454e+00 -4.437736e+00 -4.530149e+00 -8.173053e+00 -3.183003e+00 4.494252e+01 -5.441753e-01 -5.214315e-02 -2.645009e-01 -3.246145e-01 5.087227e-01 1.888099e-01 -3.012896e-02 7.402778e-01 -9.419797e-02 -1.132759e-01 3.859733e-01 -1.738799e-01 -7.323626e-01 -9.322895e-02 -1.510433e-01 -1.049502e-01 -1.424085e-01 -2.610885e-02 -4.413903e-05 -2.088284e-02 7.657211e-02 7.882974e-02 -8.199875e-03 1.052976e-01 -3.263012e-02 1.527962e-01
<VARIANCE> 39
 4.772424e+01 3.766391e+01 4.126374e+01 3.452625e+01 3.925079e+01 3.498647e+01 4.195527e+01 8.036991e+01 4.272648e+01 3.438261e+01 6.086768e+01 2.801724e+01 1.039570e+02 1.274539e+00 2.083219e+00 1.968419e+00 2.169047e+00 2.573886e+00 2.606801e+00 2.703534e+00 4.153602e+00 2.958867e+00 2.333282e+00 2.994617e+00 2.278226e+00 3.118601e+00 2.474827e-01 3.564312e-01 3.555475e-01 3.983442e-01 4.501434e-01 4.576334e-01 5.013703e-01 6.908658e-01 5.165914e-01 4.427158e-01 5.266881e-01 3.928217e-01 3.610909e-01
<GCONST> 1.218067e+02
<TRANSP> 5
 0.000000e+00 1.000000e+00 0.000000e+00 0.000000e+00 0.000000e+00
 0.000000e+00 5.872842e-01 4.127158e-01 0.000000e+00 0.000000e+00
 0.000000e+00 0.000000e+00 7.818009e-01 2.181991e-01 0.000000e+00
 0.000000e+00 0.000000e+00 0.000000e+00 7.927005e-01 2.072994e-01
 0.000000e+00 0.000000e+00 0.000000e+00 0.000000e+00 0.000000e+00
<ENDHMM>
~h "o"
<BEGINHMM>
<NUMSTATES> 5
<STATE> 2
<MEAN> 39
 -8.173613e-01 -1.687610e+00 -8.169550e+00 -1.473413e+01 -1.136058e+01 2.613781e+00 -1.073691e+01 -7.383533e+00 -2.869587e+00 -1.401873e+00 2.062177e-01 -4.509101e+00 6.234911e+01 1.816477e+00 -2.834034e-01 -9.704280e-01 -2.462704e+00 -1.385855e+00 1.864999e+00 1.763800e-01 -5.945059e-01 8.638853e-01 1.668033e-01 9.845370e-01 -3.487992e-01 2.115901e+00 -4.289089e-01 -4.001291e-02 8.546722e-02 1.973748e-01 2.291589e-01 1.884636e-02 2.887745e-01 5.824271e-03 -1.022688e-01 -9.560846e-02 -4.557375e-03 1.199062e-01 -3.828692e-01
<VARIANCE> 39
 3.660561e+01 3.609610e+01 5.386795e+01 9.812608e+01 5.594286e+01 5.972302e+01 7.179192e+01 6.128742e+01 6.694724e+01 5.968147e+01 4.795736e+01 3.982338e+01 1.113266e+02 4.863679e+00 3.038113e+00 6.015487e+00 5.900587e+00 6.716313e+00 5.608462e+00 4.884520e+00 6.169502e+00 5.155616e+00 5.075271e+00 4.739661e+00 3.880043e+00 5.471488e+00 8.003208e-01 5.240379e-01 7.110219e-01 1.138747e+00 8.475526e-01 8.489863e-01 8.093882e-01 8.443851e-01 9.108252e-01 8.009901e-01 6.873153e-01 5.943632e-01 1.135640e+00
<GCONST> 1.427996e+02
<STATE> 3
<MEAN> 39
 1.400353e+00 -2.934062e+00 -1.187754e+01 -1.962631e+01 -1.483386e+01 8.807878e+00 -9.744912e+00 -9.802299e+00 5.366229e-01 -2.840914e+00 5.014522e+00 -5.101681e+00 6.932525e+01 4.738991e-02 -1.072580e-01 -3.466838e-01 -3.128808e-01 1.726716e-01 3.729478e-01 3.448937e-01 -1.098236e-01 1.901102e-02 4.987310e-02 1.228304e-01 -3.214034e-02 2.024920e-01 -1.849499e-01 1.157578e-01 3.571736e-01 7.247986e-01 3.723890e-01 -6.202005e-01 -1.003316e-01 1.073480e-01 -2.666915e-01 2.761427e-02 -4.478182e-01 6.886906e-02 -5.129141e-01
<VARIANCE> 39
 1.157519e+01 3.489310e+01 3.878461e+01 6.231020e+01 3.940683e+01 4.763377e+01 8.168340e+01 5.339821e+01 5.294586e+01 7.124244e+01 4.552932e+01 4.434885e+01 2.125410e+01 5.027874e-01 1.482071e+00 1.611567e+00 4.647329e+00 2.591379e+00 3.716574e+00 3.761388e+00 3.325289e+00 4.098121e+00 4.133211e+00 2.779363e+00 2.584881e+00 1.139987e+00 2.272920e-01 2.649058e-01 3.387394e-01 4.770077e-01 6.080908e-01 5.419305e-01 6.467247e-01 6.372038e-01 6.634504e-01 7.660782e-01 5.711250e-01 5.401059e-01 2.421107e-01
<GCONST> 1.218317e+02
<STATE> 4
<MEAN> 39
 1.130746e+00 -9.661019e-01 -1.085785e+01 -1.947282e+01 -1.121075e+01 5.461607e+00 -7.959280e+00 -7.827730e+00 -3.802477e+00 -1.916778e+00 5.183052e-01 -3.358943e+00 6.286335e+01 -8.887089e-02 1.783024e-01 3.318849e-01 1.028806e+00 4.016291e-01 -5.564542e-01 2.975100e-02 -1.315261e-02 -6.708592e-02 3.075791e-02 -4.876060e-01 -9.351441e-02 -1.133829e+00 -7.220011e-02 1.526646e-02 1.616810e-01 2.860440e-01 3.705477e-02 -1.081850e-01 -4.970273e-02 -4.486435e-02 3.812608e-02 -3.913414e-02 -5.304495e-02 -1.125539e-02 -2.013057e-01
<VARIANCE> 39
 1.818536e+01 3.669434e+01 5.216002e+01 7.352662e+01 5.028014e+01 4.355196e+01 7.707679e+01 5.404951e+01 5.619991e+01 6.882880e+01 4.772380e+01 4.376205e+01 9.398946e+01 7.089061e-01 1.445612e+00 1.610375e+00 3.076708e+00 2.384318e+00 2.483523e+00 2.503282e+00 2.413783e+00 2.713064e+00 2.484391e+00 2.399359e+00 2.020902e+00 2.801960e+00 1.251187e-01 2.299747e-01 2.596604e-01 3.749289e-01 4.006395e-01 3.964175e-01 4.692437e-01 4.240178e-01 4.738170e-01 4.642650e-01 3.898377e-01 3.800475e-01 3.100429e-01
<GCONST> 1.186990e+02
<TRANSP> 5
 0.000000e+00 1.000000e+00 0.000000e+00 0.000000e+00 0.000000e+00
 0.000000e+00 5.820640e-01 4.179360e-01 0.000000e+00 0.000000e+00
 0.000000e+00 0.000000e+00 7.191232e-01 2.808768e-01 0.000000e+00
 0.000000e+00 0.000000e+00 0.000000e+00 8.146199e-01 1.853801e-01
 0.000000e+00 0.000000e+00 0.000000e+00 0.000000e+00 0.000000e+00
<ENDHMM>
~h "p"
<BEGINHMM>
<NUMSTATES> 5
<STATE> 2
<MEAN> 39
 -1.001181e+01 1.561975e-01 -4.460383e+00 -3.876634e+00 -4.816851e+00 -3.171487e+00 -5.688442e+00 -5.174396e+00 -4.494098e+00 -3.406844e+00 -3.489100e+00 -3.348219e+00 3.597297e+01 -6.116314e-01 3.772546e-02 3.920388e-03 1.506602e-01 3.969908e-02 -2.347116e-01 1.057726e-01 2.203209e-01 1.086794e-01 2.593698e-02 6.165627e-02 2.057420e-01 -7.168169e-01 1.628481e-02 -1.593535e-01 -7.493712e-03 -4.601604e-02 -4.525771e-02 7.865189e-03 -5.448780e-02 -2.632953e-02 -3.064621e-07 -7.782743e-03 5.447298e-02 2.495408e-02 4.976399e-01
<VARIANCE> 39
 3.794343e+01 2.501050e+01 2.358518e+01 2.138961e+01 2.008276e+01 2.645827e+01 2.549698e+01 2.720390e+01 2.905396e+01 2.555956e+01 2.374101e+01 2.127020e+01 3.542013e+01 1.218302e+00 1.080771e+00 1.191988e+00 1.354329e+00 1.474344e+00 1.906708e+00 1.803574e+00 2.048609e+00 2.032822e+00 1.916860e+00 1.901703e+00 1.582281e+00 2.248596e+00 1.816820e-01 2.644706e-01 2.488035e-01 2.956390e-01 3.277434e-01 3.718026e-01 3.849445e-01 4.041003e-01 4.111173e-01 3.958102e-01 3.920843e-01 3.210531e-01 6.459397e-01
<GCONST> 1.064060e+02
<STATE> 3
<MEAN> 39
 -9.579483e+00 9.299260e-01 -2.972064e+00 -2.754285e+00 -4.893022e+00 -3.465173e+00 -5.554338e+00 -5.064288e+00 -3.915791e+00 -2.995926e+00 -3.111928e+00 -3.059823e+00 3.926293e+01 -2.002964e-01 -1.608463e+00 -4.469476e-01 -7.059029e-01 -3.896669e-01 -3.420464e-01 -6.135196e-01 -1.865963e-01 2.010355e-01 -7.106318e-02 6.112510e-01 3.016913e-01 4.863709e+00 9.651557e-01 -5.014618e-01 -3.793128e-01 -8.024737e-01 -5.025474e-01 4.350021e-01 -2.929606e-01 -2.447437e-01 4.082811e-02 2.952045e-02 2.514614e-01 -4.051337e-01 2.069594e+00
<VARIANCE> 39
 3.550553e+01 2.300396e+01 2.750075e+01 2.290414e+01 2.435455e+01 3.167367e+01 3.023700e+01 2.905143e+01 3.093304e+01 2.480068e+01 2.424792e+01 2.153138e+01 6.666582e+01 5.074320e+00 3.028576e+00 3.864471e+00 4.360411e+00 3.689383e+00 4.842914e+00 3.705380e+00 3.613911e+00 3.949521e+00 3.394473e+00 3.437488e+00 3.121626e+00 1.081067e+01 5.261130e-01 5.906410e-01 7.640194e-01 7.422199e-01 7.208958e-01 9.429088e-01 7.872284e-01 7.150283e-01 6.764657e-01 6.406689e-01 6.076980e-01 6.118150e-01 1.027602e+00
<GCONST> 1.292432e+02
<STATE> 4
<MEAN> 39
 -5.889582e+00 -5.490310e+00 -7.202375e+00 -8.899590e+00 -7.426756e+00 -2.531619e+00 -8.241397e+00 -7.040665e+00 -3.504572e+00 -2.458332e+00 -5.491946e-01 -3.776828e+00 6.017103e+01 2.737633e+00 -1.752365e+00 -1.393354e+00 -2.649968e+00 -1.162235e+00 1.480858e+00 -7.061388e-01 -5.831720e-01 4.958538e-01 2.232995e-01 8.259258e-01 -1.173778e+00 6.361585e+00 2.544746e-01 3.466587e-01 1.647182e-01 1.241573e-01 -5.096590e-02 2.239584e-01 9.761510e-02 1.226317e-01 1.385554e-01 -1.826381e-02 -2.253523e-01 -2.992142e-01 -1.019077e+00
<VARIANCE> 39
 5.508858e+01 2.570759e+01 3.455579e+01 6.359009e+01 2.816482e+01 6.301508e+01 3.680130e+01 3.020087e+01 2.849851e+01 3.018770e+01 2.999912e+01 2.964808e+01 6.497543e+01 4.782260e+00 5.361948e+00 7.143747e+00 7.559600e+00 6.440541e+00 7.892869e+00 6.554336e+00 4.997646e+00 4.796798e+00 4.532527e+00 4.812712e+00 5.024423e+00 1.103102e+01 1.218007e+00 7.458617e-01 7.760991e-01 1.347497e+00 1.050692e+00 1.208323e+00 7.460737e-01 8.096179e-01 8.325874e-01 6.801023e-01 7.738573e-01 6.913077e-01 1.202076e+00
<GCONST> 1.408343e+02
<TRANSP> 5
 0.000000e+00 1.000000e+00 0.000000e+00 0.000000e+00 0.000000e+00
 0.000000e+00 8.664550e-01 1.335450e-01 0.000000e+00 0.000000e+00
 0.000000e+00 0.000000e+00 5.648028e-01 4.351971e-01 0.000000e+00
 0.000000e+00 0.000000e+00 0.000000e+00 4.687690e-01 5.312310e-01
 0.000000e+00 0.000000e+00 0.000000e+00 0.000000e+00 0.000000e+00
<ENDHMM>
~h "q"
<BEGINHMM>
<NUMSTATES> 5
<STATE> 2
<MEAN> 39
 -1.078550e+01 3.561199e-02 4.016131e-01 -1.019130e+01 -9.942418e+00 -4.826163e+00 -1.325941e+01 -6.923582e+00 -8.433676e+00 -1.152992e+00 -4.162639e+00 -6.374195e+00 4.700690e+01 -2.502379e-01 -1.171587e-01 -7.117468e-01 -4.304286e-01 6.027449e-01 1.588018e-01 3.884345e-01 2.026862e-01 -1.027495e-01 -2.858684e-01 -2.911906e-01 2.736677e-01 -7.801768e-01 1.680795e-01 -2.446357e-02 7.518850e-02 1.942148e-02 -5.776909e-02 1.910880e-02 -9.346959e-02 8.605441e-02 -7.256637e-02 -2.696220e-01 1.168444e-01 -2.092468e-02 -3.388786e-02
<VARIANCE> 39
 6.064381e+01 3.922340e+01 9.461417e+01 1.624723e+02 4.736404e+01 4.471404e+01 5.411689e+01 4.640622e+01 1.823991e+01 1.839975e+01 2.436148e+01 3.120267e+01 8.129834e+01 3.164004e+00 3.337813e+00 9.702764e+00 4.133622e+00 5.630287e+00 2.126859e+00 2.909808e+00 2.764439e+00 2.389350e+00 2.693784e+00 4.503091e+00 2.857470e+00 9.059535e+00 5.937315e-01 8.212539e-01 1.768286e+00 7.261430e-01 1.063173e+00 3.968019e-01 5.244450e-01 5.700234e-01 5.069870e-01 4.904455e-01 7.850190e-01 5.523207e-01 1.151950e+00
<GCONST> 1.340383e+02
<STATE> 3
<MEAN> 39
 -1.244081e+01 1.660525e+00 2.004437e-02 -5.669942e+00 -7.332733e+00 -6.093879e+00 -1.050458e+01 -8.529613e+00 -9.596128e+00 -7.334388e+00 -5.925309e+00 -3.814051e+00 4.088335e+01 5.611601e-01 -1.021644e-01 -9.375718e-01 8.087771e-01 5.914459e-01 -5.014733e-02 8.764696e-01 6.440408e-01 8.794537e-01 -9.611726e-01 1.334209e-01 1.848982e-01 -1.839709e+00 -1.230403e-02 -1.293984e-01 2.643771e-02 -8.277366e-02 7.848328e-02 1.749327e-02 -1.200831e-01 1.313063e-01 3.373374e-01 5.403997e-01 1.757039e-01 7.640861e-02 3.914183e-01
<VARIANCE> 39
 2.898818e+01 3.652921e+01 5.646434e+01 1.117695e+02 2.016409e+01 4.401356e+01 1.975218e+01 4.222935e+01 3.351720e+01 1.655295e+01 3.398891e+01 1.762697e+01 7.976399e+01 2.759451e+00 1.838097e+00 1.238290e+00 7.744706e-01 2.106790e+00 8.652129e-01 2.107898e+00 2.725483e+00 2.722315e+00 2.114643e+00 1.956191e+00 2.267163e+00 2.549338e+00 3.598162e-01 2.412314e-01 2.445476e-01 2.061577e-01 3.625322e-01 1.049389e-01 3.289941e-01 3.830302e-01 7.175811e-01 3.955836e-01 1.080823e+00 2.042517e-01 3.540266e-01
<GCONST> 1.115262e+02
<STATE> 4
<MEAN> 39
 -1.422862e+01 -1.200108e+00 -4.766576e+00 -3.268978e+00 -4.868491e+00 -5.608538e+00 -6.924684e+00 -5.589679e+00 -6.221380e+00 -4.684269e+00 -3.039954e+00 -1.934940e+00 3.343724e+01 -4.321610e-03 -4.470775e-02 -9.602839e-03 -1.949377e-03 6.803600e-02 3.361160e-02 2.678707e-02 1.454152e-02 2.581787e-02 4.370401e-02 1.451159e-02 4.294875e-03 -3.573270e-02 -3.554233e-03 -7.330220e-06 1.767812e-02 -8.129346e-03 6.072446e-03 1.305487e-02 -8.509412e-03 -6.787891e-03 -4.228916e-03 3.478123e-03 -5.649645e-03 -1.772111e-02 3.595757e-02
<VARIANCE> 39
 1.071732e+01 1.625476e+01 1.167203e+01 1.782365e+01 1.352792e+01 1.999566e+01 2.414408e+01 2.172021e+01 1.945908e+01 2.065742e+01 1.964538e+01 1.555514e+01 1.951393e+01 4.057895e-01 9.027771e-01 6.862333e-01 9.609846e-01 1.320017e+00 1.588397e+00 1.886211e+00 1.903173e+00 1.666551e+00 1.535630e+00 1.943069e+00 1.558321e+00 5.660576e-01 8.208683e-02 1.766911e-01 1.284383e-01 1.908253e-01 2.595051e-01 3.262343e-01 3.752039e-01 3.986181e-01 3.467555e-01 3.132008e-01 3.803504e-01 3.252341e-01 9.876660e-02
<GCONST> 9.186783e+01
<TRANSP> 5
 0.000000e+00 1.000000e+00 0.000000e+00 0.000000e+00 0.000000e+00
 0.000000e+00 8.438759e-01 1.561241e-01 0.000000e+00 0.000000e+00
 0.000000e+00 0.000000e+00 3.620090e-01 6.379911e-01 0.000000e+00
 0.000000e+00 0.000000e+00 0.000000e+00 9.836945e-01 1.630549e-02
 0.000000e+00 0.000000e+00 0.000000e+00 0.000000e+00 0.000000e+00
<ENDHMM>
~h "r"
<BEGINHMM>
<NUMSTATES> 5
<STATE> 2
<MEAN> 39
 -2.631048e-01 -7.614972e+00 -9.148593e+00 -4.560360e+00 -1.106266e+01 -4.445683e+00 -1.188354e+01 -7.001367e+00 4.507990e+00 -3.777952e-01 -3.150051e+00 -7.504416e+00 6.682240e+01 4.707553e-01 3.239897e-02 3.232647e-01 1.074679e+00 2.179399e-02 -1.604417e-01 -1.116853e+00 -3.125155e-01 2.519612e-01 -1.376487e-02 1.453519e-01 1.885248e-01 -8.979141e-01 -9.921604e-02 6.643596e-02 1.372353e-01 -1.452800e-01 7.402638e-02 -6.822143e-03 2.121329e-01 1.269727e-01 -4.556780e-01 -7.571342e-02 1.296429e-01 3.707248e-02 -8.343007e-02
<VARIANCE> 39
 1.994706e+01 2.685570e+01 5.518749e+01 4.142736e+01 5.534216e+01 5.211108e+01 7.687672e+01 9.482053e+01 5.649869e+01 4.712269e+01 4.347249e+01 4.672698e+01 5.294989e+01 2.128126e+00 1.746688e+00 4.025656e+00 3.879744e+00 4.818953e+00 5.522669e+00 5.173384e+00 4.568460e+00 5.273226e+00 4.081639e+00 3.695256e+00 3.629896e+00 3.413345e+00 3.664852e-01 2.764100e-01 5.754940e-01 5.687051e-01 7.165434e-01 6.843273e-01 8.443444e-01 8.224996e-01 8.579423e-01 6.600478e-01 6.063927e-01 5.942557e-01 6.206159e-01
<GCONST> 1.328777e+02
<STATE> 3
<MEAN> 39
 -3.352997e-02 -5.830660e+00 -6.207297e+00 -1.860695e+00 -8.546255e+00 -7.430566e+00 -1.380364e+01 -5.674529e+00 1.236105e+00 -4.308982e-01 -1.681280e+00 -5.752590e+00 6.401492e+01 2.357312e-03 3.566801e-01 7.289769e-01 3.979872e-01 5.146480e-01 -5.341359e-01 3.046661e-02 2.744901e-01 -1.038974e+00 -6.426256e-02 1.944877e-01 4.030075e-01 -1.041565e+00 -2.115217e-01 3.467534e-02 3.249480e-02 -4.964360e-01 -2.123126e-01 3.391003e-01 3.780634e-01 1.842263e-01 -1.510105e-01 -1.271513e-01 -7.525516e-02 -1.284879e-01 1.677857e-01
<VARIANCE> 39
 2.028430e+01 2.547389e+01 4.964990e+01 3.707061e+01 6.386907e+01 9.186198e+01 6.985627e+01 9.209528e+01 5.639091e+01 4.220024e+01 4.299656e+01 4.491915e+01 4.937877e+01 1.770258e+00 2.003812e+00 3.215019e+00 3.215019e+00 4.723266e+00 6.732047e+00 4.893550e+00 4.680707e+00 5.204054e+00 3.380521e+00 3.333114e+00 3.539290e+00 3.360023e+00 3.891110e-01 4.098905e-01 5.988531e-01 7.010379e-01 1.171578e+00 1.532507e+00 9.735518e-01 9.575430e-01 1.129844e+00 7.970911e-01 8.553646e-01 7.677100e-01 8.478515e-01
<GCONST> 1.359901e+02
<STATE> 4
<MEAN> 39
 -5.197512e+00 -4.969944e+00 -5.764953e+00 -3.463233e+00 -5.463364e+00 -4.717695e+00 -1.089406e+01 -4.884527e+00 -6.124223e-01 -2.483410e+00 -2.879984e+00 -4.794658e+00 5.232146e+01 -2.313253e-01 1.387911e-01 2.496998e-01 -1.313240e-01 -1.675551e-01 1.221428e-01 2.676262e-01 1.538835e-01 -3.954631e-01 -1.670795e-01 1.998888e-02 5.208099e-02 -4.865009e-01 1.580252e-02 -5.758910e-02 -5.281004e-02 -1.039823e-01 -1.986397e-01 8.175216e-02 1.199102e-01 -4.510656e-02 -9.734810e-04 -1.854599e-02 1.177858e-02 -9.997892e-02 2.451302e-01
<VARIANCE> 39
 5.414720e+01 3.651216e+01 4.664635e+01 3.417902e+01 5.157817e+01 5.366651e+01 6.280178e+01 5.930631e+01 4.442226e+01 4.419719e+01 3.960657e+01 3.577169e+01 1.677111e+02 2.222441e+00 2.541033e+00 2.951267e+00 2.294331e+00 3.564239e+00 3.406173e+00 3.108514e+00 3.534542e+00 3.849748e+00 2.778448e+00 2.947825e+00 2.576488e+00 4.816362e+00 4.322339e-01 4.028257e-01 5.199305e-01 4.901660e-01 6.544704e-01 6.477301e-01 6.618547e-01 6.265627e-01 6.106195e-01 5.836297e-01 5.612897e-01 4.820896e-01 5.489732e-01
<GCONST> 1.294645e+02
<TRANSP> 5
 0.000000e+00 1.000000e+00 0.000000e+00 0.000000e+00 0.000000e+00
 0.000000e+00 4.965398e-01 5.034602e-01 0.000000e+00 0.000000e+00
 0.000000e+00 0.000000e+00 4.004003e-01 5.995997e-01 0.000000e+00
 0.000000e+00 0.000000e+00 0.000000e+00 6.745002e-01 3.254997e-01
 0.000000e+00 0.000000e+00 0.000000e+00 0.000000e+00 0.000000e+00
<ENDHMM>
~h "s"
<BEGINHMM>
<NUMSTATES> 5
<STATE> 2
<MEAN> 39
 -1.397172e+01 2.974659e+00 -2.383576e+00 -3.259282e+00 -2.762067e+00 -6.452867e+00 -6.633375e+00 -2.837634e+00 -1.975656e+00 -2.608773e+00 -3.576236e+00 -2.223859e+00 6.046691e+01 -4.305273e+00 1.686003e+00 -1.007458e-01 2.136383e-01 1.785255e+00 -2.204724e-02 8.979499e-01 1.159087e+00 1.851668e-01 -8.448943e-02 6.696166e-01 7.423632e-01 -1.951108e-01 -3.430237e-01 -3.298666e-01 -3.308716e-01 -2.167139e-01 -3.185166e-01 2.111625e-01 -7.146764e-03 -1.069161e-01 -3.216731e-03 2.714887e-02 2.039417e-01 -7.733613e-02 -2.387863e-03
<VARIANCE> 39
 8.306225e+01 4.284749e+01 4.956587e+01 3.724641e+01 5.291914e+01 4.886460e+01 7.482885e+01 4.853960e+01 4.157927e+01 3.713508e+01 4.095374e+01 2.887110e+01 1.201221e+02 4.166900e+00 4.320799e+00 4.210087e+00 3.557271e+00 4.914203e+00 4.240490e+00 4.399783e+00 4.563564e+00 3.727308e+00 2.809518e+00 3.528924e+00 2.740212e+00 3.173008e+00 1.081060e+00 7.713179e-01 4.864363e-01 4.837536e-01 7.581114e-01 6.129382e-01 7.285722e-01 7.378215e-01 6.026469e-01 5.060872e-01 5.761701e-01 4.829463e-01 2.967381e-01
<GCONST> 1.333454e+02
<STATE> 3
<MEAN> 39
 -3.110001e+01 4.934383e+00 -6.019716e+00 -4.388493e+00 1.705365e-01 -4.281683e+00 -4.066230e+00 -3.634613e-01 -5.727856e-01 -1.845835e+00 5.317840e-01 4.899429e-02 5.955301e+01 -6.661999e-01 -3.577791e-01 -3.745883e-01 -1.810990e-01 -2.023167e-01 -7.865989e-03 6.901564e-02 4.226945e-02 6.123258e-02 8.515625e-02 1.627782e-01 1.501409e-01 -1.898742e-01 8.291560e-01 -2.027288e-01 1.701696e-01 -1.528849e-02 -2.074684e-01 -1.523394e-01 -1.858182e-01 -1.495242e-01 -3.935350e-02 -5.242150e-02 -1.768839e-01 -1.373242e-01 5.035240e-02
<VARIANCE> 39
 2.259386e+01 1.689440e+01 3.079823e+01 3.958390e+01 3.371492e+01 4.022910e+01 5.040849e+01 2.647844e+01 2.442801e+01 1.951509e+01 2.122992e+01 1.727605e+01 3.358965e+01 2.713519e+00 1.354291e+00 1.586049e+00 1.301523e+00 1.550785e+00 1.739211e+00 1.712774e+00 1.746917e+00 1.696057e+00 1.609940e+00 1.569857e+00 1.363694e+00 6.922764e-01 4.933327e-01 2.448087e-01 2.938619e-01 2.795358e-01 3.427169e-01 3.365853e-01 3.671888e-01 3.836255e-01 3.417628e-01 3.142855e-01 3.193545e-01 2.864938e-01 1.168958e-01
<GCONST> 1.047331e+02
<STATE> 4
<MEAN> 39
 -2.140300e+01 7.236839e-01 -5.569591e+00 -4.937664e+00 -3.177748e+00 -7.230169e+00 -6.289105e+00 -2.006187e+00 -1.263909e+00 -2.508879e+00 -2.166996e+00 -1.349451e+00 5.626028e+01 3.946039e+00 -7.468806e-01 5.581911e-01 -2.026123e-01 -1.005572e+00 -2.148261e-01 -1.160710e+00 -1.083875e+00 -3.534135e-02 -1.123193e-01 -7.466272e-01 -1.023810e+00 2.051582e-01 6.059274e-01 -3.124630e-03 1.199383e-01 -3.925065e-02 -1.483061e-01 2.871032e-01 -1.665424e-01 -2.237249e-01 -8.573285e-03 4.697687e-02 5.233155e-02 -2.037150e-01 2.516906e-01
<VARIANCE> 39
 7.963681e+01 2.880881e+01 3.757137e+01 3.397875e+01 3.469424e+01 4.303197e+01 5.852205e+01 3.613621e+01 3.300677e+01 2.755765e+01 3.042551e+01 2.445273e+01 1.225182e+02 8.968192e+00 3.222181e+00 3.862481e+00 3.259292e+00 3.770214e+00 4.252767e+00 4.461628e+00 4.423825e+00 3.893025e+00 2.598880e+00 2.820941e+00 2.887587e+00 5.268772e+00 1.387787e+00 5.045009e-01 5.101879e-01 4.796371e-01 5.868710e-01 7.223068e-01 7.732252e-01 7.993099e-01 6.344229e-01 5.192322e-01 5.599321e-01 5.066980e-01 5.250595e-01
<GCONST> 1.313751e+02
<TRANSP> 5
 0.000000e+00 1.000000e+00 0.000000e+00 0.000000e+00 0.000000e+00
 0.000000e+00 7.443160e-01 2.556840e-01 0.000000e+00 0.000000e+00
 0.000000e+00 0.000000e+00 8.567604e-01 1.432396e-01 0.000000e+00
 0.000000e+00 0.000000e+00 0.000000e+00 7.512626e-01 2.487373e-01
 0.000000e+00 0.000000e+00 0.000000e+00 0.000000e+00 0.000000e+00
<ENDHMM>
~h "t"
<BEGINHMM>
<NUMSTATES> 5
<STATE> 2
<MEAN> 39
 -9.735924e+00 2.343235e-01 -4.518887e+00 -3.648489e+00 -5.044566e+00 -4.783774e+00 -6.942606e+00 -4.897832e+00 -3.065152e+00 -2.843427e+00 -3.937575e+00 -3.985371e+00 3.769596e+01 -5.394253e-01 1.693553e-02 1.931359e-02 5.998361e-02 1.457621e-02 9.799183e-03 2.954096e-01 2.409305e-01 -8.999355e-02 -9.365127e-03 1.061454e-01 2.429600e-01 -1.092102e+00 -8.184884e-02 -1.987921e-01 -3.727385e-02 -9.058512e-02 -4.078342e-02 -1.646622e-02 -3.039788e-02 7.926476e-03 2.141290e-02 -2.280729e-02 6.499048e-02 3.420689e-02 5.880464e-01
<VARIANCE> 39
 4.001422e+01 2.635032e+01 2.712445e+01 2.529528e+01 2.352078e+01 2.747579e+01 3.368113e+01 3.376380e+01 3.472399e+01 2.927325e+01 2.992556e+01 2.642980e+01 5.318896e+01 1.404845e+00 1.298252e+00 1.376632e+00 1.552569e+00 1.894314e+00 1.861334e+00 2.079851e+00 2.241394e+00 2.128441e+00 1.956700e+00 2.036550e+00 1.769675e+00 3.679626e+00 2.658610e-01 3.396075e-01 3.067228e-01 3.474356e-01 4.185977e-01 3.837277e-01 4.120864e-01 4.460054e-01 4.465233e-01 4.073187e-01 4.225025e-01 3.635655e-01 8.130841e-01
<GCONST> 1.124682e+02
<STATE> 3
<MEAN> 39
 -1.006180e+01 1.426345e+00 -2.568647e+00 -2.591884e+00 -5.358619e+00 -5.047509e+00 -6.633488e+00 -4.978579e+00 -3.112879e+00 -2.279850e+00 -3.528514e+00 -3.627529e+00 3.907749e+01 -1.410199e+00 -1.861568e+00 -6.217806e-01 -9.996256e-01 7.197587e-02 -4.668702e-01 -1.255109e-01 2.401942e-01 2.272499e-04 -3.346399e-01 4.342839e-01 4.658956e-01 4.025765e+00 5.334135e-01 -3.411977e-01 -2.527061e-01 -3.554928e-01 -3.898365e-01 -1.091104e-01 -3.825055e-01 -2.436077e-01 2.435925e-01 2.172787e-02 -3.474823e-02 -3.194644e-01 2.168037e+00
<VARIANCE> 39
 4.124257e+01 2.813182e+01 3.816178e+01 2.814804e+01 3.369369e+01 3.457988e+01 3.627472e+01 3.539040e+01 3.548665e+01 2.698159e+01 3.113231e+01 2.356002e+01 6.419624e+01 4.106187e+00 3.331657e+00 4.154710e+00 3.449292e+00 4.382031e+00 4.104584e+00 4.049744e+00 4.303517e+00 4.374841e+00 3.176933e+00 3.766578e+00 3.257746e+00 1.300980e+01 6.583933e-01 5.965700e-01 7.911188e-01 5.836182e-01 8.035524e-01 7.236493e-01 7.502366e-01 7.862849e-01 8.481803e-01 5.824405e-01 6.145920e-01 6.190021e-01 1.241429e+00
<GCONST> 1.320532e+02
<STATE> 4
<MEAN> 39
 -1.267973e+01 -5.735735e+00 -6.224714e+00 -7.325578e+00 -6.547866e+00 -7.837543e+00 -8.490670e+00 -4.785970e+00 -2.077326e+00 -2.951610e+00 -2.849678e+00 -3.081304e+00 5.915901e+01 1.634578e+00 -8.435602e-01 -6.404002e-01 -1.110104e+00 -1.032480e+00 -1.097877e-01 -1.219148e+00 -6.450304e-01 8.062590e-01 4.301193e-02 1.196646e-01 -1.057850e+00 6.264148e+00 1.010429e+00 5.733181e-01 2.860881e-01 1.596917e-01 -2.806944e-01 5.626052e-01 -1.232066e-01 -2.292653e-01 1.494320e-02 1.127331e-01 -2.307667e-03 -4.026279e-01 -8.339884e-01
<VARIANCE> 39
 3.872940e+01 2.400712e+01 3.041004e+01 2.892449e+01 3.058909e+01 3.534861e+01 3.867064e+01 3.124169e+01 3.538758e+01 2.871123e+01 2.928743e+01 3.132335e+01 8.610085e+01 5.386178e+00 4.421326e+00 7.459515e+00 4.923387e+00 6.027144e+00 5.460007e+00 5.595949e+00 5.343327e+00 7.458796e+00 3.806724e+00 4.542374e+00 4.757369e+00 1.248795e+01 8.135219e-01 6.662098e-01 9.262539e-01 6.822177e-01 9.810299e-01 1.001075e+00 9.954927e-01 9.348504e-01 9.527692e-01 7.051216e-01 8.039432e-01 8.192852e-01 1.574684e+00
<GCONST> 1.386617e+02
<TRANSP> 5
 0.000000e+00 1.000000e+00 0.000000e+00 0.000000e+00 0.000000e+00
 0.000000e+00 8.490319e-01 1.509681e-01 0.000000e+00 0.000000e+00
 0.000000e+00 0.000000e+00 5.214961e-01 4.785039e-01 0.000000e+00
 0.000000e+00 0.000000e+00 0.000000e+00 4.886397e-01 5.113603e-01
 0.000000e+00 0.000000e+00 0.000000e+00 0.000000e+00 0.000000e+00
<ENDHMM>
~h "u"
<BEGINHMM>
<NUMSTATES> 5
<STATE> 2
<MEAN> 39
 -9.216048e-01 1.734396e+00 -3.773983e+00 -8.319499e+00 -1.136086e+01 -2.194130e-01 -1.569710e+01 -9.762977e+00 -6.299859e+00 -2.496709e+00 -6.453215e-01 -3.454413e+00 5.978698e+01 2.197148e+00 1.022847e+00 -4.190119e-01 -1.911746e+00 -1.945699e+00 2.142958e+00 -1.237892e+00 -1.157290e+00 -7.849057e-01 -1.467450e-01 1.158586e+00 -2.848146e-02 1.305430e+00 -3.484197e-01 8.806352e-02 1.106384e-01 -1.284886e-01 4.446754e-02 2.356883e-01 4.190970e-01 1.766882e-01 -4.906075e-02 -1.376521e-01 1.619330e-03 8.057439e-02 -4.441328e-01
<VARIANCE> 39
 3.707613e+01 3.646314e+01 4.714663e+01 7.186662e+01 5.555397e+01 5.028156e+01 8.372803e+01 7.455964e+01 6.420705e+01 5.104416e+01 4.147513e+01 3.137135e+01 1.071880e+02 5.116952e+00 3.511242e+00 4.768883e+00 5.088716e+00 5.991823e+00 5.314027e+00 5.452340e+00 7.129498e+00 5.333724e+00 4.998310e+00 4.384784e+00 3.628103e+00 5.079010e+00 8.640413e-01 6.360407e-01 5.594028e-01 9.085128e-01 9.188944e-01 8.534966e-01 1.098028e+00 1.121497e+00 8.514548e-01 7.632334e-01 6.896443e-01 5.953323e-01 1.143128e+00
<GCONST> 1.420052e+02
<STATE> 3
<MEAN> 39
 2.749312e+00 4.358905e+00 -5.721516e+00 -1.428010e+01 -1.740096e+01 8.532912e+00 -1.676317e+01 -1.278002e+01 -7.948793e+00 -5.941745e+00 3.618312e+00 -2.082081e+00 6.403960e+01 1.989844e-01 1.651241e-01 -1.500662e-01 -4.730016e-01 -1.220172e-01 5.840379e-01 1.483347e-01 -2.225196e-01 -2.160713e-01 2.019867e-02 2.584997e-01 9.047017e-02 -1.003015e-03 -3.371566e-01 -2.469918e-01 2.177480e-01 6.854640e-01 7.001645e-01 -7.926682e-01 2.781776e-01 2.945885e-01 2.660409e-01 2.274502e-01 -5.251651e-01 -1.605728e-01 -3.895741e-01
<VARIANCE> 39
 1.285074e+01 3.443609e+01 3.769417e+01 6.339742e+01 4.497285e+01 4.006192e+01 7.396455e+01 8.147408e+01 7.404961e+01 6.574496e+01 4.860710e+01 4.137742e+01 2.509637e+01 7.386672e-01 2.931946e+00 1.782945e+00 5.212469e+00 4.186190e+00 4.149100e+00 4.254356e+00 5.989775e+00 4.438118e+00 4.841385e+00 3.957267e+00 3.026461e+00 2.092103e+00 2.871920e-01 3.975551e-01 4.178447e-01 6.145492e-01 7.187011e-01 6.700776e-01 8.435308e-01 1.047998e+00 8.338087e-01 8.389065e-01 8.146440e-01 6.409391e-01 3.039518e-01
<GCONST> 1.298704e+02
<STATE> 4
<MEAN> 39
 2.365090e+00 5.334217e+00 -5.163875e+00 -1.413232e+01 -1.324162e+01 3.439956e+00 -1.476867e+01 -9.543639e+00 -8.773022e+00 -3.893812e+00 -1.408773e-01 -3.034090e+00 5.896103e+01 -3.199875e-01 -1.727767e-01 3.473517e-01 1.053676e+00 8.703711e-01 -9.290856e-01 5.484822e-01 1.333907e-01 4.640778e-01 2.949733e-01 -5.577347e-01 -2.450659e-01 -1.100610e+00 -1.915043e-01 -8.990118e-02 1.067837e-01 2.356285e-01 7.743449e-02 -1.027871e-01 7.110078e-02 -8.372398e-03 1.146936e-01 -5.800792e-02 -6.016281e-02 1.430645e-02 -1.265689e-01
<VARIANCE> 39
 1.693603e+01 3.878109e+01 4.282600e+01 7.132726e+01 5.204569e+01 4.640653e+01 7.077504e+01 7.650333e+01 6.953713e+01 6.364484e+01 4.290036e+01 4.125864e+01 7.149054e+01 9.850262e-01 2.184129e+00 2.187098e+00 3.416234e+00 3.610809e+00 3.296795e+00 3.443464e+00 3.510998e+00 3.356328e+00 3.044568e+00 3.303142e+00 2.708485e+00 3.692289e+00 1.908607e-01 3.666446e-01 3.207910e-01 5.127141e-01 5.368588e-01 5.030358e-01 6.079562e-01 7.054045e-01 5.688744e-01 6.129768e-01 5.371841e-01 4.928730e-01 3.650648e-01
<GCONST> 1.262767e+02
<TRANSP> 5
 0.000000e+00 1.000000e+00 0.000000e+00 0.000000e+00 0.000000e+00
 0.000000e+00 5.552925e-01 4.447074e-01 0.000000e+00 0.000000e+00
 0.000000e+00 0.000000e+00 7.063516e-01 2.936484e-01 0.000000e+00
 0.000000e+00 0.000000e+00 0.000000e+00 7.603220e-01 2.396780e-01
 0.000000e+00 0.000000e+00 0.000000e+00 0.000000e+00 0.000000e+00
<ENDHMM>
~h "w"
<BEGINHMM>
<NUMSTATES> 5
<STATE> 2
<MEAN> 39
 5.992876e-01 -5.867869e-01 -5.897678e+00 -1.307973e+01 -1.082389e+01 3.100030e+00 -1.114221e+01 -7.160545e+00 -5.766628e+00 -1.690555e+00 -7.232589e-02 -4.280463e+00 5.760554e+01 1.448387e+00 1.119280e+00 2.740705e-04 -1.763017e+00 -1.198437e+00 1.226658e+00 -2.309858e-01 -1.994500e-01 -9.533302e-01 -4.673392e-01 6.488798e-01 6.370152e-01 3.548968e-01 -1.603886e-01 -6.833091e-02 1.439254e-01 -4.321739e-03 -1.499842e-01 -2.141761e-01 1.119116e-01 2.295653e-01 1.125707e-01 -1.839845e-01 -1.205242e-01 3.338835e-02 4.773238e-02
<VARIANCE> 39
 3.998489e+01 5.652477e+01 4.478281e+01 9.153831e+01 4.899582e+01 6.135205e+01 6.916385e+01 5.589642e+01 6.026381e+01 6.206739e+01 5.182495e+01 3.797940e+01 1.568800e+02 2.686295e+00 2.780341e+00 2.952597e+00 3.986788e+00 4.314913e+00 4.279209e+00 4.024043e+00 4.042371e+00 3.865905e+00 3.683181e+00 3.521480e+00 3.623402e+00 4.793872e+00 5.733289e-01 5.569444e-01 4.289729e-01 7.445857e-01 7.643222e-01 6.873259e-01 7.355466e-01 7.012635e-01 7.260305e-01 7.287112e-01 6.660134e-01 5.619045e-01 3.834321e-01
<GCONST> 1.356389e+02
<STATE> 3
<MEAN> 39
 5.306402e+00 3.103767e+00 -5.993677e+00 -2.224050e+01 -1.708584e+01 6.753964e+00 -1.173449e+01 -5.420825e+00 -5.937160e+00 -4.962166e+00 6.256294e-01 -1.847958e+00 6.226683e+01 -1.325512e-02 -3.350558e-01 -2.298244e-01 -4.761963e-01 -3.305009e-02 2.261597e-01 1.642553e-01 -1.353630e-01 1.227252e-01 1.114494e-01 2.368475e-01 1.320857e-01 4.209842e-01 -2.784654e-01 -4.965106e-01 -2.208105e-01 3.330971e-01 5.009525e-01 -6.285986e-02 9.305025e-02 -1.780635e-01 2.309914e-01 3.164402e-01 1.989221e-02 -3.589140e-01 2.958067e-01
<VARIANCE> 39
 1.117736e+01 3.782686e+01 3.829703e+01 5.843666e+01 3.609067e+01 4.468996e+01 5.361430e+01 4.246222e+01 5.953035e+01 4.834288e+01 3.882159e+01 3.493623e+01 3.835075e+01 5.224436e-01 2.655071e+00 1.801490e+00 2.227628e+00 2.642752e+00 2.289226e+00 2.291194e+00 2.396875e+00 2.179106e+00 2.583743e+00 2.324525e+00 2.137807e+00 1.928293e+00 7.926434e-02 1.714474e-01 2.194511e-01 3.802689e-01 3.505436e-01 4.825471e-01 3.803645e-01 4.061275e-01 3.957278e-01 3.763128e-01 4.215460e-01 4.911767e-01 1.310745e-01
<GCONST> 1.126481e+02
<STATE> 4
<MEAN> 39
 2.318519e+00 -5.956676e+00 -1.102735e+01 -2.136798e+01 -9.376454e+00 8.655024e+00 -9.034700e+00 -8.949770e+00 -2.571940e+00 1.683428e-01 2.583949e+00 -6.460109e+00 6.906306e+01 -1.070583e+00 -1.943586e+00 -8.422908e-01 1.678199e+00 2.012531e+00 -8.221439e-01 2.339357e-01 -2.553969e-01 1.364318e+00 6.666144e-01 -9.091198e-01 -2.238693e+00 1.340108e+00 -2.245017e-02 2.540736e-01 3.382293e-01 5.016543e-01 -2.517233e-01 -5.845544e-01 -1.291917e-01 3.714492e-01 8.604025e-02 -4.262336e-01 -4.998322e-01 1.265734e-02 -2.636236e-01
<VARIANCE> 39
 1.445333e+01 3.504578e+01 4.177000e+01 6.065677e+01 4.611328e+01 4.936615e+01 6.492269e+01 3.665265e+01 5.808064e+01 5.341783e+01 4.832084e+01 5.003475e+01 2.668450e+01 3.561380e-01 1.302671e+00 1.708514e+00 2.447188e+00 2.611939e+00 3.237152e+00 2.735458e+00 2.682622e+00 2.508005e+00 2.644770e+00 2.834141e+00 2.515491e+00 7.323664e-01 8.957803e-02 1.941611e-01 1.799947e-01 3.394352e-01 4.842713e-01 4.413637e-01 4.252505e-01 4.600475e-01 4.083507e-01 4.307987e-01 4.493651e-01 6.404883e-01 1.023094e-01
<GCONST> 1.134126e+02
<TRANSP> 5
 0.000000e+00 1.000000e+00 0.000000e+00 0.000000e+00 0.000000e+00
 0.000000e+00 6.939417e-01 3.060583e-01 0.000000e+00 0.000000e+00
 0.000000e+00 0.000000e+00 8.062966e-01 1.937033e-01 0.000000e+00
 0.000000e+00 0.000000e+00 0.000000e+00 6.647261e-01 3.352739e-01
 0.000000e+00 0.000000e+00 0.000000e+00 0.000000e+00 0.000000e+00
<ENDHMM>
~h "y"
<BEGINHMM>
<NUMSTATES> 5
<STATE> 2
<MEAN> 39
 -8.169130e+00 -4.585015e-01 6.448826e+00 -5.143788e+00 -1.504676e+01 -6.015820e+00 -9.678913e+00 -4.028461e+00 -7.012938e+00 -3.675542e+00 2.178403e-01 -4.777379e+00 5.645565e+01 9.454961e-02 7.037073e-01 2.250693e+00 -4.042441e-02 -1.624383e+00 -3.402636e-01 -8.589743e-01 -7.049253e-01 -1.223372e+00 -2.796557e-02 1.306625e+00 1.561715e-01 9.844104e-01 6.022695e-02 -1.282409e-01 -2.844826e-01 -9.232725e-02 1.755445e-01 1.579760e-01 -5.415283e-02 -1.135039e-01 1.124135e-01 -2.966232e-02 -6.338938e-02 -1.427712e-02 9.453553e-02
<VARIANCE> 39
 4.215705e+01 5.868927e+01 8.588521e+01 4.521138e+01 7.594044e+01 6.790294e+01 6.326389e+01 7.427806e+01 6.533674e+01 4.862073e+01 3.964086e+01 3.005127e+01 2.080011e+02 2.958416e+00 3.230357e+00 5.062443e+00 3.027033e+00 4.886032e+00 4.034780e+00 3.982805e+00 4.560196e+00 4.223762e+00 3.824755e+00 3.476578e+00 2.744742e+00 6.398373e+00 4.013079e-01 5.343090e-01 9.122695e-01 5.296599e-01 9.574494e-01 7.784743e-01 7.235900e-01 9.294730e-01 7.637290e-01 6.055230e-01 5.960937e-01 4.541456e-01 6.348873e-01
<GCONST> 1.375137e+02
<STATE> 3
<MEAN> 39
 -5.954535e+00 -1.616056e+00 1.178842e+01 -7.400936e+00 -2.220506e+01 -8.820390e+00 -1.268862e+01 -5.091739e+00 -8.815940e+00 -2.958668e+00 5.138457e+00 -3.953338e+00 6.764561e+01 1.944872e-01 -7.964548e-01 -8.430495e-01 -3.960202e-01 -2.567023e-01 -3.869116e-01 3.364092e-01 8.555538e-01 7.888476e-01 1.392940e-01 1.286192e-01 1.318453e-02 6.945716e-01 1.000567e-01 -3.363485e-01 -7.034769e-01 -6.611705e-02 4.055402e-01 8.559719e-02 3.098264e-01 4.555040e-01 5.012669e-01 -1.016389e-01 -4.889112e-01 -2.230714e-01 6.479363e-02
<VARIANCE> 39
 1.036601e+01 3.098771e+01 4.981293e+01 3.856316e+01 3.537988e+01 4.958801e+01 4.772066e+01 5.554276e+01 5.813005e+01 4.617210e+01 4.052611e+01 3.596379e+01 4.607189e+01 4.655586e-01 2.502299e+00 3.927121e+00 1.454118e+00 1.859159e+00 1.980953e+00 2.831769e+00 4.443672e+00 4.082518e+00 1.758856e+00 2.121301e+00 1.456905e+00 1.485874e+00 6.846020e-02 1.867465e-01 2.062472e-01 2.220363e-01 4.625070e-01 4.217948e-01 3.843006e-01 4.569563e-01 3.997041e-01 4.402943e-01 4.484433e-01 2.977827e-01 1.324534e-01
<GCONST> 1.120097e+02
<STATE> 4
<MEAN> 39
 -1.065694e+01 -3.014264e+00 -3.710895e-01 -6.031808e+00 -9.094086e+00 -5.168306e+00 -8.688940e+00 -3.632208e+00 -5.531969e+00 -4.225627e+00 -1.194312e+00 -2.896897e+00 4.529911e+01 1.140672e-01 -3.091369e-01 -4.936498e-01 -1.144849e-01 3.187308e-01 1.009417e-01 1.794680e-01 3.865399e-01 3.990503e-01 -1.384502e-01 -4.052352e-01 -2.075935e-01 2.962202e-01 6.710407e-03 4.085080e-02 -1.732671e-02 2.687986e-02 1.428858e-01 1.167986e-01 -3.743593e-02 -1.150785e-01 -4.892299e-02 -4.963668e-02 -1.095252e-01 -5.163141e-02 -1.788331e-02
<VARIANCE> 39
 2.682005e+01 3.832413e+01 6.212057e+01 3.386227e+01 6.690017e+01 3.638390e+01 5.071777e+01 4.328576e+01 4.579622e+01 3.140671e+01 3.092305e+01 2.113970e+01 2.340654e+02 6.488814e-01 1.666237e+00 3.379199e+00 1.316282e+00 2.310609e+00 1.765767e+00 2.484655e+00 2.769348e+00 2.945518e+00 2.174349e+00 2.714003e+00 1.716749e+00 1.344257e+00 1.152414e-01 1.784464e-01 2.282929e-01 2.583788e-01 4.405333e-01 4.056522e-01 3.562098e-01 4.479570e-01 4.004907e-01 3.778376e-01 3.833298e-01 3.041993e-01 1.449490e-01
<GCONST> 1.133212e+02
<TRANSP> 5
 0.000000e+00 1.000000e+00 0.000000e+00 0.000000e+00 0.000000e+00
 0.000000e+00 7.216072e-01 2.783927e-01 0.000000e+00 0.000000e+00
 0.000000e+00 0.000000e+00 8.033004e-01 1.966996e-01 0.000000e+00
 0.000000e+00 0.000000e+00 0.000000e+00 8.104799e-01 1.895201e-01
 0.000000e+00 0.000000e+00 0.000000e+00 0.000000e+00 0.000000e+00
<ENDHMM>
~h "z"
<BEGINHMM>
<NUMSTATES> 5
<STATE> 2
<MEAN> 39
 -8.517176e+00 6.493688e+00 8.206755e-01 -2.508788e-01 -5.708206e+00 -1.064092e+01 -1.136017e+01 -4.738420e+00 -2.175589e+00 -3.951477e+00 -5.205900e+00 -5.779725e-01 6.109010e+01 -2.120542e+00 2.406512e+00 -6.387433e-03 6.238796e-01 1.824222e+00 -2.418243e-01 6.218079e-01 3.373329e-01 1.510536e-02 -2.834951e-01 7.430241e-02 6.182882e-01 -1.404386e-01 -3.571425e-01 -6.280284e-02 -1.594987e-01 -1.852570e-01 1.682209e-02 3.835387e-01 2.094983e-01 1.365625e-01 -1.751472e-04 7.030661e-02 2.102806e-01 -1.844328e-01 -1.594108e-02
<VARIANCE> 39
 4.632399e+01 4.458797e+01 4.434871e+01 4.568653e+01 5.212410e+01 4.639387e+01 5.783230e+01 4.527986e+01 4.913171e+01 4.570679e+01 3.325533e+01 2.580721e+01 1.220490e+02 3.845908e+00 2.617307e+00 2.998116e+00 2.850663e+00 3.526800e+00 3.621849e+00 3.953547e+00 4.509299e+00 3.608097e+00 2.788216e+00 3.180146e+00 2.487138e+00 3.619024e+00 4.780869e-01 5.129351e-01 4.102695e-01 4.036549e-01 6.456259e-01 5.430200e-01 7.555690e-01 6.366071e-01 6.043507e-01 5.356817e-01 4.614970e-01 4.740177e-01 3.845221e-01
<GCONST> 1.288201e+02
<STATE> 3
<MEAN> 39
 -2.179350e+01 1.371668e+01 2.328834e-01 9.832132e-01 1.151151e+00 -7.828855e+00 -8.014507e+00 -2.933741e+00 -2.250577e+00 -4.567967e+00 -2.315205e+00 -4.787350e-02 6.280392e+01 -6.117889e-01 -3.924986e-01 1.146046e-01 4.812784e-02 -2.096526e-01 7.644369e-02 1.675929e-02 4.390187e-03 -1.467191e-01 4.733025e-02 3.070282e-01 5.267504e-02 3.431226e-01 7.089585e-01 -5.374683e-01 6.536565e-02 -1.465695e-01 -5.626693e-01 -1.409129e-01 -2.437776e-01 -1.929414e-01 2.407752e-02 2.214340e-02 -4.900675e-02 -6.510492e-02 1.831590e-01
<VARIANCE> 39
 4.457735e+01 2.122135e+01 4.028262e+01 4.562159e+01 3.458251e+01 3.869866e+01 4.428617e+01 2.768660e+01 2.624507e+01 2.623551e+01 2.246739e+01 1.606514e+01 2.831959e+01 4.413931e+00 2.300616e+00 1.549822e+00 1.545201e+00 2.910958e+00 2.332159e+00 2.351149e+00 2.048670e+00 2.018388e+00 1.515292e+00 1.500110e+00 1.350064e+00 1.210118e+00 3.912990e-01 2.496535e-01 2.767155e-01 3.030234e-01 4.028379e-01 3.870327e-01 4.090439e-01 4.085944e-01 3.973070e-01 3.117284e-01 2.911646e-01 2.945830e-01 1.400286e-01
<GCONST> 1.098536e+02
<STATE> 4
<MEAN> 39
 -1.831732e+01 2.175366e+00 -2.647562e+00 -2.675101e+00 -3.650426e+00 -5.333379e+00 -7.133721e+00 -2.267138e+00 -1.587737e+00 -4.240939e+00 -2.064885e+00 -9.200165e-01 5.055103e+01 1.433151e+00 -8.448752e-01 3.347662e-02 -2.342714e-01 -1.041457e+00 -2.624746e-01 -5.662935e-01 -3.294902e-01 2.208148e-01 7.596287e-02 -7.886742e-02 -2.375668e-01 3.694717e-01 2.198060e-01 -3.108280e-02 3.297696e-03 -5.207750e-02 -6.905851e-02 1.364081e-01 -2.879368e-02 -1.347244e-02 6.823951e-03 -4.491042e-03 -5.140444e-03 -1.698170e-01 2.270627e-02
<VARIANCE> 39
 9.416688e+01 4.172383e+01 4.362983e+01 3.405779e+01 2.755655e+01 5.186109e+01 5.123703e+01 2.951535e+01 3.564671e+01 2.697361e+01 2.992760e+01 1.923241e+01 2.332708e+02 6.871602e+00 3.346306e+00 2.050938e+00 2.401236e+00 4.279593e+00 2.574240e+00 2.952523e+00 3.339309e+00 2.932175e+00 2.213163e+00 1.867300e+00 1.952900e+00 2.545208e+00 5.852106e-01 3.018610e-01 3.323487e-01 3.105847e-01 4.098073e-01 5.534637e-01 4.633294e-01 5.560586e-01 4.433645e-01 4.280477e-01 3.627920e-01 3.837454e-01 2.155200e-01
<GCONST> 1.220224e+02
<TRANSP> 5
 0.000000e+00 1.000000e+00 0.000000e+00 0.000000e+00 0.000000e+00
 0.000000e+00 7.477913e-01 2.522087e-01 0.000000e+00 0.000000e+00
 0.000000e+00 0.000000e+00 8.531079e-01 1.468921e-01 0.000000e+00
 0.000000e+00 0.000000e+00 0.000000e+00 8.226399e-01 1.773601e-01
 0.000000e+00 0.000000e+00 0.000000e+00 0.000000e+00 0.000000e+00
<ENDHMM>
~h "ai"
<BEGINHMM>
<NUMSTATES> 5
<STATE> 2
<MEAN> 39
 -2.676606e+00 -1.383324e+01 -8.742568e+00 -9.330380e+00 -9.753488e+00 -4.459248e+00 -6.500407e+00 -1.734055e-01 3.703157e+00 -6.329305e+00 -6.117042e+00 -1.024061e+01 7.296220e+01 -4.280086e-01 -4.985630e-01 7.075874e-01 3.197120e-01 -1.117537e+00 -9.382606e-01 1.122746e+00 1.460228e+00 -2.070036e-01 -1.046275e+00 6.381119e-03 3.647541e-01 4.745270e-01 -1.120884e-01 4.957888e-01 5.323731e-01 2.477353e-02 -3.212489e-01 -9.445786e-02 -1.059289e-01 -2.819615e-01 -4.844970e-01 3.183580e-01 4.265134e-01 3.357483e-01 -4.262844e-01
<VARIANCE> 39
 1.053445e+01 2.315631e+01 5.711762e+01 5.097131e+01 6.318357e+01 6.862937e+01 8.343775e+01 5.814582e+01 4.429961e+01 4.767548e+01 4.242988e+01 3.577376e+01 2.143844e+01 4.926389e-01 1.396447e+00 2.911158e+00 1.737008e+00 3.511394e+00 2.908513e+00 2.909606e+00 3.168293e+00 2.892483e+00 2.524696e+00 3.101603e+00 2.309830e+00 7.302700e-01 1.732148e-01 1.703361e-01 2.632235e-01 3.923035e-01 5.126140e-01 4.462766e-01 5.268972e-01 6.915913e-01 5.031016e-01 5.629849e-01 5.388225e-01 4.797299e-01 2.053646e-01
<GCONST> 1.170169e+02
<STATE> 3
<MEAN> 39
 -5.034364e+00 -9.259694e+00 3.157231e+00 -9.418339e+00 -2.222439e+01 -1.009103e+01 -5.354312e+00 1.263510e+00 -2.806764e+00 -3.562900e+00 2.068672e+00 -7.047986e+00 7.177026e+01 -2.947315e-01 1.207042e+00 1.973521e+00 -2.427692e-02 -1.290937e+00 -2.935107e-01 -4.706678e-01 -1.358915e+00 -1.508843e+00 1.079139e+00 1.299616e+00 3.061790e-01 -6.229903e-01 6.475712e-02 9.611930e-02 -1.757747e-01 1.116534e-01 4.640933e-01 2.422212e-01 -2.707187e-01 -3.187554e-01 -2.425040e-02 -1.810315e-02 -2.981001e-01 -9.998988e-02 -1.717736e-01
<VARIANCE> 39
 9.255435e+00 2.033808e+01 4.837091e+01 3.433430e+01 4.080025e+01 4.639863e+01 5.994296e+01 5.809993e+01 4.178158e+01 4.007735e+01 4.873546e+01 2.815157e+01 2.375495e+01 2.486380e-01 7.917087e-01 1.556286e+00 9.262016e-01 2.183950e+00 1.493485e+00 2.314725e+00 2.335953e+00 1.777918e+00 1.998758e+00 2.324967e+00 1.297994e+00 2.284606e-01 4.921226e-02 1.056328e-01 1.833914e-01 1.502591e-01 2.690139e-01 2.605603e-01 3.634556e-01 5.209510e-01 2.871723e-01 3.818501e-01 3.899924e-01 2.300964e-01 5.077394e-02
<GCONST> 9.957823e+01
<STATE> 4
<MEAN> 39
 -6.850344e+00 -1.248382e+00 8.996587e+00 -6.259161e+00 -2.036776e+01 -7.871204e+00 -8.433931e+00 -7.031817e+00 -9.114511e+00 -9.216153e-01 1.648559e+00 -5.564994e+00 5.853872e+01 1.125297e-01 5.955837e-01 -2.823501e-01 6.381663e-01 8.575709e-01 2.931570e-01 3.724973e-02 -1.660474e-01 -2.228887e-02 -1.374965e-01 -4.619159e-01 3.716835e-02 -1.575026e+00 4.576449e-02 -6.538458e-02 -3.021454e-01 5.422226e-02 2.394259e-01 3.365492e-02 1.219804e-01 1.589181e-01 2.437966e-01 -9.484094e-02 -1.063149e-01 -4.111142e-03 -1.080522e-01
<VARIANCE> 39
 2.184107e+01 2.893489e+01 5.632376e+01 3.694725e+01 5.527786e+01 5.868069e+01 5.351657e+01 6.633530e+01 4.926561e+01 4.033280e+01 4.437148e+01 3.145834e+01 1.507338e+02 1.013440e+00 1.566964e+00 2.077212e+00 1.762663e+00 2.530728e+00 2.264545e+00 2.808424e+00 2.859120e+00 2.709862e+00 2.016958e+00 1.976465e+00 1.475320e+00 2.322507e+00 1.605146e-01 2.517920e-01 3.051003e-01 3.257779e-01 4.713602e-01 4.153955e-01 4.748590e-01 5.337562e-01 4.544196e-01 3.911290e-01 3.871898e-01 2.897226e-01 3.285338e-01
<GCONST> 1.175291e+02
<TRANSP> 5
 0.000000e+00 1.000000e+00 0.000000e+00 0.000000e+00 0.000000e+00
 0.000000e+00 7.899946e-01 2.100054e-01 0.000000e+00 0.000000e+00
 0.000000e+00 0.000000e+00 8.106644e-01 1.893356e-01 0.000000e+00
 0.000000e+00 0.000000e+00 0.000000e+00 8.676473e-01 1.323527e-01
 0.000000e+00 0.000000e+00 0.000000e+00 0.000000e+00 0.000000e+00
<ENDHMM>
~h "au"
<BEGINHMM>
<NUMSTATES> 5
<STATE> 2
<MEAN> 39
 -6.234404e-01 -7.371447e+00 -1.382752e+01 -1.881387e+01 -7.310283e+00 6.247447e+00 -8.830546e+00 -5.118992e+00 1.303195e+00 1.398308e+00 -2.854902e+00 -1.055976e+01 7.364661e+01 2.930039e-01 6.144910e-01 -1.509683e-01 -9.813789e-01 -2.306165e-01 9.286725e-01 -2.166278e-01 -1.705029e-01 -5.161798e-01 -3.400961e-02 9.053156e-01 4.700070e-01 -2.559251e-01 1.495146e-02 3.509515e-01 2.932797e-01 4.535982e-02 -2.205400e-01 -2.405656e-01 -1.317693e-01 8.625644e-03 -2.845967e-01 -6.931052e-02 1.005054e-01 4.305663e-01 -3.472459e-01
<VARIANCE> 39
 1.087331e+01 2.518934e+01 3.593289e+01 4.721125e+01 4.064091e+01 5.717212e+01 7.299226e+01 7.204812e+01 4.068153e+01 6.936018e+01 6.156211e+01 4.410873e+01 2.016002e+01 4.374337e-01 1.375252e+00 1.216231e+00 1.751310e+00 2.342138e+00 2.734283e+00 2.576403e+00 2.337856e+00 2.304363e+00 2.576198e+00 2.331868e+00 3.222245e+00 5.539127e-01 1.186050e-01 1.719825e-01 1.807863e-01 3.213645e-01 3.243114e-01 4.404505e-01 3.968033e-01 4.343883e-01 4.055357e-01 5.255578e-01 4.762397e-01 4.348453e-01 1.707224e-01
<GCONST> 1.116776e+02
<STATE> 3
<MEAN> 39
 3.325770e+00 3.291304e+00 -9.793550e+00 -2.396455e+01 -1.439981e+01 7.939448e+00 -1.324013e+01 -4.207292e+00 -4.714808e+00 -2.500536e+00 4.722340e-01 -1.996472e+00 6.492921e+01 2.949390e-01 9.668546e-01 6.521673e-01 7.542609e-01 -3.564042e-01 -6.144498e-01 -3.184139e-01 1.444840e-02 -5.838152e-01 -2.936878e-01 -3.463613e-01 4.775465e-01 -1.410001e+00 -1.355711e-01 -2.371313e-01 7.114672e-03 5.114589e-01 3.142331e-01 -2.016966e-01 1.594140e-01 -1.046201e-01 1.552477e-01 8.849617e-02 -1.457576e-01 -2.731107e-01 -1.017469e-01
<VARIANCE> 39
 1.110914e+01 3.618160e+01 3.252296e+01 3.407763e+01 4.539260e+01 4.755354e+01 6.468281e+01 6.186257e+01 5.227377e+01 6.614697e+01 4.434611e+01 4.037528e+01 5.263940e+01 5.290582e-01 1.644225e+00 9.921063e-01 3.405491e+00 2.648391e+00 2.084409e+00 2.705622e+00 2.873939e+00 2.096517e+00 2.446966e+00 2.300833e+00 2.702172e+00 1.070847e+00 8.488749e-02 2.036532e-01 1.807276e-01 3.461744e-01 3.794329e-01 3.801510e-01 4.348298e-01 4.438252e-01 3.398343e-01 4.033542e-01 4.496661e-01 4.137285e-01 1.619803e-01
<GCONST> 1.127262e+02
<STATE> 4
<MEAN> 39
 -7.576473e+00 2.163743e-01 -6.330221e+00 -7.613390e+00 -6.329252e+00 -1.540244e+00 -6.825470e+00 -4.804187e+00 -5.085926e+00 -3.278853e+00 -2.737468e+00 -2.066350e+00 4.057606e+01 -4.564541e-01 -2.367939e-01 1.770000e-01 8.453795e-01 3.697624e-01 -3.452488e-01 1.729124e-01 -1.219780e-01 7.635245e-02 5.368153e-02 -5.985099e-02 -5.616203e-02 -7.137579e-01 -1.772027e-02 -6.531285e-03 2.903956e-02 -7.572488e-02 -2.536328e-02 4.042211e-02 -2.647147e-02 3.697241e-02 2.063332e-02 -3.321669e-02 -1.891485e-02 -2.444269e-02 1.034976e-01
<VARIANCE> 39
 5.307746e+01 3.910699e+01 2.478769e+01 5.003393e+01 3.882949e+01 3.824326e+01 4.515427e+01 3.533843e+01 3.592459e+01 4.158826e+01 3.301948e+01 2.345364e+01 1.229140e+02 9.941306e-01 1.567084e+00 1.437040e+00 3.320926e+00 2.300533e+00 2.464707e+00 2.326880e+00 2.372822e+00 2.284324e+00 2.184461e+00 2.202433e+00 1.953437e+00 1.812357e+00 1.717966e-01 2.699476e-01 2.354637e-01 3.649936e-01 4.246230e-01 4.197717e-01 4.482495e-01 4.466628e-01 4.312736e-01 4.141079e-01 3.860216e-01 3.669540e-01 2.314363e-01
<GCONST> 1.150021e+02
<TRANSP> 5
 0.000000e+00 1.000000e+00 0.000000e+00 0.000000e+00 0.000000e+00
