~o
<STREAMINFO> 1 39
<VECSIZE> 39<NULLD><MFCC_D_A_0><DIAGC>
~s "silst"
<MEAN> 39
 -1.173326e+01 -1.543695e+00 -1.870219e+00 1.014706e+00 -3.248513e+00 -3.028357e+00 -3.053162e+00 3.906986e-01 -2.285414e+00 -3.086982e+00 -1.838499e+00 2.748806e-01 3.741674e+01 1.992032e-02 1.207752e-01 -5.674827e-02 1.453438e-01 5.386667e-02 -1.195712e-01 7.717298e-02 1.279667e-01 -7.087811e-02 -1.126221e-01 1.094117e-01 1.325688e-01 -3.178293e-01 7.617891e-03 2.065531e-02 -1.082450e-03 -8.947299e-02 1.816229e-02 2.207861e-02 -5.376858e-02 -1.038548e-01 1.204122e-02 1.394260e-02 -2.562850e-02 -8.262416e-02 2.620220e-02
<VARIANCE> 39
 1.291059e+01 1.950103e+01 2.434870e+01 4.425647e+01 2.400484e+01 3.816793e+01 2.543312e+01 5.487832e+01 3.902774e+01 3.499868e+01 2.628843e+01 3.087240e+01 2.353834e+01 8.134177e-01 1.656192e+00 1.489825e+00 2.932728e+00 2.204627e+00 2.827524e+00 2.157736e+00 3.991015e+00 2.734417e+00 2.814785e+00 2.065040e+00 2.560120e+00 9.031430e-01 1.377824e-01 2.786829e-01 2.562496e-01 5.065958e-01 4.085177e-01 5.192279e-01 4.080619e-01 7.184048e-01 5.240883e-01 5.492380e-01 4.036950e-01 4.733055e-01 1.495830e-01
<GCONST> 1.118072e+02
~h "@"
<BEGINHMM>
<NUMSTATES> 5
<STATE> 2
<MEAN> 39
 -1.790506e+00 -3.322021e+00 -3.589284e+00 -7.439974e+00 -9.460937e+00 -2.662771e+00 -1.125952e+01 -7.898912e+00 -2.963112e+00 -1.345187e+00 -1.511930e+00 -5.807715e+00 6.158728e+01 1.921873e+00 -9.241287e-01 -4.728192e-01 -1.381158e+00 -1.138012e+00 5.254278e-01 -9.901670e-01 2.158262e-01 1.226527e+00 6.516219e-01 7.573997e-01 -1.206281e+00 2.489305e+00 -4.066537e-01 8.385921e-02 3.372885e-02 2.295195e-01 2.275498e-01 4.214631e-02 2.197887e-01 6.215120e-02 -3.385103e-02 -8.211506e-02 -7.838271e-02 6.129101e-02 -6.128819e-01
<VARIANCE> 39
 3.701183e+01 3.144961e+01 6.053615e+01 6.412999e+01 5.274319e+01 7.337201e+01 6.624551e+01 7.050748e+01 8.112098e+01 4.719020e+01 4.927408e+01 3.584353e+01 1.163974e+02 5.890099e+00 3.505226e+00 5.930313e+00 5.391336e+00 5.579833e+00 5.590833e+00 5.709645e+00 7.818745e+00 6.993695e+00 4.809073e+00 5.216861e+00 4.540519e+00 5.550361e+00 8.526216e-01 5.896190e-01 7.797155e-01 9.349506e-01 8.153138e-01 8.122246e-01 8.190416e-01 9.726417e-01 9.191359e-01 6.747891e-01 8.768799e-01 6.344925e-01 1.487949e+00
<GCONST> 1.440106e+02
<STATE> 3
<MEAN> 39
 4.802363e-03 -6.894784e+00 -6.573662e+00 -1.081127e+01 -1.129162e+01 -1.731390e+00 -1.397856e+01 -5.223429e+00 2.552513e+00 3.109872e-01 -2.339257e-01 -8.770491e+00 6.912930e+01 5.292594e-01 -3.426378e-01 4.481638e-02 -1.574425e-02 -2.428282e-01 2.009469e-01 -1.479327e-01 2.166915e-01 6.777555e-01 1.894312e-01 1.232116e-01 -5.910129e-01 3.012638e-01 -5.639974e-01 6.492864e-01 5.225619e-01 8.525808e-01 4.845900e-01 -2.244183e-01 5.618836e-01 -3.946324e-01 -8.080925e-01 -3.569064e-01 -3.642244e-01 6.007911e-01 -1.272321e+00
<VARIANCE> 39
 1.661381e+01 2.680599e+01 5.872968e+01 5.913644e+01 5.286565e+01 8.581741e+01 7.361371e+01 7.104433e+01 7.257114e+01 4.922254e+01 5.408487e+01 4.602883e+01 3.127711e+01 1.831902e+00 2.143666e+00 2.925309e+00 3.858026e+00 3.578271e+00 4.842204e+00 4.029169e+00 5.390652e+00 5.751228e+00 3.421599e+00 4.131147e+00 3.372437e+00 2.876133e+00 6.196761e-01 4.736634e-01 8.231534e-01 8.292843e-01 9.922217e-01 1.037312e+00 1.084541e+00 1.208140e+00 1.112830e+00 8.120230e-01 1.061610e+00 8.409259e-01 6.154927e-01
<GCONST> 1.367380e+02
<STATE> 4
<MEAN> 39
 -1.294401e+00 -6.600046e+00 -5.152106e+00 -9.711338e+00 -1.207988e+01 -4.681736e+00 -1.228559e+01 -5.614441e+00 1.802860e+00 2.268624e-01 -2.803412e-01 -9.138165e+00 6.787820e+01 1.130811e-01 6.004442e-01 4.098295e-01 6.849876e-01 2.842981e-01 -5.884498e-02 2.992461e-01 -4.504738e-01 -4.447520e-01 -1.387123e-01 -3.213860e-01 2.306834e-01 -1.083592e+00 -8.930493e-02 2.387423e-01 1.486362e-01 2.485781e-01 1.171789e-01 -1.391541e-02 8.653732e-02 -1.660656e-01 -2.428783e-01 -9.501916e-02 -1.372264e-01 1.885070e-01 -4.317445e-01
<VARIANCE> 39
 1.726357e+01 3.059853e+01 8.127856e+01 5.390514e+01 6.795083e+01 6.992744e+01 9.113306e+01 6.739084e+01 8.571875e+01 4.789138e+01 4.874426e+01 4.315605e+01 4.327213e+01 8.325219e-01 1.746038e+00 2.043335e+00 2.538630e+00 2.668173e+00 2.741278e+00 2.970382e+00 3.145945e+00 3.664887e+00 2.421138e+00 2.692481e+00 2.189921e+00 3.294719e+00 2.490959e-01 2.607922e-01 3.467296e-01 3.945207e-01 4.985639e-01 4.784801e-01 5.619925e-01 6.888439e-01 6.342115e-01 4.434471e-01 5.178003e-01 4.225340e-01 3.067690e-01
<GCONST> 1.235791e+02
<TRANSP> 5
 0.000000e+00 1.000000e+00 0.000000e+00 0.000000e+00 0.000000e+00
 0.000000e+00 4.423807e-01 5.576193e-01 0.000000e+00 0.000000e+00
 0.000000e+00 0.000000e+00 3.739097e-01 6.260903e-01 0.000000e+00
 0.000000e+00 0.000000e+00 0.000000e+00 6.893957e-01 3.106043e-01
 0.000000e+00 0.000000e+00 0.000000e+00 0.000000e+00 0.000000e+00
<ENDHMM>
~h "a"
<BEGINHMM>
<NUMSTATES> 5
<STATE> 2
<MEAN> 39
 -1.790689e+00 -1.019280e+01 -9.614149e+00 -1.057903e+01 -8.584611e+00 -2.025008e+00 -8.430302e+00 -2.332312e+00 3.123137e+00 -3.008760e+00 -4.629939e+00 -9.717469e+00 7.014269e+01 3.653590e-01 -1.690905e+00 -1.691130e+00 -5.278554e-01 9.618194e-01 7.310843e-01 9.980188e-01 5.962711e-01 1.045314e+00 -9.222160e-01 -1.091763e+00 -1.325423e+00 1.968434e+00 -3.504753e-01 3.801150e-01 3.363982e-01 4.933232e-01 2.890655e-01 -1.168345e-01 4.803709e-02 -3.468974e-01 -4.557331e-01 -8.942958e-02 9.002432e-03 3.571910e-01 -7.006871e-01
<VARIANCE> 39
 1.916526e+01 2.972069e+01 5.894598e+01 5.310954e+01 7.727983e+01 7.412808e+01 6.521826e+01 7.854138e+01 5.068269e+01 4.894412e+01 5.637531e+01 4.410803e+01 6.975083e+01 2.323113e+00 1.943766e+00 3.087846e+00 3.531071e+00 4.094155e+00 4.123986e+00 4.358637e+00 4.760722e+00 3.807880e+00 3.490792e+00 4.142955e+00 3.274454e+00 4.168233e+00 4.560602e-01 4.299924e-01 5.237202e-01 5.382268e-01 7.697968e-01 6.744225e-01 7.279000e-01 8.540502e-01 6.785187e-01 6.045469e-01 7.441812e-01 5.819651e-01 8.691704e-01
<GCONST> 1.336289e+02
<STATE> 3
<MEAN> 39
 -2.493461e+00 -1.309350e+01 -1.304110e+01 -9.491706e+00 -5.258867e+00 -1.024464e+00 -5.497528e+00 -3.356874e+00 3.476773e+00 -6.050037e+00 -7.020195e+00 -1.157269e+01 7.276446e+01 4.080648e-02 1.404477e-01 -5.090710e-02 2.958005e-01 1.601450e-01 -1.898422e-01 1.163767e-01 -4.178719e-02 -1.029497e-01 -1.797884e-02 -2.088972e-01 3.923072e-02 -2.278231e-01 8.445555e-02 4.202505e-01 3.771637e-01 7.717948e-02 -2.620246e-01 -1.457152e-01 -2.827423e-01 -8.079037e-02 -1.341363e-01 2.909921e-01 2.280650e-01 2.305530e-01 -4.368659e-01
<VARIANCE> 39
 1.133162e+01 1.993228e+01 4.662076e+01 5.478578e+01 5.382284e+01 5.291179e+01 6.105812e+01 5.741093e+01 3.592154e+01 4.304162e+01 3.931712e+01 3.665274e+01 2.412436e+01 4.045934e-01 8.564855e-01 1.309727e+00 1.333437e+00 2.287492e+00 2.105859e+00 2.006889e+00 2.358783e+00 1.729518e+00 1.848796e+00 1.881670e+00 1.585021e+00 5.168735e-01 8.407804e-02 1.586933e-01 1.947004e-01 2.392639e-01 2.933087e-01 3.171415e-01 3.684099e-01 4.212954e-01 3.537671e-01 3.118277e-01 3.511326e-01 3.060347e-01 1.509123e-01
<GCONST> 1.051314e+02
<STATE> 4
<MEAN> 39
 -2.583266e+00 -7.701438e+00 -1.017690e+01 -7.286419e+00 -4.630523e+00 -2.578855e+00 -7.285897e+00 -3.047779e+00 1.444020e+00 -3.402678e+00 -7.050025e+00 -8.729633e+00 6.004859e+01 3.641143e-02 1.203068e+00 8.376460e-01 6.578603e-01 -9.518559e-02 -1.615285e-01 -3.694906e-01 -3.053488e-01 -4.596241e-01 3.629532e-01 2.283678e-01 5.213054e-01 -2.407381e+00 -1.091212e-01 8.900112e-02 1.419931e-01 1.066069e-01 4.158704e-02 6.978012e-02 6.267690e-02 -1.394195e-01 -1.309503e-01 -8.867870e-02 4.401467e-03 7.995971e-02 -1.761958e-01
<VARIANCE> 39
 2.986315e+01 3.284859e+01 4.292355e+01 5.679609e+01 5.967390e+01 6.107119e+01 5.951580e+01 6.312604e+01 4.672783e+01 5.208539e+01 5.139483e+01 4.584745e+01 1.699999e+02 1.380111e+00 2.223908e+00 2.333046e+00 2.482207e+00 2.917764e+00 2.798906e+00 3.157289e+00 3.234840e+00 2.912106e+00 2.761893e+00 2.976774e+00 2.469116e+00 3.876236e+00 2.357621e-01 4.157164e-01 4.193443e-01 4.790126e-01 5.577470e-01 5.319526e-01 5.464685e-01 6.842581e-01 5.545298e-01 5.019746e-01 5.449713e-01 4.903398e-01 6.817067e-01
<GCONST> 1.271225e+02
<TRANSP> 5
 0.000000e+00 1.000000e+00 0.000000e+00 0.000000e+00 0.000000e+00
 0.000000e+00 6.027566e-01 3.972434e-01 0.000000e+00 0.000000e+00
 0.000000e+00 0.000000e+00 7.853330e-01 2.146669e-01 0.000000e+00
 0.000000e+00 0.000000e+00 0.000000e+00 7.258698e-01 2.741302e-01
 0.000000e+00 0.000000e+00 0.000000e+00 0.000000e+00 0.000000e+00
<ENDHMM>
~h "b"
<BEGINHMM>
<NUMSTATES> 5
<STATE> 2
<MEAN> 39
 1.971268e+00 5.886766e+00 1.469434e+00 -2.534257e+00 -5.404294e+00 1.173600e+00 -6.741657e+00 -9.868655e+00 -8.563425e+00 -3.724530e+00 -3.698029e+00 -6.183617e+00 4.635865e+01 7.258892e-01 1.234514e+00 5.957118e-01 2.429197e-01 3.873749e-01 3.491839e-01 6.048146e-01 -7.175238e-02 -4.381076e-01 -1.699675e-01 -2.684260e-01 -2.191766e-01 -8.553616e-01 -2.893032e-01 -4.091256e-01 -2.030842e-01 -2.402672e-01 -1.924343e-01 -2.223085e-01 -2.488074e-01 1.063223e-01 2.172878e-01 7.523055e-02 1.639799e-01 1.376057e-01 6.732678e-01
<VARIANCE> 39
 5.829491e+01 3.083345e+01 3.047791e+01 3.384591e+01 3.049176e+01 3.699236e+01 3.378809e+01 5.149846e+01 5.029422e+01 3.135789e+01 4.001908e+01 2.598819e+01 6.851254e+01 2.256447e+00 2.151593e+00 2.010778e+00 2.541548e+00 2.254125e+00 2.402416e+00 2.527025e+00 3.284541e+00 2.930961e+00 2.344818e+00 2.697836e+00 2.049195e+00 4.448780e+00 4.049872e-01 4.520440e-01 3.739588e-01 4.411954e-01 4.438566e-01 4.790381e-01 4.673281e-01 5.958210e-01 6.192540e-01 4.454432e-01 5.238075e-01 4.052832e-01 5.150543e-01
<GCONST> 1.214565e+02
<STATE> 3
<MEAN> 39
 4.788389e+00 7.970892e+00 3.055358e+00 -2.956496e+00 -5.375485e+00 2.241482e+00 -5.938708e+00 -9.962767e+00 -9.752719e+00 -4.699509e+00 -3.558600e+00 -5.740882e+00 4.908595e+01 -1.362336e+00 -1.972419e+00 -1.179112e+00 -8.265042e-01 -1.826311e-01 -1.158293e+00 -1.373861e+00 2.914529e-01 1.092648e+00 4.305874e-01 1.190395e+00 8.714541e-01 3.120636e+00 -4.007372e-01 -1.050450e+00 -5.907174e-01 -6.717327e-01 -7.108648e-01 -1.270650e-01 -7.592481e-01 9.330144e-02 6.115217e-01 3.941411e-01 3.869183e-01 -1.092458e-01 1.494603e+00
<VARIANCE> 39
 2.263098e+01 2.398056e+01 2.237756e+01 2.880354e+01 2.930261e+01 3.343754e+01 2.733512e+01 4.376332e+01 4.366725e+01 2.986130e+01 4.198629e+01 2.278428e+01 3.849133e+01 2.223201e+00 3.251150e+00 3.557360e+00 5.188062e+00 3.952338e+00 3.957753e+00 3.564694e+00 3.955413e+00 5.134378e+00 3.728778e+00 4.826335e+00 2.816483e+00 5.110910e+00 4.074503e-01 4.650468e-01 6.427459e-01 7.203851e-01 6.383141e-01 8.073624e-01 6.061913e-01 7.374318e-01 1.139736e+00 7.952114e-01 8.250983e-01 7.007775e-01 4.431852e-01
<GCONST> 1.282247e+02
<STATE> 4
<MEAN> 39
 9.223900e-03 -2.126434e+00 -4.022922e+00 -9.383807e+00 -7.927880e+00 -5.009182e-01 -1.324923e+01 -9.815950e+00 -3.893461e+00 5.150947e-01 1.994867e+00 -4.057105e+00 6.374212e+01 -8.797142e-01 -2.993939e+00 -1.903197e+00 -2.322712e+00 -1.781280e+00 -3.027240e-01 -2.169823e+00 8.165359e-01 2.547721e+00 1.584754e+00 7.133360e-01 -1.014221e+00 4.568126e+00 2.752206e-01 4.329000e-01 3.903358e-01 3.392290e-01 -1.325051e-01 2.932060e-01 5.150637e-01 2.252759e-01 -9.767712e-02 -4.344946e-01 -7.448276e-01 -4.819331e-01 -6.614186e-01
<VARIANCE> 39
 2.633754e+01 2.316272e+01 3.693465e+01 8.985547e+01 3.448556e+01 5.001073e+01 4.449102e+01 3.796110e+01 4.152103e+01 5.589839e+01 4.021441e+01 3.160320e+01 5.480715e+01 2.306344e+00 3.542401e+00 5.823847e+00 6.849607e+00 5.359223e+00 6.067228e+00 4.773141e+00 5.408582e+00 9.154257e+00 6.235483e+00 6.897087e+00 5.942351e+00 4.408574e+00 4.047680e-01 5.131292e-01 5.047572e-01 1.409744e+00 1.071830e+00 8.648056e-01 8.516570e-01 7.632725e-01 9.770795e-01 9.736438e-01 1.105182e+00 7.251359e-01 7.187308e-01
<GCONST> 1.387243e+02
<TRANSP> 5
 0.000000e+00 1.000000e+00 0.000000e+00 0.000000e+00 0.000000e+00
 0.000000e+00 7.781052e-01 2.218948e-01 0.000000e+00 0.000000e+00
 0.000000e+00 0.000000e+00 5.368999e-01 4.631001e-01 0.000000e+00
 0.000000e+00 0.000000e+00 0.000000e+00 4.568117e-01 5.431883e-01
 0.000000e+00 0.000000e+00 0.000000e+00 0.000000e+00 0.000000e+00
<ENDHMM>
~h "c"
<BEGINHMM>
<NUMSTATES> 5
<STATE> 2
<MEAN> 39
 -9.691764e+00 2.068784e+00 -1.022956e+00 -1.757430e+00 -5.808754e+00 -7.018755e+00 -6.822918e+00 -3.994749e+00 -3.397473e+00 -3.614532e+00 -4.232481e+00 -2.906257e+00 4.270196e+01 -1.635692e+00 -2.846069e-01 -4.129501e-01 -5.339568e-01 5.475114e-01 1.937501e-01 2.236331e-01 -3.400629e-02 1.174332e-01 1.384462e-01 3.267748e-01 1.268317e-01 -6.018526e-01 -4.507564e-01 -2.591820e-01 -1.413342e-01 -3.051868e-01 -8.027896e-02 4.603571e-02 -5.078999e-02 2.208452e-02 9.297646e-03 5.843341e-02 1.569833e-01 9.961461e-02 1.061755e+00
<VARIANCE> 39
 4.601418e+01 3.178541e+01 3.708130e+01 2.675467e+01 3.945610e+01 4.195851e+01 4.686312e+01 4.137088e+01 3.634038e+01 2.885380e+01 2.712197e+01 2.083708e+01 1.030589e+02 4.854689e+00 3.745020e+00 2.800920e+00 2.934396e+00 3.862002e+00 2.984875e+00 3.343892e+00 3.322929e+00 2.988346e+00 2.403039e+00 2.564588e+00 2.163146e+00 1.184680e+01 7.478911e-01 6.648727e-01 5.143803e-01 5.182359e-01 7.291954e-01 5.608107e-01 6.386620e-01 6.143680e-01 5.802228e-01 4.566970e-01 4.791284e-01 4.553910e-01 1.481242e+00
<GCONST> 1.284826e+02
<STATE> 3
<MEAN> 39
 -2.572852e+01 -8.085608e-01 -3.679164e+00 -8.280434e+00 -3.744723e+00 -5.246705e+00 -6.226863e+00 -3.922786e+00 -2.951479e+00 -1.855450e+00 -1.391135e-01 -4.820779e-01 5.867721e+01 -1.882350e+00 2.138361e-01 9.590285e-02 -8.325115e-01 -6.468962e-01 -4.070797e-01 -1.112742e-01 3.165453e-01 -2.785240e-02 -5.692930e-02 4.657516e-01 4.386812e-01 4.427330e+00 2.061718e+00 1.047531e-01 4.955010e-01 5.558754e-01 -7.218506e-01 -3.695190e-01 -3.032754e-01 3.182992e-02 5.901415e-02 -2.595143e-01 -3.934723e-01 -3.322982e-01 -4.994674e-01
<VARIANCE> 39
 3.859830e+01 3.113224e+01 3.057152e+01 2.310485e+01 3.411852e+01 4.295842e+01 3.833245e+01 2.702305e+01 2.504280e+01 2.004949e+01 2.091127e+01 1.498962e+01 5.787531e+01 1.132800e+01 3.386404e+00 4.250463e+00 3.571329e+00 4.446544e+00 3.762332e+00 3.873164e+00 3.721714e+00 3.517945e+00 2.377789e+00 2.771332e+00 1.919946e+00 7.279849e+00 1.496995e+00 1.009947e+00 7.092008e-01 6.372368e-01 8.813553e-01 7.286172e-01 6.877218e-01 9.063267e-01 8.236176e-01 4.971373e-01 5.332180e-01 4.291129e-01 9.831988e-01
<GCONST> 1.295386e+02
<STATE> 4
<MEAN> 39
 -1.517709e+01 -8.557085e-01 -3.080255e-01 -6.418978e+00 -9.992839e+00 -1.020479e+01 -9.057674e+00 -1.759610e+00 -1.934443e+00 -4.174294e+00 -2.439602e+00 -9.093969e-01 6.658048e+01 5.768904e+00 -1.880547e+00 5.663773e-01 4.037435e-01 -2.145397e+00 -5.509403e-01 -1.318897e+00 4.397357e-01 1.037501e+00 -3.854295e-01 -7.423474e-01 -1.401163e+00 2.227202e+00 4.886841e-01 -5.265698e-01 -5.265659e-01 -1.893580e-01 3.042906e-01 7.254532e-01 1.142025e-01 -2.097203e-01 7.952308e-02 2.228386e-01 7.701745e-02 -4.976881e-01 -5.933721e-01
<VARIANCE> 39
 9.006949e+01 3.090637e+01 3.828820e+01 2.775852e+01 4.685829e+01 4.115668e+01 5.001631e+01 3.913638e+01 3.979197e+01 2.639873e+01 3.078323e+01 1.892295e+01 4.577851e+01 3.162207e+00 5.256104e+00 5.198631e+00 3.589856e+00 5.904883e+00 4.846422e+00 3.552499e+00 7.193876e+00 5.803537e+00 3.488702e+00 3.890407e+00 2.517911e+00 2.104128e+00 2.698844e+00 6.472027e-01 5.395242e-01 6.284506e-01 9.465125e-01 8.062902e-01 6.851626e-01 8.833129e-01 8.096307e-01 5.609676e-01 6.553334e-01 4.521746e-01 5.856528e-01
<GCONST> 1.333985e+02
<TRANSP> 5
 0.000000e+00 1.000000e+00 0.000000e+00 0.000000e+00 0.000000e+00
 0.000000e+00 8.491951e-01 1.508049e-01 0.000000e+00 0.000000e+00
 0.000000e+00 0.000000e+00 6.923886e-01 3.076114e-01 0.000000e+00
 0.000000e+00 0.000000e+00 0.000000e+00 5.956157e-01 4.043842e-01
 0.000000e+00 0.000000e+00 0.000000e+00 0.000000e+00 0.000000e+00
<ENDHMM>
~h "d"
<BEGINHMM>
<NUMSTATES> 5
<STATE> 2
<MEAN> 39
 -5.621440e-01 3.916395e+00 2.822937e+00 1.597529e+00 -6.865909e+00 -5.915917e+00 -1.004012e+01 -6.388565e+00 -2.170050e+00 -3.527445e+00 -7.657647e+00 -5.838291e+00 4.580699e+01 8.670563e-01 1.070581e+00 7.756665e-01 5.994745e-01 6.136351e-01 -2.271129e-01 -9.912267e-02 1.612258e-01 1.185833e-01 3.521600e-02 -5.661758e-01 -4.493971e-01 -7.708947e-01 -3.420900e-01 -4.642758e-01 -1.189711e-01 -3.626899e-01 -2.081894e-01 1.499650e-02 -8.525607e-02 1.173471e-01 -6.387934e-02 -3.387783e-02 3.142524e-01 1.676889e-01 7.184876e-01
<VARIANCE> 39
 6.239111e+01 3.665623e+01 3.766378e+01 2.425693e+01 3.868553e+01 3.998109e+01 4.909762e+01 7.467841e+01 4.715027e+01 3.633377e+01 4.235653e+01 3.162691e+01 8.868247e+01 2.711377e+00 2.657740e+00 2.268520e+00 2.222096e+00 3.574370e+00 2.801899e+00 3.261220e+00 4.450297e+00 3.199250e+00 2.570391e+00 3.064124e+00 2.350188e+00 5.217345e+00 5.929705e-01 6.016449e-01 4.157093e-01 4.778713e-01 6.461749e-01 5.636789e-01 6.462036e-01 8.642485e-01 6.283144e-01 5.457929e-01 6.480504e-01 5.072858e-01 7.250444e-01
<GCONST> 1.284731e+02
<STATE> 3
<MEAN> 39
 3.180009e+00 5.007698e+00 5.808207e+00 2.541075e+00 -6.228585e+00 -6.112694e+00 -1.177104e+01 -5.407727e+00 -1.729792e+00 -3.280781e+00 -8.478206e+00 -7.305100e+00 4.934626e+01 -1.956723e+00 -2.301107e+00 2.021821e-01 -1.346914e+00 -5.503046e-01 -2.207640e-01 -7.024556e-01 7.543947e-01 -4.626609e-01 -4.294717e-01 1.618361e+00 1.209612e+00 3.379029e+00 -6.173199e-01 -8.761709e-01 -3.560123e-01 -6.596546e-01 -1.165099e+00 -8.724865e-02 -2.019879e-01 3.463049e-03 -4.617246e-02 -2.542163e-02 7.532218e-01 2.990954e-01 1.640101e+00
<VARIANCE> 39
 2.661746e+01 2.680317e+01 2.943808e+01 2.143773e+01 3.242506e+01 3.868207e+01 4.342395e+01 7.289677e+01 4.547411e+01 3.872301e+01 3.775656e+01 2.923132e+01 4.575150e+01 2.410503e+00 3.275412e+00 4.041340e+00 3.458349e+00 5.506735e+00 4.310647e+00 5.453376e+00 7.815153e+00 5.758301e+00 3.581460e+00 4.643510e+00 3.096394e+00 5.429797e+00 4.718612e-01 5.310847e-01 6.789717e-01 6.477462e-01 7.559172e-01 6.230331e-01 8.185995e-01 1.374789e+00 1.028606e+00 7.327312e-01 7.296399e-01 6.216347e-01 5.464478e-01
<GCONST> 1.326815e+02
<STATE> 4
<MEAN> 39
 -4.010664e+00 -5.484759e+00 4.029358e+00 -3.954249e+00 -1.188778e+01 -7.553810e+00 -1.510950e+01 -2.127994e+00 -1.783822e+00 -4.436060e+00 -2.146385e+00 -1.602391e+00 6.491280e+01 -1.226541e+00 -2.343483e+00 -1.159221e+00 -2.007110e+00 -3.099073e+00 -5.283557e-01 -7.540083e-01 1.036872e+00 6.289573e-01 2.372091e-02 1.817155e+00 2.875388e-01 4.865576e+00 5.565072e-01 6.907628e-01 -2.948060e-01 2.292534e-01 -2.712149e-03 3.161377e-01 4.982505e-01 -3.018520e-01 1.147837e-01 1.498680e-01 -4.893643e-01 -7.189025e-01 -6.969898e-01
<VARIANCE> 39
 2.200447e+01 2.602350e+01 4.416766e+01 4.005736e+01 6.396564e+01 5.252349e+01 8.469804e+01 6.134485e+01 7.491341e+01 3.199342e+01 2.914881e+01 2.782192e+01 5.237974e+01 2.928761e+00 3.471799e+00 6.850120e+00 4.517084e+00 5.650370e+00 4.281787e+00 6.608005e+00 9.970652e+00 9.013876e+00 4.567203e+00 6.174316e+00 3.869654e+00 4.155155e+00 3.120803e-01 4.629817e-01 6.245676e-01 7.668543e-01 1.741737e+00 8.187225e-01 1.494738e+00 1.089628e+00 1.095964e+00 8.153346e-01 9.061778e-01 5.718853e-01 7.511950e-01
<GCONST> 1.391765e+02
<TRANSP> 5
 0.000000e+00 1.000000e+00 0.000000e+00 0.000000e+00 0.000000e+00
 0.000000e+00 7.468191e-01 2.531809e-01 0.000000e+00 0.000000e+00
 0.000000e+00 0.000000e+00 4.906857e-01 5.093143e-01 0.000000e+00
 0.000000e+00 0.000000e+00 0.000000e+00 4.594016e-01 5.405984e-01
 0.000000e+00 0.000000e+00 0.000000e+00 0.000000e+00 0.000000e+00
<ENDHMM>
~h "e"
<BEGINHMM>
<NUMSTATES> 5
<STATE> 2
<MEAN> 39
 -4.350532e+00 -7.653442e+00 -7.462832e-01 -5.596843e+00 -1.503664e+01 -9.061754e+00 -8.633883e+00 -1.919688e+00 -2.166114e+00 -2.148402e+00 -2.831158e-01 -6.748487e+00 6.204072e+01 4.394789e-01 -1.244361e+00 5.048476e-01 -5.385157e-01 -1.781707e+00 -7.338079e-01 6.211820e-01 1.279405e+00 2.746701e-01 -3.765569e-01 5.452183e-01 -5.146553e-01 2.308758e+00 -1.902164e-01 2.973979e-01 5.541763e-02 2.056324e-02 2.071931e-01 2.100487e-01 3.220597e-01 -1.976830e-01 -1.822855e-01 -4.869919e-02 -5.178106e-03 9.640587e-02 -4.085322e-01
<VARIANCE> 39
 4.193265e+01 5.348515e+01 7.674383e+01 4.915057e+01 7.181557e+01 6.309431e+01 8.390504e+01 8.753622e+01 7.029728e+01 5.337712e+01 5.689311e+01 3.627415e+01 1.794928e+02 3.889496e+00 3.975762e+00 4.009832e+00 4.248654e+00 6.248181e+00 4.590137e+00 5.953481e+00 6.807350e+00 5.608127e+00 4.233882e+00 4.851511e+00 3.483764e+00 1.016517e+01 6.802338e-01 8.084263e-01 6.345362e-01 6.485043e-01 1.083195e+00 7.732762e-01 9.590135e-01 1.113609e+00 9.977190e-01 7.466949e-01 7.924030e-01 6.237195e-01 2.029415e+00
<GCONST> 1.450580e+02
<STATE> 3
<MEAN> 39
 -4.145885e+00 -1.091962e+01 1.150791e+00 -7.838246e+00 -2.183317e+01 -1.234018e+01 -3.271407e+00 1.685900e+00 -1.951519e+00 -3.292658e+00 2.810451e+00 -8.302581e+00 7.238850e+01 2.723312e-02 2.017497e-01 1.768672e-02 1.505765e-01 1.723602e-01 -1.666132e-02 2.013306e-01 -1.981591e-01 -8.988269e-02 7.542201e-02 -1.216433e-01 -5.429919e-02 -1.484933e-01 4.994935e-02 2.774197e-01 -5.717565e-02 2.210016e-01 4.543839e-01 1.374903e-01 -2.604458e-01 -2.840734e-01 -6.826875e-02 8.475115e-02 -2.337621e-01 8.458854e-02 -5.239380e-01
<VARIANCE> 39
 9.646076e+00 2.675197e+01 5.583746e+01 2.942782e+01 4.350134e+01 4.546035e+01 7.695631e+01 5.441119e+01 4.961481e+01 4.609313e+01 5.182639e+01 2.932516e+01 2.388407e+01 6.306048e-01 9.970440e-01 1.487810e+00 1.581203e+00 2.262217e+00 1.687736e+00 2.799456e+00 2.064298e+00 2.136235e+00 1.774500e+00 2.017627e+00 1.234761e+00 1.602212e+00 1.438022e-01 1.902530e-01 2.389530e-01 2.500212e-01 3.641703e-01 3.492077e-01 4.845228e-01 4.776858e-01 4.259282e-01 3.588135e-01 3.568025e-01 2.539940e-01 2.945364e-01
<GCONST> 1.095570e+02
<STATE> 4
<MEAN> 39
 -6.607778e+00 -5.002082e+00 2.269560e+00 -5.784302e+00 -1.530905e+01 -8.717833e+00 -7.489662e+00 -4.006520e+00 -5.128925e+00 -1.713355e+00 4.814441e-01 -5.352897e+00 5.569919e+01 -3.495860e-02 4.793806e-01 -1.448401e-01 3.498939e-01 5.472880e-01 2.275241e-01 -3.058105e-02 -2.161769e-01 -9.971493e-03 1.554278e-02 -3.688397e-01 1.103537e-01 -1.222443e+00 -3.496332e-02 2.974299e-02 -1.078381e-02 1.539087e-02 6.336501e-02 4.678033e-02 1.277006e-02 -1.942572e-02 -1.138306e-03 -2.540539e-02 1.356941e-03 2.527751e-02 -4.268393e-02
<VARIANCE> 39
 3.280121e+01 3.493771e+01 8.137519e+01 4.118085e+01 8.295033e+01 5.292192e+01 7.337315e+01 5.390070e+01 6.076239e+01 4.452121e+01 4.765356e+01 3.198583e+01 2.302732e+02 7.742048e-01 1.312134e+00 1.263469e+00 1.584316e+00 2.133993e+00 1.839796e+00 2.203392e+00 2.138906e+00 2.084673e+00 1.918286e+00 1.956211e+00 1.419855e+00 2.871388e+00 1.348314e-01 2.123498e-01 2.149756e-01 2.812003e-01 3.553079e-01 3.338775e-01 3.611836e-01 4.445370e-01 4.110795e-01 3.528097e-01 3.309341e-01 2.706279e-01 2.599355e-01
<GCONST> 1.152586e+02
<TRANSP> 5
 0.000000e+00 1.000000e+00 0.000000e+00 0.000000e+00 0.000000e+00
 0.000000e+00 6.597675e-01 3.402325e-01 0.000000e+00 0.000000e+00
 0.000000e+00 0.000000e+00 8.046980e-01 1.953020e-01 0.000000e+00
 0.000000e+00 0.000000e+00 0.000000e+00 8.055972e-01 1.944028e-01
 0.000000e+00 0.000000e+00 0.000000e+00 0.000000e+00 0.000000e+00
<ENDHMM>
~h "f"
<BEGINHMM>
<NUMSTATES> 5
<STATE> 2
<MEAN> 39
 -8.774307e+00 -2.208617e-01 -1.739396e+00 -9.701647e-01 -4.551699e+00 -1.812592e+00 -6.134742e+00 -4.587892e+00 -3.974302e+00 -2.775249e+00 -2.323833e+00 -3.176792e+00 5.854297e+01 -3.466912e+00 -2.107722e-01 -1.833203e-01 1.132991e+00 1.293763e+00 -2.831671e-01 2.908600e-01 8.236553e-01 7.205494e-01 2.138244e-01 -3.667403e-02 5.775513e-01 -1.178470e+00 -2.622714e-01 -5.751716e-01 -2.937692e-01 -4.140772e-01 -6.933610e-01 -2.221027e-01 -2.442048e-01 -1.444047e-01 2.017014e-02 3.649653e-02 1.752939e-01 -3.935291e-02 2.534054e-01
<VARIANCE> 39
 5.342930e+01 2.254273e+01 4.127802e+01 3.881889e+01 3.470355e+01 4.858012e+01 3.942102e+01 4.028535e+01 3.373008e+01 2.854218e+01 3.092362e+01 2.521542e+01 6.842951e+01 2.718782e+00 3.888418e+00 5.081940e+00 4.327710e+00 5.726268e+00 4.328401e+00 3.660759e+00 4.653670e+00 3.825389e+00 3.167644e+00 3.719454e+00 2.592968e+00 2.100024e+00 7.532229e-01 3.931475e-01 5.007793e-01 6.227183e-01 6.782208e-01 5.784194e-01 5.904900e-01 6.927574e-01 6.965138e-01 5.214543e-01 5.578912e-01 4.139901e-01 2.624862e-01
<GCONST> 1.276749e+02
<STATE> 3
<MEAN> 39
 -2.164553e+01 -6.451653e+00 -6.302246e+00 -1.464692e+00 -5.850942e+00 -4.416876e+00 -7.388276e+00 -3.264700e+00 -2.038230e+00 -1.805565e+00 -1.093514e+00 -1.151756e+00 5.631085e+01 -4.691028e-01 -5.402725e-01 -3.796818e-01 -2.373540e-01 -2.170882e-01 -1.962594e-01 -1.286487e-01 -3.004138e-04 2.164853e-02 3.067763e-02 6.439795e-02 7.012291e-02 -1.023746e-01 7.270725e-01 1.972779e-01 1.605541e-01 -1.039136e-01 -1.973530e-02 9.946620e-02 2.807396e-02 -7.294668e-02 -1.143985e-01 -4.786732e-02 -3.130988e-02 -1.382204e-01 1.455669e-01
<VARIANCE> 39
 2.173915e+01 2.199087e+01 2.375587e+01 1.824964e+01 1.988852e+01 2.581458e+01 2.602474e+01 2.430529e+01 1.984964e+01 1.743524e+01 2.077926e+01 1.564882e+01 3.726922e+01 2.408159e+00 1.268608e+00 1.533076e+00 1.540277e+00 1.604968e+00 1.820474e+00 1.722494e+00 1.767108e+00 1.729738e+00 1.695597e+00 1.556791e+00 1.433284e+00 1.291772e+00 4.967159e-01 2.756726e-01 3.439430e-01 3.819609e-01 3.880159e-01 4.182048e-01 3.713917e-01 4.057490e-01 3.898952e-01 3.767927e-01 3.471442e-01 3.237411e-01 2.161379e-01
<GCONST> 1.047903e+02
<STATE> 4
<MEAN> 39
 -1.509159e+01 -4.777910e+00 -6.308790e+00 -3.542058e+00 -4.549074e+00 -3.694827e+00 -6.748574e+00 -3.786595e+00 -3.513944e+00 -3.039771e+00 -1.874655e+00 -2.265918e+00 4.312010e+01 1.179727e+00 2.913167e-01 8.511973e-02 -3.077551e-01 -1.809138e-01 1.545979e-01 -8.302426e-03 -2.047879e-01 -1.797696e-01 -8.268805e-02 -1.781424e-02 -2.387732e-01 2.359849e-01 2.410333e-01 3.834560e-02 2.913865e-02 -8.987433e-02 -1.373611e-01 5.313553e-02 -2.873656e-02 -7.171284e-02 -1.862132e-02 -1.055913e-02 3.391517e-02 -7.180913e-02 1.851405e-01
<VARIANCE> 39
 3.300045e+01 3.327493e+01 2.583574e+01 2.361066e+01 2.141981e+01 2.309992e+01 2.800891e+01 2.756478e+01 2.435570e+01 2.282731e+01 2.240693e+01 1.714833e+01 1.264550e+02 6.573704e+00 2.121777e+00 2.291361e+00 2.872122e+00 2.134813e+00 2.545052e+00 2.386808e+00 2.558796e+00 2.222084e+00 2.158128e+00 2.034926e+00 2.085743e+00 3.483951e+00 5.703778e-01 3.681102e-01 3.509314e-01 4.253760e-01 4.558651e-01 4.374679e-01 4.543336e-01 4.780948e-01 4.546021e-01 4.098320e-01 4.052900e-01 3.752557e-01 3.818087e-01
<GCONST> 1.162116e+02
<TRANSP> 5
 0.000000e+00 1.000000e+00 0.000000e+00 0.000000e+00 0.000000e+00
 0.000000e+00 6.758201e-01 3.241799e-01 0.000000e+00 0.000000e+00
 0.000000e+00 0.000000e+00 8.502308e-01 1.497692e-01 0.000000e+00
 0.000000e+00 0.000000e+00 0.000000e+00 8.495811e-01 1.504190e-01
 0.000000e+00 0.000000e+00 0.000000e+00 0.000000e+00 0.000000e+00
<ENDHMM>
~h "g"
<BEGINHMM>
<NUMSTATES> 5
<STATE> 2
<MEAN> 39
 1.701120e+00 4.074868e+00 4.478464e+00 -1.265064e+00 -1.002467e+01 -5.056800e+00 -1.060057e+01 -7.563572e+00 -7.005156e+00 7.984944e-02 -4.961396e+00 -8.629478e+00 5.197082e+01 5.433010e-01 1.256224e+00 8.705914e-01 9.892067e-01 2.170979e-01 -3.362739e-01 6.347481e-01 -2.741005e-02 -2.305718e-01 -1.379807e-01 -4.165907e-01 -3.539752e-01 -1.916020e+00 -4.901571e-01 -4.844237e-01 -4.010918e-01 -3.169181e-01 8.816028e-02 -2.529297e-03 -1.032419e-01 2.010711e-01 2.164720e-01 -6.122135e-02 1.105876e-01 2.235738e-01 7.725130e-01
<VARIANCE> 39
 2.762101e+01 3.514804e+01 4.256493e+01 3.767659e+01 5.714248e+01 5.502591e+01 7.474135e+01 5.683352e+01 5.881227e+01 3.720998e+01 4.492416e+01 3.955206e+01 7.771659e+01 2.043015e+00 1.993606e+00 2.768417e+00 2.850076e+00 4.033985e+00 3.175511e+00 3.603605e+00 3.918182e+00 4.064658e+00 2.851104e+00 2.867120e+00 2.547764e+00 4.252166e+00 4.460066e-01 4.751357e-01 5.233912e-01 4.293597e-01 8.869315e-01 6.413732e-01 9.439176e-01 7.251040e-01 8.450496e-01 5.792958e-01 6.374733e-01 5.802646e-01 7.490520e-01
<GCONST> 1.304378e+02
<STATE> 3
<MEAN> 39
 -6.991854e-01 5.402098e+00 4.860967e+00 6.131082e-01 -7.672751e+00 -4.982470e+00 -8.944328e+00 -6.740298e+00 -7.495499e+00 -8.802162e-01 -5.598825e+00 -7.292667e+00 5.001141e+01 -2.322679e+00 -2.033114e+00 -1.560822e+00 -4.452263e-01 1.720609e+00 -1.724385e-01 -1.132503e+00 8.776838e-01 -3.691636e-01 2.179714e-01 2.513217e-01 1.071982e+00 2.813366e+00 -2.306951e-01 -5.885563e-01 -3.454444e-01 -6.829759e-01 -5.332884e-01 3.088236e-02 -4.696608e-01 -9.083651e-03 6.279056e-02 1.300195e-01 4.673788e-01 8.484329e-02 1.253782e+00
<VARIANCE> 39
 4.609695e+01 4.002712e+01 4.988245e+01 3.294630e+01 6.320577e+01 4.782398e+01 5.587773e+01 4.430490e+01 4.459922e+01 2.921299e+01 3.639507e+01 3.106007e+01 7.080833e+01 3.138743e+00 4.465340e+00 5.829574e+00 4.000832e+00 6.418147e+00 5.562507e+00 5.399132e+00 5.328403e+00 5.515356e+00 3.713509e+00 4.164739e+00 3.519872e+00 5.060277e+00 6.997249e-01 7.922988e-01 7.772902e-01 5.493056e-01 1.304352e+00 6.710366e-01 7.615791e-01 7.432427e-01 8.866531e-01 5.849741e-01 6.766768e-01 5.584275e-01 7.094141e-01
<GCONST> 1.368267e+02
<STATE> 4
<MEAN> 39
 -5.662394e+00 -2.755470e+00 -3.997680e-01 -4.192156e+00 -8.650297e+00 -7.390299e+00 -1.574724e+01 -3.305102e+00 -6.951169e+00 1.475775e+00 -2.151172e+00 -5.125254e+00 6.448821e+01 -1.049893e-01 -1.261827e+00 -4.662268e-01 -2.136795e+00 -2.326589e+00 -4.165783e-01 -8.593299e-01 9.421747e-01 1.052385e+00 2.722881e-01 1.289587e+00 -2.404133e-01 3.122654e+00 6.443155e-01 3.498048e-01 2.594383e-01 -1.346332e-01 -4.531715e-01 3.362223e-01 5.673938e-01 -1.385972e-01 4.436911e-01 -2.764911e-01 -1.946433e-01 -4.056789e-01 -5.231944e-01
<VARIANCE> 39
 2.746786e+01 3.280633e+01 6.308696e+01 4.817985e+01 1.016966e+02 6.715235e+01 8.373555e+01 5.547483e+01 6.119113e+01 3.542501e+01 4.546167e+01 3.183098e+01 4.646626e+01 3.342266e+00 3.383438e+00 4.907710e+00 3.501918e+00 7.364732e+00 4.173163e+00 5.907413e+00 5.565127e+00 7.321513e+00 3.297906e+00 4.968547e+00 3.198848e+00 3.352175e+00 5.587894e-01 7.326980e-01 1.109020e+00 7.299746e-01 2.486320e+00 8.302385e-01 1.026993e+00 9.559600e-01 1.081501e+00 6.554502e-01 1.086038e+00 5.835053e-01 4.580247e-01
<GCONST> 1.399387e+02
<TRANSP> 5
 0.000000e+00 1.000000e+00 0.000000e+00 0.000000e+00 0.000000e+00
 0.000000e+00 6.996647e-01 3.003353e-01 0.000000e+00 0.000000e+00
 0.000000e+00 0.000000e+00 5.420673e-01 4.579327e-01 0.000000e+00
 0.000000e+00 0.000000e+00 0.000000e+00 6.036830e-01 3.963171e-01
 0.000000e+00 0.000000e+00 0.000000e+00 0.000000e+00 0.000000e+00
<ENDHMM>
~h "h"
<BEGINHMM>
<NUMSTATES> 5
<STATE> 2
<MEAN> 39
 -6.152815e+00 -4.435447e+00 -3.942597e+00 -2.031169e+00 -5.603573e-01 1.794737e+00 -4.197916e+00 -3.349298e+00 -1.957209e+00 -3.938892e+00 -5.989153e+00 -4.900245e+00 6.288786e+01 -1.110601e+00 -2.968381e-01 6.666014e-01 7.697673e-01 1.362951e+00 7.596952e-01 4.082706e-01 6.999047e-01 3.578603e-01 6.067446e-02 -1.499208e-02 5.263495e-01 -9.879458e-01 4.050037e-02 -2.842236e-01 -2.708544e-01 -4.136588e-01 -3.692840e-01 -1.348458e-01 -2.054739e-01 -9.970529e-02 6.341109e-02 4.289064e-02 1.485723e-01 -1.174131e-01 1.054059e-01
<VARIANCE> 39
 2.756474e+01 3.432059e+01 5.410984e+01 5.180869e+01 6.597175e+01 5.399216e+01 5.218729e+01 5.341857e+01 4.846707e+01 4.077082e+01 4.392349e+01 4.082809e+01 8.772068e+01 1.380331e+00 2.230720e+00 3.706120e+00 2.494058e+00 3.393876e+00 3.098518e+00 2.710423e+00 3.027928e+00 2.729939e+00 2.563029e+00 2.646026e+00 2.219217e+00 1.545051e+00 1.698002e-01 2.972308e-01 3.949106e-01 3.505646e-01 5.258141e-01 4.633643e-01 4.594660e-01 5.541872e-01 4.907821e-01 3.970680e-01 4.259127e-01 3.917862e-01 1.624362e-01
<GCONST> 1.211040e+02
<STATE> 3
<MEAN> 39
 -1.107444e+01 -9.085520e+00 -6.341930e+00 -5.371593e+00 1.554385e+00 2.640162e+00 -5.862328e+00 -2.605633e+00 -6.614213e-02 -3.434491e+00 -5.004839e+00 -3.492267e+00 5.817239e+01 6.968745e-02 2.240856e-03 -4.001383e-01 -3.770874e-01 -4.169338e-01 -4.342744e-01 -2.115985e-01 -2.669994e-01 -1.148445e-01 -6.323649e-02 8.353993e-02 -5.221375e-02 -5.968210e-01 2.776567e-01 2.028474e-01 -8.541690e-03 -4.338967e-02 -2.494311e-01 -1.490741e-01 -2.190555e-02 -1.485261e-01 -1.301022e-01 -5.336326e-02 -1.469309e-02 -1.140238e-01 2.977815e-02
<VARIANCE> 39
 4.701665e+01 4.967147e+01 4.664375e+01 5.209839e+01 5.986329e+01 4.825460e+01 5.593612e+01 4.525505e+01 4.296490e+01 4.349726e+01 3.760276e+01 2.940039e+01 1.028600e+02 2.150397e+00 2.704446e+00 2.435624e+00 2.342279e+00 2.559007e+00 2.552025e+00 2.810938e+00 2.643796e+00 2.483151e+00 2.308509e+00 2.337027e+00 2.155224e+00 3.817861e+00 3.028107e-01 3.706011e-01 4.256963e-01 4.311134e-01 5.248884e-01 4.877396e-01 5.376813e-01 5.107966e-01 4.801557e-01 4.422218e-01 4.391885e-01 3.894742e-01 2.581556e-01
<GCONST> 1.230881e+02
<STATE> 4
<MEAN> 39
 -1.149162e+01 -4.525497e+00 -6.447893e+00 -4.522933e+00 -3.506237e+00 -2.963456e+00 -6.280874e+00 -4.034006e+00 -3.992311e+00 -4.708747e+00 -3.565433e+00 -2.849878e+00 4.108215e+01 8.146579e-02 1.765299e-01 2.386784e-02 7.656262e-03 -1.367442e-01 -6.742399e-02 3.887264e-02 -8.454379e-02 -5.898147e-02 1.552003e-02 4.650001e-02 -2.640040e-02 -2.358116e-01 1.783904e-02 -1.159803e-02 2.744447e-02 -3.347227e-03 -6.803855e-03 3.045905e-02 -7.854345e-03 1.297585e-04 9.747936e-03 3.969067e-03 5.491319e-03 -2.268028e-02 1.108392e-01
<VARIANCE> 39
 2.526486e+01 4.195372e+01 3.251296e+01 2.681232e+01 2.774788e+01 2.908790e+01 3.525552e+01 3.111433e+01 3.022887e+01 2.706182e+01 2.561236e+01 2.055103e+01 1.292628e+02 9.949841e-01 1.387239e+00 1.493996e+00 1.305149e+00 1.604135e+00 1.653627e+00 1.868709e+00 1.956431e+00 1.950311e+00 1.824016e+00 1.735129e+00 1.618513e+00 1.548009e+00 1.449810e-01 2.141980e-01 2.248848e-01 2.363839e-01 2.888389e-01 3.019228e-01 3.466032e-01 3.717592e-01 3.738737e-01 3.475358e-01 3.333196e-01 2.973370e-01 1.541389e-01
<GCONST> 1.058256e+02
<TRANSP> 5
 0.000000e+00 1.000000e+00 0.000000e+00 0.000000e+00 0.000000e+00
 0.000000e+00 6.103097e-01 3.896903e-01 0.000000e+00 0.000000e+00
 0.000000e+00 0.000000e+00 7.543343e-01 2.456657e-01 0.000000e+00
 0.000000e+00 0.000000e+00 0.000000e+00 8.551517e-01 1.448483e-01
 0.000000e+00 0.000000e+00 0.000000e+00 0.000000e+00 0.000000e+00
<ENDHMM>
~h "i"
<BEGINHMM>
<NUMSTATES> 5
<STATE> 2
<MEAN> 39
 -6.775674e+00 -6.300958e-01 1.039549e+01 -2.050159e+00 -1.842623e+01 -8.906318e+00 -1.097814e+01 -8.496613e+00 -1.110615e+01 -3.493686e+00 1.624204e+00 -4.666218e+00 6.314787e+01 5.510786e-01 2.611250e-01 2.466942e+00 -3.501023e-01 -2.971581e+00 2.698095e-01 -9.206324e-01 -9.711100e-01 -1.583239e+00 2.225843e-01 1.250806e+00 -7.528906e-01 1.751216e+00 -9.516032e-02 1.513075e-01 -4.656306e-01 -1.768080e-01 4.375635e-01 4.103374e-01 7.387105e-02 4.523908e-02 4.302138e-01 1.607708e-01 -2.810579e-01 -7.006069e-02 -4.863106e-01
<VARIANCE> 39
 3.125240e+01 3.544430e+01 4.878654e+01 3.905418e+01 5.392959e+01 5.172899e+01 5.794664e+01 6.406425e+01 4.927822e+01 4.208811e+01 4.137041e+01 2.696354e+01 7.509571e+01 5.431650e+00 2.924968e+00 4.344427e+00 3.879569e+00 4.551234e+00 4.613464e+00 5.790020e+00 6.199779e+00 5.061234e+00 3.765793e+00 3.803347e+00 2.772541e+00 4.169500e+00 6.797325e-01 5.387524e-01 7.700622e-01 5.622883e-01 1.102435e+00 7.261760e-01 8.327351e-01 1.069743e+00 8.141364e-01 5.949712e-01 6.711718e-01 4.618957e-01 8.961841e-01
<GCONST> 1.361267e+02
<STATE> 3
<MEAN> 39
 -7.821205e+00 1.502205e+00 1.533589e+01 -5.430940e+00 -2.324597e+01 -4.704433e+00 -1.350266e+01 -1.202704e+01 -1.292400e+01 -2.761330e+00 3.012692e+00 -7.574012e+00 6.569573e+01 1.040226e-01 1.677860e-01 -2.130463e-01 -3.270432e-02 7.410782e-02 -8.462545e-03 1.721950e-01 4.589127e-02 1.560579e-01 2.135326e-01 -1.590877e-01 1.800229e-02 -2.230675e-01 9.391847e-02 -2.324424e-02 -4.422051e-01 1.880416e-01 5.340999e-01 -2.000012e-01 2.403185e-01 2.590733e-01 2.764809e-01 -5.605185e-02 -2.373307e-01 1.615572e-01 -3.643731e-01
<VARIANCE> 39
 1.056366e+01 2.612140e+01 3.061081e+01 3.780557e+01 2.834868e+01 5.041251e+01 5.416688e+01 5.488981e+01 4.057691e+01 4.490371e+01 4.712821e+01 3.167233e+01 2.654134e+01 6.748985e-01 1.246984e+00 1.659403e+00 1.508823e+00 1.932059e+00 2.171765e+00 2.207166e+00 2.487317e+00 1.990867e+00 1.645373e+00 1.601372e+00 1.331617e+00 1.127356e+00 1.768067e-01 2.041905e-01 2.888549e-01 2.806813e-01 5.319985e-01 3.654087e-01 4.409527e-01 4.676574e-01 4.432430e-01 3.542652e-01 3.987863e-01 2.717759e-01 2.509549e-01
<GCONST> 1.091478e+02
<STATE> 4
<MEAN> 39
 -6.612656e+00 2.285310e+00 7.733928e+00 -1.663501e+00 -1.523984e+01 -7.463095e+00 -8.555056e+00 -9.263471e+00 -8.983561e+00 -2.225320e+00 -1.120577e+00 -4.390329e+00 5.162035e+01 1.084324e-01 1.549944e-01 -1.142547e+00 3.577260e-01 1.303848e+00 -4.133310e-02 4.500612e-01 4.794904e-01 7.061203e-01 -1.356406e-01 -5.625101e-01 2.563618e-01 -1.857832e+00 -1.087786e-01 -4.071677e-02 -5.132722e-02 -8.200645e-02 7.256389e-02 1.649406e-01 -7.742619e-02 -4.931971e-02 2.374706e-02 -3.743408e-02 -3.717187e-02 -2.492693e-02 5.753576e-02
<VARIANCE> 39
 3.218374e+01 3.616101e+01 5.307072e+01 3.644070e+01 6.073355e+01 6.673097e+01 5.130697e+01 5.934509e+01 4.414964e+01 3.947800e+01 4.062348e+01 3.217418e+01 1.645295e+02 2.075056e+00 2.199880e+00 2.482381e+00 2.233707e+00 3.795654e+00 2.961906e+00 3.550642e+00 3.717324e+00 3.334047e+00 2.544064e+00 2.943034e+00 2.207141e+00 4.375805e+00 2.773663e-01 3.707183e-01 3.649373e-01 3.761376e-01 6.794101e-01 5.512887e-01 5.779770e-01 6.329263e-01 5.370531e-01 4.796871e-01 5.033842e-01 4.001528e-01 5.856562e-01
<GCONST> 1.263487e+02
<TRANSP> 5
 0.000000e+00 1.000000e+00 0.000000e+00 0.000000e+00 0.000000e+00
 0.000000e+00 6.416575e-01 3.583425e-01 0.000000e+00 0.000000e+00
 0.000000e+00 0.000000e+00 8.159109e-01 1.840891e-01 0.000000e+00
 0.000000e+00 0.000000e+00 0.000000e+00 7.833205e-01 2.166795e-01
 0.000000e+00 0.000000e+00 0.000000e+00 0.000000e+00 0.000000e+00
<ENDHMM>
~h "j"
<BEGINHMM>
<NUMSTATES> 5
<STATE> 2
<MEAN> 39
 -2.422631e+00 7.391619e+00 6.685121e+00 6.716887e-01 -8.847239e+00 -6.286138e+00 -7.331569e+00 -3.363575e+00 -5.102513e+00 -5.537797e+00 -4.628216e+00 -3.877875e+00 5.004958e+01 -7.361652e-01 7.174636e-01 5.568140e-01 -8.998089e-03 8.777627e-01 2.527895e-01 4.944490e-01 1.860699e-01 1.343419e-01 -3.584817e-02 3.182230e-03 -8.766801e-02 -3.805279e-01 -6.216159e-01 -4.089765e-01 -2.298714e-01 -2.727292e-01 -2.890750e-02 -2.883800e-02 -1.821795e-01 -2.113102e-01 -5.763382e-02 1.187650e-01 2.092887e-01 1.402972e-01 8.426042e-01
<VARIANCE> 39
 4.349520e+01 3.555251e+01 3.877591e+01 2.456121e+01 4.486575e+01 4.420971e+01 4.589483e+01 4.524945e+01 4.505330e+01 3.147617e+01 2.631888e+01 2.277528e+01 8.953857e+01 6.879384e+00 4.124678e+00 3.019641e+00 2.916753e+00 4.617245e+00 3.744533e+00 3.839296e+00 4.320583e+00 3.727658e+00 2.581165e+00 2.590827e+00 2.237166e+00 8.022882e+00 1.027440e+00 6.027647e-01 5.050418e-01 5.165755e-01 8.127310e-01 7.085261e-01 6.666570e-01 7.383473e-01 7.124858e-01 4.750014e-01 4.837055e-01 4.804302e-01 1.049206e+00
<GCONST> 1.309638e+02
<STATE> 3
<MEAN> 39
 -1.662944e+01 5.879580e+00 6.963519e+00 -2.540307e+00 -4.688394e+00 -5.496562e+00 -7.215204e+00 -5.928811e+00 -6.549673e+00 -4.485058e+00 -1.825323e+00 -1.561433e+00 6.186718e+01 -1.288152e+00 -1.137736e+00 3.445386e-01 -3.688539e-01 -1.988005e+00 -1.522284e+00 -1.115830e+00 -7.459812e-01 -7.904482e-01 -2.779900e-02 1.313057e+00 1.010814e+00 3.557751e+00 1.748661e+00 -3.932138e-01 -2.620412e-02 1.241221e-01 -1.217606e+00 -3.233078e-01 -4.745382e-01 3.381226e-01 1.766137e-01 -6.543636e-02 1.080325e-01 -2.035163e-01 -2.653212e-01
<VARIANCE> 39
 4.513742e+01 3.405027e+01 3.437202e+01 2.624566e+01 5.376665e+01 5.330436e+01 4.056100e+01 2.711983e+01 2.963911e+01 2.030864e+01 2.211853e+01 1.826734e+01 3.685657e+01 1.393000e+01 3.483800e+00 3.742234e+00 4.046502e+00 8.457329e+00 4.442157e+00 3.372964e+00 3.517691e+00 4.002690e+00 2.461570e+00 2.494976e+00 1.938410e+00 3.076061e+00 1.089060e+00 8.342111e-01 7.677607e-01 7.370889e-01 1.340500e+00 9.911211e-01 6.195666e-01 9.034803e-01 1.100709e+00 5.601496e-01 5.320197e-01 5.140707e-01 6.119908e-01
<GCONST> 1.312465e+02
<STATE> 4
<MEAN> 39
 -6.613777e+00 -1.653113e+00 8.051053e+00 -3.696006e+00 -1.908144e+01 -1.231841e+01 -1.381211e+01 -3.737895e+00 -5.969157e+00 -4.768996e+00 2.833599e+00 -1.199614e-01 6.979768e+01 2.640445e+00 -2.795222e+00 -1.632442e+00 -1.203855e+00 -2.203899e+00 -4.619997e-02 -1.311167e+00 1.809097e+00 1.835050e+00 4.747377e-01 2.722098e-01 -1.118384e+00 1.668575e+00 -1.896847e-01 2.514719e-01 -7.720528e-01 -2.697971e-01 1.323253e+00 9.355818e-01 5.725079e-01 1.718888e-01 4.421326e-01 1.515829e-01 -7.214330e-01 -7.123929e-01 -6.416161e-01
<VARIANCE> 39
 1.651903e+01 3.156914e+01 3.070576e+01 4.253074e+01 3.578243e+01 3.328859e+01 4.662359e+01 5.147577e+01 5.439831e+01 3.566153e+01 3.391182e+01 2.087060e+01 2.487457e+01 2.861072e+00 2.520900e+00 3.669361e+00 3.059381e+00 7.977323e+00 3.441092e+00 4.821543e+00 6.199353e+00 6.227712e+00 3.185231e+00 4.188567e+00 3.131549e+00 1.462330e+00 7.580751e-01 4.298663e-01 3.671323e-01 5.579652e-01 8.449203e-01 5.461519e-01 5.498649e-01 9.220544e-01 8.133278e-01 5.595617e-01 6.543871e-01 4.163207e-01 1.518327e-01
<GCONST> 1.262343e+02
<TRANSP> 5
 0.000000e+00 1.000000e+00 0.000000e+00 0.000000e+00 0.000000e+00
 0.000000e+00 8.285922e-01 1.714077e-01 0.000000e+00 0.000000e+00
 0.000000e+00 0.000000e+00 6.922695e-01 3.077305e-01 0.000000e+00
 0.000000e+00 0.000000e+00 0.000000e+00 6.167936e-01 3.832064e-01
 0.000000e+00 0.000000e+00 0.000000e+00 0.000000e+00 0.000000e+00
<ENDHMM>
~h "k"
<BEGINHMM>
<NUMSTATES> 5
<STATE> 2
<MEAN> 39
 -1.066067e+01 -4.786698e-01 -4.819988e+00 -3.889102e+00 -5.348679e+00 -4.144902e+00 -6.365753e+00 -4.853578e+00 -4.244908e+00 -3.051249e+00 -3.595558e+00 -3.439143e+00 3.744378e+01 -5.372719e-01 -4.343838e-02 -4.055443e-02 1.482190e-01 1.373170e-01 -7.434372e-02 1.139181e-01 1.762661e-01 8.285164e-02 -6.984456e-03 4.685703e-02 2.268003e-01 -8.092187e-01 -4.224622e-02 -2.106160e-01 -1.187574e-01 -8.195282e-02 4.598480e-02 1.150776e-02 -1.094179e-01 5.202277e-02 -1.855265e-03 4.584383e-02 1.627775e-02 -2.945557e-03 5.754481e-01
<VARIANCE> 39
 3.477277e+01 2.802382e+01 2.910854e+01 2.466740e+01 3.117300e+01 3.091124e+01 3.327884e+01 3.188523e+01 3.194855e+01 2.938886e+01 2.746280e+01 2.364732e+01 5.337054e+01 1.406277e+00 1.515698e+00 1.601747e+00 1.765160e+00 2.190892e+00 2.413708e+00 2.441158e+00 2.463719e+00 2.342496e+00 2.214303e+00 2.070527e+00 1.884464e+00 3.181444e+00 2.638499e-01 4.162175e-01 4.021963e-01 3.889148e-01 4.700077e-01 5.172980e-01 5.428924e-01 5.225241e-01 5.077603e-01 4.672713e-01 4.404713e-01 3.895176e-01 8.670668e-01
<GCONST> 1.156100e+02
<STATE> 3
<MEAN> 39
 -1.030575e+01 -1.252225e+00 -4.719239e+00 -3.373076e+00 -5.043166e+00 -4.611381e+00 -7.413263e+00 -4.242299e+00 -4.269185e+00 -1.522951e+00 -3.367904e+00 -3.217014e+00 4.294810e+01 -1.309248e+00 -2.243205e+00 -2.009258e+00 -6.008486e-01 1.289720e+00 -3.205661e-01 -1.207196e+00 8.605279e-01 8.052903e-03 5.305361e-01 -2.266091e-01 4.264018e-01 3.683584e+00 3.409533e-01 -1.297377e-01 -1.900468e-01 -3.798189e-01 -1.873834e-01 -5.556746e-03 -2.079232e-01 -1.103352e-02 2.900359e-02 1.101933e-01 -8.465334e-02 -2.365193e-01 1.511573e+00
<VARIANCE> 39
 4.328109e+01 4.735318e+01 5.266022e+01 3.777697e+01 5.549374e+01 5.480227e+01 5.070512e+01 4.775372e+01 4.195778e+01 3.194090e+01 3.383918e+01 2.624420e+01 9.624640e+01 4.265655e+00 5.369190e+00 6.738916e+00 5.611938e+00 6.450159e+00 7.052991e+00 5.699925e+00 6.008457e+00 5.341545e+00 4.342584e+00 4.174341e+00 3.885909e+00 1.313293e+01 6.814710e-01 9.486520e-01 9.338394e-01 7.216254e-01 1.028870e+00 1.010224e+00 9.415543e-01 8.700851e-01 8.155231e-01 6.620734e-01 6.332095e-01 6.228901e-01 1.551190e+00
<GCONST> 1.417881e+02
<STATE> 4
<MEAN> 39
 -1.163963e+01 -7.067261e+00 -1.164228e+01 -7.681293e+00 -1.986512e+00 -5.345040e+00 -1.230056e+01 -2.020092e+00 -3.570257e+00 1.264182e+00 -4.900538e+00 -3.856369e+00 5.981905e+01 1.508207e+00 1.237266e-01 3.393699e-01 -9.372097e-01 -9.691229e-01 -1.614830e-02 7.520425e-02 -1.033481e-01 2.537695e-01 -7.655944e-03 -4.466969e-03 -9.663253e-01 3.597513e+00 7.849826e-01 5.266508e-01 8.127903e-01 6.692465e-02 -7.286348e-01 2.199425e-01 6.192475e-01 -3.735802e-01 1.209740e-01 -4.047319e-01 2.630105e-01 -3.579716e-01 -6.795429e-01
<VARIANCE> 39
 4.254496e+01 4.571810e+01 5.973549e+01 5.760764e+01 6.371156e+01 7.710019e+01 6.001526e+01 5.397381e+01 6.501604e+01 4.417306e+01 4.170250e+01 3.833102e+01 7.191536e+01 5.610856e+00 4.695524e+00 6.822164e+00 4.440047e+00 6.230035e+00 4.869052e+00 6.495781e+00 4.855799e+00 5.539895e+00 4.332316e+00 4.147281e+00 4.388928e+00 9.877934e+00 8.438297e-01 1.010865e+00 1.284450e+00 8.871286e-01 1.171606e+00 1.088005e+00 1.213017e+00 1.016425e+00 1.091677e+00 8.730808e-01 8.361178e-01 9.162741e-01 1.170434e+00
<GCONST> 1.457738e+02
<TRANSP> 5
 0.000000e+00 1.000000e+00 0.000000e+00 0.000000e+00 0.000000e+00
 0.000000e+00 8.274549e-01 1.725451e-01 0.000000e+00 0.000000e+00
 0.000000e+00 0.000000e+00 5.647743e-01 4.352257e-01 0.000000e+00
 0.000000e+00 0.000000e+00 0.000000e+00 6.369521e-01 3.630479e-01
 0.000000e+00 0.000000e+00 0.000000e+00 0.000000e+00 0.000000e+00
<ENDHMM>
~h "l"
<BEGINHMM>
<NUMSTATES> 5
<STATE> 2
<MEAN> 39
 9.054760e-01 -6.326759e+00 -4.579832e+00 -8.087374e+00 -1.148637e+01 -3.794698e+00 -1.317912e+01 -1.187742e+01 -4.665323e-01 2.096614e+00 -1.524130e+00 -5.808053e+00 6.646952e+01 3.063003e-01 4.196692e-01 7.681152e-01 -2.995357e-01 1.170213e+00 -4.132939e-01 -1.583967e+00 -1.148575e+00 1.758388e-01 6.602315e-01 -3.197573e-02 1.529337e-01 -4.970133e-01 -2.124180e-01 1.936163e-01 7.558250e-02 -2.115824e-01 4.260427e-02 2.647819e-01 9.117050e-02 1.099899e-01 -9.998174e-02 -2.436072e-01 -3.002238e-02 2.090198e-03 -3.703593e-02
<VARIANCE> 39
 2.503251e+01 2.969788e+01 6.660294e+01 7.723599e+01 6.548115e+01 6.797981e+01 9.214356e+01 1.090959e+02 7.437323e+01 6.688877e+01 6.518980e+01 4.861309e+01 4.744365e+01 1.143624e+00 2.055404e+00 3.380251e+00 4.720463e+00 5.325989e+00 6.028160e+00 5.553749e+00 5.723946e+00 6.076690e+00 4.885600e+00 5.004142e+00 3.566064e+00 1.365654e+00 1.932724e-01 2.849504e-01 3.996149e-01 6.263808e-01 8.022768e-01 8.090076e-01 8.927574e-01 1.044445e+00 9.302364e-01 8.356051e-01 7.113470e-01 5.327914e-01 1.518190e-01
<GCONST> 1.341267e+02
<STATE> 3
<MEAN> 39
 -1.049413e-01 -3.725700e+00 -1.320070e+00 -1.273296e+01 -7.508440e+00 -2.512772e+00 -1.896976e+01 -1.452495e+01 1.094755e+00 2.629972e+00 -1.188474e+00 -5.566110e+00 6.597934e+01 -1.231514e-01 1.370378e-01 1.389085e-01 -3.094587e-01 1.275114e-01 1.934270e-01 -2.199723e-01 3.604591e-02 -8.248100e-02 -1.117189e-02 -8.668032e-02 1.061412e-01 -2.002875e-02 -1.607435e-01 -3.552406e-01 -4.383727e-01 3.043142e-01 -4.463795e-01 8.032118e-02 7.653985e-01 7.457607e-01 -1.350244e-02 -3.520930e-01 -1.646529e-01 -1.710920e-01 2.712137e-01
<VARIANCE> 39
 1.900571e+01 2.602501e+01 7.033421e+01 7.729022e+01 5.166001e+01 5.920637e+01 9.407954e+01 8.240769e+01 6.932106e+01 6.456332e+01 6.013465e+01 4.700980e+01 3.474374e+01 6.017693e-01 1.271205e+00 2.605436e+00 2.767276e+00 2.491449e+00 2.899775e+00 3.625963e+00 4.760661e+00 4.194865e+00 2.677498e+00 2.894951e+00 2.303539e+00 1.057989e+00 1.221931e-01 2.688545e-01 3.523929e-01 4.687074e-01 7.033667e-01 7.629806e-01 8.918890e-01 8.402541e-01 8.825643e-01 7.264276e-01 9.432279e-01 5.599294e-01 1.280468e-01
<GCONST> 1.250051e+02
<STATE> 4
<MEAN> 39
 -1.033665e+00 -3.605122e+00 -1.981733e+00 -1.268956e+01 -6.034959e+00 -2.146021e+00 -1.570850e+01 -1.098418e+01 -1.552012e+00 2.275378e+00 -3.067422e+00 -4.266230e+00 6.220367e+01 -3.484826e-01 -4.442774e-01 -5.584589e-01 6.345319e-01 -4.131951e-01 1.927064e-01 1.143043e+00 1.224450e+00 1.488188e-02 -7.033316e-01 -4.134573e-01 -3.200113e-01 6.294019e-02 -1.011552e-01 -7.632318e-02 -1.717426e-01 1.190797e-01 -8.718503e-02 6.958905e-02 3.126577e-01 1.278849e-01 2.796930e-02 -1.990725e-01 -1.672578e-02 -8.541790e-02 4.440363e-02
<VARIANCE> 39
 2.932938e+01 3.225415e+01 7.304352e+01 1.106942e+02 6.735667e+01 6.137880e+01 8.567147e+01 7.051636e+01 6.409473e+01 6.539040e+01 5.408041e+01 4.679403e+01 9.007271e+01 9.045894e-01 2.546416e+00 2.969385e+00 3.028349e+00 3.917365e+00 3.877109e+00 4.402755e+00 5.129158e+00 4.552109e+00 3.378287e+00 4.577891e+00 3.035959e+00 3.084274e+00 1.384373e-01 2.805495e-01 3.083778e-01 5.159935e-01 5.752960e-01 5.195749e-01 6.525260e-01 5.850475e-01 5.826413e-01 5.984210e-01 6.113557e-01 4.097113e-01 2.225391e-01
<GCONST> 1.294001e+02
<TRANSP> 5
 0.000000e+00 1.000000e+00 0.000000e+00 0.000000e+00 0.000000e+00
 0.000000e+00 5.330702e-01 4.669297e-01 0.000000e+00 0.000000e+00
 0.000000e+00 0.000000e+00 6.014621e-01 3.985379e-01 0.000000e+00
 0.000000e+00 0.000000e+00 0.000000e+00 5.622556e-01 4.377445e-01
 0.000000e+00 0.000000e+00 0.000000e+00 0.000000e+00 0.000000e+00
<ENDHMM>
~h "m"
<BEGINHMM>
<NUMSTATES> 5
<STATE> 2
<MEAN> 39
 1.284330e+00 -2.155950e+00 -2.398545e+00 -4.730925e+00 -9.161507e+00 1.429831e+00 -7.888498e+00 -1.199513e+01 -8.100119e+00 -4.713745e+00 -1.282325e+00 -5.998344e+00 5.886992e+01 2.888356e-01 9.863282e-01 1.531136e+00 1.882153e+00 3.570310e-01 6.548191e-01 5.196241e-01 -1.933093e+00 -2.064784e+00 -9.365598e-01 -7.001283e-01 6.327179e-01 -1.030044e+00 -2.906929e-01 -2.001979e-01 -2.139108e-03 -1.337727e-01 -2.362085e-02 -3.264180e-02 2.413841e-03 1.990701e-01 1.749571e-01 -1.209809e-01 -1.974954e-01 -1.278818e-02 3.178403e-01
<VARIANCE> 39
 2.707004e+01 3.556968e+01 5.711784e+01 6.109205e+01 4.836955e+01 5.544275e+01 5.135810e+01 8.485819e+01 6.965466e+01 4.704825e+01 6.415490e+01 3.592729e+01 7.941481e+01 1.853316e+00 2.523919e+00 4.162501e+00 4.080293e+00 3.864359e+00 4.194024e+00 3.994371e+00 6.286553e+00 5.956682e+00 3.515131e+00 6.167664e+00 4.518104e+00 4.149179e+00 2.375621e-01 3.270524e-01 5.494646e-01 6.624882e-01 5.534824e-01 5.159768e-01 5.710269e-01 9.030349e-01 8.554017e-01 5.326949e-01 7.877285e-01 5.282740e-01 3.518690e-01
<GCONST> 1.331783e+02
<STATE> 3
<MEAN> 39
 1.301620e+00 -1.392517e+00 6.257333e-01 -9.399777e-01 -8.879661e+00 4.322304e+00 -6.148740e+00 -1.611781e+01 -1.108493e+01 -8.714594e+00 -4.760945e+00 -4.552176e+00 5.934238e+01 -5.913302e-02 1.075862e-01 4.029471e-02 -6.364867e-02 6.573787e-03 2.776662e-02 1.371493e-01 1.421111e-01 1.997967e-02 -1.186804e-01 -1.707201e-01 1.013905e-01 -4.584687e-02 3.359087e-03 -1.074897e-01 -3.955735e-01 -4.748358e-01 -6.676441e-02 -2.183117e-01 -9.616241e-02 4.443197e-01 4.587173e-01 3.263321e-01 2.217743e-01 -1.004148e-01 1.365199e-01
<VARIANCE> 39
 1.297561e+01 2.370254e+01 3.697209e+01 4.028306e+01 4.322539e+01 6.075613e+01 5.100962e+01 9.980190e+01 7.679034e+01 5.069811e+01 7.891445e+01 3.293546e+01 3.585447e+01 3.923663e-01 9.375138e-01 1.434462e+00 1.976302e+00 1.492725e+00 1.874389e+00 1.566251e+00 2.260584e+00 2.407512e+00 2.029008e+00 2.463875e+00 1.540953e+00 1.313713e+00 9.622442e-02 1.899689e-01 3.238620e-01 3.924114e-01 3.106957e-01 3.725592e-01 3.475855e-01 5.626842e-01 5.824361e-01 3.914204e-01 5.652725e-01 4.140693e-01 1.988899e-01
<GCONST> 1.119594e+02
<STATE> 4
<MEAN> 39
 -8.651813e+00 -2.351178e+00 -3.682398e+00 -3.355458e+00 -3.960876e+00 -2.646768e+00 -6.672302e+00 -8.295732e+00 -8.111211e+00 -6.405003e+00 -5.359516e+00 -2.911910e+00 4.165652e+01 -5.051285e-02 -4.512764e-02 -1.892279e-01 -3.004451e-01 -9.291645e-03 -1.111573e-01 -5.717571e-04 3.151090e-01 2.386889e-01 2.285136e-01 1.530551e-01 -3.791537e-02 7.226994e-03 3.902741e-03 -4.794892e-02 -3.012997e-02 -5.528611e-02 -8.352681e-03 2.593709e-02 -3.899879e-02 4.789741e-02 7.780463e-02 2.272434e-02 2.853369e-02 -5.266368e-02 1.010379e-01
<VARIANCE> 39
 4.198630e+01 3.452348e+01 3.703230e+01 2.589963e+01 3.226981e+01 3.593316e+01 3.045486e+01 5.681277e+01 5.202297e+01 3.145367e+01 3.996988e+01 2.071595e+01 1.110571e+02 9.405883e-01 1.456441e+00 2.197234e+00 2.356135e+00 1.780530e+00 2.056907e+00 1.973735e+00 2.919596e+00 3.028642e+00 2.298786e+00 2.466652e+00 1.848250e+00 2.075364e+00 1.648092e-01 2.301516e-01 2.843692e-01 3.051653e-01 3.377656e-01 3.693226e-01 3.689243e-01 4.781103e-01 4.891767e-01 4.076725e-01 4.062119e-01 3.325799e-01 1.672028e-01
<GCONST> 1.134239e+02
<TRANSP> 5
 0.000000e+00 1.000000e+00 0.000000e+00 0.000000e+00 0.000000e+00
 0.000000e+00 6.041481e-01 3.958519e-01 0.000000e+00 0.000000e+00
 0.000000e+00 0.000000e+00 7.867058e-01 2.132942e-01 0.000000e+00
 0.000000e+00 0.000000e+00 0.000000e+00 8.322971e-01 1.677029e-01
 0.000000e+00 0.000000e+00 0.000000e+00 0.000000e+00 0.000000e+00
<ENDHMM>
~h "n"
<BEGINHMM>
<NUMSTATES> 5
<STATE> 2
<MEAN> 39
 1.147079e+00 -4.515664e+00 -1.881071e+00 -2.017564e+00 -1.103710e+01 -5.710691e+00 -1.083944e+01 -8.469196e+00 5.917102e-02 -2.602242e+00 -7.946439e+00 -6.984730e+00 6.362731e+01 5.815127e-01 2.149426e+00 2.084428e+00 2.071664e+00 -3.296739e-01 -3.890151e-01 2.816457e-01 -3.213333e+00 -9.602634e-01 4.310697e-01 -1.105008e+00 1.196257e+00 -2.368033e+00 -2.333982e-01 -2.789270e-02 -1.127988e-01 -2.649054e-01 -5.338893e-02 1.886144e-01 3.452938e-01 -5.737322e-03 -1.168570e-01 -1.826462e-01 9.803969e-02 1.093786e-01 2.300935e-01
<VARIANCE> 39
 1.143104e+01 3.778802e+01 5.615210e+01 4.495690e+01 4.619100e+01 5.284086e+01 5.886348e+01 1.340297e+02 6.823759e+01 4.044244e+01 5.859141e+01 4.249482e+01 3.774401e+01 8.618985e-01 1.837275e+00 3.475033e+00 2.554567e+00 4.122945e+00 5.170149e+00 5.804071e+00 6.044640e+00 4.512211e+00 3.984638e+00 5.446482e+00 3.711877e+00 1.148336e+00 1.115450e-01 4.181240e-01 4.601662e-01 4.819638e-01 5.250173e-01 5.891142e-01 7.018455e-01 1.408855e+00 6.565237e-01 6.125889e-01 5.797537e-01 4.784531e-01 2.861221e-01
<GCONST> 1.278201e+02
<STATE> 3
<MEAN> 39
 1.409856e+00 2.860431e-01 2.091564e+00 2.250608e+00 -1.289206e+01 -5.451690e+00 -8.088025e+00 -1.606701e+01 -2.255670e+00 -2.981782e+00 -9.375753e+00 -3.133288e+00 5.854310e+01 -8.336090e-03 5.544758e-01 3.471934e-01 2.310379e-01 8.866736e-02 2.037217e-01 1.451536e-01 -7.147621e-02 -3.729830e-01 -7.536073e-02 -1.198360e-01 2.880858e-01 -6.867875e-01 -1.276090e-01 -2.090880e-01 -2.571226e-01 -3.027305e-01 2.303057e-01 6.864296e-02 -1.060419e-01 5.936099e-01 5.659103e-02 -5.619526e-02 1.955967e-01 -2.361418e-01 1.449520e-01
<VARIANCE> 39
 1.068994e+01 2.055945e+01 3.521616e+01 2.952899e+01 4.026972e+01 5.262098e+01 5.598397e+01 1.139353e+02 7.740493e+01 4.131108e+01 8.323087e+01 4.038577e+01 2.688890e+01 3.633785e-01 8.700925e-01 1.081422e+00 1.056551e+00 1.486362e+00 1.600073e+00 1.914959e+00 2.645253e+00 2.260927e+00 1.644999e+00 2.122082e+00 1.680485e+00 7.753044e-01 1.112274e-01 2.380002e-01 3.439765e-01 3.301351e-01 3.781124e-01 4.377514e-01 4.665904e-01 7.203532e-01 4.845058e-01 3.872355e-01 5.319366e-01 3.744580e-01 2.310307e-01
<GCONST> 1.102711e+02
<STATE> 4
<MEAN> 39
 -5.848826e+00 6.782514e-01 2.306857e-01 1.931144e-01 -6.237730e+00 -4.388953e+00 -7.277038e+00 -8.257620e+00 -4.511895e+00 -4.534330e+00 -7.931044e+00 -3.272775e+00 4.464273e+01 -5.572820e-01 -6.952735e-02 -2.808486e-01 -3.449034e-01 4.868525e-01 1.723145e-01 -4.368519e-02 7.105221e-01 -7.807714e-02 -1.034169e-01 3.982301e-01 -1.713098e-01 -7.153205e-01 -8.688557e-02 -1.492511e-01 -1.029194e-01 -1.444943e-01 -3.882709e-02 -3.961288e-03 -1.770143e-02 7.102969e-02 7.922587e-02 -8.717934e-03 1.006013e-01 -2.356519e-02 1.652189e-01
<VARIANCE> 39
 4.874656e+01 3.878352e+01 4.140296e+01 3.442319e+01 3.980208e+01 3.516908e+01 4.182581e+01 7.754502e+01 4.232278e+01 3.427514e+01 5.925641e+01 2.733214e+01 1.055118e+02 1.367084e+00 2.182205e+00 2.025174e+00 2.230811e+00 2.675267e+00 2.683149e+00 2.796730e+00 4.234950e+00 3.017221e+00 2.383442e+00 3.042944e+00 2.306846e+00 3.341486e+00 2.627969e-01 3.818865e-01 3.737776e-01 4.158656e-01 4.737830e-01 4.755283e-01 5.250919e-01 7.204757e-01 5.353211e-01 4.556440e-01 5.410645e-01 4.041739e-01 3.900316e-01
<GCONST> 1.228173e+02
<TRANSP> 5
 0.000000e+00 1.000000e+00 0.000000e+00 0.000000e+00 0.000000e+00
 0.000000e+00 5.923839e-01 4.076161e-01 0.000000e+00 0.000000e+00
 0.000000e+00 0.000000e+00 7.845577e-01 2.154423e-01 0.000000e+00
 0.000000e+00 0.000000e+00 0.000000e+00 7.932065e-01 2.067935e-01
 0.000000e+00 0.000000e+00 0.000000e+00 0.000000e+00 0.000000e+00
<ENDHMM>
~h "o"
<BEGINHMM>
<NUMSTATES> 5
<STATE> 2
<MEAN> 39
 -6.304126e-01 -1.701172e+00 -8.093503e+00 -1.475582e+01 -1.153230e+01 2.651568e+00 -1.076614e+01 -7.490870e+00 -2.822137e+00 -1.422273e+00 3.022330e-01 -4.521402e+00 6.261975e+01 1.776119e+00 -3.143904e-01 -9.830067e-01 -2.442398e+00 -1.374273e+00 1.846626e+00 1.715096e-01 -5.883279e-01 8.775361e-01 1.712505e-01 9.934784e-01 -3.447516e-01 2.124054e+00 -4.438930e-01 -3.888328e-02 7.275435e-02 2.100002e-01 2.528656e-01 1.189572e-02 2.872740e-01 1.664931e-02 -1.072644e-01 -8.950338e-02 -1.221794e-02 1.172082e-01 -3.974446e-01
<VARIANCE> 39
 3.533754e+01 3.658873e+01 5.464643e+01 1.001258e+02 5.517275e+01 6.032612e+01 7.216318e+01 6.154779e+01 6.674386e+01 5.958294e+01 4.842167e+01 3.992343e+01 1.061034e+02 4.826928e+00 3.007490e+00 5.899756e+00 5.903352e+00 6.679388e+00 5.613738e+00 4.891509e+00 6.114714e+00 5.156670e+00 5.067101e+00 4.740861e+00 3.886381e+00 5.422719e+00 7.912598e-01 5.227742e-01 6.953012e-01 1.147456e+00 8.469123e-01 8.549843e-01 8.103296e-01 8.393125e-01 8.967363e-01 7.960273e-01 6.968198e-01 5.950478e-01 1.126158e+00
<GCONST> 1.426777e+02
<STATE> 3
<MEAN> 39
 1.301730e+00 -2.975760e+00 -1.204504e+01 -1.961164e+01 -1.485405e+01 8.799715e+00 -9.619139e+00 -9.879129e+00 7.005243e-01 -2.921281e+00 5.092409e+00 -5.271820e+00 6.939513e+01 3.707210e-02 -1.123342e-01 -3.350164e-01 -2.691563e-01 1.750028e-01 3.269436e-01 3.178019e-01 -9.712505e-02 2.069403e-02 6.692502e-02 9.216490e-02 -4.555757e-02 1.934589e-01 -1.648758e-01 1.136790e-01 3.587340e-01 6.977602e-01 3.485457e-01 -6.019903e-01 -1.075635e-01 1.016681e-01 -2.623852e-01 2.904656e-02 -4.384222e-01 7.449193e-02 -4.906141e-01
<VARIANCE> 39
 1.152923e+01 3.435350e+01 3.862510e+01 6.105958e+01 3.860593e+01 4.739478e+01 8.177415e+01 5.232303e+01 5.109760e+01 7.099659e+01 4.443490e+01 4.367591e+01 2.100706e+01 4.801493e-01 1.401820e+00 1.592085e+00 4.499586e+00 2.479609e+00 3.643560e+00 3.709276e+00 3.207585e+00 3.920425e+00 4.004672e+00 2.701415e+00 2.522107e+00 1.003724e+00 2.132652e-01 2.542472e-01 3.271074e-01 4.625147e-01 5.902892e-01 5.315633e-01 6.329329e-01 6.157993e-01 6.426047e-01 7.392499e-01 5.556296e-01 5.233173e-01 2.314084e-01
<GCONST> 1.206891e+02
<STATE> 4
<MEAN> 39
 1.199083e+00 -8.951660e-01 -1.069622e+01 -1.946645e+01 -1.099820e+01 5.342782e+00 -8.130830e+00 -7.694730e+00 -4.054358e+00 -1.791408e+00 3.295189e-01 -3.252353e+00 6.272705e+01 -9.023376e-02 2.034684e-01 3.552427e-01 1.059819e+00 4.228387e-01 -5.599998e-01 4.406880e-02 -1.409661e-02 -8.088353e-02 1.700792e-02 -5.001560e-01 -8.435169e-02 -1.217067e+00 -7.871895e-02 1.382876e-02 1.562982e-01 2.841034e-01 3.250213e-02 -1.020527e-01 -3.621587e-02 -4.953259e-02 4.517352e-02 -4.310917e-02 -4.434360e-02 -1.502133e-02 -2.046597e-01
<VARIANCE> 39
 1.824022e+01 3.713692e+01 5.252015e+01 7.406603e+01 5.130114e+01 4.392947e+01 7.802984e+01 5.383471e+01 5.668027e+01 6.891903e+01 4.766826e+01 4.395303e+01 9.242312e+01 7.401478e-01 1.507685e+00 1.664083e+00 3.140097e+00 2.461740e+00 2.519450e+00 2.544270e+00 2.483948e+00 2.832341e+00 2.548741e+00 2.479375e+00 2.060568e+00 2.992495e+00 1.306065e-01 2.428896e-01 2.677278e-01 3.918212e-01 4.182998e-01 4.080130e-01 4.813253e-01 4.337164e-01 4.926553e-01 4.772226e-01 4.005508e-01 3.873943e-01 3.304872e-01
<GCONST> 1.196465e+02
<TRANSP> 5
 0.000000e+00 1.000000e+00 0.000000e+00 0.000000e+00 0.000000e+00
 0.000000e+00 5.910027e-01 4.089973e-01 0.000000e+00 0.000000e+00
 0.000000e+00 0.000000e+00 7.288968e-01 2.711032e-01 0.000000e+00
 0.000000e+00 0.000000e+00 0.000000e+00 8.109004e-01 1.890995e-01
 0.000000e+00 0.000000e+00 0.000000e+00 0.000000e+00 0.000000e+00
<ENDHMM>
~h "p"
<BEGINHMM>
<NUMSTATES> 5
<STATE> 2
<MEAN> 39
 -1.034928e+01 -3.272505e-02 -4.535318e+00 -3.860534e+00 -4.853979e+00 -3.302060e+00 -5.687539e+00 -5.070080e+00 -4.425034e+00 -3.430503e+00 -3.443931e+00 -3.200929e+00 3.563395e+01 -5.630878e-01 3.505392e-02 1.179263e-02 1.495940e-01 3.884950e-02 -2.041862e-01 1.087793e-01 2.001975e-01 8.622680e-02 2.379559e-02 6.958785e-02 2.010591e-01 -6.293258e-01 2.625485e-02 -1.391014e-01 5.067550e-03 -3.620000e-02 -3.075614e-02 1.506432e-02 -4.907369e-02 -2.599275e-02 -5.928163e-03 -7.665477e-03 4.608397e-02 1.745390e-02 4.638655e-01
<VARIANCE> 39
 3.422534e+01 2.445180e+01 2.282807e+01 2.048367e+01 1.971515e+01 2.532099e+01 2.509919e+01 2.643760e+01 2.823128e+01 2.508628e+01 2.301751e+01 2.037366e+01 3.269574e+01 1.130785e+00 1.010171e+00 1.146526e+00 1.283317e+00 1.419989e+00 1.849716e+00 1.770475e+00 1.994753e+00 1.970737e+00 1.874375e+00 1.835093e+00 1.553359e+00 1.847008e+00 1.606142e-01 2.454221e-01 2.333585e-01 2.771665e-01 3.077792e-01 3.598555e-01 3.755272e-01 3.933038e-01 3.967341e-01 3.867728e-01 3.814467e-01 3.139975e-01 6.020023e-01
<GCONST> 1.045911e+02
<STATE> 3
<MEAN> 39
 -9.399338e+00 1.094614e+00 -2.981200e+00 -2.800154e+00 -4.919649e+00 -3.351751e+00 -5.509642e+00 -5.098848e+00 -3.968463e+00 -2.981777e+00 -3.153349e+00 -3.164018e+00 3.889812e+01 -3.116014e-01 -1.544137e+00 -3.895841e-01 -6.177688e-01 -3.461376e-01 -3.891383e-01 -5.805165e-01 -1.515249e-01 1.949213e-01 -7.470509e-02 5.790934e-01 3.326363e-01 4.588193e+00 9.262318e-01 -5.186805e-01 -3.669873e-01 -7.796431e-01 -4.927844e-01 4.073996e-01 -2.954520e-01 -2.402979e-01 3.794911e-02 2.504078e-02 2.522881e-01 -3.794248e-01 2.106708e+00
<VARIANCE> 39
 3.639946e+01 2.282314e+01 2.834307e+01 2.358267e+01 2.488706e+01 3.198407e+01 3.030966e+01 2.958999e+01 3.111436e+01 2.499296e+01 2.453472e+01 2.175489e+01 6.179101e+01 4.916469e+00 3.037493e+00 3.791131e+00 4.210598e+00 3.615077e+00 4.663754e+00 3.605724e+00 3.580605e+00 3.916257e+00 3.333616e+00 3.346796e+00 3.060265e+00 1.134816e+01 5.429259e-01 5.737787e-01 7.513636e-01 7.406895e-01 7.173511e-01 9.317318e-01 7.711710e-01 7.072557e-01 6.652222e-01 6.360769e-01 6.019757e-01 6.080923e-01 9.729117e-01
<GCONST> 1.289706e+02
<STATE> 4
<MEAN> 39
 -6.318949e+00 -5.327907e+00 -6.902881e+00 -8.510582e+00 -7.325064e+00 -2.821509e+00 -8.232254e+00 -6.924343e+00 -3.547434e+00 -2.497486e+00 -6.649169e-01 -3.567555e+00 5.968956e+01 2.720428e+00 -1.741048e+00 -1.366886e+00 -2.652754e+00 -1.188508e+00 1.444494e+00 -7.190132e-01 -5.776858e-01 4.607359e-01 1.987459e-01 8.352515e-01 -1.118695e+00 6.443912e+00 3.229133e-01 3.328102e-01 1.313370e-01 5.496577e-02 -7.637669e-02 2.715384e-01 9.130791e-02 1.064880e-01 1.401315e-01 -1.053125e-02 -2.019406e-01 -3.215604e-01 -9.437151e-01
<VARIANCE> 39
 5.446832e+01 2.496565e+01 3.394969e+01 6.245893e+01 2.766876e+01 6.064761e+01 3.622153e+01 2.989178e+01 2.828964e+01 2.977129e+01 2.912545e+01 2.843090e+01 6.584917e+01 4.840527e+00 5.324492e+00 7.149714e+00 7.572012e+00 6.364011e+00 7.857917e+00 6.496308e+00 4.944192e+00 4.759885e+00 4.511045e+00 4.815385e+00 4.941831e+00 1.108014e+01 1.204743e+00 7.661995e-01 7.999377e-01 1.340241e+00 1.056827e+00 1.193243e+00 7.517045e-01 8.162779e-01 8.396854e-01 6.803914e-01 7.680635e-01 6.958889e-01 1.223353e+00
<GCONST> 1.406192e+02
<TRANSP> 5
 0.000000e+00 1.000000e+00 0.000000e+00 0.000000e+00 0.000000e+00
 0.000000e+00 8.639854e-01 1.360146e-01 0.000000e+00 0.000000e+00
 0.000000e+00 0.000000e+00 5.718112e-01 4.281888e-01 0.000000e+00
 0.000000e+00 0.000000e+00 0.000000e+00 4.681093e-01 5.318907e-01
 0.000000e+00 0.000000e+00 0.000000e+00 0.000000e+00 0.000000e+00
<ENDHMM>
~h "q"
<BEGINHMM>
<NUMSTATES> 5
<STATE> 2
<MEAN> 39
 -1.155629e+01 -5.045168e-01 -2.921118e-01 -8.466048e+00 -9.790345e+00 -5.625011e+00 -1.223116e+01 -7.252629e+00 -8.375998e+00 -9.370601e-01 -4.104757e+00 -6.163057e+00 4.671809e+01 -2.589568e-01 -2.016961e-01 -5.923249e-01 -4.618227e-01 4.507077e-01 4.187592e-02 1.886602e-01 3.194323e-01 -2.111626e-01 -2.274000e-01 -4.772649e-01 5.976048e-02 -7.139503e-01 2.336463e-01 3.747756e-02 2.166532e-01 4.853098e-02 -1.809548e-01 3.790527e-02 -1.585622e-01 6.668180e-02 -1.812912e-01 -3.241686e-01 1.263391e-01 -4.963413e-02 -9.102626e-02
<VARIANCE> 39
 4.994871e+01 3.953834e+01 9.077257e+01 1.193518e+02 4.902227e+01 4.071712e+01 5.253712e+01 4.224356e+01 1.956174e+01 1.934865e+01 2.431259e+01 3.348079e+01 8.647615e+01 3.352629e+00 3.406393e+00 9.897366e+00 4.111924e+00 5.991689e+00 2.419665e+00 2.775781e+00 2.792201e+00 2.478415e+00 2.960926e+00 4.513843e+00 2.495575e+00 1.044475e+01 6.137309e-01 7.942259e-01 1.757691e+00 7.217837e-01 1.111321e+00 4.033896e-01 5.684658e-01 5.772078e-01 5.780078e-01 5.306540e-01 8.118951e-01 5.545326e-01 1.294644e+00
<GCONST> 1.344632e+02
<STATE> 3
<MEAN> 39
 -1.175180e+01 2.777076e+00 2.485070e+00 -2.075914e+00 -8.054741e+00 -8.000506e+00 -1.076295e+01 -7.558908e+00 -1.159555e+01 -6.241443e+00 -5.750890e+00 -2.649149e+00 4.093778e+01 4.192749e-01 2.593984e-01 -6.145785e-01 7.066373e-01 3.455698e-01 1.321791e-01 4.968861e-01 3.644856e-01 5.246074e-01 -4.411570e-01 2.074813e-01 2.858013e-01 -1.992491e+00 -1.319134e-01 -1.795432e-01 -1.485630e-01 -1.251366e-01 9.503130e-02 7.277559e-02 6.847966e-02 1.403976e-01 3.690032e-01 3.721581e-01 2.281354e-01 4.613067e-02 3.407679e-01
<VARIANCE> 39
 1.860052e+01 3.873980e+01 5.487928e+01 6.744128e+01 1.258150e+01 6.385727e+01 3.231629e+01 4.097120e+01 2.897415e+01 1.610933e+01 2.172882e+01 2.470581e+01 4.402252e+01 1.877437e+00 1.555664e+00 2.174443e+00 9.213595e-01 1.593656e+00 9.671296e-01 2.533964e+00 2.388049e+00 2.888578e+00 1.998448e+00 2.541102e+00 1.467555e+00 1.245794e+00 2.657835e-01 1.637902e-01 3.084885e-01 2.306449e-01 2.763932e-01 1.589719e-01 4.599765e-01 3.654261e-01 4.546331e-01 3.088503e-01 8.053940e-01 1.095887e-01 2.500631e-01
<GCONST> 1.073937e+02
<STATE> 4
<MEAN> 39
 -1.428109e+01 -1.176466e+00 -4.787961e+00 -3.317147e+00 -4.847422e+00 -5.493263e+00 -6.936887e+00 -5.594470e+00 -6.158048e+00 -4.689225e+00 -3.007270e+00 -1.993108e+00 3.332236e+01 -1.261518e-02 -5.734707e-02 -1.579738e-02 -1.686101e-02 5.881314e-02 3.129464e-02 2.924204e-02 2.231239e-02 2.453356e-02 4.387726e-02 7.189237e-03 3.910227e-03 -1.611459e-02 -3.784803e-04 1.913732e-03 1.540856e-02 -5.413655e-03 5.739356e-03 1.235452e-02 -6.750116e-03 -7.684729e-03 -1.108143e-02 -1.256046e-03 -1.134467e-02 -1.417665e-02 3.365408e-02
<VARIANCE> 39
 1.077466e+01 1.644902e+01 1.165883e+01 1.772975e+01 1.350684e+01 1.884860e+01 2.442903e+01 2.176081e+01 1.907172e+01 2.078008e+01 1.980896e+01 1.523310e+01 1.802652e+01 3.977525e-01 8.708393e-01 6.631760e-01 9.516537e-01 1.290097e+00 1.593931e+00 1.899431e+00 1.879335e+00 1.664401e+00 1.544813e+00 1.944659e+00 1.575192e+00 5.289813e-01 8.158375e-02 1.774165e-01 1.298160e-01 1.887996e-01 2.603297e-01 3.279706e-01 3.766882e-01 4.001330e-01 3.458114e-01 3.144340e-01 3.840729e-01 3.256791e-01 9.663600e-02
<GCONST> 9.155364e+01
<TRANSP> 5
 0.000000e+00 1.000000e+00 0.000000e+00 0.000000e+00 0.000000e+00
 0.000000e+00 8.464501e-01 1.535499e-01 0.000000e+00 0.000000e+00
 0.000000e+00 0.000000e+00 7.420135e-01 2.579865e-01 0.000000e+00
 0.000000e+00 0.000000e+00 0.000000e+00 9.834860e-01 1.651397e-02
 0.000000e+00 0.000000e+00 0.000000e+00 0.000000e+00 0.000000e+00
<ENDHMM>
~h "r"
<BEGINHMM>
<NUMSTATES> 5
<STATE> 2
<MEAN> 39
 5.631406e-02 -7.722861e+00 -9.393747e+00 -4.259385e+00 -1.146879e+01 -4.435431e+00 -1.205529e+01 -7.398218e+00 4.689924e+00 -2.757270e-01 -2.942305e+00 -7.693586e+00 6.696380e+01 4.321341e-01 9.160036e-02 3.755837e-01 1.032011e+00 7.765940e-02 -1.208834e-01 -1.040358e+00 -3.257385e-01 1.415612e-01 -5.813716e-03 1.598669e-01 2.050412e-01 -1.002756e+00 -1.304592e-01 9.206641e-02 1.619809e-01 -1.587350e-01 1.143563e-01 -1.778175e-02 2.404226e-01 1.516977e-01 -4.709822e-01 -8.163627e-02 9.497213e-02 6.168795e-02 -1.102082e-01
<VARIANCE> 39
 1.847988e+01 2.655637e+01 5.491829e+01 4.164310e+01 5.405370e+01 5.102023e+01 7.734361e+01 9.578396e+01 5.556873e+01 4.811669e+01 4.506085e+01 4.769997e+01 4.817881e+01 1.954858e+00 1.698493e+00 3.879334e+00 3.785849e+00 4.737273e+00 5.344430e+00 5.138449e+00 4.488590e+00 5.181867e+00 4.014487e+00 3.640761e+00 3.523334e+00 3.104490e+00 3.307264e-01 2.706013e-01 5.513569e-01 5.486593e-01 7.138270e-01 6.489813e-01 8.239477e-01 8.044468e-01 8.501989e-01 6.514234e-01 6.113067e-01 5.846965e-01 6.001750e-01
<GCONST> 1.319359e+02
<STATE> 3
<MEAN> 39
 -2.611012e-01 -5.439153e+00 -5.753158e+00 -1.883832e+00 -7.954881e+00 -7.662483e+00 -1.359463e+01 -5.455850e+00 7.295252e-01 -5.154934e-01 -1.788707e+00 -5.491912e+00 6.349849e+01 -8.227685e-02 4.139815e-01 7.862625e-01 3.963488e-01 5.919007e-01 -5.690271e-01 1.092079e-01 3.155774e-01 -1.064851e+00 -9.923727e-02 1.161090e-01 4.571081e-01 -1.118123e+00 -1.955970e-01 -1.572047e-03 -2.181144e-03 -4.903380e-01 -2.756422e-01 3.612947e-01 3.377679e-01 1.774516e-01 -9.162416e-02 -1.248472e-01 -6.352041e-02 -1.559481e-01 2.007670e-01
<VARIANCE> 39
 2.132357e+01 2.486344e+01 4.813712e+01 3.706534e+01 6.179069e+01 9.488683e+01 6.926951e+01 8.975359e+01 5.465985e+01 4.134817e+01 4.221984e+01 4.291623e+01 5.192300e+01 1.878527e+00 2.123554e+00 3.179258e+00 3.261903e+00 4.697655e+00 6.907514e+00 4.836573e+00 4.621276e+00 5.292605e+00 3.321272e+00 3.337381e+00 3.540981e+00 3.570667e+00 4.056557e-01 4.122725e-01 5.885872e-01 7.130076e-01 1.134315e+00 1.555735e+00 9.727820e-01 9.522775e-01 1.099302e+00 7.809666e-01 8.482750e-01 7.455580e-01 8.371326e-01
<GCONST> 1.359882e+02
<STATE> 4
<MEAN> 39
 -5.919323e+00 -4.788505e+00 -5.725242e+00 -3.590290e+00 -5.084000e+00 -4.489412e+00 -1.042818e+01 -4.808457e+00 -8.971611e-01 -2.733076e+00 -3.043076e+00 -4.632178e+00 5.126532e+01 -2.120378e-01 1.031468e-01 2.052400e-01 -1.272640e-01 -1.827620e-01 1.018553e-01 2.252161e-01 1.510238e-01 -3.460443e-01 -1.386475e-01 1.905606e-02 4.293609e-02 -4.453922e-01 3.428453e-02 -6.578762e-02 -6.026391e-02 -9.693978e-02 -1.999678e-01 7.162695e-02 9.810261e-02 -4.551011e-02 5.407846e-03 -9.511195e-03 2.396598e-02 -9.841243e-02 2.535836e-01
<VARIANCE> 39
 5.722527e+01 3.784660e+01 4.488644e+01 3.435257e+01 4.905349e+01 5.233368e+01 6.093206e+01 5.729583e+01 4.363280e+01 4.351112e+01 3.863634e+01 3.487598e+01 1.684528e+02 2.321455e+00 2.524014e+00 2.878420e+00 2.285608e+00 3.407155e+00 3.277638e+00 3.084461e+00 3.463620e+00 3.724073e+00 2.741805e+00 2.889894e+00 2.535294e+00 4.891006e+00 4.401231e-01 4.109423e-01 5.165895e-01 4.874093e-01 6.325997e-01 6.352504e-01 6.527067e-01 6.109728e-01 6.017392e-01 5.744931e-01 5.537547e-01 4.836496e-01 5.445945e-01
<GCONST> 1.290171e+02
<TRANSP> 5
 0.000000e+00 1.000000e+00 0.000000e+00 0.000000e+00 0.000000e+00
 0.000000e+00 5.279483e-01 4.720517e-01 0.000000e+00 0.000000e+00
 0.000000e+00 0.000000e+00 3.801669e-01 6.198331e-01 0.000000e+00
 0.000000e+00 0.000000e+00 0.000000e+00 6.970806e-01 3.029194e-01
 0.000000e+00 0.000000e+00 0.000000e+00 0.000000e+00 0.000000e+00
<ENDHMM>
~h "s"
<BEGINHMM>
<NUMSTATES> 5
<STATE> 2
<MEAN> 39
 -1.448298e+01 3.138839e+00 -2.404219e+00 -3.234994e+00 -2.570688e+00 -6.432000e+00 -6.533528e+00 -2.691847e+00 -1.961277e+00 -2.608089e+00 -3.465262e+00 -2.148125e+00 6.026855e+01 -4.294776e+00 1.613095e+00 -1.494011e-01 1.793005e-01 1.709728e+00 -5.861790e-03 8.786470e-01 1.119992e+00 1.799647e-01 -7.970354e-02 6.777383e-01 7.234960e-01 -1.890546e-01 -2.790525e-01 -3.501743e-01 -3.290809e-01 -2.166836e-01 -3.381586e-01 1.977708e-01 -2.190282e-02 -1.210498e-01 -4.935480e-03 3.432197e-02 1.859601e-01 -7.907210e-02 5.560199e-04
<VARIANCE> 39
 8.396817e+01 4.211456e+01 4.824620e+01 3.701385e+01 5.173175e+01 4.822338e+01 7.406190e+01 4.750372e+01 4.071559e+01 3.662008e+01 4.005108e+01 2.840161e+01 1.213563e+02 4.194717e+00 4.313289e+00 4.177052e+00 3.484923e+00 4.947465e+00 4.187564e+00 4.351251e+00 4.528007e+00 3.668349e+00 2.775686e+00 3.472346e+00 2.695593e+00 3.126359e+00 1.112521e+00 7.555912e-01 4.840063e-01 4.793719e-01 7.448465e-01 6.109576e-01 7.230970e-01 7.323634e-01 5.973536e-01 5.009202e-01 5.743135e-01 4.777326e-01 2.946251e-01
<GCONST> 1.329686e+02
<STATE> 3
<MEAN> 39
 -3.120076e+01 4.909686e+00 -6.073273e+00 -4.413589e+00 1.702273e-01 -4.268825e+00 -4.072391e+00 -3.639834e-01 -5.645696e-01 -1.832456e+00 5.651051e-01 6.642422e-02 5.951809e+01 -6.130910e-01 -3.668132e-01 -3.589105e-01 -1.768560e-01 -2.064554e-01 -1.333239e-02 6.448440e-02 4.003673e-02 6.138754e-02 8.394063e-02 1.531297e-01 1.463389e-01 -1.844584e-01 8.240948e-01 -1.947437e-01 1.768515e-01 -1.243178e-02 -1.993204e-01 -1.538251e-01 -1.823816e-01 -1.444187e-01 -3.937728e-02 -5.533818e-02 -1.760646e-01 -1.372288e-01 5.122668e-02
<VARIANCE> 39
 2.186539e+01 1.674033e+01 3.057825e+01 3.949191e+01 3.376836e+01 3.993684e+01 5.025573e+01 2.632524e+01 2.421579e+01 1.932744e+01 2.112316e+01 1.716273e+01 3.321230e+01 2.505305e+00 1.334061e+00 1.553257e+00 1.288564e+00 1.532104e+00 1.714391e+00 1.692366e+00 1.726897e+00 1.678667e+00 1.595603e+00 1.546194e+00 1.354674e+00 6.825763e-01 4.941244e-01 2.375194e-01 2.898403e-01 2.766666e-01 3.354300e-01 3.339421e-01 3.633881e-01 3.789721e-01 3.388593e-01 3.116600e-01 3.173890e-01 2.839595e-01 1.153711e-01
<GCONST> 1.042450e+02
<STATE> 4
<MEAN> 39
 -2.168790e+01 8.449733e-01 -5.525389e+00 -4.924739e+00 -3.168352e+00 -7.296776e+00 -6.279436e+00 -1.999393e+00 -1.252599e+00 -2.480147e+00 -2.144286e+00 -1.322534e+00 5.672746e+01 4.050584e+00 -7.604665e-01 5.813901e-01 -2.017155e-01 -1.035441e+00 -2.311647e-01 -1.187665e+00 -1.114676e+00 -4.379585e-02 -1.157051e-01 -7.626596e-01 -1.044839e+00 1.902555e-01 6.308216e-01 -3.170012e-03 1.226994e-01 -4.286432e-02 -1.572161e-01 2.939057e-01 -1.756311e-01 -2.325658e-01 -7.828354e-03 4.896896e-02 5.153430e-02 -2.113490e-01 2.575750e-01
<VARIANCE> 39
 7.809863e+01 2.839782e+01 3.825042e+01 3.437067e+01 3.531074e+01 4.344822e+01 5.905508e+01 3.645529e+01 3.316254e+01 2.761370e+01 3.049964e+01 2.447118e+01 1.140214e+02 8.687982e+00 3.236274e+00 3.918924e+00 3.311641e+00 3.823371e+00 4.300953e+00 4.495180e+00 4.481221e+00 3.937783e+00 2.614472e+00 2.831814e+00 2.878175e+00 5.374863e+00 1.392124e+00 5.111899e-01 5.173724e-01 4.872016e-01 5.954118e-01 7.291280e-01 7.816393e-01 8.141191e-01 6.423655e-01 5.216187e-01 5.663051e-01 5.108256e-01 5.338929e-01
<GCONST> 1.315925e+02
<TRANSP> 5
 0.000000e+00 1.000000e+00 0.000000e+00 0.000000e+00 0.000000e+00
 0.000000e+00 7.500790e-01 2.499210e-01 0.000000e+00 0.000000e+00
 0.000000e+00 0.000000e+00 8.536284e-01 1.463717e-01 0.000000e+00
 0.000000e+00 0.000000e+00 0.000000e+00 7.444901e-01 2.555099e-01
 0.000000e+00 0.000000e+00 0.000000e+00 0.000000e+00 0.000000e+00
<ENDHMM>
~h "t"
<BEGINHMM>
<NUMSTATES> 5
<STATE> 2
<MEAN> 39
 -1.009028e+01 1.907326e-02 -4.598596e+00 -3.627921e+00 -5.034387e+00 -4.726429e+00 -6.780474e+00 -4.750292e+00 -3.204829e+00 -2.976716e+00 -3.834634e+00 -3.764968e+00 3.717399e+01 -4.963262e-01 1.931933e-02 2.465710e-02 6.705140e-02 1.830092e-02 1.430853e-02 2.728102e-01 2.226707e-01 -7.199315e-02 -9.434017e-04 1.115624e-01 2.342219e-01 -9.611267e-01 -6.853462e-02 -1.690916e-01 -2.261728e-02 -7.456237e-02 -2.414053e-02 -1.615483e-02 -3.443664e-02 1.300910e-03 1.856563e-02 -2.129632e-02 5.484647e-02 2.447186e-02 5.396049e-01
<VARIANCE> 39
 3.761303e+01 2.626264e+01 2.602652e+01 2.398306e+01 2.259814e+01 2.655081e+01 3.259679e+01 3.239275e+01 3.370195e+01 2.860981e+01 2.879089e+01 2.506279e+01 4.772784e+01 1.274659e+00 1.187926e+00 1.301131e+00 1.454899e+00 1.776995e+00 1.782960e+00 2.004235e+00 2.163984e+00 2.044607e+00 1.904814e+00 1.951512e+00 1.708554e+00 3.103711e+00 2.375571e-01 3.085678e-01 2.799681e-01 3.221979e-01 3.836321e-01 3.647225e-01 3.948155e-01 4.265067e-01 4.268077e-01 3.942043e-01 4.056883e-01 3.485485e-01 7.351493e-01
<GCONST> 1.102433e+02
<STATE> 3
<MEAN> 39
 -9.719045e+00 1.662747e+00 -2.581152e+00 -2.602751e+00 -5.468421e+00 -5.102819e+00 -6.814097e+00 -5.098651e+00 -3.020485e+00 -2.185692e+00 -3.607835e+00 -3.787954e+00 3.897454e+01 -1.426193e+00 -1.783558e+00 -5.754350e-01 -9.337747e-01 7.904499e-02 -4.324551e-01 -7.921422e-02 2.559649e-01 -2.784144e-02 -3.327499e-01 4.303995e-01 4.768928e-01 3.652994e+00 4.601137e-01 -3.814100e-01 -2.522192e-01 -3.547306e-01 -3.600820e-01 -1.116794e-01 -3.557893e-01 -2.214629e-01 2.242694e-01 1.111684e-02 -1.953938e-02 -2.789102e-01 2.183267e+00
<VARIANCE> 39
 4.175238e+01 2.732639e+01 3.883350e+01 2.912751e+01 3.418390e+01 3.507896e+01 3.731042e+01 3.639958e+01 3.670550e+01 2.754271e+01 3.199161e+01 2.434911e+01 6.122953e+01 4.019395e+00 3.375896e+00 4.046289e+00 3.455050e+00 4.339067e+00 4.057796e+00 3.985028e+00 4.239610e+00 4.252446e+00 3.131285e+00 3.683633e+00 3.186232e+00 1.381157e+01 6.842300e-01 5.872273e-01 7.742109e-01 5.813476e-01 8.076163e-01 7.167853e-01 7.472746e-01 7.869809e-01 8.441970e-01 5.831529e-01 6.122973e-01 6.256787e-01 1.233339e+00
<GCONST> 1.321141e+02
<STATE> 4
<MEAN> 39
 -1.286745e+01 -5.774121e+00 -6.085326e+00 -7.212293e+00 -6.472141e+00 -7.748442e+00 -8.339235e+00 -4.705665e+00 -2.208348e+00 -2.973285e+00 -2.792262e+00 -2.948737e+00 5.872306e+01 1.546993e+00 -8.665997e-01 -6.303082e-01 -1.098896e+00 -1.013485e+00 -1.467444e-01 -1.195779e+00 -6.287336e-01 7.771681e-01 3.304973e-02 1.296879e-01 -1.007576e+00 6.288216e+00 1.030152e+00 5.770149e-01 2.726911e-01 1.478425e-01 -2.929685e-01 5.430272e-01 -1.421756e-01 -2.357047e-01 3.210223e-02 1.177613e-01 -1.047654e-02 -4.183083e-01 -7.690864e-01
<VARIANCE> 39
 3.783574e+01 2.381240e+01 3.027738e+01 2.906789e+01 3.095536e+01 3.577475e+01 3.877135e+01 3.127941e+01 3.456359e+01 2.865644e+01 2.920938e+01 3.057762e+01 8.879749e+01 5.430077e+00 4.420872e+00 7.397727e+00 4.915584e+00 5.993761e+00 5.428626e+00 5.547538e+00 5.329901e+00 7.402519e+00 3.800567e+00 4.515925e+00 4.736266e+00 1.260038e+01 8.041994e-01 6.639146e-01 9.371352e-01 6.887019e-01 9.876760e-01 1.017064e+00 9.974832e-01 9.402978e-01 9.531826e-01 7.074760e-01 8.081701e-01 8.161903e-01 1.619243e+00
<GCONST> 1.386719e+02
<TRANSP> 5
 0.000000e+00 1.000000e+00 0.000000e+00 0.000000e+00 0.000000e+00
 0.000000e+00 8.487466e-01 1.512534e-01 0.000000e+00 0.000000e+00
 0.000000e+00 0.000000e+00 5.409333e-01 4.590667e-01 0.000000e+00
 0.000000e+00 0.000000e+00 0.000000e+00 4.943509e-01 5.056491e-01
 0.000000e+00 0.000000e+00 0.000000e+00 0.000000e+00 0.000000e+00
<ENDHMM>
~h "u"
<BEGINHMM>
<NUMSTATES> 5
<STATE> 2
<MEAN> 39
 -8.629194e-01 1.765000e+00 -3.864013e+00 -8.338591e+00 -1.135607e+01 -2.242245e-01 -1.571915e+01 -9.754209e+00 -6.263396e+00 -2.480959e+00 -6.886662e-01 -3.436259e+00 5.983335e+01 2.195085e+00 1.022749e+00 -4.162480e-01 -1.919631e+00 -1.957319e+00 2.155811e+00 -1.240017e+00 -1.159293e+00 -7.824527e-01 -1.463378e-01 1.161263e+00 -3.061392e-02 1.317899e+00 -3.534914e-01 8.451004e-02 1.127110e-01 -1.246931e-01 4.716495e-02 2.328412e-01 4.220906e-01 1.777241e-01 -4.956873e-02 -1.373380e-01 3.682197e-03 7.882508e-02 -4.478633e-01
<VARIANCE> 39
 3.680671e+01 3.686390e+01 4.557852e+01 7.171664e+01 5.517397e+01 5.041882e+01 8.351249e+01 7.502431e+01 6.413986e+01 5.132815e+01 4.167193e+01 3.118823e+01 1.070152e+02 5.081211e+00 3.515025e+00 4.757533e+00 5.074949e+00 5.980967e+00 5.291052e+00 5.455529e+00 7.130986e+00 5.327825e+00 5.026807e+00 4.387167e+00 3.633121e+00 5.080935e+00 8.551476e-01 6.385005e-01 5.504962e-01 9.065948e-01 9.152020e-01 8.566757e-01 1.092911e+00 1.127427e+00 8.517594e-01 7.673139e-01 6.881032e-01 5.931047e-01 1.143304e+00
<GCONST> 1.419402e+02
<STATE> 3
<MEAN> 39
 2.749592e+00 4.393329e+00 -5.679876e+00 -1.440726e+01 -1.743789e+01 8.571913e+00 -1.677521e+01 -1.266104e+01 -7.979805e+00 -6.016371e+00 3.602168e+00 -2.090705e+00 6.400252e+01 1.931497e-01 1.589520e-01 -1.588967e-01 -4.897836e-01 -1.316028e-01 5.888263e-01 1.502534e-01 -2.236337e-01 -2.064779e-01 1.503917e-02 2.633182e-01 9.775832e-02 1.668294e-02 -3.311384e-01 -2.482539e-01 2.088312e-01 6.813859e-01 6.937501e-01 -7.814834e-01 2.727433e-01 2.810854e-01 2.626688e-01 2.342696e-01 -5.142813e-01 -1.600145e-01 -3.772761e-01
<VARIANCE> 39
 1.297773e+01 3.456122e+01 3.778685e+01 6.325592e+01 4.467756e+01 3.976038e+01 7.303188e+01 8.105889e+01 7.382828e+01 6.486557e+01 4.859458e+01 4.138269e+01 2.516079e+01 7.178091e-01 2.881414e+00 1.739525e+00 5.058676e+00 4.061701e+00 3.997330e+00 4.156403e+00 5.884151e+00 4.362491e+00 4.764701e+00 3.863050e+00 2.971923e+00 1.995353e+00 2.830932e-01 3.886104e-01 4.126482e-01 6.048123e-01 7.072635e-01 6.668310e-01 8.198574e-01 1.026325e+00 8.174688e-01 8.160269e-01 8.071761e-01 6.327723e-01 2.986703e-01
<GCONST> 1.292833e+02
<STATE> 4
<MEAN> 39
 2.317619e+00 5.320848e+00 -5.081997e+00 -1.394002e+01 -1.306606e+01 3.280415e+00 -1.474284e+01 -9.576438e+00 -8.760602e+00 -3.791159e+00 -2.210691e-01 -3.083274e+00 5.883780e+01 -3.383175e-01 -1.675138e-01 3.726890e-01 1.092738e+00 8.950503e-01 -9.649106e-01 5.656070e-01 1.403654e-01 4.670332e-01 3.001045e-01 -5.740048e-01 -2.488554e-01 -1.164868e+00 -1.963362e-01 -8.704339e-02 1.052478e-01 2.258934e-01 6.577958e-02 -9.865191e-02 7.202841e-02 -3.324811e-03 1.117742e-01 -6.761699e-02 -5.657236e-02 2.226206e-02 -1.292744e-01
<VARIANCE> 39
 1.707837e+01 3.873775e+01 4.352066e+01 7.189297e+01 5.236249e+01 4.647364e+01 7.162857e+01 7.702665e+01 6.951171e+01 6.394073e+01 4.301608e+01 4.137294e+01 7.308183e+01 1.022667e+00 2.222656e+00 2.251160e+00 3.419431e+00 3.656841e+00 3.333030e+00 3.510309e+00 3.589127e+00 3.417059e+00 3.095520e+00 3.358307e+00 2.752211e+00 3.851684e+00 1.966479e-01 3.774077e-01 3.364282e-01 5.252784e-01 5.575014e-01 5.147034e-01 6.293200e-01 7.236510e-01 5.808880e-01 6.236231e-01 5.492527e-01 4.999188e-01 3.811309e-01
<GCONST> 1.269939e+02
<TRANSP> 5
 0.000000e+00 1.000000e+00 0.000000e+00 0.000000e+00 0.000000e+00
 0.000000e+00 5.566335e-01 4.433665e-01 0.000000e+00 0.000000e+00
 0.000000e+00 0.000000e+00 7.101192e-01 2.898808e-01 0.000000e+00
 0.000000e+00 0.000000e+00 0.000000e+00 7.588460e-01 2.411540e-01
 0.000000e+00 0.000000e+00 0.000000e+00 0.000000e+00 0.000000e+00
<ENDHMM>
~h "w"
<BEGINHMM>
<NUMSTATES> 5
<STATE> 2
<MEAN> 39
 4.424858e-01 -5.548562e-01 -5.887175e+00 -1.303976e+01 -1.080994e+01 3.125185e+00 -1.104586e+01 -7.149441e+00 -5.722518e+00 -1.772325e+00 -6.065167e-02 -4.155490e+00 5.723356e+01 1.423198e+00 1.111459e+00 1.910286e-02 -1.709066e+00 -1.200047e+00 1.190602e+00 -2.190900e-01 -1.854204e-01 -9.446034e-01 -4.754534e-01 6.350116e-01 6.132970e-01 3.458548e-01 -1.553487e-01 -7.168809e-02 1.423865e-01 2.655055e-03 -1.433474e-01 -2.172165e-01 1.018646e-01 2.215170e-01 1.162545e-01 -1.755368e-01 -1.233323e-01 2.242681e-02 5.759452e-02
<VARIANCE> 39
 4.170161e+01 5.574286e+01 4.418404e+01 9.138441e+01 4.957537e+01 6.149489e+01 6.937509e+01 5.584892e+01 5.963160e+01 6.229128e+01 5.153553e+01 3.818694e+01 1.609726e+02 2.726981e+00 2.824263e+00 2.946385e+00 4.107452e+00 4.300483e+00 4.329924e+00 3.999794e+00 4.046360e+00 3.909202e+00 3.679313e+00 3.569492e+00 3.647163e+00 4.829003e+00 5.770602e-01 5.574294e-01 4.329254e-01 7.586622e-01 7.703108e-01 6.881698e-01 7.327986e-01 6.956256e-01 7.251182e-01 7.352309e-01 6.692123e-01 5.645066e-01 3.933411e-01
<GCONST> 1.358611e+02
<STATE> 3
<MEAN> 39
 5.287510e+00 3.201885e+00 -5.956811e+00 -2.216646e+01 -1.706498e+01 6.687297e+00 -1.176959e+01 -5.386228e+00 -5.968233e+00 -4.954675e+00 5.296119e-01 -1.921609e+00 6.220118e+01 1.219968e-03 -3.025840e-01 -2.114294e-01 -4.775680e-01 -5.450637e-02 2.119918e-01 1.517829e-01 -1.185492e-01 1.136865e-01 8.975612e-02 2.177466e-01 1.526643e-01 3.903485e-01 -2.740689e-01 -4.953455e-01 -2.212317e-01 3.166425e-01 4.918381e-01 -4.943601e-02 9.461423e-02 -1.792809e-01 2.219527e-01 3.137700e-01 2.957525e-02 -3.416150e-01 2.967272e-01
<VARIANCE> 39
 1.123714e+01 3.811940e+01 3.840508e+01 5.871860e+01 3.621231e+01 4.458173e+01 5.349125e+01 4.318217e+01 5.970767e+01 4.852271e+01 3.846698e+01 3.521161e+01 3.876149e+01 5.073834e-01 2.562660e+00 1.741726e+00 2.202872e+00 2.543221e+00 2.254461e+00 2.231201e+00 2.346031e+00 2.116289e+00 2.503545e+00 2.269754e+00 2.073582e+00 1.878887e+00 7.971138e-02 1.716506e-01 2.167112e-01 3.717061e-01 3.495185e-01 4.669593e-01 3.741372e-01 3.986038e-01 3.907121e-01 3.743096e-01 4.121538e-01 4.851298e-01 1.296149e-01
<GCONST> 1.121842e+02
<STATE> 4
<MEAN> 39
 2.448945e+00 -5.760554e+00 -1.097420e+01 -2.130402e+01 -9.733673e+00 8.649569e+00 -9.049836e+00 -8.939196e+00 -2.732080e+00 1.054099e-01 2.696930e+00 -6.222551e+00 6.892741e+01 -1.089927e+00 -2.026773e+00 -8.732718e-01 1.662288e+00 2.044872e+00 -8.030677e-01 2.450096e-01 -2.667628e-01 1.382439e+00 7.301186e-01 -8.651891e-01 -2.277248e+00 1.406333e+00 -3.706308e-02 2.385375e-01 3.423306e-01 5.329549e-01 -2.290778e-01 -6.108626e-01 -1.262558e-01 3.823626e-01 9.927758e-02 -4.310388e-01 -5.279177e-01 -2.178523e-02 -2.559119e-01
<VARIANCE> 39
 1.437196e+01 3.564839e+01 4.231468e+01 6.159606e+01 4.567695e+01 5.007220e+01 6.492487e+01 3.686657e+01 5.893347e+01 5.402760e+01 4.844101e+01 4.997039e+01 2.725864e+01 3.440728e-01 1.235073e+00 1.764481e+00 2.571807e+00 2.638904e+00 3.412795e+00 2.868211e+00 2.840950e+00 2.561926e+00 2.733394e+00 3.013393e+00 2.511580e+00 6.995317e-01 9.137574e-02 2.025059e-01 1.867771e-01 3.417315e-01 5.155262e-01 4.460717e-01 4.404601e-01 4.719936e-01 4.267623e-01 4.450102e-01 4.481066e-01 6.761780e-01 1.063759e-01
<GCONST> 1.141480e+02
<TRANSP> 5
 0.000000e+00 1.000000e+00 0.000000e+00 0.000000e+00 0.000000e+00
 0.000000e+00 6.967190e-01 3.032810e-01 0.000000e+00 0.000000e+00
 0.000000e+00 0.000000e+00 8.051116e-01 1.948884e-01 0.000000e+00
 0.000000e+00 0.000000e+00 0.000000e+00 6.581230e-01 3.418769e-01
 0.000000e+00 0.000000e+00 0.000000e+00 0.000000e+00 0.000000e+00
<ENDHMM>
~h "y"
<BEGINHMM>
<NUMSTATES> 5
<STATE> 2
<MEAN> 39
 -8.333769e+00 -1.265431e-01 6.458751e+00 -4.950864e+00 -1.481124e+01 -5.811728e+00 -9.643924e+00 -4.423690e+00 -7.092499e+00 -3.695205e+00 2.140201e-01 -4.853736e+00 5.605377e+01 1.039996e-01 6.269712e-01 2.126452e+00 -5.240384e-02 -1.551987e+00 -3.042400e-01 -8.258683e-01 -6.364624e-01 -1.147305e+00 -5.224223e-02 1.225818e+00 1.247386e-01 9.862338e-01 6.281425e-02 -1.344843e-01 -2.813190e-01 -9.097052e-02 1.551827e-01 1.406269e-01 -4.957097e-02 -8.808639e-02 1.197402e-01 -2.469251e-02 -5.404183e-02 -1.199492e-02 9.991090e-02
<VARIANCE> 39
 4.343754e+01 5.736510e+01 8.641666e+01 4.543944e+01 7.713297e+01 6.703648e+01 6.207458e+01 7.306107e+01 6.464883e+01 4.797736e+01 3.969999e+01 3.039908e+01 2.051958e+02 3.053906e+00 3.309873e+00 5.298479e+00 3.056284e+00 5.053271e+00 3.999556e+00 4.030948e+00 4.516098e+00 4.330255e+00 3.800385e+00 3.506889e+00 2.756879e+00 6.466180e+00 4.174688e-01 5.384466e-01 9.187210e-01 5.366390e-01 9.776989e-01 7.811536e-01 7.269025e-01 9.149092e-01 7.794378e-01 6.090323e-01 5.928371e-01 4.543959e-01 6.617954e-01
<GCONST> 1.377986e+02
<STATE> 3
<MEAN> 39
 -5.931552e+00 -1.663337e+00 1.168934e+01 -7.366792e+00 -2.223776e+01 -8.891554e+00 -1.263057e+01 -5.094103e+00 -8.799544e+00 -2.926297e+00 5.116626e+00 -3.958969e+00 6.773799e+01 1.825667e-01 -7.446362e-01 -7.816048e-01 -3.767143e-01 -2.734462e-01 -3.866967e-01 3.053408e-01 7.910227e-01 7.324661e-01 1.561402e-01 1.604250e-01 2.739537e-02 6.520458e-01 1.030839e-01 -3.392490e-01 -7.044723e-01 -6.887817e-02 4.022842e-01 8.532747e-02 3.107761e-01 4.637982e-01 5.068777e-01 -1.030675e-01 -4.885681e-01 -2.238580e-01 7.047449e-02
<VARIANCE> 39
 1.033948e+01 3.019064e+01 4.958051e+01 3.844442e+01 3.507507e+01 4.978881e+01 4.764016e+01 5.517645e+01 5.835351e+01 4.648406e+01 4.098470e+01 3.654830e+01 4.564005e+01 4.649294e-01 2.529600e+00 4.000307e+00 1.448541e+00 1.806670e+00 1.980682e+00 2.833937e+00 4.495495e+00 4.155282e+00 1.756166e+00 2.086523e+00 1.453615e+00 1.488504e+00 6.602950e-02 1.806961e-01 2.018901e-01 2.182528e-01 4.516810e-01 4.141412e-01 3.842209e-01 4.449246e-01 3.961899e-01 4.368129e-01 4.440999e-01 2.970052e-01 1.271055e-01
<GCONST> 1.117489e+02
<STATE> 4
<MEAN> 39
 -1.070338e+01 -2.872129e+00 -1.669503e-01 -6.135405e+00 -9.163377e+00 -5.178794e+00 -8.947669e+00 -3.761718e+00 -5.768902e+00 -4.344901e+00 -1.269543e+00 -2.965587e+00 4.525257e+01 1.179515e-01 -3.144664e-01 -4.768757e-01 -1.239193e-01 2.929952e-01 7.470623e-02 1.809666e-01 3.976412e-01 4.077575e-01 -1.264742e-01 -3.750362e-01 -1.949182e-01 3.155987e-01 4.908197e-03 3.641609e-02 -2.246823e-02 2.424662e-02 1.441584e-01 1.193502e-01 -2.967245e-02 -1.042604e-01 -4.183324e-02 -5.335672e-02 -1.159180e-01 -5.444767e-02 -1.501070e-02
<VARIANCE> 39
 2.724767e+01 3.806421e+01 6.470045e+01 3.472128e+01 6.674851e+01 3.704619e+01 5.134227e+01 4.330104e+01 4.466545e+01 3.174694e+01 3.231996e+01 2.119529e+01 2.323316e+02 6.831889e-01 1.704269e+00 3.465137e+00 1.365241e+00 2.304865e+00 1.763566e+00 2.521550e+00 2.873942e+00 3.002831e+00 2.172979e+00 2.670479e+00 1.731888e+00 1.503140e+00 1.196338e-01 1.834046e-01 2.445143e-01 2.642159e-01 4.515620e-01 4.072231e-01 3.601155e-01 4.460815e-01 4.006585e-01 3.874003e-01 3.967505e-01 3.113748e-01 1.553913e-01
<GCONST> 1.141000e+02
<TRANSP> 5
 0.000000e+00 1.000000e+00 0.000000e+00 0.000000e+00 0.000000e+00
 0.000000e+00 7.260438e-01 2.739561e-01 0.000000e+00 0.000000e+00
 0.000000e+00 0.000000e+00 8.000917e-01 1.999083e-01 0.000000e+00
 0.000000e+00 0.000000e+00 0.000000e+00 8.131699e-01 1.868301e-01
 0.000000e+00 0.000000e+00 0.000000e+00 0.000000e+00 0.000000e+00
<ENDHMM>
~h "z"
<BEGINHMM>
<NUMSTATES> 5
<STATE> 2
<MEAN> 39
 -8.623491e+00 6.518503e+00 9.166482e-01 -3.391564e-01 -5.581948e+00 -1.061321e+01 -1.141947e+01 -4.733077e+00 -2.258831e+00 -3.967480e+00 -5.096399e+00 -5.451425e-01 6.107037e+01 -2.157118e+00 2.401474e+00 -9.313081e-03 6.047593e-01 1.823361e+00 -2.260279e-01 6.335592e-01 3.581907e-01 1.474607e-02 -2.926398e-01 8.980980e-02 5.967636e-01 -9.450415e-02 -3.546489e-01 -6.077470e-02 -1.599716e-01 -1.809395e-01 7.001881e-03 3.842983e-01 2.064027e-01 1.398416e-01 5.708116e-03 6.993549e-02 2.009248e-01 -1.816852e-01 -2.134119e-02
<VARIANCE> 39
 4.647836e+01 4.485648e+01 4.485754e+01 4.549593e+01 5.163428e+01 4.616809e+01 5.848712e+01 4.477312e+01 4.762721e+01 4.607683e+01 3.287970e+01 2.615826e+01 1.210411e+02 3.853577e+00 2.647443e+00 3.001771e+00 2.827045e+00 3.507665e+00 3.600292e+00 3.932190e+00 4.459239e+00 3.602334e+00 2.779858e+00 3.172543e+00 2.479481e+00 3.581685e+00 4.815178e-01 5.167583e-01 4.077887e-01 4.004206e-01 6.312224e-01 5.318760e-01 7.534340e-01 6.314595e-01 5.880114e-01 5.283628e-01 4.560114e-01 4.755377e-01 3.746044e-01
<GCONST> 1.286212e+02
<STATE> 3
<MEAN> 39
 -2.204967e+01 1.370957e+01 2.116626e-01 8.685555e-01 1.230672e+00 -7.574312e+00 -8.047320e+00 -2.838641e+00 -2.192122e+00 -4.579486e+00 -2.201814e+00 -1.356300e-01 6.267624e+01 -7.356408e-01 -3.258108e-01 9.613357e-02 7.504887e-02 -1.215198e-01 1.339308e-01 7.138649e-02 4.861766e-02 -1.505686e-01 3.625474e-02 3.129679e-01 6.133598e-02 2.942097e-01 6.889750e-01 -5.316316e-01 6.799713e-02 -1.402233e-01 -5.470784e-01 -1.567000e-01 -2.370299e-01 -2.032061e-01 7.582517e-03 1.608944e-02 -4.977488e-02 -4.303364e-02 1.814419e-01
<VARIANCE> 39
 4.703883e+01 2.163976e+01 4.082326e+01 4.657995e+01 3.462695e+01 3.960377e+01 4.492108e+01 2.830373e+01 2.618058e+01 2.634233e+01 2.289246e+01 1.607268e+01 2.739309e+01 3.826708e+00 2.114880e+00 1.503655e+00 1.434125e+00 2.611619e+00 2.234713e+00 2.196539e+00 1.988514e+00 1.929341e+00 1.497137e+00 1.474411e+00 1.320927e+00 1.116269e+00 3.749769e-01 2.509013e-01 2.739003e-01 2.907606e-01 3.880382e-01 3.694811e-01 3.987042e-01 3.818065e-01 3.837805e-01 3.097098e-01 2.872087e-01 2.835254e-01 1.382413e-01
<GCONST> 1.088791e+02
<STATE> 4
<MEAN> 39
 -1.862004e+01 2.787206e+00 -2.443583e+00 -2.446132e+00 -3.821213e+00 -5.979084e+00 -7.382728e+00 -2.298651e+00 -1.344677e+00 -4.151147e+00 -1.975498e+00 -5.588003e-01 5.313787e+01 1.825312e+00 -1.060808e+00 6.071201e-02 -2.819014e-01 -1.312448e+00 -3.703251e-01 -7.267333e-01 -4.557126e-01 2.620102e-01 9.888732e-02 -9.835193e-02 -2.942474e-01 4.791884e-01 2.711505e-01 -4.974693e-02 1.681713e-03 -7.915810e-02 -9.686360e-02 1.814030e-01 -3.457155e-02 -6.728130e-04 1.835460e-02 4.134300e-03 3.698621e-04 -2.156944e-01 1.728906e-02
<VARIANCE> 39
 9.335027e+01 4.241837e+01 4.662499e+01 3.726705e+01 2.961687e+01 5.552219e+01 5.417090e+01 3.036678e+01 3.786899e+01 2.708632e+01 2.967102e+01 1.881969e+01 2.261113e+02 7.263631e+00 3.641764e+00 2.202835e+00 2.752709e+00 4.667938e+00 2.763952e+00 3.210129e+00 3.596893e+00 3.206340e+00 2.299350e+00 1.860727e+00 2.007505e+00 2.700112e+00 6.825410e-01 3.243235e-01 3.596271e-01 3.500560e-01 4.749238e-01 5.919657e-01 5.035661e-01 6.146367e-01 4.775386e-01 4.487461e-01 3.677599e-01 3.992417e-01 2.078872e-01
<GCONST> 1.242500e+02
<TRANSP> 5
 0.000000e+00 1.000000e+00 0.000000e+00 0.000000e+00 0.000000e+00
 0.000000e+00 7.456279e-01 2.543721e-01 0.000000e+00 0.000000e+00
 0.000000e+00 0.000000e+00 8.510587e-01 1.489413e-01 0.000000e+00
 0.000000e+00 0.000000e+00 0.000000e+00 8.070586e-01 1.929414e-01
 0.000000e+00 0.000000e+00 0.000000e+00 0.000000e+00 0.000000e+00
<ENDHMM>
~h "ai"
<BEGINHMM>
<NUMSTATES> 5
<STATE> 2
<MEAN> 39
 -2.729488e+00 -1.386070e+01 -8.679859e+00 -9.315908e+00 -9.856942e+00 -4.500926e+00 -6.442794e+00 -7.294668e-02 3.671053e+00 -6.403719e+00 -6.099933e+00 -1.016841e+01 7.297758e+01 -4.311041e-01 -4.607972e-01 7.407166e-01 3.235477e-01 -1.144795e+00 -9.388899e-01 1.112588e+00 1.434111e+00 -2.401433e-01 -1.014875e+00 4.662205e-02 3.773612e-01 4.443418e-01 -1.062476e-01 4.927203e-01 5.287715e-01 1.690929e-02 -3.175748e-01 -9.148013e-02 -1.163527e-01 -2.915387e-01 -4.764758e-01 3.289840e-01 4.308327e-01 3.235100e-01 -4.188464e-01
<VARIANCE> 39
 1.042938e+01 2.290195e+01 5.693473e+01 5.072650e+01 6.313782e+01 6.857332e+01 8.344777e+01 5.815169e+01 4.368933e+01 4.696198e+01 4.191235e+01 3.569757e+01 2.138138e+01 4.722564e-01 1.374796e+00 2.881380e+00 1.699216e+00 3.473732e+00 2.836648e+00 2.884189e+00 3.132853e+00 2.813284e+00 2.543695e+00 3.110229e+00 2.265047e+00 6.832303e-01 1.666259e-01 1.670410e-01 2.578649e-01 3.846321e-01 5.042808e-01 4.410475e-01 5.196062e-01 6.870726e-01 4.976247e-01 5.498248e-01 5.259215e-01 4.755732e-01 1.969957e-01
<GCONST> 1.164344e+02
<STATE> 3
<MEAN> 39
 -5.099735e+00 -9.113919e+00 3.422582e+00 -9.439262e+00 -2.241969e+01 -1.006265e+01 -5.463046e+00 1.121561e+00 -2.990750e+00 -3.448411e+00 2.244261e+00 -7.048661e+00 7.167914e+01 -2.973489e-01 1.221238e+00 1.978489e+00 -2.132726e-02 -1.253455e+00 -2.707696e-01 -5.010823e-01 -1.398892e+00 -1.524896e+00 1.078382e+00 1.271395e+00 2.993195e-01 -6.327860e-01 6.472880e-02 8.554485e-02 -1.884656e-01 1.136995e-01 4.699717e-01 2.419198e-01 -2.586206e-01 -3.025276e-01 -1.596084e-02 -3.418056e-02 -3.125832e-01 -9.895520e-02 -1.653627e-01
<VARIANCE> 39
 9.275275e+00 2.044292e+01 4.825606e+01 3.371784e+01 3.985744e+01 4.612097e+01 5.978534e+01 5.856715e+01 4.183350e+01 4.004761e+01 4.826013e+01 2.830126e+01 2.415496e+01 2.460774e-01 7.846739e-01 1.535611e+00 9.211189e-01 2.181831e+00 1.493170e+00 2.290802e+00 2.284158e+00 1.761253e+00 1.998145e+00 2.363883e+00 1.292824e+00 2.223753e-01 4.887902e-02 1.055223e-01 1.805892e-01 1.477456e-01 2.634831e-01 2.586755e-01 3.694098e-01 5.234613e-01 2.872901e-01 3.814222e-01 3.821585e-01 2.300328e-01 4.942691e-02
<GCONST> 9.936220e+01
<STATE> 4
<MEAN> 39
 -7.017149e+00 -1.296776e+00 8.573752e+00 -6.108740e+00 -1.988386e+01 -7.793379e+00 -8.295485e+00 -6.884028e+00 -8.956170e+00 -1.049661e+00 1.515108e+00 -5.431697e+00 5.770193e+01 1.076567e-01 5.702438e-01 -3.106764e-01 6.234633e-01 8.506715e-01 2.787183e-01 5.297239e-02 -1.374301e-01 -4.146855e-04 -1.309415e-01 -4.509830e-01 4.353584e-02 -1.560310e+00 4.402111e-02 -5.851056e-02 -2.876033e-01 5.031184e-02 2.265799e-01 3.314826e-02 1.132492e-01 1.455732e-01 2.331326e-01 -8.609203e-02 -9.845918e-02 -4.498879e-03 -1.036131e-01
<VARIANCE> 39
 2.338788e+01 2.943916e+01 5.966677e+01 3.695713e+01 5.914347e+01 5.830481e+01 5.362199e+01 6.564472e+01 4.995671e+01 4.037255e+01 4.377208e+01 3.122142e+01 1.648280e+02 1.032651e+00 1.578248e+00 2.048254e+00 1.763197e+00 2.550315e+00 2.278730e+00 2.801103e+00 2.848116e+00 2.694772e+00 2.038143e+00 2.017271e+00 1.505468e+00 2.377162e+00 1.642096e-01 2.542107e-01 3.097501e-01 3.286838e-01 4.773784e-01 4.220063e-01 4.784883e-01 5.431690e-01 4.583847e-01 3.943132e-01 3.939179e-01 2.945273e-01 3.288178e-01
<GCONST> 1.180582e+02
<TRANSP> 5
 0.000000e+00 1.000000e+00 0.000000e+00 0.000000e+00 0.000000e+00
 0.000000e+00 7.923053e-01 2.076947e-01 0.000000e+00 0.000000e+00
 0.000000e+00 0.000000e+00 8.096724e-01 1.903276e-01 0.000000e+00
 0.000000e+00 0.000000e+00 0.000000e+00 8.711986e-01 1.288014e-01
 0.000000e+00 0.000000e+00 0.000000e+00 0.000000e+00 0.000000e+00
<ENDHMM>
~h "au"
<BEGINHMM>
<NUMSTATES> 5
<STATE> 2
<MEAN> 39
 -6.967238e-01 -7.399451e+00 -1.387693e+01 -1.880163e+01 -7.217288e+00 6.388756e+00 -9.078060e+00 -5.221181e+00 1.520165e+00 9.736541e-01 -2.467762e+00 -1.071180e+01 7.350819e+01 3.185216e-01 6.355718e-01 -1.501309e-01 -1.011743e+00 -2.349290e-01 9.364423e-01 -1.844096e-01 -2.001176e-01 -5.457104e-01 -1.737571e-02 9.143642e-01 5.032026e-01 -2.663917e-01 1.207932e-02 3.675717e-01 3.069596e-01 4.769256e-02 -2.339994e-01 -2.561084e-01 -1.186375e-01 7.904435e-03 -2.991280e-01 -6.294198e-02 9.166646e-02 4.558049e-01 -3.770917e-01
<VARIANCE> 39
 1.071443e+01 2.546645e+01 3.656099e+01 4.711974e+01 4.102995e+01 5.793666e+01 7.186570e+01 7.225797e+01 3.960280e+01 6.472218e+01 5.925956e+01 4.377761e+01 1.998776e+01 4.456719e-01 1.386713e+00 1.252764e+00 1.724276e+00 2.379249e+00 2.667842e+00 2.526278e+00 2.353884e+00 2.305597e+00 2.535149e+00 2.339355e+00 3.258218e+00 5.976154e-01 1.252007e-01 1.622078e-01 1.839278e-01 3.261262e-01 3.212359e-01 4.194396e-01 3.935143e-01 4.406599e-01 4.002684e-01 5.235739e-01 4.881153e-01 4.188208e-01 1.940361e-01
<GCONST> 1.117165e+02
<STATE> 3
<MEAN> 39
 3.367820e+00 3.312628e+00 -9.747341e+00 -2.395390e+01 -1.444230e+01 7.901414e+00 -1.321554e+01 -4.221087e+00 -4.781700e+00 -2.512662e+00 3.953166e-01 -1.906927e+00 6.491365e+01 2.949367e-01 9.629517e-01 6.565272e-01 7.783087e-01 -3.430172e-01 -6.131941e-01 -3.126486e-01 2.011451e-02 -5.667495e-01 -2.995642e-01 -3.625690e-01 4.536255e-01 -1.416121e+00 -1.388502e-01 -2.397309e-01 3.053759e-03 5.147290e-01 3.227145e-01 -2.002040e-01 1.629431e-01 -1.066829e-01 1.612702e-01 9.235867e-02 -1.410633e-01 -2.796463e-01 -1.019005e-01
<VARIANCE> 39
 1.094117e+01 3.582046e+01 3.282221e+01 3.456304e+01 4.557145e+01 4.713094e+01 6.566969e+01 6.207655e+01 5.224636e+01 6.615363e+01 4.413151e+01 4.045044e+01 5.178960e+01 5.165025e-01 1.655687e+00 9.908493e-01 3.427324e+00 2.647629e+00 2.078766e+00 2.724597e+00 2.867155e+00 2.090297e+00 2.453163e+00 2.322070e+00 2.664854e+00 1.108167e+00 8.632342e-02 2.024660e-01 1.797508e-01 3.460997e-01 3.781478e-01 3.783098e-01 4.340298e-01 4.419002e-01 3.415949e-01 4.028753e-01 4.497043e-01 4.174808e-01 1.612358e-01
<GCONST> 1.127363e+02
<STATE> 4
<MEAN> 39
 -6.951034e+00 4.181241e-01 -6.529678e+00 -8.140603e+00 -6.520819e+00 -1.109748e+00 -6.943335e+00 -4.882895e+00 -4.885652e+00 -3.069292e+00 -2.684447e+00 -2.073795e+00 4.150779e+01 -5.293199e-01 -2.590718e-01 1.954725e-01 9.256697e-01 3.983358e-01 -3.865516e-01 1.869588e-01 -1.482932e-01 9.395191e-02 6.995749e-02 -6.336313e-02 -7.817249e-02 -8.168821e-01 -2.347920e-02 -1.250828e-02 2.841563e-02 -9.424628e-02 -4.137922e-02 3.799954e-02 -3.699844e-02 4.632120e-02 1.772680e-02 -3.399793e-02 -1.753470e-02 -1.770695e-02 1.265156e-01
<VARIANCE> 39
 5.637120e+01 4.140530e+01 2.635575e+01 5.136948e+01 4.109714e+01 3.921820e+01 4.654435e+01 3.781649e+01 3.816746e+01 4.316185e+01 3.452472e+01 2.467394e+01 1.273476e+02 1.124314e+00 1.730405e+00 1.553863e+00 3.526490e+00 2.546999e+00 2.609375e+00 2.460587e+00 2.522355e+00 2.397046e+00 2.257946e+00 2.320193e+00 2.082561e+00 2.077252e+00 1.921641e-01 3.007042e-01 2.584322e-01 4.035532e-01 4.627203e-01 4.454575e-01 4.741963e-01 4.717430e-01 4.530942e-01 4.245593e-01 4.190520e-01 3.845014e-01 2.702518e-01
<GCONST> 1.176133e+02
<TRANSP> 5
 0.000000e+00 1.000000e+00 0.000000e+00 0.000000e+00 0.000000e+00
