~h "a"
<BEGINHMM>
<NUMSTATES> 5
<STATE> 2
<MEAN> 39
 -7.186640e+00 -2.291444e+00 -3.072094e+00 -4.740684e+00 -7.473828e+00 -3.028081e+00 -7.484655e+00 -5.267322e+00 -3.082249e+00 -3.227438e+00 -2.872554e+00 -4.400484e+00 5.225656e+01 -3.865428e-04 7.685995e-04 -1.841320e-04 -1.459433e-03 4.041751e-05 1.209069e-03 -1.908510e-05 -2.615073e-03 -7.971330e-05 4.168994e-04 -1.277228e-03 -1.469503e-03 8.170521e-04 5.576032e-05 1.661011e-04 1.391779e-04 1.017692e-04 1.255475e-04 8.012664e-05 1.094583e-04 7.221523e-05 9.465140e-05 1.449407e-04 7.018319e-05 -2.486602e-05 8.483230e-05
<VARIANCE> 39
 7.134052e+01 5.164307e+01 7.437308e+01 5.889223e+01 7.117015e+01 5.579803e+01 5.921510e+01 6.810009e+01 5.870772e+01 4.042298e+01 4.689148e+01 3.903736e+01 2.377983e+02 2.543565e+00 2.406225e+00 2.714377e+00 2.715783e+00 3.343063e+00 2.916426e+00 3.092536e+00 3.583893e+00 3.223440e+00 2.559319e+00 2.834353e+00 2.398334e+00 4.921178e+00 3.806877e-01 3.814659e-01 4.173811e-01 4.580033e-01 5.816385e-01 5.217029e-01 5.586310e-01 6.337979e-01 5.684070e-01 4.814563e-01 5.153420e-01 4.376320e-01 6.364112e-01
<GCONST> 1.306788e+02
<STATE> 3
<MEAN> 39
 -7.186640e+00 -2.291444e+00 -3.072094e+00 -4.740684e+00 -7.473828e+00 -3.028081e+00 -7.484655e+00 -5.267322e+00 -3.082249e+00 -3.227438e+00 -2.872554e+00 -4.400484e+00 5.225656e+01 -3.865428e-04 7.685995e-04 -1.841320e-04 -1.459433e-03 4.041751e-05 1.209069e-03 -1.908510e-05 -2.615073e-03 -7.971330e-05 4.168994e-04 -1.277228e-03 -1.469503e-03 8.170521e-04 5.576032e-05 1.661011e-04 1.391779e-04 1.017692e-04 1.255475e-04 8.012664e-05 1.094583e-04 7.221523e-05 9.465140e-05 1.449407e-04 7.018319e-05 -2.486602e-05 8.483230e-05
<VARIANCE> 39
 7.134052e+01 5.164307e+01 7.437308e+01 5.889223e+01 7.117015e+01 5.579803e+01 5.921510e+01 6.810009e+01 5.870772e+01 4.042298e+01 4.689148e+01 3.903736e+01 2.377983e+02 2.543565e+00 2.406225e+00 2.714377e+00 2.715783e+00 3.343063e+00 2.916426e+00 3.092536e+00 3.583893e+00 3.223440e+00 2.559319e+00 2.834353e+00 2.398334e+00 4.921178e+00 3.806877e-01 3.814659e-01 4.173811e-01 4.580033e-01 5.816385e-01 5.217029e-01 5.586310e-01 6.337979e-01 5.684070e-01 4.814563e-01 5.153420e-01 4.376320e-01 6.364112e-01
<GCONST> 1.306788e+02
<STATE> 4
<MEAN> 39
 -7.186640e+00 -2.291444e+00 -3.072094e+00 -4.740684e+00 -7.473828e+00 -3.028081e+00 -7.484655e+00 -5.267322e+00 -3.082249e+00 -3.227438e+00 -2.872554e+00 -4.400484e+00 5.225656e+01 -3.865428e-04 7.685995e-04 -1.841320e-04 -1.459433e-03 4.041751e-05 1.209069e-03 -1.908510e-05 -2.615073e-03 -7.971330e-05 4.168994e-04 -1.277228e-03 -1.469503e-03 8.170521e-04 5.576032e-05 1.661011e-04 1.391779e-04 1.017692e-04 1.255475e-04 8.012664e-05 1.094583e-04 7.221523e-05 9.465140e-05 1.449407e-04 7.018319e-05 -2.486602e-05 8.483230e-05
<VARIANCE> 39
 7.134052e+01 5.164307e+01 7.437308e+01 5.889223e+01 7.117015e+01 5.579803e+01 5.921510e+01 6.810009e+01 5.870772e+01 4.042298e+01 4.689148e+01 3.903736e+01 2.377983e+02 2.543565e+00 2.406225e+00 2.714377e+00 2.715783e+00 3.343063e+00 2.916426e+00 3.092536e+00 3.583893e+00 3.223440e+00 2.559319e+00 2.834353e+00 2.398334e+00 4.921178e+00 3.806877e-01 3.814659e-01 4.173811e-01 4.580033e-01 5.816385e-01 5.217029e-01 5.586310e-01 6.337979e-01 5.684070e-01 4.814563e-01 5.153420e-01 4.376320e-01 6.364112e-01
<GCONST> 1.306788e+02
<TRANSP> 5
 0.000000e+00 1.000000e+00 0.000000e+00 0.000000e+00 0.000000e+00
 0.000000e+00 6.000000e-01 4.000000e-01 0.000000e+00 0.000000e+00
 0.000000e+00 0.000000e+00 6.000000e-01 4.000000e-01 0.000000e+00
 0.000000e+00 0.000000e+00 0.000000e+00 7.000000e-01 3.000000e-01
 0.000000e+00 0.000000e+00 0.000000e+00 0.000000e+00 0.000000e+00
<ENDHMM>
~h "au"
<BEGINHMM>
<NUMSTATES> 5
<STATE> 2
<MEAN> 39
 -7.186640e+00 -2.291444e+00 -3.072094e+00 -4.740684e+00 -7.473828e+00 -3.028081e+00 -7.484655e+00 -5.267322e+00 -3.082249e+00 -3.227438e+00 -2.872554e+00 -4.400484e+00 5.225656e+01 -3.865428e-04 7.685995e-04 -1.841320e-04 -1.459433e-03 4.041751e-05 1.209069e-03 -1.908510e-05 -2.615073e-03 -7.971330e-05 4.168994e-04 -1.277228e-03 -1.469503e-03 8.170521e-04 5.576032e-05 1.661011e-04 1.391779e-04 1.017692e-04 1.255475e-04 8.012664e-05 1.094583e-04 7.221523e-05 9.465140e-05 1.449407e-04 7.018319e-05 -2.486602e-05 8.483230e-05
<VARIANCE> 39
 7.134052e+01 5.164307e+01 7.437308e+01 5.889223e+01 7.117015e+01 5.579803e+01 5.921510e+01 6.810009e+01 5.870772e+01 4.042298e+01 4.689148e+01 3.903736e+01 2.377983e+02 2.543565e+00 2.406225e+00 2.714377e+00 2.715783e+00 3.343063e+00 2.916426e+00 3.092536e+00 3.583893e+00 3.223440e+00 2.559319e+00 2.834353e+00 2.398334e+00 4.921178e+00 3.806877e-01 3.814659e-01 4.173811e-01 4.580033e-01 5.816385e-01 5.217029e-01 5.586310e-01 6.337979e-01 5.684070e-01 4.814563e-01 5.153420e-01 4.376320e-01 6.364112e-01
<GCONST> 1.306788e+02
<STATE> 3
<MEAN> 39
 -7.186640e+00 -2.291444e+00 -3.072094e+00 -4.740684e+00 -7.473828e+00 -3.028081e+00 -7.484655e+00 -5.267322e+00 -3.082249e+00 -3.227438e+00 -2.872554e+00 -4.400484e+00 5.225656e+01 -3.865428e-04 7.685995e-04 -1.841320e-04 -1.459433e-03 4.041751e-05 1.209069e-03 -1.908510e-05 -2.615073e-03 -7.971330e-05 4.168994e-04 -1.277228e-03 -1.469503e-03 8.170521e-04 5.576032e-05 1.661011e-04 1.391779e-04 1.017692e-04 1.255475e-04 8.012664e-05 1.094583e-04 7.221523e-05 9.465140e-05 1.449407e-04 7.018319e-05 -2.486602e-05 8.483230e-05
<VARIANCE> 39
 7.134052e+01 5.164307e+01 7.437308e+01 5.889223e+01 7.117015e+01 5.579803e+01 5.921510e+01 6.810009e+01 5.870772e+01 4.042298e+01 4.689148e+01 3.903736e+01 2.377983e+02 2.543565e+00 2.406225e+00 2.714377e+00 2.715783e+00 3.343063e+00 2.916426e+00 3.092536e+00 3.583893e+00 3.223440e+00 2.559319e+00 2.834353e+00 2.398334e+00 4.921178e+00 3.806877e-01 3.814659e-01 4.173811e-01 4.580033e-01 5.816385e-01 5.217029e-01 5.586310e-01 6.337979e-01 5.684070e-01 4.814563e-01 5.153420e-01 4.376320e-01 6.364112e-01
<GCONST> 1.306788e+02
<STATE> 4
<MEAN> 39
 -7.186640e+00 -2.291444e+00 -3.072094e+00 -4.740684e+00 -7.473828e+00 -3.028081e+00 -7.484655e+00 -5.267322e+00 -3.082249e+00 -3.227438e+00 -2.872554e+00 -4.400484e+00 5.225656e+01 -3.865428e-04 7.685995e-04 -1.841320e-04 -1.459433e-03 4.041751e-05 1.209069e-03 -1.908510e-05 -2.615073e-03 -7.971330e-05 4.168994e-04 -1.277228e-03 -1.469503e-03 8.170521e-04 5.576032e-05 1.661011e-04 1.391779e-04 1.017692e-04 1.255475e-04 8.012664e-05 1.094583e-04 7.221523e-05 9.465140e-05 1.449407e-04 7.018319e-05 -2.486602e-05 8.483230e-05
<VARIANCE> 39
 7.134052e+01 5.164307e+01 7.437308e+01 5.889223e+01 7.117015e+01 5.579803e+01 5.921510e+01 6.810009e+01 5.870772e+01 4.042298e+01 4.689148e+01 3.903736e+01 2.377983e+02 2.543565e+00 2.406225e+00 2.714377e+00 2.715783e+00 3.343063e+00 2.916426e+00 3.092536e+00 3.583893e+00 3.223440e+00 2.559319e+00 2.834353e+00 2.398334e+00 4.921178e+00 3.806877e-01 3.814659e-01 4.173811e-01 4.580033e-01 5.816385e-01 5.217029e-01 5.586310e-01 6.337979e-01 5.684070e-01 4.814563e-01 5.153420e-01 4.376320e-01 6.364112e-01
<GCONST> 1.306788e+02
<TRANSP> 5
 0.000000e+00 1.000000e+00 0.000000e+00 0.000000e+00 0.000000e+00
 0.000000e+00 6.000000e-01 4.000000e-01 0.000000e+00 0.000000e+00
 0.000000e+00 0.000000e+00 6.000000e-01 4.000000e-01 0.000000e+00
 0.000000e+00 0.000000e+00 0.000000e+00 7.000000e-01 3.000000e-01
 0.000000e+00 0.000000e+00 0.000000e+00 0.000000e+00 0.000000e+00
<ENDHMM>
~h "ai"
<BEGINHMM>
<NUMSTATES> 5
<STATE> 2
<MEAN> 39
 -7.186640e+00 -2.291444e+00 -3.072094e+00 -4.740684e+00 -7.473828e+00 -3.028081e+00 -7.484655e+00 -5.267322e+00 -3.082249e+00 -3.227438e+00 -2.872554e+00 -4.400484e+00 5.225656e+01 -3.865428e-04 7.685995e-04 -1.841320e-04 -1.459433e-03 4.041751e-05 1.209069e-03 -1.908510e-05 -2.615073e-03 -7.971330e-05 4.168994e-04 -1.277228e-03 -1.469503e-03 8.170521e-04 5.576032e-05 1.661011e-04 1.391779e-04 1.017692e-04 1.255475e-04 8.012664e-05 1.094583e-04 7.221523e-05 9.465140e-05 1.449407e-04 7.018319e-05 -2.486602e-05 8.483230e-05
<VARIANCE> 39
 7.134052e+01 5.164307e+01 7.437308e+01 5.889223e+01 7.117015e+01 5.579803e+01 5.921510e+01 6.810009e+01 5.870772e+01 4.042298e+01 4.689148e+01 3.903736e+01 2.377983e+02 2.543565e+00 2.406225e+00 2.714377e+00 2.715783e+00 3.343063e+00 2.916426e+00 3.092536e+00 3.583893e+00 3.223440e+00 2.559319e+00 2.834353e+00 2.398334e+00 4.921178e+00 3.806877e-01 3.814659e-01 4.173811e-01 4.580033e-01 5.816385e-01 5.217029e-01 5.586310e-01 6.337979e-01 5.684070e-01 4.814563e-01 5.153420e-01 4.376320e-01 6.364112e-01
<GCONST> 1.306788e+02
<STATE> 3
<MEAN> 39
 -7.186640e+00 -2.291444e+00 -3.072094e+00 -4.740684e+00 -7.473828e+00 -3.028081e+00 -7.484655e+00 -5.267322e+00 -3.082249e+00 -3.227438e+00 -2.872554e+00 -4.400484e+00 5.225656e+01 -3.865428e-04 7.685995e-04 -1.841320e-04 -1.459433e-03 4.041751e-05 1.209069e-03 -1.908510e-05 -2.615073e-03 -7.971330e-05 4.168994e-04 -1.277228e-03 -1.469503e-03 8.170521e-04 5.576032e-05 1.661011e-04 1.391779e-04 1.017692e-04 1.255475e-04 8.012664e-05 1.094583e-04 7.221523e-05 9.465140e-05 1.449407e-04 7.018319e-05 -2.486602e-05 8.483230e-05
<VARIANCE> 39
 7.134052e+01 5.164307e+01 7.437308e+01 5.889223e+01 7.117015e+01 5.579803e+01 5.921510e+01 6.810009e+01 5.870772e+01 4.042298e+01 4.689148e+01 3.903736e+01 2.377983e+02 2.543565e+00 2.406225e+00 2.714377e+00 2.715783e+00 3.343063e+00 2.916426e+00 3.092536e+00 3.583893e+00 3.223440e+00 2.559319e+00 2.834353e+00 2.398334e+00 4.921178e+00 3.806877e-01 3.814659e-01 4.173811e-01 4.580033e-01 5.816385e-01 5.217029e-01 5.586310e-01 6.337979e-01 5.684070e-01 4.814563e-01 5.153420e-01 4.376320e-01 6.364112e-01
<GCONST> 1.306788e+02
<STATE> 4
<MEAN> 39
 -7.186640e+00 -2.291444e+00 -3.072094e+00 -4.740684e+00 -7.473828e+00 -3.028081e+00 -7.484655e+00 -5.267322e+00 -3.082249e+00 -3.227438e+00 -2.872554e+00 -4.400484e+00 5.225656e+01 -3.865428e-04 7.685995e-04 -1.841320e-04 -1.459433e-03 4.041751e-05 1.209069e-03 -1.908510e-05 -2.615073e-03 -7.971330e-05 4.168994e-04 -1.277228e-03 -1.469503e-03 8.170521e-04 5.576032e-05 1.661011e-04 1.391779e-04 1.017692e-04 1.255475e-04 8.012664e-05 1.094583e-04 7.221523e-05 9.465140e-05 1.449407e-04 7.018319e-05 -2.486602e-05 8.483230e-05
<VARIANCE> 39
 7.134052e+01 5.164307e+01 7.437308e+01 5.889223e+01 7.117015e+01 5.579803e+01 5.921510e+01 6.810009e+01 5.870772e+01 4.042298e+01 4.689148e+01 3.903736e+01 2.377983e+02 2.543565e+00 2.406225e+00 2.714377e+00 2.715783e+00 3.343063e+00 2.916426e+00 3.092536e+00 3.583893e+00 3.223440e+00 2.559319e+00 2.834353e+00 2.398334e+00 4.921178e+00 3.806877e-01 3.814659e-01 4.173811e-01 4.580033e-01 5.816385e-01 5.217029e-01 5.586310e-01 6.337979e-01 5.684070e-01 4.814563e-01 5.153420e-01 4.376320e-01 6.364112e-01
<GCONST> 1.306788e+02
<TRANSP> 5
 0.000000e+00 1.000000e+00 0.000000e+00 0.000000e+00 0.000000e+00
 0.000000e+00 6.000000e-01 4.000000e-01 0.000000e+00 0.000000e+00
 0.000000e+00 0.000000e+00 6.000000e-01 4.000000e-01 0.000000e+00
 0.000000e+00 0.000000e+00 0.000000e+00 7.000000e-01 3.000000e-01
 0.000000e+00 0.000000e+00 0.000000e+00 0.000000e+00 0.000000e+00
<ENDHMM>
~h "b"
<BEGINHMM>
<NUMSTATES> 5
<STATE> 2
<MEAN> 39
 -7.186640e+00 -2.291444e+00 -3.072094e+00 -4.740684e+00 -7.473828e+00 -3.028081e+00 -7.484655e+00 -5.267322e+00 -3.082249e+00 -3.227438e+00 -2.872554e+00 -4.400484e+00 5.225656e+01 -3.865428e-04 7.685995e-04 -1.841320e-04 -1.459433e-03 4.041751e-05 1.209069e-03 -1.908510e-05 -2.615073e-03 -7.971330e-05 4.168994e-04 -1.277228e-03 -1.469503e-03 8.170521e-04 5.576032e-05 1.661011e-04 1.391779e-04 1.017692e-04 1.255475e-04 8.012664e-05 1.094583e-04 7.221523e-05 9.465140e-05 1.449407e-04 7.018319e-05 -2.486602e-05 8.483230e-05
<VARIANCE> 39
 7.134052e+01 5.164307e+01 7.437308e+01 5.889223e+01 7.117015e+01 5.579803e+01 5.921510e+01 6.810009e+01 5.870772e+01 4.042298e+01 4.689148e+01 3.903736e+01 2.377983e+02 2.543565e+00 2.406225e+00 2.714377e+00 2.715783e+00 3.343063e+00 2.916426e+00 3.092536e+00 3.583893e+00 3.223440e+00 2.559319e+00 2.834353e+00 2.398334e+00 4.921178e+00 3.806877e-01 3.814659e-01 4.173811e-01 4.580033e-01 5.816385e-01 5.217029e-01 5.586310e-01 6.337979e-01 5.684070e-01 4.814563e-01 5.153420e-01 4.376320e-01 6.364112e-01
<GCONST> 1.306788e+02
<STATE> 3
<MEAN> 39
 -7.186640e+00 -2.291444e+00 -3.072094e+00 -4.740684e+00 -7.473828e+00 -3.028081e+00 -7.484655e+00 -5.267322e+00 -3.082249e+00 -3.227438e+00 -2.872554e+00 -4.400484e+00 5.225656e+01 -3.865428e-04 7.685995e-04 -1.841320e-04 -1.459433e-03 4.041751e-05 1.209069e-03 -1.908510e-05 -2.615073e-03 -7.971330e-05 4.168994e-04 -1.277228e-03 -1.469503e-03 8.170521e-04 5.576032e-05 1.661011e-04 1.391779e-04 1.017692e-04 1.255475e-04 8.012664e-05 1.094583e-04 7.221523e-05 9.465140e-05 1.449407e-04 7.018319e-05 -2.486602e-05 8.483230e-05
<VARIANCE> 39
 7.134052e+01 5.164307e+01 7.437308e+01 5.889223e+01 7.117015e+01 5.579803e+01 5.921510e+01 6.810009e+01 5.870772e+01 4.042298e+01 4.689148e+01 3.903736e+01 2.377983e+02 2.543565e+00 2.406225e+00 2.714377e+00 2.715783e+00 3.343063e+00 2.916426e+00 3.092536e+00 3.583893e+00 3.223440e+00 2.559319e+00 2.834353e+00 2.398334e+00 4.921178e+00 3.806877e-01 3.814659e-01 4.173811e-01 4.580033e-01 5.816385e-01 5.217029e-01 5.586310e-01 6.337979e-01 5.684070e-01 4.814563e-01 5.153420e-01 4.376320e-01 6.364112e-01
<GCONST> 1.306788e+02
<STATE> 4
<MEAN> 39
 -7.186640e+00 -2.291444e+00 -3.072094e+00 -4.740684e+00 -7.473828e+00 -3.028081e+00 -7.484655e+00 -5.267322e+00 -3.082249e+00 -3.227438e+00 -2.872554e+00 -4.400484e+00 5.225656e+01 -3.865428e-04 7.685995e-04 -1.841320e-04 -1.459433e-03 4.041751e-05 1.209069e-03 -1.908510e-05 -2.615073e-03 -7.971330e-05 4.168994e-04 -1.277228e-03 -1.469503e-03 8.170521e-04 5.576032e-05 1.661011e-04 1.391779e-04 1.017692e-04 1.255475e-04 8.012664e-05 1.094583e-04 7.221523e-05 9.465140e-05 1.449407e-04 7.018319e-05 -2.486602e-05 8.483230e-05
<VARIANCE> 39
 7.134052e+01 5.164307e+01 7.437308e+01 5.889223e+01 7.117015e+01 5.579803e+01 5.921510e+01 6.810009e+01 5.870772e+01 4.042298e+01 4.689148e+01 3.903736e+01 2.377983e+02 2.543565e+00 2.406225e+00 2.714377e+00 2.715783e+00 3.343063e+00 2.916426e+00 3.092536e+00 3.583893e+00 3.223440e+00 2.559319e+00 2.834353e+00 2.398334e+00 4.921178e+00 3.806877e-01 3.814659e-01 4.173811e-01 4.580033e-01 5.816385e-01 5.217029e-01 5.586310e-01 6.337979e-01 5.684070e-01 4.814563e-01 5.153420e-01 4.376320e-01 6.364112e-01
<GCONST> 1.306788e+02
<TRANSP> 5
 0.000000e+00 1.000000e+00 0.000000e+00 0.000000e+00 0.000000e+00
 0.000000e+00 6.000000e-01 4.000000e-01 0.000000e+00 0.000000e+00
 0.000000e+00 0.000000e+00 6.000000e-01 4.000000e-01 0.000000e+00
 0.000000e+00 0.000000e+00 0.000000e+00 7.000000e-01 3.000000e-01
 0.000000e+00 0.000000e+00 0.000000e+00 0.000000e+00 0.000000e+00
<ENDHMM>
~h "c"
<BEGINHMM>
<NUMSTATES> 5
<STATE> 2
<MEAN> 39
 -7.186640e+00 -2.291444e+00 -3.072094e+00 -4.740684e+00 -7.473828e+00 -3.028081e+00 -7.484655e+00 -5.267322e+00 -3.082249e+00 -3.227438e+00 -2.872554e+00 -4.400484e+00 5.225656e+01 -3.865428e-04 7.685995e-04 -1.841320e-04 -1.459433e-03 4.041751e-05 1.209069e-03 -1.908510e-05 -2.615073e-03 -7.971330e-05 4.168994e-04 -1.277228e-03 -1.469503e-03 8.170521e-04 5.576032e-05 1.661011e-04 1.391779e-04 1.017692e-04 1.255475e-04 8.012664e-05 1.094583e-04 7.221523e-05 9.465140e-05 1.449407e-04 7.018319e-05 -2.486602e-05 8.483230e-05
<VARIANCE> 39
 7.134052e+01 5.164307e+01 7.437308e+01 5.889223e+01 7.117015e+01 5.579803e+01 5.921510e+01 6.810009e+01 5.870772e+01 4.042298e+01 4.689148e+01 3.903736e+01 2.377983e+02 2.543565e+00 2.406225e+00 2.714377e+00 2.715783e+00 3.343063e+00 2.916426e+00 3.092536e+00 3.583893e+00 3.223440e+00 2.559319e+00 2.834353e+00 2.398334e+00 4.921178e+00 3.806877e-01 3.814659e-01 4.173811e-01 4.580033e-01 5.816385e-01 5.217029e-01 5.586310e-01 6.337979e-01 5.684070e-01 4.814563e-01 5.153420e-01 4.376320e-01 6.364112e-01
<GCONST> 1.306788e+02
<STATE> 3
<MEAN> 39
 -7.186640e+00 -2.291444e+00 -3.072094e+00 -4.740684e+00 -7.473828e+00 -3.028081e+00 -7.484655e+00 -5.267322e+00 -3.082249e+00 -3.227438e+00 -2.872554e+00 -4.400484e+00 5.225656e+01 -3.865428e-04 7.685995e-04 -1.841320e-04 -1.459433e-03 4.041751e-05 1.209069e-03 -1.908510e-05 -2.615073e-03 -7.971330e-05 4.168994e-04 -1.277228e-03 -1.469503e-03 8.170521e-04 5.576032e-05 1.661011e-04 1.391779e-04 1.017692e-04 1.255475e-04 8.012664e-05 1.094583e-04 7.221523e-05 9.465140e-05 1.449407e-04 7.018319e-05 -2.486602e-05 8.483230e-05
<VARIANCE> 39
 7.134052e+01 5.164307e+01 7.437308e+01 5.889223e+01 7.117015e+01 5.579803e+01 5.921510e+01 6.810009e+01 5.870772e+01 4.042298e+01 4.689148e+01 3.903736e+01 2.377983e+02 2.543565e+00 2.406225e+00 2.714377e+00 2.715783e+00 3.343063e+00 2.916426e+00 3.092536e+00 3.583893e+00 3.223440e+00 2.559319e+00 2.834353e+00 2.398334e+00 4.921178e+00 3.806877e-01 3.814659e-01 4.173811e-01 4.580033e-01 5.816385e-01 5.217029e-01 5.586310e-01 6.337979e-01 5.684070e-01 4.814563e-01 5.153420e-01 4.376320e-01 6.364112e-01
<GCONST> 1.306788e+02
<STATE> 4
<MEAN> 39
 -7.186640e+00 -2.291444e+00 -3.072094e+00 -4.740684e+00 -7.473828e+00 -3.028081e+00 -7.484655e+00 -5.267322e+00 -3.082249e+00 -3.227438e+00 -2.872554e+00 -4.400484e+00 5.225656e+01 -3.865428e-04 7.685995e-04 -1.841320e-04 -1.459433e-03 4.041751e-05 1.209069e-03 -1.908510e-05 -2.615073e-03 -7.971330e-05 4.168994e-04 -1.277228e-03 -1.469503e-03 8.170521e-04 5.576032e-05 1.661011e-04 1.391779e-04 1.017692e-04 1.255475e-04 8.012664e-05 1.094583e-04 7.221523e-05 9.465140e-05 1.449407e-04 7.018319e-05 -2.486602e-05 8.483230e-05
<VARIANCE> 39
 7.134052e+01 5.164307e+01 7.437308e+01 5.889223e+01 7.117015e+01 5.579803e+01 5.921510e+01 6.810009e+01 5.870772e+01 4.042298e+01 4.689148e+01 3.903736e+01 2.377983e+02 2.543565e+00 2.406225e+00 2.714377e+00 2.715783e+00 3.343063e+00 2.916426e+00 3.092536e+00 3.583893e+00 3.223440e+00 2.559319e+00 2.834353e+00 2.398334e+00 4.921178e+00 3.806877e-01 3.814659e-01 4.173811e-01 4.580033e-01 5.816385e-01 5.217029e-01 5.586310e-01 6.337979e-01 5.684070e-01 4.814563e-01 5.153420e-01 4.376320e-01 6.364112e-01
<GCONST> 1.306788e+02
<TRANSP> 5
 0.000000e+00 1.000000e+00 0.000000e+00 0.000000e+00 0.000000e+00
 0.000000e+00 6.000000e-01 4.000000e-01 0.000000e+00 0.000000e+00
 0.000000e+00 0.000000e+00 6.000000e-01 4.000000e-01 0.000000e+00
 0.000000e+00 0.000000e+00 0.000000e+00 7.000000e-01 3.000000e-01
 0.000000e+00 0.000000e+00 0.000000e+00 0.000000e+00 0.000000e+00
<ENDHMM>
~h "d"
<BEGINHMM>
<NUMSTATES> 5
<STATE> 2
<MEAN> 39
 -7.186640e+00 -2.291444e+00 -3.072094e+00 -4.740684e+00 -7.473828e+00 -3.028081e+00 -7.484655e+00 -5.267322e+00 -3.082249e+00 -3.227438e+00 -2.872554e+00 -4.400484e+00 5.225656e+01 -3.865428e-04 7.685995e-04 -1.841320e-04 -1.459433e-03 4.041751e-05 1.209069e-03 -1.908510e-05 -2.615073e-03 -7.971330e-05 4.168994e-04 -1.277228e-03 -1.469503e-03 8.170521e-04 5.576032e-05 1.661011e-04 1.391779e-04 1.017692e-04 1.255475e-04 8.012664e-05 1.094583e-04 7.221523e-05 9.465140e-05 1.449407e-04 7.018319e-05 -2.486602e-05 8.483230e-05
<VARIANCE> 39
 7.134052e+01 5.164307e+01 7.437308e+01 5.889223e+01 7.117015e+01 5.579803e+01 5.921510e+01 6.810009e+01 5.870772e+01 4.042298e+01 4.689148e+01 3.903736e+01 2.377983e+02 2.543565e+00 2.406225e+00 2.714377e+00 2.715783e+00 3.343063e+00 2.916426e+00 3.092536e+00 3.583893e+00 3.223440e+00 2.559319e+00 2.834353e+00 2.398334e+00 4.921178e+00 3.806877e-01 3.814659e-01 4.173811e-01 4.580033e-01 5.816385e-01 5.217029e-01 5.586310e-01 6.337979e-01 5.684070e-01 4.814563e-01 5.153420e-01 4.376320e-01 6.364112e-01
<GCONST> 1.306788e+02
<STATE> 3
<MEAN> 39
 -7.186640e+00 -2.291444e+00 -3.072094e+00 -4.740684e+00 -7.473828e+00 -3.028081e+00 -7.484655e+00 -5.267322e+00 -3.082249e+00 -3.227438e+00 -2.872554e+00 -4.400484e+00 5.225656e+01 -3.865428e-04 7.685995e-04 -1.841320e-04 -1.459433e-03 4.041751e-05 1.209069e-03 -1.908510e-05 -2.615073e-03 -7.971330e-05 4.168994e-04 -1.277228e-03 -1.469503e-03 8.170521e-04 5.576032e-05 1.661011e-04 1.391779e-04 1.017692e-04 1.255475e-04 8.012664e-05 1.094583e-04 7.221523e-05 9.465140e-05 1.449407e-04 7.018319e-05 -2.486602e-05 8.483230e-05
<VARIANCE> 39
 7.134052e+01 5.164307e+01 7.437308e+01 5.889223e+01 7.117015e+01 5.579803e+01 5.921510e+01 6.810009e+01 5.870772e+01 4.042298e+01 4.689148e+01 3.903736e+01 2.377983e+02 2.543565e+00 2.406225e+00 2.714377e+00 2.715783e+00 3.343063e+00 2.916426e+00 3.092536e+00 3.583893e+00 3.223440e+00 2.559319e+00 2.834353e+00 2.398334e+00 4.921178e+00 3.806877e-01 3.814659e-01 4.173811e-01 4.580033e-01 5.816385e-01 5.217029e-01 5.586310e-01 6.337979e-01 5.684070e-01 4.814563e-01 5.153420e-01 4.376320e-01 6.364112e-01
<GCONST> 1.306788e+02
<STATE> 4
<MEAN> 39
 -7.186640e+00 -2.291444e+00 -3.072094e+00 -4.740684e+00 -7.473828e+00 -3.028081e+00 -7.484655e+00 -5.267322e+00 -3.082249e+00 -3.227438e+00 -2.872554e+00 -4.400484e+00 5.225656e+01 -3.865428e-04 7.685995e-04 -1.841320e-04 -1.459433e-03 4.041751e-05 1.209069e-03 -1.908510e-05 -2.615073e-03 -7.971330e-05 4.168994e-04 -1.277228e-03 -1.469503e-03 8.170521e-04 5.576032e-05 1.661011e-04 1.391779e-04 1.017692e-04 1.255475e-04 8.012664e-05 1.094583e-04 7.221523e-05 9.465140e-05 1.449407e-04 7.018319e-05 -2.486602e-05 8.483230e-05
<VARIANCE> 39
 7.134052e+01 5.164307e+01 7.437308e+01 5.889223e+01 7.117015e+01 5.579803e+01 5.921510e+01 6.810009e+01 5.870772e+01 4.042298e+01 4.689148e+01 3.903736e+01 2.377983e+02 2.543565e+00 2.406225e+00 2.714377e+00 2.715783e+00 3.343063e+00 2.916426e+00 3.092536e+00 3.583893e+00 3.223440e+00 2.559319e+00 2.834353e+00 2.398334e+00 4.921178e+00 3.806877e-01 3.814659e-01 4.173811e-01 4.580033e-01 5.816385e-01 5.217029e-01 5.586310e-01 6.337979e-01 5.684070e-01 4.814563e-01 5.153420e-01 4.376320e-01 6.364112e-01
<GCONST> 1.306788e+02
<TRANSP> 5
 0.000000e+00 1.000000e+00 0.000000e+00 0.000000e+00 0.000000e+00
 0.000000e+00 6.000000e-01 4.000000e-01 0.000000e+00 0.000000e+00
 0.000000e+00 0.000000e+00 6.000000e-01 4.000000e-01 0.000000e+00
 0.000000e+00 0.000000e+00 0.000000e+00 7.000000e-01 3.000000e-01
 0.000000e+00 0.000000e+00 0.000000e+00 0.000000e+00 0.000000e+00
<ENDHMM>
~h "@"
<BEGINHMM>
<NUMSTATES> 5
<STATE> 2
<MEAN> 39
 -7.186640e+00 -2.291444e+00 -3.072094e+00 -4.740684e+00 -7.473828e+00 -3.028081e+00 -7.484655e+00 -5.267322e+00 -3.082249e+00 -3.227438e+00 -2.872554e+00 -4.400484e+00 5.225656e+01 -3.865428e-04 7.685995e-04 -1.841320e-04 -1.459433e-03 4.041751e-05 1.209069e-03 -1.908510e-05 -2.615073e-03 -7.971330e-05 4.168994e-04 -1.277228e-03 -1.469503e-03 8.170521e-04 5.576032e-05 1.661011e-04 1.391779e-04 1.017692e-04 1.255475e-04 8.012664e-05 1.094583e-04 7.221523e-05 9.465140e-05 1.449407e-04 7.018319e-05 -2.486602e-05 8.483230e-05
<VARIANCE> 39
 7.134052e+01 5.164307e+01 7.437308e+01 5.889223e+01 7.117015e+01 5.579803e+01 5.921510e+01 6.810009e+01 5.870772e+01 4.042298e+01 4.689148e+01 3.903736e+01 2.377983e+02 2.543565e+00 2.406225e+00 2.714377e+00 2.715783e+00 3.343063e+00 2.916426e+00 3.092536e+00 3.583893e+00 3.223440e+00 2.559319e+00 2.834353e+00 2.398334e+00 4.921178e+00 3.806877e-01 3.814659e-01 4.173811e-01 4.580033e-01 5.816385e-01 5.217029e-01 5.586310e-01 6.337979e-01 5.684070e-01 4.814563e-01 5.153420e-01 4.376320e-01 6.364112e-01
<GCONST> 1.306788e+02
<STATE> 3
<MEAN> 39
 -7.186640e+00 -2.291444e+00 -3.072094e+00 -4.740684e+00 -7.473828e+00 -3.028081e+00 -7.484655e+00 -5.267322e+00 -3.082249e+00 -3.227438e+00 -2.872554e+00 -4.400484e+00 5.225656e+01 -3.865428e-04 7.685995e-04 -1.841320e-04 -1.459433e-03 4.041751e-05 1.209069e-03 -1.908510e-05 -2.615073e-03 -7.971330e-05 4.168994e-04 -1.277228e-03 -1.469503e-03 8.170521e-04 5.576032e-05 1.661011e-04 1.391779e-04 1.017692e-04 1.255475e-04 8.012664e-05 1.094583e-04 7.221523e-05 9.465140e-05 1.449407e-04 7.018319e-05 -2.486602e-05 8.483230e-05
<VARIANCE> 39
 7.134052e+01 5.164307e+01 7.437308e+01 5.889223e+01 7.117015e+01 5.579803e+01 5.921510e+01 6.810009e+01 5.870772e+01 4.042298e+01 4.689148e+01 3.903736e+01 2.377983e+02 2.543565e+00 2.406225e+00 2.714377e+00 2.715783e+00 3.343063e+00 2.916426e+00 3.092536e+00 3.583893e+00 3.223440e+00 2.559319e+00 2.834353e+00 2.398334e+00 4.921178e+00 3.806877e-01 3.814659e-01 4.173811e-01 4.580033e-01 5.816385e-01 5.217029e-01 5.586310e-01 6.337979e-01 5.684070e-01 4.814563e-01 5.153420e-01 4.376320e-01 6.364112e-01
<GCONST> 1.306788e+02
<STATE> 4
<MEAN> 39
 -7.186640e+00 -2.291444e+00 -3.072094e+00 -4.740684e+00 -7.473828e+00 -3.028081e+00 -7.484655e+00 -5.267322e+00 -3.082249e+00 -3.227438e+00 -2.872554e+00 -4.400484e+00 5.225656e+01 -3.865428e-04 7.685995e-04 -1.841320e-04 -1.459433e-03 4.041751e-05 1.209069e-03 -1.908510e-05 -2.615073e-03 -7.971330e-05 4.168994e-04 -1.277228e-03 -1.469503e-03 8.170521e-04 5.576032e-05 1.661011e-04 1.391779e-04 1.017692e-04 1.255475e-04 8.012664e-05 1.094583e-04 7.221523e-05 9.465140e-05 1.449407e-04 7.018319e-05 -2.486602e-05 8.483230e-05
<VARIANCE> 39
 7.134052e+01 5.164307e+01 7.437308e+01 5.889223e+01 7.117015e+01 5.579803e+01 5.921510e+01 6.810009e+01 5.870772e+01 4.042298e+01 4.689148e+01 3.903736e+01 2.377983e+02 2.543565e+00 2.406225e+00 2.714377e+00 2.715783e+00 3.343063e+00 2.916426e+00 3.092536e+00 3.583893e+00 3.223440e+00 2.559319e+00 2.834353e+00 2.398334e+00 4.921178e+00 3.806877e-01 3.814659e-01 4.173811e-01 4.580033e-01 5.816385e-01 5.217029e-01 5.586310e-01 6.337979e-01 5.684070e-01 4.814563e-01 5.153420e-01 4.376320e-01 6.364112e-01
<GCONST> 1.306788e+02
<TRANSP> 5
 0.000000e+00 1.000000e+00 0.000000e+00 0.000000e+00 0.000000e+00
 0.000000e+00 6.000000e-01 4.000000e-01 0.000000e+00 0.000000e+00
 0.000000e+00 0.000000e+00 6.000000e-01 4.000000e-01 0.000000e+00
 0.000000e+00 0.000000e+00 0.000000e+00 7.000000e-01 3.000000e-01
 0.000000e+00 0.000000e+00 0.000000e+00 0.000000e+00 0.000000e+00
<ENDHMM>
~h "e"
<BEGINHMM>
<NUMSTATES> 5
<STATE> 2
<MEAN> 39
 -7.186640e+00 -2.291444e+00 -3.072094e+00 -4.740684e+00 -7.473828e+00 -3.028081e+00 -7.484655e+00 -5.267322e+00 -3.082249e+00 -3.227438e+00 -2.872554e+00 -4.400484e+00 5.225656e+01 -3.865428e-04 7.685995e-04 -1.841320e-04 -1.459433e-03 4.041751e-05 1.209069e-03 -1.908510e-05 -2.615073e-03 -7.971330e-05 4.168994e-04 -1.277228e-03 -1.469503e-03 8.170521e-04 5.576032e-05 1.661011e-04 1.391779e-04 1.017692e-04 1.255475e-04 8.012664e-05 1.094583e-04 7.221523e-05 9.465140e-05 1.449407e-04 7.018319e-05 -2.486602e-05 8.483230e-05
<VARIANCE> 39
 7.134052e+01 5.164307e+01 7.437308e+01 5.889223e+01 7.117015e+01 5.579803e+01 5.921510e+01 6.810009e+01 5.870772e+01 4.042298e+01 4.689148e+01 3.903736e+01 2.377983e+02 2.543565e+00 2.406225e+00 2.714377e+00 2.715783e+00 3.343063e+00 2.916426e+00 3.092536e+00 3.583893e+00 3.223440e+00 2.559319e+00 2.834353e+00 2.398334e+00 4.921178e+00 3.806877e-01 3.814659e-01 4.173811e-01 4.580033e-01 5.816385e-01 5.217029e-01 5.586310e-01 6.337979e-01 5.684070e-01 4.814563e-01 5.153420e-01 4.376320e-01 6.364112e-01
<GCONST> 1.306788e+02
<STATE> 3
<MEAN> 39
 -7.186640e+00 -2.291444e+00 -3.072094e+00 -4.740684e+00 -7.473828e+00 -3.028081e+00 -7.484655e+00 -5.267322e+00 -3.082249e+00 -3.227438e+00 -2.872554e+00 -4.400484e+00 5.225656e+01 -3.865428e-04 7.685995e-04 -1.841320e-04 -1.459433e-03 4.041751e-05 1.209069e-03 -1.908510e-05 -2.615073e-03 -7.971330e-05 4.168994e-04 -1.277228e-03 -1.469503e-03 8.170521e-04 5.576032e-05 1.661011e-04 1.391779e-04 1.017692e-04 1.255475e-04 8.012664e-05 1.094583e-04 7.221523e-05 9.465140e-05 1.449407e-04 7.018319e-05 -2.486602e-05 8.483230e-05
<VARIANCE> 39
 7.134052e+01 5.164307e+01 7.437308e+01 5.889223e+01 7.117015e+01 5.579803e+01 5.921510e+01 6.810009e+01 5.870772e+01 4.042298e+01 4.689148e+01 3.903736e+01 2.377983e+02 2.543565e+00 2.406225e+00 2.714377e+00 2.715783e+00 3.343063e+00 2.916426e+00 3.092536e+00 3.583893e+00 3.223440e+00 2.559319e+00 2.834353e+00 2.398334e+00 4.921178e+00 3.806877e-01 3.814659e-01 4.173811e-01 4.580033e-01 5.816385e-01 5.217029e-01 5.586310e-01 6.337979e-01 5.684070e-01 4.814563e-01 5.153420e-01 4.376320e-01 6.364112e-01
<GCONST> 1.306788e+02
<STATE> 4
<MEAN> 39
 -7.186640e+00 -2.291444e+00 -3.072094e+00 -4.740684e+00 -7.473828e+00 -3.028081e+00 -7.484655e+00 -5.267322e+00 -3.082249e+00 -3.227438e+00 -2.872554e+00 -4.400484e+00 5.225656e+01 -3.865428e-04 7.685995e-04 -1.841320e-04 -1.459433e-03 4.041751e-05 1.209069e-03 -1.908510e-05 -2.615073e-03 -7.971330e-05 4.168994e-04 -1.277228e-03 -1.469503e-03 8.170521e-04 5.576032e-05 1.661011e-04 1.391779e-04 1.017692e-04 1.255475e-04 8.012664e-05 1.094583e-04 7.221523e-05 9.465140e-05 1.449407e-04 7.018319e-05 -2.486602e-05 8.483230e-05
<VARIANCE> 39
 7.134052e+01 5.164307e+01 7.437308e+01 5.889223e+01 7.117015e+01 5.579803e+01 5.921510e+01 6.810009e+01 5.870772e+01 4.042298e+01 4.689148e+01 3.903736e+01 2.377983e+02 2.543565e+00 2.406225e+00 2.714377e+00 2.715783e+00 3.343063e+00 2.916426e+00 3.092536e+00 3.583893e+00 3.223440e+00 2.559319e+00 2.834353e+00 2.398334e+00 4.921178e+00 3.806877e-01 3.814659e-01 4.173811e-01 4.580033e-01 5.816385e-01 5.217029e-01 5.586310e-01 6.337979e-01 5.684070e-01 4.814563e-01 5.153420e-01 4.376320e-01 6.364112e-01
<GCONST> 1.306788e+02
<TRANSP> 5
 0.000000e+00 1.000000e+00 0.000000e+00 0.000000e+00 0.000000e+00
 0.000000e+00 6.000000e-01 4.000000e-01 0.000000e+00 0.000000e+00
 0.000000e+00 0.000000e+00 6.000000e-01 4.000000e-01 0.000000e+00
 0.000000e+00 0.000000e+00 0.000000e+00 7.000000e-01 3.000000e-01
 0.000000e+00 0.000000e+00 0.000000e+00 0.000000e+00 0.000000e+00
<ENDHMM>
~h "f"
<BEGINHMM>
<NUMSTATES> 5
<STATE> 2
<MEAN> 39
 -7.186640e+00 -2.291444e+00 -3.072094e+00 -4.740684e+00 -7.473828e+00 -3.028081e+00 -7.484655e+00 -5.267322e+00 -3.082249e+00 -3.227438e+00 -2.872554e+00 -4.400484e+00 5.225656e+01 -3.865428e-04 7.685995e-04 -1.841320e-04 -1.459433e-03 4.041751e-05 1.209069e-03 -1.908510e-05 -2.615073e-03 -7.971330e-05 4.168994e-04 -1.277228e-03 -1.469503e-03 8.170521e-04 5.576032e-05 1.661011e-04 1.391779e-04 1.017692e-04 1.255475e-04 8.012664e-05 1.094583e-04 7.221523e-05 9.465140e-05 1.449407e-04 7.018319e-05 -2.486602e-05 8.483230e-05
<VARIANCE> 39
 7.134052e+01 5.164307e+01 7.437308e+01 5.889223e+01 7.117015e+01 5.579803e+01 5.921510e+01 6.810009e+01 5.870772e+01 4.042298e+01 4.689148e+01 3.903736e+01 2.377983e+02 2.543565e+00 2.406225e+00 2.714377e+00 2.715783e+00 3.343063e+00 2.916426e+00 3.092536e+00 3.583893e+00 3.223440e+00 2.559319e+00 2.834353e+00 2.398334e+00 4.921178e+00 3.806877e-01 3.814659e-01 4.173811e-01 4.580033e-01 5.816385e-01 5.217029e-01 5.586310e-01 6.337979e-01 5.684070e-01 4.814563e-01 5.153420e-01 4.376320e-01 6.364112e-01
<GCONST> 1.306788e+02
<STATE> 3
<MEAN> 39
 -7.186640e+00 -2.291444e+00 -3.072094e+00 -4.740684e+00 -7.473828e+00 -3.028081e+00 -7.484655e+00 -5.267322e+00 -3.082249e+00 -3.227438e+00 -2.872554e+00 -4.400484e+00 5.225656e+01 -3.865428e-04 7.685995e-04 -1.841320e-04 -1.459433e-03 4.041751e-05 1.209069e-03 -1.908510e-05 -2.615073e-03 -7.971330e-05 4.168994e-04 -1.277228e-03 -1.469503e-03 8.170521e-04 5.576032e-05 1.661011e-04 1.391779e-04 1.017692e-04 1.255475e-04 8.012664e-05 1.094583e-04 7.221523e-05 9.465140e-05 1.449407e-04 7.018319e-05 -2.486602e-05 8.483230e-05
<VARIANCE> 39
 7.134052e+01 5.164307e+01 7.437308e+01 5.889223e+01 7.117015e+01 5.579803e+01 5.921510e+01 6.810009e+01 5.870772e+01 4.042298e+01 4.689148e+01 3.903736e+01 2.377983e+02 2.543565e+00 2.406225e+00 2.714377e+00 2.715783e+00 3.343063e+00 2.916426e+00 3.092536e+00 3.583893e+00 3.223440e+00 2.559319e+00 2.834353e+00 2.398334e+00 4.921178e+00 3.806877e-01 3.814659e-01 4.173811e-01 4.580033e-01 5.816385e-01 5.217029e-01 5.586310e-01 6.337979e-01 5.684070e-01 4.814563e-01 5.153420e-01 4.376320e-01 6.364112e-01
<GCONST> 1.306788e+02
<STATE> 4
<MEAN> 39
 -7.186640e+00 -2.291444e+00 -3.072094e+00 -4.740684e+00 -7.473828e+00 -3.028081e+00 -7.484655e+00 -5.267322e+00 -3.082249e+00 -3.227438e+00 -2.872554e+00 -4.400484e+00 5.225656e+01 -3.865428e-04 7.685995e-04 -1.841320e-04 -1.459433e-03 4.041751e-05 1.209069e-03 -1.908510e-05 -2.615073e-03 -7.971330e-05 4.168994e-04 -1.277228e-03 -1.469503e-03 8.170521e-04 5.576032e-05 1.661011e-04 1.391779e-04 1.017692e-04 1.255475e-04 8.012664e-05 1.094583e-04 7.221523e-05 9.465140e-05 1.449407e-04 7.018319e-05 -2.486602e-05 8.483230e-05
<VARIANCE> 39
 7.134052e+01 5.164307e+01 7.437308e+01 5.889223e+01 7.117015e+01 5.579803e+01 5.921510e+01 6.810009e+01 5.870772e+01 4.042298e+01 4.689148e+01 3.903736e+01 2.377983e+02 2.543565e+00 2.406225e+00 2.714377e+00 2.715783e+00 3.343063e+00 2.916426e+00 3.092536e+00 3.583893e+00 3.223440e+00 2.559319e+00 2.834353e+00 2.398334e+00 4.921178e+00 3.806877e-01 3.814659e-01 4.173811e-01 4.580033e-01 5.816385e-01 5.217029e-01 5.586310e-01 6.337979e-01 5.684070e-01 4.814563e-01 5.153420e-01 4.376320e-01 6.364112e-01
<GCONST> 1.306788e+02
<TRANSP> 5
 0.000000e+00 1.000000e+00 0.000000e+00 0.000000e+00 0.000000e+00
 0.000000e+00 6.000000e-01 4.000000e-01 0.000000e+00 0.000000e+00
 0.000000e+00 0.000000e+00 6.000000e-01 4.000000e-01 0.000000e+00
 0.000000e+00 0.000000e+00 0.000000e+00 7.000000e-01 3.000000e-01
 0.000000e+00 0.000000e+00 0.000000e+00 0.000000e+00 0.000000e+00
<ENDHMM>
~h "g"
<BEGINHMM>
<NUMSTATES> 5
<STATE> 2
<MEAN> 39
 -7.186640e+00 -2.291444e+00 -3.072094e+00 -4.740684e+00 -7.473828e+00 -3.028081e+00 -7.484655e+00 -5.267322e+00 -3.082249e+00 -3.227438e+00 -2.872554e+00 -4.400484e+00 5.225656e+01 -3.865428e-04 7.685995e-04 -1.841320e-04 -1.459433e-03 4.041751e-05 1.209069e-03 -1.908510e-05 -2.615073e-03 -7.971330e-05 4.168994e-04 -1.277228e-03 -1.469503e-03 8.170521e-04 5.576032e-05 1.661011e-04 1.391779e-04 1.017692e-04 1.255475e-04 8.012664e-05 1.094583e-04 7.221523e-05 9.465140e-05 1.449407e-04 7.018319e-05 -2.486602e-05 8.483230e-05
<VARIANCE> 39
 7.134052e+01 5.164307e+01 7.437308e+01 5.889223e+01 7.117015e+01 5.579803e+01 5.921510e+01 6.810009e+01 5.870772e+01 4.042298e+01 4.689148e+01 3.903736e+01 2.377983e+02 2.543565e+00 2.406225e+00 2.714377e+00 2.715783e+00 3.343063e+00 2.916426e+00 3.092536e+00 3.583893e+00 3.223440e+00 2.559319e+00 2.834353e+00 2.398334e+00 4.921178e+00 3.806877e-01 3.814659e-01 4.173811e-01 4.580033e-01 5.816385e-01 5.217029e-01 5.586310e-01 6.337979e-01 5.684070e-01 4.814563e-01 5.153420e-01 4.376320e-01 6.364112e-01
<GCONST> 1.306788e+02
<STATE> 3
<MEAN> 39
 -7.186640e+00 -2.291444e+00 -3.072094e+00 -4.740684e+00 -7.473828e+00 -3.028081e+00 -7.484655e+00 -5.267322e+00 -3.082249e+00 -3.227438e+00 -2.872554e+00 -4.400484e+00 5.225656e+01 -3.865428e-04 7.685995e-04 -1.841320e-04 -1.459433e-03 4.041751e-05 1.209069e-03 -1.908510e-05 -2.615073e-03 -7.971330e-05 4.168994e-04 -1.277228e-03 -1.469503e-03 8.170521e-04 5.576032e-05 1.661011e-04 1.391779e-04 1.017692e-04 1.255475e-04 8.012664e-05 1.094583e-04 7.221523e-05 9.465140e-05 1.449407e-04 7.018319e-05 -2.486602e-05 8.483230e-05
<VARIANCE> 39
 7.134052e+01 5.164307e+01 7.437308e+01 5.889223e+01 7.117015e+01 5.579803e+01 5.921510e+01 6.810009e+01 5.870772e+01 4.042298e+01 4.689148e+01 3.903736e+01 2.377983e+02 2.543565e+00 2.406225e+00 2.714377e+00 2.715783e+00 3.343063e+00 2.916426e+00 3.092536e+00 3.583893e+00 3.223440e+00 2.559319e+00 2.834353e+00 2.398334e+00 4.921178e+00 3.806877e-01 3.814659e-01 4.173811e-01 4.580033e-01 5.816385e-01 5.217029e-01 5.586310e-01 6.337979e-01 5.684070e-01 4.814563e-01 5.153420e-01 4.376320e-01 6.364112e-01
<GCONST> 1.306788e+02
<STATE> 4
<MEAN> 39
 -7.186640e+00 -2.291444e+00 -3.072094e+00 -4.740684e+00 -7.473828e+00 -3.028081e+00 -7.484655e+00 -5.267322e+00 -3.082249e+00 -3.227438e+00 -2.872554e+00 -4.400484e+00 5.225656e+01 -3.865428e-04 7.685995e-04 -1.841320e-04 -1.459433e-03 4.041751e-05 1.209069e-03 -1.908510e-05 -2.615073e-03 -7.971330e-05 4.168994e-04 -1.277228e-03 -1.469503e-03 8.170521e-04 5.576032e-05 1.661011e-04 1.391779e-04 1.017692e-04 1.255475e-04 8.012664e-05 1.094583e-04 7.221523e-05 9.465140e-05 1.449407e-04 7.018319e-05 -2.486602e-05 8.483230e-05
<VARIANCE> 39
 7.134052e+01 5.164307e+01 7.437308e+01 5.889223e+01 7.117015e+01 5.579803e+01 5.921510e+01 6.810009e+01 5.870772e+01 4.042298e+01 4.689148e+01 3.903736e+01 2.377983e+02 2.543565e+00 2.406225e+00 2.714377e+00 2.715783e+00 3.343063e+00 2.916426e+00 3.092536e+00 3.583893e+00 3.223440e+00 2.559319e+00 2.834353e+00 2.398334e+00 4.921178e+00 3.806877e-01 3.814659e-01 4.173811e-01 4.580033e-01 5.816385e-01 5.217029e-01 5.586310e-01 6.337979e-01 5.684070e-01 4.814563e-01 5.153420e-01 4.376320e-01 6.364112e-01
<GCONST> 1.306788e+02
<TRANSP> 5
 0.000000e+00 1.000000e+00 0.000000e+00 0.000000e+00 0.000000e+00
 0.000000e+00 6.000000e-01 4.000000e-01 0.000000e+00 0.000000e+00
 0.000000e+00 0.000000e+00 6.000000e-01 4.000000e-01 0.000000e+00
 0.000000e+00 0.000000e+00 0.000000e+00 7.000000e-01 3.000000e-01
 0.000000e+00 0.000000e+00 0.000000e+00 0.000000e+00 0.000000e+00
<ENDHMM>
~h "h"
<BEGINHMM>
<NUMSTATES> 5
<STATE> 2
<MEAN> 39
 -7.186640e+00 -2.291444e+00 -3.072094e+00 -4.740684e+00 -7.473828e+00 -3.028081e+00 -7.484655e+00 -5.267322e+00 -3.082249e+00 -3.227438e+00 -2.872554e+00 -4.400484e+00 5.225656e+01 -3.865428e-04 7.685995e-04 -1.841320e-04 -1.459433e-03 4.041751e-05 1.209069e-03 -1.908510e-05 -2.615073e-03 -7.971330e-05 4.168994e-04 -1.277228e-03 -1.469503e-03 8.170521e-04 5.576032e-05 1.661011e-04 1.391779e-04 1.017692e-04 1.255475e-04 8.012664e-05 1.094583e-04 7.221523e-05 9.465140e-05 1.449407e-04 7.018319e-05 -2.486602e-05 8.483230e-05
<VARIANCE> 39
 7.134052e+01 5.164307e+01 7.437308e+01 5.889223e+01 7.117015e+01 5.579803e+01 5.921510e+01 6.810009e+01 5.870772e+01 4.042298e+01 4.689148e+01 3.903736e+01 2.377983e+02 2.543565e+00 2.406225e+00 2.714377e+00 2.715783e+00 3.343063e+00 2.916426e+00 3.092536e+00 3.583893e+00 3.223440e+00 2.559319e+00 2.834353e+00 2.398334e+00 4.921178e+00 3.806877e-01 3.814659e-01 4.173811e-01 4.580033e-01 5.816385e-01 5.217029e-01 5.586310e-01 6.337979e-01 5.684070e-01 4.814563e-01 5.153420e-01 4.376320e-01 6.364112e-01
<GCONST> 1.306788e+02
<STATE> 3
<MEAN> 39
 -7.186640e+00 -2.291444e+00 -3.072094e+00 -4.740684e+00 -7.473828e+00 -3.028081e+00 -7.484655e+00 -5.267322e+00 -3.082249e+00 -3.227438e+00 -2.872554e+00 -4.400484e+00 5.225656e+01 -3.865428e-04 7.685995e-04 -1.841320e-04 -1.459433e-03 4.041751e-05 1.209069e-03 -1.908510e-05 -2.615073e-03 -7.971330e-05 4.168994e-04 -1.277228e-03 -1.469503e-03 8.170521e-04 5.576032e-05 1.661011e-04 1.391779e-04 1.017692e-04 1.255475e-04 8.012664e-05 1.094583e-04 7.221523e-05 9.465140e-05 1.449407e-04 7.018319e-05 -2.486602e-05 8.483230e-05
<VARIANCE> 39
 7.134052e+01 5.164307e+01 7.437308e+01 5.889223e+01 7.117015e+01 5.579803e+01 5.921510e+01 6.810009e+01 5.870772e+01 4.042298e+01 4.689148e+01 3.903736e+01 2.377983e+02 2.543565e+00 2.406225e+00 2.714377e+00 2.715783e+00 3.343063e+00 2.916426e+00 3.092536e+00 3.583893e+00 3.223440e+00 2.559319e+00 2.834353e+00 2.398334e+00 4.921178e+00 3.806877e-01 3.814659e-01 4.173811e-01 4.580033e-01 5.816385e-01 5.217029e-01 5.586310e-01 6.337979e-01 5.684070e-01 4.814563e-01 5.153420e-01 4.376320e-01 6.364112e-01
<GCONST> 1.306788e+02
<STATE> 4
<MEAN> 39
 -7.186640e+00 -2.291444e+00 -3.072094e+00 -4.740684e+00 -7.473828e+00 -3.028081e+00 -7.484655e+00 -5.267322e+00 -3.082249e+00 -3.227438e+00 -2.872554e+00 -4.400484e+00 5.225656e+01 -3.865428e-04 7.685995e-04 -1.841320e-04 -1.459433e-03 4.041751e-05 1.209069e-03 -1.908510e-05 -2.615073e-03 -7.971330e-05 4.168994e-04 -1.277228e-03 -1.469503e-03 8.170521e-04 5.576032e-05 1.661011e-04 1.391779e-04 1.017692e-04 1.255475e-04 8.012664e-05 1.094583e-04 7.221523e-05 9.465140e-05 1.449407e-04 7.018319e-05 -2.486602e-05 8.483230e-05
<VARIANCE> 39
 7.134052e+01 5.164307e+01 7.437308e+01 5.889223e+01 7.117015e+01 5.579803e+01 5.921510e+01 6.810009e+01 5.870772e+01 4.042298e+01 4.689148e+01 3.903736e+01 2.377983e+02 2.543565e+00 2.406225e+00 2.714377e+00 2.715783e+00 3.343063e+00 2.916426e+00 3.092536e+00 3.583893e+00 3.223440e+00 2.559319e+00 2.834353e+00 2.398334e+00 4.921178e+00 3.806877e-01 3.814659e-01 4.173811e-01 4.580033e-01 5.816385e-01 5.217029e-01 5.586310e-01 6.337979e-01 5.684070e-01 4.814563e-01 5.153420e-01 4.376320e-01 6.364112e-01
<GCONST> 1.306788e+02
<TRANSP> 5
 0.000000e+00 1.000000e+00 0.000000e+00 0.000000e+00 0.000000e+00
 0.000000e+00 6.000000e-01 4.000000e-01 0.000000e+00 0.000000e+00
 0.000000e+00 0.000000e+00 6.000000e-01 4.000000e-01 0.000000e+00
 0.000000e+00 0.000000e+00 0.000000e+00 7.000000e-01 3.000000e-01
 0.000000e+00 0.000000e+00 0.000000e+00 0.000000e+00 0.000000e+00
<ENDHMM>
~h "i"
<BEGINHMM>
<NUMSTATES> 5
<STATE> 2
<MEAN> 39
 -7.186640e+00 -2.291444e+00 -3.072094e+00 -4.740684e+00 -7.473828e+00 -3.028081e+00 -7.484655e+00 -5.267322e+00 -3.082249e+00 -3.227438e+00 -2.872554e+00 -4.400484e+00 5.225656e+01 -3.865428e-04 7.685995e-04 -1.841320e-04 -1.459433e-03 4.041751e-05 1.209069e-03 -1.908510e-05 -2.615073e-03 -7.971330e-05 4.168994e-04 -1.277228e-03 -1.469503e-03 8.170521e-04 5.576032e-05 1.661011e-04 1.391779e-04 1.017692e-04 1.255475e-04 8.012664e-05 1.094583e-04 7.221523e-05 9.465140e-05 1.449407e-04 7.018319e-05 -2.486602e-05 8.483230e-05
<VARIANCE> 39
 7.134052e+01 5.164307e+01 7.437308e+01 5.889223e+01 7.117015e+01 5.579803e+01 5.921510e+01 6.810009e+01 5.870772e+01 4.042298e+01 4.689148e+01 3.903736e+01 2.377983e+02 2.543565e+00 2.406225e+00 2.714377e+00 2.715783e+00 3.343063e+00 2.916426e+00 3.092536e+00 3.583893e+00 3.223440e+00 2.559319e+00 2.834353e+00 2.398334e+00 4.921178e+00 3.806877e-01 3.814659e-01 4.173811e-01 4.580033e-01 5.816385e-01 5.217029e-01 5.586310e-01 6.337979e-01 5.684070e-01 4.814563e-01 5.153420e-01 4.376320e-01 6.364112e-01
<GCONST> 1.306788e+02
<STATE> 3
<MEAN> 39
 -7.186640e+00 -2.291444e+00 -3.072094e+00 -4.740684e+00 -7.473828e+00 -3.028081e+00 -7.484655e+00 -5.267322e+00 -3.082249e+00 -3.227438e+00 -2.872554e+00 -4.400484e+00 5.225656e+01 -3.865428e-04 7.685995e-04 -1.841320e-04 -1.459433e-03 4.041751e-05 1.209069e-03 -1.908510e-05 -2.615073e-03 -7.971330e-05 4.168994e-04 -1.277228e-03 -1.469503e-03 8.170521e-04 5.576032e-05 1.661011e-04 1.391779e-04 1.017692e-04 1.255475e-04 8.012664e-05 1.094583e-04 7.221523e-05 9.465140e-05 1.449407e-04 7.018319e-05 -2.486602e-05 8.483230e-05
<VARIANCE> 39
 7.134052e+01 5.164307e+01 7.437308e+01 5.889223e+01 7.117015e+01 5.579803e+01 5.921510e+01 6.810009e+01 5.870772e+01 4.042298e+01 4.689148e+01 3.903736e+01 2.377983e+02 2.543565e+00 2.406225e+00 2.714377e+00 2.715783e+00 3.343063e+00 2.916426e+00 3.092536e+00 3.583893e+00 3.223440e+00 2.559319e+00 2.834353e+00 2.398334e+00 4.921178e+00 3.806877e-01 3.814659e-01 4.173811e-01 4.580033e-01 5.816385e-01 5.217029e-01 5.586310e-01 6.337979e-01 5.684070e-01 4.814563e-01 5.153420e-01 4.376320e-01 6.364112e-01
<GCONST> 1.306788e+02
<STATE> 4
<MEAN> 39
 -7.186640e+00 -2.291444e+00 -3.072094e+00 -4.740684e+00 -7.473828e+00 -3.028081e+00 -7.484655e+00 -5.267322e+00 -3.082249e+00 -3.227438e+00 -2.872554e+00 -4.400484e+00 5.225656e+01 -3.865428e-04 7.685995e-04 -1.841320e-04 -1.459433e-03 4.041751e-05 1.209069e-03 -1.908510e-05 -2.615073e-03 -7.971330e-05 4.168994e-04 -1.277228e-03 -1.469503e-03 8.170521e-04 5.576032e-05 1.661011e-04 1.391779e-04 1.017692e-04 1.255475e-04 8.012664e-05 1.094583e-04 7.221523e-05 9.465140e-05 1.449407e-04 7.018319e-05 -2.486602e-05 8.483230e-05
<VARIANCE> 39
 7.134052e+01 5.164307e+01 7.437308e+01 5.889223e+01 7.117015e+01 5.579803e+01 5.921510e+01 6.810009e+01 5.870772e+01 4.042298e+01 4.689148e+01 3.903736e+01 2.377983e+02 2.543565e+00 2.406225e+00 2.714377e+00 2.715783e+00 3.343063e+00 2.916426e+00 3.092536e+00 3.583893e+00 3.223440e+00 2.559319e+00 2.834353e+00 2.398334e+00 4.921178e+00 3.806877e-01 3.814659e-01 4.173811e-01 4.580033e-01 5.816385e-01 5.217029e-01 5.586310e-01 6.337979e-01 5.684070e-01 4.814563e-01 5.153420e-01 4.376320e-01 6.364112e-01
<GCONST> 1.306788e+02
<TRANSP> 5
 0.000000e+00 1.000000e+00 0.000000e+00 0.000000e+00 0.000000e+00
 0.000000e+00 6.000000e-01 4.000000e-01 0.000000e+00 0.000000e+00
 0.000000e+00 0.000000e+00 6.000000e-01 4.000000e-01 0.000000e+00
 0.000000e+00 0.000000e+00 0.000000e+00 7.000000e-01 3.000000e-01
 0.000000e+00 0.000000e+00 0.000000e+00 0.000000e+00 0.000000e+00
<ENDHMM>
~h "j"
<BEGINHMM>
<NUMSTATES> 5
<STATE> 2
<MEAN> 39
 -7.186640e+00 -2.291444e+00 -3.072094e+00 -4.740684e+00 -7.473828e+00 -3.028081e+00 -7.484655e+00 -5.267322e+00 -3.082249e+00 -3.227438e+00 -2.872554e+00 -4.400484e+00 5.225656e+01 -3.865428e-04 7.685995e-04 -1.841320e-04 -1.459433e-03 4.041751e-05 1.209069e-03 -1.908510e-05 -2.615073e-03 -7.971330e-05 4.168994e-04 -1.277228e-03 -1.469503e-03 8.170521e-04 5.576032e-05 1.661011e-04 1.391779e-04 1.017692e-04 1.255475e-04 8.012664e-05 1.094583e-04 7.221523e-05 9.465140e-05 1.449407e-04 7.018319e-05 -2.486602e-05 8.483230e-05
<VARIANCE> 39
 7.134052e+01 5.164307e+01 7.437308e+01 5.889223e+01 7.117015e+01 5.579803e+01 5.921510e+01 6.810009e+01 5.870772e+01 4.042298e+01 4.689148e+01 3.903736e+01 2.377983e+02 2.543565e+00 2.406225e+00 2.714377e+00 2.715783e+00 3.343063e+00 2.916426e+00 3.092536e+00 3.583893e+00 3.223440e+00 2.559319e+00 2.834353e+00 2.398334e+00 4.921178e+00 3.806877e-01 3.814659e-01 4.173811e-01 4.580033e-01 5.816385e-01 5.217029e-01 5.586310e-01 6.337979e-01 5.684070e-01 4.814563e-01 5.153420e-01 4.376320e-01 6.364112e-01
<GCONST> 1.306788e+02
<STATE> 3
<MEAN> 39
 -7.186640e+00 -2.291444e+00 -3.072094e+00 -4.740684e+00 -7.473828e+00 -3.028081e+00 -7.484655e+00 -5.267322e+00 -3.082249e+00 -3.227438e+00 -2.872554e+00 -4.400484e+00 5.225656e+01 -3.865428e-04 7.685995e-04 -1.841320e-04 -1.459433e-03 4.041751e-05 1.209069e-03 -1.908510e-05 -2.615073e-03 -7.971330e-05 4.168994e-04 -1.277228e-03 -1.469503e-03 8.170521e-04 5.576032e-05 1.661011e-04 1.391779e-04 1.017692e-04 1.255475e-04 8.012664e-05 1.094583e-04 7.221523e-05 9.465140e-05 1.449407e-04 7.018319e-05 -2.486602e-05 8.483230e-05
<VARIANCE> 39
 7.134052e+01 5.164307e+01 7.437308e+01 5.889223e+01 7.117015e+01 5.579803e+01 5.921510e+01 6.810009e+01 5.870772e+01 4.042298e+01 4.689148e+01 3.903736e+01 2.377983e+02 2.543565e+00 2.406225e+00 2.714377e+00 2.715783e+00 3.343063e+00 2.916426e+00 3.092536e+00 3.583893e+00 3.223440e+00 2.559319e+00 2.834353e+00 2.398334e+00 4.921178e+00 3.806877e-01 3.814659e-01 4.173811e-01 4.580033e-01 5.816385e-01 5.217029e-01 5.586310e-01 6.337979e-01 5.684070e-01 4.814563e-01 5.153420e-01 4.376320e-01 6.364112e-01
<GCONST> 1.306788e+02
<STATE> 4
<MEAN> 39
 -7.186640e+00 -2.291444e+00 -3.072094e+00 -4.740684e+00 -7.473828e+00 -3.028081e+00 -7.484655e+00 -5.267322e+00 -3.082249e+00 -3.227438e+00 -2.872554e+00 -4.400484e+00 5.225656e+01 -3.865428e-04 7.685995e-04 -1.841320e-04 -1.459433e-03 4.041751e-05 1.209069e-03 -1.908510e-05 -2.615073e-03 -7.971330e-05 4.168994e-04 -1.277228e-03 -1.469503e-03 8.170521e-04 5.576032e-05 1.661011e-04 1.391779e-04 1.017692e-04 1.255475e-04 8.012664e-05 1.094583e-04 7.221523e-05 9.465140e-05 1.449407e-04 7.018319e-05 -2.486602e-05 8.483230e-05
<VARIANCE> 39
 7.134052e+01 5.164307e+01 7.437308e+01 5.889223e+01 7.117015e+01 5.579803e+01 5.921510e+01 6.810009e+01 5.870772e+01 4.042298e+01 4.689148e+01 3.903736e+01 2.377983e+02 2.543565e+00 2.406225e+00 2.714377e+00 2.715783e+00 3.343063e+00 2.916426e+00 3.092536e+00 3.583893e+00 3.223440e+00 2.559319e+00 2.834353e+00 2.398334e+00 4.921178e+00 3.806877e-01 3.814659e-01 4.173811e-01 4.580033e-01 5.816385e-01 5.217029e-01 5.586310e-01 6.337979e-01 5.684070e-01 4.814563e-01 5.153420e-01 4.376320e-01 6.364112e-01
<GCONST> 1.306788e+02
<TRANSP> 5
 0.000000e+00 1.000000e+00 0.000000e+00 0.000000e+00 0.000000e+00
 0.000000e+00 6.000000e-01 4.000000e-01 0.000000e+00 0.000000e+00
 0.000000e+00 0.000000e+00 6.000000e-01 4.000000e-01 0.000000e+00
 0.000000e+00 0.000000e+00 0.000000e+00 7.000000e-01 3.000000e-01
 0.000000e+00 0.000000e+00 0.000000e+00 0.000000e+00 0.000000e+00
<ENDHMM>
~h "k"
<BEGINHMM>
<NUMSTATES> 5
<STATE> 2
<MEAN> 39
 -7.186640e+00 -2.291444e+00 -3.072094e+00 -4.740684e+00 -7.473828e+00 -3.028081e+00 -7.484655e+00 -5.267322e+00 -3.082249e+00 -3.227438e+00 -2.872554e+00 -4.400484e+00 5.225656e+01 -3.865428e-04 7.685995e-04 -1.841320e-04 -1.459433e-03 4.041751e-05 1.209069e-03 -1.908510e-05 -2.615073e-03 -7.971330e-05 4.168994e-04 -1.277228e-03 -1.469503e-03 8.170521e-04 5.576032e-05 1.661011e-04 1.391779e-04 1.017692e-04 1.255475e-04 8.012664e-05 1.094583e-04 7.221523e-05 9.465140e-05 1.449407e-04 7.018319e-05 -2.486602e-05 8.483230e-05
<VARIANCE> 39
 7.134052e+01 5.164307e+01 7.437308e+01 5.889223e+01 7.117015e+01 5.579803e+01 5.921510e+01 6.810009e+01 5.870772e+01 4.042298e+01 4.689148e+01 3.903736e+01 2.377983e+02 2.543565e+00 2.406225e+00 2.714377e+00 2.715783e+00 3.343063e+00 2.916426e+00 3.092536e+00 3.583893e+00 3.223440e+00 2.559319e+00 2.834353e+00 2.398334e+00 4.921178e+00 3.806877e-01 3.814659e-01 4.173811e-01 4.580033e-01 5.816385e-01 5.217029e-01 5.586310e-01 6.337979e-01 5.684070e-01 4.814563e-01 5.153420e-01 4.376320e-01 6.364112e-01
<GCONST> 1.306788e+02
<STATE> 3
<MEAN> 39
 -7.186640e+00 -2.291444e+00 -3.072094e+00 -4.740684e+00 -7.473828e+00 -3.028081e+00 -7.484655e+00 -5.267322e+00 -3.082249e+00 -3.227438e+00 -2.872554e+00 -4.400484e+00 5.225656e+01 -3.865428e-04 7.685995e-04 -1.841320e-04 -1.459433e-03 4.041751e-05 1.209069e-03 -1.908510e-05 -2.615073e-03 -7.971330e-05 4.168994e-04 -1.277228e-03 -1.469503e-03 8.170521e-04 5.576032e-05 1.661011e-04 1.391779e-04 1.017692e-04 1.255475e-04 8.012664e-05 1.094583e-04 7.221523e-05 9.465140e-05 1.449407e-04 7.018319e-05 -2.486602e-05 8.483230e-05
<VARIANCE> 39
 7.134052e+01 5.164307e+01 7.437308e+01 5.889223e+01 7.117015e+01 5.579803e+01 5.921510e+01 6.810009e+01 5.870772e+01 4.042298e+01 4.689148e+01 3.903736e+01 2.377983e+02 2.543565e+00 2.406225e+00 2.714377e+00 2.715783e+00 3.343063e+00 2.916426e+00 3.092536e+00 3.583893e+00 3.223440e+00 2.559319e+00 2.834353e+00 2.398334e+00 4.921178e+00 3.806877e-01 3.814659e-01 4.173811e-01 4.580033e-01 5.816385e-01 5.217029e-01 5.586310e-01 6.337979e-01 5.684070e-01 4.814563e-01 5.153420e-01 4.376320e-01 6.364112e-01
<GCONST> 1.306788e+02
<STATE> 4
<MEAN> 39
 -7.186640e+00 -2.291444e+00 -3.072094e+00 -4.740684e+00 -7.473828e+00 -3.028081e+00 -7.484655e+00 -5.267322e+00 -3.082249e+00 -3.227438e+00 -2.872554e+00 -4.400484e+00 5.225656e+01 -3.865428e-04 7.685995e-04 -1.841320e-04 -1.459433e-03 4.041751e-05 1.209069e-03 -1.908510e-05 -2.615073e-03 -7.971330e-05 4.168994e-04 -1.277228e-03 -1.469503e-03 8.170521e-04 5.576032e-05 1.661011e-04 1.391779e-04 1.017692e-04 1.255475e-04 8.012664e-05 1.094583e-04 7.221523e-05 9.465140e-05 1.449407e-04 7.018319e-05 -2.486602e-05 8.483230e-05
<VARIANCE> 39
 7.134052e+01 5.164307e+01 7.437308e+01 5.889223e+01 7.117015e+01 5.579803e+01 5.921510e+01 6.810009e+01 5.870772e+01 4.042298e+01 4.689148e+01 3.903736e+01 2.377983e+02 2.543565e+00 2.406225e+00 2.714377e+00 2.715783e+00 3.343063e+00 2.916426e+00 3.092536e+00 3.583893e+00 3.223440e+00 2.559319e+00 2.834353e+00 2.398334e+00 4.921178e+00 3.806877e-01 3.814659e-01 4.173811e-01 4.580033e-01 5.816385e-01 5.217029e-01 5.586310e-01 6.337979e-01 5.684070e-01 4.814563e-01 5.153420e-01 4.376320e-01 6.364112e-01
<GCONST> 1.306788e+02
<TRANSP> 5
 0.000000e+00 1.000000e+00 0.000000e+00 0.000000e+00 0.000000e+00
 0.000000e+00 6.000000e-01 4.000000e-01 0.000000e+00 0.000000e+00
 0.000000e+00 0.000000e+00 6.000000e-01 4.000000e-01 0.000000e+00
 0.000000e+00 0.000000e+00 0.000000e+00 7.000000e-01 3.000000e-01
 0.000000e+00 0.000000e+00 0.000000e+00 0.000000e+00 0.000000e+00
<ENDHMM>
~h "kh"
<BEGINHMM>
<NUMSTATES> 5
<STATE> 2
<MEAN> 39
 -7.186640e+00 -2.291444e+00 -3.072094e+00 -4.740684e+00 -7.473828e+00 -3.028081e+00 -7.484655e+00 -5.267322e+00 -3.082249e+00 -3.227438e+00 -2.872554e+00 -4.400484e+00 5.225656e+01 -3.865428e-04 7.685995e-04 -1.841320e-04 -1.459433e-03 4.041751e-05 1.209069e-03 -1.908510e-05 -2.615073e-03 -7.971330e-05 4.168994e-04 -1.277228e-03 -1.469503e-03 8.170521e-04 5.576032e-05 1.661011e-04 1.391779e-04 1.017692e-04 1.255475e-04 8.012664e-05 1.094583e-04 7.221523e-05 9.465140e-05 1.449407e-04 7.018319e-05 -2.486602e-05 8.483230e-05
<VARIANCE> 39
 7.134052e+01 5.164307e+01 7.437308e+01 5.889223e+01 7.117015e+01 5.579803e+01 5.921510e+01 6.810009e+01 5.870772e+01 4.042298e+01 4.689148e+01 3.903736e+01 2.377983e+02 2.543565e+00 2.406225e+00 2.714377e+00 2.715783e+00 3.343063e+00 2.916426e+00 3.092536e+00 3.583893e+00 3.223440e+00 2.559319e+00 2.834353e+00 2.398334e+00 4.921178e+00 3.806877e-01 3.814659e-01 4.173811e-01 4.580033e-01 5.816385e-01 5.217029e-01 5.586310e-01 6.337979e-01 5.684070e-01 4.814563e-01 5.153420e-01 4.376320e-01 6.364112e-01
<GCONST> 1.306788e+02
<STATE> 3
<MEAN> 39
 -7.186640e+00 -2.291444e+00 -3.072094e+00 -4.740684e+00 -7.473828e+00 -3.028081e+00 -7.484655e+00 -5.267322e+00 -3.082249e+00 -3.227438e+00 -2.872554e+00 -4.400484e+00 5.225656e+01 -3.865428e-04 7.685995e-04 -1.841320e-04 -1.459433e-03 4.041751e-05 1.209069e-03 -1.908510e-05 -2.615073e-03 -7.971330e-05 4.168994e-04 -1.277228e-03 -1.469503e-03 8.170521e-04 5.576032e-05 1.661011e-04 1.391779e-04 1.017692e-04 1.255475e-04 8.012664e-05 1.094583e-04 7.221523e-05 9.465140e-05 1.449407e-04 7.018319e-05 -2.486602e-05 8.483230e-05
<VARIANCE> 39
 7.134052e+01 5.164307e+01 7.437308e+01 5.889223e+01 7.117015e+01 5.579803e+01 5.921510e+01 6.810009e+01 5.870772e+01 4.042298e+01 4.689148e+01 3.903736e+01 2.377983e+02 2.543565e+00 2.406225e+00 2.714377e+00 2.715783e+00 3.343063e+00 2.916426e+00 3.092536e+00 3.583893e+00 3.223440e+00 2.559319e+00 2.834353e+00 2.398334e+00 4.921178e+00 3.806877e-01 3.814659e-01 4.173811e-01 4.580033e-01 5.816385e-01 5.217029e-01 5.586310e-01 6.337979e-01 5.684070e-01 4.814563e-01 5.153420e-01 4.376320e-01 6.364112e-01
<GCONST> 1.306788e+02
<STATE> 4
<MEAN> 39
 -7.186640e+00 -2.291444e+00 -3.072094e+00 -4.740684e+00 -7.473828e+00 -3.028081e+00 -7.484655e+00 -5.267322e+00 -3.082249e+00 -3.227438e+00 -2.872554e+00 -4.400484e+00 5.225656e+01 -3.865428e-04 7.685995e-04 -1.841320e-04 -1.459433e-03 4.041751e-05 1.209069e-03 -1.908510e-05 -2.615073e-03 -7.971330e-05 4.168994e-04 -1.277228e-03 -1.469503e-03 8.170521e-04 5.576032e-05 1.661011e-04 1.391779e-04 1.017692e-04 1.255475e-04 8.012664e-05 1.094583e-04 7.221523e-05 9.465140e-05 1.449407e-04 7.018319e-05 -2.486602e-05 8.483230e-05
<VARIANCE> 39
 7.134052e+01 5.164307e+01 7.437308e+01 5.889223e+01 7.117015e+01 5.579803e+01 5.921510e+01 6.810009e+01 5.870772e+01 4.042298e+01 4.689148e+01 3.903736e+01 2.377983e+02 2.543565e+00 2.406225e+00 2.714377e+00 2.715783e+00 3.343063e+00 2.916426e+00 3.092536e+00 3.583893e+00 3.223440e+00 2.559319e+00 2.834353e+00 2.398334e+00 4.921178e+00 3.806877e-01 3.814659e-01 4.173811e-01 4.580033e-01 5.816385e-01 5.217029e-01 5.586310e-01 6.337979e-01 5.684070e-01 4.814563e-01 5.153420e-01 4.376320e-01 6.364112e-01
<GCONST> 1.306788e+02
<TRANSP> 5
 0.000000e+00 1.000000e+00 0.000000e+00 0.000000e+00 0.000000e+00
 0.000000e+00 6.000000e-01 4.000000e-01 0.000000e+00 0.000000e+00
 0.000000e+00 0.000000e+00 6.000000e-01 4.000000e-01 0.000000e+00
 0.000000e+00 0.000000e+00 0.000000e+00 7.000000e-01 3.000000e-01
 0.000000e+00 0.000000e+00 0.000000e+00 0.000000e+00 0.000000e+00
<ENDHMM>
~h "l"
<BEGINHMM>
<NUMSTATES> 5
<STATE> 2
<MEAN> 39
 -7.186640e+00 -2.291444e+00 -3.072094e+00 -4.740684e+00 -7.473828e+00 -3.028081e+00 -7.484655e+00 -5.267322e+00 -3.082249e+00 -3.227438e+00 -2.872554e+00 -4.400484e+00 5.225656e+01 -3.865428e-04 7.685995e-04 -1.841320e-04 -1.459433e-03 4.041751e-05 1.209069e-03 -1.908510e-05 -2.615073e-03 -7.971330e-05 4.168994e-04 -1.277228e-03 -1.469503e-03 8.170521e-04 5.576032e-05 1.661011e-04 1.391779e-04 1.017692e-04 1.255475e-04 8.012664e-05 1.094583e-04 7.221523e-05 9.465140e-05 1.449407e-04 7.018319e-05 -2.486602e-05 8.483230e-05
<VARIANCE> 39
 7.134052e+01 5.164307e+01 7.437308e+01 5.889223e+01 7.117015e+01 5.579803e+01 5.921510e+01 6.810009e+01 5.870772e+01 4.042298e+01 4.689148e+01 3.903736e+01 2.377983e+02 2.543565e+00 2.406225e+00 2.714377e+00 2.715783e+00 3.343063e+00 2.916426e+00 3.092536e+00 3.583893e+00 3.223440e+00 2.559319e+00 2.834353e+00 2.398334e+00 4.921178e+00 3.806877e-01 3.814659e-01 4.173811e-01 4.580033e-01 5.816385e-01 5.217029e-01 5.586310e-01 6.337979e-01 5.684070e-01 4.814563e-01 5.153420e-01 4.376320e-01 6.364112e-01
<GCONST> 1.306788e+02
<STATE> 3
<MEAN> 39
 -7.186640e+00 -2.291444e+00 -3.072094e+00 -4.740684e+00 -7.473828e+00 -3.028081e+00 -7.484655e+00 -5.267322e+00 -3.082249e+00 -3.227438e+00 -2.872554e+00 -4.400484e+00 5.225656e+01 -3.865428e-04 7.685995e-04 -1.841320e-04 -1.459433e-03 4.041751e-05 1.209069e-03 -1.908510e-05 -2.615073e-03 -7.971330e-05 4.168994e-04 -1.277228e-03 -1.469503e-03 8.170521e-04 5.576032e-05 1.661011e-04 1.391779e-04 1.017692e-04 1.255475e-04 8.012664e-05 1.094583e-04 7.221523e-05 9.465140e-05 1.449407e-04 7.018319e-05 -2.486602e-05 8.483230e-05
<VARIANCE> 39
 7.134052e+01 5.164307e+01 7.437308e+01 5.889223e+01 7.117015e+01 5.579803e+01 5.921510e+01 6.810009e+01 5.870772e+01 4.042298e+01 4.689148e+01 3.903736e+01 2.377983e+02 2.543565e+00 2.406225e+00 2.714377e+00 2.715783e+00 3.343063e+00 2.916426e+00 3.092536e+00 3.583893e+00 3.223440e+00 2.559319e+00 2.834353e+00 2.398334e+00 4.921178e+00 3.806877e-01 3.814659e-01 4.173811e-01 4.580033e-01 5.816385e-01 5.217029e-01 5.586310e-01 6.337979e-01 5.684070e-01 4.814563e-01 5.153420e-01 4.376320e-01 6.364112e-01
<GCONST> 1.306788e+02
<STATE> 4
<MEAN> 39
 -7.186640e+00 -2.291444e+00 -3.072094e+00 -4.740684e+00 -7.473828e+00 -3.028081e+00 -7.484655e+00 -5.267322e+00 -3.082249e+00 -3.227438e+00 -2.872554e+00 -4.400484e+00 5.225656e+01 -3.865428e-04 7.685995e-04 -1.841320e-04 -1.459433e-03 4.041751e-05 1.209069e-03 -1.908510e-05 -2.615073e-03 -7.971330e-05 4.168994e-04 -1.277228e-03 -1.469503e-03 8.170521e-04 5.576032e-05 1.661011e-04 1.391779e-04 1.017692e-04 1.255475e-04 8.012664e-05 1.094583e-04 7.221523e-05 9.465140e-05 1.449407e-04 7.018319e-05 -2.486602e-05 8.483230e-05
<VARIANCE> 39
 7.134052e+01 5.164307e+01 7.437308e+01 5.889223e+01 7.117015e+01 5.579803e+01 5.921510e+01 6.810009e+01 5.870772e+01 4.042298e+01 4.689148e+01 3.903736e+01 2.377983e+02 2.543565e+00 2.406225e+00 2.714377e+00 2.715783e+00 3.343063e+00 2.916426e+00 3.092536e+00 3.583893e+00 3.223440e+00 2.559319e+00 2.834353e+00 2.398334e+00 4.921178e+00 3.806877e-01 3.814659e-01 4.173811e-01 4.580033e-01 5.816385e-01 5.217029e-01 5.586310e-01 6.337979e-01 5.684070e-01 4.814563e-01 5.153420e-01 4.376320e-01 6.364112e-01
<GCONST> 1.306788e+02
<TRANSP> 5
 0.000000e+00 1.000000e+00 0.000000e+00 0.000000e+00 0.000000e+00
 0.000000e+00 6.000000e-01 4.000000e-01 0.000000e+00 0.000000e+00
 0.000000e+00 0.000000e+00 6.000000e-01 4.000000e-01 0.000000e+00
 0.000000e+00 0.000000e+00 0.000000e+00 7.000000e-01 3.000000e-01
 0.000000e+00 0.000000e+00 0.000000e+00 0.000000e+00 0.000000e+00
<ENDHMM>
~h "m"
<BEGINHMM>
<NUMSTATES> 5
<STATE> 2
<MEAN> 39
 -7.186640e+00 -2.291444e+00 -3.072094e+00 -4.740684e+00 -7.473828e+00 -3.028081e+00 -7.484655e+00 -5.267322e+00 -3.082249e+00 -3.227438e+00 -2.872554e+00 -4.400484e+00 5.225656e+01 -3.865428e-04 7.685995e-04 -1.841320e-04 -1.459433e-03 4.041751e-05 1.209069e-03 -1.908510e-05 -2.615073e-03 -7.971330e-05 4.168994e-04 -1.277228e-03 -1.469503e-03 8.170521e-04 5.576032e-05 1.661011e-04 1.391779e-04 1.017692e-04 1.255475e-04 8.012664e-05 1.094583e-04 7.221523e-05 9.465140e-05 1.449407e-04 7.018319e-05 -2.486602e-05 8.483230e-05
<VARIANCE> 39
 7.134052e+01 5.164307e+01 7.437308e+01 5.889223e+01 7.117015e+01 5.579803e+01 5.921510e+01 6.810009e+01 5.870772e+01 4.042298e+01 4.689148e+01 3.903736e+01 2.377983e+02 2.543565e+00 2.406225e+00 2.714377e+00 2.715783e+00 3.343063e+00 2.916426e+00 3.092536e+00 3.583893e+00 3.223440e+00 2.559319e+00 2.834353e+00 2.398334e+00 4.921178e+00 3.806877e-01 3.814659e-01 4.173811e-01 4.580033e-01 5.816385e-01 5.217029e-01 5.586310e-01 6.337979e-01 5.684070e-01 4.814563e-01 5.153420e-01 4.376320e-01 6.364112e-01
<GCONST> 1.306788e+02
<STATE> 3
<MEAN> 39
 -7.186640e+00 -2.291444e+00 -3.072094e+00 -4.740684e+00 -7.473828e+00 -3.028081e+00 -7.484655e+00 -5.267322e+00 -3.082249e+00 -3.227438e+00 -2.872554e+00 -4.400484e+00 5.225656e+01 -3.865428e-04 7.685995e-04 -1.841320e-04 -1.459433e-03 4.041751e-05 1.209069e-03 -1.908510e-05 -2.615073e-03 -7.971330e-05 4.168994e-04 -1.277228e-03 -1.469503e-03 8.170521e-04 5.576032e-05 1.661011e-04 1.391779e-04 1.017692e-04 1.255475e-04 8.012664e-05 1.094583e-04 7.221523e-05 9.465140e-05 1.449407e-04 7.018319e-05 -2.486602e-05 8.483230e-05
<VARIANCE> 39
 7.134052e+01 5.164307e+01 7.437308e+01 5.889223e+01 7.117015e+01 5.579803e+01 5.921510e+01 6.810009e+01 5.870772e+01 4.042298e+01 4.689148e+01 3.903736e+01 2.377983e+02 2.543565e+00 2.406225e+00 2.714377e+00 2.715783e+00 3.343063e+00 2.916426e+00 3.092536e+00 3.583893e+00 3.223440e+00 2.559319e+00 2.834353e+00 2.398334e+00 4.921178e+00 3.806877e-01 3.814659e-01 4.173811e-01 4.580033e-01 5.816385e-01 5.217029e-01 5.586310e-01 6.337979e-01 5.684070e-01 4.814563e-01 5.153420e-01 4.376320e-01 6.364112e-01
<GCONST> 1.306788e+02
<STATE> 4
<MEAN> 39
 -7.186640e+00 -2.291444e+00 -3.072094e+00 -4.740684e+00 -7.473828e+00 -3.028081e+00 -7.484655e+00 -5.267322e+00 -3.082249e+00 -3.227438e+00 -2.872554e+00 -4.400484e+00 5.225656e+01 -3.865428e-04 7.685995e-04 -1.841320e-04 -1.459433e-03 4.041751e-05 1.209069e-03 -1.908510e-05 -2.615073e-03 -7.971330e-05 4.168994e-04 -1.277228e-03 -1.469503e-03 8.170521e-04 5.576032e-05 1.661011e-04 1.391779e-04 1.017692e-04 1.255475e-04 8.012664e-05 1.094583e-04 7.221523e-05 9.465140e-05 1.449407e-04 7.018319e-05 -2.486602e-05 8.483230e-05
<VARIANCE> 39
 7.134052e+01 5.164307e+01 7.437308e+01 5.889223e+01 7.117015e+01 5.579803e+01 5.921510e+01 6.810009e+01 5.870772e+01 4.042298e+01 4.689148e+01 3.903736e+01 2.377983e+02 2.543565e+00 2.406225e+00 2.714377e+00 2.715783e+00 3.343063e+00 2.916426e+00 3.092536e+00 3.583893e+00 3.223440e+00 2.559319e+00 2.834353e+00 2.398334e+00 4.921178e+00 3.806877e-01 3.814659e-01 4.173811e-01 4.580033e-01 5.816385e-01 5.217029e-01 5.586310e-01 6.337979e-01 5.684070e-01 4.814563e-01 5.153420e-01 4.376320e-01 6.364112e-01
<GCONST> 1.306788e+02
<TRANSP> 5
 0.000000e+00 1.000000e+00 0.000000e+00 0.000000e+00 0.000000e+00
 0.000000e+00 6.000000e-01 4.000000e-01 0.000000e+00 0.000000e+00
 0.000000e+00 0.000000e+00 6.000000e-01 4.000000e-01 0.000000e+00
 0.000000e+00 0.000000e+00 0.000000e+00 7.000000e-01 3.000000e-01
 0.000000e+00 0.000000e+00 0.000000e+00 0.000000e+00 0.000000e+00
<ENDHMM>
~h "n"
<BEGINHMM>
<NUMSTATES> 5
<STATE> 2
<MEAN> 39
 -7.186640e+00 -2.291444e+00 -3.072094e+00 -4.740684e+00 -7.473828e+00 -3.028081e+00 -7.484655e+00 -5.267322e+00 -3.082249e+00 -3.227438e+00 -2.872554e+00 -4.400484e+00 5.225656e+01 -3.865428e-04 7.685995e-04 -1.841320e-04 -1.459433e-03 4.041751e-05 1.209069e-03 -1.908510e-05 -2.615073e-03 -7.971330e-05 4.168994e-04 -1.277228e-03 -1.469503e-03 8.170521e-04 5.576032e-05 1.661011e-04 1.391779e-04 1.017692e-04 1.255475e-04 8.012664e-05 1.094583e-04 7.221523e-05 9.465140e-05 1.449407e-04 7.018319e-05 -2.486602e-05 8.483230e-05
<VARIANCE> 39
 7.134052e+01 5.164307e+01 7.437308e+01 5.889223e+01 7.117015e+01 5.579803e+01 5.921510e+01 6.810009e+01 5.870772e+01 4.042298e+01 4.689148e+01 3.903736e+01 2.377983e+02 2.543565e+00 2.406225e+00 2.714377e+00 2.715783e+00 3.343063e+00 2.916426e+00 3.092536e+00 3.583893e+00 3.223440e+00 2.559319e+00 2.834353e+00 2.398334e+00 4.921178e+00 3.806877e-01 3.814659e-01 4.173811e-01 4.580033e-01 5.816385e-01 5.217029e-01 5.586310e-01 6.337979e-01 5.684070e-01 4.814563e-01 5.153420e-01 4.376320e-01 6.364112e-01
<GCONST> 1.306788e+02
<STATE> 3
<MEAN> 39
 -7.186640e+00 -2.291444e+00 -3.072094e+00 -4.740684e+00 -7.473828e+00 -3.028081e+00 -7.484655e+00 -5.267322e+00 -3.082249e+00 -3.227438e+00 -2.872554e+00 -4.400484e+00 5.225656e+01 -3.865428e-04 7.685995e-04 -1.841320e-04 -1.459433e-03 4.041751e-05 1.209069e-03 -1.908510e-05 -2.615073e-03 -7.971330e-05 4.168994e-04 -1.277228e-03 -1.469503e-03 8.170521e-04 5.576032e-05 1.661011e-04 1.391779e-04 1.017692e-04 1.255475e-04 8.012664e-05 1.094583e-04 7.221523e-05 9.465140e-05 1.449407e-04 7.018319e-05 -2.486602e-05 8.483230e-05
<VARIANCE> 39
 7.134052e+01 5.164307e+01 7.437308e+01 5.889223e+01 7.117015e+01 5.579803e+01 5.921510e+01 6.810009e+01 5.870772e+01 4.042298e+01 4.689148e+01 3.903736e+01 2.377983e+02 2.543565e+00 2.406225e+00 2.714377e+00 2.715783e+00 3.343063e+00 2.916426e+00 3.092536e+00 3.583893e+00 3.223440e+00 2.559319e+00 2.834353e+00 2.398334e+00 4.921178e+00 3.806877e-01 3.814659e-01 4.173811e-01 4.580033e-01 5.816385e-01 5.217029e-01 5.586310e-01 6.337979e-01 5.684070e-01 4.814563e-01 5.153420e-01 4.376320e-01 6.364112e-01
<GCONST> 1.306788e+02
<STATE> 4
<MEAN> 39
 -7.186640e+00 -2.291444e+00 -3.072094e+00 -4.740684e+00 -7.473828e+00 -3.028081e+00 -7.484655e+00 -5.267322e+00 -3.082249e+00 -3.227438e+00 -2.872554e+00 -4.400484e+00 5.225656e+01 -3.865428e-04 7.685995e-04 -1.841320e-04 -1.459433e-03 4.041751e-05 1.209069e-03 -1.908510e-05 -2.615073e-03 -7.971330e-05 4.168994e-04 -1.277228e-03 -1.469503e-03 8.170521e-04 5.576032e-05 1.661011e-04 1.391779e-04 1.017692e-04 1.255475e-04 8.012664e-05 1.094583e-04 7.221523e-05 9.465140e-05 1.449407e-04 7.018319e-05 -2.486602e-05 8.483230e-05
<VARIANCE> 39
 7.134052e+01 5.164307e+01 7.437308e+01 5.889223e+01 7.117015e+01 5.579803e+01 5.921510e+01 6.810009e+01 5.870772e+01 4.042298e+01 4.689148e+01 3.903736e+01 2.377983e+02 2.543565e+00 2.406225e+00 2.714377e+00 2.715783e+00 3.343063e+00 2.916426e+00 3.092536e+00 3.583893e+00 3.223440e+00 2.559319e+00 2.834353e+00 2.398334e+00 4.921178e+00 3.806877e-01 3.814659e-01 4.173811e-01 4.580033e-01 5.816385e-01 5.217029e-01 5.586310e-01 6.337979e-01 5.684070e-01 4.814563e-01 5.153420e-01 4.376320e-01 6.364112e-01
<GCONST> 1.306788e+02
<TRANSP> 5
 0.000000e+00 1.000000e+00 0.000000e+00 0.000000e+00 0.000000e+00
 0.000000e+00 6.000000e-01 4.000000e-01 0.000000e+00 0.000000e+00
 0.000000e+00 0.000000e+00 6.000000e-01 4.000000e-01 0.000000e+00
 0.000000e+00 0.000000e+00 0.000000e+00 7.000000e-01 3.000000e-01
 0.000000e+00 0.000000e+00 0.000000e+00 0.000000e+00 0.000000e+00
<ENDHMM>
~h "ng"
<BEGINHMM>
<NUMSTATES> 5
<STATE> 2
<MEAN> 39
 -7.186640e+00 -2.291444e+00 -3.072094e+00 -4.740684e+00 -7.473828e+00 -3.028081e+00 -7.484655e+00 -5.267322e+00 -3.082249e+00 -3.227438e+00 -2.872554e+00 -4.400484e+00 5.225656e+01 -3.865428e-04 7.685995e-04 -1.841320e-04 -1.459433e-03 4.041751e-05 1.209069e-03 -1.908510e-05 -2.615073e-03 -7.971330e-05 4.168994e-04 -1.277228e-03 -1.469503e-03 8.170521e-04 5.576032e-05 1.661011e-04 1.391779e-04 1.017692e-04 1.255475e-04 8.012664e-05 1.094583e-04 7.221523e-05 9.465140e-05 1.449407e-04 7.018319e-05 -2.486602e-05 8.483230e-05
<VARIANCE> 39
 7.134052e+01 5.164307e+01 7.437308e+01 5.889223e+01 7.117015e+01 5.579803e+01 5.921510e+01 6.810009e+01 5.870772e+01 4.042298e+01 4.689148e+01 3.903736e+01 2.377983e+02 2.543565e+00 2.406225e+00 2.714377e+00 2.715783e+00 3.343063e+00 2.916426e+00 3.092536e+00 3.583893e+00 3.223440e+00 2.559319e+00 2.834353e+00 2.398334e+00 4.921178e+00 3.806877e-01 3.814659e-01 4.173811e-01 4.580033e-01 5.816385e-01 5.217029e-01 5.586310e-01 6.337979e-01 5.684070e-01 4.814563e-01 5.153420e-01 4.376320e-01 6.364112e-01
<GCONST> 1.306788e+02
<STATE> 3
<MEAN> 39
 -7.186640e+00 -2.291444e+00 -3.072094e+00 -4.740684e+00 -7.473828e+00 -3.028081e+00 -7.484655e+00 -5.267322e+00 -3.082249e+00 -3.227438e+00 -2.872554e+00 -4.400484e+00 5.225656e+01 -3.865428e-04 7.685995e-04 -1.841320e-04 -1.459433e-03 4.041751e-05 1.209069e-03 -1.908510e-05 -2.615073e-03 -7.971330e-05 4.168994e-04 -1.277228e-03 -1.469503e-03 8.170521e-04 5.576032e-05 1.661011e-04 1.391779e-04 1.017692e-04 1.255475e-04 8.012664e-05 1.094583e-04 7.221523e-05 9.465140e-05 1.449407e-04 7.018319e-05 -2.486602e-05 8.483230e-05
<VARIANCE> 39
 7.134052e+01 5.164307e+01 7.437308e+01 5.889223e+01 7.117015e+01 5.579803e+01 5.921510e+01 6.810009e+01 5.870772e+01 4.042298e+01 4.689148e+01 3.903736e+01 2.377983e+02 2.543565e+00 2.406225e+00 2.714377e+00 2.715783e+00 3.343063e+00 2.916426e+00 3.092536e+00 3.583893e+00 3.223440e+00 2.559319e+00 2.834353e+00 2.398334e+00 4.921178e+00 3.806877e-01 3.814659e-01 4.173811e-01 4.580033e-01 5.816385e-01 5.217029e-01 5.586310e-01 6.337979e-01 5.684070e-01 4.814563e-01 5.153420e-01 4.376320e-01 6.364112e-01
<GCONST> 1.306788e+02
<STATE> 4
<MEAN> 39
 -7.186640e+00 -2.291444e+00 -3.072094e+00 -4.740684e+00 -7.473828e+00 -3.028081e+00 -7.484655e+00 -5.267322e+00 -3.082249e+00 -3.227438e+00 -2.872554e+00 -4.400484e+00 5.225656e+01 -3.865428e-04 7.685995e-04 -1.841320e-04 -1.459433e-03 4.041751e-05 1.209069e-03 -1.908510e-05 -2.615073e-03 -7.971330e-05 4.168994e-04 -1.277228e-03 -1.469503e-03 8.170521e-04 5.576032e-05 1.661011e-04 1.391779e-04 1.017692e-04 1.255475e-04 8.012664e-05 1.094583e-04 7.221523e-05 9.465140e-05 1.449407e-04 7.018319e-05 -2.486602e-05 8.483230e-05
<VARIANCE> 39
 7.134052e+01 5.164307e+01 7.437308e+01 5.889223e+01 7.117015e+01 5.579803e+01 5.921510e+01 6.810009e+01 5.870772e+01 4.042298e+01 4.689148e+01 3.903736e+01 2.377983e+02 2.543565e+00 2.406225e+00 2.714377e+00 2.715783e+00 3.343063e+00 2.916426e+00 3.092536e+00 3.583893e+00 3.223440e+00 2.559319e+00 2.834353e+00 2.398334e+00 4.921178e+00 3.806877e-01 3.814659e-01 4.173811e-01 4.580033e-01 5.816385e-01 5.217029e-01 5.586310e-01 6.337979e-01 5.684070e-01 4.814563e-01 5.153420e-01 4.376320e-01 6.364112e-01
<GCONST> 1.306788e+02
<TRANSP> 5
 0.000000e+00 1.000000e+00 0.000000e+00 0.000000e+00 0.000000e+00
 0.000000e+00 6.000000e-01 4.000000e-01 0.000000e+00 0.000000e+00
 0.000000e+00 0.000000e+00 6.000000e-01 4.000000e-01 0.000000e+00
 0.000000e+00 0.000000e+00 0.000000e+00 7.000000e-01 3.000000e-01
 0.000000e+00 0.000000e+00 0.000000e+00 0.000000e+00 0.000000e+00
<ENDHMM>
~h "ny"
<BEGINHMM>
<NUMSTATES> 5
<STATE> 2
<MEAN> 39
 -7.186640e+00 -2.291444e+00 -3.072094e+00 -4.740684e+00 -7.473828e+00 -3.028081e+00 -7.484655e+00 -5.267322e+00 -3.082249e+00 -3.227438e+00 -2.872554e+00 -4.400484e+00 5.225656e+01 -3.865428e-04 7.685995e-04 -1.841320e-04 -1.459433e-03 4.041751e-05 1.209069e-03 -1.908510e-05 -2.615073e-03 -7.971330e-05 4.168994e-04 -1.277228e-03 -1.469503e-03 8.170521e-04 5.576032e-05 1.661011e-04 1.391779e-04 1.017692e-04 1.255475e-04 8.012664e-05 1.094583e-04 7.221523e-05 9.465140e-05 1.449407e-04 7.018319e-05 -2.486602e-05 8.483230e-05
<VARIANCE> 39
 7.134052e+01 5.164307e+01 7.437308e+01 5.889223e+01 7.117015e+01 5.579803e+01 5.921510e+01 6.810009e+01 5.870772e+01 4.042298e+01 4.689148e+01 3.903736e+01 2.377983e+02 2.543565e+00 2.406225e+00 2.714377e+00 2.715783e+00 3.343063e+00 2.916426e+00 3.092536e+00 3.583893e+00 3.223440e+00 2.559319e+00 2.834353e+00 2.398334e+00 4.921178e+00 3.806877e-01 3.814659e-01 4.173811e-01 4.580033e-01 5.816385e-01 5.217029e-01 5.586310e-01 6.337979e-01 5.684070e-01 4.814563e-01 5.153420e-01 4.376320e-01 6.364112e-01
<GCONST> 1.306788e+02
<STATE> 3
<MEAN> 39
 -7.186640e+00 -2.291444e+00 -3.072094e+00 -4.740684e+00 -7.473828e+00 -3.028081e+00 -7.484655e+00 -5.267322e+00 -3.082249e+00 -3.227438e+00 -2.872554e+00 -4.400484e+00 5.225656e+01 -3.865428e-04 7.685995e-04 -1.841320e-04 -1.459433e-03 4.041751e-05 1.209069e-03 -1.908510e-05 -2.615073e-03 -7.971330e-05 4.168994e-04 -1.277228e-03 -1.469503e-03 8.170521e-04 5.576032e-05 1.661011e-04 1.391779e-04 1.017692e-04 1.255475e-04 8.012664e-05 1.094583e-04 7.221523e-05 9.465140e-05 1.449407e-04 7.018319e-05 -2.486602e-05 8.483230e-05
<VARIANCE> 39
 7.134052e+01 5.164307e+01 7.437308e+01 5.889223e+01 7.117015e+01 5.579803e+01 5.921510e+01 6.810009e+01 5.870772e+01 4.042298e+01 4.689148e+01 3.903736e+01 2.377983e+02 2.543565e+00 2.406225e+00 2.714377e+00 2.715783e+00 3.343063e+00 2.916426e+00 3.092536e+00 3.583893e+00 3.223440e+00 2.559319e+00 2.834353e+00 2.398334e+00 4.921178e+00 3.806877e-01 3.814659e-01 4.173811e-01 4.580033e-01 5.816385e-01 5.217029e-01 5.586310e-01 6.337979e-01 5.684070e-01 4.814563e-01 5.153420e-01 4.376320e-01 6.364112e-01
<GCONST> 1.306788e+02
<STATE> 4
<MEAN> 39
 -7.186640e+00 -2.291444e+00 -3.072094e+00 -4.740684e+00 -7.473828e+00 -3.028081e+00 -7.484655e+00 -5.267322e+00 -3.082249e+00 -3.227438e+00 -2.872554e+00 -4.400484e+00 5.225656e+01 -3.865428e-04 7.685995e-04 -1.841320e-04 -1.459433e-03 4.041751e-05 1.209069e-03 -1.908510e-05 -2.615073e-03 -7.971330e-05 4.168994e-04 -1.277228e-03 -1.469503e-03 8.170521e-04 5.576032e-05 1.661011e-04 1.391779e-04 1.017692e-04 1.255475e-04 8.012664e-05 1.094583e-04 7.221523e-05 9.465140e-05 1.449407e-04 7.018319e-05 -2.486602e-05 8.483230e-05
<VARIANCE> 39
 7.134052e+01 5.164307e+01 7.437308e+01 5.889223e+01 7.117015e+01 5.579803e+01 5.921510e+01 6.810009e+01 5.870772e+01 4.042298e+01 4.689148e+01 3.903736e+01 2.377983e+02 2.543565e+00 2.406225e+00 2.714377e+00 2.715783e+00 3.343063e+00 2.916426e+00 3.092536e+00 3.583893e+00 3.223440e+00 2.559319e+00 2.834353e+00 2.398334e+00 4.921178e+00 3.806877e-01 3.814659e-01 4.173811e-01 4.580033e-01 5.816385e-01 5.217029e-01 5.586310e-01 6.337979e-01 5.684070e-01 4.814563e-01 5.153420e-01 4.376320e-01 6.364112e-01
<GCONST> 1.306788e+02
<TRANSP> 5
 0.000000e+00 1.000000e+00 0.000000e+00 0.000000e+00 0.000000e+00
 0.000000e+00 6.000000e-01 4.000000e-01 0.000000e+00 0.000000e+00
 0.000000e+00 0.000000e+00 6.000000e-01 4.000000e-01 0.000000e+00
 0.000000e+00 0.000000e+00 0.000000e+00 7.000000e-01 3.000000e-01
 0.000000e+00 0.000000e+00 0.000000e+00 0.000000e+00 0.000000e+00
<ENDHMM>
~h "o"
<BEGINHMM>
<NUMSTATES> 5
<STATE> 2
<MEAN> 39
 -7.186640e+00 -2.291444e+00 -3.072094e+00 -4.740684e+00 -7.473828e+00 -3.028081e+00 -7.484655e+00 -5.267322e+00 -3.082249e+00 -3.227438e+00 -2.872554e+00 -4.400484e+00 5.225656e+01 -3.865428e-04 7.685995e-04 -1.841320e-04 -1.459433e-03 4.041751e-05 1.209069e-03 -1.908510e-05 -2.615073e-03 -7.971330e-05 4.168994e-04 -1.277228e-03 -1.469503e-03 8.170521e-04 5.576032e-05 1.661011e-04 1.391779e-04 1.017692e-04 1.255475e-04 8.012664e-05 1.094583e-04 7.221523e-05 9.465140e-05 1.449407e-04 7.018319e-05 -2.486602e-05 8.483230e-05
<VARIANCE> 39
 7.134052e+01 5.164307e+01 7.437308e+01 5.889223e+01 7.117015e+01 5.579803e+01 5.921510e+01 6.810009e+01 5.870772e+01 4.042298e+01 4.689148e+01 3.903736e+01 2.377983e+02 2.543565e+00 2.406225e+00 2.714377e+00 2.715783e+00 3.343063e+00 2.916426e+00 3.092536e+00 3.583893e+00 3.223440e+00 2.559319e+00 2.834353e+00 2.398334e+00 4.921178e+00 3.806877e-01 3.814659e-01 4.173811e-01 4.580033e-01 5.816385e-01 5.217029e-01 5.586310e-01 6.337979e-01 5.684070e-01 4.814563e-01 5.153420e-01 4.376320e-01 6.364112e-01
<GCONST> 1.306788e+02
<STATE> 3
<MEAN> 39
 -7.186640e+00 -2.291444e+00 -3.072094e+00 -4.740684e+00 -7.473828e+00 -3.028081e+00 -7.484655e+00 -5.267322e+00 -3.082249e+00 -3.227438e+00 -2.872554e+00 -4.400484e+00 5.225656e+01 -3.865428e-04 7.685995e-04 -1.841320e-04 -1.459433e-03 4.041751e-05 1.209069e-03 -1.908510e-05 -2.615073e-03 -7.971330e-05 4.168994e-04 -1.277228e-03 -1.469503e-03 8.170521e-04 5.576032e-05 1.661011e-04 1.391779e-04 1.017692e-04 1.255475e-04 8.012664e-05 1.094583e-04 7.221523e-05 9.465140e-05 1.449407e-04 7.018319e-05 -2.486602e-05 8.483230e-05
<VARIANCE> 39
 7.134052e+01 5.164307e+01 7.437308e+01 5.889223e+01 7.117015e+01 5.579803e+01 5.921510e+01 6.810009e+01 5.870772e+01 4.042298e+01 4.689148e+01 3.903736e+01 2.377983e+02 2.543565e+00 2.406225e+00 2.714377e+00 2.715783e+00 3.343063e+00 2.916426e+00 3.092536e+00 3.583893e+00 3.223440e+00 2.559319e+00 2.834353e+00 2.398334e+00 4.921178e+00 3.806877e-01 3.814659e-01 4.173811e-01 4.580033e-01 5.816385e-01 5.217029e-01 5.586310e-01 6.337979e-01 5.684070e-01 4.814563e-01 5.153420e-01 4.376320e-01 6.364112e-01
<GCONST> 1.306788e+02
<STATE> 4
<MEAN> 39
 -7.186640e+00 -2.291444e+00 -3.072094e+00 -4.740684e+00 -7.473828e+00 -3.028081e+00 -7.484655e+00 -5.267322e+00 -3.082249e+00 -3.227438e+00 -2.872554e+00 -4.400484e+00 5.225656e+01 -3.865428e-04 7.685995e-04 -1.841320e-04 -1.459433e-03 4.041751e-05 1.209069e-03 -1.908510e-05 -2.615073e-03 -7.971330e-05 4.168994e-04 -1.277228e-03 -1.469503e-03 8.170521e-04 5.576032e-05 1.661011e-04 1.391779e-04 1.017692e-04 1.255475e-04 8.012664e-05 1.094583e-04 7.221523e-05 9.465140e-05 1.449407e-04 7.018319e-05 -2.486602e-05 8.483230e-05
<VARIANCE> 39
 7.134052e+01 5.164307e+01 7.437308e+01 5.889223e+01 7.117015e+01 5.579803e+01 5.921510e+01 6.810009e+01 5.870772e+01 4.042298e+01 4.689148e+01 3.903736e+01 2.377983e+02 2.543565e+00 2.406225e+00 2.714377e+00 2.715783e+00 3.343063e+00 2.916426e+00 3.092536e+00 3.583893e+00 3.223440e+00 2.559319e+00 2.834353e+00 2.398334e+00 4.921178e+00 3.806877e-01 3.814659e-01 4.173811e-01 4.580033e-01 5.816385e-01 5.217029e-01 5.586310e-01 6.337979e-01 5.684070e-01 4.814563e-01 5.153420e-01 4.376320e-01 6.364112e-01
<GCONST> 1.306788e+02
<TRANSP> 5
 0.000000e+00 1.000000e+00 0.000000e+00 0.000000e+00 0.000000e+00
 0.000000e+00 6.000000e-01 4.000000e-01 0.000000e+00 0.000000e+00
 0.000000e+00 0.000000e+00 6.000000e-01 4.000000e-01 0.000000e+00
 0.000000e+00 0.000000e+00 0.000000e+00 7.000000e-01 3.000000e-01
 0.000000e+00 0.000000e+00 0.000000e+00 0.000000e+00 0.000000e+00
<ENDHMM>
~h "oi"
<BEGINHMM>
<NUMSTATES> 5
<STATE> 2
<MEAN> 39
 -7.186640e+00 -2.291444e+00 -3.072094e+00 -4.740684e+00 -7.473828e+00 -3.028081e+00 -7.484655e+00 -5.267322e+00 -3.082249e+00 -3.227438e+00 -2.872554e+00 -4.400484e+00 5.225656e+01 -3.865428e-04 7.685995e-04 -1.841320e-04 -1.459433e-03 4.041751e-05 1.209069e-03 -1.908510e-05 -2.615073e-03 -7.971330e-05 4.168994e-04 -1.277228e-03 -1.469503e-03 8.170521e-04 5.576032e-05 1.661011e-04 1.391779e-04 1.017692e-04 1.255475e-04 8.012664e-05 1.094583e-04 7.221523e-05 9.465140e-05 1.449407e-04 7.018319e-05 -2.486602e-05 8.483230e-05
<VARIANCE> 39
 7.134052e+01 5.164307e+01 7.437308e+01 5.889223e+01 7.117015e+01 5.579803e+01 5.921510e+01 6.810009e+01 5.870772e+01 4.042298e+01 4.689148e+01 3.903736e+01 2.377983e+02 2.543565e+00 2.406225e+00 2.714377e+00 2.715783e+00 3.343063e+00 2.916426e+00 3.092536e+00 3.583893e+00 3.223440e+00 2.559319e+00 2.834353e+00 2.398334e+00 4.921178e+00 3.806877e-01 3.814659e-01 4.173811e-01 4.580033e-01 5.816385e-01 5.217029e-01 5.586310e-01 6.337979e-01 5.684070e-01 4.814563e-01 5.153420e-01 4.376320e-01 6.364112e-01
<GCONST> 1.306788e+02
<STATE> 3
<MEAN> 39
 -7.186640e+00 -2.291444e+00 -3.072094e+00 -4.740684e+00 -7.473828e+00 -3.028081e+00 -7.484655e+00 -5.267322e+00 -3.082249e+00 -3.227438e+00 -2.872554e+00 -4.400484e+00 5.225656e+01 -3.865428e-04 7.685995e-04 -1.841320e-04 -1.459433e-03 4.041751e-05 1.209069e-03 -1.908510e-05 -2.615073e-03 -7.971330e-05 4.168994e-04 -1.277228e-03 -1.469503e-03 8.170521e-04 5.576032e-05 1.661011e-04 1.391779e-04 1.017692e-04 1.255475e-04 8.012664e-05 1.094583e-04 7.221523e-05 9.465140e-05 1.449407e-04 7.018319e-05 -2.486602e-05 8.483230e-05
<VARIANCE> 39
 7.134052e+01 5.164307e+01 7.437308e+01 5.889223e+01 7.117015e+01 5.579803e+01 5.921510e+01 6.810009e+01 5.870772e+01 4.042298e+01 4.689148e+01 3.903736e+01 2.377983e+02 2.543565e+00 2.406225e+00 2.714377e+00 2.715783e+00 3.343063e+00 2.916426e+00 3.092536e+00 3.583893e+00 3.223440e+00 2.559319e+00 2.834353e+00 2.398334e+00 4.921178e+00 3.806877e-01 3.814659e-01 4.173811e-01 4.580033e-01 5.816385e-01 5.217029e-01 5.586310e-01 6.337979e-01 5.684070e-01 4.814563e-01 5.153420e-01 4.376320e-01 6.364112e-01
<GCONST> 1.306788e+02
<STATE> 4
<MEAN> 39
 -7.186640e+00 -2.291444e+00 -3.072094e+00 -4.740684e+00 -7.473828e+00 -3.028081e+00 -7.484655e+00 -5.267322e+00 -3.082249e+00 -3.227438e+00 -2.872554e+00 -4.400484e+00 5.225656e+01 -3.865428e-04 7.685995e-04 -1.841320e-04 -1.459433e-03 4.041751e-05 1.209069e-03 -1.908510e-05 -2.615073e-03 -7.971330e-05 4.168994e-04 -1.277228e-03 -1.469503e-03 8.170521e-04 5.576032e-05 1.661011e-04 1.391779e-04 1.017692e-04 1.255475e-04 8.012664e-05 1.094583e-04 7.221523e-05 9.465140e-05 1.449407e-04 7.018319e-05 -2.486602e-05 8.483230e-05
<VARIANCE> 39
 7.134052e+01 5.164307e+01 7.437308e+01 5.889223e+01 7.117015e+01 5.579803e+01 5.921510e+01 6.810009e+01 5.870772e+01 4.042298e+01 4.689148e+01 3.903736e+01 2.377983e+02 2.543565e+00 2.406225e+00 2.714377e+00 2.715783e+00 3.343063e+00 2.916426e+00 3.092536e+00 3.583893e+00 3.223440e+00 2.559319e+00 2.834353e+00 2.398334e+00 4.921178e+00 3.806877e-01 3.814659e-01 4.173811e-01 4.580033e-01 5.816385e-01 5.217029e-01 5.586310e-01 6.337979e-01 5.684070e-01 4.814563e-01 5.153420e-01 4.376320e-01 6.364112e-01
<GCONST> 1.306788e+02
<TRANSP> 5
 0.000000e+00 1.000000e+00 0.000000e+00 0.000000e+00 0.000000e+00
 0.000000e+00 6.000000e-01 4.000000e-01 0.000000e+00 0.000000e+00
 0.000000e+00 0.000000e+00 6.000000e-01 4.000000e-01 0.000000e+00
 0.000000e+00 0.000000e+00 0.000000e+00 7.000000e-01 3.000000e-01
 0.000000e+00 0.000000e+00 0.000000e+00 0.000000e+00 0.000000e+00
<ENDHMM>
~h "p"
<BEGINHMM>
<NUMSTATES> 5
<STATE> 2
<MEAN> 39
 -7.186640e+00 -2.291444e+00 -3.072094e+00 -4.740684e+00 -7.473828e+00 -3.028081e+00 -7.484655e+00 -5.267322e+00 -3.082249e+00 -3.227438e+00 -2.872554e+00 -4.400484e+00 5.225656e+01 -3.865428e-04 7.685995e-04 -1.841320e-04 -1.459433e-03 4.041751e-05 1.209069e-03 -1.908510e-05 -2.615073e-03 -7.971330e-05 4.168994e-04 -1.277228e-03 -1.469503e-03 8.170521e-04 5.576032e-05 1.661011e-04 1.391779e-04 1.017692e-04 1.255475e-04 8.012664e-05 1.094583e-04 7.221523e-05 9.465140e-05 1.449407e-04 7.018319e-05 -2.486602e-05 8.483230e-05
<VARIANCE> 39
 7.134052e+01 5.164307e+01 7.437308e+01 5.889223e+01 7.117015e+01 5.579803e+01 5.921510e+01 6.810009e+01 5.870772e+01 4.042298e+01 4.689148e+01 3.903736e+01 2.377983e+02 2.543565e+00 2.406225e+00 2.714377e+00 2.715783e+00 3.343063e+00 2.916426e+00 3.092536e+00 3.583893e+00 3.223440e+00 2.559319e+00 2.834353e+00 2.398334e+00 4.921178e+00 3.806877e-01 3.814659e-01 4.173811e-01 4.580033e-01 5.816385e-01 5.217029e-01 5.586310e-01 6.337979e-01 5.684070e-01 4.814563e-01 5.153420e-01 4.376320e-01 6.364112e-01
<GCONST> 1.306788e+02
<STATE> 3
<MEAN> 39
 -7.186640e+00 -2.291444e+00 -3.072094e+00 -4.740684e+00 -7.473828e+00 -3.028081e+00 -7.484655e+00 -5.267322e+00 -3.082249e+00 -3.227438e+00 -2.872554e+00 -4.400484e+00 5.225656e+01 -3.865428e-04 7.685995e-04 -1.841320e-04 -1.459433e-03 4.041751e-05 1.209069e-03 -1.908510e-05 -2.615073e-03 -7.971330e-05 4.168994e-04 -1.277228e-03 -1.469503e-03 8.170521e-04 5.576032e-05 1.661011e-04 1.391779e-04 1.017692e-04 1.255475e-04 8.012664e-05 1.094583e-04 7.221523e-05 9.465140e-05 1.449407e-04 7.018319e-05 -2.486602e-05 8.483230e-05
<VARIANCE> 39
 7.134052e+01 5.164307e+01 7.437308e+01 5.889223e+01 7.117015e+01 5.579803e+01 5.921510e+01 6.810009e+01 5.870772e+01 4.042298e+01 4.689148e+01 3.903736e+01 2.377983e+02 2.543565e+00 2.406225e+00 2.714377e+00 2.715783e+00 3.343063e+00 2.916426e+00 3.092536e+00 3.583893e+00 3.223440e+00 2.559319e+00 2.834353e+00 2.398334e+00 4.921178e+00 3.806877e-01 3.814659e-01 4.173811e-01 4.580033e-01 5.816385e-01 5.217029e-01 5.586310e-01 6.337979e-01 5.684070e-01 4.814563e-01 5.153420e-01 4.376320e-01 6.364112e-01
<GCONST> 1.306788e+02
<STATE> 4
<MEAN> 39
 -7.186640e+00 -2.291444e+00 -3.072094e+00 -4.740684e+00 -7.473828e+00 -3.028081e+00 -7.484655e+00 -5.267322e+00 -3.082249e+00 -3.227438e+00 -2.872554e+00 -4.400484e+00 5.225656e+01 -3.865428e-04 7.685995e-04 -1.841320e-04 -1.459433e-03 4.041751e-05 1.209069e-03 -1.908510e-05 -2.615073e-03 -7.971330e-05 4.168994e-04 -1.277228e-03 -1.469503e-03 8.170521e-04 5.576032e-05 1.661011e-04 1.391779e-04 1.017692e-04 1.255475e-04 8.012664e-05 1.094583e-04 7.221523e-05 9.465140e-05 1.449407e-04 7.018319e-05 -2.486602e-05 8.483230e-05
<VARIANCE> 39
 7.134052e+01 5.164307e+01 7.437308e+01 5.889223e+01 7.117015e+01 5.579803e+01 5.921510e+01 6.810009e+01 5.870772e+01 4.042298e+01 4.689148e+01 3.903736e+01 2.377983e+02 2.543565e+00 2.406225e+00 2.714377e+00 2.715783e+00 3.343063e+00 2.916426e+00 3.092536e+00 3.583893e+00 3.223440e+00 2.559319e+00 2.834353e+00 2.398334e+00 4.921178e+00 3.806877e-01 3.814659e-01 4.173811e-01 4.580033e-01 5.816385e-01 5.217029e-01 5.586310e-01 6.337979e-01 5.684070e-01 4.814563e-01 5.153420e-01 4.376320e-01 6.364112e-01
<GCONST> 1.306788e+02
<TRANSP> 5
 0.000000e+00 1.000000e+00 0.000000e+00 0.000000e+00 0.000000e+00
 0.000000e+00 6.000000e-01 4.000000e-01 0.000000e+00 0.000000e+00
 0.000000e+00 0.000000e+00 6.000000e-01 4.000000e-01 0.000000e+00
 0.000000e+00 0.000000e+00 0.000000e+00 7.000000e-01 3.000000e-01
 0.000000e+00 0.000000e+00 0.000000e+00 0.000000e+00 0.000000e+00
<ENDHMM>
~h "q"
<BEGINHMM>
<NUMSTATES> 5
<STATE> 2
<MEAN> 39
 -7.186640e+00 -2.291444e+00 -3.072094e+00 -4.740684e+00 -7.473828e+00 -3.028081e+00 -7.484655e+00 -5.267322e+00 -3.082249e+00 -3.227438e+00 -2.872554e+00 -4.400484e+00 5.225656e+01 -3.865428e-04 7.685995e-04 -1.841320e-04 -1.459433e-03 4.041751e-05 1.209069e-03 -1.908510e-05 -2.615073e-03 -7.971330e-05 4.168994e-04 -1.277228e-03 -1.469503e-03 8.170521e-04 5.576032e-05 1.661011e-04 1.391779e-04 1.017692e-04 1.255475e-04 8.012664e-05 1.094583e-04 7.221523e-05 9.465140e-05 1.449407e-04 7.018319e-05 -2.486602e-05 8.483230e-05
<VARIANCE> 39
 7.134052e+01 5.164307e+01 7.437308e+01 5.889223e+01 7.117015e+01 5.579803e+01 5.921510e+01 6.810009e+01 5.870772e+01 4.042298e+01 4.689148e+01 3.903736e+01 2.377983e+02 2.543565e+00 2.406225e+00 2.714377e+00 2.715783e+00 3.343063e+00 2.916426e+00 3.092536e+00 3.583893e+00 3.223440e+00 2.559319e+00 2.834353e+00 2.398334e+00 4.921178e+00 3.806877e-01 3.814659e-01 4.173811e-01 4.580033e-01 5.816385e-01 5.217029e-01 5.586310e-01 6.337979e-01 5.684070e-01 4.814563e-01 5.153420e-01 4.376320e-01 6.364112e-01
<GCONST> 1.306788e+02
<STATE> 3
<MEAN> 39
 -7.186640e+00 -2.291444e+00 -3.072094e+00 -4.740684e+00 -7.473828e+00 -3.028081e+00 -7.484655e+00 -5.267322e+00 -3.082249e+00 -3.227438e+00 -2.872554e+00 -4.400484e+00 5.225656e+01 -3.865428e-04 7.685995e-04 -1.841320e-04 -1.459433e-03 4.041751e-05 1.209069e-03 -1.908510e-05 -2.615073e-03 -7.971330e-05 4.168994e-04 -1.277228e-03 -1.469503e-03 8.170521e-04 5.576032e-05 1.661011e-04 1.391779e-04 1.017692e-04 1.255475e-04 8.012664e-05 1.094583e-04 7.221523e-05 9.465140e-05 1.449407e-04 7.018319e-05 -2.486602e-05 8.483230e-05
<VARIANCE> 39
 7.134052e+01 5.164307e+01 7.437308e+01 5.889223e+01 7.117015e+01 5.579803e+01 5.921510e+01 6.810009e+01 5.870772e+01 4.042298e+01 4.689148e+01 3.903736e+01 2.377983e+02 2.543565e+00 2.406225e+00 2.714377e+00 2.715783e+00 3.343063e+00 2.916426e+00 3.092536e+00 3.583893e+00 3.223440e+00 2.559319e+00 2.834353e+00 2.398334e+00 4.921178e+00 3.806877e-01 3.814659e-01 4.173811e-01 4.580033e-01 5.816385e-01 5.217029e-01 5.586310e-01 6.337979e-01 5.684070e-01 4.814563e-01 5.153420e-01 4.376320e-01 6.364112e-01
<GCONST> 1.306788e+02
<STATE> 4
<MEAN> 39
 -7.186640e+00 -2.291444e+00 -3.072094e+00 -4.740684e+00 -7.473828e+00 -3.028081e+00 -7.484655e+00 -5.267322e+00 -3.082249e+00 -3.227438e+00 -2.872554e+00 -4.400484e+00 5.225656e+01 -3.865428e-04 7.685995e-04 -1.841320e-04 -1.459433e-03 4.041751e-05 1.209069e-03 -1.908510e-05 -2.615073e-03 -7.971330e-05 4.168994e-04 -1.277228e-03 -1.469503e-03 8.170521e-04 5.576032e-05 1.661011e-04 1.391779e-04 1.017692e-04 1.255475e-04 8.012664e-05 1.094583e-04 7.221523e-05 9.465140e-05 1.449407e-04 7.018319e-05 -2.486602e-05 8.483230e-05
<VARIANCE> 39
 7.134052e+01 5.164307e+01 7.437308e+01 5.889223e+01 7.117015e+01 5.579803e+01 5.921510e+01 6.810009e+01 5.870772e+01 4.042298e+01 4.689148e+01 3.903736e+01 2.377983e+02 2.543565e+00 2.406225e+00 2.714377e+00 2.715783e+00 3.343063e+00 2.916426e+00 3.092536e+00 3.583893e+00 3.223440e+00 2.559319e+00 2.834353e+00 2.398334e+00 4.921178e+00 3.806877e-01 3.814659e-01 4.173811e-01 4.580033e-01 5.816385e-01 5.217029e-01 5.586310e-01 6.337979e-01 5.684070e-01 4.814563e-01 5.153420e-01 4.376320e-01 6.364112e-01
<GCONST> 1.306788e+02
<TRANSP> 5
 0.000000e+00 1.000000e+00 0.000000e+00 0.000000e+00 0.000000e+00
 0.000000e+00 6.000000e-01 4.000000e-01 0.000000e+00 0.000000e+00
 0.000000e+00 0.000000e+00 6.000000e-01 4.000000e-01 0.000000e+00
 0.000000e+00 0.000000e+00 0.000000e+00 7.000000e-01 3.000000e-01
 0.000000e+00 0.000000e+00 0.000000e+00 0.000000e+00 0.000000e+00
<ENDHMM>
~h "r"
<BEGINHMM>
<NUMSTATES> 5
<STATE> 2
<MEAN> 39
 -7.186640e+00 -2.291444e+00 -3.072094e+00 -4.740684e+00 -7.473828e+00 -3.028081e+00 -7.484655e+00 -5.267322e+00 -3.082249e+00 -3.227438e+00 -2.872554e+00 -4.400484e+00 5.225656e+01 -3.865428e-04 7.685995e-04 -1.841320e-04 -1.459433e-03 4.041751e-05 1.209069e-03 -1.908510e-05 -2.615073e-03 -7.971330e-05 4.168994e-04 -1.277228e-03 -1.469503e-03 8.170521e-04 5.576032e-05 1.661011e-04 1.391779e-04 1.017692e-04 1.255475e-04 8.012664e-05 1.094583e-04 7.221523e-05 9.465140e-05 1.449407e-04 7.018319e-05 -2.486602e-05 8.483230e-05
<VARIANCE> 39
 7.134052e+01 5.164307e+01 7.437308e+01 5.889223e+01 7.117015e+01 5.579803e+01 5.921510e+01 6.810009e+01 5.870772e+01 4.042298e+01 4.689148e+01 3.903736e+01 2.377983e+02 2.543565e+00 2.406225e+00 2.714377e+00 2.715783e+00 3.343063e+00 2.916426e+00 3.092536e+00 3.583893e+00 3.223440e+00 2.559319e+00 2.834353e+00 2.398334e+00 4.921178e+00 3.806877e-01 3.814659e-01 4.173811e-01 4.580033e-01 5.816385e-01 5.217029e-01 5.586310e-01 6.337979e-01 5.684070e-01 4.814563e-01 5.153420e-01 4.376320e-01 6.364112e-01
<GCONST> 1.306788e+02
<STATE> 3
<MEAN> 39
 -7.186640e+00 -2.291444e+00 -3.072094e+00 -4.740684e+00 -7.473828e+00 -3.028081e+00 -7.484655e+00 -5.267322e+00 -3.082249e+00 -3.227438e+00 -2.872554e+00 -4.400484e+00 5.225656e+01 -3.865428e-04 7.685995e-04 -1.841320e-04 -1.459433e-03 4.041751e-05 1.209069e-03 -1.908510e-05 -2.615073e-03 -7.971330e-05 4.168994e-04 -1.277228e-03 -1.469503e-03 8.170521e-04 5.576032e-05 1.661011e-04 1.391779e-04 1.017692e-04 1.255475e-04 8.012664e-05 1.094583e-04 7.221523e-05 9.465140e-05 1.449407e-04 7.018319e-05 -2.486602e-05 8.483230e-05
<VARIANCE> 39
 7.134052e+01 5.164307e+01 7.437308e+01 5.889223e+01 7.117015e+01 5.579803e+01 5.921510e+01 6.810009e+01 5.870772e+01 4.042298e+01 4.689148e+01 3.903736e+01 2.377983e+02 2.543565e+00 2.406225e+00 2.714377e+00 2.715783e+00 3.343063e+00 2.916426e+00 3.092536e+00 3.583893e+00 3.223440e+00 2.559319e+00 2.834353e+00 2.398334e+00 4.921178e+00 3.806877e-01 3.814659e-01 4.173811e-01 4.580033e-01 5.816385e-01 5.217029e-01 5.586310e-01 6.337979e-01 5.684070e-01 4.814563e-01 5.153420e-01 4.376320e-01 6.364112e-01
<GCONST> 1.306788e+02
<STATE> 4
<MEAN> 39
 -7.186640e+00 -2.291444e+00 -3.072094e+00 -4.740684e+00 -7.473828e+00 -3.028081e+00 -7.484655e+00 -5.267322e+00 -3.082249e+00 -3.227438e+00 -2.872554e+00 -4.400484e+00 5.225656e+01 -3.865428e-04 7.685995e-04 -1.841320e-04 -1.459433e-03 4.041751e-05 1.209069e-03 -1.908510e-05 -2.615073e-03 -7.971330e-05 4.168994e-04 -1.277228e-03 -1.469503e-03 8.170521e-04 5.576032e-05 1.661011e-04 1.391779e-04 1.017692e-04 1.255475e-04 8.012664e-05 1.094583e-04 7.221523e-05 9.465140e-05 1.449407e-04 7.018319e-05 -2.486602e-05 8.483230e-05
<VARIANCE> 39
 7.134052e+01 5.164307e+01 7.437308e+01 5.889223e+01 7.117015e+01 5.579803e+01 5.921510e+01 6.810009e+01 5.870772e+01 4.042298e+01 4.689148e+01 3.903736e+01 2.377983e+02 2.543565e+00 2.406225e+00 2.714377e+00 2.715783e+00 3.343063e+00 2.916426e+00 3.092536e+00 3.583893e+00 3.223440e+00 2.559319e+00 2.834353e+00 2.398334e+00 4.921178e+00 3.806877e-01 3.814659e-01 4.173811e-01 4.580033e-01 5.816385e-01 5.217029e-01 5.586310e-01 6.337979e-01 5.684070e-01 4.814563e-01 5.153420e-01 4.376320e-01 6.364112e-01
<GCONST> 1.306788e+02
<TRANSP> 5
 0.000000e+00 1.000000e+00 0.000000e+00 0.000000e+00 0.000000e+00
 0.000000e+00 6.000000e-01 4.000000e-01 0.000000e+00 0.000000e+00
 0.000000e+00 0.000000e+00 6.000000e-01 4.000000e-01 0.000000e+00
 0.000000e+00 0.000000e+00 0.000000e+00 7.000000e-01 3.000000e-01
 0.000000e+00 0.000000e+00 0.000000e+00 0.000000e+00 0.000000e+00
<ENDHMM>
~h "s"
<BEGINHMM>
<NUMSTATES> 5
<STATE> 2
<MEAN> 39
 -7.186640e+00 -2.291444e+00 -3.072094e+00 -4.740684e+00 -7.473828e+00 -3.028081e+00 -7.484655e+00 -5.267322e+00 -3.082249e+00 -3.227438e+00 -2.872554e+00 -4.400484e+00 5.225656e+01 -3.865428e-04 7.685995e-04 -1.841320e-04 -1.459433e-03 4.041751e-05 1.209069e-03 -1.908510e-05 -2.615073e-03 -7.971330e-05 4.168994e-04 -1.277228e-03 -1.469503e-03 8.170521e-04 5.576032e-05 1.661011e-04 1.391779e-04 1.017692e-04 1.255475e-04 8.012664e-05 1.094583e-04 7.221523e-05 9.465140e-05 1.449407e-04 7.018319e-05 -2.486602e-05 8.483230e-05
<VARIANCE> 39
 7.134052e+01 5.164307e+01 7.437308e+01 5.889223e+01 7.117015e+01 5.579803e+01 5.921510e+01 6.810009e+01 5.870772e+01 4.042298e+01 4.689148e+01 3.903736e+01 2.377983e+02 2.543565e+00 2.406225e+00 2.714377e+00 2.715783e+00 3.343063e+00 2.916426e+00 3.092536e+00 3.583893e+00 3.223440e+00 2.559319e+00 2.834353e+00 2.398334e+00 4.921178e+00 3.806877e-01 3.814659e-01 4.173811e-01 4.580033e-01 5.816385e-01 5.217029e-01 5.586310e-01 6.337979e-01 5.684070e-01 4.814563e-01 5.153420e-01 4.376320e-01 6.364112e-01
<GCONST> 1.306788e+02
<STATE> 3
<MEAN> 39
 -7.186640e+00 -2.291444e+00 -3.072094e+00 -4.740684e+00 -7.473828e+00 -3.028081e+00 -7.484655e+00 -5.267322e+00 -3.082249e+00 -3.227438e+00 -2.872554e+00 -4.400484e+00 5.225656e+01 -3.865428e-04 7.685995e-04 -1.841320e-04 -1.459433e-03 4.041751e-05 1.209069e-03 -1.908510e-05 -2.615073e-03 -7.971330e-05 4.168994e-04 -1.277228e-03 -1.469503e-03 8.170521e-04 5.576032e-05 1.661011e-04 1.391779e-04 1.017692e-04 1.255475e-04 8.012664e-05 1.094583e-04 7.221523e-05 9.465140e-05 1.449407e-04 7.018319e-05 -2.486602e-05 8.483230e-05
<VARIANCE> 39
 7.134052e+01 5.164307e+01 7.437308e+01 5.889223e+01 7.117015e+01 5.579803e+01 5.921510e+01 6.810009e+01 5.870772e+01 4.042298e+01 4.689148e+01 3.903736e+01 2.377983e+02 2.543565e+00 2.406225e+00 2.714377e+00 2.715783e+00 3.343063e+00 2.916426e+00 3.092536e+00 3.583893e+00 3.223440e+00 2.559319e+00 2.834353e+00 2.398334e+00 4.921178e+00 3.806877e-01 3.814659e-01 4.173811e-01 4.580033e-01 5.816385e-01 5.217029e-01 5.586310e-01 6.337979e-01 5.684070e-01 4.814563e-01 5.153420e-01 4.376320e-01 6.364112e-01
<GCONST> 1.306788e+02
<STATE> 4
<MEAN> 39
 -7.186640e+00 -2.291444e+00 -3.072094e+00 -4.740684e+00 -7.473828e+00 -3.028081e+00 -7.484655e+00 -5.267322e+00 -3.082249e+00 -3.227438e+00 -2.872554e+00 -4.400484e+00 5.225656e+01 -3.865428e-04 7.685995e-04 -1.841320e-04 -1.459433e-03 4.041751e-05 1.209069e-03 -1.908510e-05 -2.615073e-03 -7.971330e-05 4.168994e-04 -1.277228e-03 -1.469503e-03 8.170521e-04 5.576032e-05 1.661011e-04 1.391779e-04 1.017692e-04 1.255475e-04 8.012664e-05 1.094583e-04 7.221523e-05 9.465140e-05 1.449407e-04 7.018319e-05 -2.486602e-05 8.483230e-05
<VARIANCE> 39
 7.134052e+01 5.164307e+01 7.437308e+01 5.889223e+01 7.117015e+01 5.579803e+01 5.921510e+01 6.810009e+01 5.870772e+01 4.042298e+01 4.689148e+01 3.903736e+01 2.377983e+02 2.543565e+00 2.406225e+00 2.714377e+00 2.715783e+00 3.343063e+00 2.916426e+00 3.092536e+00 3.583893e+00 3.223440e+00 2.559319e+00 2.834353e+00 2.398334e+00 4.921178e+00 3.806877e-01 3.814659e-01 4.173811e-01 4.580033e-01 5.816385e-01 5.217029e-01 5.586310e-01 6.337979e-01 5.684070e-01 4.814563e-01 5.153420e-01 4.376320e-01 6.364112e-01
<GCONST> 1.306788e+02
<TRANSP> 5
 0.000000e+00 1.000000e+00 0.000000e+00 0.000000e+00 0.000000e+00
 0.000000e+00 6.000000e-01 4.000000e-01 0.000000e+00 0.000000e+00
 0.000000e+00 0.000000e+00 6.000000e-01 4.000000e-01 0.000000e+00
 0.000000e+00 0.000000e+00 0.000000e+00 7.000000e-01 3.000000e-01
 0.000000e+00 0.000000e+00 0.000000e+00 0.000000e+00 0.000000e+00
<ENDHMM>
~h "sy"
<BEGINHMM>
<NUMSTATES> 5
<STATE> 2
<MEAN> 39
 -7.186640e+00 -2.291444e+00 -3.072094e+00 -4.740684e+00 -7.473828e+00 -3.028081e+00 -7.484655e+00 -5.267322e+00 -3.082249e+00 -3.227438e+00 -2.872554e+00 -4.400484e+00 5.225656e+01 -3.865428e-04 7.685995e-04 -1.841320e-04 -1.459433e-03 4.041751e-05 1.209069e-03 -1.908510e-05 -2.615073e-03 -7.971330e-05 4.168994e-04 -1.277228e-03 -1.469503e-03 8.170521e-04 5.576032e-05 1.661011e-04 1.391779e-04 1.017692e-04 1.255475e-04 8.012664e-05 1.094583e-04 7.221523e-05 9.465140e-05 1.449407e-04 7.018319e-05 -2.486602e-05 8.483230e-05
<VARIANCE> 39
 7.134052e+01 5.164307e+01 7.437308e+01 5.889223e+01 7.117015e+01 5.579803e+01 5.921510e+01 6.810009e+01 5.870772e+01 4.042298e+01 4.689148e+01 3.903736e+01 2.377983e+02 2.543565e+00 2.406225e+00 2.714377e+00 2.715783e+00 3.343063e+00 2.916426e+00 3.092536e+00 3.583893e+00 3.223440e+00 2.559319e+00 2.834353e+00 2.398334e+00 4.921178e+00 3.806877e-01 3.814659e-01 4.173811e-01 4.580033e-01 5.816385e-01 5.217029e-01 5.586310e-01 6.337979e-01 5.684070e-01 4.814563e-01 5.153420e-01 4.376320e-01 6.364112e-01
<GCONST> 1.306788e+02
<STATE> 3
<MEAN> 39
 -7.186640e+00 -2.291444e+00 -3.072094e+00 -4.740684e+00 -7.473828e+00 -3.028081e+00 -7.484655e+00 -5.267322e+00 -3.082249e+00 -3.227438e+00 -2.872554e+00 -4.400484e+00 5.225656e+01 -3.865428e-04 7.685995e-04 -1.841320e-04 -1.459433e-03 4.041751e-05 1.209069e-03 -1.908510e-05 -2.615073e-03 -7.971330e-05 4.168994e-04 -1.277228e-03 -1.469503e-03 8.170521e-04 5.576032e-05 1.661011e-04 1.391779e-04 1.017692e-04 1.255475e-04 8.012664e-05 1.094583e-04 7.221523e-05 9.465140e-05 1.449407e-04 7.018319e-05 -2.486602e-05 8.483230e-05
<VARIANCE> 39
 7.134052e+01 5.164307e+01 7.437308e+01 5.889223e+01 7.117015e+01 5.579803e+01 5.921510e+01 6.810009e+01 5.870772e+01 4.042298e+01 4.689148e+01 3.903736e+01 2.377983e+02 2.543565e+00 2.406225e+00 2.714377e+00 2.715783e+00 3.343063e+00 2.916426e+00 3.092536e+00 3.583893e+00 3.223440e+00 2.559319e+00 2.834353e+00 2.398334e+00 4.921178e+00 3.806877e-01 3.814659e-01 4.173811e-01 4.580033e-01 5.816385e-01 5.217029e-01 5.586310e-01 6.337979e-01 5.684070e-01 4.814563e-01 5.153420e-01 4.376320e-01 6.364112e-01
<GCONST> 1.306788e+02
<STATE> 4
<MEAN> 39
 -7.186640e+00 -2.291444e+00 -3.072094e+00 -4.740684e+00 -7.473828e+00 -3.028081e+00 -7.484655e+00 -5.267322e+00 -3.082249e+00 -3.227438e+00 -2.872554e+00 -4.400484e+00 5.225656e+01 -3.865428e-04 7.685995e-04 -1.841320e-04 -1.459433e-03 4.041751e-05 1.209069e-03 -1.908510e-05 -2.615073e-03 -7.971330e-05 4.168994e-04 -1.277228e-03 -1.469503e-03 8.170521e-04 5.576032e-05 1.661011e-04 1.391779e-04 1.017692e-04 1.255475e-04 8.012664e-05 1.094583e-04 7.221523e-05 9.465140e-05 1.449407e-04 7.018319e-05 -2.486602e-05 8.483230e-05
<VARIANCE> 39
 7.134052e+01 5.164307e+01 7.437308e+01 5.889223e+01 7.117015e+01 5.579803e+01 5.921510e+01 6.810009e+01 5.870772e+01 4.042298e+01 4.689148e+01 3.903736e+01 2.377983e+02 2.543565e+00 2.406225e+00 2.714377e+00 2.715783e+00 3.343063e+00 2.916426e+00 3.092536e+00 3.583893e+00 3.223440e+00 2.559319e+00 2.834353e+00 2.398334e+00 4.921178e+00 3.806877e-01 3.814659e-01 4.173811e-01 4.580033e-01 5.816385e-01 5.217029e-01 5.586310e-01 6.337979e-01 5.684070e-01 4.814563e-01 5.153420e-01 4.376320e-01 6.364112e-01
<GCONST> 1.306788e+02
<TRANSP> 5
 0.000000e+00 1.000000e+00 0.000000e+00 0.000000e+00 0.000000e+00
 0.000000e+00 6.000000e-01 4.000000e-01 0.000000e+00 0.000000e+00
 0.000000e+00 0.000000e+00 6.000000e-01 4.000000e-01 0.000000e+00
 0.000000e+00 0.000000e+00 0.000000e+00 7.000000e-01 3.000000e-01
 0.000000e+00 0.000000e+00 0.000000e+00 0.000000e+00 0.000000e+00
<ENDHMM>
~h "t"
<BEGINHMM>
<NUMSTATES> 5
<STATE> 2
<MEAN> 39
 -7.186640e+00 -2.291444e+00 -3.072094e+00 -4.740684e+00 -7.473828e+00 -3.028081e+00 -7.484655e+00 -5.267322e+00 -3.082249e+00 -3.227438e+00 -2.872554e+00 -4.400484e+00 5.225656e+01 -3.865428e-04 7.685995e-04 -1.841320e-04 -1.459433e-03 4.041751e-05 1.209069e-03 -1.908510e-05 -2.615073e-03 -7.971330e-05 4.168994e-04 -1.277228e-03 -1.469503e-03 8.170521e-04 5.576032e-05 1.661011e-04 1.391779e-04 1.017692e-04 1.255475e-04 8.012664e-05 1.094583e-04 7.221523e-05 9.465140e-05 1.449407e-04 7.018319e-05 -2.486602e-05 8.483230e-05
<VARIANCE> 39
 7.134052e+01 5.164307e+01 7.437308e+01 5.889223e+01 7.117015e+01 5.579803e+01 5.921510e+01 6.810009e+01 5.870772e+01 4.042298e+01 4.689148e+01 3.903736e+01 2.377983e+02 2.543565e+00 2.406225e+00 2.714377e+00 2.715783e+00 3.343063e+00 2.916426e+00 3.092536e+00 3.583893e+00 3.223440e+00 2.559319e+00 2.834353e+00 2.398334e+00 4.921178e+00 3.806877e-01 3.814659e-01 4.173811e-01 4.580033e-01 5.816385e-01 5.217029e-01 5.586310e-01 6.337979e-01 5.684070e-01 4.814563e-01 5.153420e-01 4.376320e-01 6.364112e-01
<GCONST> 1.306788e+02
<STATE> 3
<MEAN> 39
