~o
<STREAMINFO> 1 39
<VECSIZE> 39<NULLD><MFCC_D_A_0><DIAGC>
~s "silst"
<MEAN> 39
 -1.162078e+01 8.906551e-02 -5.906445e-01 1.124995e+00 -2.514897e+00 -1.972992e+00 -2.843627e+00 -4.130319e-01 -2.419050e+00 -2.805062e+00 -1.512245e+00 -1.124911e-01 3.709444e+01 -4.903138e-02 -3.608854e-02 -3.957625e-02 -3.574715e-02 -2.094359e-02 -4.592414e-02 -2.339223e-02 1.296401e-02 2.494890e-02 8.623478e-03 1.404592e-02 2.054740e-02 -5.464735e-02 1.290104e-02 7.907235e-03 5.928562e-05 -3.086361e-03 3.558582e-04 -3.742254e-04 -7.013811e-03 -1.264092e-02 -5.679192e-04 3.066698e-04 -5.379538e-03 -1.405756e-02 8.592984e-03
<VARIANCE> 39
 1.794908e+01 2.509848e+01 2.540682e+01 3.432512e+01 2.339205e+01 3.246727e+01 2.507898e+01 4.218307e+01 3.055822e+01 2.685033e+01 2.320284e+01 2.405483e+01 2.925558e+01 9.986299e-01 1.754752e+00 1.721970e+00 2.374164e+00 2.056100e+00 2.546975e+00 2.108184e+00 3.147118e+00 2.360458e+00 2.362174e+00 1.963568e+00 2.068023e+00 1.281390e+00 1.904065e-01 3.401923e-01 3.318311e-01 4.564127e-01 4.107603e-01 4.912891e-01 4.275290e-01 6.027848e-01 4.737236e-01 4.662850e-01 3.943361e-01 4.005760e-01 2.378893e-01
<GCONST> 1.110784e+02
~h "@"
<BEGINHMM>
<NUMSTATES> 5
<STATE> 2
<MEAN> 39
 -2.819155e+00 -4.578593e+00 -4.884633e+00 -7.750085e+00 -9.580665e+00 -3.755709e+00 -1.166487e+01 -5.780709e+00 -7.982709e-01 -6.158716e-01 -1.545426e+00 -6.451390e+00 6.241838e+01 1.557585e+00 -7.860256e-01 -3.016227e-01 -1.016783e+00 -8.563972e-01 4.402156e-01 -7.889597e-01 1.742252e-01 1.059138e+00 6.118455e-01 5.975475e-01 -1.068876e+00 1.895160e+00 -3.791533e-01 2.587948e-01 2.115668e-01 3.631611e-01 2.300867e-01 2.829979e-02 3.090785e-01 -1.039739e-01 -2.817215e-01 -1.790253e-01 -9.614649e-02 2.166840e-01 -7.329119e-01
<VARIANCE> 39
 4.487890e+01 3.374726e+01 5.548549e+01 5.753371e+01 5.573717e+01 7.780507e+01 6.956025e+01 6.217032e+01 7.480323e+01 4.516298e+01 4.712939e+01 3.950006e+01 1.517565e+02 5.354953e+00 3.378325e+00 4.750173e+00 4.760162e+00 5.236889e+00 5.500631e+00 5.473309e+00 6.693172e+00 6.406834e+00 4.217339e+00 4.617168e+00 4.028164e+00 6.091287e+00 9.954934e-01 6.251731e-01 7.966934e-01 9.254177e-01 9.174938e-01 8.922766e-01 9.669523e-01 9.728144e-01 1.016069e+00 7.190493e-01 8.981906e-01 7.505773e-01 1.580224e+00
<GCONST> 1.442032e+02
<STATE> 3
<MEAN> 39
 -8.747593e-01 -6.086262e+00 -5.340010e+00 -9.399407e+00 -1.103034e+01 -3.451668e+00 -1.287267e+01 -5.232720e+00 1.154487e+00 3.415671e-01 -6.209922e-01 -7.994040e+00 6.690075e+01 5.521661e-01 3.028381e-02 2.416447e-01 9.076605e-02 -1.535836e-01 1.990730e-01 3.850173e-02 -1.503145e-01 1.445094e-01 8.118240e-02 1.226880e-01 -2.345889e-01 -1.384106e-02 -4.247955e-01 4.617669e-01 3.357193e-01 6.052183e-01 3.328040e-01 -1.092668e-01 3.845351e-01 -2.601576e-01 -5.499274e-01 -3.001918e-01 -2.878530e-01 4.308685e-01 -9.339787e-01
<VARIANCE> 39
 2.483734e+01 3.210907e+01 6.241140e+01 6.151677e+01 5.832182e+01 8.586925e+01 7.806786e+01 7.491806e+01 7.870674e+01 5.049372e+01 5.230334e+01 4.487094e+01 7.698994e+01 2.279509e+00 2.600110e+00 3.139770e+00 4.111530e+00 4.087199e+00 4.694101e+00 4.167963e+00 5.415264e+00 5.922986e+00 3.511238e+00 4.008855e+00 3.199082e+00 5.011124e+00 6.295697e-01 5.356705e-01 7.874056e-01 8.761024e-01 9.106934e-01 9.429325e-01 1.024539e+00 1.105408e+00 1.147422e+00 7.538676e-01 9.094067e-01 7.626329e-01 7.938368e-01
<GCONST> 1.395748e+02
<STATE> 4
<MEAN> 39
 -1.694284e+00 -5.030270e+00 -4.035325e+00 -8.042898e+00 -1.111170e+01 -4.661276e+00 -1.178588e+01 -6.024063e+00 1.077887e-01 -6.632139e-02 -7.873141e-01 -7.619326e+00 6.328653e+01 1.230145e-01 5.752243e-01 4.322211e-01 6.663039e-01 2.138196e-01 1.449900e-02 3.645326e-01 -4.069616e-01 -4.775137e-01 -2.646608e-01 -2.779297e-01 2.612670e-01 -1.042450e+00 -1.517731e-01 1.766197e-01 1.196101e-01 2.168797e-01 1.138889e-01 -3.645349e-02 1.198597e-01 -8.514655e-02 -1.952019e-01 -1.111920e-01 -1.519271e-01 1.520315e-01 -3.101019e-01
<VARIANCE> 39
 3.244459e+01 3.884227e+01 6.904216e+01 6.359888e+01 6.555544e+01 7.696651e+01 8.732747e+01 7.740039e+01 7.914595e+01 4.970728e+01 5.112582e+01 4.475759e+01 1.213259e+02 1.607288e+00 2.362401e+00 2.566435e+00 3.348149e+00 3.348566e+00 3.344889e+00 3.464557e+00 4.063095e+00 4.354049e+00 2.927157e+00 3.116188e+00 2.609262e+00 4.929528e+00 3.676406e-01 4.087942e-01 4.727619e-01 5.801323e-01 6.079038e-01 5.938210e-01 6.404409e-01 8.285306e-01 8.039787e-01 5.185364e-01 6.137908e-01 5.234976e-01 6.320239e-01
<GCONST> 1.328311e+02
<TRANSP> 5
 0.000000e+00 1.000000e+00 0.000000e+00 0.000000e+00 0.000000e+00
 0.000000e+00 4.045613e-01 5.954387e-01 0.000000e+00 0.000000e+00
 0.000000e+00 0.000000e+00 3.126894e-01 6.873106e-01 0.000000e+00
 0.000000e+00 0.000000e+00 0.000000e+00 5.752151e-01 4.247849e-01
 0.000000e+00 0.000000e+00 0.000000e+00 0.000000e+00 0.000000e+00
<ENDHMM>
~h "a"
<BEGINHMM>
<NUMSTATES> 5
<STATE> 2
<MEAN> 39
 -2.291511e+00 -1.105327e+01 -1.062571e+01 -1.059818e+01 -7.480690e+00 -1.598182e+00 -7.525909e+00 -2.026291e+00 3.589991e+00 -3.906344e+00 -5.567240e+00 -1.030941e+01 7.056120e+01 1.226187e-01 -1.263577e+00 -1.323916e+00 -1.352152e-01 1.076108e+00 5.002540e-01 8.786162e-01 2.190367e-01 6.097096e-01 -8.411150e-01 -9.430607e-01 -9.756334e-01 1.301284e+00 -2.083570e-01 4.447898e-01 4.129262e-01 4.091259e-01 4.944729e-02 -1.888587e-01 -1.123455e-01 -3.296792e-01 -4.325075e-01 6.758191e-02 1.802596e-01 4.002499e-01 -6.349936e-01
<VARIANCE> 39
 1.946551e+01 2.845123e+01 5.241079e+01 5.134344e+01 6.850671e+01 6.922060e+01 6.159502e+01 7.234586e+01 4.528228e+01 4.929329e+01 5.285314e+01 4.380391e+01 7.954649e+01 1.553409e+00 2.028106e+00 2.647620e+00 2.861885e+00 3.352449e+00 3.675288e+00 3.598432e+00 3.937328e+00 3.259890e+00 3.070192e+00 3.484882e+00 2.881927e+00 3.999936e+00 3.893743e-01 3.624067e-01 4.279337e-01 4.727576e-01 6.466885e-01 5.724408e-01 6.523185e-01 7.402952e-01 6.024367e-01 5.739582e-01 6.608106e-01 5.341216e-01 6.936805e-01
<GCONST> 1.291769e+02
<STATE> 3
<MEAN> 39
 -2.272126e+00 -1.282981e+01 -1.362317e+01 -9.150170e+00 -5.422709e+00 -1.273403e+00 -5.154476e+00 -3.590130e+00 3.844903e+00 -5.680571e+00 -6.839149e+00 -1.191307e+01 7.222984e+01 1.213140e-01 3.242440e-01 8.954445e-02 3.616900e-01 1.032262e-01 -2.465349e-01 2.270340e-02 -1.093314e-01 -1.655278e-01 1.114123e-01 -7.023700e-02 9.686860e-02 -5.401599e-01 5.891711e-02 4.313712e-01 3.886226e-01 9.451361e-02 -2.433161e-01 -9.978466e-02 -2.636619e-01 -6.332999e-02 -1.566614e-01 2.486204e-01 1.856968e-01 2.541760e-01 -5.059758e-01
<VARIANCE> 39
 1.247389e+01 2.333536e+01 4.729571e+01 4.999335e+01 4.919320e+01 5.785466e+01 6.158476e+01 5.988295e+01 3.566428e+01 4.521802e+01 4.338826e+01 3.862649e+01 4.204868e+01 5.835310e-01 1.304039e+00 1.448761e+00 1.546818e+00 2.279947e+00 2.356852e+00 2.256797e+00 2.646477e+00 1.965843e+00 2.127411e+00 2.165494e+00 1.779053e+00 1.936733e+00 1.201478e-01 2.099586e-01 2.489233e-01 2.981381e-01 3.732137e-01 3.901300e-01 4.285177e-01 4.835353e-01 4.094530e-01 3.863207e-01 4.140185e-01 3.617281e-01 2.695479e-01
<GCONST> 1.124418e+02
<STATE> 4
<MEAN> 39
 -4.435380e+00 -7.957006e+00 -9.951247e+00 -6.552251e+00 -3.820299e+00 -2.354137e+00 -6.634566e+00 -3.418951e+00 5.514715e-01 -4.451564e+00 -6.883887e+00 -7.880511e+00 5.696928e+01 -6.289357e-02 7.681645e-01 6.075215e-01 4.150081e-01 -2.282769e-01 -1.330805e-01 -2.063837e-01 -1.185779e-01 -2.942436e-01 2.412653e-01 1.946743e-01 4.380985e-01 -1.407710e+00 -4.041826e-02 1.005695e-01 1.546557e-01 5.538229e-02 -2.980617e-02 3.231720e-03 -3.058342e-02 -9.404936e-02 -7.342883e-02 1.145746e-02 4.496017e-02 6.692120e-02 -7.510556e-02
<VARIANCE> 39
 3.565128e+01 3.814846e+01 3.992854e+01 5.358710e+01 4.965732e+01 4.557298e+01 5.251154e+01 5.029256e+01 4.212750e+01 4.468169e+01 4.185778e+01 4.282972e+01 2.372470e+02 9.374619e-01 1.707255e+00 1.822538e+00 1.840036e+00 2.174813e+00 2.143508e+00 2.427754e+00 2.638963e+00 2.223319e+00 2.172787e+00 2.210084e+00 1.974355e+00 2.713757e+00 1.590859e-01 2.821496e-01 2.974125e-01 3.342708e-01 3.707118e-01 3.765018e-01 4.104760e-01 4.979848e-01 4.137687e-01 3.958192e-01 3.988150e-01 3.591931e-01 3.769060e-01
<GCONST> 1.180917e+02
<TRANSP> 5
 0.000000e+00 1.000000e+00 0.000000e+00 0.000000e+00 0.000000e+00
 0.000000e+00 6.119597e-01 3.880403e-01 0.000000e+00 0.000000e+00
 0.000000e+00 0.000000e+00 7.029177e-01 2.970823e-01 0.000000e+00
 0.000000e+00 0.000000e+00 0.000000e+00 7.828296e-01 2.171704e-01
 0.000000e+00 0.000000e+00 0.000000e+00 0.000000e+00 0.000000e+00
<ENDHMM>
~h "b"
<BEGINHMM>
<NUMSTATES> 5
<STATE> 2
<MEAN> 39
 2.357055e+00 5.362970e+00 1.225106e+00 -3.056954e+00 -5.612850e+00 1.386315e+00 -6.992205e+00 -1.006119e+01 -8.840519e+00 -3.775215e+00 -3.467338e+00 -5.885582e+00 4.765110e+01 7.496923e-01 1.237744e+00 6.016090e-01 3.007770e-01 5.173056e-01 3.454680e-01 5.656297e-01 -1.306860e-01 -5.427592e-01 -2.307060e-01 -2.254373e-01 -1.154915e-01 -9.324530e-01 -2.971523e-01 -3.996596e-01 -2.165658e-01 -2.529264e-01 -1.945286e-01 -2.086079e-01 -2.487911e-01 1.181284e-01 2.810492e-01 1.052023e-01 1.530830e-01 7.996473e-02 6.614975e-01
<VARIANCE> 39
 5.600438e+01 3.621601e+01 3.215116e+01 4.065470e+01 3.194278e+01 3.828529e+01 3.724076e+01 5.193217e+01 5.122662e+01 3.320536e+01 4.243869e+01 2.706607e+01 7.583942e+01 2.474144e+00 2.631691e+00 2.400455e+00 3.048040e+00 2.619181e+00 2.668559e+00 2.833284e+00 3.539801e+00 3.443493e+00 2.660957e+00 3.012120e+00 2.304648e+00 5.576553e+00 3.929579e-01 5.446614e-01 4.172855e-01 5.421243e-01 4.972157e-01 5.030639e-01 5.643113e-01 6.287913e-01 6.802491e-01 5.158435e-01 6.225352e-01 4.543283e-01 6.657298e-01
<GCONST> 1.257761e+02
<STATE> 3
<MEAN> 39
 4.266119e+00 7.111899e+00 2.291411e+00 -3.483218e+00 -5.416792e+00 2.173329e+00 -6.472549e+00 -1.009153e+01 -9.603807e+00 -4.289781e+00 -3.014068e+00 -5.446213e+00 4.966935e+01 -9.853482e-01 -1.703285e+00 -1.116016e+00 -1.025436e+00 -2.302451e-01 -8.651243e-01 -1.302547e+00 2.160549e-01 1.170483e+00 6.895686e-01 1.114967e+00 5.308081e-01 2.869764e+00 -4.120010e-01 -9.706404e-01 -5.349973e-01 -5.336863e-01 -5.789240e-01 -1.723712e-01 -6.370689e-01 1.556870e-01 6.394216e-01 3.516549e-01 2.442533e-01 -1.393631e-01 1.316878e+00
<VARIANCE> 39
 3.064429e+01 3.148262e+01 2.638259e+01 3.326487e+01 3.002605e+01 3.453933e+01 3.153622e+01 4.389253e+01 4.539648e+01 3.203559e+01 4.319490e+01 2.547703e+01 5.202466e+01 2.902949e+00 4.309301e+00 3.784534e+00 5.509453e+00 3.728322e+00 4.006766e+00 4.187221e+00 3.960226e+00 5.508506e+00 3.991346e+00 5.242147e+00 3.171651e+00 6.648914e+00 4.622874e-01 5.569212e-01 6.383978e-01 7.995602e-01 6.622142e-01 7.744504e-01 6.913604e-01 7.337968e-01 1.070463e+00 8.008294e-01 8.993454e-01 7.676551e-01 7.299229e-01
<GCONST> 1.323978e+02
<STATE> 4
<MEAN> 39
 5.951401e-01 -1.423766e+00 -3.550787e+00 -8.992654e+00 -8.036162e+00 -8.800951e-02 -1.291099e+01 -9.189440e+00 -3.029408e+00 6.583788e-01 8.648947e-01 -5.515934e+00 6.220037e+01 -9.137316e-01 -2.591097e+00 -1.508577e+00 -1.514790e+00 -1.344994e+00 -5.488956e-01 -1.592417e+00 8.981874e-01 2.220146e+00 1.006647e+00 2.467117e-01 -8.894221e-01 3.840913e+00 1.405091e-01 3.267693e-01 3.368744e-01 3.210771e-01 -1.299420e-01 1.741260e-01 4.448634e-01 1.561988e-01 -2.307865e-01 -4.863337e-01 -5.390936e-01 -2.351301e-01 -4.846876e-01
<VARIANCE> 39
 2.795387e+01 4.309340e+01 4.700721e+01 9.033221e+01 4.006047e+01 5.121733e+01 5.285722e+01 4.400457e+01 5.659155e+01 5.739056e+01 5.008003e+01 3.650685e+01 9.264503e+01 2.397636e+00 4.174734e+00 5.857204e+00 7.614107e+00 5.617045e+00 5.864700e+00 5.383033e+00 5.106995e+00 9.060175e+00 6.310588e+00 6.852221e+00 6.008363e+00 6.612849e+00 4.161706e-01 7.004589e-01 6.440568e-01 1.466507e+00 1.155044e+00 8.938670e-01 1.003659e+00 7.739445e-01 1.131226e+00 1.008824e+00 1.213766e+00 8.463266e-01 1.193049e+00
<GCONST> 1.440167e+02
<TRANSP> 5
 0.000000e+00 1.000000e+00 0.000000e+00 0.000000e+00 0.000000e+00
 0.000000e+00 7.600557e-01 2.399443e-01 0.000000e+00 0.000000e+00
 0.000000e+00 0.000000e+00 5.036014e-01 4.963986e-01 0.000000e+00
 0.000000e+00 0.000000e+00 0.000000e+00 5.674590e-01 4.325410e-01
 0.000000e+00 0.000000e+00 0.000000e+00 0.000000e+00 0.000000e+00
<ENDHMM>
~h "c"
<BEGINHMM>
<NUMSTATES> 5
<STATE> 2
<MEAN> 39
 -9.123683e+00 1.977851e+00 -8.357194e-01 -1.526394e+00 -6.106978e+00 -7.350232e+00 -6.812635e+00 -3.589739e+00 -3.196583e+00 -3.448383e+00 -4.291769e+00 -2.789766e+00 4.445842e+01 -1.543596e+00 -5.293311e-02 -3.609090e-01 -4.102535e-01 6.806893e-01 1.242504e-01 2.958898e-01 -4.178986e-02 8.873995e-02 1.406876e-01 2.547186e-01 9.728328e-02 -1.091482e+00 -4.553927e-01 -3.059459e-01 -1.808275e-01 -3.310273e-01 -6.107974e-02 8.472835e-02 -3.717792e-02 2.387607e-03 2.359354e-02 4.869700e-02 1.567889e-01 5.656129e-02 9.593961e-01
<VARIANCE> 39
 4.586506e+01 3.530256e+01 3.734534e+01 2.500778e+01 4.153288e+01 4.470660e+01 4.896526e+01 4.684551e+01 3.673130e+01 3.069396e+01 2.866092e+01 2.213324e+01 1.301706e+02 4.597798e+00 4.182137e+00 2.881431e+00 2.971813e+00 3.931300e+00 2.980383e+00 3.443695e+00 3.436975e+00 2.971488e+00 2.446220e+00 2.563885e+00 2.273141e+00 1.132571e+01 7.954790e-01 6.957805e-01 5.308369e-01 5.200675e-01 7.585849e-01 6.058202e-01 6.875288e-01 6.483328e-01 5.831339e-01 4.728057e-01 4.941387e-01 5.068401e-01 1.637069e+00
<GCONST> 1.300853e+02
<STATE> 3
<MEAN> 39
 -2.246924e+01 -8.284893e-02 -3.549433e+00 -6.723154e+00 -3.332132e+00 -6.282824e+00 -5.831048e+00 -3.944983e+00 -3.158086e+00 -2.161020e+00 -1.149854e+00 -7.773193e-01 5.440252e+01 -2.572879e+00 -2.800643e-01 -2.748331e-01 -1.153552e+00 -2.976772e-01 -1.683372e-01 -1.747319e-02 4.426710e-01 1.121074e-01 1.303470e-01 6.420810e-01 5.626457e-01 4.406629e+00 1.426541e+00 7.219718e-02 3.515597e-01 3.440628e-01 -6.569876e-01 -2.416690e-01 -2.297322e-01 1.290421e-01 1.230817e-01 -1.824242e-01 -2.983288e-01 -2.360466e-01 7.975950e-02
<VARIANCE> 39
 5.853133e+01 3.390842e+01 3.043123e+01 2.565248e+01 3.417070e+01 4.057709e+01 3.734955e+01 2.710968e+01 2.586141e+01 2.132035e+01 2.172106e+01 1.622373e+01 1.056994e+02 1.086963e+01 4.096891e+00 3.947991e+00 3.426645e+00 4.697259e+00 3.978977e+00 4.011460e+00 3.950813e+00 3.424314e+00 2.392603e+00 3.050865e+00 2.015686e+00 8.707891e+00 2.198873e+00 9.634684e-01 6.858289e-01 7.007166e-01 8.850828e-01 7.537544e-01 6.716765e-01 7.883466e-01 7.284431e-01 4.962464e-01 5.470005e-01 4.671293e-01 1.674253e+00
<GCONST> 1.322098e+02
<STATE> 4
<MEAN> 39
 -1.660335e+01 -2.046694e+00 -1.164146e+00 -7.428480e+00 -9.504446e+00 -8.381531e+00 -8.983065e+00 -1.844442e+00 -1.466301e+00 -3.488050e+00 -1.762465e+00 -1.552618e+00 6.613672e+01 4.167261e+00 -1.458843e+00 3.669889e-01 1.849046e-01 -1.723341e+00 -2.719096e-01 -9.413741e-01 2.397408e-01 6.883470e-01 -3.437578e-01 -5.061416e-01 -1.163129e+00 2.277067e+00 6.152644e-01 -2.265536e-01 -2.637532e-01 2.214689e-02 2.176898e-01 4.331138e-01 6.681989e-02 -2.770664e-01 -8.603975e-02 8.241332e-02 2.685845e-02 -3.633212e-01 -6.925922e-01
<VARIANCE> 39
 1.267679e+02 3.704987e+01 4.118434e+01 3.004281e+01 5.330679e+01 5.161988e+01 5.154814e+01 4.166993e+01 4.122018e+01 2.627481e+01 3.390433e+01 2.103870e+01 5.328211e+01 9.522622e+00 5.790408e+00 5.453980e+00 3.646258e+00 5.469194e+00 5.276527e+00 3.874038e+00 6.182285e+00 5.480298e+00 3.266947e+00 3.518893e+00 2.744510e+00 3.335887e+00 3.500237e+00 8.509538e-01 7.693616e-01 7.802932e-01 1.163654e+00 9.686683e-01 7.591457e-01 8.735154e-01 8.565755e-01 5.699944e-01 6.676176e-01 4.772524e-01 6.248460e-01
<GCONST> 1.382328e+02
<TRANSP> 5
 0.000000e+00 1.000000e+00 0.000000e+00 0.000000e+00 0.000000e+00
 0.000000e+00 8.249434e-01 1.750566e-01 0.000000e+00 0.000000e+00
 0.000000e+00 0.000000e+00 6.754751e-01 3.245249e-01 0.000000e+00
 0.000000e+00 0.000000e+00 0.000000e+00 7.340241e-01 2.659759e-01
 0.000000e+00 0.000000e+00 0.000000e+00 0.000000e+00 0.000000e+00
<ENDHMM>
~h "d"
<BEGINHMM>
<NUMSTATES> 5
<STATE> 2
<MEAN> 39
 5.475109e-01 2.609104e+00 2.875230e+00 1.054578e+00 -7.884756e+00 -5.863807e+00 -1.097801e+01 -5.798802e+00 -1.473773e+00 -3.387660e+00 -7.733977e+00 -6.122962e+00 4.936652e+01 8.203215e-01 9.946181e-01 9.552985e-01 7.371672e-01 6.748306e-01 -3.026319e-01 -3.194549e-01 1.828954e-01 7.569632e-02 -5.294119e-02 -5.324876e-01 -2.662251e-01 -8.590873e-01 -3.664458e-01 -4.535124e-01 -1.493977e-01 -3.617263e-01 -1.660108e-01 1.633891e-02 -3.667729e-02 8.247508e-02 -7.663674e-02 -6.611037e-02 3.174001e-01 1.591759e-01 7.026471e-01
<VARIANCE> 39
 5.417822e+01 5.506401e+01 4.113278e+01 3.345175e+01 5.155539e+01 4.398552e+01 5.426212e+01 8.380488e+01 5.436026e+01 3.890491e+01 4.564452e+01 3.307640e+01 1.142255e+02 3.177918e+00 3.773432e+00 2.810977e+00 3.088912e+00 4.373292e+00 3.197486e+00 3.811874e+00 5.467461e+00 3.706969e+00 2.755655e+00 3.547054e+00 2.783133e+00 7.502246e+00 5.989233e-01 7.663635e-01 4.609379e-01 5.883785e-01 9.746624e-01 6.248572e-01 7.727587e-01 1.020878e+00 7.168076e-01 5.883666e-01 7.434583e-01 5.938638e-01 1.093763e+00
<GCONST> 1.353096e+02
<STATE> 3
<MEAN> 39
 1.191837e+00 2.453340e+00 5.382282e+00 1.376010e+00 -6.823267e+00 -6.323724e+00 -1.256567e+01 -4.331453e+00 -1.862381e+00 -3.857446e+00 -7.262296e+00 -5.642883e+00 5.232393e+01 -1.525857e+00 -2.210488e+00 -1.508265e-01 -1.426786e+00 -1.027121e+00 -4.106206e-01 -8.337687e-01 9.522641e-01 -1.259057e-02 -3.331473e-01 1.513399e+00 1.017155e+00 3.541656e+00 -3.552266e-01 -5.416707e-01 -4.262010e-01 -5.272222e-01 -8.973536e-01 9.265329e-03 2.326710e-02 -3.594289e-02 4.080934e-02 5.017029e-02 4.892598e-01 3.641725e-02 1.137127e+00
<VARIANCE> 39
 3.873977e+01 4.715493e+01 3.392618e+01 3.158715e+01 4.191833e+01 4.305573e+01 5.460437e+01 6.603084e+01 4.863423e+01 3.750574e+01 4.072993e+01 3.616700e+01 8.231853e+01 3.471111e+00 4.802125e+00 4.632572e+00 4.398194e+00 7.236283e+00 4.245289e+00 5.814947e+00 8.124983e+00 6.354528e+00 3.748388e+00 5.125138e+00 3.524216e+00 8.513751e+00 7.426715e-01 8.687569e-01 7.122650e-01 7.603977e-01 1.176930e+00 7.358769e-01 1.084267e+00 1.318944e+00 1.107845e+00 7.924488e-01 9.872913e-01 7.997277e-01 1.297345e+00
<GCONST> 1.414380e+02
<STATE> 4
<MEAN> 39
 -2.916734e+00 -5.207785e+00 2.533928e+00 -4.499897e+00 -1.382611e+01 -7.850114e+00 -1.467505e+01 -9.504257e-01 -4.843011e-01 -3.776572e+00 -2.381475e+00 -3.315103e+00 6.521164e+01 -8.019659e-01 -1.535465e+00 -1.178382e+00 -1.511502e+00 -1.939204e+00 -4.289318e-02 1.099979e-01 6.145977e-01 4.717426e-01 4.146791e-02 9.658399e-01 -2.772192e-01 3.348118e+00 3.463641e-01 5.713187e-01 -8.427176e-02 2.795220e-01 3.295082e-01 3.473111e-01 4.500429e-01 -4.608568e-01 -1.432941e-01 6.647685e-02 -4.356550e-01 -4.863824e-01 -7.380350e-01
<VARIANCE> 39
 2.431128e+01 3.944768e+01 5.821049e+01 4.617524e+01 6.959044e+01 4.849450e+01 8.441847e+01 8.104858e+01 8.920515e+01 3.775344e+01 4.219632e+01 3.333503e+01 8.662858e+01 2.929657e+00 3.615325e+00 6.554136e+00 4.302976e+00 8.023847e+00 4.284849e+00 7.227660e+00 8.409814e+00 8.113546e+00 4.422147e+00 7.217757e+00 3.863013e+00 7.137215e+00 3.932673e-01 5.678184e-01 5.553065e-01 6.980184e-01 1.838167e+00 6.869286e-01 1.322423e+00 1.147534e+00 1.059478e+00 7.327373e-01 9.469411e-01 6.206259e-01 1.025402e+00
<GCONST> 1.428885e+02
<TRANSP> 5
 0.000000e+00 1.000000e+00 0.000000e+00 0.000000e+00 0.000000e+00
 0.000000e+00 7.192447e-01 2.807553e-01 0.000000e+00 0.000000e+00
 0.000000e+00 0.000000e+00 5.481798e-01 4.518202e-01 0.000000e+00
 0.000000e+00 0.000000e+00 0.000000e+00 5.125204e-01 4.874796e-01
 0.000000e+00 0.000000e+00 0.000000e+00 0.000000e+00 0.000000e+00
<ENDHMM>
~h "e"
<BEGINHMM>
<NUMSTATES> 5
<STATE> 2
<MEAN> 39
 -4.549240e+00 -7.808951e+00 4.907148e-01 -5.495543e+00 -1.683404e+01 -1.033047e+01 -7.256783e+00 -5.566900e-01 -2.698291e+00 -2.573563e+00 6.147958e-01 -6.314007e+00 6.372654e+01 1.417129e-01 -8.936821e-01 5.601563e-01 -5.287251e-01 -1.601113e+00 -5.062451e-01 7.236998e-01 8.681599e-01 4.778831e-02 -1.924231e-01 6.587862e-01 -3.717223e-01 1.794832e+00 -9.567802e-02 3.466837e-01 -1.126124e-02 7.476053e-02 3.358496e-01 2.423836e-01 1.288020e-01 -3.190824e-01 -1.180379e-01 2.300775e-02 -1.071145e-01 4.742258e-02 -4.651443e-01
<VARIANCE> 39
 3.490308e+01 5.164627e+01 7.071938e+01 4.304221e+01 7.371940e+01 6.050045e+01 8.102642e+01 7.721329e+01 6.731549e+01 5.135768e+01 5.666083e+01 3.306168e+01 1.771087e+02 2.677734e+00 3.582985e+00 3.325449e+00 3.487096e+00 6.113637e+00 3.884887e+00 5.148886e+00 5.376281e+00 4.699275e+00 3.669171e+00 4.093540e+00 2.794944e+00 9.774930e+00 5.641185e-01 6.905419e-01 5.284251e-01 5.681205e-01 1.053621e+00 7.159233e-01 9.150152e-01 9.771695e-01 8.924321e-01 6.562049e-01 7.138801e-01 5.362248e-01 1.804601e+00
<GCONST> 1.405195e+02
<STATE> 3
<MEAN> 39
 -3.562521e+00 -9.274626e+00 1.157181e+00 -6.719269e+00 -1.978661e+01 -1.181470e+01 -4.802954e+00 1.111138e+00 -2.505957e+00 -2.455897e+00 1.543671e+00 -7.725329e+00 6.957925e+01 2.344328e-02 2.283309e-01 1.584879e-01 1.527522e-01 8.529088e-03 1.243200e-02 1.826372e-01 -2.664323e-01 -1.011561e-01 7.981309e-02 2.454959e-03 -9.519120e-02 -2.861175e-01 1.282234e-02 2.705804e-01 -9.541649e-02 1.833275e-01 4.489177e-01 1.552594e-01 -1.982518e-01 -2.535314e-01 -5.254884e-02 3.803704e-02 -2.367339e-01 9.759448e-02 -5.181867e-01
<VARIANCE> 39
 1.616953e+01 4.102594e+01 6.831168e+01 4.070886e+01 5.874081e+01 5.929911e+01 8.937723e+01 7.663179e+01 6.291411e+01 5.588175e+01 5.841185e+01 3.374696e+01 7.575846e+01 9.367435e-01 1.494868e+00 1.752730e+00 2.123822e+00 3.119000e+00 2.273528e+00 3.166983e+00 2.734389e+00 2.788288e+00 2.325519e+00 2.424743e+00 1.595424e+00 4.137455e+00 2.134065e-01 2.897661e-01 3.138978e-01 3.876879e-01 5.819159e-01 4.558380e-01 6.101115e-01 5.971993e-01 5.808244e-01 4.694369e-01 4.826309e-01 3.295408e-01 5.466717e-01
<GCONST> 1.226144e+02
<STATE> 4
<MEAN> 39
 -6.947802e+00 -6.004561e+00 1.864089e+00 -5.932278e+00 -1.620263e+01 -9.435225e+00 -6.012138e+00 -2.847089e+00 -4.551097e+00 -2.520233e+00 8.456991e-01 -5.744575e+00 5.703752e+01 -5.679977e-03 3.319274e-01 -1.563183e-01 2.599685e-01 4.499153e-01 1.462869e-01 -7.070951e-02 -1.956813e-01 5.602496e-03 2.299745e-02 -3.131188e-01 7.161310e-02 -7.098251e-01 1.165644e-02 5.098300e-02 -2.586512e-02 5.096810e-02 1.212356e-01 4.681938e-02 -5.698414e-02 -4.013780e-02 5.144058e-04 -1.449115e-03 -4.691223e-02 1.947481e-02 -8.194092e-02
<VARIANCE> 39
 3.074618e+01 4.294273e+01 6.706956e+01 3.546660e+01 8.535514e+01 4.552868e+01 6.384073e+01 5.017719e+01 5.035486e+01 3.952885e+01 4.776593e+01 3.168178e+01 2.711555e+02 7.599946e-01 1.250653e+00 1.216574e+00 1.360525e+00 2.024342e+00 1.658486e+00 2.048598e+00 1.976839e+00 1.868906e+00 1.700615e+00 1.790287e+00 1.300151e+00 2.565132e+00 1.360379e-01 2.118711e-01 2.060141e-01 2.441901e-01 3.423741e-01 3.122986e-01 3.681456e-01 3.969311e-01 3.539881e-01 3.158600e-01 3.166564e-01 2.401415e-01 3.144172e-01
<GCONST> 1.128817e+02
<TRANSP> 5
 0.000000e+00 1.000000e+00 0.000000e+00 0.000000e+00 0.000000e+00
 0.000000e+00 6.369125e-01 3.630875e-01 0.000000e+00 0.000000e+00
 0.000000e+00 0.000000e+00 5.907704e-01 4.092296e-01 0.000000e+00
 0.000000e+00 0.000000e+00 0.000000e+00 8.741582e-01 1.258418e-01
 0.000000e+00 0.000000e+00 0.000000e+00 0.000000e+00 0.000000e+00
<ENDHMM>
~h "f"
<BEGINHMM>
<NUMSTATES> 5
<STATE> 2
<MEAN> 39
 -1.054807e+01 -7.043919e-01 -1.861436e+00 -6.597626e-01 -4.872925e+00 -2.918871e+00 -6.343386e+00 -4.342882e+00 -3.658291e+00 -2.641203e+00 -2.209028e+00 -2.935185e+00 5.805504e+01 -3.100146e+00 -2.823785e-01 -2.223749e-01 8.791499e-01 1.042908e+00 -2.229342e-01 1.955803e-01 6.298028e-01 6.055964e-01 2.059378e-01 -1.698458e-02 5.698578e-01 -1.054799e+00 -1.032277e-01 -4.678005e-01 -2.184329e-01 -3.772239e-01 -5.892935e-01 -1.501127e-01 -1.783634e-01 -1.441017e-01 -4.139115e-02 2.485474e-02 1.305477e-01 -5.584965e-02 2.437557e-01
<VARIANCE> 39
 6.052705e+01 2.492819e+01 3.741288e+01 3.259120e+01 3.622501e+01 4.716802e+01 3.726855e+01 3.723641e+01 3.053766e+01 2.496188e+01 2.730495e+01 2.319792e+01 7.706360e+01 3.716079e+00 3.611382e+00 4.645415e+00 3.883759e+00 5.344934e+00 3.858042e+00 3.336897e+00 4.221779e+00 3.574731e+00 2.854260e+00 3.136200e+00 2.389916e+00 2.173367e+00 8.128192e-01 4.477164e-01 5.231600e-01 5.803393e-01 7.350823e-01 5.654306e-01 6.006557e-01 6.639124e-01 6.601368e-01 4.924884e-01 5.235177e-01 3.941055e-01 2.775868e-01
<GCONST> 1.265039e+02
<STATE> 3
<MEAN> 39
 -2.027669e+01 -4.864710e+00 -4.697422e+00 -5.357974e-01 -5.344396e+00 -4.757125e+00 -7.060362e+00 -3.423686e+00 -2.385505e+00 -2.073170e+00 -2.026275e+00 -1.145948e+00 5.717525e+01 -5.305763e-01 -7.379677e-01 -5.636056e-01 -3.554286e-01 -3.308890e-01 -2.330787e-01 -1.558814e-01 -1.560935e-02 2.339913e-02 5.734827e-02 1.163590e-01 6.917729e-02 -6.502260e-03 8.903502e-01 1.902644e-01 1.140986e-01 -2.080542e-01 -1.406320e-01 1.310612e-01 1.827672e-02 -1.075484e-01 -1.269067e-01 -2.694257e-02 9.890594e-03 -1.708671e-01 2.591880e-01
<VARIANCE> 39
 2.535648e+01 2.046644e+01 2.317110e+01 1.882623e+01 2.111618e+01 2.955564e+01 2.871279e+01 2.730008e+01 2.119142e+01 1.772822e+01 1.955047e+01 1.572332e+01 4.748214e+01 4.993439e+00 1.836101e+00 2.228477e+00 2.165678e+00 2.026037e+00 2.356511e+00 2.109698e+00 2.093597e+00 2.032328e+00 1.927140e+00 1.749624e+00 1.660010e+00 1.995669e+00 5.430830e-01 3.872994e-01 4.817851e-01 4.972604e-01 5.501766e-01 4.997311e-01 4.570080e-01 4.856421e-01 4.746442e-01 4.405466e-01 3.939610e-01 3.549367e-01 2.996741e-01
<GCONST> 1.120641e+02
<STATE> 4
<MEAN> 39
 -1.649636e+01 -5.541713e+00 -6.827179e+00 -3.449087e+00 -5.090187e+00 -3.619520e+00 -6.914766e+00 -3.635135e+00 -2.999564e+00 -2.481056e+00 -1.194139e+00 -2.012477e+00 4.626434e+01 9.818849e-01 1.367707e-01 5.259955e-02 -3.119342e-01 -2.451420e-01 9.245704e-02 -3.460287e-02 -1.677414e-01 -1.289663e-01 -6.993844e-02 2.160490e-02 -2.376091e-01 3.062733e-01 2.175671e-01 5.500791e-02 7.495486e-02 -4.965553e-02 -7.586405e-02 4.349665e-02 -1.969102e-02 -4.746036e-02 -2.568160e-02 -2.518715e-02 7.528822e-03 -7.470095e-02 1.278394e-01
<VARIANCE> 39
 5.136162e+01 3.207567e+01 2.626421e+01 2.419481e+01 2.204609e+01 2.365048e+01 2.642368e+01 2.536270e+01 2.429564e+01 2.191862e+01 2.208885e+01 1.756940e+01 1.409267e+02 5.761245e+00 1.802085e+00 2.171519e+00 2.611494e+00 2.201881e+00 2.477299e+00 2.233278e+00 2.344229e+00 2.219603e+00 2.077014e+00 1.934891e+00 2.039867e+00 2.946436e+00 6.213828e-01 3.216346e-01 3.081437e-01 4.038903e-01 4.142970e-01 4.311101e-01 4.141059e-01 4.287819e-01 4.256765e-01 3.842086e-01 3.757636e-01 3.506007e-01 3.141197e-01
<GCONST> 1.147584e+02
<TRANSP> 5
 0.000000e+00 1.000000e+00 0.000000e+00 0.000000e+00 0.000000e+00
 0.000000e+00 6.856709e-01 3.143291e-01 0.000000e+00 0.000000e+00
 0.000000e+00 0.000000e+00 7.498606e-01 2.501394e-01 0.000000e+00
 0.000000e+00 0.000000e+00 0.000000e+00 8.986533e-01 1.013467e-01
 0.000000e+00 0.000000e+00 0.000000e+00 0.000000e+00 0.000000e+00
<ENDHMM>
~h "g"
<BEGINHMM>
<NUMSTATES> 5
<STATE> 2
<MEAN> 39
 4.229421e-01 2.263726e+00 2.677998e+00 -2.370355e+00 -9.120427e+00 -5.287300e+00 -1.170414e+01 -7.145308e+00 -5.826073e+00 3.408179e-01 -4.898929e+00 -7.806532e+00 5.371578e+01 4.175671e-01 1.143550e+00 1.005562e+00 1.164977e+00 4.559374e-01 -4.763174e-01 5.251411e-02 -7.703723e-02 -7.481078e-01 3.018007e-02 -3.516721e-01 -2.451987e-01 -1.673755e+00 -2.955755e-01 -3.616957e-01 -3.375295e-01 -2.471831e-01 2.514714e-02 4.740320e-02 5.613864e-02 1.744747e-01 2.120080e-01 -1.289913e-01 5.330712e-02 5.733383e-02 5.528768e-01
<VARIANCE> 39
 3.596634e+01 4.367423e+01 4.639039e+01 4.750793e+01 5.924251e+01 5.336545e+01 7.582192e+01 6.141822e+01 6.160529e+01 3.799351e+01 4.726396e+01 3.813471e+01 1.149172e+02 2.649130e+00 3.360126e+00 3.433808e+00 3.367224e+00 4.864913e+00 3.625911e+00 4.803623e+00 4.602005e+00 5.200612e+00 3.212743e+00 3.214661e+00 2.914042e+00 6.368886e+00 4.892314e-01 5.968018e-01 5.388758e-01 5.463091e-01 9.484647e-01 6.821677e-01 1.040861e+00 7.523789e-01 8.725663e-01 6.474350e-01 7.100208e-01 6.321306e-01 1.060501e+00
<GCONST> 1.362960e+02
<STATE> 3
<MEAN> 39
 -1.424197e+00 2.798223e+00 3.154575e+00 1.319071e-01 -7.173952e+00 -6.891669e+00 -1.201668e+01 -5.598259e+00 -7.176148e+00 2.602375e-01 -5.153649e+00 -7.145603e+00 5.428367e+01 -1.214690e+00 -1.248944e+00 -7.716335e-01 -6.003948e-01 8.673389e-02 -4.819300e-01 -9.059702e-01 8.054274e-01 2.010083e-01 1.805588e-01 5.078591e-01 4.430820e-01 2.268225e+00 -4.840888e-02 -3.563375e-01 -2.242220e-01 -6.290531e-01 -5.218580e-01 2.145805e-01 -6.367074e-02 6.823624e-02 2.325587e-01 -1.949241e-02 2.875994e-01 -1.350106e-02 7.523516e-01
<VARIANCE> 39
 4.422290e+01 4.908110e+01 5.166366e+01 3.481628e+01 7.581051e+01 5.172782e+01 7.617279e+01 4.829362e+01 4.534803e+01 3.251117e+01 4.156055e+01 3.699641e+01 9.878675e+01 4.575423e+00 5.606998e+00 5.802076e+00 4.336431e+00 1.050068e+01 4.535872e+00 6.286151e+00 4.937242e+00 5.845788e+00 3.465712e+00 4.691344e+00 3.721905e+00 8.256404e+00 9.958555e-01 9.825773e-01 1.035517e+00 6.314741e-01 1.876362e+00 7.983601e-01 1.185910e+00 8.018503e-01 1.031250e+00 6.799093e-01 8.697609e-01 7.409599e-01 1.307003e+00
<GCONST> 1.436950e+02
<STATE> 4
<MEAN> 39
 -4.070665e+00 -2.112023e+00 1.257993e+00 -5.855564e+00 -1.073047e+01 -6.612588e+00 -1.525319e+01 -2.659049e+00 -5.232004e+00 8.142568e-01 -2.357335e+00 -6.624404e+00 6.285211e+01 -2.710753e-01 -1.140111e+00 -7.535526e-01 -1.834709e+00 -1.046457e+00 3.695746e-01 1.328258e-01 7.814643e-01 9.640122e-01 -1.035796e-01 3.956374e-01 -2.475031e-01 2.239372e+00 2.257899e-01 1.276571e-01 -6.023537e-02 3.351113e-02 1.149605e-01 2.780475e-01 4.041857e-01 -2.757812e-01 8.371944e-02 -2.262366e-01 -2.334448e-01 -1.608291e-01 -2.792993e-01
<VARIANCE> 39
 3.438503e+01 4.671797e+01 5.877440e+01 5.227542e+01 7.914091e+01 5.995450e+01 9.000837e+01 6.864890e+01 7.062249e+01 3.975720e+01 4.772530e+01 3.396430e+01 1.038587e+02 3.293539e+00 3.531832e+00 4.999626e+00 4.042008e+00 7.636617e+00 3.789520e+00 5.249715e+00 5.021726e+00 7.187849e+00 3.205242e+00 5.076453e+00 3.475831e+00 4.579281e+00 5.373164e-01 6.271096e-01 7.358479e-01 6.943130e-01 1.860711e+00 6.832345e-01 9.487365e-01 7.897470e-01 9.392920e-01 5.875964e-01 1.001036e+00 5.464076e-01 7.230563e-01
<GCONST> 1.405531e+02
<TRANSP> 5
 0.000000e+00 1.000000e+00 0.000000e+00 0.000000e+00 0.000000e+00
 0.000000e+00 6.599787e-01 3.400213e-01 0.000000e+00 0.000000e+00
 0.000000e+00 0.000000e+00 6.475851e-01 3.524149e-01 0.000000e+00
 0.000000e+00 0.000000e+00 0.000000e+00 5.478954e-01 4.521046e-01
 0.000000e+00 0.000000e+00 0.000000e+00 0.000000e+00 0.000000e+00
<ENDHMM>
~h "h"
<BEGINHMM>
<NUMSTATES> 5
<STATE> 2
<MEAN> 39
 -6.280950e+00 -5.119226e+00 -4.295354e+00 -3.829044e+00 -1.924719e+00 1.110563e+00 -4.672921e+00 -3.730520e+00 -1.533413e+00 -3.544622e+00 -5.595698e+00 -4.823670e+00 6.227754e+01 -8.375036e-01 -2.620523e-01 3.853805e-01 5.208381e-01 1.052007e+00 6.024083e-01 2.915651e-01 4.244677e-01 2.463887e-01 -1.302167e-03 -5.382102e-02 4.071903e-01 -7.926463e-01 6.224093e-02 -1.277770e-01 -1.480531e-01 -2.687847e-01 -2.865945e-01 -1.206003e-01 -1.638852e-01 -1.064308e-01 -3.790298e-03 2.281467e-02 1.047653e-01 -1.032778e-01 4.885663e-02
<VARIANCE> 39
 3.584203e+01 4.114700e+01 5.865789e+01 6.058635e+01 8.746127e+01 6.345980e+01 5.586583e+01 6.144546e+01 4.910698e+01 4.409555e+01 4.326263e+01 3.906748e+01 1.089145e+02 1.660334e+00 2.640373e+00 3.796745e+00 2.906667e+00 3.587578e+00 3.215697e+00 2.836945e+00 3.199945e+00 2.755225e+00 2.542012e+00 2.657970e+00 2.348460e+00 2.363677e+00 2.152167e-01 3.776313e-01 4.418764e-01 4.330440e-01 5.624841e-01 5.010034e-01 4.858157e-01 5.866219e-01 5.119663e-01 4.321402e-01 4.420975e-01 4.121738e-01 2.305350e-01
<GCONST> 1.255202e+02
<STATE> 3
<MEAN> 39
 -8.607857e+00 -6.620120e+00 -4.538928e+00 -3.853177e+00 4.275810e-01 2.240708e+00 -5.265560e+00 -2.760349e+00 -8.585808e-01 -3.314243e+00 -5.496682e+00 -3.794901e+00 5.928673e+01 -2.514144e-01 -7.737041e-02 -1.882798e-01 -2.131415e-01 -1.248378e-01 -2.384256e-01 -1.453648e-01 -1.050543e-01 -4.951460e-02 -2.311675e-02 1.568653e-01 1.203583e-01 -8.089796e-01 2.355999e-01 1.342811e-01 -1.110663e-01 -1.701531e-01 -3.595842e-01 -2.260460e-01 -1.062257e-01 -1.692934e-01 -1.166461e-01 -2.801041e-02 3.746559e-02 -1.104780e-01 4.576357e-02
<VARIANCE> 39
 4.408324e+01 4.771994e+01 5.049731e+01 5.184041e+01 7.435538e+01 6.050840e+01 5.604970e+01 5.201681e+01 4.855606e+01 4.276511e+01 4.049422e+01 3.247797e+01 1.170810e+02 1.742824e+00 2.344858e+00 2.589468e+00 2.458402e+00 2.906378e+00 2.785347e+00 2.788268e+00 2.855527e+00 2.492009e+00 2.305360e+00 2.318807e+00 2.140479e+00 3.041282e+00 2.718145e-01 3.290940e-01 4.347584e-01 4.446465e-01 5.467212e-01 4.917935e-01 5.322719e-01 5.227930e-01 4.743557e-01 4.416329e-01 4.290775e-01 3.861287e-01 2.411316e-01
<GCONST> 1.236252e+02
<STATE> 4
<MEAN> 39
 -1.174268e+01 -5.185623e+00 -6.510904e+00 -4.686614e+00 -2.404571e+00 -2.006435e+00 -6.364971e+00 -4.028860e+00 -3.234117e+00 -4.515793e+00 -3.792937e+00 -3.038204e+00 4.359882e+01 8.343552e-02 1.478791e-01 -2.445547e-02 -3.776980e-02 -1.619824e-01 -1.134262e-01 -1.673697e-03 -8.286718e-02 -6.231466e-02 4.159543e-03 4.514859e-02 -3.629721e-02 -2.378677e-01 6.184409e-02 2.115408e-02 1.453696e-02 -3.520894e-03 -3.260358e-02 5.242121e-03 -5.069008e-03 -7.762406e-03 -3.991146e-03 -2.354928e-03 -1.155595e-03 -3.245760e-02 8.858471e-02
<VARIANCE> 39
 3.014501e+01 4.809289e+01 3.216737e+01 3.352692e+01 3.472542e+01 3.288259e+01 3.840727e+01 3.188295e+01 3.394260e+01 2.853835e+01 2.601638e+01 2.181484e+01 1.721446e+02 1.057665e+00 1.401935e+00 1.441103e+00 1.392426e+00 1.626032e+00 1.678270e+00 1.925549e+00 1.962950e+00 1.915764e+00 1.813275e+00 1.692537e+00 1.602138e+00 1.673030e+00 1.709633e-01 2.258877e-01 2.374170e-01 2.578123e-01 3.000557e-01 3.088554e-01 3.643161e-01 3.755866e-01 3.724231e-01 3.491265e-01 3.284956e-01 2.980082e-01 1.819128e-01
<GCONST> 1.081541e+02
<TRANSP> 5
 0.000000e+00 1.000000e+00 0.000000e+00 0.000000e+00 0.000000e+00
 0.000000e+00 5.930091e-01 4.069909e-01 0.000000e+00 0.000000e+00
 0.000000e+00 0.000000e+00 5.399245e-01 4.600755e-01 0.000000e+00
 0.000000e+00 0.000000e+00 0.000000e+00 9.033252e-01 9.667482e-02
 0.000000e+00 0.000000e+00 0.000000e+00 0.000000e+00 0.000000e+00
<ENDHMM>
~h "i"
<BEGINHMM>
<NUMSTATES> 5
<STATE> 2
<MEAN> 39
 -6.573627e+00 -7.964947e-01 1.059744e+01 -2.468283e+00 -1.889325e+01 -8.606553e+00 -1.101195e+01 -8.388503e+00 -1.102614e+01 -3.440863e+00 1.848193e+00 -5.003157e+00 6.330133e+01 3.377171e-01 2.720504e-01 2.215703e+00 -3.828147e-01 -2.583360e+00 3.295345e-01 -8.445345e-01 -9.316018e-01 -1.463716e+00 2.705832e-01 1.154546e+00 -6.583916e-01 1.451205e+00 -9.315883e-02 1.170136e-01 -4.875623e-01 -1.303112e-01 4.710121e-01 3.223014e-01 9.087925e-02 6.898184e-02 4.293098e-01 1.164054e-01 -2.968104e-01 -3.146795e-02 -4.354802e-01
<VARIANCE> 39
 2.866265e+01 3.590603e+01 4.971835e+01 3.950436e+01 5.517867e+01 5.248799e+01 5.763911e+01 6.668845e+01 5.065679e+01 4.240723e+01 4.243878e+01 2.808092e+01 7.839799e+01 4.721866e+00 2.774400e+00 4.326510e+00 3.397803e+00 5.095727e+00 4.243294e+00 5.338909e+00 5.779875e+00 4.924186e+00 3.491504e+00 3.664703e+00 2.646176e+00 4.514472e+00 6.253250e-01 4.999637e-01 7.140859e-01 5.393707e-01 1.081965e+00 7.376198e-01 8.014628e-01 1.024446e+00 7.759106e-01 5.796347e-01 6.446857e-01 4.579266e-01 8.164396e-01
<GCONST> 1.351651e+02
<STATE> 3
<MEAN> 39
 -6.773951e+00 2.279730e-01 1.409520e+01 -4.452537e+00 -2.334282e+01 -6.650942e+00 -1.275590e+01 -1.031698e+01 -1.286144e+01 -2.218230e+00 3.758910e+00 -7.349257e+00 6.586678e+01 2.227262e-01 2.322000e-01 -3.244384e-01 5.631918e-02 3.081987e-01 -3.024975e-02 2.422933e-01 8.331066e-02 2.542809e-01 1.686098e-01 -2.314638e-01 2.453618e-03 -5.159631e-01 6.487839e-02 1.550189e-02 -4.862342e-01 1.614586e-01 5.960795e-01 -1.362523e-01 2.406601e-01 2.266106e-01 3.340099e-01 -8.210816e-02 -3.059586e-01 1.514961e-01 -4.268648e-01
<VARIANCE> 39
 1.408661e+01 2.573260e+01 3.639862e+01 3.821851e+01 3.225036e+01 5.209235e+01 5.173031e+01 6.297243e+01 4.367755e+01 5.146495e+01 4.856388e+01 3.418348e+01 3.652055e+01 1.150838e+00 1.623735e+00 2.369234e+00 1.983371e+00 3.291930e+00 2.665633e+00 2.960745e+00 3.374205e+00 2.784769e+00 2.076867e+00 2.206686e+00 1.591140e+00 2.941899e+00 2.461496e-01 2.784962e-01 3.587049e-01 3.564956e-01 6.690330e-01 5.159723e-01 5.650253e-01 6.273338e-01 5.435209e-01 4.492131e-01 4.873923e-01 3.377195e-01 3.691734e-01
<GCONST> 1.187414e+02
<STATE> 4
<MEAN> 39
 -7.734927e+00 2.686861e+00 8.943535e+00 -3.132368e+00 -1.593420e+01 -5.598159e+00 -9.627746e+00 -1.021575e+01 -9.443949e+00 -2.653732e+00 -9.813432e-01 -5.017760e+00 5.255195e+01 8.851889e-03 6.255125e-02 -8.416411e-01 1.944323e-01 8.451722e-01 -2.813813e-02 3.569905e-01 3.547724e-01 5.034545e-01 -5.780345e-02 -4.199190e-01 2.254756e-01 -1.114449e+00 -4.765036e-02 -7.104807e-02 -7.602495e-02 -1.319923e-02 9.272654e-02 5.161211e-02 -2.243260e-02 1.921548e-02 2.946805e-02 -2.610335e-02 -2.448872e-02 4.779395e-03 6.766919e-02
<VARIANCE> 39
 2.867224e+01 3.175053e+01 6.743124e+01 3.934689e+01 6.527000e+01 5.802213e+01 5.875302e+01 5.717069e+01 4.296932e+01 3.433117e+01 3.801713e+01 3.089221e+01 1.797740e+02 1.292609e+00 1.609148e+00 2.061351e+00 1.700569e+00 2.919590e+00 2.248520e+00 2.657125e+00 2.851107e+00 2.615411e+00 2.021910e+00 2.271527e+00 1.724522e+00 2.914198e+00 1.927622e-01 2.484964e-01 2.835818e-01 2.989051e-01 4.766368e-01 4.138288e-01 4.339706e-01 4.816186e-01 4.179820e-01 3.661661e-01 3.758994e-01 3.107964e-01 3.589551e-01
<GCONST> 1.185401e+02
<TRANSP> 5
 0.000000e+00 1.000000e+00 0.000000e+00 0.000000e+00 0.000000e+00
 0.000000e+00 6.683518e-01 3.316481e-01 0.000000e+00 0.000000e+00
 0.000000e+00 0.000000e+00 7.526619e-01 2.473381e-01 0.000000e+00
 0.000000e+00 0.000000e+00 0.000000e+00 8.447981e-01 1.552019e-01
 0.000000e+00 0.000000e+00 0.000000e+00 0.000000e+00 0.000000e+00
<ENDHMM>
~h "j"
<BEGINHMM>
<NUMSTATES> 5
<STATE> 2
<MEAN> 39
 -2.771068e+00 6.398924e+00 5.989983e+00 1.913454e-01 -9.234878e+00 -7.113841e+00 -7.417197e+00 -3.217535e+00 -4.923399e+00 -5.310114e+00 -4.437954e+00 -3.555836e+00 5.157535e+01 -4.183247e-01 1.107031e+00 7.473294e-01 1.935707e-01 8.347268e-01 1.541122e-01 4.680541e-01 1.086281e-01 -3.525252e-02 -1.037729e-01 -1.987042e-02 -5.625607e-02 -8.177510e-01 -5.112587e-01 -3.629934e-01 -2.095601e-01 -2.334765e-01 3.186878e-02 4.493145e-02 -1.456828e-01 -1.765717e-01 -2.294302e-02 9.306370e-02 1.540264e-01 6.041224e-02 6.752938e-01
<VARIANCE> 39
 4.660105e+01 4.180422e+01 4.031405e+01 2.797923e+01 4.794665e+01 4.789817e+01 4.577892e+01 4.953510e+01 4.597046e+01 3.379021e+01 2.782462e+01 2.389717e+01 1.092065e+02 5.927551e+00 3.633144e+00 2.932332e+00 2.945275e+00 4.423587e+00 3.599682e+00 3.707985e+00 4.373144e+00 3.885032e+00 2.551846e+00 2.581786e+00 2.362453e+00 7.364495e+00 1.087926e+00 6.212392e-01 4.978074e-01 5.181883e-01 9.040794e-01 7.610883e-01 7.071680e-01 7.539653e-01 7.123515e-01 4.888261e-01 5.419576e-01 5.309979e-01 1.172371e+00
<GCONST> 1.322741e+02
<STATE> 3
<MEAN> 39
 -1.394204e+01 6.687004e+00 7.117018e+00 -2.000089e+00 -4.634203e+00 -5.302914e+00 -6.912877e+00 -5.229282e+00 -6.166461e+00 -4.618237e+00 -2.485438e+00 -2.193623e+00 5.870472e+01 -2.053045e+00 -1.214396e+00 1.557129e-01 -5.694159e-01 -1.198312e+00 -1.011572e+00 -8.523557e-01 -6.330965e-01 -5.999925e-01 7.240161e-02 1.157461e+00 9.234649e-01 3.533534e+00 1.220405e+00 -4.394914e-01 -6.421224e-02 5.909891e-02 -1.129448e+00 -3.506379e-01 -4.198003e-01 2.030732e-01 1.068936e-01 -5.307732e-02 1.600745e-01 -6.158174e-02 1.131404e-01
<VARIANCE> 39
 7.562285e+01 3.727327e+01 3.505288e+01 2.669401e+01 5.632052e+01 5.309644e+01 3.799075e+01 2.984873e+01 2.951615e+01 2.133047e+01 2.236412e+01 1.932431e+01 7.359579e+01 1.254974e+01 3.828995e+00 3.777082e+00 3.787432e+00 1.001890e+01 5.447001e+00 3.504328e+00 3.984296e+00 4.025465e+00 2.487853e+00 2.681548e+00 2.091696e+00 3.774216e+00 2.205045e+00 8.335946e-01 7.483801e-01 7.392358e-01 1.456337e+00 9.665738e-01 6.355220e-01 9.485129e-01 1.055137e+00 5.344802e-01 5.199686e-01 5.280864e-01 1.070556e+00
<GCONST> 1.348925e+02
<STATE> 4
<MEAN> 39
 -7.950135e+00 -1.322229e+00 7.219615e+00 -3.951992e+00 -1.758891e+01 -1.150559e+01 -1.302976e+01 -3.293647e+00 -5.349198e+00 -4.499210e+00 2.275258e+00 -6.672609e-01 6.879238e+01 2.294842e+00 -2.429699e+00 -1.445890e+00 -9.678446e-01 -1.930765e+00 -1.604093e-01 -1.153810e+00 1.423207e+00 1.499259e+00 3.084389e-01 1.672741e-01 -9.472653e-01 1.663242e+00 5.644492e-02 2.178616e-01 -6.219046e-01 -1.720082e-01 1.051357e+00 7.752994e-01 4.212275e-01 7.996365e-02 3.051484e-01 1.027545e-01 -6.027485e-01 -6.114249e-01 -6.285728e-01
<VARIANCE> 39
 3.798461e+01 3.990794e+01 3.742802e+01 4.180815e+01 5.585959e+01 3.898622e+01 5.186607e+01 5.520989e+01 5.643711e+01 3.447984e+01 3.538437e+01 2.388178e+01 4.268225e+01 4.011454e+00 3.190317e+00 4.356339e+00 3.352957e+00 8.805359e+00 4.206031e+00 4.939025e+00 6.504451e+00 6.530823e+00 3.149451e+00 4.584462e+00 3.508106e+00 2.181969e+00 1.253842e+00 5.253119e-01 5.053568e-01 6.086562e-01 1.300128e+00 6.611734e-01 6.952665e-01 1.045266e+00 9.611244e-01 5.606356e-01 7.154362e-01 4.855600e-01 2.398733e-01
<GCONST> 1.337927e+02
<TRANSP> 5
 0.000000e+00 1.000000e+00 0.000000e+00 0.000000e+00 0.000000e+00
 0.000000e+00 8.144826e-01 1.855174e-01 0.000000e+00 0.000000e+00
 0.000000e+00 0.000000e+00 7.029102e-01 2.970898e-01 0.000000e+00
 0.000000e+00 0.000000e+00 0.000000e+00 6.985017e-01 3.014983e-01
 0.000000e+00 0.000000e+00 0.000000e+00 0.000000e+00 0.000000e+00
<ENDHMM>
~h "k"
<BEGINHMM>
<NUMSTATES> 5
<STATE> 2
<MEAN> 39
 -8.620101e+00 3.469386e-01 -4.117591e+00 -3.766722e+00 -5.870270e+00 -4.419279e+00 -7.011075e+00 -5.358916e+00 -4.206599e+00 -1.925022e+00 -3.759554e+00 -4.397276e+00 4.164019e+01 -8.916238e-01 -3.232412e-01 -3.394250e-01 1.814821e-01 5.281579e-01 -1.665418e-01 -1.455201e-01 3.811299e-01 8.174721e-02 9.721570e-02 -6.164349e-02 3.351161e-01 -9.700361e-01 -1.041461e-01 -4.164801e-01 -2.848398e-01 -1.918422e-01 2.847608e-02 1.176730e-02 -1.407278e-01 1.027946e-01 4.741387e-02 3.441808e-02 -9.542843e-03 2.032718e-03 9.563887e-01
<VARIANCE> 39
 4.578398e+01 3.053655e+01 4.577893e+01 3.383702e+01 4.598156e+01 4.591757e+01 4.399972e+01 4.344569e+01 3.951109e+01 3.503848e+01 3.608480e+01 2.946159e+01 1.043711e+02 2.362884e+00 3.458523e+00 3.107846e+00 2.626517e+00 3.846938e+00 3.745937e+00 3.618312e+00 3.620105e+00 3.121433e+00 2.921481e+00 2.804674e+00 2.392346e+00 8.672562e+00 4.208611e-01 6.244106e-01 6.059274e-01 5.504936e-01 7.409658e-01 8.187375e-01 7.732926e-01 7.318411e-01 6.684207e-01 6.288220e-01 5.734962e-01 4.880056e-01 1.470372e+00
<GCONST> 1.307830e+02
<STATE> 3
<MEAN> 39
 -1.144185e+01 -4.099154e+00 -7.148140e+00 -3.794322e+00 -3.196042e+00 -5.309967e+00 -9.142885e+00 -3.346107e+00 -3.744703e+00 -5.639962e-01 -3.909031e+00 -3.159101e+00 4.764616e+01 -8.711501e-01 -1.858417e+00 -1.673833e+00 -6.373165e-01 8.658779e-01 -3.909580e-01 -1.014968e+00 7.324986e-01 1.809760e-01 5.462538e-01 -3.206485e-01 1.688948e-01 3.869171e+00 5.930040e-01 2.363703e-01 1.789101e-01 -3.280576e-01 -4.953450e-01 1.018675e-01 1.361456e-01 -1.607368e-01 5.048110e-02 -7.601032e-02 -1.604563e-03 -3.384072e-01 8.508018e-01
<VARIANCE> 39
 4.229271e+01 5.870305e+01 5.981284e+01 3.985039e+01 5.954919e+01 6.234594e+01 6.116580e+01 4.990715e+01 4.529808e+01 3.896730e+01 3.603390e+01 2.947318e+01 1.447869e+02 4.659663e+00 5.875628e+00 7.034678e+00 4.823146e+00 6.706379e+00 6.768272e+00 6.137338e+00 5.725682e+00 5.281887e+00 4.503690e+00 4.250701e+00 4.062441e+00 1.557485e+01 7.996739e-01 1.119031e+00 1.149659e+00 7.895483e-01 1.196008e+00 1.102102e+00 1.247401e+00 9.379631e-01 8.842748e-01 8.109016e-01 7.304358e-01 7.448366e-01 2.138736e+00
<GCONST> 1.459497e+02
<STATE> 4
<MEAN> 39
 -1.045073e+01 -6.384959e+00 -9.505093e+00 -7.113473e+00 -3.424917e+00 -5.181319e+00 -1.064188e+01 -2.563447e+00 -2.535576e+00 2.854994e-01 -4.583359e+00 -4.919893e+00 5.854853e+01 1.543143e+00 3.773711e-02 3.726198e-01 -9.087551e-01 -1.090277e+00 1.567531e-01 4.194694e-01 -1.543269e-01 1.983670e-01 -2.738319e-01 6.888391e-02 -9.806867e-01 2.873886e+00 4.755079e-01 3.002073e-01 4.464519e-01 4.354853e-02 -3.849716e-01 2.144874e-01 3.794220e-01 -2.506195e-01 2.331327e-03 -2.900611e-01 1.952314e-01 -2.088844e-01 -4.860728e-01
<VARIANCE> 39
 5.469613e+01 4.543656e+01 6.406300e+01 4.931194e+01 6.583507e+01 6.571926e+01 6.315927e+01 4.968266e+01 5.509497e+01 4.099401e+01 4.040453e+01 4.057885e+01 1.318532e+02 5.557550e+00 4.632271e+00 6.378879e+00 4.742794e+00 5.600065e+00 4.818536e+00 6.627116e+00 4.487757e+00 5.555781e+00 4.161406e+00 3.952424e+00 4.724261e+00 1.035575e+01 9.764624e-01 9.296339e-01 1.271718e+00 7.799109e-01 1.160427e+00 9.249420e-01 1.177443e+00 8.584232e-01 8.939039e-01 7.694044e-01 7.520540e-01 8.329138e-01 1.474115e+00
<GCONST> 1.452569e+02
<TRANSP> 5
 0.000000e+00 1.000000e+00 0.000000e+00 0.000000e+00 0.000000e+00
 0.000000e+00 7.431279e-01 2.568721e-01 0.000000e+00 0.000000e+00
 0.000000e+00 0.000000e+00 5.380962e-01 4.619038e-01 0.000000e+00
 0.000000e+00 0.000000e+00 0.000000e+00 6.476462e-01 3.523537e-01
 0.000000e+00 0.000000e+00 0.000000e+00 0.000000e+00 0.000000e+00
<ENDHMM>
~h "l"
<BEGINHMM>
<NUMSTATES> 5
<STATE> 2
<MEAN> 39
 -1.998412e-01 -5.944235e+00 -4.413618e+00 -9.407110e+00 -1.043960e+01 -3.069966e+00 -1.370401e+01 -1.119781e+01 5.647697e-01 1.562764e+00 -1.498663e+00 -6.403955e+00 6.596712e+01 3.653321e-01 2.802062e-01 5.293218e-01 -6.358454e-01 6.541251e-01 -7.445027e-02 -1.418876e+00 -1.144971e+00 4.170169e-01 8.860790e-01 4.028475e-02 8.781077e-02 -1.689959e-01 -1.654930e-01 7.296644e-02 2.568815e-03 -5.915415e-02 -4.285068e-02 1.469217e-01 1.744094e-01 1.704464e-01 -1.209076e-01 -1.992960e-01 -2.759846e-02 -5.010588e-03 -1.100325e-02
<VARIANCE> 39
 2.903385e+01 3.376453e+01 6.834812e+01 6.866026e+01 6.436959e+01 6.937959e+01 9.578368e+01 1.035642e+02 7.292561e+01 6.260107e+01 6.361572e+01 4.931188e+01 6.686046e+01 1.324746e+00 2.005559e+00 3.306488e+00 4.022873e+00 4.648695e+00 5.265808e+00 5.246412e+00 5.318941e+00 5.496108e+00 4.134804e+00 4.465563e+00 3.296243e+00 2.029937e+00 2.397445e-01 3.403112e-01 4.484586e-01 5.852443e-01 7.973085e-01 8.074756e-01 9.368271e-01 1.077974e+00 9.021462e-01 8.008714e-01 7.596158e-01 5.459713e-01 2.228532e-01
<GCONST> 1.349369e+02
<STATE> 3
<MEAN> 39
 3.529015e-01 -4.995926e+00 -3.169759e+00 -1.110067e+01 -9.291241e+00 -2.439809e+00 -1.724014e+01 -1.377573e+01 1.655490e+00 3.362390e+00 -1.445324e+00 -6.250547e+00 6.621495e+01 -1.949227e-01 -3.246958e-02 5.459134e-02 -1.690107e-01 4.895310e-02 4.235559e-02 -2.811415e-02 4.719863e-01 4.732817e-02 -1.962418e-01 -2.726092e-01 -3.358039e-02 8.265024e-02 -1.758285e-01 -1.855875e-01 -2.977058e-01 2.549541e-01 -2.372366e-01 6.082277e-02 6.871795e-01 6.036050e-01 -1.383848e-01 -4.415510e-01 -1.430560e-01 -7.825708e-02 1.500125e-01
<VARIANCE> 39
 2.045818e+01 2.901267e+01 6.529953e+01 7.030125e+01 5.627946e+01 6.441901e+01 1.025535e+02 9.698427e+01 7.229258e+01 6.873032e+01 6.384966e+01 4.600893e+01 4.838025e+01 8.135907e-01 1.916745e+00 3.585863e+00 3.350578e+00 3.542410e+00 4.325719e+00 5.324302e+00 7.114678e+00 5.281570e+00 3.957805e+00 4.087941e+00 3.023612e+00 1.633624e+00 1.425975e-01 3.525211e-01 4.330932e-01 5.453832e-01 8.286805e-01 8.223113e-01 1.067663e+00 1.056291e+00 9.987498e-01 8.344216e-01 9.493723e-01 5.829635e-01 1.969380e-01
<GCONST> 1.325152e+02
<STATE> 4
<MEAN> 39
 -1.465913e+00 -4.921357e+00 -2.896214e+00 -1.388976e+01 -6.234040e+00 -1.581945e+00 -1.560544e+01 -1.015116e+01 -2.876437e-01 1.994277e+00 -3.241191e+00 -5.112470e+00 6.384732e+01 -3.082930e-01 -2.895474e-01 -3.678049e-01 4.864996e-01 -1.507475e-01 1.319493e-01 9.926720e-01 8.774701e-01 -1.930309e-01 -6.924602e-01 -4.009700e-01 -1.678124e-01 5.697021e-02 -6.184259e-02 -3.469892e-02 -9.529845e-02 1.631896e-01 -6.395850e-02 2.403120e-02 2.506037e-01 5.905457e-02 -6.999575e-02 -1.421433e-01 2.172650e-02 -4.679340e-02 4.190527e-03
<VARIANCE> 39
 2.784335e+01 3.440369e+01 7.503252e+01 1.030256e+02 7.443166e+01 6.207030e+01 9.354533e+01 7.707919e+01 6.526527e+01 6.196006e+01 5.696194e+01 4.756136e+01 9.193835e+01 7.956008e-01 2.271542e+00 2.775449e+00 2.749620e+00 3.247619e+00 3.381995e+00 4.438424e+00 4.431537e+00 3.787199e+00 3.155713e+00 3.994004e+00 2.646647e+00 2.170919e+00 1.263840e-01 2.969039e-01 3.270364e-01 4.405211e-01 5.474179e-01 5.206638e-01 6.481552e-01 7.036784e-01 5.653144e-01 5.405718e-01 6.296225e-01 4.136833e-01 1.996269e-01
<GCONST> 1.277577e+02
<TRANSP> 5
 0.000000e+00 1.000000e+00 0.000000e+00 0.000000e+00 0.000000e+00
 0.000000e+00 5.613627e-01 4.386373e-01 0.000000e+00 0.000000e+00
 0.000000e+00 0.000000e+00 5.668086e-01 4.331914e-01 0.000000e+00
 0.000000e+00 0.000000e+00 0.000000e+00 6.691315e-01 3.308686e-01
 0.000000e+00 0.000000e+00 0.000000e+00 0.000000e+00 0.000000e+00
<ENDHMM>
~h "m"
<BEGINHMM>
<NUMSTATES> 5
<STATE> 2
<MEAN> 39
 1.049538e+00 -2.696907e+00 -2.776016e+00 -4.518793e+00 -9.115976e+00 1.999576e+00 -7.624262e+00 -1.239528e+01 -7.554405e+00 -5.195655e+00 -1.406060e+00 -6.226809e+00 5.920122e+01 1.951177e-01 8.494278e-01 1.434038e+00 1.682890e+00 2.733886e-01 6.308599e-01 4.209298e-01 -1.756939e+00 -1.934140e+00 -9.304917e-01 -5.987390e-01 6.529111e-01 -9.227580e-01 -2.166025e-01 -1.664226e-01 -3.928375e-02 -1.581944e-01 -1.830269e-02 -6.564520e-02 -2.691384e-02 2.352501e-01 1.736005e-01 -6.715719e-02 -1.682875e-01 -1.006522e-02 2.928986e-01
<VARIANCE> 39
 2.900456e+01 3.307864e+01 5.556725e+01 6.336586e+01 4.408672e+01 5.646634e+01 5.067789e+01 8.665947e+01 7.346009e+01 4.694650e+01 6.485906e+01 3.649549e+01 8.413811e+01 1.467312e+00 2.293090e+00 3.755316e+00 4.015501e+00 3.182529e+00 3.627723e+00 3.308110e+00 5.844848e+00 5.712032e+00 3.194296e+00 5.600964e+00 4.161205e+00 3.390330e+00 2.172988e-01 3.010987e-01 5.289961e-01 6.859596e-01 4.954849e-01 4.601423e-01 5.242403e-01 8.786865e-01 8.395067e-01 5.142781e-01 7.861657e-01 5.170605e-01 3.181672e-01
<GCONST> 1.309941e+02
<STATE> 3
<MEAN> 39
 1.413641e+00 -1.643194e+00 2.580507e-01 -1.523108e+00 -9.483542e+00 4.766177e+00 -6.917028e+00 -1.585124e+01 -1.117547e+01 -8.401757e+00 -3.083965e+00 -4.761509e+00 5.934721e+01 -7.144754e-02 1.820378e-02 3.500137e-02 -1.300959e-01 8.508352e-02 1.164968e-01 1.541560e-01 1.211510e-01 -7.560570e-02 -2.368094e-01 -2.195212e-01 1.241377e-01 1.204433e-01 -3.671019e-02 -1.703100e-01 -4.628934e-01 -5.480223e-01 -3.358327e-02 -2.505509e-01 -9.415659e-02 5.654565e-01 5.993553e-01 3.568189e-01 1.644015e-01 -1.620860e-01 2.079589e-01
<VARIANCE> 39
 1.716885e+01 2.592926e+01 3.717058e+01 4.414934e+01 3.884352e+01 5.850146e+01 4.953912e+01 9.506479e+01 7.187496e+01 5.328344e+01 8.144471e+01 3.321315e+01 4.883303e+01 6.239330e-01 1.352560e+00 2.505001e+00 3.289313e+00 1.828130e+00 2.305371e+00 1.957174e+00 3.453861e+00 3.594223e+00 2.488979e+00 3.335299e+00 2.131598e+00 1.994074e+00 1.342283e-01 2.366369e-01 4.082003e-01 4.973667e-01 3.855817e-01 4.501961e-01 4.108160e-01 7.104893e-01 7.028967e-01 4.721868e-01 7.235680e-01 5.147724e-01 2.451063e-01
<GCONST> 1.200152e+02
<STATE> 4
<MEAN> 39
 -5.871501e+00 -1.814232e+00 -2.704949e+00 -3.249351e+00 -5.226244e+00 -9.206997e-01 -6.187865e+00 -1.030382e+01 -8.590052e+00 -6.937645e+00 -5.502807e+00 -3.252491e+00 4.664568e+01 -4.480475e-02 -2.502286e-02 -2.152924e-01 -2.974779e-01 -1.561666e-02 -1.060084e-01 -1.746737e-02 3.770083e-01 2.987677e-01 2.437117e-01 1.343086e-01 -7.442400e-02 1.892565e-02 -3.905216e-03 -4.142964e-02 -6.033935e-02 -6.770392e-02 -9.165314e-03 -1.510460e-02 -4.459832e-02 7.613739e-02 1.015555e-01 6.953290e-02 5.521967e-02 -5.169113e-02 5.955175e-02
<VARIANCE> 39
 5.182111e+01 2.980387e+01 4.219562e+01 3.784560e+01 4.167777e+01 4.685925e+01 3.694897e+01 8.065785e+01 6.050193e+01 3.598372e+01 4.752106e+01 2.466422e+01 1.634915e+02 7.419550e-01 1.278739e+00 1.990042e+00 2.240199e+00 1.689614e+00 1.888595e+00 1.809775e+00 2.709621e+00 2.829340e+00 2.089313e+00 2.359964e+00 1.773065e+00 1.820585e+00 1.275037e-01 1.924594e-01 2.721557e-01 3.278067e-01 3.160279e-01 3.388487e-01 3.319326e-01 4.465177e-01 4.525834e-01 3.732453e-01 4.081672e-01 3.127304e-01 1.551580e-01
<GCONST> 1.138537e+02
<TRANSP> 5
 0.000000e+00 1.000000e+00 0.000000e+00 0.000000e+00 0.000000e+00
 0.000000e+00 5.931008e-01 4.068992e-01 0.000000e+00 0.000000e+00
 0.000000e+00 0.000000e+00 6.592655e-01 3.407345e-01 0.000000e+00
 0.000000e+00 0.000000e+00 0.000000e+00 8.722412e-01 1.277588e-01
 0.000000e+00 0.000000e+00 0.000000e+00 0.000000e+00 0.000000e+00
<ENDHMM>
~h "n"
<BEGINHMM>
<NUMSTATES> 5
<STATE> 2
<MEAN> 39
 7.607360e-01 -4.597580e+00 -1.984926e+00 -1.959168e+00 -1.145638e+01 -5.636284e+00 -1.047450e+01 -8.343316e+00 1.010975e-01 -2.668286e+00 -7.410408e+00 -7.093691e+00 6.352329e+01 5.304894e-01 1.829664e+00 1.824790e+00 1.814145e+00 -2.962874e-01 -4.353788e-01 1.836021e-01 -2.728352e+00 -7.600658e-01 4.075168e-01 -1.027666e+00 1.101159e+00 -1.989401e+00 -1.733796e-01 -4.079610e-03 -9.303459e-02 -2.156046e-01 -9.709673e-03 1.782423e-01 2.832314e-01 -5.573261e-02 -1.148935e-01 -1.455948e-01 6.946934e-02 1.017929e-01 1.526725e-01
<VARIANCE> 39
 1.407823e+01 3.704906e+01 5.422098e+01 4.552623e+01 4.692412e+01 5.475309e+01 6.147634e+01 1.410274e+02 6.842987e+01 4.037846e+01 6.069989e+01 4.131536e+01 4.928618e+01 9.407768e-01 2.239272e+00 3.586770e+00 2.742242e+00 3.832328e+00 4.611433e+00 5.303143e+00 7.179549e+00 4.293858e+00 3.592913e+00 5.035890e+00 3.517766e+00 2.042172e+00 1.382700e-01 4.169717e-01 4.818605e-01 4.794491e-01 5.218321e-01 6.042966e-01 7.333041e-01 1.482496e+00 6.584521e-01 6.043639e-01 5.922896e-01 4.834313e-01 3.427616e-01
<GCONST> 1.295487e+02
<STATE> 3
<MEAN> 39
 1.444886e+00 -3.465891e-01 1.772637e+00 1.908751e+00 -1.285642e+01 -5.724679e+00 -8.854679e+00 -1.593556e+01 -1.634906e+00 -2.168996e+00 -8.943215e+00 -3.714230e+00 5.937263e+01 9.410789e-04 6.467854e-01 4.751866e-01 2.888336e-01 -3.001428e-02 1.795191e-01 2.128688e-01 -3.703501e-01 -4.506505e-01 -1.121616e-01 -2.481335e-01 4.651375e-01 -6.941118e-01 -1.789780e-01 -3.243778e-01 -3.864518e-01 -4.550373e-01 2.160220e-01 1.275332e-01 -8.169219e-02 8.103713e-01 8.031352e-02 -1.257747e-01 2.693742e-01 -2.746841e-01 2.786700e-01
<VARIANCE> 39
 1.231394e+01 2.109359e+01 3.444709e+01 2.970680e+01 3.830545e+01 5.484941e+01 5.313139e+01 1.256796e+02 7.184226e+01 4.021964e+01 8.488567e+01 3.719361e+01 3.084449e+01 6.782225e-01 1.641078e+00 1.931913e+00 1.799497e+00 2.182076e+00 2.500289e+00 2.845310e+00 5.051774e+00 3.159603e+00 2.166722e+00 2.835521e+00 2.283829e+00 1.835485e+00 1.478844e-01 3.082413e-01 4.232071e-01 3.953492e-01 5.016984e-01 5.605267e-01 6.062636e-01 9.547590e-01 6.008970e-01 4.826332e-01 6.755922e-01 4.552430e-01 3.227675e-01
<GCONST> 1.199546e+02
<STATE> 4
<MEAN> 39
 -2.337167e+00 1.481557e+00 1.785072e+00 1.271400e+00 -8.804919e+00 -4.990352e+00 -7.411458e+00 -1.155339e+01 -4.162423e+00 -4.206168e+00 -9.178839e+00 -2.870450e+00 5.033580e+01 -4.337802e-01 5.278190e-02 -1.948625e-01 -3.170652e-01 4.906504e-01 2.849513e-01 -1.194019e-02 8.024352e-01 -1.744239e-01 -1.446896e-01 3.855550e-01 -1.827251e-01 -6.742864e-01 -1.202377e-01 -1.458872e-01 -1.175981e-01 -1.606004e-01 5.527256e-02 1.236414e-02 -3.630625e-02 1.677652e-01 7.324058e-02 2.289123e-03 1.335057e-01 -8.739979e-02 1.193748e-01
<VARIANCE> 39
 3.850597e+01 3.155087e+01 3.815105e+01 3.132579e+01 4.788578e+01 4.046799e+01 4.864735e+01 1.001189e+02 5.339791e+01 3.721328e+01 6.957549e+01 3.227583e+01 1.071197e+02 1.104867e+00 1.952239e+00 1.930660e+00 2.104332e+00 2.308751e+00 2.356878e+00 2.483479e+00 4.022865e+00 2.809819e+00 2.175449e+00 2.880409e+00 2.142242e+00 2.727697e+00 2.061865e-01 3.075442e-01 3.257253e-01 3.602589e-01 4.287120e-01 4.219142e-01 4.772895e-01 6.405092e-01 4.813792e-01 4.104393e-01 5.003876e-01 3.684633e-01 3.128932e-01
<GCONST> 1.204408e+02
<TRANSP> 5
 0.000000e+00 1.000000e+00 0.000000e+00 0.000000e+00 0.000000e+00
 0.000000e+00 6.113834e-01 3.886166e-01 0.000000e+00 0.000000e+00
 0.000000e+00 0.000000e+00 6.539142e-01 3.460858e-01 0.000000e+00
 0.000000e+00 0.000000e+00 0.000000e+00 8.092900e-01 1.907100e-01
 0.000000e+00 0.000000e+00 0.000000e+00 0.000000e+00 0.000000e+00
<ENDHMM>
~h "o"
<BEGINHMM>
<NUMSTATES> 5
<STATE> 2
<MEAN> 39
 -1.383043e+00 -1.918542e+00 -9.405106e+00 -1.500560e+01 -1.084774e+01 3.445402e+00 -1.116958e+01 -7.045889e+00 -3.256685e+00 -1.130000e+00 7.973624e-01 -4.434821e+00 6.284354e+01 1.524926e+00 -8.426311e-02 -9.622999e-01 -2.538116e+00 -1.252033e+00 1.912544e+00 1.808212e-01 -4.179002e-01 5.647078e-01 6.928226e-02 1.076612e+00 -2.827704e-01 2.012580e+00 -2.874421e-01 4.149631e-02 3.204250e-01 3.020479e-01 1.239689e-01 -1.169368e-01 3.095585e-01 -6.690282e-02 -6.288307e-02 -1.347021e-01 -5.195041e-02 1.072098e-01 -4.506047e-01
<VARIANCE> 39
 3.988441e+01 3.512861e+01 6.077118e+01 8.286409e+01 6.502620e+01 6.152335e+01 7.556240e+01 6.314863e+01 7.853651e+01 6.289103e+01 4.920465e+01 4.074364e+01 1.054262e+02 4.358459e+00 2.890398e+00 5.917786e+00 6.158038e+00 6.738107e+00 5.599888e+00 4.904495e+00 5.695870e+00 5.584102e+00 5.087782e+00 4.610264e+00 3.770374e+00 6.228464e+00 8.261935e-01 5.229183e-01 8.943357e-01 1.080305e+00 1.095644e+00 9.630806e-01 8.231294e-01 9.119797e-01 1.117532e+00 8.743900e-01 7.674267e-01 6.506068e-01 1.034814e+00
<GCONST> 1.443083e+02
<STATE> 3
<MEAN> 39
 1.527770e+00 -2.428996e+00 -1.149793e+01 -1.947139e+01 -1.384794e+01 7.846364e+00 -9.516798e+00 -9.100840e+00 -1.145480e+00 -2.192302e+00 4.080095e+00 -4.512830e+00 6.822330e+01 1.401252e-01 -4.958343e-02 -2.265662e-01 -3.544334e-01 8.529194e-02 3.639365e-01 4.271525e-01 -1.362032e-01 6.725882e-03 -6.659261e-02 1.455497e-01 6.124151e-02 1.429791e-01 -2.564249e-01 6.054674e-02 3.152585e-01 7.524896e-01 3.626469e-01 -5.876808e-01 -1.016327e-01 7.612861e-02 -1.427157e-01 3.212922e-02 -4.232624e-01 3.104728e-02 -5.250573e-01
<VARIANCE> 39
 1.468258e+01 3.433860e+01 4.608646e+01 6.521655e+01 4.545032e+01 5.064251e+01 8.306464e+01 5.613514e+01 6.319854e+01 7.525023e+01 5.140836e+01 4.574052e+01 3.561752e+01 8.166633e-01 1.839019e+00 1.992731e+00 4.748827e+00 3.155423e+00 3.659780e+00 3.759778e+00 3.546195e+00 4.468706e+00 4.357789e+00 2.984390e+00 2.797206e+00 2.572806e+00 2.718755e-01 3.191080e-01 4.312312e-01 5.611141e-01 6.779577e-01 6.341629e-01 6.644347e-01 6.788594e-01 7.624894e-01 8.384640e-01 6.245437e-01 5.700709e-01 3.179103e-01
<GCONST> 1.274969e+02
<STATE> 4
<MEAN> 39
 4.621285e-01 -1.062039e+00 -1.055704e+01 -1.858791e+01 -1.113514e+01 5.799311e+00 -8.369030e+00 -8.086510e+00 -3.017752e+00 -2.358140e+00 1.121866e+00 -3.467332e+00 6.182788e+01 -1.611027e-01 4.537531e-02 3.366288e-01 1.098783e+00 3.789562e-01 -6.309887e-01 -4.315183e-03 -4.975853e-02 2.630691e-02 8.911230e-02 -4.726246e-01 -1.037875e-01 -9.509755e-01 -6.862450e-02 2.349532e-02 1.611425e-01 2.706447e-01 5.665444e-02 -1.506244e-01 -5.043202e-02 -1.266105e-02 -8.927523e-03 -2.528570e-02 -9.095725e-02 -2.926270e-03 -1.505702e-01
<VARIANCE> 39
 2.333241e+01 3.543481e+01 4.973837e+01 7.888129e+01 5.162144e+01 4.824134e+01 7.737830e+01 4.992001e+01 5.725432e+01 6.570218e+01 4.723611e+01 4.166554e+01 1.299577e+02 8.291725e-01 1.453446e+00 1.800230e+00 3.413992e+00 2.400021e+00 2.777135e+00 2.780700e+00 2.639528e+00 2.868901e+00 2.740868e+00 2.524853e+00 2.167879e+00 2.517830e+00 1.420198e-01 2.410859e-01 2.744228e-01 4.348331e-01 4.147986e-01 4.530981e-01 5.100155e-01 4.498353e-01 4.950202e-01 4.846675e-01 4.236679e-01 3.972897e-01 3.219273e-01
<GCONST> 1.210247e+02
<TRANSP> 5
 0.000000e+00 1.000000e+00 0.000000e+00 0.000000e+00 0.000000e+00
 0.000000e+00 6.290450e-01 3.709550e-01 0.000000e+00 0.000000e+00
 0.000000e+00 0.000000e+00 6.324537e-01 3.675463e-01 0.000000e+00
 0.000000e+00 0.000000e+00 0.000000e+00 8.492013e-01 1.507987e-01
 0.000000e+00 0.000000e+00 0.000000e+00 0.000000e+00 0.000000e+00
<ENDHMM>
~h "p"
<BEGINHMM>
<NUMSTATES> 5
<STATE> 2
<MEAN> 39
 -8.053111e+00 9.961606e-01 -4.029902e+00 -4.056915e+00 -4.839620e+00 -2.328972e+00 -5.719062e+00 -5.670539e+00 -4.636567e+00 -3.117891e+00 -3.506614e+00 -4.184995e+00 3.831717e+01 -7.974761e-01 7.689334e-02 1.844429e-02 2.183395e-01 1.530944e-01 -3.352079e-01 1.160508e-01 2.702640e-01 1.708599e-01 5.378933e-02 -2.224335e-02 2.307337e-01 -1.065566e+00 -1.108370e-02 -2.826774e-01 -1.032350e-01 -1.375896e-01 -1.237233e-01 -1.202937e-02 -8.919563e-02 -2.473726e-02 5.657744e-02 -1.393346e-03 8.034860e-02 1.872079e-02 7.495981e-01
<VARIANCE> 39
 5.583224e+01 2.526996e+01 2.920610e+01 2.850716e+01 2.350677e+01 3.544222e+01 2.802911e+01 3.096714e+01 3.385499e+01 2.704848e+01 2.788436e+01 2.660644e+01 6.526718e+01 1.744287e+00 1.832003e+00 1.649227e+00 1.913285e+00 2.011825e+00 2.394841e+00 2.190421e+00 2.415996e+00 2.476808e+00 2.178239e+00 2.484220e+00 1.860115e+00 5.640273e+00 3.480827e-01 3.730421e-01 3.646757e-01 4.193471e-01 4.372228e-01 4.928572e-01 4.694481e-01 4.959074e-01 4.974324e-01 4.530551e-01 4.871243e-01 3.849047e-01 1.039865e+00
<GCONST> 1.172114e+02
<STATE> 3
<MEAN> 39
 -9.276482e+00 1.216576e-01 -3.601498e+00 -3.501395e+00 -5.101876e+00 -3.542736e+00 -5.915537e+00 -5.264991e+00 -3.781921e+00 -2.747134e+00 -2.912746e+00 -3.177280e+00 4.171455e+01 8.005099e-02 -1.804110e+00 -7.968761e-01 -1.107437e+00 -4.109180e-01 -3.313102e-02 -5.123239e-01 -1.762015e-01 3.503906e-01 9.177586e-02 6.652764e-01 9.408005e-02 5.255593e+00 9.037941e-01 -4.363113e-01 -3.532094e-01 -6.778222e-01 -4.094616e-01 4.355990e-01 -2.203548e-01 -1.989184e-01 7.308030e-02 9.067223e-03 1.836303e-01 -4.384376e-01 1.722581e+00
<VARIANCE> 39
 3.589908e+01 2.517900e+01 2.921111e+01 2.807659e+01 2.498402e+01 3.557858e+01 3.151505e+01 2.903573e+01 3.020678e+01 2.584843e+01 2.490566e+01 2.370502e+01 1.037623e+02 5.438163e+00 3.493700e+00 4.488015e+00 5.163206e+00 3.754970e+00 5.842514e+00 3.978553e+00 3.774669e+00 4.020394e+00 3.615618e+00 3.838683e+00 3.649758e+00 1.258397e+01 6.158752e-01 6.107548e-01 8.173736e-01 8.660975e-01 7.928115e-01 1.012293e+00 8.227850e-01 7.384290e-01 7.211723e-01 6.663432e-01 6.550051e-01 6.817970e-01 1.625777e+00
<GCONST> 1.331249e+02
<STATE> 4
<MEAN> 39
 -6.045074e+00 -5.637386e+00 -7.572689e+00 -8.949316e+00 -6.389235e+00 -1.462443e+00 -7.660481e+00 -6.461166e+00 -2.827592e+00 -2.344832e+00 -7.929242e-01 -4.585930e+00 5.835150e+01 2.175271e+00 -1.498032e+00 -1.027211e+00 -1.953732e+00 -9.590775e-01 1.012031e+00 -6.761981e-01 -4.420544e-01 3.929957e-01 4.299279e-02 5.751526e-01 -1.034883e+00 5.376955e+00 2.090428e-01 3.514408e-01 2.299896e-01 1.497115e-01 -1.246781e-01 8.445463e-02 3.567960e-02 8.583898e-02 3.383784e-02 -7.059505e-02 -1.866992e-01 -1.762446e-01 -8.092334e-01
<VARIANCE> 39
 6.025515e+01 3.158809e+01 4.074855e+01 6.813245e+01 3.345753e+01 6.439789e+01 3.776714e+01 3.181284e+01 3.061938e+01 3.011459e+01 3.140092e+01 3.606896e+01 1.280672e+02 5.584492e+00 5.294272e+00 6.727128e+00 7.649224e+00 6.200701e+00 7.346947e+00 5.937161e+00 4.771361e+00 4.557611e+00 4.057517e+00 4.470838e+00 4.953708e+00 1.456565e+01 1.255338e+00 7.241554e-01 7.596931e-01 1.489172e+00 1.016516e+00 1.221116e+00 7.668586e-01 7.599144e-01 7.713016e-01 6.260302e-01 7.700337e-01 7.057239e-01 1.930822e+00
<GCONST> 1.428438e+02
<TRANSP> 5
 0.000000e+00 1.000000e+00 0.000000e+00 0.000000e+00 0.000000e+00
 0.000000e+00 8.389275e-01 1.610725e-01 0.000000e+00 0.000000e+00
 0.000000e+00 0.000000e+00 4.703122e-01 5.296878e-01 0.000000e+00
 0.000000e+00 0.000000e+00 0.000000e+00 5.676860e-01 4.323140e-01
 0.000000e+00 0.000000e+00 0.000000e+00 0.000000e+00 0.000000e+00
<ENDHMM>
~h "q"
<BEGINHMM>
<NUMSTATES> 5
<STATE> 2
<MEAN> 39
 -7.474828e+00 -2.100575e+00 5.994244e+00 -1.821381e+01 -1.321056e+01 -4.466209e+00 -1.600079e+01 -3.804325e+00 -8.503753e+00 -2.435820e-01 -3.092710e+00 -5.171209e+00 5.566870e+01 1.378960e-01 -3.887254e-02 -7.757159e-01 -6.109111e-01 6.891431e-01 2.727652e-01 2.971315e-01 -1.290670e-01 -2.061120e-01 -1.319930e-01 -3.930671e-01 2.429611e-01 6.559412e-01 1.243318e-02 -4.164701e-02 5.357337e-02 1.845964e-01 -6.768160e-02 -1.398472e-02 -9.315543e-02 -4.498534e-02 -1.387169e-02 -1.062061e-01 1.536180e-01 -9.591556e-02 -1.699442e-01
<VARIANCE> 39
 5.196243e+01 6.134026e+01 1.647755e+02 1.634191e+02 9.777493e+01 5.759786e+01 5.855081e+01 4.240306e+01 2.051973e+01 2.162734e+01 2.870090e+01 2.213963e+01 1.170939e+02 2.922271e+00 3.435619e+00 1.395556e+01 7.467433e+00 6.023887e+00 2.628326e+00 3.311275e+00 2.913463e+00 2.116698e+00 1.587850e+00 2.880548e+00 2.617172e+00 1.110195e+01 3.579998e-01 6.921160e-01 2.617678e+00 1.413603e+00 9.896908e-01 5.077592e-01 6.108236e-01 5.467298e-01 3.701350e-01 3.484119e-01 5.809174e-01 4.830970e-01 1.351309e+00
<GCONST> 1.364426e+02
<STATE> 3
<MEAN> 39
 -8.709159e+00 -6.585122e+00 -1.367026e+00 -1.801312e+01 4.498178e+00 -3.456143e+00 -1.284870e+01 -9.159848e+00 -1.824796e+00 -8.380947e+00 -5.941719e+00 -3.498920e+00 6.036868e+01 -4.685287e-01 -2.176730e-01 -2.996859e-01 1.012612e+00 8.345687e-01 -7.693106e-01 -5.124445e-01 2.623561e-01 7.431784e-01 -5.554399e-01 -4.050246e-01 -5.462301e-01 -1.844557e-01 2.254958e-01 3.033166e-01 5.809045e-02 4.356753e-02 -6.156299e-01 2.414766e-01 -3.556357e-01 2.682464e-01 -3.084227e-01 1.983655e-01 1.190054e-01 -5.672450e-02 -4.070238e-01
<VARIANCE> 39
 6.628996e+01 7.528120e+01 3.785151e+01 1.599581e+02 7.877522e+01 3.156731e+01 4.564626e+01 2.791240e+01 7.713004e+01 1.640391e+01 1.365722e+01 1.159305e+01 1.264209e+02 2.103168e+00 3.063200e+00 2.705547e+00 2.405154e+00 4.641465e+00 1.614972e+00 1.838037e+00 1.837137e+00 2.752057e+00 2.959486e+00 1.902049e+00 1.361205e+00 6.622490e+00 2.315735e-01 3.134364e-01 2.910775e-01 5.716773e-01 3.808323e-01 3.174739e-01 4.086676e-01 3.428253e-01 6.117824e-01 4.838521e-01 4.267389e-01 5.407882e-01 2.714749e-01
<GCONST> 1.203412e+02
<STATE> 4
<MEAN> 39
 -1.544272e+01 -8.111433e-01 -2.690886e+00 -4.508748e+00 -4.259344e+00 -5.312463e+00 -9.643275e+00 -7.068156e+00 -6.496701e+00 -5.067025e+00 -3.769198e+00 -1.345713e+00 3.694608e+01 -6.136377e-02 -5.509262e-02 -8.030904e-02 9.794956e-03 1.435789e-02 5.597023e-02 5.182061e-02 1.544428e-01 8.531620e-02 -2.005021e-02 6.750494e-02 1.868492e-02 -5.188970e-03 2.162286e-02 2.152355e-02 1.415943e-02 -5.836368e-03 -2.261131e-02 -1.966185e-04 1.025336e-03 -1.287066e-02 -1.362881e-02 -1.144359e-03 -1.120665e-02 -8.701595e-03 4.693838e-02
<VARIANCE> 39
 3.244200e+01 2.177743e+01 2.313270e+01 2.749522e+01 2.419959e+01 2.880347e+01 3.232076e+01 3.623788e+01 2.659670e+01 1.806888e+01 1.989073e+01 1.848502e+01 6.509879e+01 9.224306e-01 1.367241e+00 8.820042e-01 1.233473e+00 1.492249e+00 1.481681e+00 2.481868e+00 2.178181e+00 1.742156e+00 1.529343e+00 2.002711e+00 2.171994e+00 1.619439e+00 1.351823e-01 2.667255e-01 1.462963e-01 2.281665e-01 2.435662e-01 2.609826e-01 5.012948e-01 4.150988e-01 3.428488e-01 3.045695e-01 3.893023e-01 4.634304e-01 1.625934e-01
<GCONST> 1.034568e+02
<TRANSP> 5
 0.000000e+00 1.000000e+00 0.000000e+00 0.000000e+00 0.000000e+00
 0.000000e+00 8.656676e-01 1.343324e-01 0.000000e+00 0.000000e+00
 0.000000e+00 0.000000e+00 5.462396e-01 4.537604e-01 0.000000e+00
 0.000000e+00 0.000000e+00 0.000000e+00 9.671781e-01 3.282190e-02
 0.000000e+00 0.000000e+00 0.000000e+00 0.000000e+00 0.000000e+00
<ENDHMM>
~h "r"
<BEGINHMM>
<NUMSTATES> 5
<STATE> 2
<MEAN> 39
 -1.300155e+00 -7.455754e+00 -8.261171e+00 -4.874758e+00 -9.942638e+00 -5.005500e+00 -1.148326e+01 -5.258801e+00 3.611023e+00 -7.822793e-01 -3.050274e+00 -7.476897e+00 6.593507e+01 4.326257e-01 -1.480904e-01 1.512974e-01 7.692664e-01 -1.185920e-01 -2.649816e-01 -9.161600e-01 -1.282149e-02 3.355896e-01 3.248624e-02 9.176108e-02 1.666014e-02 -4.601798e-01 -5.878238e-02 4.866517e-02 1.069691e-01 -1.373494e-01 -2.083712e-02 5.587352e-02 1.654781e-01 3.407300e-02 -3.496748e-01 -7.335123e-02 1.157925e-01 1.745530e-02 -3.581661e-02
<VARIANCE> 39
 2.631023e+01 2.901015e+01 5.323299e+01 4.127729e+01 6.013073e+01 5.865667e+01 7.714465e+01 8.537264e+01 6.132406e+01 4.531779e+01 4.302293e+01 4.566946e+01 8.426900e+01 2.114995e+00 1.929354e+00 3.788043e+00 3.635196e+00 4.610106e+00 5.605865e+00 5.092008e+00 4.365906e+00 5.185916e+00 3.919476e+00 3.638468e+00 3.659961e+00 4.285917e+00 4.305999e-01 3.285151e-01 6.048610e-01 6.547366e-01 7.837878e-01 8.900037e-01 9.123126e-01 8.316187e-01 9.200637e-01 6.895491e-01 6.634980e-01 6.679162e-01 6.936699e-01
<GCONST> 1.352034e+02
<STATE> 3
<MEAN> 39
 -2.538875e-01 -7.321665e+00 -7.454166e+00 -3.161239e+00 -1.008734e+01 -6.039927e+00 -1.301831e+01 -5.034953e+00 3.138266e+00 -5.743876e-01 -2.300577e+00 -7.283427e+00 6.478134e+01 1.306382e-01 9.667770e-02 4.141173e-01 2.817991e-01 2.659148e-02 -1.920486e-01 -8.120392e-02 1.187798e-01 -6.010653e-01 -1.397782e-01 1.996385e-01 1.873153e-01 -6.148217e-01 -1.666170e-01 7.821197e-02 7.125570e-02 -2.894478e-01 -2.791234e-02 1.544832e-01 3.720405e-01 4.807790e-02 -3.115278e-01 -1.124604e-01 -1.999878e-02 2.023015e-03 1.031161e-01
<VARIANCE> 39
 2.319894e+01 3.037585e+01 5.522830e+01 3.870375e+01 6.397301e+01 7.329122e+01 7.408234e+01 8.715005e+01 6.357325e+01 4.699271e+01 4.445411e+01 4.842073e+01 6.931660e+01 1.709556e+00 1.927752e+00 3.701321e+00 3.046778e+00 4.515901e+00 5.757689e+00 5.010454e+00 4.570498e+00 5.087277e+00 3.715513e+00 3.430167e+00 3.630435e+00 3.684453e+00 3.598441e-01 3.578199e-01 5.785885e-01 6.068355e-01 9.740733e-01 1.153352e+00 8.957285e-01 8.403385e-01 1.033973e+00 7.581865e-01 7.608109e-01 6.816536e-01 6.894250e-01
<GCONST> 1.352772e+02
<STATE> 4
<MEAN> 39
 -2.470033e+00 -6.474804e+00 -6.663488e+00 -3.622806e+00 -8.477141e+00 -5.560210e+00 -1.140427e+01 -5.067332e+00 8.972529e-01 -1.765402e+00 -2.424620e+00 -6.311931e+00 5.852753e+01 -1.839213e-01 2.618096e-01 3.971877e-01 -3.537597e-02 -7.237844e-02 7.453662e-02 3.876080e-01 3.723580e-02 -7.158939e-01 -2.326384e-01 6.747736e-02 1.690183e-01 -4.798388e-01 -8.122717e-02 4.433255e-02 3.830811e-02 -1.029369e-01 -6.329498e-02 8.675438e-02 1.547709e-01 -3.845825e-02 -8.157440e-02 -1.359256e-02 -9.554372e-03 -4.541053e-02 1.190460e-01
<VARIANCE> 39
 4.030445e+01 3.732276e+01 5.900854e+01 3.826162e+01 6.556395e+01 5.932503e+01 7.491738e+01 7.084698e+01 5.670000e+01 4.790516e+01 4.500468e+01 4.445741e+01 1.670925e+02 1.559307e+00 2.072972e+00 2.965271e+00 2.174299e+00 3.748835e+00 3.704847e+00 3.430629e+00 3.572209e+00 4.139133e+00 2.833485e+00 3.075738e+00 2.539684e+00 3.450904e+00 3.137740e-01 3.249270e-01 4.383229e-01 4.385044e-01 7.069443e-01 6.540380e-01 6.679376e-01 6.353506e-01 6.414840e-01 5.641757e-01 5.502952e-01 4.712004e-01 5.195535e-01
<GCONST> 1.295334e+02
<TRANSP> 5
 0.000000e+00 1.000000e+00 0.000000e+00 0.000000e+00 0.000000e+00
 0.000000e+00 5.046929e-01 4.953071e-01 0.000000e+00 0.000000e+00
 0.000000e+00 0.000000e+00 4.598190e-01 5.401810e-01 0.000000e+00
 0.000000e+00 0.000000e+00 0.000000e+00 5.927427e-01 4.072573e-01
 0.000000e+00 0.000000e+00 0.000000e+00 0.000000e+00 0.000000e+00
<ENDHMM>
~h "s"
<BEGINHMM>
<NUMSTATES> 5
<STATE> 2
<MEAN> 39
 -1.253909e+01 2.634801e+00 -2.393761e+00 -3.123656e+00 -3.304880e+00 -6.659385e+00 -6.747172e+00 -3.182297e+00 -1.991539e+00 -2.814077e+00 -4.073098e+00 -2.548874e+00 6.082042e+01 -4.227998e+00 1.866649e+00 4.393027e-02 3.181737e-01 1.966965e+00 -8.035211e-03 9.798552e-01 1.257267e+00 1.637892e-01 -8.276504e-02 6.796746e-01 8.162950e-01 -3.514094e-01 -4.880446e-01 -3.106931e-01 -3.313273e-01 -2.297163e-01 -2.853956e-01 2.330914e-01 1.671063e-02 -8.526462e-02 -2.301187e-03 1.637754e-02 2.606847e-01 -8.510073e-02 1.239210e-02
<VARIANCE> 39
 7.800447e+01 4.497828e+01 5.305340e+01 3.603458e+01 5.337777e+01 4.930488e+01 7.085934e+01 4.699537e+01 4.203638e+01 3.691796e+01 4.192532e+01 3.043968e+01 1.147082e+02 4.734863e+00 4.560051e+00 4.378392e+00 3.558641e+00 4.973837e+00 4.162975e+00 4.404671e+00 4.629457e+00 3.726165e+00 2.805294e+00 3.584676e+00 2.811438e+00 2.987500e+00 9.859939e-01 7.449139e-01 5.064053e-01 4.736301e-01 7.563787e-01 6.060192e-01 7.189525e-01 7.086654e-01 5.956930e-01 5.018002e-01 5.690793e-01 4.878062e-01 2.810787e-01
<GCONST> 1.332899e+02
<STATE> 3
<MEAN> 39
 -2.953179e+01 5.418168e+00 -6.019441e+00 -3.334571e+00 1.782914e-02 -5.459085e+00 -3.352167e+00 -5.866354e-01 -1.167932e+00 -2.081860e+00 -1.780822e-01 8.544004e-02 6.015120e+01 -1.207186e+00 -2.307044e-01 -4.997834e-01 -2.077681e-01 -8.222508e-02 5.058078e-02 1.506398e-01 1.217680e-01 7.434550e-02 1.107845e-01 2.820914e-01 2.242216e-01 -2.136776e-01 9.007760e-01 -2.730623e-01 1.352162e-01 -4.885114e-02 -2.779318e-01 -1.030624e-01 -2.141207e-01 -1.763240e-01 -1.691881e-02 -1.249595e-02 -1.881093e-01 -1.603273e-01 6.807212e-02
<VARIANCE> 39
 3.527802e+01 1.845465e+01 3.004527e+01 3.730794e+01 3.288796e+01 3.809565e+01 4.789195e+01 2.708451e+01 2.510229e+01 2.135028e+01 2.361361e+01 1.878260e+01 4.010207e+01 4.653660e+00 1.760750e+00 1.930214e+00 1.532286e+00 1.850999e+00 2.038471e+00 2.060904e+00 2.028865e+00 1.924899e+00 1.805726e+00 1.871585e+00 1.523572e+00 1.063367e+00 5.193157e-01 3.460980e-01 3.694336e-01 3.321837e-01 4.299077e-01 3.925934e-01 4.258639e-01 4.470703e-01 3.913289e-01 3.603471e-01 3.629091e-01 3.242423e-01 1.564429e-01
<GCONST> 1.106447e+02
<STATE> 4
<MEAN> 39
 -2.277274e+01 1.087094e+00 -5.239556e+00 -5.705750e+00 -2.394400e+00 -5.454738e+00 -6.729697e+00 -1.675785e+00 -7.712212e-01 -2.301332e+00 -1.096447e+00 -1.430326e+00 5.477016e+01 2.743759e+00 -6.443481e-01 3.703197e-01 -2.189399e-01 -8.440379e-01 -1.321059e-01 -8.496617e-01 -7.859759e-01 -3.136669e-03 -8.177363e-02 -4.810434e-01 -7.372877e-01 2.752146e-01 4.247877e-01 -3.375077e-02 9.451360e-02 -1.315117e-02 -1.065842e-01 1.521741e-01 -1.079063e-01 -1.587930e-01 -3.660373e-02 -2.729998e-03 2.576550e-02 -1.268227e-01 1.537580e-01
<VARIANCE> 39
 1.021589e+02 2.779031e+01 3.768925e+01 3.449356e+01 3.759637e+01 4.522661e+01 5.638562e+01 3.504061e+01 3.229916e+01 2.461629e+01 2.896042e+01 2.233100e+01 1.326373e+02 9.950764e+00 2.593287e+00 3.065431e+00 2.590694e+00 3.105532e+00 3.438382e+00 3.802828e+00 3.815961e+00 3.197817e+00 2.195492e+00 2.445988e+00 2.610261e+00 3.754308e+00 1.208351e+00 3.735308e-01 3.932968e-01 3.893092e-01 4.556734e-01 6.125391e-01 6.319308e-01 6.427798e-01 5.080577e-01 4.228757e-01 4.642835e-01 4.244158e-01 3.903062e-01
<GCONST> 1.264033e+02
<TRANSP> 5
 0.000000e+00 1.000000e+00 0.000000e+00 0.000000e+00 0.000000e+00
 0.000000e+00 6.817902e-01 3.182099e-01 0.000000e+00 0.000000e+00
 0.000000e+00 0.000000e+00 8.347636e-01 1.652364e-01 0.000000e+00
 0.000000e+00 0.000000e+00 0.000000e+00 8.361691e-01 1.638309e-01
 0.000000e+00 0.000000e+00 0.000000e+00 0.000000e+00 0.000000e+00
<ENDHMM>
~h "t"
<BEGINHMM>
<NUMSTATES> 5
<STATE> 2
<MEAN> 39
 -7.891968e+00 1.347420e+00 -3.672651e+00 -3.265925e+00 -5.474210e+00 -5.286312e+00 -7.754636e+00 -5.592237e+00 -2.414974e+00 -2.058405e+00 -4.357654e+00 -4.945480e+00 4.109317e+01 -7.990126e-01 -2.203363e-02 8.699717e-03 -1.049003e-03 2.217318e-01 -2.815253e-02 3.376501e-01 3.317468e-01 -1.297637e-01 -3.662242e-02 5.844391e-02 2.829094e-01 -1.464491e+00 -1.155614e-01 -3.790604e-01 -1.536161e-01 -2.172244e-01 -1.313863e-01 -5.974855e-03 -3.975980e-02 2.314964e-02 5.782117e-02 -3.901891e-02 9.122562e-02 2.777049e-02 8.980530e-01
<VARIANCE> 39
 4.667489e+01 2.785258e+01 3.820303e+01 3.147250e+01 3.125451e+01 3.282626e+01 3.967976e+01 4.056320e+01 4.034013e+01 3.020015e+01 3.498459e+01 3.072859e+01 9.922234e+01 2.250902e+00 2.552749e+00 2.174828e+00 2.252414e+00 2.900559e+00 2.426117e+00 2.616359e+00 2.874720e+00 2.670160e+00 2.265220e+00 2.661317e+00 2.123362e+00 7.940614e+00 4.162053e-01 4.893712e-01 4.545596e-01 4.711574e-01 6.028162e-01 5.115930e-01 5.447679e-01 5.704937e-01 5.573322e-01 4.859327e-01 5.150902e-01 4.518683e-01 1.452380e+00
<GCONST> 1.239811e+02
<STATE> 3
<MEAN> 39
 -1.080006e+01 -5.010272e-01 -3.809948e+00 -3.771168e+00 -5.157166e+00 -5.442882e+00 -6.836810e+00 -4.521233e+00 -2.653886e+00 -2.162290e+00 -3.710000e+00 -3.704220e+00 4.241990e+01 -9.825709e-01 -1.676545e+00 -7.212601e-01 -1.018734e+00 -8.395104e-02 -4.404544e-01 -2.098115e-01 2.155792e-01 2.327148e-01 -2.078290e-01 2.992189e-01 2.450638e-01 4.190644e+00 6.623486e-01 -1.334322e-01 -1.514628e-01 -2.349805e-01 -3.679700e-01 3.505805e-03 -3.244252e-01 -2.570443e-01 2.123171e-01 2.230478e-02 -2.349081e-02 -3.413918e-01 1.632303e+00
<VARIANCE> 39
 4.302480e+01 3.397199e+01 3.770556e+01 2.967327e+01 3.081765e+01 3.409068e+01 3.562182e+01 3.379274e+01 3.516853e+01 2.799313e+01 3.085151e+01 2.728648e+01 1.125600e+02 4.547343e+00 3.916367e+00 4.439304e+00 3.583847e+00 4.190946e+00 3.969491e+00 4.088100e+00 4.193566e+00 4.822194e+00 3.283544e+00 3.792075e+00 3.666958e+00 1.693514e+01 7.647741e-01 6.762640e-01 8.163096e-01 6.329886e-01 8.449044e-01 7.803275e-01 8.102468e-01 8.079514e-01 8.763024e-01 6.274449e-01 6.692219e-01 6.903509e-01 1.963369e+00
<GCONST> 1.350542e+02
<STATE> 4
<MEAN> 39
 -1.037562e+01 -5.153854e+00 -6.648587e+00 -7.391922e+00 -6.896029e+00 -6.919506e+00 -8.707592e+00 -4.830841e+00 -9.179521e-01 -2.753129e+00 -3.347724e+00 -4.788907e+00 5.889544e+01 1.687034e+00 -7.101208e-01 -4.499818e-01 -9.478263e-01 -9.844947e-01 1.181603e-01 -1.018044e+00 -6.112866e-01 6.413538e-01 -7.224346e-02 1.379370e-01 -1.044276e+00 5.129340e+00 6.594072e-01 4.421591e-01 3.019086e-01 1.797086e-01 -1.817893e-01 4.591840e-01 -3.191875e-02 -1.863009e-01 -1.390278e-01 5.008200e-02 5.416219e-02 -1.986188e-01 -8.276517e-01
<VARIANCE> 39
 4.941808e+01 3.104959e+01 4.170814e+01 3.367083e+01 3.497882e+01 4.168532e+01 4.285063e+01 3.578950e+01 4.682412e+01 3.089644e+01 3.369621e+01 4.081828e+01 1.342801e+02 5.624660e+00 4.368684e+00 7.361404e+00 4.914833e+00 5.897452e+00 5.706560e+00 5.981676e+00 5.308589e+00 7.379614e+00 3.847054e+00 4.668413e+00 5.122986e+00 1.554952e+01 1.016015e+00 6.676351e-01 8.489660e-01 6.641688e-01 9.424232e-01 9.806997e-01 9.677552e-01 8.787499e-01 9.767622e-01 6.654318e-01 7.510027e-01 8.687218e-01 2.303852e+00
<GCONST> 1.420879e+02
<TRANSP> 5
 0.000000e+00 1.000000e+00 0.000000e+00 0.000000e+00 0.000000e+00
 0.000000e+00 7.776924e-01 2.223076e-01 0.000000e+00 0.000000e+00
 0.000000e+00 0.000000e+00 4.940628e-01 5.059372e-01 0.000000e+00
 0.000000e+00 0.000000e+00 0.000000e+00 5.763102e-01 4.236898e-01
 0.000000e+00 0.000000e+00 0.000000e+00 0.000000e+00 0.000000e+00
<ENDHMM>
~h "u"
<BEGINHMM>
<NUMSTATES> 5
<STATE> 2
<MEAN> 39
 -8.356538e-01 1.901418e+00 -3.807760e+00 -8.924318e+00 -1.182145e+01 1.071886e+00 -1.537912e+01 -1.003773e+01 -6.637465e+00 -3.031942e+00 -1.496738e-01 -3.201765e+00 6.028595e+01 1.841147e+00 9.874479e-01 -3.978221e-01 -1.865189e+00 -1.816601e+00 2.061461e+00 -1.090353e+00 -9.580514e-01 -8.600371e-01 -3.090646e-01 1.144943e+00 1.153709e-01 1.189600e+00 -3.229230e-01 6.044662e-02 1.508308e-01 -8.910340e-03 1.020549e-01 7.701101e-02 3.815361e-01 1.821300e-01 3.168999e-02 -8.808877e-02 -8.186958e-02 1.565178e-02 -4.351220e-01
<VARIANCE> 39
 3.799372e+01 3.546311e+01 5.850865e+01 7.621932e+01 6.089935e+01 5.505190e+01 8.414094e+01 8.034911e+01 6.384177e+01 5.332145e+01 4.563868e+01 3.297464e+01 9.855655e+01 4.687879e+00 3.406911e+00 4.616839e+00 5.214612e+00 5.929851e+00 5.492658e+00 5.475394e+00 6.913640e+00 5.162420e+00 4.808425e+00 4.380404e+00 3.610476e+00 5.322569e+00 8.381722e-01 6.126037e-01 6.459291e-01 9.908987e-01 1.051856e+00 9.988773e-01 1.079825e+00 1.233592e+00 8.943958e-01 8.121271e-01 7.793397e-01 6.279032e-01 1.049637e+00
<GCONST> 1.432135e+02
<STATE> 3
<MEAN> 39
 2.653440e+00 4.247373e+00 -5.544909e+00 -1.361008e+01 -1.644661e+01 7.185756e+00 -1.631281e+01 -1.227525e+01 -8.174829e+00 -5.124443e+00 2.837699e+00 -2.234995e+00 6.341879e+01 2.123877e-01 2.049600e-01 1.826407e-03 -2.598191e-01 -4.432010e-03 3.755967e-01 8.333068e-02 -1.333063e-01 -1.977655e-01 1.165531e-02 1.334168e-01 1.529321e-02 -1.548706e-01 -3.567961e-01 -2.337426e-01 2.096601e-01 6.237075e-01 6.236085e-01 -7.118592e-01 2.824140e-01 2.730859e-01 2.983167e-01 1.708606e-01 -4.639330e-01 -1.289537e-01 -3.862256e-01
<VARIANCE> 39
 1.536763e+01 3.600715e+01 4.269071e+01 7.070936e+01 5.345007e+01 5.018027e+01 7.783710e+01 8.957426e+01 7.383859e+01 7.141475e+01 5.070789e+01 4.235459e+01 3.555353e+01 1.057373e+00 2.976175e+00 2.370522e+00 5.681867e+00 5.315386e+00 4.822924e+00 4.967536e+00 6.372547e+00 4.688494e+00 4.993701e+00 4.330437e+00 3.221912e+00 3.150905e+00 3.176890e-01 4.597926e-01 4.813899e-01 7.719802e-01 9.143459e-01 8.524338e-01 9.650449e-01 1.145956e+00 9.061918e-01 9.473047e-01 8.757742e-01 6.776980e-01 3.868434e-01
<GCONST> 1.352596e+02
<STATE> 4
<MEAN> 39
 1.848950e+00 4.985667e+00 -4.664143e+00 -1.357336e+01 -1.306234e+01 3.804053e+00 -1.510470e+01 -9.799114e+00 -8.578192e+00 -4.160169e+00 3.591698e-01 -2.826081e+00 5.828377e+01 -4.036457e-01 -2.836767e-01 2.802249e-01 9.686114e-01 7.692759e-01 -8.651366e-01 5.254855e-01 1.422849e-01 5.108391e-01 2.857686e-01 -5.010633e-01 -2.122033e-01 -8.790256e-01 -1.767220e-01 -9.890836e-02 7.590292e-02 1.948228e-01 9.279870e-02 -1.223899e-01 7.637832e-02 4.456096e-02 1.125089e-01 -1.695982e-02 -9.240943e-02 -2.292583e-02 -4.661588e-02
<VARIANCE> 39
 2.149744e+01 3.941314e+01 4.556395e+01 7.763264e+01 5.616159e+01 5.397397e+01 6.807113e+01 7.329875e+01 6.776566e+01 6.312839e+01 4.529798e+01 4.128875e+01 8.878931e+01 1.235759e+00 2.384173e+00 2.246805e+00 3.707027e+00 3.694941e+00 3.430233e+00 3.587903e+00 3.786053e+00 3.471117e+00 3.348954e+00 3.413471e+00 2.819523e+00 3.406557e+00 2.130103e-01 3.767136e-01 3.333600e-01 5.831885e-01 5.776579e-01 5.655624e-01 6.207793e-01 6.917273e-01 5.783052e-01 6.274242e-01 5.905535e-01 5.038482e-01 4.029379e-01
<GCONST> 1.285360e+02
<TRANSP> 5
 0.000000e+00 1.000000e+00 0.000000e+00 0.000000e+00 0.000000e+00
 0.000000e+00 6.012471e-01 3.987530e-01 0.000000e+00 0.000000e+00
 0.000000e+00 0.000000e+00 6.538212e-01 3.461788e-01 0.000000e+00
 0.000000e+00 0.000000e+00 0.000000e+00 7.999482e-01 2.000518e-01
 0.000000e+00 0.000000e+00 0.000000e+00 0.000000e+00 0.000000e+00
<ENDHMM>
~h "w"
<BEGINHMM>
<NUMSTATES> 5
<STATE> 2
<MEAN> 39
 1.733369e+00 -1.719983e+00 -6.797099e+00 -1.478243e+01 -1.108037e+01 4.391251e+00 -1.139367e+01 -6.889584e+00 -4.852920e+00 -1.523066e+00 7.679441e-01 -5.442080e+00 6.187859e+01 1.214177e+00 9.575925e-01 -1.511806e-01 -1.851359e+00 -1.134091e+00 1.374094e+00 -1.859355e-01 -1.927744e-01 -8.787947e-01 -4.070123e-01 7.951422e-01 7.928348e-01 2.264871e-01 -2.024639e-01 -8.931623e-02 1.277627e-01 6.306741e-02 -1.146528e-01 -2.538949e-01 1.331658e-01 2.134110e-01 1.175622e-01 -1.612640e-01 -1.345155e-01 1.093980e-01 -2.365568e-02
<VARIANCE> 39
 2.841045e+01 6.548270e+01 5.151003e+01 7.644291e+01 5.420075e+01 6.185287e+01 6.802946e+01 5.695983e+01 6.716338e+01 6.563513e+01 4.737521e+01 4.375970e+01 1.114947e+02 1.992400e+00 2.631010e+00 2.553501e+00 3.346933e+00 3.965019e+00 3.606239e+00 3.410424e+00 3.638386e+00 3.629863e+00 3.369888e+00 3.271193e+00 3.485779e+00 4.031272e+00 4.115508e-01 4.840491e-01 3.880681e-01 5.852183e-01 7.124499e-01 5.883391e-01 6.103374e-01 6.439346e-01 6.589774e-01 7.054054e-01 5.824385e-01 5.874009e-01 2.771350e-01
<GCONST> 1.318976e+02
<STATE> 3
<MEAN> 39
 4.638790e+00 1.399296e+00 -7.488162e+00 -2.185210e+01 -1.665932e+01 8.068360e+00 -1.140671e+01 -6.393049e+00 -4.869686e+00 -4.679247e+00 2.416160e+00 -2.558770e+00 6.413321e+01 -7.721730e-02 -4.632254e-01 -3.031498e-01 -3.783996e-01 1.168576e-01 1.412061e-01 2.032140e-01 -1.297856e-01 3.063641e-01 2.518475e-01 1.403015e-01 -7.830703e-02 4.809274e-01 -2.674214e-01 -4.052964e-01 -1.172800e-01 4.407158e-01 4.411690e-01 -2.376951e-01 6.355595e-02 -5.954351e-02 2.640450e-01 2.249105e-01 -1.539735e-01 -4.261600e-01 2.054757e-01
<VARIANCE> 39
 1.392592e+01 4.170478e+01 4.137611e+01 6.092913e+01 4.255472e+01 5.114877e+01 5.603028e+01 4.718223e+01 6.160973e+01 5.772717e+01 4.124100e+01 3.572154e+01 3.970315e+01 7.305554e-01 3.502105e+00 2.081715e+00 2.733210e+00 3.617748e+00 2.671674e+00 2.641816e+00 2.729462e+00 3.009547e+00 3.275921e+00 2.630302e+00 3.488739e+00 2.301256e+00 9.217782e-02 2.427929e-01 2.821929e-01 4.256955e-01 4.549874e-01 6.045724e-01 4.199812e-01 5.205841e-01 4.691384e-01 5.178800e-01 5.656677e-01 5.149071e-01 1.839106e-01
<GCONST> 1.197817e+02
<STATE> 4
<MEAN> 39
 2.596682e+00 -3.095032e+00 -8.627166e+00 -2.125595e+01 -9.682558e+00 7.058648e+00 -1.033071e+01 -7.557494e+00 -2.927836e+00 -1.842370e+00 1.571309e-01 -5.065759e+00 6.568694e+01 -4.745023e-01 -7.566767e-01 -2.781871e-01 8.916693e-01 8.625916e-01 -4.813040e-01 1.694979e-01 -4.152917e-02 5.224337e-01 1.402894e-01 -5.128928e-01 -8.280258e-01 3.565509e-01 -2.574862e-02 6.851156e-02 1.127840e-01 2.131538e-01 -8.901697e-02 -1.937702e-01 -3.812570e-02 1.120525e-01 9.205872e-03 -1.343246e-01 -1.189930e-01 2.650921e-02 -9.437393e-02
<VARIANCE> 39
 2.121658e+01 6.190759e+01 4.758997e+01 6.247722e+01 7.699603e+01 4.830420e+01 5.807524e+01 3.989170e+01 6.038460e+01 5.344606e+01 4.548146e+01 5.347589e+01 5.848172e+01 6.464638e-01 2.035370e+00 1.427403e+00 2.529437e+00 2.891006e+00 2.397979e+00 1.874179e+00 1.890024e+00 2.143519e+00 1.876349e+00 2.115767e+00 3.007557e+00 1.622393e+00 7.810215e-02 2.318309e-01 1.971688e-01 3.098939e-01 4.049879e-01 3.585864e-01 3.187222e-01 3.334984e-01 2.815008e-01 3.607500e-01 3.487222e-01 4.310350e-01 1.642683e-01
<GCONST> 1.142882e+02
<TRANSP> 5
 0.000000e+00 1.000000e+00 0.000000e+00 0.000000e+00 0.000000e+00
 0.000000e+00 6.848003e-01 3.151997e-01 0.000000e+00 0.000000e+00
 0.000000e+00 0.000000e+00 7.721449e-01 2.278551e-01 0.000000e+00
 0.000000e+00 0.000000e+00 0.000000e+00 8.240834e-01 1.759166e-01
 0.000000e+00 0.000000e+00 0.000000e+00 0.000000e+00 0.000000e+00
<ENDHMM>
~h "y"
<BEGINHMM>
<NUMSTATES> 5
<STATE> 2
<MEAN> 39
 -5.511563e+00 -4.060746e+00 4.377748e+00 -6.539685e+00 -1.724211e+01 -8.124456e+00 -9.009226e+00 -1.467247e+00 -4.931829e+00 -3.756615e+00 -2.159343e-01 -5.254770e+00 6.405052e+01 -1.835906e-01 8.605523e-01 2.347643e+00 -7.863241e-02 -1.937648e+00 -6.434429e-01 -6.426140e-01 -6.388508e-01 -1.322906e+00 3.070144e-01 1.713876e+00 4.864621e-01 3.271258e-01 7.581752e-03 -1.306033e-02 -2.369061e-01 -8.203490e-02 3.377197e-01 2.781849e-01 -1.046216e-01 -3.008645e-01 8.350098e-02 2.664300e-02 -6.739592e-02 -5.031196e-02 -2.461377e-02
<VARIANCE> 39
 2.119944e+01 5.942348e+01 8.910836e+01 4.374521e+01 5.901854e+01 6.354769e+01 7.155291e+01 7.867792e+01 7.387197e+01 5.170515e+01 5.108819e+01 3.459088e+01 1.607957e+02 1.385710e+00 2.612074e+00 4.527424e+00 2.169027e+00 3.829550e+00 3.508612e+00 3.540601e+00 4.755771e+00 4.057394e+00 3.468584e+00 3.261867e+00 2.869991e+00 3.970778e+00 1.899677e-01 3.883184e-01 6.705608e-01 3.571661e-01 6.584669e-01 6.212889e-01 6.048333e-01 9.790117e-01 6.951808e-01 5.546787e-01 6.210889e-01 4.423414e-01 3.213682e-01
<GCONST> 1.311730e+02
<STATE> 3
<MEAN> 39
 -5.880527e+00 -2.082297e+00 1.091146e+01 -7.528877e+00 -2.223864e+01 -9.067138e+00 -1.204430e+01 -4.227962e+00 -8.356626e+00 -2.826847e+00 5.014836e+00 -4.265748e+00 6.729572e+01 1.530306e-01 -6.918844e-01 -7.677181e-01 -3.630041e-01 -1.080672e-01 -2.151071e-01 3.239540e-01 8.005659e-01 7.361493e-01 9.338547e-03 -3.453560e-03 -6.168729e-02 5.989977e-01 8.622158e-02 -2.999246e-01 -6.509174e-01 -2.555074e-02 4.262635e-01 1.327705e-01 2.699841e-01 3.511410e-01 4.314939e-01 -1.334876e-01 -4.818727e-01 -2.080191e-01 4.854538e-02
<VARIANCE> 39
 1.143076e+01 3.208830e+01 5.629753e+01 3.659080e+01 4.209415e+01 5.504497e+01 5.245582e+01 6.246653e+01 5.940852e+01 4.772136e+01 4.541730e+01 3.783958e+01 6.585184e+01 5.109296e-01 2.742028e+00 4.642560e+00 1.486391e+00 2.193918e+00 2.140351e+00 3.371858e+00 4.854109e+00 4.476904e+00 2.121163e+00 2.613408e+00 1.589709e+00 1.710062e+00 7.879438e-02 2.250201e-01 2.794900e-01 2.490764e-01 4.959417e-01 4.677020e-01 4.353662e-01 6.005000e-01 4.898910e-01 4.755414e-01 4.661412e-01 3.181774e-01 1.477501e-01
<GCONST> 1.166864e+02
<STATE> 4
<MEAN> 39
 -9.798519e+00 -3.258937e+00 1.082003e-01 -6.420720e+00 -1.014140e+01 -5.438328e+00 -8.192415e+00 -3.167669e+00 -5.018874e+00 -4.492481e+00 -1.399961e+00 -3.403265e+00 4.831173e+01 8.175996e-02 -3.217017e-01 -5.574577e-01 -6.088619e-02 4.390282e-01 1.826605e-01 2.013523e-01 3.088066e-01 3.659738e-01 -1.891847e-01 -4.922412e-01 -2.134663e-01 2.163917e-01 1.106030e-02 4.104520e-02 -2.347232e-02 3.781352e-02 1.237479e-01 8.190568e-02 -5.307997e-02 -1.268585e-01 -4.874153e-02 -9.441515e-03 -6.700093e-02 -3.384176e-02 -3.163755e-02
<VARIANCE> 39
 2.613328e+01 4.252002e+01 6.745992e+01 3.560944e+01 7.276669e+01 3.785044e+01 5.228569e+01 4.927128e+01 4.847440e+01 3.077329e+01 3.210812e+01 2.403255e+01 2.838864e+02 5.134973e-01 1.461047e+00 3.000660e+00 1.188391e+00 2.493212e+00 1.767746e+00 2.121656e+00 2.335269e+00 2.545119e+00 2.139446e+00 2.831250e+00 1.629961e+00 1.216432e+00 8.637930e-02 1.734647e-01 2.332255e-01 2.256026e-01 3.603213e-01 3.312308e-01 3.506525e-01 4.759505e-01 3.969865e-01 3.411246e-01 3.577245e-01 2.753656e-01 1.178674e-01
<GCONST> 1.118251e+02
<TRANSP> 5
 0.000000e+00 1.000000e+00 0.000000e+00 0.000000e+00 0.000000e+00
 0.000000e+00 6.592596e-01 3.407404e-01 0.000000e+00 0.000000e+00
 0.000000e+00 0.000000e+00 7.891936e-01 2.108064e-01 0.000000e+00
 0.000000e+00 0.000000e+00 0.000000e+00 8.725797e-01 1.274203e-01
 0.000000e+00 0.000000e+00 0.000000e+00 0.000000e+00 0.000000e+00
<ENDHMM>
~h "z"
<BEGINHMM>
<NUMSTATES> 5
<STATE> 2
<MEAN> 39
 -1.028755e+01 6.929819e+00 -2.804135e-01 -1.612316e-02 -5.288559e+00 -1.087625e+01 -9.894830e+00 -4.364477e+00 -1.859843e+00 -4.085415e+00 -5.403499e+00 -3.451480e-01 6.176111e+01 -2.089945e+00 2.152149e+00 -1.864367e-01 5.950823e-01 1.651232e+00 -7.191422e-02 6.308932e-01 3.597344e-01 8.198027e-03 -1.312785e-01 1.929290e-01 5.668523e-01 -3.779685e-01 -2.075479e-01 -1.734560e-01 -3.791949e-02 -1.529024e-01 -7.062400e-02 3.528157e-01 1.088089e-01 7.723720e-02 -1.650956e-02 8.092231e-02 1.923312e-01 -2.203770e-01 1.675675e-02
<VARIANCE> 39
 5.187550e+01 4.447483e+01 4.435992e+01 4.273056e+01 5.431338e+01 4.485733e+01 5.177874e+01 4.330031e+01 4.753926e+01 3.862145e+01 3.018851e+01 2.503260e+01 1.192811e+02 3.809845e+00 2.789681e+00 2.510074e+00 2.439382e+00 3.692579e+00 3.071343e+00 3.493633e+00 3.973263e+00 3.367854e+00 2.690094e+00 2.733508e+00 2.276925e+00 2.689712e+00 4.950754e-01 4.654017e-01 3.992404e-01 3.580062e-01 5.991226e-01 4.989370e-01 6.846043e-01 5.990812e-01 5.660870e-01 5.004829e-01 4.503628e-01 4.287542e-01 2.874203e-01
<GCONST> 1.259977e+02
<STATE> 3
<MEAN> 39
 -1.970965e+01 1.287409e+01 -3.124540e-01 1.926605e+00 -5.068733e-01 -9.424966e+00 -6.833470e+00 -3.232282e+00 -2.062793e+00 -4.157815e+00 -3.069087e+00 4.631035e-01 6.226514e+01 -7.387003e-01 -2.436884e-01 1.404672e-01 1.139718e-01 6.536243e-03 1.921172e-01 4.887899e-02 1.708343e-02 -1.396456e-01 4.913773e-02 2.972076e-01 4.053422e-03 2.482082e-01 6.553118e-01 -5.167313e-01 5.543398e-02 -1.483320e-01 -5.130075e-01 -1.222509e-01 -2.364351e-01 -1.619324e-01 -6.280528e-03 9.971386e-03 -5.458575e-02 -8.809558e-02 2.126672e-01
<VARIANCE> 39
 5.561581e+01 3.270880e+01 3.596066e+01 4.718020e+01 4.087739e+01 3.952006e+01 3.952940e+01 2.891686e+01 2.940257e+01 2.611992e+01 2.376809e+01 1.728411e+01 5.373575e+01 4.741398e+00 2.650819e+00 1.635305e+00 1.702746e+00 3.274149e+00 2.337136e+00 2.601018e+00 2.194833e+00 2.232788e+00 1.627760e+00 1.600031e+00 1.458729e+00 1.785179e+00 5.234538e-01 3.100338e-01 2.738444e-01 3.208413e-01 4.828839e-01 4.290558e-01 4.642985e-01 4.599020e-01 4.368247e-01 3.327756e-01 2.997035e-01 3.211727e-01 2.084720e-01
<GCONST> 1.145387e+02
<STATE> 4
<MEAN> 39
 -1.724233e+01 2.658399e+00 -2.543806e+00 -2.567298e+00 -2.782744e+00 -4.983119e+00 -7.469691e+00 -3.595210e+00 -3.709800e+00 -4.885166e+00 -2.427836e+00 -1.773692e+00 4.593876e+01 6.039026e-01 -4.175498e-01 7.161089e-02 -1.513001e-01 -5.205725e-01 -1.553161e-01 -2.762452e-01 -1.452432e-01 4.698079e-02 3.283701e-02 2.002535e-02 -6.726490e-02 2.519689e-01 1.863205e-01 -7.377039e-02 6.857936e-03 -5.563008e-02 -1.102675e-01 1.893089e-02 -5.288383e-02 -2.811273e-02 2.868480e-02 5.436537e-03 -8.965977e-03 -6.482401e-02 4.124970e-02
<VARIANCE> 39
 6.899595e+01 6.105396e+01 4.395359e+01 2.996200e+01 3.270994e+01 3.613848e+01 4.352729e+01 2.818818e+01 2.933140e+01 2.531722e+01 2.552057e+01 1.836648e+01 2.147494e+02 3.775659e+00 2.322454e+00 1.525430e+00 1.541505e+00 2.770905e+00 2.000702e+00 2.234760e+00 2.300645e+00 2.179077e+00 1.839612e+00 1.659209e+00 1.574064e+00 1.681521e+00 3.735120e-01 2.606466e-01 2.586931e-01 2.506089e-01 3.478463e-01 3.994691e-01 3.814006e-01 4.277079e-01 3.854110e-01 3.611692e-01 3.225646e-01 3.145654e-01 1.610530e-01
<GCONST> 1.138293e+02
<TRANSP> 5
 0.000000e+00 1.000000e+00 0.000000e+00 0.000000e+00 0.000000e+00
 0.000000e+00 7.386339e-01 2.613662e-01 0.000000e+00 0.000000e+00
 0.000000e+00 0.000000e+00 7.970313e-01 2.029687e-01 0.000000e+00
 0.000000e+00 0.000000e+00 0.000000e+00 9.096652e-01 9.033478e-02
 0.000000e+00 0.000000e+00 0.000000e+00 0.000000e+00 0.000000e+00
<ENDHMM>
~h "ai"
<BEGINHMM>
<NUMSTATES> 5
<STATE> 2
<MEAN> 39
 -2.959599e+00 -1.276452e+01 -6.936988e+00 -8.970155e+00 -1.100815e+01 -6.268312e+00 -7.203131e+00 1.218883e+00 2.716280e+00 -5.759913e+00 -5.794365e+00 -9.425102e+00 7.232340e+01 -3.288355e-01 -3.990858e-01 1.027501e+00 3.048283e-02 -1.676707e+00 -9.969491e-01 1.158506e+00 1.291125e+00 -2.606946e-01 -7.025630e-01 3.888214e-01 3.827939e-01 6.589975e-01 -1.266223e-01 5.084912e-01 4.632553e-01 5.795875e-02 -2.173263e-01 3.745617e-02 -8.002011e-02 -4.224290e-01 -4.484233e-01 3.101991e-01 3.897590e-01 2.502802e-01 -4.842388e-01
<VARIANCE> 39
 1.220401e+01 2.546767e+01 6.109460e+01 4.617055e+01 5.755870e+01 6.203651e+01 9.057090e+01 5.897380e+01 4.921371e+01 5.061086e+01 4.392346e+01 3.793447e+01 3.659027e+01 9.218770e-01 1.880250e+00 3.411252e+00 2.098360e+00 3.630666e+00 3.267133e+00 3.379086e+00 3.807131e+00 3.860161e+00 3.151783e+00 3.549657e+00 2.619240e+00 1.861111e+00 2.442611e-01 2.173059e-01 3.700489e-01 4.554565e-01 6.116453e-01 5.030709e-01 6.626601e-01 7.234593e-01 5.628811e-01 6.223368e-01 6.138341e-01 5.739753e-01 2.758943e-01
<GCONST> 1.238487e+02
<STATE> 3
<MEAN> 39
 -4.408418e+00 -9.769294e+00 1.879723e+00 -9.130451e+00 -2.072771e+01 -1.090344e+01 -5.350544e+00 2.273317e+00 -2.327165e+00 -3.157005e+00 3.421596e-01 -6.863039e+00 7.189765e+01 -2.417198e-01 1.005061e+00 1.672664e+00 -2.364414e-02 -1.280159e+00 -3.432643e-01 -2.436309e-01 -1.108617e+00 -1.232205e+00 9.295580e-01 1.248559e+00 2.488191e-01 -5.371744e-01 5.568380e-02 1.600854e-01 -1.260119e-01 1.361298e-01 4.469398e-01 2.342733e-01 -3.045308e-01 -3.464196e-01 -5.916370e-02 1.589326e-02 -2.371828e-01 -7.107995e-02 -2.475628e-01
<VARIANCE> 39
 9.535976e+00 1.993465e+01 4.744348e+01 3.754239e+01 4.523308e+01 5.164758e+01 6.831834e+01 5.834508e+01 4.488683e+01 4.851966e+01 5.023905e+01 3.011007e+01 2.731681e+01 4.019288e-01 1.076381e+00 2.192276e+00 1.132383e+00 2.301838e+00 1.674356e+00 2.862480e+00 2.759605e+00 2.298383e+00 2.360643e+00 2.290970e+00 1.403149e+00 7.153962e-01 7.196896e-02 1.290217e-01 2.460832e-01 1.877276e-01 3.613543e-01 3.126713e-01 4.014327e-01 4.870477e-01 3.557380e-01 3.976795e-01 4.226853e-01 2.481981e-01 1.220922e-01
<GCONST> 1.069030e+02
<STATE> 4
<MEAN> 39
 -6.335455e+00 -1.497030e+00 9.355223e+00 -6.433346e+00 -2.161163e+01 -7.846416e+00 -8.570592e+00 -6.694820e+00 -8.941713e+00 -6.125492e-01 2.130905e+00 -6.334243e+00 6.086142e+01 2.656340e-02 7.272050e-01 -1.415966e-01 5.805358e-01 7.996651e-01 3.138175e-01 -7.121472e-03 -3.882797e-01 -1.374157e-01 -2.862739e-02 -4.236092e-01 9.976421e-02 -1.433728e+00 2.432356e-02 -7.106533e-02 -2.970006e-01 4.168255e-02 2.820168e-01 4.872094e-02 1.220284e-01 1.780165e-01 2.209433e-01 -1.150944e-01 -1.545224e-01 1.444436e-02 -9.127805e-02
<VARIANCE> 39
 1.859958e+01 2.990071e+01 4.758339e+01 3.791798e+01 4.805265e+01 5.440244e+01 5.494905e+01 6.863017e+01 4.885107e+01 3.997421e+01 4.946798e+01 3.089296e+01 1.217309e+02 9.838300e-01 1.633315e+00 2.574358e+00 1.864830e+00 2.850407e+00 2.177040e+00 2.887682e+00 3.060269e+00 3.054684e+00 2.166812e+00 2.111168e+00 1.492105e+00 2.294194e+00 1.563211e-01 2.297107e-01 3.140654e-01 3.047934e-01 4.570042e-01 4.031334e-01 4.712211e-01 4.591491e-01 4.709722e-01 3.972156e-01 3.920096e-01 2.704949e-01 3.270223e-01
<GCONST> 1.172925e+02
<TRANSP> 5
 0.000000e+00 1.000000e+00 0.000000e+00 0.000000e+00 0.000000e+00
 0.000000e+00 7.533454e-01 2.466546e-01 0.000000e+00 0.000000e+00
 0.000000e+00 0.000000e+00 7.771748e-01 2.228252e-01 0.000000e+00
 0.000000e+00 0.000000e+00 0.000000e+00 8.769675e-01 1.230325e-01
 0.000000e+00 0.000000e+00 0.000000e+00 0.000000e+00 0.000000e+00
<ENDHMM>
~h "au"
<BEGINHMM>
<NUMSTATES> 5
<STATE> 2
<MEAN> 39
 1.627479e-02 -7.508985e+00 -1.298846e+01 -1.895750e+01 -7.628236e+00 6.057758e+00 -7.749282e+00 -4.944046e+00 3.929068e-01 2.932705e+00 -4.673332e+00 -9.495373e+00 7.369406e+01 2.236685e-01 5.425928e-01 -1.001822e-01 -8.988943e-01 -2.376823e-01 8.323813e-01 -3.990198e-01 -5.605105e-02 -3.378538e-01 -1.216312e-01 8.899352e-01 3.114552e-01 -2.545598e-01 -3.502141e-03 2.806261e-01 2.049423e-01 7.560743e-02 -1.832880e-01 -1.610140e-01 -1.307597e-01 4.641340e-02 -1.984968e-01 -8.594699e-02 1.090107e-01 2.961398e-01 -2.280641e-01
<VARIANCE> 39
 1.250127e+01 2.632907e+01 3.175616e+01 4.872239e+01 4.169740e+01 5.761992e+01 6.938452e+01 6.874237e+01 4.576677e+01 8.163315e+01 6.904234e+01 4.801963e+01 3.178394e+01 4.565189e-01 1.468325e+00 1.110020e+00 1.923150e+00 2.144246e+00 2.988532e+00 2.465961e+00 2.446338e+00 2.121766e+00 2.781196e+00 2.112511e+00 3.171852e+00 6.247330e-01 1.194528e-01 2.321754e-01 1.904357e-01 3.366127e-01 3.476250e-01 5.302418e-01 3.996600e-01 4.148216e-01 4.069263e-01 5.372425e-01 4.316423e-01 5.362456e-01 1.520964e-01
<GCONST> 1.133959e+02
<STATE> 3
<MEAN> 39
 2.811102e+00 2.012620e+00 -1.025303e+01 -2.342273e+01 -1.338475e+01 8.366309e+00 -1.338328e+01 -3.159472e+00 -3.903739e+00 -1.866880e+00 2.062025e-01 -3.004258e+00 6.645898e+01 2.858113e-01 1.062347e+00 5.689037e-01 3.782804e-01 -5.042096e-01 -4.891206e-01 -4.540766e-01 9.844884e-02 -6.529102e-01 -2.412625e-01 -1.296060e-01 6.079813e-01 -1.221874e+00 -8.386637e-02 -1.677272e-01 3.021663e-02 4.226274e-01 1.892537e-01 -1.894874e-01 1.125086e-01 -1.153955e-01 1.084203e-01 5.168547e-02 -1.560344e-01 -1.829406e-01 -8.514217e-02
<VARIANCE> 39
 1.368104e+01 3.974888e+01 3.006666e+01 4.269209e+01 4.906649e+01 5.247230e+01 5.902118e+01 6.459243e+01 5.009400e+01 7.602771e+01 4.603431e+01 4.219619e+01 6.088811e+01 5.300359e-01 1.432584e+00 9.302080e-01 2.757497e+00 2.428316e+00 2.031996e+00 2.539004e+00 2.524914e+00 1.950325e+00 2.329507e+00 2.410445e+00 2.533507e+00 9.725401e-01 7.541084e-02 1.988809e-01 1.662193e-01 3.792876e-01 3.724774e-01 3.665775e-01 3.947034e-01 3.999915e-01 3.195221e-01 3.905922e-01 4.131162e-01 4.100534e-01 1.233636e-01
<GCONST> 1.118246e+02
<STATE> 4
<MEAN> 39
 -8.125931e+00 5.611233e-01 -6.212487e+00 -7.411250e+00 -6.182186e+00 -1.536065e+00 -6.695994e+00 -4.857132e+00 -5.147829e+00 -3.456899e+00 -3.131027e+00 -2.212894e+00 4.027130e+01 -2.781087e-01 -1.304808e-01 1.310865e-01 6.338054e-01 2.286430e-01 -2.630705e-01 8.955799e-02 -1.196598e-01 5.955179e-02 5.883731e-02 -2.781057e-02 8.426170e-03 -5.093822e-01 -2.299901e-02 -4.520209e-02 1.331534e-02 2.870233e-02 2.510083e-02 -1.233910e-02 1.050168e-02 1.239918e-02 2.227928e-02 -1.354248e-02 -1.518570e-02 -4.082815e-02 6.460067e-02
<VARIANCE> 39
 5.686229e+01 3.284880e+01 2.475754e+01 6.177777e+01 3.792703e+01 3.938071e+01 4.489426e+01 3.272411e+01 3.112561e+01 3.818277e+01 3.121950e+01 2.198965e+01 1.421799e+02 7.613068e-01 1.245932e+00 1.152660e+00 2.591559e+00 1.845357e+00 2.011367e+00 2.000467e+00 2.206548e+00 2.109796e+00 1.966350e+00 1.876495e+00 1.595814e+00 1.126364e+00 1.199644e-01 2.124811e-01 2.057325e-01 3.647808e-01 3.478109e-01 3.279116e-01 3.906356e-01 3.942017e-01 4.198870e-01 3.848649e-01 3.391476e-01 3.169639e-01 1.491058e-01
<GCONST> 1.099322e+02
<TRANSP> 5
 0.000000e+00 1.000000e+00 0.000000e+00 0.000000e+00 0.000000e+00
