~o
<STREAMINFO> 1 39
<VECSIZE> 39<NULLD><MFCC_D_A_0><DIAGC>
~s "silst"
<MEAN> 39
 -1.198085e+01 -1.029321e+00 -6.141714e-01 1.612517e+00 -2.675591e+00 -2.140239e+00 -2.672936e+00 7.169130e-01 -2.161003e+00 -2.803700e+00 -1.462618e+00 5.897889e-01 3.788254e+01 -1.410078e-02 -1.876810e-02 -4.601691e-02 2.845386e-02 -3.377654e-02 -9.406708e-02 2.986359e-02 7.090523e-02 6.943406e-03 -3.755797e-02 3.572992e-02 8.281947e-02 -1.371758e-01 2.373889e-02 3.683939e-02 -2.086150e-02 -5.737662e-02 5.169385e-03 -5.612332e-03 -3.857809e-02 -8.515774e-02 -2.922898e-03 4.672491e-03 -1.610656e-02 -6.390545e-02 -1.990289e-02
<VARIANCE> 39
 1.766856e+01 2.472214e+01 2.905444e+01 4.414199e+01 2.719079e+01 4.157913e+01 2.707495e+01 5.326005e+01 3.591949e+01 3.362549e+01 2.565753e+01 2.957373e+01 2.588567e+01 1.203297e+00 2.508088e+00 2.223741e+00 3.391001e+00 2.629157e+00 3.394567e+00 2.498710e+00 4.343029e+00 2.912586e+00 2.994800e+00 2.281553e+00 2.621565e+00 1.444857e+00 2.247192e-01 4.702811e-01 4.202602e-01 6.279302e-01 5.162067e-01 6.450244e-01 4.993044e-01 8.000270e-01 5.716340e-01 5.851319e-01 4.528737e-01 4.927001e-01 2.711443e-01
<GCONST> 1.187230e+02
~h "@"
<BEGINHMM>
<NUMSTATES> 5
<STATE> 2
<MEAN> 39
 -2.497256e+00 -4.143763e+00 -4.514354e+00 -7.634213e+00 -9.575742e+00 -3.308011e+00 -1.151993e+01 -6.572700e+00 -1.752126e+00 -1.010515e+00 -1.462240e+00 -6.227179e+00 6.206692e+01 1.803434e+00 -9.937672e-01 -4.109046e-01 -1.247160e+00 -1.090420e+00 5.037171e-01 -9.300365e-01 2.803945e-01 1.218640e+00 6.037641e-01 6.908897e-01 -1.228224e+00 2.339282e+00 -4.056419e-01 1.765905e-01 1.535188e-01 3.055948e-01 2.350832e-01 4.722718e-02 2.867211e-01 -4.625491e-02 -1.752308e-01 -1.349677e-01 -8.224473e-02 1.568141e-01 -6.666924e-01
<VARIANCE> 39
 4.484145e+01 3.372091e+01 5.760249e+01 5.974961e+01 5.557145e+01 7.658327e+01 6.711382e+01 6.519450e+01 7.585290e+01 4.612280e+01 4.754044e+01 3.722723e+01 1.373430e+02 6.036294e+00 3.463297e+00 5.356360e+00 4.977814e+00 5.540438e+00 5.656693e+00 5.892308e+00 7.720835e+00 6.738707e+00 4.618993e+00 5.010281e+00 4.252636e+00 5.387555e+00 9.629923e-01 6.267942e-01 8.164105e-01 9.343235e-01 8.816497e-01 8.566151e-01 9.010928e-01 9.834157e-01 9.553093e-01 7.020693e-01 9.137418e-01 6.817276e-01 1.599112e+00
<GCONST> 1.446296e+02
<STATE> 3
<MEAN> 39
 -3.675150e-01 -6.972389e+00 -6.054188e+00 -1.051614e+01 -1.157817e+01 -2.566046e+00 -1.360824e+01 -4.800707e+00 2.204312e+00 2.930676e-01 -2.584426e-01 -8.706458e+00 6.894780e+01 4.670231e-01 -1.671986e-01 2.038703e-01 6.830914e-02 -1.846947e-01 1.697025e-01 3.215370e-02 6.213595e-02 3.534711e-01 1.111049e-01 1.350112e-01 -3.668448e-01 1.155367e-01 -5.193052e-01 6.227711e-01 4.559817e-01 7.813694e-01 4.741303e-01 -1.951626e-01 5.064286e-01 -3.987452e-01 -7.416202e-01 -3.316909e-01 -3.440882e-01 5.759106e-01 -1.176927e+00
<VARIANCE> 39
 1.835106e+01 2.818435e+01 6.185158e+01 5.899414e+01 5.602584e+01 8.833431e+01 7.821209e+01 7.558122e+01 7.512277e+01 5.007701e+01 5.361810e+01 4.539393e+01 3.950242e+01 1.789862e+00 2.077883e+00 2.735447e+00 3.670525e+00 3.593590e+00 4.642323e+00 4.012169e+00 5.142116e+00 5.476202e+00 3.293088e+00 3.875245e+00 3.003256e+00 3.008749e+00 6.068164e-01 4.688976e-01 8.164901e-01 8.196446e-01 9.520902e-01 1.005679e+00 1.093228e+00 1.186294e+00 1.134366e+00 7.947472e-01 9.921588e-01 8.011810e-01 5.830978e-01
<GCONST> 1.366205e+02
<STATE> 4
<MEAN> 39
 -1.576474e+00 -6.217458e+00 -3.934585e+00 -9.127487e+00 -1.267096e+01 -5.364063e+00 -1.144630e+01 -5.320245e+00 6.286929e-01 -1.132400e-01 -1.037056e-01 -8.359988e+00 6.642026e+01 8.779585e-02 6.359744e-01 3.953724e-01 6.949756e-01 3.191808e-01 -4.897659e-02 3.567706e-01 -4.269030e-01 -4.708827e-01 -1.954216e-01 -3.255840e-01 2.554958e-01 -1.126298e+00 -9.649231e-02 2.203814e-01 1.167303e-01 2.380448e-01 1.376813e-01 -9.181001e-03 7.066447e-02 -1.371115e-01 -1.987735e-01 -9.169693e-02 -1.558489e-01 1.584747e-01 -3.863318e-01
<VARIANCE> 39
 2.078749e+01 3.533544e+01 7.932044e+01 5.696838e+01 7.188818e+01 7.690538e+01 9.630170e+01 7.771913e+01 8.213261e+01 4.931666e+01 5.091697e+01 4.391551e+01 7.430721e+01 1.056427e+00 1.964335e+00 2.244679e+00 2.762498e+00 2.930993e+00 2.861129e+00 3.061544e+00 3.393057e+00 3.763052e+00 2.552453e+00 2.804873e+00 2.280359e+00 3.913588e+00 2.829730e-01 3.097106e-01 3.852329e-01 4.443845e-01 5.327996e-01 5.088422e-01 5.838082e-01 7.445329e-01 6.863230e-01 4.616373e-01 5.384548e-01 4.439943e-01 4.367973e-01
<GCONST> 1.273158e+02
<TRANSP> 5
 0.000000e+00 1.000000e+00 0.000000e+00 0.000000e+00 0.000000e+00
 0.000000e+00 4.236109e-01 5.763891e-01 0.000000e+00 0.000000e+00
 0.000000e+00 0.000000e+00 3.162760e-01 6.837239e-01 0.000000e+00
 0.000000e+00 0.000000e+00 0.000000e+00 6.685843e-01 3.314158e-01
 0.000000e+00 0.000000e+00 0.000000e+00 0.000000e+00 0.000000e+00
<ENDHMM>
~h "a"
<BEGINHMM>
<NUMSTATES> 5
<STATE> 2
<MEAN> 39
 -1.989834e+00 -1.061155e+01 -9.990206e+00 -1.081101e+01 -8.188978e+00 -1.810249e+00 -8.086002e+00 -1.906875e+00 3.403051e+00 -3.402973e+00 -5.176751e+00 -9.986393e+00 7.049864e+01 2.115024e-01 -1.548789e+00 -1.585592e+00 -3.278908e-01 1.144894e+00 6.733894e-01 9.623023e-01 4.112737e-01 8.464234e-01 -9.502180e-01 -1.084946e+00 -1.181619e+00 1.675688e+00 -2.981147e-01 4.292158e-01 4.028854e-01 4.830260e-01 1.761578e-01 -1.739434e-01 -2.997979e-02 -3.794831e-01 -4.801690e-01 -1.646046e-02 1.165805e-01 4.075130e-01 -6.801342e-01
<VARIANCE> 39
 1.901859e+01 2.828417e+01 5.470718e+01 5.200597e+01 7.389491e+01 7.267809e+01 6.271179e+01 7.682342e+01 4.862875e+01 4.945789e+01 5.552628e+01 4.405943e+01 7.176567e+01 1.873991e+00 1.951874e+00 2.822674e+00 3.258665e+00 3.698552e+00 3.984519e+00 4.046693e+00 4.457064e+00 3.516898e+00 3.313305e+00 3.882112e+00 3.051086e+00 4.161820e+00 4.329693e-01 3.945438e-01 4.715394e-01 5.036263e-01 7.114340e-01 6.250379e-01 6.945833e-01 8.120736e-01 6.471775e-01 5.970201e-01 7.226036e-01 5.596464e-01 8.072340e-01
<GCONST> 1.316419e+02
<STATE> 3
<MEAN> 39
 -2.404104e+00 -1.314527e+01 -1.349353e+01 -9.257561e+00 -5.321138e+00 -1.104449e+00 -5.197601e+00 -3.637722e+00 3.708364e+00 -6.036836e+00 -6.860412e+00 -1.186197e+01 7.273479e+01 9.884801e-02 2.764261e-01 7.308622e-02 3.107733e-01 5.297252e-02 -2.640283e-01 2.196534e-02 -4.975183e-02 -1.402194e-01 1.041602e-01 -9.734140e-02 9.952447e-02 -3.751264e-01 8.243936e-02 4.334810e-01 3.904800e-01 8.633335e-02 -2.468607e-01 -1.174910e-01 -2.778400e-01 -6.332913e-02 -1.448075e-01 2.725271e-01 2.011633e-01 2.397971e-01 -4.842122e-01
<VARIANCE> 39
 1.122407e+01 2.017548e+01 4.549495e+01 5.304379e+01 5.106738e+01 5.466354e+01 6.048400e+01 5.687285e+01 3.460392e+01 4.273410e+01 4.073526e+01 3.629920e+01 2.566828e+01 4.678377e-01 1.042263e+00 1.305050e+00 1.393411e+00 2.239263e+00 2.181144e+00 2.103882e+00 2.471880e+00 1.813927e+00 1.967606e+00 1.990991e+00 1.636718e+00 8.960166e-01 9.158971e-02 1.629881e-01 2.044626e-01 2.577085e-01 3.269449e-01 3.396133e-01 3.832837e-01 4.338472e-01 3.674723e-01 3.277322e-01 3.655563e-01 3.181123e-01 1.953922e-01
<GCONST> 1.072266e+02
<STATE> 4
<MEAN> 39
 -4.405090e+00 -7.263317e+00 -9.611094e+00 -6.606020e+00 -3.777162e+00 -2.447732e+00 -7.094005e+00 -3.121683e+00 3.058152e-01 -4.026164e+00 -6.975766e+00 -7.409880e+00 5.546225e+01 -6.141796e-02 8.832756e-01 6.731977e-01 5.028939e-01 -1.455756e-01 -1.096621e-01 -2.453446e-01 -2.003138e-01 -3.493018e-01 2.519996e-01 2.375070e-01 4.654452e-01 -1.794579e+00 -7.253596e-02 6.328283e-02 1.268219e-01 7.358229e-02 1.618528e-02 3.147341e-02 1.641720e-02 -1.125641e-01 -9.120964e-02 -4.435108e-02 1.559855e-02 5.250968e-02 -7.318381e-02
<VARIANCE> 39
 3.846484e+01 3.257950e+01 3.755098e+01 5.553812e+01 5.348226e+01 5.070501e+01 5.380185e+01 5.471022e+01 4.573708e+01 4.803674e+01 4.571655e+01 4.335686e+01 2.167102e+02 1.056931e+00 1.992991e+00 2.035684e+00 2.082752e+00 2.407221e+00 2.319743e+00 2.717210e+00 2.727484e+00 2.471514e+00 2.405357e+00 2.455852e+00 2.175203e+00 3.320166e+00 1.757600e-01 3.162293e-01 3.304131e-01 3.876370e-01 4.285667e-01 4.328860e-01 4.458268e-01 5.579474e-01 4.667610e-01 4.424894e-01 4.535232e-01 4.118791e-01 4.576520e-01
<GCONST> 1.215245e+02
<TRANSP> 5
 0.000000e+00 1.000000e+00 0.000000e+00 0.000000e+00 0.000000e+00
 0.000000e+00 5.854400e-01 4.145599e-01 0.000000e+00 0.000000e+00
 0.000000e+00 0.000000e+00 7.810558e-01 2.189442e-01 0.000000e+00
 0.000000e+00 0.000000e+00 0.000000e+00 7.270303e-01 2.729697e-01
 0.000000e+00 0.000000e+00 0.000000e+00 0.000000e+00 0.000000e+00
<ENDHMM>
~h "b"
<BEGINHMM>
<NUMSTATES> 5
<STATE> 2
<MEAN> 39
 2.293677e+00 5.694858e+00 1.348747e+00 -2.781621e+00 -5.599556e+00 1.347023e+00 -6.899939e+00 -1.000533e+01 -8.715262e+00 -3.745766e+00 -3.645379e+00 -6.085632e+00 4.715352e+01 7.720022e-01 1.305181e+00 6.390375e-01 2.945654e-01 4.573824e-01 3.714682e-01 6.260417e-01 -1.029950e-01 -5.000302e-01 -2.146876e-01 -2.973113e-01 -1.935326e-01 -9.699003e-01 -2.956981e-01 -3.924641e-01 -1.992561e-01 -2.378512e-01 -1.877190e-01 -2.163232e-01 -2.357579e-01 1.137754e-01 2.287520e-01 7.637340e-02 1.527525e-01 1.173971e-01 6.558753e-01
<VARIANCE> 39
 5.481428e+01 3.311626e+01 3.126242e+01 3.795020e+01 3.148344e+01 3.731142e+01 3.562953e+01 5.146618e+01 5.112034e+01 3.214095e+01 4.155365e+01 2.689636e+01 7.198248e+01 2.349179e+00 2.292572e+00 2.184883e+00 2.798440e+00 2.424447e+00 2.489622e+00 2.642061e+00 3.422788e+00 3.135127e+00 2.479693e+00 2.774517e+00 2.149585e+00 4.941710e+00 4.027320e-01 4.798386e-01 3.898514e-01 4.768767e-01 4.695112e-01 4.843061e-01 4.993348e-01 6.152071e-01 6.283825e-01 4.691796e-01 5.605029e-01 4.292171e-01 5.495942e-01
<GCONST> 1.232385e+02
<STATE> 3
<MEAN> 39
 4.652744e+00 7.831417e+00 2.915356e+00 -3.034663e+00 -5.323927e+00 2.316051e+00 -5.957100e+00 -1.001793e+01 -9.851229e+00 -4.744004e+00 -3.534480e+00 -5.609615e+00 4.921282e+01 -1.290500e+00 -1.962924e+00 -1.230383e+00 -9.170844e-01 -1.854171e-01 -1.100631e+00 -1.399098e+00 2.644108e-01 1.144978e+00 5.416225e-01 1.227432e+00 8.029224e-01 3.142495e+00 -3.968952e-01 -1.042707e+00 -6.030110e-01 -6.612092e-01 -6.861929e-01 -1.321837e-01 -7.472937e-01 1.069878e-01 6.450305e-01 4.136245e-01 3.602371e-01 -1.303117e-01 1.463007e+00
<VARIANCE> 39
 2.441229e+01 2.528289e+01 2.265391e+01 2.870264e+01 2.929207e+01 3.310114e+01 2.709758e+01 4.343088e+01 4.329144e+01 3.004204e+01 4.159010e+01 2.342919e+01 4.125731e+01 2.424195e+00 3.382482e+00 3.511302e+00 5.233823e+00 3.845898e+00 3.951399e+00 3.660627e+00 3.943301e+00 5.148443e+00 3.759721e+00 4.916886e+00 2.899203e+00 5.246078e+00 4.339340e-01 4.722152e-01 6.254631e-01 7.256118e-01 6.264721e-01 8.005792e-01 6.093267e-01 7.304327e-01 1.114050e+00 7.905091e-01 8.385925e-01 7.257406e-01 4.857626e-01
<GCONST> 1.287626e+02
<STATE> 4
<MEAN> 39
 9.804465e-02 -2.488025e+00 -4.436766e+00 -9.803511e+00 -8.181525e+00 -3.094765e-01 -1.359530e+01 -9.552512e+00 -3.135849e+00 1.048891e+00 1.806314e+00 -4.828165e+00 6.405810e+01 -8.255188e-01 -2.825678e+00 -1.749967e+00 -2.004600e+00 -1.601964e+00 -3.537793e-01 -1.901584e+00 9.019729e-01 2.527057e+00 1.383619e+00 3.973994e-01 -1.113673e+00 4.242490e+00 2.350319e-01 4.668327e-01 4.385441e-01 4.181527e-01 -7.780588e-02 2.366434e-01 5.618279e-01 2.093077e-01 -1.994225e-01 -5.271837e-01 -7.169112e-01 -3.598727e-01 -7.151796e-01
<VARIANCE> 39
 2.614658e+01 2.819597e+01 4.002658e+01 9.041558e+01 3.711535e+01 5.148563e+01 4.780468e+01 4.221341e+01 4.826668e+01 5.762492e+01 4.343825e+01 3.615279e+01 6.375710e+01 2.339388e+00 3.721118e+00 5.890364e+00 7.430556e+00 5.649964e+00 6.062819e+00 5.201693e+00 5.489600e+00 8.907525e+00 6.346251e+00 7.194667e+00 5.969359e+00 5.301256e+00 4.038646e-01 5.388569e-01 5.313572e-01 1.422536e+00 1.112934e+00 8.896164e-01 8.870541e-01 7.794351e-01 1.051158e+00 9.889638e-01 1.125940e+00 8.117329e-01 8.059595e-01
<GCONST> 1.409245e+02
<TRANSP> 5
 0.000000e+00 1.000000e+00 0.000000e+00 0.000000e+00 0.000000e+00
 0.000000e+00 7.785603e-01 2.214397e-01 0.000000e+00 0.000000e+00
 0.000000e+00 0.000000e+00 5.402863e-01 4.597137e-01 0.000000e+00
 0.000000e+00 0.000000e+00 0.000000e+00 5.088380e-01 4.911620e-01
 0.000000e+00 0.000000e+00 0.000000e+00 0.000000e+00 0.000000e+00
<ENDHMM>
~h "c"
<BEGINHMM>
<NUMSTATES> 5
<STATE> 2
<MEAN> 39
 -9.063269e+00 2.165771e+00 -8.165573e-01 -1.425788e+00 -6.142639e+00 -7.265199e+00 -6.796112e+00 -3.864224e+00 -3.334840e+00 -3.597058e+00 -4.497766e+00 -2.968227e+00 4.362549e+01 -1.465967e+00 -1.415839e-01 -3.859489e-01 -4.022367e-01 6.120944e-01 1.581904e-01 2.532533e-01 -3.852908e-02 1.117687e-01 1.318098e-01 2.564183e-01 9.505647e-02 -1.069775e+00 -4.654853e-01 -3.046201e-01 -1.684337e-01 -3.303488e-01 -5.173633e-02 7.930586e-02 -3.883996e-02 4.275706e-04 8.695932e-03 5.428845e-02 1.621861e-01 7.704575e-02 9.774147e-01
<VARIANCE> 39
 4.355359e+01 3.315414e+01 3.835546e+01 2.496061e+01 4.069454e+01 4.346654e+01 4.813315e+01 4.514003e+01 3.708970e+01 3.032562e+01 2.842921e+01 2.192580e+01 1.227005e+02 4.489165e+00 4.000287e+00 2.767799e+00 2.862464e+00 3.872614e+00 2.976510e+00 3.388854e+00 3.364048e+00 3.032136e+00 2.409742e+00 2.516012e+00 2.211445e+00 1.069280e+01 7.322137e-01 6.499957e-01 5.033509e-01 4.969755e-01 7.256259e-01 5.856532e-01 6.672935e-01 6.327150e-01 5.872185e-01 4.648157e-01 4.829132e-01 4.867708e-01 1.550610e+00
<GCONST> 1.290054e+02
<STATE> 3
<MEAN> 39
 -2.437327e+01 -5.137461e-01 -3.742331e+00 -7.528457e+00 -3.086450e+00 -5.514907e+00 -5.958214e+00 -3.997301e+00 -2.990251e+00 -1.860549e+00 -5.352365e-01 -6.343628e-01 5.608229e+01 -2.594375e+00 -1.245871e-02 -1.476730e-01 -1.130489e+00 -3.869599e-01 -1.727222e-01 1.513231e-02 3.981396e-01 4.247917e-02 1.068335e-01 6.305287e-01 5.626289e-01 4.570880e+00 1.684121e+00 1.430696e-01 4.493936e-01 4.657968e-01 -7.108533e-01 -3.366218e-01 -2.514163e-01 9.423949e-02 8.279068e-02 -2.403880e-01 -3.561051e-01 -2.689716e-01 -1.988112e-01
<VARIANCE> 39
 4.710810e+01 3.352256e+01 2.994411e+01 2.448035e+01 3.232520e+01 4.066539e+01 3.808404e+01 2.642473e+01 2.475817e+01 1.955513e+01 1.992672e+01 1.499638e+01 8.382642e+01 9.021025e+00 3.633087e+00 3.990390e+00 3.237265e+00 4.386210e+00 3.817851e+00 3.868534e+00 3.793485e+00 3.235543e+00 2.293671e+00 2.817602e+00 1.925894e+00 7.950345e+00 1.847700e+00 9.583032e-01 6.933908e-01 6.579975e-01 8.494096e-01 7.086277e-01 6.638955e-01 8.221753e-01 7.468145e-01 4.651941e-01 5.177963e-01 4.251525e-01 1.346926e+00
<GCONST> 1.297675e+02
<STATE> 4
<MEAN> 39
 -1.623447e+01 -1.497576e+00 -7.775336e-01 -7.018017e+00 -9.840599e+00 -9.317942e+00 -8.981317e+00 -1.680636e+00 -1.634993e+00 -3.806912e+00 -2.133978e+00 -1.155628e+00 6.649178e+01 5.104554e+00 -1.670936e+00 5.258096e-01 3.975743e-01 -1.951833e+00 -5.310113e-01 -1.175098e+00 3.621432e-01 8.631021e-01 -4.187551e-01 -7.041491e-01 -1.299813e+00 2.202812e+00 6.430347e-01 -3.905902e-01 -3.902671e-01 -7.001343e-02 2.629766e-01 5.732145e-01 6.221153e-02 -2.650864e-01 -6.669978e-03 1.557615e-01 5.783587e-02 -4.452331e-01 -6.546394e-01
<VARIANCE> 39
 1.117566e+02 3.317498e+01 3.898923e+01 2.912867e+01 4.908011e+01 4.704642e+01 5.138983e+01 4.005759e+01 4.066259e+01 2.646090e+01 3.330021e+01 1.992930e+01 4.577113e+01 5.371689e+00 5.667931e+00 5.350090e+00 3.565341e+00 5.591658e+00 5.112565e+00 3.529405e+00 6.667454e+00 5.742615e+00 3.345022e+00 3.534939e+00 2.548345e+00 2.388655e+00 3.250622e+00 7.600030e-01 6.628252e-01 7.064193e-01 1.079337e+00 9.072314e-01 7.414290e-01 9.020870e-01 8.657270e-01 5.836344e-01 6.668732e-01 4.630080e-01 6.062821e-01
<GCONST> 1.358711e+02
<TRANSP> 5
 0.000000e+00 1.000000e+00 0.000000e+00 0.000000e+00 0.000000e+00
 0.000000e+00 8.474497e-01 1.525504e-01 0.000000e+00 0.000000e+00
 0.000000e+00 0.000000e+00 6.963777e-01 3.036223e-01 0.000000e+00
 0.000000e+00 0.000000e+00 0.000000e+00 6.757979e-01 3.242021e-01
 0.000000e+00 0.000000e+00 0.000000e+00 0.000000e+00 0.000000e+00
<ENDHMM>
~h "d"
<BEGINHMM>
<NUMSTATES> 5
<STATE> 2
<MEAN> 39
 3.629679e-01 3.175704e+00 3.006550e+00 1.311714e+00 -7.597227e+00 -6.021109e+00 -1.079551e+01 -5.983532e+00 -1.670196e+00 -3.407952e+00 -7.661496e+00 -6.087375e+00 4.818862e+01 9.106508e-01 1.159156e+00 9.134936e-01 7.431647e-01 7.265242e-01 -2.430652e-01 -1.729559e-01 1.017790e-01 7.357004e-02 6.168223e-04 -5.967996e-01 -4.037795e-01 -9.999411e-01 -3.690730e-01 -4.534691e-01 -1.347604e-01 -3.649808e-01 -1.694559e-01 2.854771e-02 -3.996662e-02 8.749760e-02 -8.936726e-02 -5.895843e-02 3.105453e-01 1.620711e-01 7.099368e-01
<VARIANCE> 39
 5.527145e+01 4.788593e+01 3.923804e+01 2.891344e+01 4.671783e+01 4.222458e+01 5.265902e+01 8.077016e+01 5.243682e+01 3.819013e+01 4.393530e+01 3.218381e+01 1.033536e+02 2.834956e+00 3.014000e+00 2.557562e+00 2.618867e+00 3.892686e+00 2.979688e+00 3.478445e+00 4.971447e+00 3.477938e+00 2.666138e+00 3.225621e+00 2.521803e+00 6.314652e+00 5.999215e-01 6.878449e-01 4.301596e-01 5.230659e-01 8.368834e-01 5.964230e-01 7.370858e-01 9.551951e-01 6.754136e-01 5.746601e-01 7.089788e-01 5.590448e-01 9.082692e-01
<GCONST> 1.321531e+02
<STATE> 3
<MEAN> 39
 2.113769e+00 4.031763e+00 5.968742e+00 2.263852e+00 -6.055719e+00 -5.830228e+00 -1.180451e+01 -5.060841e+00 -2.100975e+00 -3.691400e+00 -7.984117e+00 -6.607357e+00 5.033022e+01 -1.980006e+00 -2.493921e+00 2.527623e-02 -1.513266e+00 -8.730010e-01 -3.200222e-01 -8.457446e-01 8.327311e-01 -3.337174e-01 -4.238088e-01 1.759531e+00 1.289242e+00 3.777886e+00 -4.627562e-01 -7.256971e-01 -4.121347e-01 -6.240584e-01 -1.140685e+00 -8.078313e-02 -1.521431e-01 -6.922068e-03 3.386652e-02 2.475928e-02 6.585550e-01 1.725825e-01 1.467852e+00
<VARIANCE> 39
 3.351077e+01 3.369168e+01 3.023703e+01 2.384552e+01 3.386089e+01 4.070084e+01 4.607123e+01 6.741675e+01 4.463913e+01 3.773580e+01 3.801197e+01 3.125878e+01 5.690263e+01 2.605452e+00 3.351558e+00 4.268297e+00 3.650193e+00 6.065029e+00 4.440436e+00 5.693664e+00 8.120232e+00 6.101923e+00 3.683418e+00 4.732584e+00 3.171450e+00 5.574870e+00 6.022056e-01 6.373773e-01 7.111340e-01 6.809231e-01 8.340311e-01 6.650441e-01 9.059554e-01 1.324502e+00 1.075103e+00 7.580765e-01 8.007273e-01 6.757563e-01 7.240427e-01
<GCONST> 1.354553e+02
<STATE> 4
<MEAN> 39
 -3.642041e+00 -6.023318e+00 2.759571e+00 -4.895587e+00 -1.356439e+01 -8.043863e+00 -1.563979e+01 -1.094797e+00 -4.971060e-01 -3.971216e+00 -1.899258e+00 -2.114533e+00 6.628986e+01 -8.819500e-01 -1.964319e+00 -1.364809e+00 -1.855963e+00 -2.638824e+00 -2.813494e-01 -2.807745e-01 1.009848e+00 7.656729e-01 6.404173e-02 1.289832e+00 -1.495750e-01 4.211988e+00 4.973103e-01 7.181464e-01 -1.723789e-01 3.257150e-01 3.245985e-01 3.957143e-01 5.875962e-01 -4.215295e-01 -4.866483e-02 8.868243e-02 -5.711131e-01 -6.761077e-01 -8.913286e-01
<VARIANCE> 39
 2.204666e+01 2.884455e+01 5.024841e+01 4.171843e+01 6.438239e+01 4.970731e+01 8.611162e+01 7.271387e+01 8.577505e+01 3.512308e+01 3.284099e+01 3.081096e+01 5.620876e+01 2.955246e+00 3.431193e+00 6.769144e+00 4.511847e+00 7.080886e+00 4.461558e+00 7.393251e+00 9.240324e+00 8.610680e+00 4.675368e+00 7.057428e+00 3.965590e+00 5.383515e+00 3.342083e-01 4.507043e-01 5.837271e-01 7.082881e-01 1.746956e+00 7.451076e-01 1.398296e+00 1.132516e+00 1.107857e+00 7.789031e-01 8.418300e-01 5.698986e-01 6.782781e-01
<GCONST> 1.403526e+02
<TRANSP> 5
 0.000000e+00 1.000000e+00 0.000000e+00 0.000000e+00 0.000000e+00
 0.000000e+00 7.497968e-01 2.502032e-01 0.000000e+00 0.000000e+00
 0.000000e+00 0.000000e+00 5.152681e-01 4.847319e-01 0.000000e+00
 0.000000e+00 0.000000e+00 0.000000e+00 4.848444e-01 5.151556e-01
 0.000000e+00 0.000000e+00 0.000000e+00 0.000000e+00 0.000000e+00
<ENDHMM>
~h "e"
<BEGINHMM>
<NUMSTATES> 5
<STATE> 2
<MEAN> 39
 -4.750543e+00 -7.037013e+00 9.302317e-02 -5.303134e+00 -1.569769e+01 -9.342787e+00 -7.905512e+00 -1.869908e+00 -2.832017e+00 -2.357319e+00 4.179427e-01 -6.388742e+00 6.186875e+01 3.289914e-01 -1.033526e+00 4.955505e-01 -4.866852e-01 -1.619912e+00 -5.800487e-01 5.396530e-01 9.557989e-01 1.586192e-01 -2.588661e-01 5.784972e-01 -4.681158e-01 2.028774e+00 -1.205824e-01 2.905497e-01 2.318159e-02 3.818910e-02 2.189412e-01 1.983333e-01 2.193952e-01 -2.103392e-01 -1.291894e-01 -2.457155e-02 -5.515407e-02 6.130000e-02 -3.868251e-01
<VARIANCE> 39
 4.294430e+01 5.497971e+01 7.773981e+01 4.663411e+01 7.646146e+01 6.209541e+01 7.911163e+01 7.902016e+01 6.826707e+01 5.144940e+01 5.641378e+01 3.553703e+01 1.843251e+02 3.545251e+00 3.987301e+00 3.825591e+00 4.029179e+00 6.877415e+00 4.449630e+00 5.615958e+00 6.342168e+00 5.212903e+00 4.164259e+00 4.664621e+00 3.339685e+00 1.121567e+01 6.693969e-01 7.871519e-01 6.057969e-01 6.370923e-01 1.133958e+00 7.701836e-01 9.326055e-01 1.043170e+00 9.580955e-01 7.219563e-01 7.727577e-01 6.123442e-01 2.053110e+00
<GCONST> 1.442954e+02
<STATE> 3
<MEAN> 39
 -3.580715e+00 -1.007273e+01 9.373660e-01 -7.265004e+00 -2.049124e+01 -1.201167e+01 -4.268101e+00 1.902070e+00 -2.229590e+00 -2.793868e+00 1.849291e+00 -8.073533e+00 7.120206e+01 2.969966e-02 2.491313e-01 1.504298e-01 1.823333e-01 4.713925e-02 -7.036188e-03 2.047700e-01 -2.564724e-01 -1.122343e-01 7.809928e-02 -1.127861e-03 -9.496783e-02 -2.673170e-01 1.564640e-02 3.089169e-01 -7.565188e-02 2.134916e-01 4.849806e-01 1.540756e-01 -2.171876e-01 -2.907847e-01 -7.593521e-02 6.931566e-02 -2.507786e-01 1.108277e-01 -5.898262e-01
<VARIANCE> 39
 1.233929e+01 3.640192e+01 6.614944e+01 3.792562e+01 4.993521e+01 5.684977e+01 8.727821e+01 7.035694e+01 6.201186e+01 5.676337e+01 5.761135e+01 3.327275e+01 4.217698e+01 8.246645e-01 1.300430e+00 1.729904e+00 2.052363e+00 2.977439e+00 2.244019e+00 3.314046e+00 2.600347e+00 2.717925e+00 2.264993e+00 2.380426e+00 1.541297e+00 3.082741e+00 2.011002e-01 2.466658e-01 3.097600e-01 3.539439e-01 5.157521e-01 4.443561e-01 6.141161e-01 5.853211e-01 5.708707e-01 4.653479e-01 4.666705e-01 3.236618e-01 4.310952e-01
<GCONST> 1.196180e+02
<STATE> 4
<MEAN> 39
 -7.044307e+00 -5.875235e+00 1.739146e+00 -6.049883e+00 -1.592394e+01 -8.995463e+00 -6.311390e+00 -3.380169e+00 -4.583421e+00 -2.512034e+00 9.215345e-01 -5.628046e+00 5.679899e+01 -2.336368e-02 3.270003e-01 -1.450619e-01 2.566414e-01 4.163003e-01 1.394931e-01 -3.989600e-02 -1.769651e-01 6.029895e-04 1.353817e-02 -3.211465e-01 8.184846e-02 -7.230994e-01 1.151668e-02 4.345154e-02 -1.891328e-02 4.596527e-02 1.094822e-01 4.106641e-02 -4.424901e-02 -2.665127e-02 -1.327824e-03 -4.809426e-03 -3.921709e-02 1.849782e-02 -7.852264e-02
<VARIANCE> 39
 2.959233e+01 4.011306e+01 7.344266e+01 3.557191e+01 8.846317e+01 4.604813e+01 6.390051e+01 4.808151e+01 5.357382e+01 3.883173e+01 4.718793e+01 3.225969e+01 2.669156e+02 6.786714e-01 1.159127e+00 1.148916e+00 1.304198e+00 1.839550e+00 1.588356e+00 1.941052e+00 1.857781e+00 1.829304e+00 1.654004e+00 1.750248e+00 1.272652e+00 2.193772e+00 1.193519e-01 1.916699e-01 1.944036e-01 2.300458e-01 3.127199e-01 2.977847e-01 3.421625e-01 3.816791e-01 3.484996e-01 3.070876e-01 3.062883e-01 2.370389e-01 2.502063e-01
<GCONST> 1.111977e+02
<TRANSP> 5
 0.000000e+00 1.000000e+00 0.000000e+00 0.000000e+00 0.000000e+00
 0.000000e+00 6.593400e-01 3.406601e-01 0.000000e+00 0.000000e+00
 0.000000e+00 0.000000e+00 7.019776e-01 2.980224e-01 0.000000e+00
 0.000000e+00 0.000000e+00 0.000000e+00 8.557124e-01 1.442877e-01
 0.000000e+00 0.000000e+00 0.000000e+00 0.000000e+00 0.000000e+00
<ENDHMM>
~h "f"
<BEGINHMM>
<NUMSTATES> 5
<STATE> 2
<MEAN> 39
 -8.878463e+00 -2.167356e-01 -1.473468e+00 -9.345205e-01 -4.783714e+00 -2.219279e+00 -6.153723e+00 -4.657978e+00 -4.060391e+00 -2.776985e+00 -2.156638e+00 -3.212042e+00 5.847487e+01 -3.319297e+00 -1.342962e-01 -1.390522e-01 1.105232e+00 1.320011e+00 -2.361431e-01 2.710672e-01 7.867648e-01 6.947755e-01 1.919718e-01 -6.004115e-02 5.815731e-01 -1.199757e+00 -2.728971e-01 -5.674057e-01 -2.728728e-01 -3.930438e-01 -6.591415e-01 -2.051472e-01 -2.263215e-01 -1.470145e-01 1.513632e-02 3.751470e-02 1.630950e-01 -4.145860e-02 2.496101e-01
<VARIANCE> 39
 5.641984e+01 2.350612e+01 4.152182e+01 3.778300e+01 3.845959e+01 5.078439e+01 3.827110e+01 4.062201e+01 3.330831e+01 2.705262e+01 3.035478e+01 2.512234e+01 7.424915e+01 3.287474e+00 3.754967e+00 5.155921e+00 4.144449e+00 5.810791e+00 4.275966e+00 3.681239e+00 4.739895e+00 3.912691e+00 3.051653e+00 3.627729e+00 2.646421e+00 2.103703e+00 7.638349e-01 3.941946e-01 5.226254e-01 5.987397e-01 7.026598e-01 5.821425e-01 6.154388e-01 6.979407e-01 7.131106e-01 4.964758e-01 5.507177e-01 4.163329e-01 2.796089e-01
<GCONST> 1.281452e+02
<STATE> 3
<MEAN> 39
 -2.111038e+01 -5.467729e+00 -5.208941e+00 -6.647438e-01 -5.609202e+00 -4.818558e+00 -7.281470e+00 -3.426380e+00 -2.308479e+00 -1.996054e+00 -1.777142e+00 -1.033751e+00 5.748952e+01 -4.664559e-01 -6.928380e-01 -5.212878e-01 -3.551909e-01 -3.092775e-01 -2.520961e-01 -1.699647e-01 -1.992075e-02 2.755636e-02 6.384931e-02 1.031430e-01 6.369037e-02 -4.259357e-02 8.865967e-01 2.101726e-01 1.405469e-01 -1.812616e-01 -9.154691e-02 1.334569e-01 2.934080e-02 -9.926943e-02 -1.314086e-01 -3.286209e-02 -7.252113e-03 -1.677678e-01 2.255161e-01
<VARIANCE> 39
 2.114256e+01 1.905579e+01 2.282081e+01 1.719883e+01 1.976070e+01 2.843401e+01 2.762921e+01 2.605371e+01 2.005606e+01 1.730912e+01 1.915872e+01 1.535493e+01 3.694695e+01 3.876960e+00 1.538669e+00 1.890608e+00 1.798721e+00 1.767816e+00 2.092802e+00 1.919240e+00 1.904200e+00 1.845810e+00 1.794853e+00 1.616843e+00 1.522088e+00 1.600978e+00 5.067824e-01 3.305289e-01 4.371109e-01 4.594904e-01 4.817064e-01 4.663002e-01 4.229045e-01 4.623063e-01 4.341356e-01 4.178370e-01 3.735704e-01 3.470223e-01 2.660717e-01
<GCONST> 1.082938e+02
<STATE> 4
<MEAN> 39
 -1.595711e+01 -5.277063e+00 -6.668113e+00 -3.625309e+00 -4.941267e+00 -3.489160e+00 -6.732944e+00 -3.614560e+00 -3.224558e+00 -2.670258e+00 -1.318178e+00 -2.062110e+00 4.370438e+01 8.863092e-01 1.859779e-01 6.125375e-02 -2.503037e-01 -1.577730e-01 1.188000e-01 -5.541698e-03 -1.534790e-01 -1.338579e-01 -6.746738e-02 -7.559659e-03 -1.975293e-01 2.206252e-01 1.879311e-01 4.580573e-02 5.731116e-02 -4.214956e-02 -7.926030e-02 3.756731e-02 -2.141151e-02 -5.021044e-02 -2.111169e-02 -2.223194e-02 8.573515e-03 -6.305215e-02 1.244473e-01
<VARIANCE> 39
 3.792493e+01 3.346775e+01 2.520846e+01 2.235271e+01 2.027478e+01 2.173811e+01 2.609486e+01 2.566508e+01 2.430994e+01 2.252959e+01 2.254261e+01 1.711710e+01 1.249018e+02 5.583708e+00 1.780554e+00 2.010942e+00 2.570413e+00 2.024365e+00 2.347880e+00 2.214224e+00 2.389743e+00 2.151525e+00 2.071577e+00 1.924977e+00 2.010574e+00 2.967974e+00 4.773343e-01 3.140867e-01 2.915938e-01 3.683659e-01 4.046286e-01 4.092380e-01 4.162560e-01 4.363125e-01 4.287536e-01 3.877653e-01 3.795491e-01 3.540346e-01 3.244878e-01
<GCONST> 1.133819e+02
<TRANSP> 5
 0.000000e+00 1.000000e+00 0.000000e+00 0.000000e+00 0.000000e+00
 0.000000e+00 6.752542e-01 3.247458e-01 0.000000e+00 0.000000e+00
 0.000000e+00 0.000000e+00 8.157553e-01 1.842447e-01 0.000000e+00
 0.000000e+00 0.000000e+00 0.000000e+00 8.836880e-01 1.163120e-01
 0.000000e+00 0.000000e+00 0.000000e+00 0.000000e+00 0.000000e+00
<ENDHMM>
~h "g"
<BEGINHMM>
<NUMSTATES> 5
<STATE> 2
<MEAN> 39
 1.158961e+00 3.040045e+00 3.310087e+00 -2.171078e+00 -9.369374e+00 -5.260728e+00 -1.141749e+01 -7.368749e+00 -6.302861e+00 2.235623e-01 -4.932034e+00 -8.251365e+00 5.313744e+01 5.357511e-01 1.312656e+00 1.032684e+00 1.144776e+00 3.062973e-01 -3.430052e-01 4.099969e-01 -1.293929e-01 -5.750582e-01 -9.270923e-02 -3.976791e-01 -2.944614e-01 -1.971462e+00 -3.804233e-01 -4.093647e-01 -3.647145e-01 -2.574188e-01 7.003299e-02 3.759579e-02 1.277925e-02 1.908062e-01 2.123635e-01 -1.001199e-01 5.937243e-02 1.261158e-01 6.208561e-01
<VARIANCE> 39
 3.102102e+01 3.982267e+01 4.480688e+01 4.399609e+01 5.628692e+01 5.489935e+01 7.522302e+01 6.101777e+01 6.139199e+01 3.945042e+01 4.653434e+01 3.964511e+01 9.973408e+01 2.075651e+00 2.338578e+00 2.927876e+00 3.089129e+00 4.223627e+00 3.257493e+00 4.215081e+00 4.162661e+00 4.710117e+00 3.031096e+00 3.002489e+00 2.700275e+00 4.555993e+00 4.683063e-01 5.227811e-01 5.122352e-01 4.908110e-01 8.761623e-01 6.540106e-01 1.002804e+00 7.620471e-01 8.291322e-01 6.252468e-01 6.788070e-01 6.322267e-01 9.049112e-01
<GCONST> 1.330852e+02
<STATE> 3
<MEAN> 39
 -1.820505e+00 3.846172e+00 3.526975e+00 8.846343e-01 -6.382847e+00 -5.906469e+00 -1.017529e+01 -6.088325e+00 -7.485248e+00 -6.451606e-01 -5.662316e+00 -6.742681e+00 5.200029e+01 -1.983045e+00 -1.857399e+00 -1.336945e+00 -5.769908e-01 1.048702e+00 -3.918963e-01 -1.258299e+00 8.629764e-01 -1.461082e-01 2.921085e-01 4.478190e-01 8.833281e-01 2.910839e+00 -3.931615e-02 -4.088873e-01 -2.119960e-01 -7.204744e-01 -6.996012e-01 9.831703e-02 -3.117772e-01 2.652777e-02 1.519442e-01 8.767284e-02 4.516724e-01 -1.685279e-02 9.786615e-01
<VARIANCE> 39
 5.272280e+01 4.998756e+01 5.431019e+01 3.119251e+01 7.130083e+01 5.038783e+01 6.328784e+01 4.557969e+01 4.279360e+01 3.001092e+01 3.712228e+01 3.416021e+01 8.726080e+01 3.916168e+00 4.956890e+00 6.002053e+00 3.836204e+00 8.327721e+00 5.384310e+00 5.589041e+00 5.190200e+00 5.406376e+00 3.550439e+00 4.507213e+00 3.570369e+00 5.753985e+00 9.501595e-01 1.028766e+00 1.028685e+00 5.837257e-01 1.682138e+00 7.551962e-01 9.244059e-01 7.599944e-01 9.803899e-01 6.378617e-01 7.286053e-01 6.744198e-01 1.056718e+00
<GCONST> 1.408995e+02
<STATE> 4
<MEAN> 39
 -4.718268e+00 -2.932823e+00 -9.278890e-02 -5.695964e+00 -1.060789e+01 -7.721771e+00 -1.630523e+01 -2.280861e+00 -5.365825e+00 1.569547e+00 -1.679016e+00 -5.956940e+00 6.503134e+01 4.052781e-02 -1.211271e+00 -5.165882e-01 -2.271596e+00 -2.064427e+00 5.478320e-02 -1.829808e-01 1.016710e+00 1.272860e+00 8.576934e-02 8.578849e-01 -4.890920e-01 2.749152e+00 4.368828e-01 2.626556e-01 7.327984e-02 3.979909e-02 -1.795854e-02 4.025966e-01 6.211062e-01 -2.735043e-01 2.572313e-01 -3.280434e-01 -3.361120e-01 -3.007528e-01 -5.176014e-01
<VARIANCE> 39
 2.669445e+01 3.590650e+01 5.703227e+01 4.620264e+01 8.457236e+01 6.491937e+01 8.501303e+01 6.207223e+01 6.459820e+01 3.723779e+01 4.374712e+01 3.322439e+01 5.839753e+01 2.955706e+00 3.136267e+00 4.938805e+00 3.520527e+00 7.803712e+00 4.173934e+00 5.626186e+00 5.304632e+00 7.557670e+00 3.382038e+00 5.358048e+00 3.279823e+00 3.264231e+00 5.237503e-01 6.331074e-01 9.375060e-01 6.464916e-01 2.136956e+00 7.549741e-01 9.375809e-01 8.563998e-01 1.015369e+00 6.116236e-01 1.014535e+00 5.663440e-01 4.676842e-01
<GCONST> 1.388519e+02
<TRANSP> 5
 0.000000e+00 1.000000e+00 0.000000e+00 0.000000e+00 0.000000e+00
 0.000000e+00 7.184197e-01 2.815803e-01 0.000000e+00 0.000000e+00
 0.000000e+00 0.000000e+00 6.102966e-01 3.897034e-01 0.000000e+00
 0.000000e+00 0.000000e+00 0.000000e+00 5.475244e-01 4.524756e-01
 0.000000e+00 0.000000e+00 0.000000e+00 0.000000e+00 0.000000e+00
<ENDHMM>
~h "h"
<BEGINHMM>
<NUMSTATES> 5
<STATE> 2
<MEAN> 39
 -6.047558e+00 -4.375933e+00 -3.812132e+00 -2.924632e+00 -1.726969e+00 1.148568e+00 -4.161658e+00 -3.698853e+00 -2.106055e+00 -3.736405e+00 -5.566666e+00 -4.764823e+00 6.249537e+01 -1.056906e+00 -2.953866e-01 5.907964e-01 7.374579e-01 1.365932e+00 8.024944e-01 4.007927e-01 6.610636e-01 3.361001e-01 1.810477e-02 -8.993471e-02 4.913235e-01 -9.140302e-01 2.242840e-02 -2.632889e-01 -2.125421e-01 -3.501903e-01 -3.109232e-01 -9.647427e-02 -1.931940e-01 -9.367734e-02 5.199173e-02 3.411802e-02 1.391246e-01 -1.107606e-01 8.954600e-02
<VARIANCE> 39
 3.043749e+01 3.783614e+01 5.793859e+01 5.821801e+01 8.035904e+01 5.924785e+01 5.149852e+01 6.091732e+01 4.839666e+01 4.312370e+01 4.489023e+01 4.016881e+01 9.811082e+01 1.587272e+00 2.714587e+00 4.109570e+00 2.734370e+00 3.687339e+00 3.270437e+00 2.862941e+00 3.355980e+00 2.907892e+00 2.661191e+00 2.827681e+00 2.392978e+00 1.974512e+00 1.922486e-01 3.528095e-01 4.360493e-01 3.997108e-01 5.550023e-01 4.948602e-01 4.812683e-01 6.018326e-01 5.168659e-01 4.189885e-01 4.518238e-01 4.087285e-01 1.980048e-01
<GCONST> 1.245591e+02
<STATE> 3
<MEAN> 39
 -1.018517e+01 -8.194712e+00 -5.106360e+00 -4.442740e+00 1.644727e+00 3.046994e+00 -5.511752e+00 -2.201473e+00 -2.135188e-01 -3.183420e+00 -5.339350e+00 -3.401711e+00 5.888789e+01 -6.793599e-02 -3.985490e-02 -3.540457e-01 -3.673731e-01 -3.764288e-01 -4.324539e-01 -2.273815e-01 -2.063461e-01 -7.807913e-02 -3.717546e-02 1.432491e-01 3.981743e-02 -7.029695e-01 2.942820e-01 1.967079e-01 -7.647182e-02 -1.201759e-01 -3.328560e-01 -2.187040e-01 -6.687207e-02 -1.862361e-01 -1.447965e-01 -5.656435e-02 6.415396e-03 -1.171966e-01 3.009488e-02
<VARIANCE> 39
 4.394812e+01 4.598155e+01 4.850911e+01 5.353132e+01 6.653509e+01 5.360477e+01 5.931549e+01 4.750499e+01 4.636208e+01 4.457035e+01 3.943447e+01 2.959872e+01 1.023738e+02 2.113619e+00 2.597668e+00 2.567544e+00 2.439816e+00 2.776899e+00 2.705550e+00 2.952946e+00 2.852087e+00 2.538378e+00 2.346175e+00 2.411469e+00 2.184068e+00 3.614488e+00 3.035952e-01 3.566976e-01 4.624847e-01 4.581338e-01 5.631341e-01 5.162656e-01 5.777554e-01 5.369282e-01 4.919340e-01 4.590477e-01 4.532676e-01 4.062213e-01 2.503506e-01
<GCONST> 1.242686e+02
<STATE> 4
<MEAN> 39
 -1.192060e+01 -5.074520e+00 -6.660995e+00 -4.637393e+00 -3.010826e+00 -2.554421e+00 -6.346008e+00 -4.011904e+00 -3.633799e+00 -4.685584e+00 -3.607080e+00 -2.873366e+00 4.201702e+01 9.058274e-02 1.635670e-01 -1.832373e-02 -1.252962e-02 -1.435004e-01 -8.161072e-02 2.539707e-02 -8.851616e-02 -6.251610e-02 5.162037e-03 4.714300e-02 -4.147448e-02 -2.291351e-01 4.554669e-02 7.948517e-03 2.569212e-02 4.701579e-03 -1.044044e-02 2.695275e-02 7.946778e-04 -2.690329e-03 3.363601e-03 -6.597567e-04 2.214570e-04 -3.198409e-02 1.062073e-01
<VARIANCE> 39
 2.623043e+01 4.626519e+01 3.121619e+01 2.900468e+01 2.920740e+01 2.972550e+01 3.565285e+01 3.061535e+01 3.161804e+01 2.765361e+01 2.503435e+01 2.070180e+01 1.433701e+02 1.023300e+00 1.400800e+00 1.445130e+00 1.326338e+00 1.589360e+00 1.661804e+00 1.884933e+00 1.968965e+00 1.948721e+00 1.827821e+00 1.715343e+00 1.618041e+00 1.588337e+00 1.609670e-01 2.230381e-01 2.288833e-01 2.474390e-01 2.917977e-01 3.052175e-01 3.535867e-01 3.724292e-01 3.767937e-01 3.495633e-01 3.308508e-01 2.983379e-01 1.690090e-01
<GCONST> 1.066208e+02
<TRANSP> 5
 0.000000e+00 1.000000e+00 0.000000e+00 0.000000e+00 0.000000e+00
 0.000000e+00 5.904435e-01 4.095565e-01 0.000000e+00 0.000000e+00
 0.000000e+00 0.000000e+00 6.958319e-01 3.041681e-01 0.000000e+00
 0.000000e+00 0.000000e+00 0.000000e+00 8.779374e-01 1.220627e-01
 0.000000e+00 0.000000e+00 0.000000e+00 0.000000e+00 0.000000e+00
<ENDHMM>
~h "i"
<BEGINHMM>
<NUMSTATES> 5
<STATE> 2
<MEAN> 39
 -6.702509e+00 -7.542741e-01 1.016259e+01 -2.169036e+00 -1.828853e+01 -8.949965e+00 -1.076058e+01 -8.285493e+00 -1.082377e+01 -3.564427e+00 1.543996e+00 -4.674409e+00 6.301592e+01 5.330316e-01 2.486253e-01 2.474381e+00 -3.844166e-01 -2.898187e+00 2.608146e-01 -9.306268e-01 -9.772046e-01 -1.605237e+00 2.383983e-01 1.273352e+00 -7.242758e-01 1.669502e+00 -1.110833e-01 1.317998e-01 -4.513159e-01 -1.849946e-01 4.063808e-01 4.084553e-01 5.401263e-02 2.899730e-02 4.081217e-01 1.579313e-01 -2.610597e-01 -7.204033e-02 -4.278219e-01
<VARIANCE> 39
 3.147228e+01 3.732585e+01 4.984816e+01 3.975620e+01 5.441740e+01 5.245854e+01 5.902731e+01 6.664482e+01 5.057507e+01 4.089427e+01 4.094511e+01 2.707694e+01 7.950438e+01 5.552044e+00 2.934665e+00 4.318529e+00 3.767177e+00 4.754878e+00 4.543476e+00 5.753510e+00 6.191282e+00 5.073709e+00 3.751304e+00 3.784374e+00 2.795668e+00 4.554626e+00 6.641861e-01 5.387058e-01 7.553054e-01 5.502084e-01 1.091618e+00 7.337852e-01 8.253679e-01 1.073861e+00 8.063109e-01 5.820777e-01 6.619866e-01 4.571032e-01 8.934306e-01
<GCONST> 1.363272e+02
<STATE> 3
<MEAN> 39
 -7.390775e+00 3.954066e-01 1.474328e+01 -5.207671e+00 -2.386479e+01 -5.732049e+00 -1.325213e+01 -1.097301e+01 -1.308572e+01 -2.520308e+00 3.745119e+00 -7.671293e+00 6.627475e+01 2.092633e-01 1.870442e-01 -3.282475e-01 5.743299e-02 2.425008e-01 -5.978187e-02 2.338236e-01 1.011233e-01 2.280653e-01 1.881885e-01 -2.183979e-01 3.207498e-02 -3.644858e-01 9.280000e-02 2.240784e-02 -4.728326e-01 1.831685e-01 5.981879e-01 -1.501749e-01 2.446295e-01 2.312744e-01 3.264830e-01 -7.886419e-02 -2.997582e-01 1.558818e-01 -4.302453e-01
<VARIANCE> 39
 1.138882e+01 2.410505e+01 3.227831e+01 3.735197e+01 2.575657e+01 5.022062e+01 5.303743e+01 5.923264e+01 4.140408e+01 4.858401e+01 4.498630e+01 3.251332e+01 2.559767e+01 9.298981e-01 1.429927e+00 2.097082e+00 1.783666e+00 2.667663e+00 2.425104e+00 2.607001e+00 3.010060e+00 2.419230e+00 1.880659e+00 1.900525e+00 1.455171e+00 1.915777e+00 1.971038e-01 2.415019e-01 3.082069e-01 3.098534e-01 5.495883e-01 4.429390e-01 4.956901e-01 5.485799e-01 4.803832e-01 4.039691e-01 4.383724e-01 3.031084e-01 2.986594e-01
<GCONST> 1.134806e+02
<STATE> 4
<MEAN> 39
 -7.554324e+00 2.884367e+00 7.827820e+00 -2.476929e+00 -1.452830e+01 -6.091650e+00 -8.780707e+00 -9.844427e+00 -8.737657e+00 -2.558292e+00 -1.709589e+00 -4.319983e+00 5.024832e+01 -8.948569e-03 1.100113e-01 -8.877980e-01 2.294279e-01 9.675323e-01 1.463337e-02 3.594474e-01 3.600238e-01 5.376462e-01 -1.016048e-01 -4.432841e-01 2.157121e-01 -1.419112e+00 -8.321989e-02 -7.446659e-02 -4.211516e-02 -4.322894e-02 4.807337e-02 8.835189e-02 -5.813422e-02 -1.168037e-02 -8.786207e-04 -2.136446e-02 -4.064648e-03 -1.460496e-02 9.897598e-02
<VARIANCE> 39
 3.060423e+01 3.509908e+01 6.473103e+01 3.747293e+01 5.779438e+01 6.541077e+01 5.495446e+01 5.851461e+01 4.057919e+01 3.535728e+01 3.562153e+01 2.933288e+01 1.669432e+02 1.407890e+00 1.742894e+00 2.162348e+00 1.789233e+00 3.137430e+00 2.366523e+00 2.854663e+00 3.043225e+00 2.812124e+00 2.129334e+00 2.473611e+00 1.877945e+00 3.381531e+00 2.066569e-01 2.673970e-01 2.928806e-01 3.105061e-01 5.144305e-01 4.459049e-01 4.618299e-01 5.148769e-01 4.380754e-01 3.969213e-01 4.009070e-01 3.398555e-01 3.588684e-01
<GCONST> 1.200936e+02
<TRANSP> 5
 0.000000e+00 1.000000e+00 0.000000e+00 0.000000e+00 0.000000e+00
 0.000000e+00 6.310408e-01 3.689592e-01 0.000000e+00 0.000000e+00
 0.000000e+00 0.000000e+00 8.100682e-01 1.899317e-01 0.000000e+00
 0.000000e+00 0.000000e+00 0.000000e+00 8.010836e-01 1.989164e-01
 0.000000e+00 0.000000e+00 0.000000e+00 0.000000e+00 0.000000e+00
<ENDHMM>
~h "j"
<BEGINHMM>
<NUMSTATES> 5
<STATE> 2
<MEAN> 39
 -2.415827e+00 6.592623e+00 6.198278e+00 4.284774e-01 -9.411800e+00 -6.936220e+00 -7.502333e+00 -3.222004e+00 -5.032454e+00 -5.482017e+00 -4.455653e+00 -3.706683e+00 5.098209e+01 -4.119814e-01 9.991636e-01 6.857259e-01 1.676208e-01 8.794427e-01 2.373239e-01 5.038722e-01 1.786584e-01 4.774203e-02 -9.105072e-02 -6.061583e-02 -1.070515e-01 -8.233226e-01 -5.765965e-01 -3.701469e-01 -2.302544e-01 -2.554545e-01 6.310552e-02 5.047482e-02 -1.355697e-01 -1.907412e-01 -2.309132e-02 1.083978e-01 1.552359e-01 7.507424e-02 7.170008e-01
<VARIANCE> 39
 4.329680e+01 4.052589e+01 4.111208e+01 2.689108e+01 4.591224e+01 4.711069e+01 4.681981e+01 4.744354e+01 4.764478e+01 3.376918e+01 2.788271e+01 2.410172e+01 1.065127e+02 5.686658e+00 3.754570e+00 2.920064e+00 2.907281e+00 4.438765e+00 3.617068e+00 3.747806e+00 4.300065e+00 3.888405e+00 2.555363e+00 2.533094e+00 2.272507e+00 7.052889e+00 1.046841e+00 6.101398e-01 4.936605e-01 5.070797e-01 8.268733e-01 7.391171e-01 7.001719e-01 7.383042e-01 7.082900e-01 4.822898e-01 5.352350e-01 5.249059e-01 1.156334e+00
<GCONST> 1.316740e+02
<STATE> 3
<MEAN> 39
 -1.547321e+01 6.328582e+00 6.977106e+00 -2.397108e+00 -4.167191e+00 -4.976287e+00 -6.999097e+00 -5.582411e+00 -6.215676e+00 -4.506456e+00 -2.324959e+00 -2.065895e+00 5.986330e+01 -1.930924e+00 -1.128411e+00 2.517443e-01 -4.934809e-01 -1.467113e+00 -1.232367e+00 -9.400879e-01 -7.678484e-01 -7.340583e-01 3.246535e-02 1.236807e+00 1.013449e+00 3.671570e+00 1.498537e+00 -4.002341e-01 -1.774517e-03 1.192389e-01 -1.247020e+00 -4.050652e-01 -4.657810e-01 2.403041e-01 9.934614e-02 -7.824775e-02 1.640516e-01 -9.743553e-02 -3.704808e-02
<VARIANCE> 39
 5.842261e+01 3.645867e+01 3.538910e+01 2.631230e+01 5.105511e+01 5.124205e+01 3.891743e+01 2.775023e+01 2.901397e+01 2.034565e+01 2.188270e+01 1.834339e+01 5.865620e+01 1.289787e+01 3.569568e+00 3.928011e+00 3.964761e+00 9.027874e+00 5.015426e+00 3.373915e+00 3.604883e+00 3.943475e+00 2.495386e+00 2.535796e+00 1.944220e+00 3.085155e+00 1.573671e+00 8.339744e-01 7.528690e-01 7.397673e-01 1.236051e+00 9.060963e-01 6.058946e-01 8.911145e-01 1.066233e+00 5.434445e-01 5.141925e-01 5.018157e-01 8.716156e-01
<GCONST> 1.325195e+02
<STATE> 4
<MEAN> 39
 -7.000307e+00 -1.453580e+00 7.895055e+00 -3.759987e+00 -1.860358e+01 -1.220245e+01 -1.362704e+01 -3.604932e+00 -5.806448e+00 -4.689552e+00 2.641881e+00 -2.528218e-01 6.970255e+01 2.558371e+00 -2.689346e+00 -1.574941e+00 -1.119180e+00 -2.129286e+00 -1.250079e-01 -1.266074e+00 1.672600e+00 1.718328e+00 4.103953e-01 2.245503e-01 -1.053180e+00 1.666688e+00 -9.074132e-02 2.299011e-01 -7.277598e-01 -2.452255e-01 1.228112e+00 8.962501e-01 5.173378e-01 1.427135e-01 4.090052e-01 1.358647e-01 -6.839232e-01 -6.837825e-01 -6.483743e-01
<VARIANCE> 39
 2.139305e+01 3.509314e+01 3.234938e+01 4.270049e+01 4.001864e+01 3.382428e+01 4.823884e+01 5.377565e+01 5.578629e+01 3.538705e+01 3.396589e+01 2.216456e+01 2.578310e+01 3.053216e+00 2.677277e+00 3.938997e+00 3.181372e+00 8.522162e+00 3.861115e+00 4.889289e+00 6.240424e+00 6.262265e+00 3.205032e+00 4.414657e+00 3.290181e+00 1.595188e+00 9.254615e-01 4.718160e-01 3.927423e-01 5.682069e-01 9.496947e-01 5.513470e-01 5.975721e-01 9.959588e-01 8.734019e-01 5.607888e-01 6.574526e-01 4.358141e-01 1.647468e-01
<GCONST> 1.284836e+02
<TRANSP> 5
 0.000000e+00 1.000000e+00 0.000000e+00 0.000000e+00 0.000000e+00
 0.000000e+00 8.282552e-01 1.717447e-01 0.000000e+00 0.000000e+00
 0.000000e+00 0.000000e+00 7.086980e-01 2.913019e-01 0.000000e+00
 0.000000e+00 0.000000e+00 0.000000e+00 6.653073e-01 3.346927e-01
 0.000000e+00 0.000000e+00 0.000000e+00 0.000000e+00 0.000000e+00
<ENDHMM>
~h "k"
<BEGINHMM>
<NUMSTATES> 5
<STATE> 2
<MEAN> 39
 -9.157838e+00 1.247810e-01 -4.442202e+00 -3.912501e+00 -5.761641e+00 -4.274202e+00 -6.773963e+00 -5.311668e+00 -4.242592e+00 -2.279143e+00 -3.754447e+00 -4.229742e+00 4.016022e+01 -8.025117e-01 -2.003263e-01 -2.042530e-01 1.607610e-01 3.480963e-01 -1.136819e-01 -2.439277e-02 2.998831e-01 8.842323e-02 2.610662e-02 -1.517088e-02 3.015823e-01 -1.028661e+00 -9.530693e-02 -3.478622e-01 -2.299949e-01 -1.516265e-01 3.652120e-02 1.669797e-02 -1.265564e-01 8.218993e-02 2.942686e-02 3.673593e-02 1.607008e-02 1.322851e-02 8.231211e-01
<VARIANCE> 39
 4.364790e+01 2.893253e+01 3.983612e+01 2.991909e+01 4.027553e+01 4.066642e+01 3.983108e+01 3.968446e+01 3.757479e+01 3.368148e+01 3.375560e+01 2.829569e+01 8.511610e+01 2.031988e+00 2.649785e+00 2.447119e+00 2.322702e+00 3.212930e+00 3.261488e+00 3.191618e+00 3.219670e+00 2.865673e+00 2.669158e+00 2.555120e+00 2.258355e+00 6.593146e+00 3.629038e-01 5.520006e-01 5.366312e-01 5.015501e-01 6.479484e-01 7.079567e-01 6.956056e-01 6.694710e-01 6.250993e-01 5.768964e-01 5.332166e-01 4.619707e-01 1.277874e+00
<GCONST> 1.262515e+02
<STATE> 3
<MEAN> 39
 -1.169443e+01 -3.841194e+00 -6.707108e+00 -3.461434e+00 -3.333384e+00 -5.075030e+00 -8.640849e+00 -3.287198e+00 -3.981217e+00 -8.728681e-01 -3.597217e+00 -2.669868e+00 4.664024e+01 -1.097939e+00 -2.246923e+00 -2.156531e+00 -7.881502e-01 1.242396e+00 -4.110915e-01 -1.346464e+00 8.896431e-01 7.744478e-02 6.855420e-01 -3.645706e-01 3.081504e-01 4.488865e+00 6.392805e-01 2.678623e-01 1.486729e-01 -3.833728e-01 -5.048879e-01 5.729705e-02 4.639298e-02 -1.633703e-01 5.142198e-02 -8.862681e-03 -4.927863e-02 -3.909779e-01 9.961987e-01
<VARIANCE> 39
 4.065614e+01 6.010765e+01 5.961977e+01 4.031527e+01 5.849183e+01 6.205008e+01 5.883750e+01 4.974988e+01 4.496040e+01 3.577763e+01 3.423720e+01 2.671712e+01 1.308452e+02 4.416008e+00 5.516103e+00 7.098459e+00 5.585960e+00 6.708351e+00 7.494884e+00 5.907568e+00 6.160703e+00 5.792044e+00 4.613439e+00 4.400328e+00 4.061011e+00 1.342981e+01 7.054909e-01 1.036786e+00 1.063200e+00 7.453009e-01 1.081877e+00 1.029282e+00 1.128846e+00 8.955669e-01 8.519124e-01 7.173426e-01 6.782085e-01 6.723338e-01 1.780388e+00
<GCONST> 1.445407e+02
<STATE> 4
<MEAN> 39
 -1.037688e+01 -6.631038e+00 -1.055823e+01 -7.764174e+00 -3.067771e+00 -5.307724e+00 -1.145205e+01 -2.294288e+00 -2.939799e+00 1.006464e+00 -4.839747e+00 -4.724000e+00 6.031907e+01 1.791446e+00 2.376328e-01 5.888857e-01 -9.306132e-01 -1.272972e+00 1.143287e-01 4.568526e-01 -2.143480e-01 2.395575e-01 -2.527133e-01 7.520308e-02 -1.117448e+00 3.064754e+00 5.734929e-01 3.564963e-01 5.954912e-01 9.748543e-02 -5.180998e-01 2.295072e-01 5.132850e-01 -3.116637e-01 6.205441e-02 -3.786013e-01 2.428984e-01 -2.556716e-01 -6.535177e-01
<VARIANCE> 39
 5.072260e+01 4.331469e+01 6.382695e+01 5.439932e+01 6.801640e+01 7.217838e+01 6.323203e+01 5.370806e+01 6.142739e+01 4.326793e+01 4.292655e+01 4.092160e+01 8.940382e+01 5.229690e+00 4.425372e+00 6.047456e+00 4.624973e+00 5.582642e+00 4.704553e+00 6.608916e+00 4.607773e+00 5.624085e+00 4.228005e+00 4.069329e+00 4.604698e+00 9.579957e+00 9.607987e-01 9.599335e-01 1.355181e+00 8.197327e-01 1.230664e+00 1.013824e+00 1.216106e+00 9.507197e-01 1.003797e+00 8.330743e-01 8.101284e-01 8.789644e-01 1.262974e+00
<GCONST> 1.456254e+02
<TRANSP> 5
 0.000000e+00 1.000000e+00 0.000000e+00 0.000000e+00 0.000000e+00
 0.000000e+00 8.159596e-01 1.840404e-01 0.000000e+00 0.000000e+00
 0.000000e+00 0.000000e+00 5.033205e-01 4.966795e-01 0.000000e+00
 0.000000e+00 0.000000e+00 0.000000e+00 6.335464e-01 3.664536e-01
 0.000000e+00 0.000000e+00 0.000000e+00 0.000000e+00 0.000000e+00
<ENDHMM>
~h "l"
<BEGINHMM>
<NUMSTATES> 5
<STATE> 2
<MEAN> 39
 1.338755e-01 -6.066513e+00 -4.368819e+00 -8.883294e+00 -1.080169e+01 -3.651388e+00 -1.345894e+01 -1.126593e+01 2.116568e-01 1.598336e+00 -1.647947e+00 -6.077340e+00 6.617691e+01 4.017246e-01 3.856917e-01 6.798810e-01 -5.220489e-01 9.574223e-01 -1.966543e-01 -1.623095e+00 -1.296310e+00 3.141043e-01 8.422782e-01 1.626821e-02 1.463759e-01 -3.434988e-01 -1.844507e-01 1.350679e-01 5.762123e-02 -1.500738e-01 -3.548662e-03 2.262486e-01 1.066969e-01 9.223918e-02 -1.201924e-01 -1.912051e-01 -1.764963e-02 -1.654309e-03 -2.762141e-02
<VARIANCE> 39
 2.717027e+01 3.210635e+01 6.876031e+01 7.435411e+01 6.446545e+01 6.951893e+01 9.138905e+01 1.056704e+02 7.248266e+01 6.311834e+01 6.433324e+01 4.889995e+01 5.767873e+01 1.262941e+00 1.982017e+00 3.310286e+00 4.321669e+00 4.985019e+00 5.617530e+00 5.233108e+00 5.281889e+00 5.754626e+00 4.324475e+00 4.796012e+00 3.438129e+00 1.777127e+00 2.282035e-01 3.147047e-01 4.173311e-01 6.068506e-01 7.835023e-01 7.937997e-01 8.755019e-01 1.034050e+00 8.875038e-01 8.068817e-01 7.292743e-01 5.313606e-01 1.883881e-01
<GCONST> 1.343974e+02
<STATE> 3
<MEAN> 39
 3.625582e-01 -4.331026e+00 -2.114032e+00 -1.143158e+01 -8.562579e+00 -2.468615e+00 -1.836178e+01 -1.479054e+01 1.321059e+00 3.238711e+00 -1.173871e+00 -5.940706e+00 6.609119e+01 -1.938246e-01 3.097646e-02 9.517007e-02 -2.087365e-01 4.971231e-02 6.216454e-02 -1.053164e-01 3.361271e-01 -1.636463e-02 -1.313896e-01 -1.925695e-01 1.234991e-02 7.513944e-02 -1.899544e-01 -2.974435e-01 -4.302300e-01 2.855501e-01 -3.993673e-01 7.756743e-02 8.126087e-01 7.747245e-01 -4.447792e-02 -4.480087e-01 -1.790500e-01 -1.361065e-01 2.499793e-01
<VARIANCE> 39
 1.891543e+01 2.699718e+01 6.535835e+01 7.049729e+01 5.297208e+01 6.133761e+01 9.737334e+01 8.904456e+01 7.035847e+01 6.865507e+01 6.240161e+01 4.529525e+01 3.856437e+01 6.974363e-01 1.589932e+00 3.264280e+00 3.200984e+00 3.115131e+00 3.726848e+00 4.460973e+00 6.180213e+00 5.041258e+00 3.391007e+00 3.570499e+00 2.741874e+00 1.331184e+00 1.282196e-01 3.227730e-01 3.930722e-01 5.342231e-01 8.133101e-01 8.393763e-01 1.006619e+00 9.360561e-01 1.019746e+00 8.135382e-01 1.012968e+00 5.993186e-01 1.647962e-01
<GCONST> 1.295329e+02
<STATE> 4
<MEAN> 39
 -1.168839e+00 -4.150366e+00 -2.053053e+00 -1.392911e+01 -5.881172e+00 -1.798905e+00 -1.616191e+01 -1.082134e+01 -9.491066e-01 2.173705e+00 -3.132585e+00 -4.375141e+00 6.352351e+01 -3.110026e-01 -3.677890e-01 -4.853323e-01 4.997149e-01 -2.728195e-01 1.901639e-01 1.037414e+00 9.937165e-01 -7.711300e-02 -6.614868e-01 -4.017392e-01 -2.280146e-01 6.736197e-02 -7.673526e-02 -6.361323e-02 -1.360194e-01 1.576245e-01 -7.173537e-02 5.911573e-02 2.865823e-01 9.439551e-02 -2.815345e-02 -1.682586e-01 -7.500908e-04 -8.187973e-02 2.587714e-02
<VARIANCE> 39
 2.640882e+01 3.209598e+01 7.477814e+01 1.088831e+02 7.100555e+01 6.039877e+01 8.980046e+01 7.015141e+01 6.479317e+01 6.228928e+01 5.501595e+01 4.770458e+01 8.158178e+01 7.403314e-01 2.331741e+00 2.759728e+00 2.809162e+00 3.398400e+00 3.420955e+00 4.282972e+00 4.652886e+00 4.013966e+00 3.118407e+00 4.097259e+00 2.773221e+00 2.337775e+00 1.170429e-01 2.730040e-01 2.946057e-01 4.509345e-01 5.333807e-01 4.837238e-01 5.864673e-01 5.884669e-01 5.318495e-01 5.216946e-01 5.808744e-01 3.938881e-01 1.893870e-01
<GCONST> 1.266580e+02
<TRANSP> 5
 0.000000e+00 1.000000e+00 0.000000e+00 0.000000e+00 0.000000e+00
 0.000000e+00 5.333725e-01 4.666275e-01 0.000000e+00 0.000000e+00
 0.000000e+00 0.000000e+00 5.667725e-01 4.332275e-01 0.000000e+00
 0.000000e+00 0.000000e+00 0.000000e+00 6.218023e-01 3.781976e-01
 0.000000e+00 0.000000e+00 0.000000e+00 0.000000e+00 0.000000e+00
<ENDHMM>
~h "m"
<BEGINHMM>
<NUMSTATES> 5
<STATE> 2
<MEAN> 39
 1.229869e+00 -2.417706e+00 -2.775674e+00 -4.939610e+00 -8.951531e+00 1.471178e+00 -7.873852e+00 -1.185855e+01 -7.651700e+00 -4.666224e+00 -1.258574e+00 -6.158745e+00 5.902620e+01 3.162360e-01 1.050437e+00 1.589978e+00 1.929931e+00 3.503816e-01 6.537597e-01 4.908627e-01 -1.967557e+00 -2.144217e+00 -9.462188e-01 -6.695228e-01 6.710424e-01 -1.095863e+00 -2.850747e-01 -1.873033e-01 3.011229e-02 -9.444475e-02 -1.881397e-02 -2.129045e-02 4.632711e-03 1.685107e-01 1.234597e-01 -1.403991e-01 -2.184011e-01 -1.104291e-03 3.193052e-01
<VARIANCE> 39
 2.812778e+01 3.485812e+01 5.772094e+01 6.362814e+01 4.778723e+01 5.480460e+01 5.081129e+01 8.355263e+01 7.028804e+01 4.673919e+01 6.338612e+01 3.633318e+01 8.351196e+01 1.863944e+00 2.459070e+00 4.111502e+00 4.021206e+00 3.795408e+00 4.147764e+00 3.887374e+00 6.248768e+00 5.873601e+00 3.480515e+00 6.130937e+00 4.584116e+00 4.073370e+00 2.362175e-01 3.228044e-01 5.356221e-01 6.692549e-01 5.431378e-01 4.845499e-01 5.554487e-01 8.937059e-01 8.363401e-01 5.173862e-01 7.654356e-01 5.242069e-01 3.411117e-01
<GCONST> 1.328332e+02
<STATE> 3
<MEAN> 39
 1.643662e+00 -1.596908e+00 6.788232e-01 -1.074380e+00 -9.558965e+00 5.317229e+00 -6.680853e+00 -1.561032e+01 -1.180467e+01 -8.827197e+00 -3.855527e+00 -4.740334e+00 5.985123e+01 -7.434210e-02 -3.609092e-03 -1.902737e-02 -1.676654e-01 2.467648e-02 6.394652e-02 1.662985e-01 1.422183e-01 2.669353e-02 -1.716297e-01 -1.683605e-01 1.183696e-01 1.525654e-01 -1.543390e-02 -1.569670e-01 -4.912156e-01 -5.787483e-01 -5.736502e-02 -2.672291e-01 -1.072279e-01 5.421768e-01 5.945679e-01 3.886775e-01 2.247340e-01 -1.305080e-01 2.065511e-01
<VARIANCE> 39
 1.327254e+01 2.436746e+01 3.465288e+01 3.843942e+01 3.838728e+01 5.616061e+01 4.996683e+01 9.091863e+01 7.064561e+01 5.190538e+01 8.141243e+01 3.294645e+01 3.671077e+01 4.727940e-01 1.112290e+00 1.969402e+00 2.648697e+00 1.667714e+00 2.174468e+00 1.761477e+00 2.747132e+00 2.966269e+00 2.344043e+00 2.933775e+00 1.792934e+00 1.570505e+00 1.174899e-01 2.205576e-01 3.547397e-01 4.102984e-01 3.595795e-01 4.236606e-01 3.949679e-01 6.216152e-01 6.261700e-01 4.331502e-01 6.693012e-01 4.873715e-01 2.234945e-01
<GCONST> 1.155876e+02
<STATE> 4
<MEAN> 39
 -7.418530e+00 -1.873365e+00 -3.126237e+00 -3.138536e+00 -4.434209e+00 -2.120479e+00 -6.160882e+00 -9.644175e+00 -8.062613e+00 -6.527130e+00 -5.506845e+00 -2.906281e+00 4.386173e+01 -2.887281e-02 -2.158045e-02 -2.029067e-01 -2.811483e-01 -2.145527e-02 -9.727100e-02 -1.534563e-02 3.367441e-01 2.579111e-01 2.368087e-01 1.371676e-01 -5.338835e-02 1.194934e-02 1.269367e-03 -3.329938e-02 -2.636001e-02 -4.355480e-02 -8.631810e-03 2.075914e-02 -4.295531e-02 5.712327e-02 6.610704e-02 3.101559e-02 3.519881e-02 -5.539451e-02 6.081519e-02
<VARIANCE> 39
 4.791201e+01 3.009610e+01 3.912532e+01 2.986146e+01 3.665097e+01 3.776266e+01 3.291923e+01 7.883073e+01 5.602571e+01 3.342090e+01 4.310960e+01 2.188264e+01 1.393512e+02 7.775128e-01 1.321324e+00 2.069850e+00 2.244385e+00 1.679979e+00 1.903309e+00 1.855289e+00 2.773425e+00 2.859891e+00 2.151488e+00 2.374510e+00 1.787698e+00 1.816109e+00 1.362753e-01 1.958182e-01 2.484336e-01 2.875943e-01 3.166231e-01 3.327486e-01 3.397606e-01 4.413073e-01 4.381670e-01 3.687011e-01 3.814914e-01 3.048093e-01 1.477582e-01
<GCONST> 1.123554e+02
<TRANSP> 5
 0.000000e+00 1.000000e+00 0.000000e+00 0.000000e+00 0.000000e+00
 0.000000e+00 5.900444e-01 4.099556e-01 0.000000e+00 0.000000e+00
 0.000000e+00 0.000000e+00 7.459326e-01 2.540674e-01 0.000000e+00
 0.000000e+00 0.000000e+00 0.000000e+00 8.509210e-01 1.490790e-01
 0.000000e+00 0.000000e+00 0.000000e+00 0.000000e+00 0.000000e+00
<ENDHMM>
~h "n"
<BEGINHMM>
<NUMSTATES> 5
<STATE> 2
<MEAN> 39
 9.673091e-01 -5.073264e+00 -2.466500e+00 -2.498306e+00 -1.095210e+01 -5.675748e+00 -1.100111e+01 -7.366270e+00 3.103383e-01 -2.627653e+00 -7.494047e+00 -7.382988e+00 6.417824e+01 6.210483e-01 2.118351e+00 2.084134e+00 2.095949e+00 -2.881264e-01 -4.359626e-01 1.593936e-01 -3.105514e+00 -9.003252e-01 4.667284e-01 -1.103039e+00 1.159324e+00 -2.376414e+00 -2.059858e-01 5.075429e-02 -3.855508e-02 -1.902824e-01 -5.554049e-02 1.924345e-01 3.766359e-01 -1.826445e-01 -1.567253e-01 -1.649163e-01 4.521257e-02 1.590921e-01 1.428415e-01
<VARIANCE> 39
 1.223358e+01 3.777757e+01 5.566997e+01 4.627406e+01 4.769236e+01 5.408170e+01 6.112862e+01 1.324825e+02 6.750178e+01 4.085704e+01 5.673571e+01 4.195823e+01 4.106500e+01 8.981455e-01 1.941786e+00 3.593421e+00 2.580590e+00 4.192518e+00 5.130386e+00 5.817660e+00 6.444471e+00 4.504368e+00 3.939501e+00 5.518432e+00 3.726730e+00 1.349121e+00 1.253293e-01 4.054369e-01 4.510036e-01 4.816327e-01 5.293478e-01 6.029398e-01 7.065743e-01 1.350566e+00 6.608796e-01 6.238524e-01 5.629103e-01 4.695273e-01 3.058950e-01
<GCONST> 1.285129e+02
<STATE> 3
<MEAN> 39
 1.667576e+00 -3.234493e-01 1.794664e+00 2.241034e+00 -1.336963e+01 -5.375036e+00 -8.751408e+00 -1.636988e+01 -1.785287e+00 -2.326145e+00 -8.809603e+00 -3.558369e+00 5.953360e+01 1.318566e-02 6.066549e-01 4.298921e-01 2.717596e-01 -3.762412e-02 1.896071e-01 1.921444e-01 -3.371347e-01 -4.163009e-01 -7.147952e-02 -2.042978e-01 4.187967e-01 -6.545659e-01 -1.557055e-01 -2.944299e-01 -3.521371e-01 -4.227632e-01 2.319054e-01 9.063494e-02 -1.055928e-01 7.713982e-01 7.901017e-02 -1.048080e-01 2.371800e-01 -2.662276e-01 2.569762e-01
<VARIANCE> 39
 1.024795e+01 1.917802e+01 3.312931e+01 2.803672e+01 3.735673e+01 5.602219e+01 5.474038e+01 1.134476e+02 7.739951e+01 4.041333e+01 8.442733e+01 3.831573e+01 2.326148e+01 4.589952e-01 1.185284e+00 1.495451e+00 1.352494e+00 1.731380e+00 2.011540e+00 2.344681e+00 3.669899e+00 2.723409e+00 1.878048e+00 2.462648e+00 1.950253e+00 1.129004e+00 1.263611e-01 2.720951e-01 3.960952e-01 3.556620e-01 4.451181e-01 5.168865e-01 5.395215e-01 8.170151e-01 5.557341e-01 4.403709e-01 6.250772e-01 4.172526e-01 2.761917e-01
<GCONST> 1.146105e+02
<STATE> 4
<MEAN> 39
 -3.791845e+00 1.613577e+00 1.528864e+00 9.737068e-01 -7.511679e+00 -4.804324e+00 -7.105661e+00 -1.026970e+01 -4.332511e+00 -4.479088e+00 -8.961760e+00 -2.860409e+00 4.767221e+01 -4.690656e-01 1.776127e-02 -2.165633e-01 -2.875088e-01 5.286608e-01 2.349395e-01 -2.023721e-02 7.983894e-01 -1.387755e-01 -1.333911e-01 3.617336e-01 -1.852263e-01 -7.207594e-01 -1.071876e-01 -1.377729e-01 -9.894852e-02 -1.356890e-01 1.659258e-02 1.170532e-02 -2.892920e-02 1.038739e-01 7.343375e-02 2.788232e-03 1.199729e-01 -6.320637e-02 1.148420e-01
<VARIANCE> 39
 4.408306e+01 3.208402e+01 3.973933e+01 3.224522e+01 4.385559e+01 3.646469e+01 4.460642e+01 9.380055e+01 4.773423e+01 3.540828e+01 6.578302e+01 3.084411e+01 1.048145e+02 1.123610e+00 1.933406e+00 1.884663e+00 2.073330e+00 2.330673e+00 2.406438e+00 2.489910e+00 3.955125e+00 2.782037e+00 2.201098e+00 2.867238e+00 2.175199e+00 2.713209e+00 2.144230e-01 3.049922e-01 3.177204e-01 3.587112e-01 4.117744e-01 4.147338e-01 4.586380e-01 6.048175e-01 4.697081e-01 4.069292e-01 4.835826e-01 3.611998e-01 3.103981e-01
<GCONST> 1.197764e+02
<TRANSP> 5
 0.000000e+00 1.000000e+00 0.000000e+00 0.000000e+00 0.000000e+00
 0.000000e+00 5.753164e-01 4.246835e-01 0.000000e+00 0.000000e+00
 0.000000e+00 0.000000e+00 7.476709e-01 2.523291e-01 0.000000e+00
 0.000000e+00 0.000000e+00 0.000000e+00 7.944099e-01 2.055901e-01
 0.000000e+00 0.000000e+00 0.000000e+00 0.000000e+00 0.000000e+00
<ENDHMM>
~h "o"
<BEGINHMM>
<NUMSTATES> 5
<STATE> 2
<MEAN> 39
 -1.363854e+00 -1.668927e+00 -8.706925e+00 -1.492867e+01 -1.081265e+01 2.847420e+00 -1.103749e+01 -6.902381e+00 -3.304990e+00 -1.199980e+00 3.494285e-01 -4.590974e+00 6.224880e+01 1.796439e+00 -1.821067e-01 -9.034197e-01 -2.509062e+00 -1.392571e+00 1.911855e+00 1.470483e-01 -5.656428e-01 7.508589e-01 1.109580e-01 1.060152e+00 -3.877313e-01 2.105907e+00 -3.616486e-01 -2.094949e-02 1.982134e-01 2.321433e-01 1.489304e-01 -2.738020e-02 3.153796e-01 -5.168401e-02 -5.829335e-02 -1.169535e-01 -1.925889e-03 1.307377e-01 -4.062715e-01
<VARIANCE> 39
 4.049493e+01 3.603482e+01 5.752193e+01 9.003105e+01 6.003225e+01 5.987984e+01 7.211066e+01 6.069196e+01 7.515363e+01 5.973941e+01 4.839685e+01 3.976204e+01 1.113542e+02 4.778634e+00 3.069174e+00 6.345520e+00 6.095120e+00 6.927527e+00 5.616717e+00 4.897215e+00 6.078098e+00 5.270885e+00 5.038162e+00 4.789291e+00 3.813171e+00 5.801943e+00 8.355789e-01 5.346120e-01 8.537045e-01 1.115583e+00 9.515553e-01 8.763403e-01 8.163171e-01 8.728681e-01 1.044119e+00 8.254327e-01 7.085715e-01 6.164659e-01 1.115420e+00
<GCONST> 1.438658e+02
<STATE> 3
<MEAN> 39
 1.574680e+00 -2.742667e+00 -1.161814e+01 -1.974690e+01 -1.454494e+01 8.499383e+00 -9.739256e+00 -9.514463e+00 -2.534677e-01 -2.589848e+00 4.717478e+00 -4.775117e+00 6.898130e+01 8.840401e-02 -8.390493e-02 -3.254610e-01 -3.690869e-01 1.440127e-01 4.263448e-01 4.145800e-01 -1.279652e-01 4.517110e-03 -2.081865e-02 1.630810e-01 2.820327e-02 1.858895e-01 -2.342459e-01 1.017051e-01 3.408936e-01 7.745476e-01 4.017031e-01 -6.313835e-01 -9.970594e-02 1.077456e-01 -2.269765e-01 3.776830e-02 -4.614193e-01 4.994011e-02 -5.458604e-01
<VARIANCE> 39
 1.234574e+01 3.475767e+01 4.150414e+01 6.288311e+01 4.168143e+01 4.841806e+01 8.238898e+01 5.491351e+01 5.836642e+01 7.268160e+01 4.868719e+01 4.598588e+01 2.387056e+01 5.791003e-01 1.686041e+00 1.662612e+00 4.693261e+00 2.808270e+00 3.631627e+00 3.785686e+00 3.440662e+00 4.418540e+00 4.303992e+00 2.869198e+00 2.709244e+00 1.700828e+00 2.524153e-01 2.888023e-01 3.750952e-01 4.979870e-01 6.387357e-01 5.738715e-01 6.564170e-01 6.655925e-01 7.114937e-01 8.099754e-01 5.966892e-01 5.703027e-01 2.631878e-01
<GCONST> 1.242273e+02
<STATE> 4
<MEAN> 39
 7.229816e-01 -1.059967e+00 -1.093996e+01 -1.907378e+01 -1.126319e+01 5.599994e+00 -8.006682e+00 -7.997922e+00 -3.315224e+00 -2.131023e+00 7.708203e-01 -3.612621e+00 6.243556e+01 -1.227179e-01 1.017598e-01 3.060104e-01 1.043194e+00 3.768931e-01 -5.924878e-01 -6.895800e-03 -2.845388e-02 -2.282081e-03 7.409021e-02 -4.759985e-01 -1.060532e-01 -1.007836e+00 -6.164635e-02 1.858797e-02 1.683764e-01 2.774443e-01 4.336152e-02 -1.235479e-01 -5.787344e-02 -3.237228e-02 1.605878e-02 -3.538111e-02 -6.829156e-02 -3.101454e-03 -1.752591e-01
<VARIANCE> 39
 2.050653e+01 3.661078e+01 5.070860e+01 7.521685e+01 5.045712e+01 4.556717e+01 7.620071e+01 5.164816e+01 5.572561e+01 6.731770e+01 4.735649e+01 4.301345e+01 1.122093e+02 7.193371e-01 1.385661e+00 1.623259e+00 3.107610e+00 2.331078e+00 2.540134e+00 2.556101e+00 2.435506e+00 2.670243e+00 2.504816e+00 2.398748e+00 2.035648e+00 2.497258e+00 1.257390e-01 2.260994e-01 2.547362e-01 3.727776e-01 3.876734e-01 4.022350e-01 4.689237e-01 4.201216e-01 4.617812e-01 4.580657e-01 3.885234e-01 3.776644e-01 2.975290e-01
<GCONST> 1.186737e+02
<TRANSP> 5
 0.000000e+00 1.000000e+00 0.000000e+00 0.000000e+00 0.000000e+00
 0.000000e+00 5.816063e-01 4.183937e-01 0.000000e+00 0.000000e+00
 0.000000e+00 0.000000e+00 6.980071e-01 3.019929e-01 0.000000e+00
 0.000000e+00 0.000000e+00 0.000000e+00 8.275886e-01 1.724114e-01
 0.000000e+00 0.000000e+00 0.000000e+00 0.000000e+00 0.000000e+00
<ENDHMM>
~h "p"
<BEGINHMM>
<NUMSTATES> 5
<STATE> 2
<MEAN> 39
 -8.825760e+00 5.901722e-01 -4.281366e+00 -3.985701e+00 -4.816926e+00 -2.684776e+00 -5.686393e+00 -5.602238e+00 -4.677587e+00 -3.304543e+00 -3.590992e+00 -3.902442e+00 3.717385e+01 -7.342262e-01 7.918210e-02 1.153794e-02 1.890812e-01 9.356807e-02 -3.037243e-01 1.119273e-01 2.704978e-01 1.451347e-01 3.611196e-02 -7.061626e-03 2.136728e-01 -1.005311e+00 -2.205930e-02 -2.197186e-01 -5.020127e-02 -8.483182e-02 -9.109320e-02 -1.576196e-02 -6.966290e-02 -2.017792e-02 2.776011e-02 -1.056281e-02 6.823806e-02 3.631823e-02 6.031106e-01
<VARIANCE> 39
 4.864196e+01 2.479145e+01 2.710888e+01 2.474192e+01 2.156225e+01 3.137217e+01 2.603807e+01 2.938181e+01 3.136506e+01 2.644491e+01 2.573492e+01 2.499305e+01 4.787809e+01 1.442653e+00 1.394170e+00 1.394161e+00 1.614298e+00 1.736791e+00 2.107328e+00 1.978400e+00 2.254981e+00 2.213172e+00 2.034873e+00 2.229480e+00 1.718139e+00 3.742527e+00 2.610586e-01 3.161508e-01 3.075629e-01 3.489127e-01 3.838836e-01 4.248562e-01 4.219633e-01 4.550890e-01 4.592846e-01 4.186035e-01 4.338484e-01 3.492019e-01 7.886363e-01
<GCONST> 1.120001e+02
<STATE> 3
<MEAN> 39
 -9.851890e+00 5.762094e-01 -2.964898e+00 -2.752550e+00 -4.946404e+00 -3.748523e+00 -5.689704e+00 -4.991500e+00 -3.834741e+00 -2.952885e+00 -3.001434e+00 -2.845198e+00 4.021239e+01 2.302631e-02 -1.760083e+00 -6.181932e-01 -9.494694e-01 -4.556613e-01 -2.020722e-01 -6.372683e-01 -2.387129e-01 2.272936e-01 -2.345577e-02 6.687592e-01 2.156033e-01 5.456102e+00 1.032616e+00 -4.708052e-01 -4.147471e-01 -8.288181e-01 -4.997744e-01 4.955601e-01 -2.748982e-01 -2.515535e-01 6.151526e-02 3.290150e-02 2.411710e-01 -4.699989e-01 1.954945e+00
<VARIANCE> 39
 3.306817e+01 2.278987e+01 2.642441e+01 2.243640e+01 2.404671e+01 3.155988e+01 3.042525e+01 2.843336e+01 3.003887e+01 2.454222e+01 2.379173e+01 2.117077e+01 8.025674e+01 5.286933e+00 3.080519e+00 4.093443e+00 4.698681e+00 3.772215e+00 5.267581e+00 3.889467e+00 3.720061e+00 4.060028e+00 3.567126e+00 3.635117e+00 3.297633e+00 9.653390e+00 4.987437e-01 5.982178e-01 7.958210e-01 7.618032e-01 7.518512e-01 9.702677e-01 8.278642e-01 7.354325e-01 7.029853e-01 6.615968e-01 6.255825e-01 6.236813e-01 1.202244e+00
<GCONST> 1.300802e+02
<STATE> 4
<MEAN> 39
 -5.453963e+00 -5.827959e+00 -7.712381e+00 -9.523256e+00 -7.223916e+00 -1.871032e+00 -8.058626e+00 -7.065894e+00 -3.270954e+00 -2.394084e+00 -4.225768e-01 -4.308231e+00 6.057851e+01 2.619294e+00 -1.659689e+00 -1.317297e+00 -2.441660e+00 -1.061695e+00 1.430374e+00 -6.858098e-01 -5.456879e-01 5.129593e-01 1.828001e-01 7.160325e-01 -1.231092e+00 5.961338e+00 1.627763e-01 3.858812e-01 2.369673e-01 2.137116e-01 -5.028934e-02 1.214177e-01 8.302092e-02 1.361174e-01 1.064814e-01 -4.693667e-02 -2.461131e-01 -2.290072e-01 -1.076474e+00
<VARIANCE> 39
 5.769196e+01 2.813854e+01 3.729660e+01 6.870685e+01 3.186171e+01 6.620605e+01 3.771960e+01 3.122153e+01 2.971732e+01 3.085048e+01 3.187140e+01 3.320516e+01 7.382230e+01 5.041045e+00 5.559034e+00 7.240474e+00 7.823651e+00 6.603037e+00 7.761134e+00 6.521705e+00 5.003627e+00 4.859928e+00 4.463031e+00 4.794923e+00 5.148148e+00 1.203753e+01 1.234303e+00 7.278618e-01 7.405582e-01 1.404628e+00 1.050171e+00 1.236097e+00 7.463078e-01 7.897948e-01 8.140164e-01 6.661052e-01 7.932212e-01 6.925022e-01 1.308792e+00
<GCONST> 1.420161e+02
<TRANSP> 5
 0.000000e+00 1.000000e+00 0.000000e+00 0.000000e+00 0.000000e+00
 0.000000e+00 8.709524e-01 1.290476e-01 0.000000e+00 0.000000e+00
 0.000000e+00 0.000000e+00 5.264406e-01 4.735594e-01 0.000000e+00
 0.000000e+00 0.000000e+00 0.000000e+00 4.993034e-01 5.006967e-01
 0.000000e+00 0.000000e+00 0.000000e+00 0.000000e+00 0.000000e+00
<ENDHMM>
~h "q"
<BEGINHMM>
<NUMSTATES> 5
<STATE> 2
<MEAN> 39
 -8.018138e+00 -8.484743e-01 5.108706e+00 -1.690274e+01 -1.250974e+01 -3.957440e+00 -1.573118e+01 -4.976062e+00 -9.390639e+00 -5.268812e-01 -3.801185e+00 -5.216963e+00 5.431781e+01 1.700418e-01 1.395763e-01 -8.601938e-01 -4.923445e-01 8.165500e-01 3.423785e-01 3.211980e-01 -4.596949e-03 -2.136759e-01 -2.252135e-01 -5.060569e-01 3.715698e-01 4.472015e-02 1.046865e-01 -8.455807e-02 9.934685e-02 1.592591e-01 -9.807026e-02 -1.427059e-02 -6.956383e-02 -2.785039e-03 1.701854e-02 -8.984323e-02 1.885185e-01 -8.622277e-02 -1.392578e-01
<VARIANCE> 39
 5.348198e+01 5.607663e+01 1.731426e+02 1.623783e+02 8.887509e+01 4.927896e+01 5.331526e+01 5.162062e+01 1.781565e+01 2.051555e+01 2.868347e+01 2.358026e+01 1.283507e+02 2.690545e+00 3.301929e+00 1.384236e+01 8.303489e+00 5.488315e+00 2.548804e+00 3.129842e+00 3.061295e+00 1.955515e+00 1.945270e+00 3.184742e+00 2.585892e+00 9.826142e+00 3.514446e-01 6.960866e-01 2.722111e+00 1.509789e+00 9.766555e-01 4.740001e-01 5.364195e-01 5.504703e-01 3.740109e-01 3.724514e-01 6.528514e-01 5.057226e-01 1.341784e+00
<GCONST> 1.362913e+02
<STATE> 3
<MEAN> 39
 -7.470819e+00 -4.924729e+00 -8.688335e-01 -1.884803e+01 2.857687e+00 -3.181146e+00 -1.394925e+01 -1.038196e+01 -3.658382e+00 -8.219144e+00 -6.542583e+00 -2.775317e+00 5.846895e+01 -2.175258e-01 -2.437316e-01 -3.315318e-01 1.051089e+00 9.729590e-01 -8.872944e-01 -2.358325e-01 5.928949e-01 1.044495e+00 -7.567672e-01 -2.220344e-01 -4.872279e-01 -6.914613e-01 2.090690e-01 1.920892e-01 3.018756e-02 6.029284e-02 -5.706579e-01 2.486053e-01 -2.323069e-01 3.924099e-01 -7.292752e-02 3.043488e-01 2.134545e-01 -1.989011e-01 -2.597719e-01
<VARIANCE> 39
 5.083783e+01 9.121436e+01 5.059731e+01 1.545711e+02 9.284357e+01 3.493403e+01 2.049442e+01 2.489619e+01 8.597401e+01 1.283919e+01 1.791404e+01 1.508718e+01 1.631695e+02 2.787277e+00 2.933239e+00 2.984260e+00 2.135038e+00 5.128874e+00 1.014704e+00 2.177145e+00 2.098527e+00 2.613372e+00 2.863011e+00 1.727966e+00 1.625276e+00 4.220040e+00 2.363713e-01 3.141497e-01 2.708260e-01 6.016506e-01 3.067692e-01 3.598986e-01 2.766897e-01 3.309743e-01 7.084144e-01 4.430547e-01 6.688240e-01 4.501262e-01 3.011298e-01
<GCONST> 1.201422e+02
<STATE> 4
<MEAN> 39
 -1.403312e+01 -9.513729e-01 -3.835103e+00 -3.632899e+00 -4.639184e+00 -5.193770e+00 -6.958407e+00 -6.121583e+00 -5.861871e+00 -3.767265e+00 -3.806965e+00 -1.345247e+00 3.376017e+01 -1.199976e-04 -7.910323e-02 -3.690524e-02 2.407684e-02 6.396906e-02 3.275508e-03 -1.076390e-02 7.967100e-02 4.385003e-03 -2.643426e-02 4.082017e-02 2.530630e-02 -1.486774e-02 -4.386659e-03 1.862944e-02 1.327001e-02 -1.587924e-02 -3.150810e-03 1.143756e-02 -1.400286e-02 -1.946353e-02 -9.542563e-03 -1.345989e-02 -5.758409e-03 -1.873061e-02 3.941567e-02
<VARIANCE> 39
 7.489317e+00 2.045215e+01 1.210879e+01 2.140950e+01 2.047554e+01 2.169244e+01 3.000643e+01 3.040111e+01 2.173070e+01 1.502647e+01 1.953442e+01 1.676346e+01 3.567331e+01 5.091281e-01 1.139151e+00 8.450993e-01 1.163851e+00 1.471288e+00 1.341794e+00 2.328235e+00 2.155547e+00 1.551864e+00 1.293036e+00 2.064983e+00 1.989568e+00 9.338373e-01 8.919132e-02 2.178840e-01 1.430668e-01 2.073586e-01 2.568161e-01 2.620034e-01 4.656106e-01 4.277352e-01 3.157662e-01 2.595749e-01 4.111140e-01 4.195177e-01 1.266658e-01
<GCONST> 9.600979e+01
<TRANSP> 5
 0.000000e+00 1.000000e+00 0.000000e+00 0.000000e+00 0.000000e+00
 0.000000e+00 8.733166e-01 1.266834e-01 0.000000e+00 0.000000e+00
 0.000000e+00 0.000000e+00 5.949858e-01 4.050142e-01 0.000000e+00
 0.000000e+00 0.000000e+00 0.000000e+00 9.749395e-01 2.506048e-02
 0.000000e+00 0.000000e+00 0.000000e+00 0.000000e+00 0.000000e+00
<ENDHMM>
~h "r"
<BEGINHMM>
<NUMSTATES> 5
<STATE> 2
<MEAN> 39
 -1.123084e+00 -7.410910e+00 -8.519903e+00 -4.859095e+00 -1.032582e+01 -4.732631e+00 -1.134797e+01 -5.992232e+00 3.897969e+00 -7.453819e-01 -3.351506e+00 -7.286540e+00 6.634176e+01 4.844567e-01 -1.153450e-01 1.952739e-01 9.940155e-01 -9.233759e-02 -2.441314e-01 -1.134049e+00 -1.641180e-01 4.073038e-01 -7.067313e-03 1.033777e-01 1.033120e-01 -5.909456e-01 -3.835492e-02 3.367609e-02 1.012377e-01 -1.368794e-01 -1.182620e-02 3.524201e-02 1.416376e-01 5.937389e-02 -3.914699e-01 -5.892869e-02 1.718286e-01 -3.705648e-03 -3.623781e-02
<VARIANCE> 39
 2.349719e+01 2.790637e+01 5.338413e+01 4.054523e+01 5.803831e+01 5.524678e+01 7.646477e+01 8.972948e+01 5.909253e+01 4.499242e+01 4.195459e+01 4.465055e+01 6.966038e+01 2.282861e+00 1.858804e+00 3.996561e+00 3.900790e+00 4.857497e+00 5.703646e+00 5.045380e+00 4.503109e+00 5.241632e+00 4.013755e+00 3.759710e+00 3.706790e+00 4.129030e+00 4.346346e-01 3.105682e-01 6.197101e-01 6.401831e-01 7.672928e-01 7.801148e-01 8.935127e-01 8.470376e-01 8.755958e-01 6.805533e-01 6.328614e-01 6.363134e-01 6.764690e-01
<GCONST> 1.346128e+02
<STATE> 3
<MEAN> 39
 9.244346e-02 -6.802221e+00 -7.073846e+00 -2.288004e+00 -9.793557e+00 -6.685593e+00 -1.377233e+01 -5.549035e+00 2.591797e+00 -3.110840e-01 -1.893037e+00 -6.604564e+00 6.485661e+01 1.325512e-01 1.785814e-01 5.388774e-01 3.291218e-01 2.280791e-01 -3.555240e-01 -9.612606e-02 1.776251e-01 -8.288737e-01 -6.993364e-02 2.859975e-01 2.627521e-01 -7.769384e-01 -2.041527e-01 7.320289e-02 5.868436e-02 -4.344658e-01 -9.172795e-02 2.454591e-01 4.294790e-01 1.309822e-01 -2.723902e-01 -1.271865e-01 -5.923431e-02 -5.951057e-02 1.435981e-01
<VARIANCE> 39
 1.983924e+01 2.749183e+01 5.130913e+01 3.691504e+01 6.559022e+01 8.280540e+01 7.106983e+01 9.232441e+01 6.025206e+01 4.491273e+01 4.366270e+01 4.758593e+01 5.191867e+01 1.675419e+00 1.854272e+00 3.519289e+00 3.096450e+00 4.700856e+00 6.307213e+00 4.998374e+00 4.779564e+00 5.117405e+00 3.642249e+00 3.377630e+00 3.609369e+00 3.364153e+00 3.614413e-01 3.841542e-01 6.028905e-01 6.662397e-01 1.124214e+00 1.411286e+00 9.345912e-01 9.171038e-01 1.126446e+00 8.141571e-01 8.383947e-01 7.443333e-01 7.928087e-01
<GCONST> 1.357609e+02
<STATE> 4
<MEAN> 39
 -3.385496e+00 -6.004960e+00 -6.327884e+00 -3.402660e+00 -7.299066e+00 -5.389780e+00 -1.134747e+01 -5.100908e+00 2.285856e-01 -2.042616e+00 -2.504037e+00 -5.678434e+00 5.622345e+01 -2.279637e-01 2.066368e-01 3.336069e-01 -1.097949e-01 -1.198475e-01 1.372857e-01 3.612268e-01 1.082065e-01 -5.852218e-01 -2.269567e-01 5.314825e-02 1.034682e-01 -4.777711e-01 -4.457900e-02 1.098416e-03 3.728601e-03 -1.041322e-01 -1.324115e-01 9.867842e-02 1.558581e-01 -3.451823e-02 -3.623559e-02 -2.472668e-02 -1.700650e-02 -8.429198e-02 1.848802e-01
<VARIANCE> 39
 4.770718e+01 3.630367e+01 5.498811e+01 3.571681e+01 6.103695e+01 5.844176e+01 7.058471e+01 6.570731e+01 4.954675e+01 4.634295e+01 4.398831e+01 4.171226e+01 1.663054e+02 1.806775e+00 2.402317e+00 3.049571e+00 2.219201e+00 3.775885e+00 3.588250e+00 3.223832e+00 3.578840e+00 4.075393e+00 2.779657e+00 3.045167e+00 2.597014e+00 4.099428e+00 3.644131e-01 3.603610e-01 4.775909e-01 4.582487e-01 6.965902e-01 6.563556e-01 6.626554e-01 6.309608e-01 6.099913e-01 5.711814e-01 5.583989e-01 4.747941e-01 5.495792e-01
<GCONST> 1.298595e+02
<TRANSP> 5
 0.000000e+00 1.000000e+00 0.000000e+00 0.000000e+00 0.000000e+00
 0.000000e+00 4.911891e-01 5.088109e-01 0.000000e+00 0.000000e+00
 0.000000e+00 0.000000e+00 4.429083e-01 5.570917e-01 0.000000e+00
 0.000000e+00 0.000000e+00 0.000000e+00 6.266526e-01 3.733474e-01
 0.000000e+00 0.000000e+00 0.000000e+00 0.000000e+00 0.000000e+00
<ENDHMM>
~h "s"
<BEGINHMM>
<NUMSTATES> 5
<STATE> 2
<MEAN> 39
 -1.251898e+01 2.641561e+00 -2.182329e+00 -3.268343e+00 -3.248166e+00 -6.625340e+00 -6.895431e+00 -3.178399e+00 -2.043417e+00 -2.703355e+00 -4.022729e+00 -2.498856e+00 6.103172e+01 -4.318613e+00 1.883852e+00 5.154707e-02 3.099910e-01 1.975081e+00 -5.303500e-02 9.569759e-01 1.273694e+00 1.766332e-01 -1.011957e-01 6.667179e-01 7.983305e-01 -2.644312e-01 -5.033268e-01 -2.940124e-01 -3.454395e-01 -2.229641e-01 -2.819191e-01 2.484961e-01 2.815342e-02 -8.202437e-02 4.978097e-03 1.734756e-02 2.606315e-01 -7.596441e-02 -3.039942e-03
<VARIANCE> 39
 7.653625e+01 4.400086e+01 5.384084e+01 3.711004e+01 5.584743e+01 4.998655e+01 7.423801e+01 4.961209e+01 4.366566e+01 3.839437e+01 4.320509e+01 2.998837e+01 1.121714e+02 4.241198e+00 4.318403e+00 4.327940e+00 3.677331e+00 4.887933e+00 4.311309e+00 4.515371e+00 4.674055e+00 3.841089e+00 2.869973e+00 3.648938e+00 2.830593e+00 3.297149e+00 9.567092e-01 7.760742e-01 4.975640e-01 4.863349e-01 7.756953e-01 6.140452e-01 7.351915e-01 7.408270e-01 6.126878e-01 5.174922e-01 5.784895e-01 4.920300e-01 2.964357e-01
<GCONST> 1.338698e+02
<STATE> 3
<MEAN> 39
 -3.061040e+01 5.123449e+00 -5.960298e+00 -4.065936e+00 1.694718e-01 -4.589664e+00 -3.827550e+00 -4.004630e-01 -7.715678e-01 -1.910377e+00 3.279554e-01 2.020754e-02 5.974775e+01 -8.905040e-01 -3.103308e-01 -4.266951e-01 -2.017741e-01 -1.633316e-01 2.605184e-02 1.037944e-01 7.205866e-02 6.396046e-02 9.212486e-02 2.093547e-01 1.763138e-01 -2.084837e-01 8.429285e-01 -2.364125e-01 1.513327e-01 -3.321734e-02 -2.391719e-01 -1.405648e-01 -1.995985e-01 -1.585530e-01 -3.202261e-02 -3.748435e-02 -1.798713e-01 -1.425123e-01 5.338838e-02
<VARIANCE> 39
 2.694927e+01 1.707883e+01 3.075195e+01 3.937921e+01 3.375453e+01 3.982069e+01 4.912461e+01 2.666178e+01 2.494816e+01 2.027585e+01 2.213749e+01 1.780436e+01 3.562292e+01 3.397582e+00 1.455917e+00 1.698392e+00 1.358256e+00 1.627775e+00 1.819329e+00 1.797073e+00 1.810201e+00 1.752187e+00 1.666922e+00 1.667923e+00 1.399271e+00 7.701104e-01 4.915718e-01 2.779988e-01 3.174491e-01 2.941648e-01 3.736070e-01 3.474067e-01 3.867677e-01 4.004197e-01 3.568810e-01 3.282383e-01 3.324733e-01 2.973756e-01 1.261900e-01
<GCONST> 1.066266e+02
<STATE> 4
<MEAN> 39
 -2.102471e+01 4.454722e-01 -5.448675e+00 -5.225279e+00 -3.104366e+00 -6.653050e+00 -6.565088e+00 -1.930340e+00 -1.142541e+00 -2.516220e+00 -1.967498e+00 -1.440361e+00 5.477299e+01 3.499702e+00 -7.004053e-01 4.724855e-01 -1.955487e-01 -9.238833e-01 -1.938091e-01 -1.047447e+00 -9.653296e-01 -6.370541e-03 -1.029388e-01 -6.723620e-01 -9.219761e-01 2.403242e-01 5.293463e-01 -2.584177e-03 1.050036e-01 -1.644221e-02 -1.208295e-01 2.456200e-01 -1.374965e-01 -2.061528e-01 -2.061594e-02 3.003353e-02 4.554738e-02 -1.737567e-01 2.186996e-01
<VARIANCE> 39
 8.488094e+01 2.919249e+01 3.676197e+01 3.371754e+01 3.406230e+01 4.350163e+01 5.788100e+01 3.545862e+01 3.293130e+01 2.712071e+01 2.991786e+01 2.376010e+01 1.407533e+02 9.792233e+00 3.041798e+00 3.592173e+00 3.048824e+00 3.534250e+00 3.986922e+00 4.264022e+00 4.225329e+00 3.695442e+00 2.480610e+00 2.729442e+00 2.835466e+00 4.816184e+00 1.334122e+00 4.620511e-01 4.621597e-01 4.511203e-01 5.415571e-01 6.860881e-01 7.271963e-01 7.465975e-01 5.943595e-01 4.880076e-01 5.227860e-01 4.801306e-01 4.888833e-01
<GCONST> 1.300209e+02
<TRANSP> 5
 0.000000e+00 1.000000e+00 0.000000e+00 0.000000e+00 0.000000e+00
 0.000000e+00 7.098317e-01 2.901684e-01 0.000000e+00 0.000000e+00
 0.000000e+00 0.000000e+00 8.605069e-01 1.394931e-01 0.000000e+00
 0.000000e+00 0.000000e+00 0.000000e+00 7.776872e-01 2.223127e-01
 0.000000e+00 0.000000e+00 0.000000e+00 0.000000e+00 0.000000e+00
<ENDHMM>
~h "t"
<BEGINHMM>
<NUMSTATES> 5
<STATE> 2
<MEAN> 39
 -8.666912e+00 9.266785e-01 -4.069851e+00 -3.457839e+00 -5.305379e+00 -4.991054e+00 -7.385665e+00 -5.280289e+00 -2.670462e+00 -2.452454e+00 -4.244522e+00 -4.585065e+00 3.945648e+01 -6.641548e-01 4.450710e-02 2.400109e-02 4.489641e-02 1.093117e-01 7.578763e-03 3.331259e-01 2.754782e-01 -1.391277e-01 -2.803475e-02 7.653439e-02 2.580460e-01 -1.450683e+00 -1.145741e-01 -2.904788e-01 -9.188071e-02 -1.489330e-01 -9.134451e-02 -4.322770e-03 -2.034908e-02 2.290058e-02 3.022135e-02 -3.413177e-02 8.711600e-02 4.632335e-02 7.082700e-01
<VARIANCE> 39
 4.546029e+01 2.587261e+01 3.354126e+01 2.933084e+01 2.768025e+01 3.060893e+01 3.728540e+01 3.794510e+01 3.852813e+01 2.955715e+01 3.330600e+01 2.941116e+01 7.745364e+01 1.797013e+00 1.794828e+00 1.725656e+00 1.877928e+00 2.379263e+00 2.131817e+00 2.347246e+00 2.521970e+00 2.407174e+00 2.106737e+00 2.337340e+00 1.953359e+00 5.548170e+00 3.336885e-01 4.162180e-01 3.824852e-01 4.134445e-01 5.192296e-01 4.453917e-01 4.784448e-01 5.089417e-01 5.034443e-01 4.468912e-01 4.661346e-01 4.046393e-01 1.074050e+00
<GCONST> 1.187308e+02
<STATE> 3
<MEAN> 39
 -1.104530e+01 3.912643e-01 -2.910492e+00 -2.982479e+00 -5.035583e+00 -5.058933e+00 -6.327015e+00 -4.591866e+00 -3.085719e+00 -2.332771e+00 -3.400094e+00 -3.287668e+00 4.024311e+01 -1.244415e+00 -1.931095e+00 -7.463173e-01 -1.110296e+00 -1.908050e-02 -5.343561e-01 -2.368749e-01 2.011780e-01 1.095268e-01 -2.844097e-01 4.102359e-01 3.839187e-01 4.666090e+00 7.150347e-01 -2.055697e-01 -2.298989e-01 -3.161000e-01 -4.330068e-01 -7.284220e-02 -4.204347e-01 -2.904331e-01 2.676518e-01 3.520858e-02 -6.239984e-02 -4.031654e-01 1.970023e+00
<VARIANCE> 39
 4.066616e+01 3.110888e+01 3.639042e+01 2.747278e+01 3.236330e+01 3.367443e+01 3.476575e+01 3.399508e+01 3.404379e+01 2.657417e+01 2.948304e+01 2.292839e+01 8.332368e+01 4.248888e+00 3.514199e+00 4.378370e+00 3.448713e+00 4.388144e+00 4.123770e+00 4.119904e+00 4.375049e+00 4.654666e+00 3.292624e+00 3.836147e+00 3.399123e+00 1.271567e+01 6.279922e-01 6.332310e-01 8.322620e-01 6.048006e-01 8.083726e-01 7.597537e-01 7.733350e-01 7.978322e-01 8.792455e-01 6.041853e-01 6.304420e-01 6.192670e-01 1.452053e+00
<GCONST> 1.328095e+02
<STATE> 4
<MEAN> 39
 -1.156299e+01 -5.512998e+00 -6.535433e+00 -7.520607e+00 -6.909777e+00 -7.748048e+00 -8.837772e+00 -5.003822e+00 -1.534707e+00 -2.800122e+00 -3.059198e+00 -3.881919e+00 5.985184e+01 1.863841e+00 -7.423369e-01 -5.989690e-01 -1.053781e+00 -1.046391e+00 1.550987e-02 -1.211941e+00 -6.704587e-01 8.301018e-01 2.820489e-02 7.263763e-02 -1.185028e+00 5.818474e+00 8.536205e-01 5.324543e-01 3.169413e-01 1.899582e-01 -2.158970e-01 5.673020e-01 -5.683786e-02 -1.969600e-01 -6.513613e-02 7.955968e-02 2.708429e-02 -3.075803e-01 -9.536696e-01
<VARIANCE> 39
 4.476094e+01 2.683529e+01 3.386274e+01 2.995584e+01 3.208101e+01 3.757737e+01 4.006447e+01 3.351944e+01 4.081186e+01 2.958125e+01 3.091335e+01 3.631307e+01 9.316689e+01 5.257681e+00 4.547810e+00 7.687797e+00 5.077040e+00 6.079159e+00 5.610758e+00 5.828035e+00 5.437696e+00 7.674185e+00 3.874005e+00 4.668174e+00 4.977810e+00 1.395871e+01 9.044608e-01 6.816067e-01 8.676420e-01 6.586205e-01 9.765391e-01 9.822823e-01 9.812105e-01 9.205470e-01 9.541646e-01 6.964878e-01 7.839254e-01 8.347110e-01 1.677022e+00
<GCONST> 1.401374e+02
<TRANSP> 5
 0.000000e+00 1.000000e+00 0.000000e+00 0.000000e+00 0.000000e+00
 0.000000e+00 8.439698e-01 1.560302e-01 0.000000e+00 0.000000e+00
 0.000000e+00 0.000000e+00 4.891217e-01 5.108783e-01 0.000000e+00
 0.000000e+00 0.000000e+00 0.000000e+00 5.099492e-01 4.900508e-01
 0.000000e+00 0.000000e+00 0.000000e+00 0.000000e+00 0.000000e+00
<ENDHMM>
~h "u"
<BEGINHMM>
<NUMSTATES> 5
<STATE> 2
<MEAN> 39
 -1.167444e+00 1.631444e+00 -3.456376e+00 -8.351509e+00 -1.144314e+01 5.489945e-02 -1.541822e+01 -9.723636e+00 -6.343076e+00 -2.582641e+00 -5.676593e-01 -3.505362e+00 5.995567e+01 2.110840e+00 9.898006e-01 -3.868792e-01 -1.887795e+00 -1.912179e+00 2.103866e+00 -1.193245e+00 -1.087551e+00 -8.099301e-01 -1.937207e-01 1.157207e+00 2.218880e-02 1.265107e+00 -3.377190e-01 7.981025e-02 1.168814e-01 -1.017353e-01 5.126658e-02 1.911263e-01 4.001532e-01 1.733205e-01 -2.003121e-02 -1.249649e-01 -1.740722e-02 6.491555e-02 -4.311496e-01
<VARIANCE> 39
 3.866507e+01 3.699303e+01 5.695432e+01 7.348460e+01 5.782405e+01 5.108811e+01 8.410185e+01 7.529766e+01 6.411629e+01 5.076402e+01 4.264226e+01 3.196391e+01 1.065852e+02 5.145210e+00 3.582020e+00 4.758951e+00 5.120329e+00 5.993155e+00 5.410631e+00 5.389013e+00 7.076554e+00 5.266655e+00 4.835133e+00 4.366357e+00 3.600615e+00 5.378936e+00 8.712472e-01 6.279061e-01 6.001350e-01 9.135404e-01 9.531325e-01 8.696340e-01 1.087507e+00 1.157872e+00 8.634495e-01 7.625487e-01 7.079911e-01 6.017445e-01 1.144120e+00
<GCONST> 1.426052e+02
<STATE> 3
<MEAN> 39
 2.781033e+00 4.260908e+00 -5.832616e+00 -1.414651e+01 -1.716395e+01 8.186196e+00 -1.648986e+01 -1.266607e+01 -7.962754e+00 -5.590872e+00 3.406263e+00 -2.084132e+00 6.399149e+01 2.050174e-01 1.834431e-01 -8.684082e-02 -3.701812e-01 -6.220672e-02 4.971804e-01 1.171393e-01 -1.927143e-01 -2.286955e-01 2.974788e-02 2.087420e-01 6.471678e-02 -8.125902e-02 -3.499457e-01 -2.436294e-01 2.296191e-01 6.875915e-01 7.002967e-01 -7.915198e-01 2.791684e-01 3.022766e-01 2.873857e-01 2.065677e-01 -5.285645e-01 -1.588907e-01 -4.069026e-01
<VARIANCE> 39
 1.321441e+01 3.511279e+01 3.901225e+01 6.545889e+01 4.725785e+01 4.313039e+01 7.702012e+01 8.513206e+01 7.453961e+01 6.887170e+01 4.962869e+01 4.240674e+01 2.739452e+01 8.012541e-01 2.993033e+00 1.967229e+00 5.486812e+00 4.602738e+00 4.432633e+00 4.562237e+00 6.194883e+00 4.545547e+00 4.946265e+00 4.130255e+00 3.157118e+00 2.467293e+00 2.943090e-01 4.236331e-01 4.372661e-01 6.555248e-01 7.678225e-01 7.127901e-01 9.048765e-01 1.097444e+00 8.696040e-01 8.953515e-01 8.360125e-01 6.642001e-01 3.198595e-01
<GCONST> 1.318514e+02
<STATE> 4
<MEAN> 39
 2.166948e+00 5.096424e+00 -5.120963e+00 -1.424709e+01 -1.327757e+01 3.637820e+00 -1.482317e+01 -9.449820e+00 -8.698111e+00 -3.960438e+00 7.551295e-02 -2.868388e+00 5.877584e+01 -3.349746e-01 -2.050797e-01 3.025128e-01 1.003535e+00 8.063341e-01 -8.757921e-01 5.173489e-01 1.218237e-01 4.805694e-01 2.743032e-01 -5.167754e-01 -2.321100e-01 -9.816270e-01 -1.789129e-01 -9.129481e-02 9.864196e-02 2.238794e-01 8.917633e-02 -1.029780e-01 7.422198e-02 2.779035e-03 1.119206e-01 -3.860831e-02 -7.127085e-02 -5.632889e-03 -9.209243e-02
<VARIANCE> 39
 1.875534e+01 3.960100e+01 4.447773e+01 7.338609e+01 5.377855e+01 4.913336e+01 6.927216e+01 7.470032e+01 6.830240e+01 6.292945e+01 4.333656e+01 4.135787e+01 7.837000e+01 1.023928e+00 2.199116e+00 2.140752e+00 3.465599e+00 3.592573e+00 3.273862e+00 3.412563e+00 3.453878e+00 3.309778e+00 3.060035e+00 3.228328e+00 2.691298e+00 3.379261e+00 1.889392e-01 3.589356e-01 3.031381e-01 5.166605e-01 5.154976e-01 4.991302e-01 5.825779e-01 6.659089e-01 5.454097e-01 5.918903e-01 5.288675e-01 4.835769e-01 3.647314e-01
<GCONST> 1.261182e+02
<TRANSP> 5
 0.000000e+00 1.000000e+00 0.000000e+00 0.000000e+00 0.000000e+00
 0.000000e+00 5.641130e-01 4.358870e-01 0.000000e+00 0.000000e+00
 0.000000e+00 0.000000e+00 6.915438e-01 3.084562e-01 0.000000e+00
 0.000000e+00 0.000000e+00 0.000000e+00 7.751030e-01 2.248970e-01
 0.000000e+00 0.000000e+00 0.000000e+00 0.000000e+00 0.000000e+00
<ENDHMM>
~h "w"
<BEGINHMM>
<NUMSTATES> 5
<STATE> 2
<MEAN> 39
 1.287595e+00 -1.084105e+00 -6.081316e+00 -1.374252e+01 -1.081007e+01 3.509505e+00 -1.152135e+01 -7.264416e+00 -5.207668e+00 -1.441676e+00 1.267071e-01 -4.961535e+00 5.975049e+01 1.465539e+00 1.104809e+00 -5.357175e-02 -1.879433e+00 -1.236554e+00 1.364033e+00 -2.489299e-01 -2.496656e-01 -1.006251e+00 -4.725545e-01 7.642030e-01 7.592432e-01 3.128406e-01 -1.881644e-01 -8.130755e-02 1.335119e-01 -4.464453e-03 -1.702705e-01 -2.186209e-01 1.336725e-01 2.392350e-01 1.104126e-01 -2.042821e-01 -1.219945e-01 8.412500e-02 1.442839e-02
<VARIANCE> 39
 3.235241e+01 6.232586e+01 4.886777e+01 8.829126e+01 4.982991e+01 6.053691e+01 6.808353e+01 6.085823e+01 6.417633e+01 6.250312e+01 4.998606e+01 3.924081e+01 1.364050e+02 2.430264e+00 2.663604e+00 2.751247e+00 3.560256e+00 4.206260e+00 3.891620e+00 3.733486e+00 4.022407e+00 3.680712e+00 3.484423e+00 3.323876e+00 3.595052e+00 4.358679e+00 5.148225e-01 5.250810e-01 3.992843e-01 6.661055e-01 7.188656e-01 6.462991e-01 6.794208e-01 6.893061e-01 7.009131e-01 7.079411e-01 6.188539e-01 5.672332e-01 3.167746e-01
<GCONST> 1.338947e+02
<STATE> 3
<MEAN> 39
 5.225606e+00 2.372818e+00 -6.513027e+00 -2.236998e+01 -1.706160e+01 7.488173e+00 -1.150326e+01 -5.851612e+00 -5.486545e+00 -4.926888e+00 1.372820e+00 -1.776316e+00 6.289985e+01 -7.141130e-02 -4.612683e-01 -3.204178e-01 -4.308785e-01 1.031646e-01 2.159279e-01 2.072411e-01 -1.716965e-01 2.364210e-01 2.468869e-01 2.344020e-01 -1.519880e-02 5.015715e-01 -2.867813e-01 -4.760501e-01 -1.854530e-01 4.039934e-01 5.128116e-01 -1.557209e-01 7.931762e-02 -1.292709e-01 2.666213e-01 2.933578e-01 -6.992787e-02 -4.315028e-01 2.697902e-01
<VARIANCE> 39
 1.196640e+01 3.772859e+01 3.946949e+01 5.793943e+01 3.682543e+01 4.727247e+01 5.421381e+01 4.366638e+01 5.870109e+01 5.019423e+01 4.078493e+01 3.343950e+01 3.810146e+01 6.197563e-01 3.184485e+00 2.030413e+00 2.396259e+00 3.221082e+00 2.419662e+00 2.516211e+00 2.597666e+00 2.532468e+00 3.055720e+00 2.478247e+00 2.721812e+00 2.192340e+00 8.016082e-02 1.874060e-01 2.418351e-01 4.111831e-01 3.700935e-01 5.595997e-01 4.013055e-01 4.581413e-01 4.303891e-01 4.267521e-01 5.083155e-01 4.976600e-01 1.509710e-01
<GCONST> 1.158013e+02
<STATE> 4
<MEAN> 39
 2.321665e+00 -4.819401e+00 -1.006370e+01 -2.161051e+01 -8.817892e+00 7.993910e+00 -9.709511e+00 -8.204834e+00 -2.925087e+00 -5.603989e-01 1.338925e+00 -5.890844e+00 6.773603e+01 -7.495459e-01 -1.285025e+00 -5.111984e-01 1.249718e+00 1.405195e+00 -6.409815e-01 1.552825e-01 -1.013130e-01 9.202505e-01 3.365110e-01 -7.198102e-01 -1.509654e+00 8.112794e-01 -3.973921e-03 1.859836e-01 2.356750e-01 3.163798e-01 -2.210654e-01 -3.623640e-01 -8.347377e-02 2.406676e-01 4.320279e-02 -3.051066e-01 -2.842038e-01 5.319540e-02 -1.910679e-01
<VARIANCE> 39
 1.705380e+01 5.198112e+01 4.070056e+01 6.061685e+01 6.324900e+01 4.737854e+01 6.354578e+01 3.840296e+01 5.714783e+01 5.518195e+01 4.780591e+01 4.969469e+01 3.744764e+01 5.435984e-01 1.767908e+00 1.434609e+00 2.449166e+00 2.870522e+00 2.503257e+00 2.019870e+00 1.970415e+00 2.234751e+00 1.974564e+00 2.202143e+00 3.156534e+00 1.106720e+00 7.311822e-02 1.810813e-01 1.767462e-01 3.002322e-01 3.717050e-01 3.932237e-01 3.446739e-01 3.720889e-01 2.730434e-01 3.713162e-01 3.933726e-01 4.241403e-01 1.158934e-01
<GCONST> 1.121556e+02
<TRANSP> 5
 0.000000e+00 1.000000e+00 0.000000e+00 0.000000e+00 0.000000e+00
 0.000000e+00 6.813838e-01 3.186162e-01 0.000000e+00 0.000000e+00
 0.000000e+00 0.000000e+00 8.049147e-01 1.950853e-01 0.000000e+00
 0.000000e+00 0.000000e+00 0.000000e+00 7.138680e-01 2.861319e-01
 0.000000e+00 0.000000e+00 0.000000e+00 0.000000e+00 0.000000e+00
<ENDHMM>
~h "y"
<BEGINHMM>
<NUMSTATES> 5
<STATE> 2
<MEAN> 39
 -6.525303e+00 -2.339775e+00 5.562142e+00 -5.858637e+00 -1.642994e+01 -7.326719e+00 -9.410753e+00 -2.298887e+00 -5.828221e+00 -3.873171e+00 -1.611211e-02 -5.200467e+00 6.086362e+01 -6.449815e-03 8.934222e-01 2.531905e+00 -2.747279e-02 -1.931617e+00 -5.380926e-01 -8.439691e-01 -8.018608e-01 -1.408238e+00 1.370208e-01 1.642671e+00 3.436956e-01 7.473020e-01 1.830001e-02 -6.331517e-02 -2.537972e-01 -1.001955e-01 2.650997e-01 2.479160e-01 -9.371834e-02 -2.608882e-01 6.587747e-02 -1.227585e-03 -5.902092e-02 -3.035221e-02 2.972467e-02
<VARIANCE> 39
 2.932459e+01 6.502886e+01 8.482806e+01 4.667126e+01 6.511742e+01 6.911499e+01 6.957283e+01 7.857100e+01 7.169811e+01 5.009291e+01 4.555234e+01 3.065716e+01 1.921285e+02 2.279448e+00 2.843195e+00 4.373680e+00 2.625162e+00 4.436614e+00 3.936712e+00 3.924225e+00 4.616666e+00 4.065021e+00 3.822873e+00 3.397907e+00 2.878525e+00 5.918705e+00 2.932329e-01 4.863076e-01 8.208184e-01 4.483206e-01 8.244905e-01 7.245202e-01 6.952891e-01 9.770387e-01 7.320027e-01 6.047544e-01 6.319403e-01 4.488883e-01 5.207590e-01
<GCONST> 1.355109e+02
<STATE> 3
<MEAN> 39
 -6.017483e+00 -1.574616e+00 1.183957e+01 -7.422211e+00 -2.229038e+01 -8.613913e+00 -1.274419e+01 -5.006054e+00 -8.826159e+00 -3.007692e+00 5.166691e+00 -4.171749e+00 6.737321e+01 1.965075e-01 -8.178127e-01 -9.050029e-01 -4.079599e-01 -1.571410e-01 -3.145868e-01 3.629098e-01 9.244006e-01 8.503809e-01 7.831878e-02 -1.247664e-03 -4.497189e-02 7.074683e-01 9.061128e-02 -3.185835e-01 -6.814692e-01 -4.679436e-02 4.171832e-01 9.336793e-02 2.977323e-01 4.063655e-01 4.679858e-01 -1.106171e-01 -4.807421e-01 -2.111595e-01 4.680582e-02
<VARIANCE> 39
 1.051984e+01 3.250066e+01 5.083985e+01 3.819567e+01 3.616367e+01 5.128632e+01 4.911385e+01 5.821194e+01 5.870764e+01 4.568135e+01 4.076118e+01 3.644492e+01 5.071185e+01 4.825185e-01 2.527630e+00 3.993341e+00 1.493643e+00 2.004222e+00 2.057913e+00 2.998632e+00 4.431056e+00 4.086905e+00 1.904076e+00 2.262366e+00 1.514962e+00 1.576934e+00 7.673313e-02 2.059272e-01 2.398036e-01 2.386140e-01 4.857181e-01 4.484157e-01 3.986384e-01 5.053029e-01 4.373856e-01 4.584511e-01 4.523038e-01 3.100958e-01 1.430882e-01
<GCONST> 1.137677e+02
<STATE> 4
<MEAN> 39
 -1.050015e+01 -2.989621e+00 -6.332881e-01 -5.942264e+00 -8.955455e+00 -5.262495e+00 -8.033698e+00 -3.407114e+00 -5.234527e+00 -4.237065e+00 -1.503850e+00 -3.125098e+00 4.571416e+01 8.424927e-02 -2.865483e-01 -4.916399e-01 -8.273339e-02 3.765066e-01 1.533315e-01 1.750769e-01 3.030414e-01 3.392265e-01 -1.678611e-01 -4.365097e-01 -2.079890e-01 2.196536e-01 7.796844e-03 4.492892e-02 -6.660414e-03 3.438335e-02 1.150519e-01 9.564117e-02 -5.244726e-02 -1.291915e-01 -5.935092e-02 -2.301808e-02 -7.042251e-02 -3.484611e-02 -2.467627e-02
<VARIANCE> 39
 2.562079e+01 3.993280e+01 5.990746e+01 3.343066e+01 6.421052e+01 3.537051e+01 5.060916e+01 4.436777e+01 4.658091e+01 2.996271e+01 2.864011e+01 2.113982e+01 2.523013e+02 5.744808e-01 1.508331e+00 3.067840e+00 1.260775e+00 2.391533e+00 1.754051e+00 2.261518e+00 2.363061e+00 2.650699e+00 2.176899e+00 2.784784e+00 1.678003e+00 1.248224e+00 9.931394e-02 1.719793e-01 2.129020e-01 2.473473e-01 3.927879e-01 3.647429e-01 3.507568e-01 4.595177e-01 3.992051e-01 3.438399e-01 3.466179e-01 2.844065e-01 1.299939e-01
<GCONST> 1.115430e+02
<TRANSP> 5
 0.000000e+00 1.000000e+00 0.000000e+00 0.000000e+00 0.000000e+00
 0.000000e+00 7.016729e-01 2.983271e-01 0.000000e+00 0.000000e+00
 0.000000e+00 0.000000e+00 8.160959e-01 1.839041e-01 0.000000e+00
 0.000000e+00 0.000000e+00 0.000000e+00 8.383954e-01 1.616046e-01
 0.000000e+00 0.000000e+00 0.000000e+00 0.000000e+00 0.000000e+00
<ENDHMM>
~h "z"
<BEGINHMM>
<NUMSTATES> 5
<STATE> 2
<MEAN> 39
 -8.833255e+00 6.553628e+00 4.129701e-01 9.625998e-02 -5.694001e+00 -1.081854e+01 -1.081819e+01 -4.593639e+00 -2.071885e+00 -4.144794e+00 -5.474857e+00 -3.457226e-01 6.121833e+01 -2.052341e+00 2.385373e+00 -8.701677e-02 6.255699e-01 1.802869e+00 -2.127027e-01 6.268186e-01 2.806143e-01 1.705696e-02 -2.391631e-01 1.053818e-01 6.465381e-01 -2.409236e-01 -3.198880e-01 -8.138146e-02 -1.227970e-01 -1.882565e-01 -1.133040e-03 3.810790e-01 1.695718e-01 1.124432e-01 -1.035484e-02 8.338434e-02 2.180434e-01 -2.145887e-01 2.272430e-03
<VARIANCE> 39
 4.629575e+01 4.414815e+01 4.541809e+01 4.491579e+01 5.110825e+01 4.735254e+01 5.401984e+01 4.387203e+01 5.063605e+01 4.270448e+01 3.222630e+01 2.487974e+01 1.260029e+02 3.899856e+00 2.555104e+00 2.992714e+00 2.759918e+00 3.478899e+00 3.338390e+00 3.822156e+00 4.429059e+00 3.685621e+00 2.809948e+00 3.021804e+00 2.502494e+00 3.581903e+00 4.841200e-01 4.873509e-01 4.197768e-01 3.721909e-01 6.462481e-01 5.119322e-01 7.161584e-01 6.279235e-01 6.019040e-01 5.199628e-01 4.598991e-01 4.482685e-01 3.486809e-01
<GCONST> 1.280129e+02
<STATE> 3
<MEAN> 39
 -2.115830e+01 1.366501e+01 -1.175936e-01 1.460719e+00 6.474416e-01 -8.472583e+00 -7.400603e+00 -2.917256e+00 -2.251471e+00 -4.462825e+00 -2.537178e+00 2.000886e-01 6.280551e+01 -4.571220e-01 -4.785708e-01 1.280723e-01 2.489107e-02 -3.039931e-01 1.014135e-02 -4.226880e-02 -2.504066e-02 -1.170953e-01 6.275459e-02 3.007222e-01 3.150653e-02 4.009725e-01 7.303647e-01 -5.497901e-01 6.649269e-02 -1.561658e-01 -5.734837e-01 -1.408917e-01 -2.596077e-01 -1.854473e-01 3.629456e-02 2.496696e-02 -5.252219e-02 -8.313994e-02 2.007903e-01
<VARIANCE> 39
 4.376890e+01 2.376404e+01 3.805312e+01 4.562857e+01 3.601854e+01 3.580359e+01 4.064054e+01 2.627580e+01 2.682468e+01 2.547959e+01 2.165092e+01 1.646832e+01 3.498693e+01 5.153637e+00 2.573574e+00 1.653043e+00 1.749729e+00 3.320165e+00 2.440577e+00 2.562580e+00 2.134065e+00 2.186949e+00 1.545385e+00 1.471392e+00 1.445747e+00 1.435954e+00 4.248810e-01 2.755090e-01 2.860737e-01 3.227395e-01 4.320228e-01 4.074685e-01 4.284626e-01 4.516064e-01 4.364502e-01 3.223968e-01 2.875207e-01 3.202410e-01 1.633738e-01
<GCONST> 1.118858e+02
<STATE> 4
<MEAN> 39
 -1.743149e+01 1.892493e+00 -2.654739e+00 -2.914454e+00 -3.017148e+00 -4.793960e+00 -7.352987e+00 -2.712679e+00 -2.437920e+00 -4.680192e+00 -2.342094e+00 -1.544082e+00 4.705684e+01 8.767416e-01 -5.244362e-01 8.451622e-02 -1.749956e-01 -6.889331e-01 -1.787287e-01 -3.729605e-01 -1.999497e-01 1.084949e-01 5.936433e-02 -1.620236e-02 -1.374760e-01 3.052686e-01 1.539150e-01 -3.494242e-02 6.677263e-03 -3.966418e-02 -5.493434e-02 7.805337e-02 -3.463626e-02 -9.874487e-03 5.711434e-03 -7.180087e-03 -7.845260e-03 -1.070277e-01 2.780728e-02
<VARIANCE> 39
 8.520406e+01 4.861908e+01 4.570752e+01 3.188243e+01 2.912264e+01 4.263630e+01 4.737302e+01 3.033912e+01 3.084065e+01 2.759567e+01 2.922066e+01 1.817958e+01 2.185632e+02 5.146989e+00 2.790042e+00 1.744509e+00 1.903679e+00 3.349933e+00 2.186355e+00 2.395639e+00 2.571118e+00 2.499947e+00 2.048723e+00 1.689939e+00 1.658167e+00 1.930092e+00 4.199473e-01 2.587700e-01 2.913215e-01 2.638519e-01 3.362125e-01 4.516332e-01 3.835993e-01 4.329834e-01 3.872986e-01 3.964012e-01 3.233791e-01 3.304460e-01 1.713984e-01
<GCONST> 1.167502e+02
<TRANSP> 5
 0.000000e+00 1.000000e+00 0.000000e+00 0.000000e+00 0.000000e+00
 0.000000e+00 7.463447e-01 2.536553e-01 0.000000e+00 0.000000e+00
 0.000000e+00 0.000000e+00 8.457568e-01 1.542432e-01 0.000000e+00
 0.000000e+00 0.000000e+00 0.000000e+00 8.563498e-01 1.436501e-01
 0.000000e+00 0.000000e+00 0.000000e+00 0.000000e+00 0.000000e+00
<ENDHMM>
~h "ai"
<BEGINHMM>
<NUMSTATES> 5
<STATE> 2
<MEAN> 39
 -2.609553e+00 -1.343256e+01 -8.247466e+00 -9.154084e+00 -9.938408e+00 -4.892192e+00 -7.193509e+00 1.821411e-01 3.409588e+00 -6.144312e+00 -6.073472e+00 -1.025372e+01 7.276257e+01 -4.220465e-01 -4.860137e-01 7.501569e-01 2.226461e-01 -1.233801e+00 -9.920727e-01 1.149924e+00 1.470750e+00 -1.421150e-01 -1.000044e+00 9.005147e-03 3.969524e-01 5.569890e-01 -1.346108e-01 5.146469e-01 5.363896e-01 7.305732e-02 -2.960413e-01 -6.149554e-02 -6.504107e-02 -3.241002e-01 -5.007913e-01 3.031401e-01 4.078150e-01 3.465878e-01 -4.755022e-01
<VARIANCE> 39
 1.119067e+01 2.259317e+01 5.726830e+01 4.979956e+01 5.876548e+01 6.321524e+01 8.580967e+01 6.119942e+01 4.595462e+01 4.873545e+01 4.258183e+01 3.793624e+01 2.559028e+01 6.063555e-01 1.509219e+00 3.058231e+00 1.829238e+00 3.395666e+00 3.158218e+00 3.179349e+00 3.280530e+00 3.255374e+00 2.613857e+00 3.005142e+00 2.406572e+00 1.064716e+00 2.009019e-01 1.823588e-01 3.015549e-01 4.488703e-01 5.450587e-01 4.806017e-01 5.941374e-01 6.853161e-01 5.137755e-01 5.973660e-01 5.725232e-01 5.260248e-01 2.349910e-01
<GCONST> 1.194541e+02
<STATE> 3
<MEAN> 39
 -4.697564e+00 -9.485559e+00 2.452501e+00 -9.198462e+00 -2.155375e+01 -1.043959e+01 -5.411700e+00 1.719093e+00 -2.606061e+00 -3.491559e+00 1.230321e+00 -6.909544e+00 7.186440e+01 -2.849893e-01 1.143358e+00 1.840142e+00 -1.586259e-02 -1.313165e+00 -3.300819e-01 -3.048442e-01 -1.260053e+00 -1.382231e+00 1.046964e+00 1.286714e+00 2.889799e-01 -5.915107e-01 5.975176e-02 1.385673e-01 -1.405830e-01 1.205678e-01 4.449686e-01 2.427837e-01 -3.141846e-01 -3.369885e-01 -4.383825e-02 1.875157e-02 -2.568396e-01 -9.393492e-02 -2.096048e-01
<VARIANCE> 39
 9.076419e+00 1.922231e+01 4.647453e+01 3.604639e+01 4.249516e+01 4.700467e+01 6.204538e+01 5.768734e+01 4.125758e+01 4.244660e+01 5.201782e+01 2.877323e+01 2.569796e+01 2.888210e-01 8.758001e-01 1.717663e+00 1.001554e+00 2.086582e+00 1.524255e+00 2.562901e+00 2.383647e+00 1.897598e+00 2.020479e+00 2.161193e+00 1.323169e+00 3.249439e-01 5.655828e-02 1.119839e-01 2.010293e-01 1.656340e-01 2.926105e-01 2.828959e-01 3.614774e-01 4.784777e-01 2.964377e-01 3.673071e-01 3.963626e-01 2.327369e-01 7.211478e-02
<GCONST> 1.015353e+02
<STATE> 4
<MEAN> 39
 -6.633451e+00 -9.300498e-01 9.655627e+00 -6.255910e+00 -2.142711e+01 -7.759837e+00 -8.563594e+00 -7.280326e+00 -9.325624e+00 -5.530229e-01 1.873039e+00 -6.023059e+00 6.007536e+01 5.001649e-02 7.124712e-01 -1.889206e-01 6.427027e-01 8.542930e-01 3.149117e-01 1.531132e-02 -2.671058e-01 -8.164177e-02 -8.254959e-02 -4.852090e-01 5.061632e-02 -1.568970e+00 3.464906e-02 -8.356962e-02 -3.191135e-01 4.399315e-02 2.723808e-01 3.214309e-02 1.460960e-01 2.071926e-01 2.597701e-01 -1.144118e-01 -1.335710e-01 5.364572e-03 -1.053210e-01
<VARIANCE> 39
 1.934284e+01 2.777573e+01 4.727943e+01 3.715480e+01 4.916232e+01 5.799779e+01 5.327561e+01 6.789167e+01 4.776700e+01 4.161584e+01 4.836662e+01 3.152874e+01 1.275186e+02 9.947326e-01 1.582541e+00 2.284488e+00 1.781278e+00 2.552951e+00 2.226612e+00 2.828650e+00 2.805634e+00 2.940068e+00 2.031434e+00 1.947917e+00 1.453176e+00 2.259916e+00 1.566023e-01 2.449656e-01 3.093687e-01 3.096561e-01 4.647315e-01 4.118330e-01 4.737673e-01 4.609262e-01 4.743519e-01 4.062297e-01 3.827405e-01 2.714365e-01 3.564827e-01
<GCONST> 1.169422e+02
<TRANSP> 5
 0.000000e+00 1.000000e+00 0.000000e+00 0.000000e+00 0.000000e+00
 0.000000e+00 7.661920e-01 2.338080e-01 0.000000e+00 0.000000e+00
 0.000000e+00 0.000000e+00 8.019689e-01 1.980310e-01 0.000000e+00
 0.000000e+00 0.000000e+00 0.000000e+00 8.611125e-01 1.388875e-01
 0.000000e+00 0.000000e+00 0.000000e+00 0.000000e+00 0.000000e+00
<ENDHMM>
~h "au"
<BEGINHMM>
<NUMSTATES> 5
<STATE> 2
<MEAN> 39
 -2.444574e-01 -7.501868e+00 -1.359892e+01 -1.857044e+01 -7.875745e+00 6.180386e+00 -7.689971e+00 -4.812627e+00 7.053223e-01 2.606469e+00 -4.498152e+00 -1.017540e+01 7.412645e+01 2.239479e-01 5.486876e-01 -1.589147e-01 -9.030082e-01 -1.920887e-01 8.615166e-01 -3.775772e-01 -6.029174e-02 -3.218255e-01 -1.177891e-01 9.279680e-01 2.837257e-01 -2.307671e-01 2.347014e-02 3.162035e-01 2.515877e-01 4.306087e-02 -1.989994e-01 -1.797710e-01 -1.497918e-01 1.885158e-02 -2.553895e-01 -7.414997e-02 1.393626e-01 3.711112e-01 -2.667872e-01
<VARIANCE> 39
 1.133976e+01 2.426476e+01 3.117753e+01 4.909574e+01 3.643811e+01 5.554002e+01 7.223409e+01 7.227554e+01 4.530399e+01 7.749551e+01 6.418200e+01 4.387542e+01 2.218436e+01 4.243025e-01 1.409606e+00 1.149088e+00 1.903046e+00 2.272479e+00 2.998143e+00 2.590790e+00 2.436133e+00 2.179772e+00 2.754002e+00 2.091396e+00 3.093858e+00 5.284224e-01 1.164907e-01 2.100036e-01 1.798122e-01 3.347914e-01 3.378847e-01 5.096132e-01 4.006258e-01 4.371044e-01 4.112229e-01 5.483962e-01 4.338778e-01 4.838622e-01 1.357906e-01
<GCONST> 1.119895e+02
<STATE> 3
<MEAN> 39
 3.160616e+00 2.902998e+00 -9.991655e+00 -2.380139e+01 -1.449106e+01 8.425838e+00 -1.333532e+01 -3.669585e+00 -4.227221e+00 -2.387048e+00 5.877849e-01 -2.331858e+00 6.573911e+01 3.111082e-01 1.054675e+00 6.339909e-01 6.440309e-01 -4.552069e-01 -6.185033e-01 -4.068263e-01 1.220701e-02 -6.769168e-01 -2.738150e-01 -2.659975e-01 5.647824e-01 -1.350230e+00 -1.078605e-01 -2.253658e-01 1.669116e-02 5.197967e-01 2.744012e-01 -2.162436e-01 1.544244e-01 -1.299223e-01 1.400466e-01 7.758632e-02 -1.723271e-01 -2.511539e-01 -9.766924e-02
<VARIANCE> 39
 1.207528e+01 3.706958e+01 3.109691e+01 3.636835e+01 4.317926e+01 4.865974e+01 5.911764e+01 6.628672e+01 5.060529e+01 6.986591e+01 4.362427e+01 3.894326e+01 5.388258e+01 5.369473e-01 1.528973e+00 9.453426e-01 3.135281e+00 2.607671e+00 2.042439e+00 2.688434e+00 2.879315e+00 2.138036e+00 2.434679e+00 2.339403e+00 2.626069e+00 1.006199e+00 8.001861e-02 2.015570e-01 1.780031e-01 3.547376e-01 3.877451e-01 3.746414e-01 4.280523e-01 4.491161e-01 3.320053e-01 4.023516e-01 4.406027e-01 4.012567e-01 1.492799e-01
<GCONST> 1.122951e+02
<STATE> 4
<MEAN> 39
 -8.084885e+00 6.383669e-01 -6.232321e+00 -7.059339e+00 -6.409822e+00 -1.558684e+00 -6.291234e+00 -5.150838e+00 -5.248712e+00 -3.671368e+00 -3.344795e+00 -2.250235e+00 3.972219e+01 -3.490192e-01 -2.000064e-01 1.393751e-01 7.311750e-01 2.998308e-01 -3.079685e-01 1.427635e-01 -9.422774e-02 3.551533e-02 5.619170e-02 -4.246135e-02 -2.376717e-02 -5.760535e-01 -1.411867e-02 -2.197964e-02 2.322846e-02 -2.835944e-02 1.193896e-02 1.533136e-02 -2.558579e-03 3.181291e-02 2.472103e-02 -2.488481e-02 -7.231120e-03 -3.542371e-02 7.739986e-02
<VARIANCE> 39
 5.051188e+01 3.082783e+01 2.445263e+01 4.795021e+01 3.764687e+01 3.761700e+01 4.319484e+01 3.579982e+01 3.113766e+01 3.974067e+01 3.303861e+01 2.236207e+01 1.224066e+02 8.493835e-01 1.359706e+00 1.271317e+00 3.059959e+00 2.043604e+00 2.268883e+00 2.211522e+00 2.402453e+00 2.254214e+00 2.114209e+00 2.043050e+00 1.746258e+00 1.388342e+00 1.465414e-01 2.371385e-01 2.209005e-01 3.299632e-01 3.908895e-01 3.837985e-01 4.396493e-01 4.474383e-01 4.472031e-01 4.083617e-01 3.644543e-01 3.496668e-01 1.867314e-01
<GCONST> 1.121556e+02
<TRANSP> 5
 0.000000e+00 1.000000e+00 0.000000e+00 0.000000e+00 0.000000e+00
