~o
<STREAMINFO> 1 39
<VECSIZE> 39<NULLD><MFCC_D_A_0><DIAGC>
~h "@"
<BEGINHMM>
<NUMSTATES> 5
<STATE> 2
<MEAN> 39
 -3.698353e+00 -4.080410e+00 -4.653678e+00 -6.222088e+00 -8.811827e+00 -4.322371e+00 -1.033528e+01 -5.823966e+00 -8.767269e-01 -1.109833e+00 -2.490794e+00 -5.922951e+00 5.962362e+01 5.454931e-01 -1.823288e-01 -3.047705e-02 -2.047501e-01 -2.283948e-01 9.440730e-02 -1.922678e-01 -2.434530e-02 2.876521e-01 2.584780e-01 1.652665e-01 -2.869911e-01 5.467875e-01 -1.315372e-01 1.393418e-01 9.873213e-02 1.219196e-01 6.062654e-02 1.491524e-02 1.226721e-01 -4.853587e-02 -1.431886e-01 -8.894186e-02 -2.988124e-02 9.716381e-02 -2.759682e-01
<VARIANCE> 39
 5.248275e+01 4.109236e+01 5.671045e+01 5.193447e+01 5.905694e+01 7.004234e+01 6.932420e+01 7.199871e+01 7.312206e+01 4.812305e+01 4.743950e+01 4.176329e+01 1.858942e+02 3.792493e+00 3.153334e+00 3.490432e+00 3.959489e+00 4.112101e+00 4.296824e+00 4.402601e+00 4.846801e+00 5.068073e+00 3.459202e+00 3.760240e+00 3.379627e+00 8.192429e+00 7.320228e-01 5.667251e-01 6.229011e-01 7.081971e-01 7.766979e-01 7.391610e-01 8.388643e-01 8.356121e-01 9.085826e-01 6.463113e-01 7.182097e-01 6.497848e-01 1.240261e+00
<GCONST> 1.400288e+02
<STATE> 3
<MEAN> 39
 -2.860908e+00 -4.141571e+00 -4.528896e+00 -6.357373e+00 -9.122883e+00 -4.168231e+00 -1.048752e+01 -5.997221e+00 -6.867071e-01 -8.415127e-01 -2.256176e+00 -6.277882e+00 6.028965e+01 3.990081e-01 4.033609e-02 1.493265e-01 2.902297e-02 -1.408923e-01 9.836965e-02 -1.389884e-02 -1.585813e-01 -1.376448e-02 3.252912e-02 5.327353e-02 -8.809353e-02 1.361014e-01 -1.187259e-01 1.174242e-01 9.584294e-02 1.260677e-01 4.887092e-02 -2.436549e-03 1.013979e-01 -5.474228e-02 -1.464749e-01 -1.116466e-01 -6.564844e-02 1.112174e-01 -2.345011e-01
<VARIANCE> 39
 4.930054e+01 4.254136e+01 5.763869e+01 5.490420e+01 6.004651e+01 7.124269e+01 7.181779e+01 7.573778e+01 7.458215e+01 4.910086e+01 4.901976e+01 4.203848e+01 1.730663e+02 3.151818e+00 3.049128e+00 3.384782e+00 3.999835e+00 4.072832e+00 4.244767e+00 4.273205e+00 4.830902e+00 5.229932e+00 3.475121e+00 3.792587e+00 3.309472e+00 7.748861e+00 5.864565e-01 5.545663e-01 6.117195e-01 7.233600e-01 7.625031e-01 7.361395e-01 8.116851e-01 8.619781e-01 9.248158e-01 6.455312e-01 7.242675e-01 6.335027e-01 1.097232e+00
<GCONST> 1.394861e+02
<STATE> 4
<MEAN> 39
 -2.805766e+00 -3.808496e+00 -4.089354e+00 -6.141747e+00 -9.036210e+00 -4.060886e+00 -1.038917e+01 -6.251110e+00 -1.063013e+00 -1.018305e+00 -2.316856e+00 -6.146172e+00 5.896439e+01 2.078789e-01 1.827002e-01 2.618948e-01 2.033041e-01 -7.579902e-02 9.601419e-02 1.119478e-01 -2.225880e-01 -2.094746e-01 -1.418712e-01 -6.876270e-02 8.974738e-02 -1.689769e-01 -1.028676e-01 4.605753e-02 4.155786e-02 6.299187e-02 2.558325e-02 -1.450097e-03 5.876194e-02 -1.483645e-02 -7.102095e-02 -6.376699e-02 -4.877457e-02 6.747248e-02 -8.886581e-02
<VARIANCE> 39
 5.102363e+01 4.370762e+01 5.743914e+01 5.642830e+01 5.963682e+01 6.837238e+01 7.344083e+01 7.487613e+01 7.557081e+01 4.885832e+01 4.910951e+01 4.076148e+01 1.828334e+02 2.590857e+00 2.769954e+00 3.078663e+00 3.710907e+00 3.686537e+00 3.739905e+00 3.905043e+00 4.437686e+00 4.690895e+00 3.194543e+00 3.565454e+00 2.995706e+00 6.457889e+00 4.523240e-01 4.942226e-01 5.436502e-01 6.588327e-01 6.806924e-01 6.566013e-01 7.113352e-01 7.970774e-01 8.326380e-01 5.844343e-01 6.626981e-01 5.621160e-01 9.117399e-01
<GCONST> 1.365464e+02
<TRANSP> 5
 0.000000e+00 1.000000e+00 0.000000e+00 0.000000e+00 0.000000e+00
 0.000000e+00 4.554902e-01 5.445098e-01 0.000000e+00 0.000000e+00
 0.000000e+00 0.000000e+00 4.659586e-01 5.340414e-01 0.000000e+00
 0.000000e+00 0.000000e+00 0.000000e+00 5.600520e-01 4.399481e-01
 0.000000e+00 0.000000e+00 0.000000e+00 0.000000e+00 0.000000e+00
<ENDHMM>
~h "a"
<BEGINHMM>
<NUMSTATES> 5
<STATE> 2
<MEAN> 39
 -3.090202e+00 -9.831119e+00 -1.014517e+01 -8.302802e+00 -6.346050e+00 -2.166651e+00 -6.619121e+00 -3.029789e+00 2.162163e+00 -4.112105e+00 -5.997333e+00 -9.344082e+00 6.697076e+01 1.083123e-01 -4.428526e-01 -5.431816e-01 1.009759e-01 4.588896e-01 1.580807e-01 4.270382e-01 7.002471e-02 2.147305e-01 -3.035896e-01 -4.102395e-01 -4.138390e-01 3.032738e-01 -6.964811e-02 2.756288e-01 2.455845e-01 1.583407e-01 -5.386677e-02 -8.150457e-02 -1.011273e-01 -1.328845e-01 -1.937434e-01 7.242350e-02 1.185698e-01 1.945476e-01 -3.748683e-01
<VARIANCE> 39
 2.863454e+01 4.443005e+01 6.435108e+01 5.609599e+01 6.169063e+01 6.176668e+01 6.148856e+01 6.669641e+01 4.851076e+01 4.854721e+01 5.015572e+01 4.761613e+01 1.481426e+02 1.632729e+00 2.687034e+00 2.928824e+00 2.655538e+00 3.239307e+00 3.107149e+00 3.188907e+00 3.504459e+00 3.146415e+00 2.838215e+00 3.106143e+00 2.889553e+00 4.818656e+00 3.227349e-01 3.990461e-01 4.295834e-01 4.540091e-01 5.613011e-01 5.141307e-01 5.790504e-01 6.341392e-01 5.562862e-01 5.157403e-01 5.654457e-01 5.121214e-01 6.319164e-01
<GCONST> 1.294558e+02
<STATE> 3
<MEAN> 39
 -2.938038e+00 -9.913573e+00 -1.066461e+01 -7.590091e+00 -5.572535e+00 -2.088834e+00 -6.085711e+00 -3.319911e+00 2.071037e+00 -4.470356e+00 -6.533137e+00 -9.646844e+00 6.631968e+01 6.327398e-02 1.997327e-01 6.147131e-02 2.938596e-01 1.371986e-01 -3.791523e-02 7.774165e-02 -1.079425e-01 -9.684981e-02 -2.549900e-02 -1.058693e-01 3.284011e-02 -4.828304e-01 -2.440463e-02 2.572894e-01 2.458733e-01 7.742752e-02 -1.246064e-01 -6.534170e-02 -1.305108e-01 -7.968097e-02 -1.264165e-01 1.076568e-01 1.142489e-01 1.735705e-01 -3.024901e-01
<VARIANCE> 39
 2.745111e+01 4.434769e+01 6.229053e+01 5.536753e+01 5.634139e+01 5.795430e+01 5.979504e+01 6.360337e+01 4.607900e+01 4.740344e+01 4.760445e+01 4.691624e+01 1.526270e+02 1.287690e+00 2.405801e+00 2.570434e+00 2.271156e+00 2.833249e+00 2.768746e+00 2.786997e+00 3.229419e+00 2.639724e+00 2.542761e+00 2.708600e+00 2.480487e+00 4.611593e+00 2.305002e-01 3.780143e-01 3.916634e-01 4.022722e-01 4.773594e-01 4.651842e-01 5.131307e-01 5.860036e-01 4.949202e-01 4.716439e-01 5.008317e-01 4.540180e-01 5.282169e-01
<GCONST> 1.256111e+02
<STATE> 4
<MEAN> 39
 -4.089571e+00 -8.085503e+00 -9.452181e+00 -6.187181e+00 -4.527915e+00 -2.159182e+00 -6.331808e+00 -3.651182e+00 9.627535e-01 -4.393058e+00 -6.506699e+00 -8.192880e+00 5.964310e+01 -3.059438e-02 5.876932e-01 4.796999e-01 3.121105e-01 -1.558638e-01 -1.218280e-01 -1.253786e-01 -1.470741e-01 -2.284100e-01 1.634502e-01 1.065063e-01 3.170903e-01 -9.607531e-01 -2.684447e-02 1.232264e-01 1.381746e-01 3.221432e-02 -6.218115e-02 -2.405012e-02 -5.416280e-02 -6.085811e-02 -6.942110e-02 4.431090e-02 5.410811e-02 8.423219e-02 -1.066559e-01
<VARIANCE> 39
 3.663128e+01 4.785667e+01 5.721559e+01 5.651965e+01 5.409483e+01 5.016574e+01 5.547097e+01 5.746957e+01 4.523717e+01 4.426986e+01 4.431636e+01 4.619988e+01 2.285506e+02 1.245173e+00 2.101007e+00 2.279612e+00 2.187562e+00 2.498214e+00 2.459946e+00 2.596235e+00 3.119470e+00 2.511156e+00 2.341466e+00 2.493755e+00 2.251690e+00 3.540223e+00 2.087293e-01 3.439628e-01 3.621891e-01 3.769229e-01 4.250163e-01 4.169903e-01 4.690301e-01 5.471471e-01 4.555617e-01 4.346260e-01 4.491445e-01 4.054765e-01 4.766131e-01
<GCONST> 1.233170e+02
<TRANSP> 5
 0.000000e+00 1.000000e+00 0.000000e+00 0.000000e+00 0.000000e+00
 0.000000e+00 5.814020e-01 4.185980e-01 0.000000e+00 0.000000e+00
 0.000000e+00 0.000000e+00 5.849721e-01 4.150279e-01 0.000000e+00
 0.000000e+00 0.000000e+00 0.000000e+00 7.402357e-01 2.597643e-01
 0.000000e+00 0.000000e+00 0.000000e+00 0.000000e+00 0.000000e+00
<ENDHMM>
~h "b"
<BEGINHMM>
<NUMSTATES> 5
<STATE> 2
<MEAN> 39
 9.084851e-01 2.389748e+00 -2.332420e-01 -4.187239e+00 -7.154177e+00 5.097212e-01 -8.279337e+00 -9.114940e+00 -6.727280e+00 -3.046929e+00 -2.861292e+00 -5.493692e+00 5.210366e+01 3.909527e-01 4.708242e-01 1.389505e-01 -2.634051e-02 2.692817e-01 1.403992e-01 4.434449e-02 -8.881468e-02 -2.120810e-01 8.094344e-02 9.840199e-02 8.377242e-03 -2.443333e-01 -1.393699e-01 -2.356258e-01 -1.222294e-01 -1.708494e-01 -1.221409e-01 -9.859698e-02 -1.518126e-01 8.327788e-02 2.096612e-01 6.798482e-02 4.235064e-02 -2.403144e-02 4.301384e-01
<VARIANCE> 39
 5.636788e+01 4.864312e+01 4.778086e+01 5.703542e+01 4.583636e+01 5.069946e+01 4.842968e+01 6.526385e+01 7.020448e+01 4.233880e+01 4.892510e+01 3.421824e+01 1.333621e+02 2.476191e+00 4.160936e+00 3.462747e+00 4.376561e+00 3.562066e+00 3.553099e+00 3.934093e+00 4.157560e+00 5.205848e+00 3.476471e+00 4.010830e+00 2.910074e+00 7.779484e+00 3.899558e-01 6.641269e-01 5.162151e-01 7.305695e-01 6.432847e-01 6.110238e-01 7.266749e-01 7.142367e-01 8.974766e-01 6.472790e-01 7.616318e-01 5.632624e-01 9.825982e-01
<GCONST> 1.360919e+02
<STATE> 3
<MEAN> 39
 1.609973e+00 2.684150e+00 -3.790395e-01 -4.932178e+00 -7.034079e+00 6.555408e-01 -8.793478e+00 -9.196531e+00 -6.523113e+00 -2.523619e+00 -2.351559e+00 -5.634625e+00 5.335831e+01 -7.042558e-02 -3.512314e-01 -3.038522e-01 -4.596834e-01 -1.334894e-01 -1.379083e-01 -3.965988e-01 1.874799e-01 4.831336e-01 2.995043e-01 1.801965e-01 -1.135243e-01 9.436476e-01 -1.807893e-01 -2.885132e-01 -1.207395e-01 -1.012439e-01 -1.664944e-01 -9.056463e-02 -1.103188e-01 1.137037e-01 2.108342e-01 1.786337e-02 -2.249059e-02 -5.464185e-02 3.978098e-01
<VARIANCE> 39
 4.879957e+01 5.251441e+01 4.737613e+01 6.021975e+01 4.412679e+01 5.064600e+01 4.992023e+01 6.047559e+01 6.955714e+01 4.589696e+01 5.043859e+01 3.323838e+01 1.323963e+02 2.746472e+00 5.521129e+00 4.276499e+00 5.403569e+00 4.097978e+00 4.003885e+00 4.618452e+00 4.367123e+00 6.879479e+00 4.166904e+00 4.766405e+00 3.546215e+00 9.421799e+00 3.992987e-01 7.609271e-01 6.110905e-01 8.776881e-01 7.395915e-01 6.942348e-01 8.444864e-01 7.324771e-01 1.047093e+00 7.728814e-01 9.099082e-01 6.653661e-01 1.218778e+00
<GCONST> 1.401960e+02
<STATE> 4
<MEAN> 39
 9.876950e-01 1.445572e+00 -1.339035e+00 -6.138417e+00 -7.588711e+00 2.369299e-01 -9.895693e+00 -8.481882e+00 -5.031417e+00 -1.643078e+00 -2.055433e+00 -6.026489e+00 5.584995e+01 -4.279208e-01 -8.714659e-01 -4.544798e-01 -4.516507e-01 -4.361996e-01 -3.049745e-01 -4.500551e-01 4.261949e-01 8.013474e-01 1.767384e-01 6.342964e-03 -2.270454e-01 1.509492e+00 -8.741572e-02 -8.128466e-02 1.321580e-02 4.754691e-02 -9.991232e-02 -2.428200e-02 3.766926e-02 4.181417e-02 -5.917536e-04 -1.137018e-01 -6.725264e-02 -9.191169e-03 8.757929e-02
<VARIANCE> 39
 4.592959e+01 6.386362e+01 5.633371e+01 7.178207e+01 4.883377e+01 5.384360e+01 5.467096e+01 5.575753e+01 7.814707e+01 5.088945e+01 5.225047e+01 3.597423e+01 1.608181e+02 2.405098e+00 5.074747e+00 4.242864e+00 5.260972e+00 4.394641e+00 4.041331e+00 4.534414e+00 3.992258e+00 6.771657e+00 4.289708e+00 4.801705e+00 3.866012e+00 8.220974e+00 3.757062e-01 7.953684e-01 6.239604e-01 9.401458e-01 7.931256e-01 7.112743e-01 8.582940e-01 6.758586e-01 1.061166e+00 8.186895e-01 9.019248e-01 6.830691e-01 1.279777e+00
<GCONST> 1.413108e+02
<TRANSP> 5
 0.000000e+00 1.000000e+00 0.000000e+00 0.000000e+00 0.000000e+00
 0.000000e+00 5.747110e-01 4.252889e-01 0.000000e+00 0.000000e+00
 0.000000e+00 0.000000e+00 5.844283e-01 4.155716e-01 0.000000e+00
 0.000000e+00 0.000000e+00 0.000000e+00 6.855635e-01 3.144365e-01
 0.000000e+00 0.000000e+00 0.000000e+00 0.000000e+00 0.000000e+00
<ENDHMM>
~h "c"
<BEGINHMM>
<NUMSTATES> 5
<STATE> 2
<MEAN> 39
 -9.209747e+00 8.223793e-01 -1.274068e+00 -2.799380e+00 -7.142196e+00 -6.976352e+00 -7.037778e+00 -3.785052e+00 -3.263820e+00 -3.258283e+00 -3.931648e+00 -2.656289e+00 5.056916e+01 -1.356148e+00 -2.772375e-02 -1.572876e-01 -3.981138e-01 4.549276e-01 -1.339183e-01 9.706323e-02 1.465930e-01 9.415160e-02 6.888028e-03 2.182385e-01 8.460551e-02 -3.530344e-02 -1.366046e-01 -1.815790e-01 -1.023988e-01 -1.729919e-01 -8.460737e-02 3.186125e-02 -2.914662e-02 -1.585453e-02 4.319514e-02 9.924662e-04 5.372717e-02 -1.901720e-02 5.841094e-01
<VARIANCE> 39
 8.028766e+01 4.656883e+01 4.582576e+01 3.511829e+01 5.276181e+01 5.266724e+01 5.387041e+01 5.484223e+01 4.369647e+01 3.521490e+01 3.546901e+01 2.675678e+01 1.592425e+02 7.148978e+00 4.717319e+00 3.711485e+00 3.448589e+00 4.757120e+00 3.744332e+00 3.953313e+00 4.316302e+00 3.486444e+00 2.800040e+00 2.977720e+00 2.649763e+00 1.511615e+01 1.588224e+00 8.137987e-01 6.443600e-01 6.521772e-01 8.926964e-01 7.304907e-01 7.497859e-01 8.032129e-01 6.576858e-01 5.518602e-01 5.613214e-01 5.437451e-01 1.926365e+00
<GCONST> 1.382275e+02
<STATE> 3
<MEAN> 39
 -1.393863e+01 -1.095242e-01 -2.216560e+00 -4.826869e+00 -6.669005e+00 -7.339949e+00 -6.942341e+00 -3.349691e+00 -2.781219e+00 -3.218706e+00 -2.871231e+00 -2.269682e+00 5.425178e+01 -6.587387e-01 -4.952202e-01 -2.226159e-01 -5.442501e-01 -1.900664e-01 -1.344669e-01 -1.265111e-01 1.940634e-01 2.396345e-01 -7.312996e-03 2.283172e-01 -8.256339e-03 1.750438e+00 4.734098e-01 -1.148215e-01 5.649171e-03 3.005511e-02 -1.785980e-01 4.123349e-02 -6.756964e-02 -9.577185e-03 3.681211e-02 -6.347147e-03 -4.687076e-02 -9.915832e-02 2.698605e-01
<VARIANCE> 39
 1.068598e+02 4.413223e+01 4.328291e+01 3.478084e+01 5.172602e+01 5.055534e+01 4.950524e+01 4.597358e+01 3.790150e+01 3.082263e+01 3.356732e+01 2.536169e+01 1.672428e+02 1.543515e+01 4.888903e+00 4.067542e+00 3.738797e+00 5.726827e+00 4.235783e+00 4.217784e+00 4.688097e+00 3.960375e+00 2.930590e+00 3.309487e+00 2.901195e+00 1.375175e+01 2.724841e+00 9.079090e-01 7.425898e-01 7.457241e-01 1.045023e+00 8.559481e-01 7.508767e-01 8.549030e-01 7.343743e-01 5.847333e-01 6.135580e-01 5.738317e-01 2.017927e+00
<GCONST> 1.411074e+02
<STATE> 4
<MEAN> 39
 -1.367216e+01 -2.114072e+00 -2.417498e+00 -6.243454e+00 -8.195855e+00 -7.365378e+00 -7.959710e+00 -2.764015e+00 -1.894833e+00 -3.199197e+00 -2.154852e+00 -2.678552e+00 6.044581e+01 1.449732e+00 -8.347180e-01 -1.092657e-01 -2.955920e-01 -6.771373e-01 1.500540e-01 -3.400572e-01 3.759702e-02 2.380810e-01 -5.029524e-02 -9.405650e-03 -5.284801e-01 1.783746e+00 2.382327e-01 -3.129031e-02 -7.952311e-02 5.946357e-03 5.391716e-02 1.642877e-01 4.172320e-02 -1.069441e-01 -6.227336e-02 2.412180e-02 -1.680256e-03 -1.169717e-01 -2.341405e-01
<VARIANCE> 39
 1.231137e+02 4.840085e+01 5.181108e+01 3.431831e+01 5.966083e+01 5.156749e+01 5.656286e+01 5.017987e+01 4.399051e+01 3.067673e+01 3.562764e+01 2.665663e+01 1.697316e+02 1.543943e+01 5.032294e+00 4.601487e+00 3.635753e+00 5.784835e+00 4.665565e+00 4.192378e+00 5.076641e+00 4.287619e+00 3.028429e+00 3.402083e+00 3.098041e+00 8.384360e+00 2.915864e+00 8.602310e-01 7.398251e-01 7.235651e-01 1.123647e+00 8.733515e-01 7.450030e-01 8.696296e-01 7.534517e-01 5.482962e-01 6.136119e-01 5.359373e-01 1.321278e+00
<GCONST> 1.417264e+02
<TRANSP> 5
 0.000000e+00 1.000000e+00 0.000000e+00 0.000000e+00 0.000000e+00
 0.000000e+00 6.915540e-01 3.084460e-01 0.000000e+00 0.000000e+00
 0.000000e+00 0.000000e+00 7.202166e-01 2.797834e-01 0.000000e+00
 0.000000e+00 0.000000e+00 0.000000e+00 8.185438e-01 1.814562e-01
 0.000000e+00 0.000000e+00 0.000000e+00 0.000000e+00 0.000000e+00
<ENDHMM>
~h "d"
<BEGINHMM>
<NUMSTATES> 5
<STATE> 2
<MEAN> 39
 -5.960620e-01 -3.957122e-01 1.564266e+00 -1.040583e+00 -9.766184e+00 -5.780989e+00 -1.089623e+01 -5.039313e+00 -1.549945e+00 -3.416685e+00 -6.088275e+00 -5.524073e+00 5.490144e+01 2.266944e-01 1.779201e-01 4.898054e-01 2.433366e-01 4.292283e-02 -3.102392e-01 -4.136740e-01 3.698837e-01 1.181357e-01 -6.196656e-02 -9.061356e-02 3.190371e-02 -6.193926e-02 -1.467803e-01 -1.650647e-01 -1.105177e-01 -1.835823e-01 -8.137792e-02 4.033159e-02 1.297663e-02 -5.245029e-03 -3.366642e-02 -1.668758e-02 1.435443e-01 2.180197e-02 3.525898e-01
<VARIANCE> 39
 4.747162e+01 6.118657e+01 6.286880e+01 4.642768e+01 6.696468e+01 5.252330e+01 6.645937e+01 9.424822e+01 6.741755e+01 4.179087e+01 5.733578e+01 3.749253e+01 1.584054e+02 3.054572e+00 4.768792e+00 3.811787e+00 4.052247e+00 6.067847e+00 3.415876e+00 4.530179e+00 6.130235e+00 4.457865e+00 3.112337e+00 4.425644e+00 3.242927e+00 9.785113e+00 5.205482e-01 7.801830e-01 5.346145e-01 6.519521e-01 1.197813e+00 6.298332e-01 8.611583e-01 1.078710e+00 7.923066e-01 6.123106e-01 8.205921e-01 6.250528e-01 1.367846e+00
<GCONST> 1.411780e+02
<STATE> 3
<MEAN> 39
 -5.163196e-01 -7.660405e-01 2.321695e+00 -1.203976e+00 -1.018254e+01 -6.492978e+00 -1.193461e+01 -3.958705e+00 -1.232401e+00 -3.623188e+00 -5.757936e+00 -5.338388e+00 5.656856e+01 -2.649703e-01 -4.348978e-01 -1.571836e-02 -3.656113e-01 -3.950976e-01 -1.556984e-01 -2.353372e-01 4.091369e-01 7.899579e-02 -8.437222e-02 3.525568e-01 5.928678e-02 1.066740e+00 -1.275366e-01 -1.384317e-01 -1.700436e-01 -1.679479e-01 -1.310942e-01 9.300770e-02 1.099296e-01 -5.919839e-02 -3.718470e-02 1.165761e-02 1.107400e-01 -3.899626e-02 2.844353e-01
<VARIANCE> 39
 4.249225e+01 5.926861e+01 6.017743e+01 4.555936e+01 6.818054e+01 5.067966e+01 6.796254e+01 9.021394e+01 6.977280e+01 4.145271e+01 5.658663e+01 3.785306e+01 1.522998e+02 3.298056e+00 5.534409e+00 4.654833e+00 4.404358e+00 7.401473e+00 3.663617e+00 5.310970e+00 6.803051e+00 5.200934e+00 3.447160e+00 5.277225e+00 3.459929e+00 1.128114e+01 5.589626e-01 8.512192e-01 5.866944e-01 6.985734e-01 1.446517e+00 6.641633e-01 9.945080e-01 1.167676e+00 8.886807e-01 6.632065e-01 9.640950e-01 6.843636e-01 1.592282e+00
<GCONST> 1.439805e+02
<STATE> 4
<MEAN> 39
 -1.648696e+00 -2.194078e+00 1.768798e+00 -2.560155e+00 -1.150920e+01 -6.604086e+00 -1.196340e+01 -3.254252e+00 -1.164578e+00 -3.690418e+00 -4.657447e+00 -5.399670e+00 5.920560e+01 -4.197233e-01 -5.540045e-01 -3.358663e-01 -5.595653e-01 -4.750452e-01 1.284067e-01 1.353702e-01 1.271320e-01 -6.955884e-02 -1.335870e-02 4.196031e-01 -1.155939e-01 1.227704e+00 5.174042e-03 4.533252e-02 -5.781786e-02 -5.442335e-04 3.980757e-02 1.056382e-01 9.169687e-02 -1.529231e-01 -7.067236e-02 2.774757e-02 -1.953775e-02 -6.376244e-02 -7.359118e-02
<VARIANCE> 39
 3.773721e+01 6.292176e+01 7.295412e+01 5.047786e+01 7.213683e+01 5.025991e+01 7.227258e+01 9.067132e+01 8.037838e+01 4.223145e+01 6.040633e+01 3.683113e+01 1.701364e+02 2.577435e+00 4.316853e+00 4.418854e+00 3.647438e+00 6.992879e+00 3.479502e+00 5.317084e+00 6.091749e+00 4.999690e+00 3.365882e+00 5.177253e+00 3.151607e+00 8.714885e+00 4.514757e-01 7.257951e-01 5.355800e-01 6.250684e-01 1.340095e+00 6.040553e-01 9.515344e-01 1.039641e+00 8.450778e-01 6.193583e-01 8.964673e-01 5.910257e-01 1.362206e+00
<GCONST> 1.418520e+02
<TRANSP> 5
 0.000000e+00 1.000000e+00 0.000000e+00 0.000000e+00 0.000000e+00
 0.000000e+00 6.132749e-01 3.867250e-01 0.000000e+00 0.000000e+00
 0.000000e+00 0.000000e+00 6.274518e-01 3.725482e-01 0.000000e+00
 0.000000e+00 0.000000e+00 0.000000e+00 6.924934e-01 3.075066e-01
 0.000000e+00 0.000000e+00 0.000000e+00 0.000000e+00 0.000000e+00
<ENDHMM>
~h "e"
<BEGINHMM>
<NUMSTATES> 5
<STATE> 2
<MEAN> 39
 -4.555557e+00 -6.987963e+00 6.253835e-01 -5.416817e+00 -1.656161e+01 -1.011171e+01 -6.495416e+00 -1.350260e+00 -3.045884e+00 -2.473213e+00 1.443227e-01 -6.346838e+00 6.360872e+01 -7.476445e-03 -3.141556e-01 2.977861e-01 -1.817897e-01 -7.735628e-01 -2.817421e-01 4.445260e-01 3.217560e-01 -4.142227e-02 -1.481781e-02 3.318532e-01 -1.499910e-01 6.083683e-01 -3.071066e-02 1.735132e-01 -4.851124e-02 5.210884e-02 2.508316e-01 1.485471e-01 -2.838458e-02 -1.683498e-01 -2.997145e-02 1.892775e-02 -9.549454e-02 2.645727e-02 -2.807117e-01
<VARIANCE> 39
 3.373073e+01 5.490869e+01 7.303091e+01 4.022604e+01 8.543578e+01 6.155315e+01 7.844698e+01 7.541693e+01 6.428365e+01 4.913872e+01 6.197563e+01 3.393617e+01 1.897061e+02 1.762394e+00 2.711570e+00 2.432460e+00 2.386976e+00 4.654042e+00 2.877291e+00 3.854930e+00 3.932146e+00 3.520100e+00 2.768883e+00 3.180968e+00 2.054995e+00 6.870377e+00 3.406621e-01 4.673613e-01 3.732037e-01 4.055923e-01 7.564052e-01 5.301355e-01 6.894277e-01 7.075842e-01 6.442145e-01 5.081334e-01 5.488154e-01 3.843321e-01 1.024365e+00
<GCONST> 1.321063e+02
<STATE> 3
<MEAN> 39
 -4.419866e+00 -7.165645e+00 1.180959e+00 -5.571521e+00 -1.744784e+01 -1.042477e+01 -5.698265e+00 -1.279980e+00 -3.254295e+00 -2.418051e+00 4.830053e-01 -6.683811e+00 6.428896e+01 2.826401e-02 5.967722e-02 1.110786e-01 3.645908e-02 -9.372831e-02 -1.849782e-02 1.266670e-01 -7.219224e-02 -6.037939e-02 2.001818e-02 8.396254e-03 -6.264721e-02 -1.856089e-02 1.765047e-03 1.266675e-01 -6.697857e-02 6.949061e-02 2.246929e-01 9.550750e-02 -9.146930e-02 -1.187405e-01 -6.158134e-03 1.451789e-02 -1.000788e-01 3.734583e-02 -2.303157e-01
<VARIANCE> 39
 3.086194e+01 5.264716e+01 7.213509e+01 4.173445e+01 8.246159e+01 6.036323e+01 7.923551e+01 7.543579e+01 6.160677e+01 4.873911e+01 6.193217e+01 3.369368e+01 1.692663e+02 1.363834e+00 2.228856e+00 1.980040e+00 2.059365e+00 3.738674e+00 2.460503e+00 3.188906e+00 3.157036e+00 2.906423e+00 2.357066e+00 2.708442e+00 1.766969e+00 6.431198e+00 2.472102e-01 3.759149e-01 3.204307e-01 3.604597e-01 6.424672e-01 4.599835e-01 5.849761e-01 5.949504e-01 5.395034e-01 4.431826e-01 4.756893e-01 3.290095e-01 7.828618e-01
<GCONST> 1.271284e+02
<STATE> 4
<MEAN> 39
 -6.049309e+00 -5.938015e+00 1.908346e+00 -5.312550e+00 -1.634732e+01 -9.719072e+00 -5.946518e+00 -2.759165e+00 -4.468635e+00 -2.410017e+00 3.738991e-01 -5.964170e+00 5.815192e+01 9.635299e-03 2.792334e-01 -1.159325e-01 2.047093e-01 3.884913e-01 1.489496e-01 -8.954571e-02 -1.952376e-01 5.152604e-03 2.276680e-02 -2.348767e-01 5.948511e-02 -5.647402e-01 -1.368991e-02 4.859636e-02 -3.398162e-02 2.965540e-02 1.060826e-01 5.273739e-02 -3.412445e-02 -4.798533e-02 4.978842e-03 4.902077e-03 -3.197019e-02 2.014619e-02 -7.105164e-02
<VARIANCE> 39
 3.695782e+01 4.968735e+01 7.008727e+01 3.989564e+01 8.437710e+01 5.243063e+01 6.873796e+01 6.192120e+01 5.389862e+01 4.323100e+01 5.674349e+01 3.227226e+01 2.362178e+02 1.174457e+00 1.847168e+00 1.619626e+00 1.721653e+00 2.927999e+00 2.152889e+00 2.620771e+00 2.624430e+00 2.328624e+00 2.026779e+00 2.279937e+00 1.554536e+00 4.460248e+00 1.986737e-01 2.977991e-01 2.602994e-01 2.944576e-01 4.839562e-01 3.897100e-01 4.667599e-01 4.831849e-01 4.282921e-01 3.714348e-01 3.943666e-01 2.822758e-01 5.284673e-01
<GCONST> 1.212677e+02
<TRANSP> 5
 0.000000e+00 1.000000e+00 0.000000e+00 0.000000e+00 0.000000e+00
 0.000000e+00 6.389608e-01 3.610393e-01 0.000000e+00 0.000000e+00
 0.000000e+00 0.000000e+00 6.423952e-01 3.576048e-01 0.000000e+00
 0.000000e+00 0.000000e+00 0.000000e+00 8.496506e-01 1.503494e-01
 0.000000e+00 0.000000e+00 0.000000e+00 0.000000e+00 0.000000e+00
<ENDHMM>
~h "f"
<BEGINHMM>
<NUMSTATES> 5
<STATE> 2
<MEAN> 39
 -1.289602e+01 -3.141433e+00 -3.772738e+00 -1.737614e+00 -6.066932e+00 -3.664520e+00 -6.758362e+00 -4.017332e+00 -2.998189e+00 -2.505876e+00 -1.698925e+00 -2.709032e+00 5.682066e+01 -1.705547e+00 -2.907521e-01 -3.239554e-01 2.925176e-01 4.648332e-01 -1.621045e-01 3.237086e-02 2.631923e-01 2.404433e-01 1.101757e-01 -2.618878e-03 3.354579e-01 -4.922828e-01 1.403185e-01 -1.182408e-01 -1.966085e-02 -1.787407e-01 -2.348334e-01 -3.545978e-03 -5.445426e-02 -8.760119e-02 -3.761000e-02 -2.437638e-03 3.200109e-02 -7.111426e-02 1.505658e-01
<VARIANCE> 39
 8.099098e+01 3.344343e+01 4.539183e+01 3.370677e+01 4.287521e+01 4.278819e+01 3.669989e+01 3.878391e+01 3.163660e+01 2.543125e+01 2.934080e+01 2.492758e+01 9.902300e+01 5.662154e+00 2.965564e+00 3.364738e+00 3.201726e+00 4.617150e+00 3.094264e+00 2.829961e+00 3.297252e+00 3.015890e+00 2.468340e+00 2.532133e+00 2.168699e+00 2.972772e+00 9.073880e-01 4.936737e-01 4.910469e-01 5.464056e-01 7.345589e-01 5.378373e-01 5.276318e-01 5.744246e-01 5.556341e-01 4.632964e-01 4.600621e-01 3.873546e-01 3.525842e-01
<GCONST> 1.260956e+02
<STATE> 3
<MEAN> 39
 -1.633463e+01 -4.446477e+00 -4.767100e+00 -1.844503e+00 -6.043446e+00 -4.162223e+00 -6.908179e+00 -3.732057e+00 -2.656408e+00 -2.273578e+00 -1.546270e+00 -2.171097e+00 5.613139e+01 -3.254569e-01 -3.521824e-01 -2.793869e-01 -1.956130e-01 -1.580401e-01 -9.684397e-02 -6.671432e-02 -1.623922e-03 3.852655e-02 2.690437e-02 8.014789e-02 1.122915e-03 5.728434e-03 4.935705e-01 2.591031e-02 4.341400e-02 -1.463625e-01 -1.684920e-01 5.898011e-02 -1.644779e-02 -7.479018e-02 -4.963278e-02 -1.675344e-02 2.610493e-02 -1.157124e-01 1.729230e-01
<VARIANCE> 39
 7.135269e+01 3.206087e+01 4.005843e+01 3.086485e+01 3.559633e+01 3.787164e+01 3.327936e+01 3.353375e+01 2.786895e+01 2.354570e+01 2.583367e+01 2.254443e+01 8.982823e+01 8.578219e+00 2.427399e+00 2.964268e+00 2.949955e+00 3.350879e+00 2.955326e+00 2.546263e+00 2.746747e+00 2.591592e+00 2.289811e+00 2.204499e+00 2.233643e+00 3.104008e+00 9.623393e-01 4.619059e-01 4.842582e-01 5.332366e-01 6.441031e-01 5.435941e-01 4.909295e-01 5.261701e-01 5.184884e-01 4.560117e-01 4.361216e-01 3.977665e-01 3.595080e-01
<GCONST> 1.232732e+02
<STATE> 4
<MEAN> 39
 -1.574403e+01 -5.598170e+00 -6.025601e+00 -3.168826e+00 -6.042383e+00 -3.937499e+00 -7.271576e+00 -3.622544e+00 -2.557680e+00 -2.185354e+00 -9.597827e-01 -2.416744e+00 5.226874e+01 9.790914e-01 -3.880931e-03 3.206155e-02 -3.295494e-01 -3.429860e-01 3.562316e-02 -6.425824e-02 -1.409535e-01 -9.866466e-02 -3.702678e-02 6.090190e-02 -2.619040e-01 3.132888e-01 2.347626e-01 4.604873e-02 6.698979e-02 -6.555097e-02 -8.121429e-02 4.213599e-02 -9.045684e-03 -4.049029e-02 -2.231485e-02 -7.967777e-03 8.376189e-03 -6.677017e-02 1.205167e-01
<VARIANCE> 39
 8.165053e+01 3.553588e+01 4.221521e+01 3.624100e+01 3.770903e+01 3.693921e+01 3.317036e+01 3.195194e+01 2.880009e+01 2.647516e+01 2.701655e+01 2.346982e+01 1.426461e+02 6.796535e+00 2.189655e+00 2.782830e+00 2.793492e+00 2.887600e+00 2.866138e+00 2.503853e+00 2.580674e+00 2.569303e+00 2.266704e+00 2.169860e+00 2.238030e+00 3.191859e+00 9.574938e-01 3.818708e-01 4.041479e-01 4.860466e-01 5.092080e-01 5.136506e-01 4.604317e-01 4.759463e-01 4.712796e-01 4.260615e-01 4.072110e-01 3.788409e-01 3.512520e-01
<GCONST> 1.224569e+02
<TRANSP> 5
 0.000000e+00 1.000000e+00 0.000000e+00 0.000000e+00 0.000000e+00
 0.000000e+00 6.657553e-01 3.342447e-01 0.000000e+00 0.000000e+00
 0.000000e+00 0.000000e+00 6.700351e-01 3.299649e-01 0.000000e+00
 0.000000e+00 0.000000e+00 0.000000e+00 8.470027e-01 1.529973e-01
 0.000000e+00 0.000000e+00 0.000000e+00 0.000000e+00 0.000000e+00
<ENDHMM>
~h "g"
<BEGINHMM>
<NUMSTATES> 5
<STATE> 2
<MEAN> 39
 -1.334209e+00 2.923644e-01 1.319936e+00 -3.850489e+00 -9.825131e+00 -4.776496e+00 -1.159264e+01 -6.239774e+00 -5.483693e+00 -2.235695e-01 -4.169164e+00 -6.684285e+00 5.717389e+01 -3.243171e-02 2.639834e-01 3.905175e-01 3.655507e-01 1.872543e-02 -4.026580e-01 -3.760756e-01 1.922788e-01 -3.580534e-01 2.108176e-01 1.166039e-02 -5.888011e-02 -1.744576e-01 -4.864158e-02 -1.260199e-01 -1.522425e-01 -1.440910e-01 -3.776291e-02 6.854892e-02 6.895664e-02 5.167763e-02 1.141399e-01 -8.577474e-02 2.098558e-02 -2.962831e-02 2.076389e-01
<VARIANCE> 39
 3.932286e+01 5.152229e+01 6.219884e+01 6.255376e+01 7.210844e+01 5.897644e+01 7.781716e+01 7.213811e+01 7.409267e+01 4.243670e+01 5.425566e+01 4.034106e+01 1.409541e+02 2.639618e+00 4.331175e+00 4.148789e+00 4.390537e+00 6.029715e+00 3.703791e+00 4.992865e+00 4.698804e+00 5.682366e+00 3.241088e+00 3.824255e+00 3.194373e+00 7.847437e+00 4.759506e-01 6.268531e-01 6.094543e-01 6.804830e-01 1.182440e+00 6.561726e-01 9.427041e-01 8.019366e-01 9.398331e-01 6.220691e-01 7.357357e-01 6.013674e-01 9.811136e-01
<GCONST> 1.403204e+02
<STATE> 3
<MEAN> 39
 -1.590045e+00 4.364492e-01 1.781978e+00 -3.543705e+00 -9.980890e+00 -5.475662e+00 -1.234649e+01 -5.567265e+00 -5.835423e+00 6.796229e-03 -4.021415e+00 -6.911009e+00 5.772626e+01 -1.827966e-01 -1.555358e-01 -6.290182e-02 -2.009896e-01 -1.650551e-01 -1.664065e-01 -1.642469e-01 3.517812e-01 7.383665e-02 5.382500e-03 9.529965e-02 -8.191040e-02 4.926604e-01 -3.531695e-02 -1.345944e-01 -1.632773e-01 -2.078947e-01 -5.534533e-02 1.251566e-01 1.185252e-01 1.976942e-02 1.458721e-01 -8.960395e-02 1.678724e-02 -9.471247e-03 2.076254e-01
<VARIANCE> 39
 3.837057e+01 5.196747e+01 6.101017e+01 5.951323e+01 7.549202e+01 5.908899e+01 7.929605e+01 7.126048e+01 7.167632e+01 4.135677e+01 5.371993e+01 3.981491e+01 1.364504e+02 2.867821e+00 4.567668e+00 4.490108e+00 4.895871e+00 7.161484e+00 3.729651e+00 5.351801e+00 4.730055e+00 6.018635e+00 3.245528e+00 4.278867e+00 3.256550e+00 8.180659e+00 5.277277e-01 6.621228e-01 6.690424e-01 7.183623e-01 1.412688e+00 6.628076e-01 9.986934e-01 8.080633e-01 9.707885e-01 6.187266e-01 8.273589e-01 6.156650e-01 1.004839e+00
<GCONST> 1.417370e+02
<STATE> 4
<MEAN> 39
 -2.506935e+00 -5.031815e-01 1.748839e+00 -5.512843e+00 -1.033733e+01 -4.905263e+00 -1.328125e+01 -4.676576e+00 -5.783280e+00 -2.972425e-01 -3.795009e+00 -6.986987e+00 5.906880e+01 -2.191046e-01 -3.943415e-01 -3.779755e-01 -5.596808e-01 -1.913192e-01 1.440655e-01 1.754686e-01 2.833726e-01 3.135196e-01 -1.674183e-01 6.770622e-02 -5.969711e-02 7.420921e-01 -8.647115e-03 -5.611081e-02 -9.090252e-02 -5.015648e-02 2.792116e-02 1.017643e-01 9.894286e-02 -6.793866e-02 3.917132e-02 -6.905299e-02 -1.317167e-02 4.775811e-03 4.295049e-02
<VARIANCE> 39
 3.790629e+01 6.052842e+01 7.113943e+01 6.801901e+01 7.410933e+01 5.909724e+01 8.501787e+01 7.413977e+01 8.132137e+01 4.251483e+01 5.452394e+01 3.822649e+01 1.502745e+02 2.487731e+00 3.882975e+00 4.129929e+00 4.358982e+00 6.346878e+00 3.395348e+00 5.006638e+00 4.293419e+00 5.321836e+00 3.062526e+00 4.317556e+00 2.955865e+00 6.125490e+00 4.614320e-01 6.071286e-01 6.274674e-01 6.984565e-01 1.250306e+00 5.835438e-01 8.851318e-01 7.359366e-01 8.926149e-01 5.644513e-01 7.815763e-01 5.372879e-01 8.570524e-01
<GCONST> 1.397343e+02
<TRANSP> 5
 0.000000e+00 1.000000e+00 0.000000e+00 0.000000e+00 0.000000e+00
 0.000000e+00 5.840778e-01 4.159223e-01 0.000000e+00 0.000000e+00
 0.000000e+00 0.000000e+00 5.930541e-01 4.069459e-01 0.000000e+00
 0.000000e+00 0.000000e+00 0.000000e+00 7.019380e-01 2.980620e-01
 0.000000e+00 0.000000e+00 0.000000e+00 0.000000e+00 0.000000e+00
<ENDHMM>
~h "h"
<BEGINHMM>
<NUMSTATES> 5
<STATE> 2
<MEAN> 39
 -6.761215e+00 -5.650514e+00 -5.799864e+00 -4.540506e+00 -2.760274e+00 2.433473e-01 -5.463672e+00 -3.842865e+00 -1.469501e+00 -3.715147e+00 -4.847524e+00 -4.534307e+00 5.955748e+01 -3.107933e-01 -5.411089e-02 6.121796e-02 2.224872e-01 4.842875e-01 1.844837e-01 1.385765e-01 9.331944e-02 4.949034e-02 -3.240687e-02 -2.456546e-02 1.863210e-01 -6.069747e-01 5.486972e-02 3.454180e-03 -2.949394e-03 -1.002437e-01 -1.640545e-01 -7.419730e-02 -9.492796e-02 -7.182011e-02 -3.294902e-02 6.210606e-03 3.134869e-02 -5.586630e-02 1.395284e-02
<VARIANCE> 39
 4.253300e+01 5.033238e+01 6.263182e+01 5.407698e+01 7.283447e+01 5.746894e+01 5.586796e+01 5.387004e+01 4.859831e+01 4.187109e+01 4.159391e+01 3.798772e+01 1.742048e+02 1.514528e+00 2.487740e+00 2.972992e+00 2.681807e+00 3.499739e+00 2.924144e+00 2.835200e+00 2.980296e+00 2.755718e+00 2.406530e+00 2.481824e+00 2.247599e+00 2.664904e+00 2.227305e-01 3.525365e-01 4.044395e-01 4.171366e-01 5.384618e-01 4.741665e-01 4.887890e-01 5.313081e-01 4.891783e-01 4.372026e-01 4.354797e-01 3.856377e-01 2.974373e-01
<GCONST> 1.248431e+02
<STATE> 3
<MEAN> 39
 -7.286050e+00 -5.785938e+00 -5.807048e+00 -4.419150e+00 -2.180281e+00 3.949754e-01 -5.444684e+00 -3.875465e+00 -1.438002e+00 -3.755954e+00 -4.796487e+00 -4.294575e+00 5.814706e+01 -1.338546e-01 2.593155e-02 2.401313e-02 1.778585e-02 9.677330e-02 -2.852123e-02 -6.848178e-03 -5.581627e-02 -3.926801e-02 -2.012123e-02 3.184222e-02 5.840510e-02 -5.467042e-01 8.042302e-02 4.018150e-02 -1.144151e-02 -7.543867e-02 -1.751619e-01 -8.682875e-02 -6.384689e-02 -5.543126e-02 -3.488393e-02 9.181282e-04 2.341328e-02 -4.832834e-02 4.602270e-02
<VARIANCE> 39
 4.427667e+01 5.153055e+01 5.920684e+01 5.174476e+01 7.011388e+01 5.605012e+01 5.448935e+01 5.104188e+01 4.711142e+01 4.045270e+01 3.936253e+01 3.504492e+01 1.775919e+02 1.507088e+00 2.312885e+00 2.716262e+00 2.466481e+00 3.167521e+00 2.688684e+00 2.674752e+00 2.797516e+00 2.586276e+00 2.269129e+00 2.310847e+00 2.137114e+00 2.894747e+00 2.310391e-01 3.198764e-01 3.861196e-01 3.978701e-01 5.172240e-01 4.533163e-01 4.799540e-01 5.013299e-01 4.687246e-01 4.233316e-01 4.153361e-01 3.670295e-01 2.919075e-01
<GCONST> 1.232579e+02
<STATE> 4
<MEAN> 39
 -9.099494e+00 -5.619608e+00 -6.517149e+00 -4.754669e+00 -1.907760e+00 -5.943151e-01 -5.932172e+00 -4.047043e+00 -2.146739e+00 -4.103320e+00 -4.166600e+00 -3.770088e+00 5.009325e+01 5.166620e-02 1.725156e-01 1.261339e-02 -3.770295e-02 -1.941151e-01 -1.380617e-01 -2.449349e-02 -8.370337e-02 -7.021957e-02 3.164856e-03 3.328506e-02 -2.423962e-02 -3.311858e-01 4.720435e-02 2.609726e-02 9.855330e-03 -1.827751e-02 -8.185127e-02 -3.318265e-02 -2.462720e-02 -1.250073e-02 -9.867090e-03 -1.658693e-03 7.221895e-03 -2.061145e-02 7.258026e-02
<VARIANCE> 39
 4.397054e+01 5.263660e+01 4.761492e+01 4.658183e+01 5.361200e+01 4.404622e+01 4.813113e+01 4.000770e+01 4.114302e+01 3.465366e+01 3.238369e+01 2.978952e+01 2.289546e+02 1.308344e+00 1.793300e+00 2.001801e+00 1.881216e+00 2.290891e+00 2.045506e+00 2.263351e+00 2.303518e+00 2.187828e+00 1.981919e+00 1.939693e+00 1.816671e+00 2.407261e+00 2.047509e-01 2.722371e-01 3.082885e-01 3.259591e-01 3.927090e-01 3.641606e-01 4.139378e-01 4.243378e-01 4.050420e-01 3.737396e-01 3.581127e-01 3.241818e-01 2.616556e-01
<GCONST> 1.167550e+02
<TRANSP> 5
 0.000000e+00 1.000000e+00 0.000000e+00 0.000000e+00 0.000000e+00
 0.000000e+00 5.370818e-01 4.629182e-01 0.000000e+00 0.000000e+00
 0.000000e+00 0.000000e+00 5.417781e-01 4.582219e-01 0.000000e+00
 0.000000e+00 0.000000e+00 0.000000e+00 7.998217e-01 2.001783e-01
 0.000000e+00 0.000000e+00 0.000000e+00 0.000000e+00 0.000000e+00
<ENDHMM>
~h "i"
<BEGINHMM>
<NUMSTATES> 5
<STATE> 2
<MEAN> 39
 -6.397407e+00 -1.051240e-01 9.951789e+00 -2.943163e+00 -1.834139e+01 -7.401021e+00 -1.068359e+01 -8.942390e+00 -1.017249e+01 -2.772005e+00 1.050384e+00 -5.513805e+00 6.191635e+01 6.452612e-02 2.660614e-01 1.110930e+00 -1.368813e-01 -1.113787e+00 1.496743e-01 -3.281604e-01 -4.362679e-01 -6.841548e-01 1.749945e-01 4.732028e-01 -2.457223e-01 4.385410e-01 -3.901062e-02 2.178616e-02 -3.317923e-01 -3.621119e-02 3.222510e-01 9.099147e-02 8.784590e-02 9.795360e-02 2.505028e-01 2.373721e-02 -1.726100e-01 2.344767e-02 -2.449645e-01
<VARIANCE> 39
 3.318866e+01 3.769025e+01 6.863588e+01 4.086843e+01 7.080973e+01 5.450177e+01 5.818671e+01 7.011517e+01 5.762593e+01 4.325057e+01 5.042109e+01 3.242756e+01 1.065585e+02 2.902435e+00 2.319587e+00 4.552438e+00 2.599614e+00 5.728357e+00 3.398424e+00 4.081640e+00 4.518431e+00 4.409418e+00 2.699223e+00 3.378585e+00 2.266582e+00 4.652002e+00 4.627416e-01 4.037986e-01 6.181635e-01 4.541189e-01 9.529245e-01 6.279874e-01 6.817490e-01 8.058634e-01 7.043348e-01 4.976964e-01 5.713593e-01 4.085995e-01 6.586474e-01
<GCONST> 1.325394e+02
<STATE> 3
<MEAN> 39
 -6.352224e+00 7.402450e-01 1.114265e+01 -3.253496e+00 -1.946379e+01 -6.843937e+00 -1.097913e+01 -9.584377e+00 -1.075414e+01 -2.337803e+00 1.327225e+00 -5.903363e+00 6.159556e+01 6.747700e-02 2.124512e-01 -8.181414e-03 -2.093023e-02 5.799317e-03 8.422893e-02 4.778997e-02 -1.967767e-02 4.692967e-02 9.846951e-02 -6.291313e-02 -3.079611e-02 -3.212274e-01 -9.336878e-03 -1.734137e-02 -3.288254e-01 3.961984e-02 3.526718e-01 -1.159036e-02 1.078512e-01 1.143675e-01 2.125539e-01 -3.443076e-02 -1.660083e-01 6.067003e-02 -2.178903e-01
<VARIANCE> 39
 2.801668e+01 3.453870e+01 6.349240e+01 4.146750e+01 6.530257e+01 5.576591e+01 5.758539e+01 6.770918e+01 5.477724e+01 4.350093e+01 5.120238e+01 3.395149e+01 1.073396e+02 1.879988e+00 1.984540e+00 3.677830e+00 2.274335e+00 4.844323e+00 2.933508e+00 3.476815e+00 3.863284e+00 3.667202e+00 2.340605e+00 2.914624e+00 1.947483e+00 4.448010e+00 3.225642e-01 3.438463e-01 5.151228e-01 4.008530e-01 8.328491e-01 5.480337e-01 6.155752e-01 6.879184e-01 6.288508e-01 4.531057e-01 5.277812e-01 3.671982e-01 5.288432e-01
<GCONST> 1.279266e+02
<STATE> 4
<MEAN> 39
 -7.394123e+00 1.688755e+00 8.979731e+00 -3.203632e+00 -1.632055e+01 -5.581815e+00 -9.974483e+00 -9.287107e+00 -9.626308e+00 -2.631924e+00 -2.487596e-01 -5.322780e+00 5.468670e+01 2.991302e-02 -9.430702e-03 -7.060626e-01 1.178478e-01 6.584138e-01 -3.792595e-03 2.923807e-01 2.657068e-01 3.901536e-01 -2.005567e-02 -3.195440e-01 1.393753e-01 -7.265762e-01 -2.373759e-02 -4.257807e-02 -1.258367e-01 -4.291670e-03 1.361449e-01 2.217417e-02 1.735580e-02 2.974381e-02 7.242476e-02 -2.721496e-02 -5.928716e-02 1.464968e-02 1.302438e-04
<VARIANCE> 39
 3.483315e+01 3.523684e+01 7.175060e+01 4.161782e+01 7.660709e+01 5.452216e+01 6.177748e+01 6.100290e+01 5.321935e+01 3.668492e+01 4.613656e+01 3.241589e+01 1.784642e+02 1.607383e+00 1.868696e+00 2.744755e+00 2.026153e+00 3.603558e+00 2.586796e+00 3.019540e+00 3.316462e+00 3.013245e+00 2.200208e+00 2.573158e+00 1.837089e+00 3.437116e+00 2.448890e-01 2.968503e-01 3.951897e-01 3.543026e-01 6.169480e-01 4.685768e-01 5.123308e-01 5.745757e-01 5.127813e-01 4.045790e-01 4.519181e-01 3.317506e-01 4.544772e-01
<GCONST> 1.241559e+02
<TRANSP> 5
 0.000000e+00 1.000000e+00 0.000000e+00 0.000000e+00 0.000000e+00
 0.000000e+00 6.785195e-01 3.214805e-01 0.000000e+00 0.000000e+00
 0.000000e+00 0.000000e+00 6.760468e-01 3.239532e-01 0.000000e+00
 0.000000e+00 0.000000e+00 0.000000e+00 8.464665e-01 1.535335e-01
 0.000000e+00 0.000000e+00 0.000000e+00 0.000000e+00 0.000000e+00
<ENDHMM>
~h "j"
<BEGINHMM>
<NUMSTATES> 5
<STATE> 2
<MEAN> 39
 -4.575215e+00 4.508660e+00 4.672852e+00 -1.054811e+00 -8.999804e+00 -6.675583e+00 -7.802046e+00 -3.497591e+00 -4.898497e+00 -4.499632e+00 -4.030239e+00 -3.233468e+00 5.476776e+01 -5.771967e-01 5.866928e-01 6.194291e-01 6.655946e-02 3.779463e-01 -2.380344e-01 1.211055e-01 1.299647e-01 -1.050330e-01 -7.217683e-02 1.944204e-01 1.457370e-01 -3.406171e-02 -1.440990e-01 -2.458525e-01 -1.342837e-01 -1.320714e-01 -9.051226e-02 1.313858e-02 -1.056079e-01 -8.842602e-02 2.103755e-02 4.496050e-02 9.357809e-02 -7.422132e-03 4.148727e-01
<VARIANCE> 39
 6.594114e+01 5.477856e+01 5.095492e+01 3.391513e+01 6.108413e+01 5.465597e+01 5.091064e+01 5.429246e+01 5.144750e+01 3.693206e+01 3.363635e+01 2.722039e+01 1.315512e+02 7.226696e+00 4.777246e+00 3.500044e+00 3.254015e+00 6.571702e+00 4.265117e+00 4.181492e+00 4.728978e+00 4.403378e+00 2.682372e+00 3.107486e+00 2.791372e+00 8.813822e+00 1.518363e+00 7.103254e-01 5.709166e-01 5.589997e-01 1.345483e+00 8.431331e-01 7.633376e-01 8.790759e-01 8.260690e-01 5.264227e-01 6.050216e-01 5.603877e-01 1.193563e+00
<GCONST> 1.386314e+02
<STATE> 3
<MEAN> 39
 -7.330118e+00 4.501321e+00 5.887591e+00 -1.761416e+00 -9.020821e+00 -7.519819e+00 -8.203272e+00 -3.569147e+00 -5.142760e+00 -4.443984e+00 -2.658832e+00 -2.596965e+00 5.790543e+01 -5.508581e-01 -6.164564e-01 4.749212e-02 -3.582810e-01 -5.674412e-01 -3.527572e-01 -3.744863e-01 1.023524e-01 8.535730e-02 5.732131e-02 4.976929e-01 1.577108e-01 1.434870e+00 2.154406e-01 -2.919524e-01 -2.118036e-01 -8.736937e-02 -2.268887e-01 2.582252e-02 -1.136059e-01 4.224173e-02 9.410582e-02 3.143505e-02 -1.056860e-03 -8.892310e-02 2.299284e-01
<VARIANCE> 39
 7.776343e+01 5.530639e+01 4.443043e+01 3.318087e+01 7.302791e+01 5.568740e+01 4.878278e+01 4.863317e+01 4.627810e+01 3.169478e+01 3.531802e+01 2.556692e+01 1.287904e+02 1.079572e+01 5.631948e+00 3.899877e+00 3.395542e+00 9.686013e+00 4.899712e+00 4.245710e+00 5.388147e+00 5.083511e+00 2.688269e+00 3.436634e+00 2.996624e+00 7.951586e+00 2.188215e+00 7.523510e-01 6.436199e-01 6.135189e-01 1.910948e+00 9.740293e-01 7.863314e-01 1.006179e+00 9.619188e-01 5.346106e-01 6.896691e-01 6.181340e-01 1.177011e+00
<GCONST> 1.416796e+02
<STATE> 4
<MEAN> 39
 -8.009760e+00 1.025030e+00 5.204675e+00 -3.241180e+00 -1.226148e+01 -8.407691e+00 -1.007141e+01 -3.107708e+00 -4.683375e+00 -4.246821e+00 -9.943942e-01 -2.523193e+00 6.236438e+01 5.037844e-01 -1.216116e+00 -7.119012e-01 -4.940709e-01 -7.915862e-01 -3.804055e-02 -5.175672e-01 3.473683e-01 4.620505e-01 1.085808e-01 1.420870e-01 -3.711074e-01 1.413640e+00 1.997970e-01 1.139896e-02 -2.379373e-01 -4.081262e-02 2.289579e-01 2.199191e-01 5.878478e-02 -3.275438e-02 5.186034e-02 2.595410e-02 -1.716038e-01 -2.008347e-01 -2.058246e-01
<VARIANCE> 39
 6.234806e+01 6.607413e+01 5.322296e+01 4.112051e+01 8.164004e+01 5.322551e+01 5.706423e+01 5.864716e+01 5.886431e+01 3.362505e+01 4.049882e+01 2.754407e+01 1.456823e+02 8.449020e+00 4.431092e+00 4.511825e+00 3.293451e+00 8.787436e+00 4.740789e+00 4.543555e+00 5.747682e+00 5.656027e+00 2.849396e+00 4.105728e+00 3.427421e+00 5.131701e+00 1.714884e+00 6.862834e-01 6.353739e-01 6.007789e-01 1.843031e+00 9.249766e-01 8.159440e-01 9.761553e-01 9.362016e-01 5.354447e-01 7.235671e-01 5.868707e-01 7.770407e-01
<GCONST> 1.418524e+02
<TRANSP> 5
 0.000000e+00 1.000000e+00 0.000000e+00 0.000000e+00 0.000000e+00
 0.000000e+00 7.109095e-01 2.890905e-01 0.000000e+00 0.000000e+00
 0.000000e+00 0.000000e+00 7.175583e-01 2.824417e-01 0.000000e+00
 0.000000e+00 0.000000e+00 0.000000e+00 7.771829e-01 2.228172e-01
 0.000000e+00 0.000000e+00 0.000000e+00 0.000000e+00 0.000000e+00
<ENDHMM>
~h "k"
<BEGINHMM>
<NUMSTATES> 5
<STATE> 2
<MEAN> 39
 -7.176604e+00 -1.479418e+00 -4.888919e+00 -4.256879e+00 -6.111606e+00 -4.465055e+00 -7.546988e+00 -4.911934e+00 -3.444369e+00 -1.645599e+00 -3.899308e+00 -4.911105e+00 4.795944e+01 -5.271311e-01 -3.844101e-01 -4.110376e-01 5.621638e-02 4.775594e-01 -2.379642e-01 -2.122644e-01 3.077231e-01 7.077346e-02 1.880553e-01 -1.200496e-01 1.775253e-01 -2.395688e-01 1.269400e-02 -2.105233e-01 -1.259565e-01 -1.395775e-01 -6.514764e-02 2.266527e-02 -5.390836e-02 2.769408e-02 4.577496e-02 -2.136727e-02 -1.091648e-02 -4.387910e-02 6.411321e-01
<VARIANCE> 39
 5.052236e+01 4.959627e+01 6.456667e+01 4.503214e+01 6.061930e+01 5.594952e+01 5.595663e+01 5.530412e+01 4.828566e+01 4.052656e+01 4.187177e+01 3.708267e+01 1.700220e+02 3.083959e+00 4.531811e+00 4.348793e+00 3.270938e+00 4.627546e+00 4.254663e+00 4.407947e+00 4.237371e+00 3.688310e+00 3.428588e+00 3.229655e+00 2.976364e+00 1.384715e+01 5.545933e-01 7.795312e-01 7.715247e-01 6.039246e-01 8.810503e-01 8.457809e-01 8.863005e-01 8.025510e-01 7.050614e-01 6.767031e-01 6.160523e-01 5.802789e-01 1.807761e+00
<GCONST> 1.389224e+02
<STATE> 3
<MEAN> 39
 -8.398464e+00 -3.296427e+00 -6.421672e+00 -4.666459e+00 -5.209311e+00 -5.014337e+00 -8.311191e+00 -4.080080e+00 -3.073929e+00 -1.191408e+00 -4.203592e+00 -4.728414e+00 5.002221e+01 -2.535534e-01 -7.063113e-01 -5.811431e-01 -3.014469e-01 1.786901e-01 -1.665482e-01 -2.304765e-01 2.891563e-01 1.764863e-01 1.166143e-01 -1.321224e-01 -5.704295e-02 1.466194e+00 1.986107e-01 1.431944e-02 5.503754e-02 -1.196889e-01 -1.770091e-01 8.103931e-02 7.283564e-02 -5.809747e-02 2.322472e-02 -7.454258e-02 2.649275e-02 -1.194065e-01 4.578239e-01
<VARIANCE> 39
 5.003002e+01 5.591280e+01 6.526637e+01 4.400599e+01 6.018132e+01 5.856507e+01 5.832746e+01 5.506386e+01 4.768241e+01 4.072434e+01 4.033009e+01 3.731810e+01 1.876412e+02 4.226908e+00 5.194950e+00 5.601385e+00 3.823681e+00 5.511410e+00 4.857479e+00 5.355674e+00 4.656198e+00 4.218122e+00 3.832856e+00 3.590062e+00 3.790176e+00 1.673404e+01 7.340445e-01 9.441531e-01 9.951636e-01 6.831483e-01 1.036987e+00 9.100412e-01 1.055005e+00 8.536144e-01 7.739254e-01 7.396234e-01 6.660089e-01 6.992934e-01 2.167464e+00
<GCONST> 1.433454e+02
<STATE> 4
<MEAN> 39
 -8.749376e+00 -4.291647e+00 -7.212289e+00 -5.595253e+00 -5.108428e+00 -4.769585e+00 -8.356031e+00 -3.792570e+00 -2.744677e+00 -1.231205e+00 -4.192410e+00 -5.047585e+00 5.240636e+01 3.196433e-01 -3.486991e-01 -1.996885e-01 -4.252681e-01 -2.406813e-01 7.636407e-02 5.747312e-02 4.399726e-02 1.296386e-01 -1.001844e-01 -2.946004e-03 -3.110234e-01 1.759924e+00 1.912991e-01 9.919241e-02 1.197784e-01 -2.799986e-02 -1.350993e-01 9.830207e-02 9.412252e-02 -9.244446e-02 -1.142171e-02 -9.016970e-02 6.593615e-02 -7.706194e-02 3.621803e-02
<VARIANCE> 39
 5.137566e+01 5.394861e+01 6.648849e+01 4.691446e+01 5.747184e+01 5.614738e+01 5.840269e+01 5.164592e+01 4.931942e+01 3.943624e+01 3.966894e+01 3.959696e+01 2.274498e+02 4.279793e+00 4.388681e+00 5.369517e+00 3.841676e+00 4.981825e+00 4.339183e+00 5.339562e+00 4.171915e+00 4.232052e+00 3.664733e+00 3.411443e+00 3.905804e+00 1.238589e+01 7.286903e-01 8.060124e-01 9.724936e-01 6.723456e-01 9.525473e-01 8.021725e-01 9.957230e-01 7.721501e-01 7.461202e-01 6.749362e-01 6.391098e-01 6.952912e-01 1.831256e+00
<GCONST> 1.417031e+02
<TRANSP> 5
 0.000000e+00 1.000000e+00 0.000000e+00 0.000000e+00 0.000000e+00
 0.000000e+00 5.802624e-01 4.197376e-01 0.000000e+00 0.000000e+00
 0.000000e+00 0.000000e+00 5.954517e-01 4.045483e-01 0.000000e+00
 0.000000e+00 0.000000e+00 0.000000e+00 6.763379e-01 3.236621e-01
 0.000000e+00 0.000000e+00 0.000000e+00 0.000000e+00 0.000000e+00
<ENDHMM>
~h "l"
<BEGINHMM>
<NUMSTATES> 5
<STATE> 2
<MEAN> 39
 -1.186756e+00 -5.446138e+00 -4.920960e+00 -9.688313e+00 -9.174326e+00 -1.846935e+00 -1.277462e+01 -1.021912e+01 9.622691e-02 6.787748e-01 -2.313720e+00 -6.270250e+00 6.445018e+01 1.617254e-01 4.197141e-02 1.507627e-01 -3.365999e-01 1.948529e-01 3.937375e-03 -5.777623e-01 -3.571166e-01 2.858650e-01 3.927452e-01 -2.085353e-02 -6.891170e-03 2.127973e-03 -1.029527e-01 1.924502e-02 -1.261556e-02 3.764575e-02 -4.046840e-02 2.919701e-02 1.626074e-01 1.605502e-01 -8.417320e-02 -1.441677e-01 -2.790063e-02 -6.007729e-03 -2.470669e-02
<VARIANCE> 39
 3.830885e+01 3.996226e+01 7.345264e+01 7.337316e+01 6.982451e+01 7.226640e+01 9.975830e+01 9.551648e+01 7.461898e+01 6.736082e+01 6.214326e+01 4.864894e+01 1.127422e+02 1.582054e+00 2.259305e+00 3.313614e+00 3.814726e+00 4.317894e+00 4.579934e+00 5.479351e+00 5.696985e+00 4.864861e+00 4.180286e+00 4.015323e+00 2.911730e+00 2.570814e+00 2.540277e-01 3.684850e-01 4.597656e-01 5.835353e-01 7.551528e-01 7.697249e-01 9.562853e-01 1.004606e+00 8.275856e-01 7.574835e-01 7.319003e-01 5.166775e-01 3.111655e-01
<GCONST> 1.363307e+02
<STATE> 3
<MEAN> 39
 -1.101866e+00 -5.358943e+00 -4.676283e+00 -1.033463e+01 -8.855856e+00 -1.672224e+00 -1.350691e+01 -1.049698e+01 4.780208e-01 1.083559e+00 -2.468050e+00 -6.328469e+00 6.446840e+01 -9.665384e-02 -2.701535e-02 2.346406e-02 -7.949549e-02 6.786234e-02 3.885041e-02 2.074664e-02 1.826329e-01 2.657306e-02 -9.480273e-02 -1.492746e-01 -3.787846e-02 1.390522e-02 -1.011875e-01 -2.632499e-02 -6.303045e-02 1.225976e-01 -5.964299e-02 9.354394e-03 2.692120e-01 2.041935e-01 -1.130834e-01 -1.965754e-01 -3.655283e-02 -8.707151e-03 2.996048e-03
<VARIANCE> 39
 3.567768e+01 3.850685e+01 7.333702e+01 7.774799e+01 6.805534e+01 7.183419e+01 1.022946e+02 9.715438e+01 7.482748e+01 7.053538e+01 6.268100e+01 4.786437e+01 1.097100e+02 1.377072e+00 2.289324e+00 3.401799e+00 3.582160e+00 4.027742e+00 4.398445e+00 5.773449e+00 6.067657e+00 4.825719e+00 4.243864e+00 4.140017e+00 2.892865e+00 2.464173e+00 2.155973e-01 3.711116e-01 4.491642e-01 5.667984e-01 7.476473e-01 7.517475e-01 9.903625e-01 1.023659e+00 8.346106e-01 7.764072e-01 7.724220e-01 5.165980e-01 2.842125e-01
<GCONST> 1.359421e+02
<STATE> 4
<MEAN> 39
 -2.291974e+00 -5.268653e+00 -4.542126e+00 -1.168672e+01 -6.948355e+00 -1.093470e+00 -1.304981e+01 -9.108355e+00 -4.061296e-01 2.555661e-01 -3.223672e+00 -5.849542e+00 6.277201e+01 -2.530968e-01 -9.383600e-02 -1.157036e-01 3.042033e-01 -3.096742e-02 7.579270e-03 5.412460e-01 4.668312e-01 -1.873058e-01 -4.379667e-01 -1.983460e-01 -5.937316e-02 -8.134308e-02 -4.206100e-02 1.322692e-02 -1.917877e-02 9.993698e-02 -4.344507e-02 -1.940488e-02 1.365102e-01 5.836802e-02 -6.707469e-02 -7.534912e-02 1.931311e-02 -9.013743e-04 -3.066822e-02
<VARIANCE> 39
 3.889215e+01 4.130219e+01 7.714186e+01 9.469792e+01 7.748653e+01 6.896474e+01 9.669117e+01 8.451539e+01 7.042773e+01 6.709432e+01 5.932676e+01 4.625481e+01 1.431725e+02 1.185858e+00 2.295001e+00 2.906002e+00 3.205814e+00 3.602372e+00 3.655921e+00 4.820141e+00 4.656910e+00 4.034912e+00 3.542383e+00 3.850197e+00 2.612331e+00 2.492232e+00 1.867090e-01 3.507255e-01 3.992003e-01 5.088794e-01 6.085083e-01 6.214812e-01 8.164387e-01 8.207613e-01 6.730199e-01 6.490205e-01 6.753346e-01 4.592296e-01 2.768459e-01
<GCONST> 1.327169e+02
<TRANSP> 5
 0.000000e+00 1.000000e+00 0.000000e+00 0.000000e+00 0.000000e+00
 0.000000e+00 5.652658e-01 4.347341e-01 0.000000e+00 0.000000e+00
 0.000000e+00 0.000000e+00 5.737289e-01 4.262711e-01 0.000000e+00
 0.000000e+00 0.000000e+00 0.000000e+00 7.120622e-01 2.879379e-01
 0.000000e+00 0.000000e+00 0.000000e+00 0.000000e+00 0.000000e+00
<ENDHMM>
~h "m"
<BEGINHMM>
<NUMSTATES> 5
<STATE> 2
<MEAN> 39
 -8.300361e-01 -3.392964e+00 -3.273685e+00 -4.050693e+00 -8.308415e+00 1.556125e+00 -7.084012e+00 -1.176508e+01 -6.770571e+00 -6.243498e+00 -3.075588e+00 -5.491971e+00 5.790372e+01 1.149706e-01 3.193122e-01 5.120980e-01 5.870875e-01 1.304751e-01 3.665841e-01 1.845056e-01 -7.160497e-01 -7.250221e-01 -4.323195e-01 -1.617115e-01 2.956460e-01 -4.211229e-01 -7.561987e-02 -5.231499e-02 -5.877669e-02 -1.280576e-01 -2.645981e-02 -7.449536e-02 -3.310111e-02 1.803394e-01 1.249344e-01 5.167095e-02 -1.384229e-02 -2.439092e-02 1.293430e-01
<VARIANCE> 39
 4.125933e+01 3.894559e+01 5.806869e+01 5.892899e+01 5.002997e+01 6.497803e+01 5.042458e+01 9.895431e+01 7.761815e+01 5.065173e+01 6.226311e+01 3.881660e+01 1.285735e+02 1.211280e+00 2.051987e+00 3.370363e+00 3.783132e+00 2.644853e+00 2.898568e+00 2.624869e+00 4.968849e+00 5.083087e+00 2.793460e+00 3.937554e+00 3.043596e+00 2.913381e+00 2.033520e-01 2.886566e-01 4.888856e-01 6.317174e-01 4.440698e-01 4.595917e-01 4.503934e-01 7.834767e-01 7.894464e-01 4.977289e-01 6.532155e-01 4.902466e-01 3.436297e-01
<GCONST> 1.292076e+02
<STATE> 3
<MEAN> 39
 -6.623752e-01 -2.913749e+00 -2.510838e+00 -3.344567e+00 -8.101019e+00 2.246354e+00 -6.733241e+00 -1.275252e+01 -7.859017e+00 -7.068158e+00 -3.423317e+00 -4.986169e+00 5.757209e+01 -6.502048e-03 1.307812e-01 1.460161e-01 9.248451e-02 8.297730e-02 1.114960e-01 8.230264e-02 -5.411450e-02 -1.828108e-01 -1.405988e-01 -1.091562e-01 1.068641e-01 -1.084369e-01 -4.915468e-02 -7.418759e-02 -1.559555e-01 -1.942317e-01 -1.407461e-02 -1.134889e-01 -3.985797e-02 2.509271e-01 2.324566e-01 1.298251e-01 2.823644e-02 -7.664743e-02 1.091671e-01
<VARIANCE> 39
 3.785455e+01 3.601271e+01 5.331087e+01 5.518013e+01 4.794500e+01 6.418352e+01 4.973185e+01 1.023526e+02 7.763358e+01 5.158197e+01 6.570290e+01 3.673811e+01 1.172815e+02 1.038335e+00 1.858350e+00 3.236217e+00 3.719764e+00 2.315475e+00 2.670936e+00 2.303154e+00 4.418501e+00 4.915218e+00 2.700274e+00 3.520468e+00 2.759198e+00 2.816196e+00 1.716751e-01 2.652096e-01 4.670890e-01 6.051620e-01 4.156794e-01 4.447623e-01 4.115792e-01 7.358383e-01 7.512108e-01 4.854212e-01 6.265174e-01 4.747032e-01 3.065374e-01
<GCONST> 1.268399e+02
<STATE> 4
<MEAN> 39
 -3.292111e+00 -2.990452e+00 -3.335954e+00 -3.844269e+00 -6.319367e+00 6.604537e-01 -6.706976e+00 -1.108779e+01 -7.672759e+00 -7.112873e+00 -4.446443e+00 -4.369441e+00 5.241909e+01 -8.767629e-02 1.109765e-02 -1.428590e-01 -2.080982e-01 2.727993e-02 -1.208247e-01 -2.470656e-03 3.610613e-01 2.647826e-01 1.865433e-01 3.339433e-02 -7.528614e-02 -1.379925e-02 -2.672463e-02 -3.776783e-02 -6.203194e-02 -6.819468e-02 -1.217831e-02 -6.192338e-02 -2.722492e-02 1.001885e-01 1.156673e-01 7.365693e-02 2.611479e-02 -4.419331e-02 5.046593e-02
<VARIANCE> 39
 4.848727e+01 3.947253e+01 5.339273e+01 5.234953e+01 5.020678e+01 5.789679e+01 4.544754e+01 8.745367e+01 7.216427e+01 4.445639e+01 5.660177e+01 3.366613e+01 1.714972e+02 9.466722e-01 1.616022e+00 2.496731e+00 2.805781e+00 2.129666e+00 2.292011e+00 2.092919e+00 3.428783e+00 3.659055e+00 2.384403e+00 2.849845e+00 2.238206e+00 2.452153e+00 1.530369e-01 2.398160e-01 3.862964e-01 4.872361e-01 3.721971e-01 4.008459e-01 3.722162e-01 5.775752e-01 6.027387e-01 4.341867e-01 5.111676e-01 3.889599e-01 2.477483e-01
<GCONST> 1.222808e+02
<TRANSP> 5
 0.000000e+00 1.000000e+00 0.000000e+00 0.000000e+00 0.000000e+00
 0.000000e+00 5.883099e-01 4.116902e-01 0.000000e+00 0.000000e+00
 0.000000e+00 0.000000e+00 6.020060e-01 3.979940e-01 0.000000e+00
 0.000000e+00 0.000000e+00 0.000000e+00 8.065985e-01 1.934015e-01
 0.000000e+00 0.000000e+00 0.000000e+00 0.000000e+00 0.000000e+00
<ENDHMM>
~h "n"
<BEGINHMM>
<NUMSTATES> 5
<STATE> 2
<MEAN> 39
 -3.637798e-01 -3.349781e+00 -1.544200e+00 -1.494345e+00 -1.093178e+01 -5.062378e+00 -8.916042e+00 -9.777202e+00 -1.191118e+00 -3.219669e+00 -7.632744e+00 -5.782807e+00 6.073579e+01 2.238164e-01 8.461259e-01 8.839608e-01 8.200127e-01 -1.234785e-01 -2.344646e-01 2.566659e-02 -1.070253e+00 -2.777027e-01 1.409221e-01 -5.195839e-01 5.631138e-01 -9.745802e-01 -9.758110e-02 -3.586457e-02 -8.315758e-02 -1.469887e-01 3.870698e-02 9.765299e-02 6.652363e-02 9.967964e-02 -4.116422e-02 -6.320215e-02 1.020356e-01 -5.409298e-03 6.523319e-02
<VARIANCE> 39
 2.511265e+01 4.548177e+01 6.467167e+01 5.272086e+01 5.238409e+01 5.648075e+01 6.059543e+01 1.410996e+02 7.029469e+01 4.254768e+01 7.317291e+01 4.321213e+01 9.829576e+01 1.244330e+00 2.850881e+00 3.647670e+00 3.273494e+00 3.271095e+00 3.628123e+00 4.180888e+00 7.901928e+00 3.914248e+00 3.035002e+00 4.160301e+00 3.127108e+00 3.409027e+00 1.939360e-01 4.450085e-01 5.314266e-01 5.282165e-01 5.360453e-01 5.948050e-01 7.115227e-01 1.379823e+00 6.601074e-01 5.605147e-01 6.457334e-01 5.046099e-01 4.607868e-01
<GCONST> 1.327611e+02
<STATE> 3
<MEAN> 39
 -2.597946e-01 -1.566742e+00 1.318837e-01 -1.573302e-01 -1.103029e+01 -5.182926e+00 -8.595258e+00 -1.160506e+01 -1.965472e+00 -3.223613e+00 -8.440264e+00 -4.463181e+00 5.856199e+01 -7.036659e-02 4.757596e-01 3.770562e-01 2.316208e-01 8.564514e-02 8.536403e-02 1.154011e-01 -2.168345e-01 -2.871013e-01 -8.765606e-02 -1.265492e-01 2.920859e-01 -6.606970e-01 -1.219668e-01 -1.319131e-01 -1.872750e-01 -2.208790e-01 9.386297e-02 8.803596e-02 1.924928e-02 3.159523e-01 1.045336e-02 -6.234975e-02 1.524432e-01 -1.065199e-01 1.109505e-01
<VARIANCE> 39
 2.523452e+01 3.927554e+01 5.347097e+01 4.620283e+01 5.006202e+01 5.393182e+01 5.704118e+01 1.380444e+02 6.802923e+01 4.190754e+01 7.933912e+01 4.079690e+01 8.976424e+01 1.256453e+00 2.792716e+00 3.329453e+00 3.112400e+00 3.038781e+00 3.236396e+00 3.682159e+00 7.485231e+00 3.713406e+00 2.744998e+00 3.730357e+00 2.906026e+00 3.518210e+00 1.976463e-01 4.098592e-01 4.917349e-01 4.972719e-01 5.375818e-01 5.803931e-01 6.679273e-01 1.230947e+00 6.345775e-01 5.255454e-01 6.569978e-01 4.848806e-01 4.328647e-01
<GCONST> 1.305927e+02
<STATE> 4
<MEAN> 39
 -1.783280e+00 -4.519168e-01 4.944108e-01 3.440287e-02 -9.506124e+00 -4.626862e+00 -8.001451e+00 -1.067658e+01 -2.993850e+00 -4.026024e+00 -8.483038e+00 -3.819675e+00 5.428411e+01 -3.765398e-01 1.130215e-01 -1.188153e-01 -2.554275e-01 3.284025e-01 2.424346e-01 7.445372e-02 5.572348e-01 -2.115807e-01 -1.331523e-01 3.099996e-01 -5.178982e-02 -5.541953e-01 -1.034061e-01 -9.181261e-02 -1.139154e-01 -1.304346e-01 5.305709e-02 9.103004e-03 -6.732456e-03 1.497919e-01 3.327741e-02 -2.338226e-04 1.143861e-01 -6.483403e-02 8.227098e-02
<VARIANCE> 39
 3.484791e+01 4.347051e+01 5.229935e+01 4.640173e+01 5.368292e+01 4.851334e+01 5.575008e+01 1.141557e+02 6.201971e+01 4.105827e+01 7.389685e+01 3.803205e+01 1.286547e+02 1.350570e+00 2.492890e+00 2.709325e+00 2.699610e+00 2.863846e+00 2.876205e+00 3.193192e+00 5.436395e+00 3.312728e+00 2.539883e+00 3.428462e+00 2.478748e+00 3.471616e+00 2.279637e-01 3.853062e-01 4.255874e-01 4.569017e-01 5.098558e-01 5.157139e-01 5.891023e-01 9.422112e-01 5.808353e-01 4.812879e-01 5.952670e-01 4.325786e-01 4.241227e-01
<GCONST> 1.282562e+02
<TRANSP> 5
 0.000000e+00 1.000000e+00 0.000000e+00 0.000000e+00 0.000000e+00
 0.000000e+00 6.186094e-01 3.813907e-01 0.000000e+00 0.000000e+00
 0.000000e+00 0.000000e+00 6.160304e-01 3.839696e-01 0.000000e+00
 0.000000e+00 0.000000e+00 0.000000e+00 7.365118e-01 2.634881e-01
 0.000000e+00 0.000000e+00 0.000000e+00 0.000000e+00 0.000000e+00
<ENDHMM>
~h "o"
<BEGINHMM>
<NUMSTATES> 5
<STATE> 2
<MEAN> 39
 -1.113189e+00 -1.919978e+00 -9.204962e+00 -1.470930e+01 -1.089051e+01 3.906433e+00 -1.006472e+01 -7.550813e+00 -2.932469e+00 -1.550189e+00 9.393880e-01 -4.153171e+00 6.280228e+01 6.945189e-01 1.484235e-02 -7.045234e-01 -1.497112e+00 -4.796664e-01 1.063122e+00 1.534210e-01 -9.058446e-02 1.523078e-01 6.961706e-03 5.016516e-01 -6.835645e-03 1.007470e+00 -1.219935e-01 4.815843e-02 2.195712e-01 2.670496e-01 7.260046e-02 -1.639312e-01 9.133135e-02 -2.712837e-02 -2.307078e-02 -5.895397e-02 -9.149490e-02 9.351731e-03 -2.856885e-01
<VARIANCE> 39
 4.362490e+01 3.653183e+01 6.781731e+01 8.968432e+01 6.576320e+01 6.896844e+01 7.718979e+01 6.417944e+01 7.049509e+01 6.706839e+01 5.582805e+01 4.188784e+01 1.216576e+02 3.301800e+00 2.345312e+00 4.357117e+00 6.576205e+00 5.337122e+00 5.378962e+00 4.294596e+00 4.421772e+00 4.981350e+00 4.311629e+00 4.046334e+00 3.163900e+00 6.475894e+00 5.725893e-01 4.114099e-01 7.014580e-01 9.810827e-01 9.289007e-01 9.097064e-01 7.490225e-01 7.741322e-01 9.125184e-01 7.797321e-01 7.074724e-01 5.785716e-01 8.209053e-01
<GCONST> 1.409357e+02
<STATE> 3
<MEAN> 39
 2.019585e-01 -1.772362e+00 -1.009966e+01 -1.707297e+01 -1.168111e+01 5.626646e+00 -9.270686e+00 -7.941888e+00 -2.582232e+00 -1.863973e+00 1.688768e+00 -4.107397e+00 6.418985e+01 2.560650e-01 -6.121186e-04 -5.106099e-02 -1.908096e-01 -6.466867e-02 1.630156e-01 1.522428e-01 -1.219927e-01 8.634911e-02 -2.479629e-02 3.797752e-02 -3.140154e-02 1.131779e-01 -1.404006e-01 9.340777e-03 1.981519e-01 4.067443e-01 1.344376e-01 -2.783908e-01 -2.465552e-02 7.492537e-03 -2.332226e-02 -1.265572e-02 -1.613673e-01 -4.770087e-03 -2.786642e-01
<VARIANCE> 39
 3.319242e+01 3.648326e+01 6.099469e+01 8.719991e+01 5.880386e+01 6.328016e+01 7.882020e+01 6.076869e+01 6.585529e+01 7.211860e+01 5.555922e+01 4.292741e+01 1.009781e+02 2.060121e+00 2.016077e+00 3.245953e+00 5.971154e+00 4.185899e+00 4.629002e+00 3.778641e+00 3.792504e+00 4.333891e+00 3.999895e+00 3.530407e+00 2.823617e+00 5.188829e+00 3.619693e-01 3.468722e-01 5.441375e-01 8.025744e-01 7.485849e-01 7.562715e-01 6.755205e-01 6.679133e-01 7.760561e-01 7.405235e-01 6.430872e-01 5.301220e-01 5.739856e-01
<GCONST> 1.352690e+02
<STATE> 4
<MEAN> 39
 -3.666125e-01 -1.157876e+00 -9.129262e+00 -1.660483e+01 -1.032939e+01 4.919049e+00 -8.786062e+00 -7.758296e+00 -3.130798e+00 -2.522801e+00 4.987705e-01 -3.528803e+00 6.022634e+01 -1.641529e-01 -1.961693e-02 3.616087e-01 9.358158e-01 2.840137e-01 -5.284240e-01 1.220416e-02 -7.808493e-02 5.364503e-02 3.878391e-02 -3.480912e-01 -7.932082e-02 -6.696866e-01 -8.015072e-02 1.689081e-02 1.056214e-01 1.832404e-01 4.967745e-02 -1.211159e-01 -1.107639e-02 1.363486e-02 -1.589635e-02 -2.121086e-02 -6.833180e-02 2.754801e-03 -1.013201e-01
<VARIANCE> 39
 3.583776e+01 3.703659e+01 5.731496e+01 9.931754e+01 5.821746e+01 5.944523e+01 7.737414e+01 5.710511e+01 6.152521e+01 6.485086e+01 5.195663e+01 4.118884e+01 1.510146e+02 1.459481e+00 1.815225e+00 2.591943e+00 4.646115e+00 3.112493e+00 3.645190e+00 3.308947e+00 3.269474e+00 3.497965e+00 3.248096e+00 3.073687e+00 2.531878e+00 3.670300e+00 2.351569e-01 2.999251e-01 4.115489e-01 6.705990e-01 5.470351e-01 6.101379e-01 5.918112e-01 5.581900e-01 6.081557e-01 5.819403e-01 5.421122e-01 4.597421e-01 4.560808e-01
<GCONST> 1.297332e+02
<TRANSP> 5
 0.000000e+00 1.000000e+00 0.000000e+00 0.000000e+00 0.000000e+00
 0.000000e+00 6.828057e-01 3.171943e-01 0.000000e+00 0.000000e+00
 0.000000e+00 0.000000e+00 6.848187e-01 3.151813e-01 0.000000e+00
 0.000000e+00 0.000000e+00 0.000000e+00 8.349575e-01 1.650425e-01
 0.000000e+00 0.000000e+00 0.000000e+00 0.000000e+00 0.000000e+00
<ENDHMM>
~h "p"
<BEGINHMM>
<NUMSTATES> 5
<STATE> 2
<MEAN> 39
 -5.676549e+00 -3.642277e-01 -4.350619e+00 -4.791156e+00 -5.631847e+00 -1.909103e+00 -6.254835e+00 -5.805016e+00 -3.723341e+00 -2.656061e+00 -3.298816e+00 -5.023916e+00 4.467910e+01 -4.350454e-01 -9.890838e-02 -1.460528e-01 -4.867161e-02 1.744374e-01 -1.664172e-01 4.630986e-02 1.409247e-01 1.724388e-01 8.556052e-02 8.129567e-02 1.417227e-01 -3.952478e-01 6.430791e-02 -2.563588e-01 -1.075214e-01 -1.506424e-01 -1.176396e-01 2.537144e-02 -8.473051e-02 -3.439718e-02 6.057022e-02 -8.391327e-03 4.526379e-02 -5.165815e-02 7.433416e-01
<VARIANCE> 39
 5.530400e+01 4.021654e+01 4.817339e+01 4.566847e+01 3.821649e+01 4.910285e+01 3.845498e+01 3.989252e+01 4.333405e+01 3.284995e+01 3.706461e+01 3.422506e+01 1.600564e+02 2.828874e+00 3.240745e+00 2.780070e+00 3.316744e+00 3.081332e+00 3.495926e+00 2.898712e+00 3.052180e+00 3.175150e+00 2.639592e+00 3.099013e+00 2.483353e+00 1.438686e+01 5.221442e-01 5.172428e-01 5.145413e-01 6.409574e-01 6.073384e-01 6.858920e-01 5.777069e-01 5.782306e-01 5.720304e-01 5.263336e-01 5.926268e-01 5.041789e-01 1.800667e+00
<GCONST> 1.310519e+02
<STATE> 3
<MEAN> 39
 -6.400033e+00 -1.622109e+00 -5.270209e+00 -5.645334e+00 -5.687178e+00 -2.088336e+00 -6.468025e+00 -5.662450e+00 -3.074117e+00 -2.493819e+00 -2.843921e+00 -4.930213e+00 4.676215e+01 1.002599e-02 -7.929742e-01 -4.589963e-01 -5.397358e-01 -1.649560e-01 3.598597e-02 -1.729589e-01 1.523314e-02 2.819126e-01 5.676635e-02 2.486006e-01 -1.020852e-01 1.861641e+00 2.084933e-01 -1.634187e-01 -4.806785e-02 -1.320494e-01 -1.476610e-01 7.972572e-02 -6.734064e-02 -3.360891e-02 2.127147e-02 -2.762990e-02 2.742243e-02 -1.045086e-01 6.323186e-01
<VARIANCE> 39
 5.181377e+01 4.223555e+01 4.710468e+01 4.975481e+01 3.618819e+01 5.142892e+01 3.765675e+01 3.711898e+01 3.790491e+01 3.209160e+01 3.423310e+01 3.459901e+01 1.921595e+02 4.315697e+00 4.082817e+00 3.952860e+00 4.938512e+00 3.805650e+00 4.915813e+00 3.664368e+00 3.403077e+00 3.473801e+00 3.056050e+00 3.531499e+00 3.450237e+00 2.059265e+01 7.236246e-01 6.298379e-01 6.583874e-01 8.954992e-01 7.268571e-01 8.761501e-01 6.699836e-01 6.372928e-01 6.300017e-01 5.763332e-01 6.436577e-01 6.283912e-01 2.497030e+00
<GCONST> 1.368989e+02
<STATE> 4
<MEAN> 39
 -7.244996e+00 -3.390709e+00 -6.147797e+00 -6.535504e+00 -5.728253e+00 -2.001947e+00 -6.684372e+00 -5.378123e+00 -2.624594e+00 -2.579428e+00 -2.250208e+00 -4.795924e+00 4.923452e+01 4.608990e-01 -7.644358e-01 -2.941422e-01 -5.416395e-01 -4.048752e-01 1.110078e-01 -2.547157e-01 -5.701602e-02 1.953601e-01 -4.326376e-02 2.063950e-01 -2.700314e-01 2.401982e+00 1.324617e-01 6.701232e-02 7.764274e-02 4.502632e-03 -1.168924e-01 1.940726e-02 -2.470963e-02 -1.604761e-03 -1.671298e-02 -4.157621e-02 -3.640544e-02 -4.215772e-02 4.464632e-02
<VARIANCE> 39
 5.467046e+01 4.298042e+01 4.841164e+01 5.740850e+01 3.846752e+01 5.427750e+01 3.928553e+01 3.787294e+01 3.609460e+01 3.154867e+01 3.376291e+01 3.626079e+01 2.560197e+02 4.304867e+00 3.704141e+00 4.066377e+00 5.107475e+00 4.306321e+00 4.723752e+00 3.832881e+00 3.482629e+00 3.490820e+00 2.965462e+00 3.362163e+00 3.453798e+00 1.639941e+01 7.703330e-01 6.151003e-01 6.258500e-01 9.864084e-01 7.252228e-01 8.894277e-01 6.615864e-01 6.303231e-01 6.226113e-01 5.466922e-01 6.207485e-01 6.150413e-01 2.477457e+00
<GCONST> 1.373288e+02
<TRANSP> 5
 0.000000e+00 1.000000e+00 0.000000e+00 0.000000e+00 0.000000e+00
 0.000000e+00 6.185476e-01 3.814524e-01 0.000000e+00 0.000000e+00
 0.000000e+00 0.000000e+00 6.217236e-01 3.782765e-01 0.000000e+00
 0.000000e+00 0.000000e+00 0.000000e+00 7.293183e-01 2.706817e-01
 0.000000e+00 0.000000e+00 0.000000e+00 0.000000e+00 0.000000e+00
<ENDHMM>
~h "q"
<BEGINHMM>
<NUMSTATES> 5
<STATE> 2
<MEAN> 39
 -8.995028e+00 -5.256227e+00 4.834494e+00 -1.646795e+01 -1.090871e+01 -3.437338e+00 -1.512802e+01 -5.172001e+00 -5.545435e+00 -2.282987e+00 -3.796924e+00 -5.595898e+00 5.331678e+01 1.630727e-01 -6.099793e-01 -3.612024e-01 -4.887657e-01 8.937835e-01 5.184516e-01 -5.672045e-02 1.731364e-01 2.567133e-01 -2.491919e-01 -3.087162e-03 -1.257782e-01 6.463262e-01 4.359361e-03 3.559149e-02 -7.196543e-02 -1.720499e-03 8.066782e-02 -8.139724e-02 -1.383517e-02 5.165644e-02 -1.965810e-02 2.639355e-02 7.776098e-03 1.215533e-02 -2.109104e-02
<VARIANCE> 39
 6.003394e+01 9.962248e+01 1.298627e+02 1.624365e+02 1.216623e+02 7.111906e+01 5.023686e+01 4.492563e+01 3.272522e+01 3.504750e+01 2.958548e+01 1.733369e+01 1.553545e+02 2.187734e+00 8.878497e+00 9.196719e+00 6.621814e+00 5.237681e+00 4.387508e+00 3.090183e+00 2.661236e+00 2.556992e+00 1.951920e+00 2.443890e+00 2.218551e+00 7.092774e+00 2.735058e-01 1.383106e+00 1.615810e+00 1.068115e+00 9.141676e-01 7.600737e-01 5.599055e-01 4.595485e-01 4.324666e-01 4.312500e-01 5.210601e-01 3.788462e-01 8.258017e-01
<GCONST> 1.373815e+02
<STATE> 3
<MEAN> 39
 -1.049458e+01 -9.232516e+00 -1.698764e+00 -1.480690e+01 2.183994e+00 -1.787619e+00 -1.285407e+01 -6.746513e+00 4.929239e-03 -7.214333e+00 -5.808713e+00 -5.280504e+00 5.565794e+01 -1.760614e-01 7.014163e-02 -2.497421e-01 3.080758e-01 7.558492e-01 -4.301848e-01 1.568703e-02 4.551055e-01 2.381418e-01 -3.727676e-02 2.396930e-01 -1.218444e-03 6.903090e-01 -6.052302e-02 2.730367e-01 1.211044e-02 1.071497e-01 -1.390382e-01 2.751988e-02 1.169725e-03 6.854664e-02 -4.887878e-02 1.095263e-01 -4.307747e-02 5.729583e-02 -1.162480e-01
<VARIANCE> 39
 7.393230e+01 1.034139e+02 3.778704e+01 1.265541e+02 7.335876e+01 4.775797e+01 4.940840e+01 2.912465e+01 4.471070e+01 2.706637e+01 1.915846e+01 1.278406e+01 1.873675e+02 3.718189e+00 4.810809e+00 1.720136e+00 3.337458e+00 3.104821e+00 4.099700e+00 2.522904e+00 2.312539e+00 2.978244e+00 2.809949e+00 1.617943e+00 1.342955e+00 5.085884e+00 4.461058e-01 6.623684e-01 2.908409e-01 5.238653e-01 4.126377e-01 7.192634e-01 4.265589e-01 3.990045e-01 5.060744e-01 5.188201e-01 3.157957e-01 2.676121e-01 5.733168e-01
<GCONST> 1.253732e+02
<STATE> 4
<MEAN> 39
 -1.685357e+01 -5.524575e-01 7.993401e-01 -5.739119e+00 -4.127240e+00 -3.433253e+00 -1.179991e+01 -5.936057e+00 -5.500960e+00 -4.487256e+00 -2.499996e+00 -2.779221e+00 4.457558e+01 -5.048657e-02 7.163215e-02 1.491838e-02 5.506660e-02 -6.501797e-02 -5.863453e-03 1.435252e-03 4.283748e-02 -3.845943e-02 1.642188e-02 2.766141e-02 2.889643e-02 -6.615742e-02 2.896217e-02 7.017815e-03 3.497287e-03 -3.598290e-04 -1.776505e-02 -8.021372e-03 -4.472237e-03 -1.423405e-02 -8.173101e-03 -7.712116e-03 -1.377979e-02 -3.953593e-03 7.696093e-03
<VARIANCE> 39
 8.541260e+01 3.215860e+01 7.730143e+01 2.766772e+01 6.196936e+01 3.364835e+01 4.904777e+01 4.211042e+01 4.209387e+01 2.426366e+01 2.402486e+01 2.049183e+01 1.681039e+02 2.733349e+00 1.908798e+00 2.027361e+00 1.319752e+00 2.547756e+00 1.766453e+00 3.430766e+00 2.340441e+00 1.931638e+00 1.802570e+00 2.043076e+00 1.976439e+00 2.514469e+00 3.798205e-01 3.479329e-01 3.233054e-01 2.514104e-01 4.393817e-01 3.236459e-01 6.452093e-01 4.317381e-01 3.684058e-01 3.416956e-01 3.912969e-01 4.165636e-01 3.872125e-01
<GCONST> 1.179831e+02
<TRANSP> 5
 0.000000e+00 1.000000e+00 0.000000e+00 0.000000e+00 0.000000e+00
 0.000000e+00 8.792635e-01 1.207365e-01 0.000000e+00 0.000000e+00
 0.000000e+00 0.000000e+00 7.782554e-01 2.217446e-01 0.000000e+00
 0.000000e+00 0.000000e+00 0.000000e+00 9.796323e-01 2.036767e-02
 0.000000e+00 0.000000e+00 0.000000e+00 0.000000e+00 0.000000e+00
<ENDHMM>
~h "r"
<BEGINHMM>
<NUMSTATES> 5
<STATE> 2
<MEAN> 39
 -2.067323e+00 -7.163585e+00 -7.481800e+00 -4.915923e+00 -8.951863e+00 -4.531532e+00 -1.023901e+01 -4.766498e+00 1.618095e+00 -1.617939e+00 -3.140936e+00 -7.321874e+00 6.370158e+01 2.104984e-01 -6.933721e-02 8.983862e-02 3.328538e-01 -7.976991e-02 -1.283704e-01 -2.943524e-01 6.637693e-02 7.587856e-02 5.260276e-04 3.977934e-02 -2.689037e-02 -2.698694e-01 -6.338719e-02 6.508278e-02 8.571288e-02 -5.637818e-02 -1.031903e-02 3.084482e-02 9.851260e-02 -1.080522e-02 -1.640031e-01 -4.027317e-02 2.761824e-02 3.618116e-02 -7.478994e-02
<VARIANCE> 39
 3.647015e+01 4.288364e+01 6.620763e+01 4.627761e+01 6.371273e+01 6.233298e+01 7.515595e+01 7.784857e+01 6.670471e+01 4.803053e+01 4.879245e+01 4.822687e+01 1.357373e+02 2.182586e+00 2.248766e+00 3.443522e+00 3.142566e+00 4.234000e+00 4.540512e+00 4.579874e+00 3.919027e+00 4.706383e+00 3.455545e+00 3.347298e+00 3.188395e+00 4.706272e+00 3.829623e-01 3.490923e-01 5.313236e-01 5.560462e-01 7.317444e-01 7.815434e-01 8.033531e-01 7.093365e-01 8.258448e-01 6.275068e-01 6.231186e-01 5.816057e-01 6.883220e-01
<GCONST> 1.348902e+02
<STATE> 3
<MEAN> 39
 -1.803384e+00 -7.188602e+00 -7.213736e+00 -4.403927e+00 -9.071779e+00 -4.694683e+00 -1.051997e+01 -4.674247e+00 1.433838e+00 -1.708762e+00 -3.038921e+00 -7.304809e+00 6.295300e+01 4.750529e-02 6.959987e-02 2.388590e-01 1.740808e-01 -7.620166e-02 -7.436999e-02 -9.856289e-03 3.127318e-02 -2.785069e-01 -1.084063e-01 6.267393e-02 7.288921e-02 -3.501822e-01 -8.409383e-02 7.210001e-02 6.582912e-02 -8.240970e-02 -1.664016e-03 3.787525e-02 1.300819e-01 -2.985030e-02 -1.558232e-01 -3.128554e-02 1.357816e-02 3.366379e-02 -1.648486e-02
<VARIANCE> 39
 3.678760e+01 4.488929e+01 6.980527e+01 4.568524e+01 6.567638e+01 6.487796e+01 7.460780e+01 7.837333e+01 6.752579e+01 4.875257e+01 4.909112e+01 4.952212e+01 1.360796e+02 2.016390e+00 2.222740e+00 3.480481e+00 2.898881e+00 4.283938e+00 4.529511e+00 4.514689e+00 3.961600e+00 4.705706e+00 3.413312e+00 3.369256e+00 3.134123e+00 4.449416e+00 3.549438e-01 3.508581e-01 5.096277e-01 5.262843e-01 7.624847e-01 7.987148e-01 7.846738e-01 7.112740e-01 8.235462e-01 6.308211e-01 6.254323e-01 5.691957e-01 6.258120e-01
<GCONST> 1.346462e+02
<STATE> 4
<MEAN> 39
 -2.600748e+00 -6.890737e+00 -6.839345e+00 -4.378311e+00 -8.448421e+00 -4.467936e+00 -1.010222e+01 -4.728498e+00 4.821045e-01 -2.251656e+00 -3.153762e+00 -6.852907e+00 6.018365e+01 -1.260038e-01 2.333696e-01 3.197934e-01 4.770033e-02 -6.814979e-02 -1.252810e-02 2.268029e-01 -6.481272e-02 -4.886717e-01 -1.327073e-01 5.893686e-02 1.404741e-01 -3.962273e-01 -6.797019e-02 6.777981e-02 4.376462e-02 -5.219709e-02 -6.565603e-03 3.335577e-02 7.684503e-02 -4.439170e-02 -7.014255e-02 5.608743e-03 1.189826e-02 9.505819e-03 1.106180e-02
<VARIANCE> 39
 4.204541e+01 4.845797e+01 7.379201e+01 4.677321e+01 6.797079e+01 6.199059e+01 7.453948e+01 7.298567e+01 6.526798e+01 4.814700e+01 4.885169e+01 4.685107e+01 1.797321e+02 1.766832e+00 2.080406e+00 3.037782e+00 2.501430e+00 3.869089e+00 3.818186e+00 3.842493e+00 3.628838e+00 4.151826e+00 3.008403e+00 3.110549e+00 2.657549e+00 3.709224e+00 3.061780e-01 3.336691e-01 4.416356e-01 4.557692e-01 6.685945e-01 6.642765e-01 6.813300e-01 6.360047e-01 6.999354e-01 5.576958e-01 5.555705e-01 4.876375e-01 5.324553e-01
<GCONST> 1.315674e+02
<TRANSP> 5
 0.000000e+00 1.000000e+00 0.000000e+00 0.000000e+00 0.000000e+00
 0.000000e+00 5.295793e-01 4.704207e-01 0.000000e+00 0.000000e+00
 0.000000e+00 0.000000e+00 5.275259e-01 4.724741e-01 0.000000e+00
 0.000000e+00 0.000000e+00 0.000000e+00 6.255639e-01 3.744361e-01
 0.000000e+00 0.000000e+00 0.000000e+00 0.000000e+00 0.000000e+00
<ENDHMM>
~h "s"
<BEGINHMM>
<NUMSTATES> 5
<STATE> 2
<MEAN> 39
 -1.633293e+01 2.362684e+00 -3.996849e+00 -3.253101e+00 -3.266574e+00 -6.092342e+00 -5.686975e+00 -2.712878e+00 -1.760718e+00 -2.572913e+00 -2.780068e+00 -2.027329e+00 5.977806e+01 -2.879263e+00 1.010731e+00 -1.928372e-01 7.917283e-02 1.042270e+00 -8.519076e-02 5.177941e-01 6.630497e-01 1.065642e-01 3.397281e-03 4.048728e-01 5.261526e-01 -2.441382e-01 -4.225326e-02 -2.071139e-01 -9.642310e-02 -1.300999e-01 -1.902464e-01 9.233201e-02 -5.060198e-02 -8.764239e-02 -1.859174e-02 -2.841288e-04 7.418137e-02 -8.276378e-02 4.638021e-02
<VARIANCE> 39
 1.243096e+02 4.465566e+01 5.083251e+01 3.831570e+01 5.221475e+01 4.784203e+01 6.730502e+01 4.593785e+01 3.957646e+01 3.252325e+01 3.943612e+01 3.066978e+01 1.244836e+02 7.131877e+00 4.523106e+00 3.655503e+00 2.895189e+00 4.820467e+00 3.450493e+00 3.866784e+00 4.053724e+00 3.146376e+00 2.477807e+00 3.098457e+00 2.562889e+00 2.713677e+00 1.299089e+00 6.393119e-01 5.266733e-01 4.429585e-01 7.030013e-01 5.650395e-01 6.421799e-01 6.503971e-01 5.351685e-01 4.551871e-01 5.439585e-01 4.462539e-01 3.168940e-01
<GCONST> 1.319213e+02
<STATE> 3
<MEAN> 39
 -2.369948e+01 3.640859e+00 -5.135711e+00 -3.731311e+00 -1.747302e+00 -5.904196e+00 -4.740170e+00 -1.568761e+00 -1.425988e+00 -2.402093e+00 -1.454072e+00 -1.022250e+00 5.942718e+01 -1.118449e+00 4.183483e-02 -2.422081e-01 -1.638100e-01 9.708955e-02 4.497391e-04 6.096840e-02 1.226523e-01 8.228080e-02 5.321951e-02 2.215251e-01 1.178902e-01 -6.869294e-02 6.497014e-01 -2.445250e-01 3.800998e-02 -5.176494e-02 -2.523233e-01 2.564574e-02 -1.519089e-01 -1.620567e-01 -2.780580e-03 1.069365e-02 -7.251717e-02 -1.368238e-01 7.855873e-02
<VARIANCE> 39
 1.028253e+02 3.501852e+01 4.019409e+01 3.825698e+01 4.214421e+01 4.352126e+01 5.913438e+01 3.634985e+01 3.238560e+01 2.646265e+01 3.095436e+01 2.563670e+01 8.439751e+01 1.212295e+01 3.392283e+00 2.902245e+00 2.261463e+00 3.679548e+00 2.930463e+00 3.463520e+00 3.427883e+00 2.692303e+00 2.191564e+00 2.632335e+00 2.391617e+00 2.489432e+00 1.094211e+00 5.290323e-01 4.876902e-01 4.097169e-01 5.763427e-01 5.370935e-01 5.826352e-01 5.945069e-01 5.003068e-01 4.289586e-01 4.758956e-01 4.144678e-01 2.943099e-01
<GCONST> 1.264590e+02
<STATE> 4
<MEAN> 39
 -2.266880e+01 1.972317e+00 -5.260731e+00 -5.075890e+00 -2.331947e+00 -5.405557e+00 -6.076176e+00 -2.186592e+00 -9.854950e-01 -2.271797e+00 -1.033214e+00 -1.641576e+00 5.715211e+01 1.656949e+00 -5.080881e-01 1.911850e-01 -2.046339e-01 -6.259485e-01 2.194152e-02 -4.950591e-01 -4.798421e-01 -1.913231e-02 -1.291001e-02 -1.440182e-01 -4.189618e-01 2.121791e-01 2.975208e-01 -7.401635e-02 6.061742e-02 -3.063151e-02 -1.021766e-01 7.244916e-02 -6.015554e-02 -7.818038e-02 -3.311744e-02 -1.179577e-02 8.218186e-03 -7.270436e-02 6.468233e-02
<VARIANCE> 39
 1.351543e+02 3.705260e+01 4.515577e+01 3.919124e+01 4.815115e+01 4.425431e+01 6.186038e+01 4.120153e+01 3.569976e+01 2.486721e+01 3.018244e+01 2.633802e+01 1.093733e+02 1.058653e+01 2.708374e+00 2.938210e+00 2.375827e+00 3.271535e+00 3.144099e+00 3.696326e+00 3.813952e+00 2.998034e+00 2.144473e+00 2.453122e+00 2.553714e+00 3.173174e+00 1.335233e+00 4.087845e-01 4.058927e-01 3.852881e-01 4.864616e-01 5.563792e-01 6.171517e-01 6.210979e-01 4.961021e-01 4.038469e-01 4.568372e-01 4.213471e-01 3.681961e-01
<GCONST> 1.274890e+02
<TRANSP> 5
 0.000000e+00 1.000000e+00 0.000000e+00 0.000000e+00 0.000000e+00
 0.000000e+00 7.075129e-01 2.924870e-01 0.000000e+00 0.000000e+00
 0.000000e+00 0.000000e+00 7.252951e-01 2.747049e-01 0.000000e+00
 0.000000e+00 0.000000e+00 0.000000e+00 8.791009e-01 1.208991e-01
 0.000000e+00 0.000000e+00 0.000000e+00 0.000000e+00 0.000000e+00
<ENDHMM>
~h "t"
<BEGINHMM>
<NUMSTATES> 5
<STATE> 2
<MEAN> 39
 -6.496409e+00 -4.191839e-01 -4.358988e+00 -4.010968e+00 -6.356874e+00 -5.057132e+00 -7.996511e+00 -5.513776e+00 -1.695607e+00 -1.956477e+00 -4.362289e+00 -5.518721e+00 4.762118e+01 -4.485349e-01 -1.454898e-01 -1.234679e-01 -1.372350e-01 2.555301e-01 -1.393603e-01 5.264902e-02 1.701997e-01 2.797893e-02 -1.434085e-02 1.625570e-02 8.534987e-02 -5.304288e-01 6.861185e-03 -2.489806e-01 -1.058491e-01 -1.645697e-01 -1.118515e-01 2.809540e-02 -3.250255e-02 -1.695933e-02 3.606948e-02 -3.455645e-02 3.644773e-02 -3.407046e-02 6.894670e-01
<VARIANCE> 39
 5.122766e+01 4.473420e+01 5.781344e+01 4.315283e+01 4.466174e+01 4.451393e+01 4.871407e+01 4.853799e+01 5.077359e+01 3.366742e+01 4.348298e+01 3.706502e+01 1.832801e+02 3.214825e+00 3.951591e+00 3.301070e+00 3.105485e+00 3.868108e+00 3.270034e+00 3.439721e+00 3.563945e+00 3.592131e+00 2.748570e+00 3.247717e+00 2.868690e+00 1.666336e+01 5.911604e-01 6.328413e-01 5.855839e-01 5.486944e-01 7.367158e-01 6.442788e-01 6.740123e-01 6.752562e-01 6.927438e-01 5.537530e-01 5.994804e-01 5.839099e-01 2.281758e+00
<GCONST> 1.350536e+02
<STATE> 3
<MEAN> 39
 -7.609471e+00 -1.792422e+00 -5.132545e+00 -4.960701e+00 -6.261241e+00 -5.286195e+00 -7.920679e+00 -5.071406e+00 -1.406223e+00 -2.145727e+00 -4.177886e+00 -5.424331e+00 4.899569e+01 -1.916683e-01 -6.828972e-01 -3.627981e-01 -4.991772e-01 -1.117983e-01 -9.076739e-02 -1.050844e-01 7.522408e-02 1.801151e-01 -9.660319e-02 9.429069e-02 -7.730912e-02 1.641514e+00 2.060123e-01 -7.220948e-02 -1.358720e-02 -7.735019e-02 -1.486883e-01 7.077341e-02 -7.650755e-02 -8.263473e-02 2.233159e-02 -8.381751e-03 3.289710e-02 -8.546785e-02 6.161985e-01
<VARIANCE> 39
 5.045059e+01 4.561020e+01 5.434560e+01 4.047100e+01 4.043774e+01 4.366499e+01 4.504905e+01 4.310453e+01 4.795870e+01 3.304129e+01 3.973505e+01 3.767492e+01 1.932655e+02 4.511798e+00 4.155535e+00 4.340366e+00 3.618018e+00 4.311810e+00 3.881619e+00 4.148039e+00 3.951640e+00 4.638864e+00 3.056942e+00 3.612261e+00 3.796111e+00 2.260717e+01 8.097560e-01 7.000363e-01 7.141303e-01 6.212362e-01 8.026372e-01 7.503144e-01 7.690506e-01 7.482299e-01 8.089568e-01 5.907176e-01 6.504720e-01 6.977609e-01 2.897905e+00
<GCONST> 1.388887e+02
<STATE> 4
<MEAN> 39
 -7.860160e+00 -3.464884e+00 -6.081375e+00 -6.336915e+00 -6.610281e+00 -5.164064e+00 -8.210244e+00 -4.992972e+00 -8.963763e-01 -2.557405e+00 -3.931783e+00 -5.702113e+00 5.349891e+01 4.394846e-01 -5.191374e-01 -1.709660e-01 -4.741015e-01 -4.120436e-01 1.455497e-01 -2.812925e-01 -2.084218e-01 1.101781e-01 -1.128032e-01 1.835328e-01 -2.801894e-01 2.423513e+00 2.081423e-01 1.195943e-01 1.086721e-01 3.536484e-02 -9.373188e-02 1.422100e-01 -3.343392e-02 -8.562621e-02 -8.583310e-02 1.130781e-02 4.925121e-02 -3.893032e-02 -8.025650e-02
<VARIANCE> 39
 4.966212e+01 4.427116e+01 5.758099e+01 4.376859e+01 4.315127e+01 4.654160e+01 4.808055e+01 4.293970e+01 5.301508e+01 3.352229e+01 4.050059e+01 3.973899e+01 2.322289e+02 4.810691e+00 3.716466e+00 4.937597e+00 3.799732e+00 4.660293e+00 4.400412e+00 4.759026e+00 4.200294e+00 4.977282e+00 3.125815e+00 3.708415e+00 3.886099e+00 1.872029e+01 8.354328e-01 6.127183e-01 7.133399e-01 6.198350e-01 7.712891e-01 8.025904e-01 8.008098e-01 7.357205e-01 8.515984e-01 5.742615e-01 6.394305e-01 7.149668e-01 3.035958e+00
<GCONST> 1.400485e+02
<TRANSP> 5
 0.000000e+00 1.000000e+00 0.000000e+00 0.000000e+00 0.000000e+00
 0.000000e+00 6.197067e-01 3.802933e-01 0.000000e+00 0.000000e+00
 0.000000e+00 0.000000e+00 6.294411e-01 3.705589e-01 0.000000e+00
 0.000000e+00 0.000000e+00 0.000000e+00 7.191589e-01 2.808410e-01
 0.000000e+00 0.000000e+00 0.000000e+00 0.000000e+00 0.000000e+00
<ENDHMM>
~h "u"
<BEGINHMM>
<NUMSTATES> 5
<STATE> 2
<MEAN> 39
 -4.760639e-01 2.491090e+00 -3.923182e+00 -9.559759e+00 -1.188771e+01 1.968747e+00 -1.431545e+01 -9.938566e+00 -6.687373e+00 -3.455477e+00 -3.725837e-01 -3.045514e+00 5.931228e+01 8.203815e-01 5.280415e-01 -2.477404e-01 -8.728489e-01 -7.360890e-01 9.255297e-01 -5.414286e-01 -3.921511e-01 -4.692401e-01 -1.745063e-01 4.853052e-01 1.439572e-01 5.156294e-01 -1.595302e-01 -2.586776e-02 7.851536e-02 9.080795e-02 1.134728e-01 -8.257832e-02 1.787168e-01 1.265148e-01 8.272878e-02 -3.532150e-04 -9.456928e-02 -3.697037e-02 -2.240232e-01
<VARIANCE> 39
 4.505029e+01 4.236720e+01 5.724245e+01 8.459930e+01 6.747960e+01 6.519248e+01 8.194109e+01 8.346803e+01 6.782833e+01 5.870192e+01 5.222454e+01 3.706752e+01 1.084403e+02 3.761197e+00 3.268080e+00 3.610103e+00 5.577196e+00 5.703298e+00 5.796907e+00 5.242774e+00 5.864495e+00 4.709858e+00 4.273848e+00 4.308839e+00 3.244276e+00 5.789273e+00 6.579829e-01 5.845137e-01 5.829708e-01 9.642383e-01 1.015803e+00 1.057078e+00 9.594545e-01 1.059799e+00 8.441628e-01 7.916417e-01 7.840256e-01 6.016514e-01 8.793267e-01
<GCONST> 1.425846e+02
<STATE> 3
<MEAN> 39
 9.464419e-01 3.516315e+00 -4.206849e+00 -1.107273e+01 -1.311438e+01 3.621028e+00 -1.502868e+01 -1.048177e+01 -7.438919e+00 -3.898790e+00 3.827555e-01 -2.878704e+00 5.986809e+01 2.265366e-01 1.386791e-01 2.507946e-02 -1.456049e-01 -5.406572e-02 1.628201e-01 -4.910123e-02 -7.125369e-02 -7.086165e-02 1.335609e-02 6.081684e-02 -1.691853e-02 -6.588880e-02 -2.148185e-01 -1.233782e-01 9.559761e-02 2.487314e-01 2.231432e-01 -2.660881e-01 1.633937e-01 1.234726e-01 1.444175e-01 4.791448e-02 -1.550060e-01 -5.163751e-02 -1.789835e-01
<VARIANCE> 39
 3.508307e+01 4.285144e+01 5.207944e+01 8.487492e+01 6.692455e+01 6.458559e+01 8.059055e+01 8.674041e+01 7.196082e+01 6.551197e+01 5.337225e+01 3.954643e+01 9.015599e+01 2.584419e+00 3.131717e+00 3.142529e+00 5.853744e+00 5.769278e+00 5.679836e+00 5.167853e+00 5.650161e+00 4.703249e+00 4.413687e+00 4.361553e+00 3.161470e+00 5.342321e+00 4.375838e-01 5.297819e-01 5.309305e-01 9.192584e-01 1.005397e+00 9.855946e-01 9.382966e-01 1.028072e+00 8.485337e-01 8.362621e-01 8.179227e-01 6.123602e-01 6.631460e-01
<GCONST> 1.407549e+02
<STATE> 4
<MEAN> 39
 4.659570e-01 3.605743e+00 -3.704581e+00 -1.100868e+01 -1.175081e+01 2.736666e+00 -1.458956e+01 -9.736631e+00 -7.609666e+00 -3.833531e+00 -2.685424e-01 -2.944045e+00 5.710364e+01 -3.617653e-01 -2.796267e-01 1.817576e-01 5.683308e-01 4.617075e-01 -5.088845e-01 3.530931e-01 1.479456e-01 3.430804e-01 1.707901e-01 -2.784225e-01 -1.268928e-01 -4.588176e-01 -1.404517e-01 -7.476728e-02 3.047273e-02 1.051084e-01 7.045957e-02 -1.062849e-01 7.977687e-02 7.944579e-02 8.293975e-02 -8.432779e-03 -7.668933e-02 -2.640853e-02 -9.116428e-03
<VARIANCE> 39
 3.723378e+01 4.450052e+01 5.164447e+01 8.785249e+01 6.497238e+01 6.464577e+01 7.741522e+01 7.679070e+01 7.026650e+01 6.076927e+01 5.198904e+01 3.901406e+01 1.173449e+02 2.062777e+00 2.882866e+00 2.790166e+00 4.658659e+00 4.479194e+00 4.322531e+00 4.364993e+00 4.567158e+00 4.067933e+00 3.777364e+00 3.876149e+00 2.976447e+00 4.388066e+00 3.256302e-01 4.642400e-01 4.545546e-01 7.579058e-01 7.866111e-01 7.620358e-01 7.726368e-01 8.072233e-01 7.071838e-01 7.032035e-01 7.105476e-01 5.479670e-01 5.657666e-01
<GCONST> 1.360924e+02
<TRANSP> 5
 0.000000e+00 1.000000e+00 0.000000e+00 0.000000e+00 0.000000e+00
 0.000000e+00 6.609314e-01 3.390686e-01 0.000000e+00 0.000000e+00
 0.000000e+00 0.000000e+00 6.767019e-01 3.232982e-01 0.000000e+00
 0.000000e+00 0.000000e+00 0.000000e+00 8.004327e-01 1.995674e-01
 0.000000e+00 0.000000e+00 0.000000e+00 0.000000e+00 0.000000e+00
<ENDHMM>
~h "w"
<BEGINHMM>
<NUMSTATES> 5
<STATE> 2
<MEAN> 39
 1.432446e+00 -1.994628e+00 -6.823622e+00 -1.601671e+01 -1.190385e+01 4.838427e+00 -1.126907e+01 -6.815092e+00 -3.774857e+00 -2.511308e+00 6.519864e-01 -5.489694e+00 6.351727e+01 5.809733e-01 3.877641e-01 -1.980346e-01 -1.138728e+00 -5.039296e-01 7.873505e-01 -7.773925e-02 -7.724991e-02 -2.624688e-01 -1.131324e-01 3.916335e-01 2.808523e-01 1.818325e-01 -1.278243e-01 -5.952591e-02 7.005108e-02 1.591551e-01 3.356529e-02 -1.755860e-01 7.372732e-02 8.363450e-02 5.570965e-02 -3.504796e-02 -9.068655e-02 1.048147e-02 -2.382447e-02
<VARIANCE> 39
 3.133978e+01 6.276889e+01 6.037694e+01 8.339864e+01 7.042838e+01 7.011631e+01 7.149715e+01 5.845223e+01 6.990532e+01 6.423209e+01 5.153559e+01 4.853492e+01 1.020934e+02 1.589095e+00 2.822800e+00 2.318379e+00 3.684227e+00 3.754230e+00 3.534512e+00 3.036566e+00 3.194900e+00 3.494558e+00 3.117340e+00 3.129859e+00 3.340312e+00 3.028850e+00 2.641480e-01 3.953519e-01 3.400818e-01 5.474049e-01 6.155080e-01 5.637112e-01 5.389997e-01 5.616623e-01 5.769166e-01 5.946694e-01 5.668033e-01 5.920067e-01 3.074733e-01
<GCONST> 1.303005e+02
<STATE> 3
<MEAN> 39
 2.542036e+00 -1.497153e+00 -7.333673e+00 -1.842861e+01 -1.286977e+01 6.222028e+00 -1.112132e+01 -6.793575e+00 -3.852039e+00 -2.844243e+00 1.129066e+00 -4.828516e+00 6.433876e+01 8.332490e-02 -1.313935e-01 -1.611059e-01 -2.967232e-01 -5.067885e-03 1.466061e-01 1.210773e-01 5.387281e-03 1.002315e-01 -1.351410e-03 2.744410e-02 -4.307746e-02 2.796355e-01 -1.424215e-01 -1.342059e-01 1.989118e-02 2.644844e-01 1.372821e-01 -1.955670e-01 4.188187e-02 2.766416e-02 9.867033e-02 2.727383e-02 -1.240566e-01 -1.153268e-01 2.235369e-02
<VARIANCE> 39
 2.677740e+01 5.815761e+01 5.668283e+01 8.409966e+01 6.976688e+01 6.595451e+01 6.748303e+01 5.211460e+01 6.672362e+01 6.145818e+01 4.940218e+01 4.821689e+01 7.538444e+01 1.258249e+00 3.207667e+00 2.128752e+00 3.704719e+00 3.839933e+00 3.288890e+00 2.746678e+00 2.828099e+00 3.181897e+00 2.956920e+00 2.953455e+00 3.661939e+00 2.694771e+00 1.694021e-01 3.718021e-01 3.115682e-01 4.930415e-01 5.732636e-01 5.467128e-01 4.721097e-01 5.133019e-01 4.977383e-01 5.539416e-01 5.341106e-01 5.832757e-01 2.691447e-01
<GCONST> 1.271914e+02
<STATE> 4
<MEAN> 39
 1.467636e+00 -2.707013e+00 -7.256199e+00 -1.881262e+01 -9.308682e+00 5.789343e+00 -1.068201e+01 -6.870586e+00 -3.101931e+00 -2.410200e+00 -5.481615e-01 -4.893828e+00 6.323315e+01 -2.402963e-01 -3.408933e-01 -1.128276e-01 5.242402e-01 3.615231e-01 -2.904552e-01 1.272191e-01 1.656835e-04 2.098578e-01 5.253260e-02 -2.299971e-01 -3.014586e-01 8.523683e-02 -4.460711e-02 3.396319e-03 4.238272e-02 1.476759e-01 4.794137e-03 -1.054326e-01 -8.262903e-04 3.190060e-02 1.398588e-02 -1.603027e-02 -4.982408e-02 -1.431653e-02 -4.909162e-02
<VARIANCE> 39
 3.255462e+01 6.237312e+01 6.368130e+01 8.748331e+01 8.487339e+01 6.053583e+01 6.402365e+01 4.635476e+01 6.315746e+01 5.344131e+01 4.921437e+01 5.090665e+01 9.943581e+01 1.030830e+00 2.578471e+00 1.911234e+00 3.317405e+00 3.287579e+00 2.848610e+00 2.336308e+00 2.390772e+00 2.528009e+00 2.359744e+00 2.483053e+00 2.950542e+00 2.482611e+00 1.387057e-01 3.190063e-01 2.648173e-01 4.302604e-01 4.774755e-01 4.520246e-01 3.972493e-01 4.163561e-01 3.951597e-01 4.146394e-01 4.212923e-01 4.839257e-01 2.540336e-01
<GCONST> 1.230849e+02
<TRANSP> 5
 0.000000e+00 1.000000e+00 0.000000e+00 0.000000e+00 0.000000e+00
 0.000000e+00 7.171253e-01 2.828747e-01 0.000000e+00 0.000000e+00
 0.000000e+00 0.000000e+00 7.195019e-01 2.804982e-01 0.000000e+00
 0.000000e+00 0.000000e+00 0.000000e+00 8.954006e-01 1.045993e-01
 0.000000e+00 0.000000e+00 0.000000e+00 0.000000e+00 0.000000e+00
<ENDHMM>
~h "y"
<BEGINHMM>
<NUMSTATES> 5
<STATE> 2
<MEAN> 39
 -5.412344e+00 -4.638750e+00 2.755771e+00 -6.562508e+00 -1.572631e+01 -7.500887e+00 -8.519972e+00 -2.284708e+00 -4.119510e+00 -3.593263e+00 -4.796336e-01 -5.006622e+00 6.350362e+01 -1.512614e-01 2.546578e-01 9.542916e-01 -6.331342e-02 -8.734999e-01 -3.721464e-01 -1.382719e-01 1.488967e-02 -4.269105e-01 6.264080e-02 7.321682e-01 2.525007e-01 3.015494e-02 2.129366e-02 -2.949573e-02 -1.823863e-01 -3.036360e-02 1.979280e-01 1.253545e-01 -1.741203e-02 -7.978646e-02 8.711715e-02 2.420803e-03 -9.926509e-02 -5.545554e-02 3.382550e-03
<VARIANCE> 39
 2.513114e+01 5.261880e+01 1.050822e+02 4.288897e+01 8.708186e+01 6.326419e+01 7.029973e+01 7.228951e+01 6.942193e+01 5.169823e+01 6.293359e+01 3.673781e+01 1.885261e+02 9.256375e-01 2.524461e+00 5.465378e+00 1.773711e+00 3.882392e+00 2.894358e+00 3.131338e+00 4.422115e+00 4.058228e+00 2.730196e+00 3.688673e+00 2.246203e+00 2.015480e+00 1.414739e-01 3.038587e-01 5.554831e-01 2.963234e-01 5.885359e-01 5.040652e-01 5.142529e-01 7.778863e-01 5.869303e-01 4.914333e-01 5.976506e-01 3.744390e-01 2.172055e-01
<GCONST> 1.276344e+02
<STATE> 3
<MEAN> 39
 -5.651424e+00 -4.254758e+00 4.625589e+00 -6.912576e+00 -1.744665e+01 -8.049345e+00 -9.008095e+00 -2.392665e+00 -4.881907e+00 -3.552197e+00 1.043032e+00 -4.736495e+00 6.404494e+01 -8.380947e-03 -1.111699e-01 6.821354e-03 -1.065236e-01 -1.298870e-01 -5.212740e-02 2.708737e-02 1.576903e-01 7.016981e-02 -6.275912e-02 1.176761e-01 -4.569084e-04 1.563696e-01 4.878105e-02 -1.012916e-01 -3.123249e-01 5.479182e-03 2.612872e-01 1.185352e-01 5.007759e-02 3.549761e-02 1.499589e-01 -3.811053e-02 -2.168671e-01 -9.216203e-02 1.173365e-02
<VARIANCE> 39
 2.191635e+01 4.483591e+01 9.766685e+01 4.092391e+01 8.460881e+01 6.067001e+01 6.746699e+01 6.749383e+01 6.564153e+01 4.900147e+01 6.161592e+01 3.670593e+01 1.733353e+02 7.470359e-01 2.568426e+00 5.660116e+00 1.560104e+00 3.634820e+00 2.431381e+00 3.170820e+00 4.361955e+00 4.064148e+00 2.559425e+00 3.732223e+00 1.945699e+00 1.889020e+00 1.108508e-01 2.846680e-01 4.813807e-01 2.664614e-01 5.248680e-01 4.513562e-01 4.909155e-01 7.341923e-01 5.531610e-01 4.737640e-01 5.418820e-01 3.392823e-01 1.854830e-01
<GCONST> 1.246917e+02
<STATE> 4
<MEAN> 39
 -7.609053e+00 -4.186115e+00 1.679395e+00 -6.361371e+00 -1.306388e+01 -6.209266e+00 -8.445362e+00 -2.552995e+00 -4.544867e+00 -4.305017e+00 -6.131088e-01 -4.221514e+00 5.578106e+01 7.728650e-02 -2.881820e-01 -6.032438e-01 -2.288042e-02 3.881381e-01 1.609304e-01 1.669483e-01 2.553598e-01 3.528181e-01 -1.152657e-01 -3.782025e-01 -1.610593e-01 1.281926e-01 2.737532e-02 -1.560877e-03 -1.030466e-01 2.444079e-02 1.210530e-01 5.932452e-02 -4.302418e-03 -4.237635e-02 3.110607e-02 -1.974244e-03 -8.282027e-02 -4.225151e-02 -2.140316e-02
<VARIANCE> 39
 2.817460e+01 4.817905e+01 9.463049e+01 3.912298e+01 9.095957e+01 4.792477e+01 6.422836e+01 5.956601e+01 5.896750e+01 3.883987e+01 5.140478e+01 3.161401e+01 2.858609e+02 6.046352e-01 1.808861e+00 3.585729e+00 1.389305e+00 2.884579e+00 2.025708e+00 2.474341e+00 3.190250e+00 2.933799e+00 2.207026e+00 2.969286e+00 1.688758e+00 1.587966e+00 9.559212e-02 2.275861e-01 3.576421e-01 2.377627e-01 4.390473e-01 3.688204e-01 4.077387e-01 5.662521e-01 4.587124e-01 4.025325e-01 4.647787e-01 2.999078e-01 1.604226e-01
<GCONST> 1.189227e+02
<TRANSP> 5
 0.000000e+00 1.000000e+00 0.000000e+00 0.000000e+00 0.000000e+00
 0.000000e+00 6.440488e-01 3.559512e-01 0.000000e+00 0.000000e+00
 0.000000e+00 0.000000e+00 6.639687e-01 3.360313e-01 0.000000e+00
 0.000000e+00 0.000000e+00 0.000000e+00 8.602942e-01 1.397058e-01
 0.000000e+00 0.000000e+00 0.000000e+00 0.000000e+00 0.000000e+00
<ENDHMM>
~h "z"
<BEGINHMM>
<NUMSTATES> 5
<STATE> 2
<MEAN> 39
 -1.202429e+01 5.720848e+00 -9.447325e-01 -1.028831e+00 -5.454506e+00 -8.785405e+00 -8.310209e+00 -4.208544e+00 -2.238296e+00 -4.141147e+00 -4.052232e+00 -1.262069e+00 5.994193e+01 -1.230444e+00 1.011192e+00 -4.955908e-02 3.601432e-01 7.895193e-01 -7.362732e-02 3.100799e-01 2.331304e-01 2.302183e-02 -1.703354e-02 1.651706e-01 3.478750e-01 -2.900377e-01 4.231376e-02 -1.845796e-01 2.844629e-02 -6.289998e-02 -1.079586e-01 1.363314e-01 -2.606573e-02 -1.670786e-02 -3.689880e-02 4.441822e-02 6.508394e-02 -1.076243e-01 4.900881e-02
<VARIANCE> 39
 7.248220e+01 6.980508e+01 5.840440e+01 4.825350e+01 6.701882e+01 5.150669e+01 5.328261e+01 5.246976e+01 4.883500e+01 3.488257e+01 3.658659e+01 2.949482e+01 1.532460e+02 3.549673e+00 3.154065e+00 2.077146e+00 1.995300e+00 3.836432e+00 2.571615e+00 2.872745e+00 2.952171e+00 2.530886e+00 2.083740e+00 2.156346e+00 1.972184e+00 1.906992e+00 4.443626e-01 3.840614e-01 3.064795e-01 3.235270e-01 5.228814e-01 4.516473e-01 5.110446e-01 4.918939e-01 4.260980e-01 3.849053e-01 3.770130e-01 3.562861e-01 2.075144e-01
<GCONST> 1.234179e+02
<STATE> 3
<MEAN> 39
 -1.465721e+01 7.289038e+00 -4.602695e-01 -1.582806e-01 -4.378898e+00 -8.462605e+00 -7.687368e+00 -4.081196e+00 -2.535298e+00 -4.146016e+00 -3.260893e+00 -8.971303e-01 5.954418e+01 -7.362688e-01 3.450190e-01 9.045501e-02 2.014256e-01 3.233596e-01 1.323927e-01 1.271354e-01 2.784169e-02 -7.239111e-02 2.016835e-02 1.988724e-01 8.582345e-02 -6.492020e-02 2.098730e-01 -2.268185e-01 3.298708e-02 -6.816922e-02 -1.847236e-01 3.574132e-02 -8.153081e-02 -5.929484e-02 -3.000874e-02 6.146511e-03 -1.957013e-03 -8.111136e-02 8.069123e-02
<VARIANCE> 39
 8.164410e+01 7.139420e+01 5.476576e+01 5.031577e+01 6.616169e+01 4.779016e+01 4.979635e+01 4.701817e+01 4.235468e+01 2.981895e+01 3.320328e+01 2.646467e+01 1.460882e+02 3.659207e+00 2.849964e+00 1.789768e+00 1.760535e+00 3.591860e+00 2.222470e+00 2.542763e+00 2.600950e+00 2.220201e+00 1.783108e+00 1.843782e+00 1.728846e+00 1.861412e+00 4.589286e-01 3.434350e-01 2.672078e-01 2.971981e-01 4.932366e-01 4.174565e-01 4.464862e-01 4.446330e-01 3.907989e-01 3.425903e-01 3.287995e-01 3.173096e-01 2.003973e-01
<GCONST> 1.201494e+02
<STATE> 4
<MEAN> 39
 -1.517024e+01 3.519614e+00 -1.650342e+00 -1.610023e+00 -3.761716e+00 -6.114564e+00 -7.838949e+00 -4.509466e+00 -3.904547e+00 -5.093120e+00 -3.036159e+00 -1.863856e+00 4.994700e+01 1.517747e-01 -1.972688e-01 5.912719e-02 -4.323447e-02 -2.215814e-01 1.240010e-03 -1.032711e-01 -7.754731e-02 -6.023307e-02 1.010924e-02 7.059155e-02 -3.811164e-02 2.982645e-02 1.558981e-01 -1.018243e-01 2.872129e-04 -4.507137e-02 -1.151039e-01 -5.052753e-03 -5.047968e-02 -2.284110e-02 1.074135e-02 7.976902e-03 -4.028138e-03 -3.590700e-02 5.004443e-02
<VARIANCE> 39
 7.056325e+01 8.220878e+01 6.033796e+01 4.163395e+01 5.512800e+01 4.142186e+01 4.722978e+01 4.205080e+01 3.584047e+01 2.672366e+01 2.926088e+01 2.233099e+01 2.227376e+02 2.935965e+00 2.193961e+00 1.583562e+00 1.587125e+00 2.782425e+00 2.088956e+00 2.173130e+00 2.258113e+00 1.959947e+00 1.722795e+00 1.645373e+00 1.549616e+00 1.648834e+00 3.767631e-01 2.910424e-01 2.573487e-01 2.693461e-01 4.094717e-01 3.985901e-01 3.840896e-01 4.079079e-01 3.637805e-01 3.333567e-01 3.020031e-01 2.930492e-01 1.669694e-01
<GCONST> 1.161698e+02
<TRANSP> 5
 0.000000e+00 1.000000e+00 0.000000e+00 0.000000e+00 0.000000e+00
 0.000000e+00 6.902028e-01 3.097973e-01 0.000000e+00 0.000000e+00
 0.000000e+00 0.000000e+00 6.955059e-01 3.044941e-01 0.000000e+00
 0.000000e+00 0.000000e+00 0.000000e+00 9.309239e-01 6.907611e-02
 0.000000e+00 0.000000e+00 0.000000e+00 0.000000e+00 0.000000e+00
<ENDHMM>
~h "ai"
<BEGINHMM>
<NUMSTATES> 5
<STATE> 2
<MEAN> 39
 -4.102877e+00 -8.957773e+00 -1.565223e+00 -8.224218e+00 -1.459118e+01 -7.702352e+00 -7.627375e+00 4.387988e-01 -1.270540e+00 -3.494522e+00 -2.659471e+00 -7.746350e+00 6.866017e+01 -1.956556e-01 -6.694754e-02 9.657521e-01 -1.496287e-01 -1.309644e+00 -5.993892e-01 4.989097e-01 4.347574e-01 -4.437338e-01 6.871487e-03 6.341374e-01 1.504549e-01 4.611308e-01 -2.000009e-02 2.524222e-01 1.258647e-01 4.381784e-02 3.385558e-02 1.014510e-01 -6.844330e-02 -2.588073e-01 -1.532502e-01 1.086461e-01 7.649440e-02 5.958958e-02 -2.974785e-01
<VARIANCE> 39
 2.457577e+01 4.551491e+01 8.384048e+01 4.538717e+01 8.943011e+01 6.598238e+01 8.652238e+01 7.171204e+01 6.380364e+01 5.718974e+01 6.037160e+01 3.684215e+01 1.002102e+02 1.773379e+00 2.902224e+00 3.930606e+00 2.608757e+00 4.491544e+00 3.259556e+00 4.352540e+00 4.864197e+00 4.177741e+00 3.603776e+00 3.917987e+00 2.606785e+00 4.215835e+00 3.556184e-01 3.646239e-01 5.123342e-01 4.758966e-01 7.572801e-01 5.150734e-01 7.617904e-01 7.447982e-01 6.644388e-01 6.250994e-01 7.337195e-01 5.266423e-01 5.277352e-01
<GCONST> 1.336194e+02
<STATE> 3
<MEAN> 39
 -4.727526e+00 -7.423589e+00 2.281803e+00 -8.333265e+00 -1.846357e+01 -8.976079e+00 -6.921585e+00 -1.944051e-01 -3.776101e+00 -2.428800e+00 -4.168095e-01 -7.149654e+00 6.810690e+01 -1.308592e-01 5.491630e-01 8.978317e-01 7.612017e-02 -6.860457e-01 -1.893871e-01 5.376275e-02 -3.654974e-01 -6.581703e-01 2.584456e-01 4.676425e-01 1.671049e-01 -3.978571e-01 2.074516e-02 1.250829e-01 -9.680160e-02 8.410653e-02 2.481432e-01 1.284321e-01 -8.629356e-02 -1.673774e-01 -9.847866e-03 1.054859e-02 -1.033321e-01 -9.889135e-04 -2.193557e-01
<VARIANCE> 39
 2.106060e+01 4.384270e+01 8.144266e+01 4.150197e+01 8.337325e+01 6.355866e+01 7.958881e+01 7.621935e+01 6.407957e+01 5.884354e+01 6.147369e+01 3.416328e+01 9.400832e+01 1.195434e+00 2.270301e+00 3.613380e+00 2.128290e+00 4.548554e+00 2.676954e+00 3.773677e+00 4.069182e+00 3.670375e+00 3.275306e+00 3.456486e+00 1.954368e+00 3.208058e+00 2.122321e-01 2.919527e-01 4.307246e-01 3.579338e-01 6.305463e-01 4.489505e-01 6.334807e-01 6.736140e-01 5.869245e-01 5.694758e-01 6.006849e-01 3.659138e-01 3.451026e-01
<GCONST> 1.277374e+02
<STATE> 4
<MEAN> 39
 -5.874705e+00 -3.896449e+00 5.881245e+00 -7.509748e+00 -1.954199e+01 -7.741406e+00 -7.813116e+00 -3.288985e+00 -6.777325e+00 -1.671270e+00 6.558926e-01 -6.892434e+00 6.329865e+01 -1.892965e-02 5.783156e-01 5.244597e-02 4.096799e-01 4.468237e-01 1.455820e-01 4.611138e-02 -4.304390e-01 -2.533276e-01 5.017837e-02 -1.617184e-01 1.743545e-01 -1.036403e+00 5.824571e-03 -1.503805e-02 -1.913339e-01 4.128224e-02 2.311699e-01 6.791533e-02 2.276803e-02 1.957110e-02 1.132028e-01 -5.377865e-02 -1.006243e-01 1.421271e-02 -9.044293e-02
<VARIANCE> 39
 2.684753e+01 4.559047e+01 6.952063e+01 4.402832e+01 8.020789e+01 6.035633e+01 6.982440e+01 7.974774e+01 6.108028e+01 4.755151e+01 5.704209e+01 3.209310e+01 1.277302e+02 1.296968e+00 2.206489e+00 3.447453e+00 2.322102e+00 4.279922e+00 2.565050e+00 3.398294e+00 3.542846e+00 3.550695e+00 2.795631e+00 2.953776e+00 1.733184e+00 3.274060e+00 2.080889e-01 2.854210e-01 3.867160e-01 3.696374e-01 5.885375e-01 4.326007e-01 5.674776e-01 5.786785e-01 5.492759e-01 4.843959e-01 4.825109e-01 3.079517e-01 3.830562e-01
<GCONST> 1.259490e+02
<TRANSP> 5
 0.000000e+00 1.000000e+00 0.000000e+00 0.000000e+00 0.000000e+00
 0.000000e+00 6.875695e-01 3.124305e-01 0.000000e+00 0.000000e+00
 0.000000e+00 0.000000e+00 7.007825e-01 2.992175e-01 0.000000e+00
 0.000000e+00 0.000000e+00 0.000000e+00 8.257157e-01 1.742844e-01
 0.000000e+00 0.000000e+00 0.000000e+00 0.000000e+00 0.000000e+00
<ENDHMM>
~h "au"
<BEGINHMM>
<NUMSTATES> 5
<STATE> 2
<MEAN> 39
 -6.081365e-01 -4.143969e+00 -1.059294e+01 -1.855345e+01 -8.361916e+00 5.161490e+00 -8.908858e+00 -3.859419e+00 -8.766396e-01 5.145208e-01 -2.978999e+00 -6.460269e+00 6.780779e+01 1.200894e-01 4.845290e-01 4.110338e-02 -5.537619e-01 -1.740895e-01 4.715289e-01 -2.840921e-01 1.120330e-01 -3.505952e-01 -1.817036e-01 4.484149e-01 4.128518e-01 -5.137726e-01 -3.365870e-02 1.578342e-01 1.180639e-01 1.661201e-01 -8.836745e-02 -1.636222e-01 -6.039001e-02 -1.400630e-02 -1.095853e-01 -2.640974e-02 3.117350e-02 1.218291e-01 -1.619731e-01
<VARIANCE> 39
 3.410848e+01 4.375239e+01 3.904020e+01 8.504240e+01 4.881699e+01 7.011389e+01 6.430408e+01 7.017498e+01 5.126880e+01 7.038445e+01 5.504917e+01 5.834657e+01 1.495040e+02 7.629621e-01 1.844362e+00 1.367272e+00 2.516463e+00 2.280681e+00 2.965641e+00 2.389498e+00 2.544552e+00 2.264711e+00 2.540615e+00 2.506707e+00 2.873230e+00 1.314994e+00 1.526776e-01 2.780977e-01 2.199297e-01 3.877994e-01 3.714309e-01 4.732306e-01 3.989002e-01 4.283600e-01 4.033905e-01 4.649180e-01 4.604014e-01 5.090046e-01 2.027569e-01
<GCONST> 1.203640e+02
<STATE> 3
<MEAN> 39
 -2.945502e-01 -1.757714e+00 -9.957479e+00 -1.901126e+01 -9.458459e+00 5.669816e+00 -1.002600e+01 -3.176395e+00 -2.337827e+00 -2.075187e-01 -2.091846e+00 -4.744915e+00 6.488026e+01 7.728498e-02 6.545082e-01 2.300470e-01 2.589490e-02 -3.011758e-01 2.408249e-02 -3.636919e-01 6.261896e-02 -3.849403e-01 -1.158108e-01 3.000824e-01 4.740213e-01 -7.971821e-01 -1.899224e-02 1.814278e-02 6.992818e-02 2.312909e-01 -1.263311e-02 -1.563518e-01 -2.529553e-02 -4.631763e-02 -1.303847e-02 1.888337e-02 -5.091903e-02 -1.741603e-02 -7.899319e-02
<VARIANCE> 39
 4.005974e+01 4.519137e+01 3.644412e+01 9.487390e+01 4.991711e+01 6.949024e+01 6.016912e+01 6.739127e+01 5.088745e+01 7.111250e+01 4.848277e+01 5.646080e+01 1.810708e+02 7.697732e-01 1.728651e+00 1.230845e+00 2.744569e+00 2.248195e+00 2.553574e+00 2.443623e+00 2.402642e+00 2.125938e+00 2.379814e+00 2.478637e+00 2.638991e+00 1.141532e+00 1.049364e-01 2.497041e-01 2.007959e-01 4.077075e-01 3.667932e-01 4.080330e-01 3.785387e-01 3.982938e-01 3.585220e-01 4.161685e-01 3.969891e-01 4.754976e-01 1.517820e-01
<GCONST> 1.183551e+02
<STATE> 4
<MEAN> 39
 -5.842844e+00 -3.221430e-01 -7.010257e+00 -1.071210e+01 -6.641639e+00 1.088664e+00 -7.624062e+00 -2.789427e+00 -3.180332e+00 -1.116529e+00 -2.247863e+00 -2.432096e+00 4.838204e+01 -9.704872e-02 2.066602e-01 1.705716e-01 3.583191e-01 -2.679138e-02 -1.661332e-01 -1.255052e-01 -9.079757e-02 -1.304512e-01 -8.603506e-03 6.503846e-02 1.432562e-01 -5.141521e-01 -1.540865e-02 -4.158953e-02 2.945509e-02 1.074959e-01 2.437119e-02 -5.823471e-02 4.790818e-03 -2.585708e-02 4.768027e-03 -1.503458e-02 -3.682562e-02 -4.427668e-02 1.116663e-02
<VARIANCE> 39
 6.519399e+01 3.575703e+01 3.226045e+01 1.153095e+02 4.663546e+01 5.957723e+01 5.534180e+01 4.683284e+01 4.142091e+01 5.090937e+01 3.250093e+01 3.298162e+01 2.935041e+02 8.091143e-01 1.461443e+00 1.182060e+00 2.320505e+00 1.940992e+00 2.012519e+00 2.179159e+00 2.151828e+00 2.151114e+00 2.043854e+00 1.996092e+00 2.007475e+00 1.170474e+00 1.298295e-01 2.096201e-01 2.055814e-01 3.772996e-01 3.291998e-01 3.428624e-01 3.800477e-01 3.932568e-01 3.987663e-01 3.876798e-01 3.582584e-01 3.711247e-01 1.583746e-01
<GCONST> 1.148959e+02
<TRANSP> 5
 0.000000e+00 1.000000e+00 0.000000e+00 0.000000e+00 0.000000e+00
 0.000000e+00 6.703753e-01 3.296247e-01 0.000000e+00 0.000000e+00
 0.000000e+00 0.000000e+00 6.835851e-01 3.164149e-01 0.000000e+00
 0.000000e+00 0.000000e+00 0.000000e+00 8.864015e-01 1.135984e-01
 0.000000e+00 0.000000e+00 0.000000e+00 0.000000e+00 0.000000e+00
<ENDHMM>
~h "kh"
<BEGINHMM>
<NUMSTATES> 5
<STATE> 2
<MEAN> 39
 -1.236710e+01 -4.579648e+00 -6.051744e+00 -5.444638e+00 -2.521921e+00 -1.463522e+00 -6.738119e+00 -3.653583e+00 -2.554741e+00 -2.754138e+00 -2.927859e+00 -3.180398e+00 4.954107e+01 -4.739625e-01 -2.188835e-01 -1.861981e-01 -6.667848e-02 1.881643e-01 5.909972e-02 -6.793296e-02 1.068472e-01 8.208174e-02 1.536429e-01 1.956324e-01 1.744872e-01 -3.555461e-01 1.130287e-01 4.880806e-02 2.909958e-02 -4.956382e-02 -1.420894e-01 3.610219e-03 -1.565025e-02 -7.430363e-02 -4.367160e-02 -8.588362e-03 -7.775700e-03 -4.045073e-02 1.502452e-01
<VARIANCE> 39
